{
	"layer_0": {
		"weight_0": [
			[
				2.5767059326171875,
				4.629844665527344,
				4.260221481323242,
				2.9246222972869873,
				-0.14316648244857788,
				1.9143537282943726,
				1.706765055656433,
				3.245002508163452,
				0.04853670671582222,
				0.16455717384815216,
				0.6981848478317261,
				-0.09534448385238647
			],
			[
				0.6491879224777222,
				-0.07861525565385818,
				0.7109156847000122,
				0.6378626823425293,
				-0.639136016368866,
				2.3218472003936768,
				2.926919937133789,
				0.6958629488945007,
				4.434293270111084,
				-0.3638162612915039,
				3.9470572471618652,
				-0.12242025136947632
			]
		],
		"weight_1": [
			-0.02719840034842491,
			0.10468264669179916,
			0.020647317171096802,
			-0.008100898005068302,
			0.0,
			-0.002539411187171936,
			0.07919220626354218,
			0.014988887123763561,
			0.14240577816963196,
			-0.16893889009952545,
			0.3011704683303833,
			0.0
		]
	},
	"layer_1": {
		"weight_0": [
			[
				1.1846269369125366,
				0.3148537278175354,
				1.0758233070373535,
				1.2516018152236938,
				1.1904150247573853,
				1.611432671546936
			],
			[
				0.10654871165752411,
				-0.4073904752731323,
				2.651747941970825,
				1.1042357683181763,
				2.1433794498443604,
				4.219088554382324
			],
			[
				1.075569987297058,
				0.02303752489387989,
				1.7196111679077148,
				0.4437496066093445,
				1.4405690431594849,
				2.366795778274536
			],
			[
				1.1483376026153564,
				-0.15020166337490082,
				1.7597081661224365,
				0.8204072713851929,
				1.0540897846221924,
				1.6287647485733032
			],
			[
				0.28973889350891113,
				-0.06372594833374023,
				-0.5674283504486084,
				0.09932374954223633,
				0.5099114179611206,
				-0.2551344037055969
			],
			[
				2.344844341278076,
				-0.44008877873420715,
				1.2149704694747925,
				1.5563814640045166,
				0.5795596837997437,
				0.29968374967575073
			],
			[
				2.47733736038208,
				-0.254367858171463,
				0.8767402768135071,
				1.5914398431777954,
				-0.10741683840751648,
				0.3884182870388031
			],
			[
				1.0258328914642334,
				0.49450966715812683,
				0.829949140548706,
				1.0059938430786133,
				0.9827456474304199,
				2.044497489929199
			],
			[
				4.270242214202881,
				0.0030527205672115088,
				0.3870489001274109,
				2.0040411949157715,
				-1.0808968544006348,
				-1.0980185270309448
			],
			[
				-0.33239826560020447,
				0.28453710675239563,
				-0.051909901201725006,
				-0.35723865032196045,
				-0.508684515953064,
				-0.2255435585975647
			],
			[
				2.8544435501098633,
				-0.4980241060256958,
				-0.15946055948734283,
				1.3464175462722778,
				0.1250055879354477,
				-0.31342270970344543
			],
			[
				0.4298570156097412,
				0.33138877153396606,
				-0.10633265972137451,
				0.18880105018615723,
				0.2776210904121399,
				-0.5009173154830933
			]
		],
		"weight_1": [
			0.5008238554000854,
			-0.012044047936797142,
			-0.5547395348548889,
			0.32563352584838867,
			0.25884705781936646,
			-0.303763210773468
		]
	},
	"layer_2": {
		"weight_0": [
			[
				1.4777276515960693,
				-1.3544483184814453,
				-0.4933939576148987,
				0.9943477511405945
			],
			[
				-0.37195515632629395,
				-0.5057583451271057,
				0.08913147449493408,
				0.1872337907552719
			],
			[
				1.1394031047821045,
				0.21419720351696014,
				-0.5550613403320312,
				-0.2953464090824127
			],
			[
				1.0379520654678345,
				-0.07195643335580826,
				0.3874344825744629,
				0.7353892922401428
			],
			[
				0.031640175729990005,
				1.045217752456665,
				0.032727956771850586,
				-5.18679666519165
			],
			[
				1.5318729877471924,
				0.9433731436729431,
				-0.119739830493927,
				-2.8763723373413086
			]
		],
		"weight_1": [
			0.043241553008556366,
			0.1467410922050476,
			0.0,
			1.197036623954773
		]
	},
	"layer_3": {
		"weight_0": [
			[
				1.9435436725616455
			],
			[
				-4.322096347808838
			],
			[
				0.25777900218963623
			],
			[
				-2.26277494430542
			]
		],
		"weight_1": [
			0.05247896537184715
		]
	}
}