{
	"layer_0": {
		"weight_0": [
			[
				5.589084148406982,
				1.2128318548202515,
				-0.04309296980500221,
				1.0778225660324097,
				0.6623955965042114,
				2.3570291996002197,
				-0.2520233690738678,
				-0.5605301260948181,
				-0.06461596488952637,
				4.415412425994873,
				0.16722656786441803,
				-0.29526346921920776,
				1.5076810121536255,
				-0.06024276465177536
			],
			[
				-0.01827842928469181,
				2.9389944076538086,
				5.599480152130127,
				3.2178056240081787,
				4.950861930847168,
				2.1806962490081787,
				-0.22729724645614624,
				-0.5838035941123962,
				-0.07568633556365967,
				0.20430444180965424,
				5.602023601531982,
				-0.5981287360191345,
				1.7050591707229614,
				0.022731592878699303
			]
		],
		"weight_1": [
			0.02847398817539215,
			0.11554811149835587,
			0.220770463347435,
			0.1265345960855484,
			0.19233618676662445,
			-0.009637684561312199,
			0.0,
			0.0,
			0.0,
			-0.011269469745457172,
			0.34237995743751526,
			0.0,
			-1.673333764076233,
			-0.024233967065811157
		]
	},
	"layer_1": {
		"weight_0": [
			[
				1.0650540590286255,
				2.0131278038024902,
				1.0844744443893433,
				-9.97751522064209,
				-0.24775497615337372,
				-26.09018898010254,
				0.08281159400939941,
				1.0397627353668213,
				-7.43983793258667,
				1.0997148752212524,
				0.6858852505683899,
				-4.649138450622559,
				-2.5198771953582764,
				0.7672764658927917
			],
			[
				1.1812843084335327,
				-0.18723750114440918,
				1.0801891088485718,
				0.0052415053360164165,
				-0.20978161692619324,
				0.25727003812789917,
				-0.1569233387708664,
				1.2141026258468628,
				0.6455867886543274,
				1.3449134826660156,
				1.8518503904342651,
				0.6177326440811157,
				0.675759494304657,
				1.7505146265029907
			],
			[
				1.554754614830017,
				-5.4168009757995605,
				1.1910028457641602,
				0.8478058576583862,
				-0.09651859849691391,
				0.4958352744579315,
				-0.2983807623386383,
				1.5641392469406128,
				1.0990041494369507,
				1.5226203203201294,
				1.906774640083313,
				1.467344045639038,
				1.563422679901123,
				1.9954936504364014
			],
			[
				1.6302835941314697,
				-1.0154643058776855,
				1.1061594486236572,
				0.5377167463302612,
				-0.23710647225379944,
				0.24029453098773956,
				-0.0509028360247612,
				1.6408287286758423,
				0.24264664947986603,
				1.796039342880249,
				1.6029484272003174,
				0.9696338772773743,
				0.6229640245437622,
				1.8420348167419434
			],
			[
				1.922899603843689,
				-2.5134994983673096,
				1.7967208623886108,
				0.0803399309515953,
				-0.09063027054071426,
				-0.03561697155237198,
				0.054691895842552185,
				2.071120500564575,
				1.0751729011535645,
				1.6076053380966187,
				1.3761082887649536,
				1.5391407012939453,
				1.2439719438552856,
				1.823538064956665
			],
			[
				0.8998430967330933,
				0.3497893512248993,
				1.5963332653045654,
				-0.0009414009982720017,
				0.2690756618976593,
				-1.040027141571045,
				0.4101196527481079,
				1.2471122741699219,
				-0.3172358572483063,
				1.4826217889785767,
				1.5122982263565063,
				-0.07685382664203644,
				0.44946229457855225,
				1.0323960781097412
			],
			[
				0.27902692556381226,
				-0.21201619505882263,
				0.21563535928726196,
				0.4224749207496643,
				0.11114335060119629,
				0.41802382469177246,
				0.19499099254608154,
				0.10669434070587158,
				-0.31870579719543457,
				-0.3880392909049988,
				-0.30286502838134766,
				0.2681238055229187,
				0.28749674558639526,
				-0.14867672324180603
			],
			[
				-0.13259238004684448,
				0.1598760485649109,
				-0.20472541451454163,
				0.40725451707839966,
				0.31878650188446045,
				-0.08890882134437561,
				0.4578808546066284,
				-0.12658590078353882,
				-0.24110402166843414,
				-0.1260230541229248,
				-0.23596526682376862,
				0.35419148206710815,
				0.09731918573379517,
				-0.2904050052165985
			],
			[
				-0.4161977171897888,
				-0.3602690100669861,
				-0.4441455602645874,
				0.20129930973052979,
				-0.11526420712471008,
				-0.21626608073711395,
				0.3390181064605713,
				-0.44497552514076233,
				0.3295244574546814,
				0.364066481590271,
				-0.36349600553512573,
				0.29916834831237793,
				0.1287682056427002,
				-0.33247852325439453
			],
			[
				1.2699145078659058,
				1.9766459465026855,
				0.5336060523986816,
				-5.0237956047058105,
				-0.1299978345632553,
				-8.737581253051758,
				-0.43896862864494324,
				1.0567457675933838,
				-3.1169450283050537,
				0.8312690854072571,
				1.136269211769104,
				-2.5665552616119385,
				-1.4603350162506104,
				0.8240902423858643
			],
			[
				2.0952165126800537,
				-4.041095733642578,
				1.586466908454895,
				0.7807778120040894,
				-0.21701234579086304,
				0.7248497605323792,
				-0.45029252767562866,
				1.7974345684051514,
				1.049168586730957,
				2.0477795600891113,
				1.4222967624664307,
				1.1036615371704102,
				1.453650951385498,
				1.2930412292480469
			],
			[
				0.1531239151954651,
				0.308457612991333,
				-0.26148009300231934,
				-0.07486492395401001,
				0.4053770899772644,
				-0.24800677597522736,
				0.08483231067657471,
				0.06645089387893677,
				0.35742950439453125,
				0.24187815189361572,
				-0.08648043870925903,
				-0.3388895094394684,
				0.45682376623153687,
				-0.035340964794158936
			],
			[
				0.6809545159339905,
				8.930569648742676,
				0.6571228504180908,
				-0.32887208461761475,
				0.4423830211162567,
				-3.3272337913513184,
				-0.07599031925201416,
				0.4155309498310089,
				0.7212497591972351,
				0.5212991237640381,
				0.276020348072052,
				-0.2209397405385971,
				0.8207465410232544,
				1.1286197900772095
			],
			[
				0.4167279601097107,
				-0.33438003063201904,
				-0.02302388846874237,
				-0.10642705112695694,
				-0.3098388910293579,
				0.3171396851539612,
				0.36340776085853577,
				0.02492033876478672,
				0.42801955342292786,
				0.04413223639130592,
				-0.4257354438304901,
				0.0869435966014862,
				0.019311320036649704,
				-0.04457113891839981
			]
		],
		"weight_1": [
			0.11493702977895737,
			-0.1871299147605896,
			-0.025845235213637352,
			-0.0025653906632214785,
			-0.003461461514234543,
			0.3879703879356384,
			-0.030674736946821213,
			0.1149732768535614,
			0.047940563410520554,
			0.11216474324464798,
			0.11419593542814255,
			0.040000494569540024,
			0.12037569284439087,
			0.1225021481513977
		]
	},
	"layer_2": {
		"weight_0": [
			[
				1.7937935590744019
			],
			[
				-3.638425350189209
			],
			[
				1.312782883644104
			],
			[
				-5.464548587799072
			],
			[
				-0.48653993010520935
			],
			[
				-11.3259859085083
			],
			[
				-0.04367468133568764
			],
			[
				1.5890651941299438
			],
			[
				-3.33686900138855
			],
			[
				1.964931607246399
			],
			[
				1.8768552541732788
			],
			[
				-3.370650291442871
			],
			[
				-4.682497978210449
			],
			[
				1.6813929080963135
			]
		],
		"weight_1": [
			0.12226663529872894
		]
	}
}