{
	"layer_0": {
		"weight_0": [
			[
				3.029808759689331,
				2.070985794067383,
				3.8034396171569824,
				-0.13144877552986145,
				4.07465124130249,
				0.010927052237093449,
				2.1365885734558105,
				-0.14977321028709412,
				3.3195505142211914,
				0.016496965661644936,
				0.7410694360733032,
				-0.22511182725429535,
				-0.48702237010002136,
				-24.785213470458984
			],
			[
				1.1367931365966797,
				1.2643965482711792,
				0.039477284997701645,
				-0.4662878215312958,
				0.8246797919273376,
				2.050288200378418,
				0.9086978435516357,
				-0.08376967906951904,
				0.5154176354408264,
				1.3466986417770386,
				0.4233112633228302,
				2.459120035171509,
				0.09665240347385406,
				0.47510430216789246
			]
		],
		"weight_1": [
			0.03578844666481018,
			-0.07553523033857346,
			-0.022828146815299988,
			0.0,
			0.03566182032227516,
			-0.006083289626985788,
			-0.007952114567160606,
			0.0,
			0.09889562427997589,
			-0.0027526975609362125,
			-0.46869444847106934,
			0.22591522336006165,
			-0.09798462688922882,
			0.031589899212121964
		]
	},
	"layer_1": {
		"weight_0": [
			[
				0.20684224367141724,
				1.335709810256958,
				1.008265733718872,
				1.6384003162384033,
				-0.49138203263282776,
				-0.2705778479576111,
				1.4817590713500977,
				-0.654299259185791
			],
			[
				0.5490230917930603,
				1.2001665830612183,
				0.717740535736084,
				1.1063956022262573,
				-0.15994049608707428,
				-0.15841445326805115,
				1.2114167213439941,
				0.41935521364212036
			],
			[
				0.27413421869277954,
				1.3350681066513062,
				1.5900914669036865,
				1.3172454833984375,
				-1.5588300228118896,
				-0.29381683468818665,
				1.574931025505066,
				-3.2262017726898193
			],
			[
				0.08450895547866821,
				-0.4376545250415802,
				0.014230728149414062,
				0.46878790855407715,
				0.24331218004226685,
				0.17306137084960938,
				0.514332115650177,
				-0.4667493999004364
			],
			[
				0.35746684670448303,
				1.7003358602523804,
				1.7760610580444336,
				1.35660982131958,
				-1.0195783376693726,
				0.3054584264755249,
				1.0165883302688599,
				-1.3245855569839478
			],
			[
				-5.8819708824157715,
				0.488059401512146,
				-2.2429752349853516,
				0.7705777883529663,
				1.0831588506698608,
				0.2917068302631378,
				0.4791833162307739,
				0.6631941795349121
			],
			[
				-0.21556183695793152,
				1.3439757823944092,
				0.970643162727356,
				1.3407500982284546,
				0.39958903193473816,
				0.268411785364151,
				0.6369451284408569,
				-0.13125324249267578
			],
			[
				-0.4320829510688782,
				0.3152576684951782,
				0.11131483316421509,
				0.2668321132659912,
				0.09999150037765503,
				-0.4850459098815918,
				0.04509079456329346,
				-0.42904752492904663
			],
			[
				0.3073124885559082,
				0.8251017928123474,
				0.8947991132736206,
				1.387803077697754,
				-1.0849368572235107,
				-0.021383602172136307,
				1.5363998413085938,
				-1.6135218143463135
			],
			[
				-4.518712997436523,
				0.37834662199020386,
				-2.625969171524048,
				0.8087988495826721,
				0.540502667427063,
				0.06548327207565308,
				0.10873174667358398,
				0.8269718885421753
			],
			[
				1.0124363899230957,
				1.168099284172058,
				0.3943045735359192,
				0.4293656647205353,
				0.4401952624320984,
				-0.00114265619777143,
				0.19634346663951874,
				6.1700439453125
			],
			[
				-4.0587615966796875,
				1.0299383401870728,
				-4.05340051651001,
				0.7937524318695068,
				1.2062236070632935,
				-0.43399012088775635,
				0.5486814975738525,
				1.031855821609497
			],
			[
				-0.16440555453300476,
				0.21940407156944275,
				0.19330209493637085,
				-0.3746686577796936,
				0.36618226766586304,
				0.32943564653396606,
				-0.4137033522129059,
				0.1542241871356964
			],
			[
				0.32951658964157104,
				-2.0939555168151855,
				-0.2901172339916229,
				-2.295742988586426,
				1.4238070249557495,
				-0.1683020293712616,
				-2.391176700592041,
				1.9695113897323608
			]
		],
		"weight_1": [
			-0.3194943070411682,
			0.09690392017364502,
			0.175947368144989,
			0.12806186079978943,
			0.03084542788565159,
			-0.04647330194711685,
			0.1302133947610855,
			0.07058645039796829
		]
	},
	"layer_2": {
		"weight_0": [
			[
				1.1063767671585083,
				-1.8362929821014404,
				-1.6213512420654297,
				1.3200713396072388
			],
			[
				0.681310772895813,
				1.4627795219421387,
				1.3327693939208984,
				0.7717657089233398
			],
			[
				-5.1364359855651855,
				-3.241769552230835,
				-3.5526506900787354,
				-2.4718587398529053
			],
			[
				0.6429408192634583,
				1.6647400856018066,
				1.6617159843444824,
				0.9652525186538696
			],
			[
				1.0151569843292236,
				-1.3564839363098145,
				-2.0272011756896973,
				1.5857146978378296
			],
			[
				0.41424643993377686,
				-0.048738643527030945,
				-0.22508575022220612,
				0.3451492190361023
			],
			[
				0.42309051752090454,
				1.747571349143982,
				1.4446710348129272,
				-0.32537487149238586
			],
			[
				0.28040748834609985,
				-2.899334192276001,
				-2.2982542514801025,
				2.3968327045440674
			]
		],
		"weight_1": [
			0.09405729174613953,
			0.22981040179729462,
			0.22268901765346527,
			0.32285982370376587
		]
	},
	"layer_3": {
		"weight_0": [
			[
				-1.0530027151107788
			],
			[
				2.6271228790283203
			],
			[
				2.3325490951538086
			],
			[
				-2.605767250061035
			]
		],
		"weight_1": [
			0.2692538797855377
		]
	}
}