{
	"layer_0": {
		"weight_0": [
			[
				5.867292881011963,
				6.010656833648682,
				6.433150768280029,
				6.184443950653076,
				1.7452495098114014,
				-0.13857463002204895,
				0.24502180516719818,
				0.33324772119522095,
				2.1616499423980713,
				-0.14182066917419434,
				-0.453231543302536,
				1.6701034307479858,
				3.907116174697876,
				3.5130808353424072
			],
			[
				0.3402236998081207,
				0.19572457671165466,
				0.007341462187469006,
				0.31962528824806213,
				1.6506699323654175,
				-0.09167546033859253,
				8.496551513671875,
				8.674577713012695,
				4.129277229309082,
				-0.5021641850471497,
				-0.04225265979766846,
				4.934410572052002,
				0.5751192569732666,
				1.424620270729065
			]
		],
		"weight_1": [
			0.002006772207096219,
			0.0018154495628550649,
			0.005392041057348251,
			0.0021041505970060825,
			-1.282014012336731,
			0.0,
			0.1909855157136917,
			0.17014582455158234,
			-0.2761431634426117,
			0.0,
			0.0,
			-0.06981071829795837,
			-0.05881212279200554,
			-0.0423273891210556
		]
	},
	"layer_1": {},
	"layer_2": {},
	"layer_3": {},
	"layer_4": {
		"weight_0": [
			[
				-4.518143653869629,
				1.6717808246612549,
				-0.44654929637908936,
				1.5428775548934937,
				1.7041139602661133,
				1.033374309539795,
				-0.4771905839443207,
				0.9898648858070374,
				-0.43087828159332275,
				-8.494781494140625,
				-2.5066254138946533,
				1.314300537109375,
				-0.3533974885940552,
				-0.254097580909729
			],
			[
				-6.467855453491211,
				0.8348622918128967,
				-0.3423306941986084,
				1.7168649435043335,
				0.8795634508132935,
				1.606410264968872,
				-0.22992342710494995,
				1.3409843444824219,
				0.12721304595470428,
				-12.375527381896973,
				-3.3987207412719727,
				1.5771325826644897,
				-0.16582556068897247,
				-0.14519479870796204
			],
			[
				0.8372209072113037,
				1.1499005556106567,
				-0.030390620231628418,
				0.8054895401000977,
				1.3388381004333496,
				1.2058957815170288,
				-0.4987052083015442,
				1.1238514184951782,
				-0.4158208668231964,
				-0.019619308412075043,
				0.06409560143947601,
				0.7995102405548096,
				0.33121258020401,
				-0.2336532473564148
			],
			[
				2.53816819190979,
				2.58508038520813,
				-0.5239745378494263,
				-6.344656467437744,
				2.2189061641693115,
				2.8335165977478027,
				0.18438448011875153,
				2.5741474628448486,
				0.26147082448005676,
				1.489283800125122,
				3.1736605167388916,
				2.0939791202545166,
				-0.4652990698814392,
				-0.5177526473999023
			],
			[
				0.8781047463417053,
				1.8205220699310303,
				0.5135310292243958,
				-0.7929955124855042,
				1.6248109340667725,
				2.2792227268218994,
				-0.0806848555803299,
				2.1513991355895996,
				-0.13917866349220276,
				0.18139873445034027,
				1.3135870695114136,
				2.2099342346191406,
				-0.17805558443069458,
				0.20074093341827393
			],
			[
				1.1699373722076416,
				2.2132375240325928,
				0.4054752588272095,
				-0.9872837662696838,
				2.186880350112915,
				1.6708317995071411,
				0.9404333233833313,
				2.4269070625305176,
				0.4277471601963043,
				0.9904463887214661,
				1.4689685106277466,
				2.155845880508423,
				-0.49192488193511963,
				-0.41292691230773926
			],
			[
				-1.6957337856292725,
				1.1320788860321045,
				-0.13949131965637207,
				0.8625791668891907,
				1.5652174949645996,
				1.6003577709197998,
				0.5778254270553589,
				1.8479989767074585,
				-0.15985611081123352,
				-2.7790699005126953,
				-0.2673611044883728,
				1.127168893814087,
				0.40978342294692993,
				-0.263675332069397
			]
		],
		"weight_1": [
			0.554614782333374,
			-0.693935215473175,
			-0.025298183783888817,
			-1.7724729776382446,
			-0.6625545024871826,
			-0.7372899055480957,
			1.5927969217300415,
			-0.6967718601226807,
			2.236370325088501,
			0.1594841629266739,
			1.1535604000091553,
			-0.6602467894554138,
			-0.01897358149290085,
			0.0
		]
	},
	"layer_5": {
		"weight_0": [
			[
				-3.8957090377807617
			],
			[
				1.9797403812408447
			],
			[
				0.558062732219696
			],
			[
				-4.5301337242126465
			],
			[
				1.6727544069290161
			],
			[
				1.7223397493362427
			],
			[
				5.203624725341797
			],
			[
				1.965323805809021
			],
			[
				6.307895183563232
			],
			[
				-8.763398170471191
			],
			[
				-4.304729461669922
			],
			[
				1.6552542448043823
			],
			[
				-0.3749389052391052
			],
			[
				0.5959009528160095
			]
		],
		"weight_1": [
			-1.457549810409546
		]
	}
}