{
	"layer_0": {
		"weight_0": [
			[
				6.241388320922852,
				6.38475227355957,
				6.79501485824585,
				6.5463080406188965,
				1.8060548305511475,
				-0.13857463002204895,
				0.1323196291923523,
				0.22054719924926758,
				2.123814821243286,
				-0.14182066917419434,
				-0.453231543302536,
				1.6538541316986084,
				4.004790306091309,
				3.610165596008301
			],
			[
				0.21132048964500427,
				0.06683745980262756,
				0.007451775949448347,
				0.19965413212776184,
				1.7574905157089233,
				-0.09167546033859253,
				9.111061096191406,
				9.289087295532227,
				4.131688594818115,
				-0.5021641850471497,
				-0.04225265979766846,
				5.158921241760254,
				0.3610416352748871,
				1.2071173191070557
			]
		],
		"weight_1": [
			-0.002781718270853162,
			-0.0011447211727499962,
			0.0022786769550293684,
			-0.0018122128676623106,
			-1.3524149656295776,
			0.0,
			0.24798282980918884,
			0.2271430492401123,
			-0.2849283218383789,
			0.0,
			0.0,
			-0.04910667985677719,
			-0.055071327835321426,
			-0.07361162453889847
		]
	},
	"layer_1": {},
	"layer_2": {},
	"layer_3": {},
	"layer_4": {
		"weight_0": [
			[
				-5.102145671844482,
				1.6842694282531738,
				-0.44654929637908936,
				1.720567226409912,
				1.7131373882293701,
				1.043083667755127,
				-0.44805240631103516,
				1.0021862983703613,
				-0.40557193756103516,
				-9.626896858215332,
				-2.5369582176208496,
				1.3230361938476562,
				-0.3533974885940552,
				-0.254097580909729
			],
			[
				-7.164750576019287,
				0.8501949906349182,
				-0.3423306941986084,
				1.8947242498397827,
				0.8914543390274048,
				1.619006633758545,
				-0.1979522556066513,
				1.3561686277389526,
				0.15529246628284454,
				-14.187134742736816,
				-3.4422037601470947,
				1.5887541770935059,
				-0.16582556068897247,
				-0.14519479870796204
			],
			[
				1.0473649501800537,
				1.1156017780303955,
				-0.030390620231628418,
				0.7744370102882385,
				1.3014798164367676,
				1.1690752506256104,
				-0.5198411345481873,
				1.0894358158111572,
				-0.4382840692996979,
				-0.09320765733718872,
				-0.07581468671560287,
				0.7619500160217285,
				0.33121258020401,
				-0.2336532473564148
			],
			[
				2.590291738510132,
				2.5733137130737305,
				-0.5239745378494263,
				-7.34016227722168,
				2.205280303955078,
				2.819045305252075,
				0.17972151935100555,
				2.5624217987060547,
				0.2578944265842438,
				1.38356351852417,
				3.1247782707214355,
				2.0806684494018555,
				-0.4652990698814392,
				-0.5177526473999023
			],
			[
				0.9880059361457825,
				1.7590807676315308,
				0.5135310292243958,
				-0.6994811296463013,
				1.560198187828064,
				2.215102434158325,
				-0.12946449220180511,
				2.0898478031158447,
				-0.1881147176027298,
				0.09368859976530075,
				1.3575330972671509,
				2.145153760910034,
				-0.17805558443069458,
				0.20074093341827393
			],
			[
				1.2459006309509277,
				2.1752915382385254,
				0.4054752588272095,
				-1.018774390220642,
				2.145880699157715,
				1.6302340030670166,
				0.9143597483634949,
				2.3888792991638184,
				0.40192466974258423,
				0.8870608806610107,
				1.465584397315979,
				2.114684820175171,
				-0.49192488193511963,
				-0.41292691230773926
			],
			[
				-1.6623811721801758,
				1.104392647743225,
				-0.13949131965637207,
				1.0492055416107178,
				1.5339502096176147,
				1.569839596748352,
				0.5664864182472229,
				1.820149302482605,
				-0.1741170883178711,
				-2.859863758087158,
				-0.184970885515213,
				1.0956348180770874,
				0.40978342294692993,
				-0.263675332069397
			]
		],
		"weight_1": [
			0.5395204424858093,
			-0.6963032484054565,
			-0.025298183783888817,
			-1.885416030883789,
			-0.6503742933273315,
			-0.7479244470596313,
			1.5309447050094604,
			-0.6969829201698303,
			2.173673152923584,
			0.10523419082164764,
			1.0521447658538818,
			-0.6407976746559143,
			-0.01897358149290085,
			0.0
		]
	},
	"layer_5": {
		"weight_0": [
			[
				-3.3292272090911865
			],
			[
				1.9311139583587646
			],
			[
				0.558062732219696
			],
			[
				-3.649834394454956
			],
			[
				1.6224387884140015
			],
			[
				1.6750662326812744
			],
			[
				4.965817451477051
			],
			[
				1.916992425918579
			],
			[
				6.049087047576904
			],
			[
				-7.366539478302002
			],
			[
				-3.993208885192871
			],
			[
				1.6051814556121826
			],
			[
				-0.3749389052391052
			],
			[
				0.5959009528160095
			]
		],
		"weight_1": [
			-1.5145528316497803
		]
	}
}