{
	"layer_0": {
		"weight_0": [
			[
				1.52058744430542,
				0.18841828405857086,
				-0.2533048689365387,
				-0.051380813121795654,
				0.3228212594985962,
				2.794973850250244,
				2.4697957038879395,
				0.170554518699646,
				1.9341325759887695,
				3.283602476119995,
				0.013726145960390568,
				-0.03826701641082764,
				-0.3808111250400543,
				2.408132791519165
			],
			[
				2.031327962875366,
				5.043546199798584,
				0.019331101328134537,
				4.654211044311523,
				3.8646581172943115,
				0.31618836522102356,
				0.4667733609676361,
				0.1539590209722519,
				1.4250609874725342,
				0.2919618785381317,
				-0.00508903618901968,
				-0.43387794494628906,
				-0.5780296921730042,
				2.1411118507385254
			]
		],
		"weight_1": [
			-0.18901322782039642,
			0.12407752871513367,
			-0.02265547215938568,
			0.05656922981142998,
			0.14587032794952393,
			-0.0073117222636938095,
			-0.015437684021890163,
			-0.2282237410545349,
			-0.02855534665286541,
			-0.004915878642350435,
			-0.014081842266023159,
			0.0,
			0.0,
			-2.4012911319732666
		]
	},
	"layer_1": {
		"weight_0": [
			[
				-0.43796244263648987,
				0.0783391073346138,
				0.6946344971656799,
				1.1911849975585938,
				0.18796563148498535,
				0.16801759600639343
			],
			[
				-0.2514258623123169,
				0.24132415652275085,
				2.068734645843506,
				1.9585459232330322,
				1.0629892349243164,
				1.4387259483337402
			],
			[
				0.396831750869751,
				-0.23550155758857727,
				0.0002720705233514309,
				-0.389430969953537,
				0.4491389989852905,
				0.17986708879470825
			],
			[
				0.003804997308179736,
				0.6791987419128418,
				1.147279977798462,
				1.8876696825027466,
				1.1557197570800781,
				1.5248138904571533
			],
			[
				-0.23500671982765198,
				-0.13633869588375092,
				1.3433010578155518,
				1.701383113861084,
				0.7330039739608765,
				0.36732184886932373
			],
			[
				0.39859336614608765,
				-0.14061126112937927,
				0.9595435261726379,
				0.5024594664573669,
				-2.197448968887329,
				-1.1352388858795166
			],
			[
				-0.5560541749000549,
				-0.1307857632637024,
				0.3193674385547638,
				0.7124161720275879,
				-1.374393105506897,
				-0.6659628748893738
			],
			[
				-0.1346607804298401,
				-0.4597557485103607,
				-0.24079212546348572,
				-0.2104582041501999,
				-0.5127834677696228,
				-0.3879512846469879
			],
			[
				-0.39473018050193787,
				0.7059527039527893,
				1.0501368045806885,
				0.8607475757598877,
				-0.26730647683143616,
				0.07230140268802643
			],
			[
				0.2979673743247986,
				-0.5692874193191528,
				0.8899889588356018,
				0.6942968368530273,
				-2.802812337875366,
				-0.9193788170814514
			],
			[
				-0.18527546525001526,
				-0.48922812938690186,
				-0.24686720967292786,
				-0.1612221896648407,
				-0.10253018140792847,
				0.5181777477264404
			],
			[
				-0.3742327094078064,
				0.09148383140563965,
				0.37108922004699707,
				-0.19755002856254578,
				0.008933842182159424,
				-0.035869598388671875
			],
			[
				0.14407938718795776,
				-0.17513838410377502,
				-0.3789157271385193,
				-0.49000224471092224,
				0.3673499822616577,
				0.06479984521865845
			],
			[
				0.5145618915557861,
				-2.550915479660034,
				3.416424512863159,
				3.387995719909668,
				-0.988603413105011,
				0.026468120515346527
			]
		],
		"weight_1": [
			-0.015808068215847015,
			1.0619221925735474,
			-0.06424379348754883,
			-0.3975260555744171,
			0.10271936655044556,
			0.4952731132507324
		]
	},
	"layer_2": {
		"weight_0": [
			[
				-0.41323381662368774,
				-0.362212598323822,
				-0.043829094618558884,
				0.34175631403923035
			],
			[
				3.946945905685425,
				2.882070541381836,
				0.5329251289367676,
				3.0387494564056396
			],
			[
				0.8855878114700317,
				0.8500924110412598,
				-1.1598097085952759,
				1.5058923959732056
			],
			[
				1.5955530405044556,
				0.8233697414398193,
				-0.6656925082206726,
				1.5221716165542603
			],
			[
				-2.0403389930725098,
				-1.6672981977462769,
				4.175601005554199,
				-1.4829102754592896
			],
			[
				-2.053112268447876,
				-2.192608118057251,
				0.6648658514022827,
				-3.2838306427001953
			]
		],
		"weight_1": [
			-0.721019983291626,
			1.1178481578826904,
			-1.8905353546142578,
			-0.7202497124671936
		]
	},
	"layer_3": {
		"weight_0": [
			[
				1.8726354837417603
			],
			[
				2.8188891410827637
			],
			[
				-7.972991943359375
			],
			[
				2.11289119720459
			]
		],
		"weight_1": [
			-0.7130257487297058
		]
	}
}