{
	"layer_0": {
		"weight_0": [
			[
				-0.1348479688167572,
				0.22923871874809265,
				-0.13350912928581238,
				-0.14062052965164185,
				3.86722993850708,
				2.662914276123047,
				5.308260917663574,
				1.6205805540084839,
				1.8257850408554077,
				-0.27439072728157043,
				5.365226745605469,
				1.001689076423645,
				1.7563880681991577,
				3.923187017440796
			],
			[
				-0.23908740282058716,
				6.148665904998779,
				-0.41125786304473877,
				-0.6104466915130615,
				0.030806468799710274,
				0.5757910013198853,
				-0.1105361208319664,
				3.73681640625,
				1.452343225479126,
				-0.5429614186286926,
				0.007400082424283028,
				5.340323448181152,
				2.7525076866149902,
				0.11219776421785355
			]
		],
		"weight_1": [
			0.0,
			-0.05290035903453827,
			0.0,
			0.0,
			-0.004298240877687931,
			-0.2727905511856079,
			0.11341539770364761,
			0.2239333540201187,
			-0.04635711386799812,
			0.0,
			-0.0014149692142382264,
			0.6489484310150146,
			0.19922271370887756,
			-0.005905965808779001
		]
	},
	"layer_1": {
		"weight_0": [
			[
				0.18204832077026367,
				0.3015003800392151,
				0.35240310430526733,
				-0.16077089309692383,
				0.13259953260421753,
				0.09427392482757568,
				-0.2469959408044815,
				-0.1383768916130066,
				-0.12242996692657471,
				-0.2390875220298767,
				-0.029736340045928955,
				0.36602407693862915,
				0.12006103992462158,
				0.4475403428077698
			],
			[
				1.2769827842712402,
				1.2199640274047852,
				1.1677387952804565,
				1.5003867149353027,
				1.507519245147705,
				-0.3056482672691345,
				0.15509717166423798,
				-7.735058307647705,
				-0.08215504884719849,
				1.5815622806549072,
				1.8647217750549316,
				2.2043676376342773,
				1.7746926546096802,
				-3.987236261367798
			],
			[
				0.038266539573669434,
				-0.39327096939086914,
				0.2780075669288635,
				0.4559154510498047,
				0.3037179708480835,
				0.39917999505996704,
				0.43615812063217163,
				0.09292912483215332,
				0.14225906133651733,
				-0.4594273269176483,
				0.09233754873275757,
				0.2075679898262024,
				0.18873000144958496,
				0.32091236114501953
			],
			[
				0.011373698711395264,
				0.4042547345161438,
				0.04120153188705444,
				0.30850839614868164,
				0.2734906077384949,
				-0.18951106071472168,
				0.09452414512634277,
				0.38246434926986694,
				-0.049336642026901245,
				-0.02382698655128479,
				0.06050926446914673,
				-0.39669179916381836,
				0.09098303318023682,
				-0.37428486347198486
			],
			[
				1.0533920526504517,
				1.2416489124298096,
				1.4489006996154785,
				0.7722510099411011,
				1.1130186319351196,
				-0.14169731736183167,
				-6.596856594085693,
				0.9781618714332581,
				-0.2761497497558594,
				1.5193661451339722,
				-1.8750232458114624,
				-1.5473726987838745,
				1.423694372177124,
				0.9527273178100586
			],
			[
				0.610791027545929,
				0.9612984657287598,
				1.3770315647125244,
				0.9946960806846619,
				0.6475118398666382,
				-0.19773705303668976,
				-0.9545749425888062,
				0.9621779918670654,
				0.20111268758773804,
				1.3767974376678467,
				0.8303091526031494,
				0.08252477645874023,
				1.1854164600372314,
				0.4202682673931122
			],
			[
				1.4681817293167114,
				1.346415638923645,
				1.1277178525924683,
				1.199816107749939,
				0.9079856276512146,
				-0.28765353560447693,
				-11.927848815917969,
				1.784846305847168,
				0.05757337808609009,
				0.8749052882194519,
				-10.610860824584961,
				-5.353777885437012,
				1.5695254802703857,
				1.9394519329071045
			],
			[
				1.2920221090316772,
				1.4710562229156494,
				1.20408034324646,
				0.7102237939834595,
				1.7828155755996704,
				0.32439324259757996,
				0.1035151258111,
				-1.688532829284668,
				-0.32718923687934875,
				1.7540156841278076,
				0.7303028106689453,
				1.430405616760254,
				1.2043132781982422,
				-0.9381594061851501
			],
			[
				1.0921096801757812,
				1.3627890348434448,
				1.2352107763290405,
				1.1760365962982178,
				1.1735241413116455,
				0.05021696165204048,
				-0.2684438228607178,
				0.3873641788959503,
				0.03433695435523987,
				1.2128714323043823,
				0.6068776249885559,
				0.7941224575042725,
				0.8715934157371521,
				0.29421326518058777
			],
			[
				-0.0746452808380127,
				-0.047178417444229126,
				0.21877580881118774,
				0.3224494457244873,
				-0.07129886746406555,
				-0.09172260761260986,
				0.4171871542930603,
				0.16679918766021729,
				-0.0030686259269714355,
				-0.09642067551612854,
				-0.41366392374038696,
				-0.4628176689147949,
				0.06883805990219116,
				-0.3292219638824463
			],
			[
				1.492857813835144,
				0.8583090901374817,
				1.3419978618621826,
				0.6335408687591553,
				0.6636808514595032,
				0.07556086778640747,
				-17.75647735595703,
				1.6058552265167236,
				-0.32036009430885315,
				1.437652587890625,
				-11.892718315124512,
				-4.568119049072266,
				1.258286476135254,
				1.3836156129837036
			],
			[
				1.6598278284072876,
				1.3758673667907715,
				0.9968162775039673,
				1.0193898677825928,
				0.9436280131340027,
				-0.1807953119277954,
				0.8051117062568665,
				-2.4409048557281494,
				-0.24237214028835297,
				1.445920467376709,
				1.3252086639404297,
				1.7909992933273315,
				1.2379446029663086,
				-0.9303392767906189
			],
			[
				1.3021842241287231,
				1.246825933456421,
				1.254418134689331,
				1.3253707885742188,
				0.9937364459037781,
				-0.1310887336730957,
				0.5474457144737244,
				-0.5727198719978333,
				-0.38667285442352295,
				1.4492005109786987,
				0.8299732208251953,
				0.8206894397735596,
				1.103845238685608,
				-0.011584864929318428
			],
			[
				1.421099305152893,
				1.0260854959487915,
				1.4378255605697632,
				1.0935242176055908,
				1.461898684501648,
				-0.06812209635972977,
				-4.0990071296691895,
				0.861226499080658,
				0.43535876274108887,
				1.0416104793548584,
				-2.2765262126922607,
				-2.4494423866271973,
				0.7956751585006714,
				1.2033746242523193
			]
		],
		"weight_1": [
			-0.004588464740663767,
			-0.0031963021028786898,
			-0.032882094383239746,
			-0.17308077216148376,
			-0.005047717597335577,
			-0.015489713288843632,
			0.9912382960319519,
			-1.96903657913208,
			0.0,
			-0.0037128315307199955,
			1.074807047843933,
			0.7170136570930481,
			0.007541346363723278,
			-0.8760191798210144
		]
	},
	"layer_2": {
		"weight_0": [
			[
				1.2444487810134888
			],
			[
				1.4229711294174194
			],
			[
				1.0800530910491943
			],
			[
				1.140787959098816
			],
			[
				1.1994473934173584
			],
			[
				-0.429054856300354
			],
			[
				-8.79397201538086
			],
			[
				-3.688734769821167
			],
			[
				0.19647479057312012
			],
			[
				1.5775341987609863
			],
			[
				-2.765439987182617
			],
			[
				-2.718921184539795
			],
			[
				1.3961901664733887
			],
			[
				-4.210062503814697
			]
		],
		"weight_1": [
			0.03042014315724373
		]
	}
}