{
	"layer_0": {
		"weight_0": [
			[
				-0.5063282251358032,
				-0.5221887826919556,
				4.577294826507568,
				4.464271068572998,
				0.0858771950006485,
				1.0316554307937622,
				5.876004695892334,
				5.93909215927124,
				0.21853291988372803,
				-0.3537178635597229,
				-0.011153697967529297,
				6.968888282775879,
				0.06819897890090942,
				-0.3380142152309418,
				0.00432093208655715,
				0.29740411043167114
			],
			[
				-0.11733773350715637,
				-0.5426293015480042,
				0.3862886130809784,
				0.6222989559173584,
				3.7657699584960938,
				3.4519009590148926,
				0.6015156507492065,
				0.06302915513515472,
				4.9191741943359375,
				5.295854568481445,
				-0.4774565100669861,
				0.04300609230995178,
				-0.6072429418563843,
				-0.23441806435585022,
				-0.2720469832420349,
				5.230871200561523
			]
		],
		"weight_1": [
			0.0,
			0.0,
			-0.0004159183008596301,
			-0.0004794775741174817,
			0.16987164318561554,
			0.14837943017482758,
			0.07131870090961456,
			0.06977309286594391,
			0.25297895073890686,
			0.35196879506111145,
			0.0,
			-0.007255812641233206,
			-0.07050763815641403,
			0.0,
			-0.009522005915641785,
			-0.12279210239648819
		]
	},
	"layer_1": {},
	"layer_2": {},
	"layer_3": {},
	"layer_4": {
		"weight_0": [
			[
				0.3813122510910034,
				-0.3775871992111206,
				0.4553567171096802,
				-0.3219262361526489,
				0.1537621021270752,
				0.08785903453826904,
				0.19901525974273682,
				0.47677886486053467,
				0.46708250045776367,
				-0.21664690971374512,
				0.00514066219329834,
				0.005656719207763672,
				-0.05846202373504639,
				0.045944929122924805,
				-0.4647566080093384,
				0.3494234085083008
			],
			[
				1.587651014328003,
				0.9860520958900452,
				1.4598281383514404,
				1.2391884326934814,
				1.6519538164138794,
				-5.403609752655029,
				1.2793842554092407,
				1.5073500871658325,
				1.7299590110778809,
				-1.096567988395691,
				1.4446837902069092,
				1.1481637954711914,
				1.6363710165023804,
				0.9487621784210205,
				-2.6909196376800537,
				-0.4720459580421448
			],
			[
				1.1782642602920532,
				1.711848497390747,
				1.7093647718429565,
				1.6805890798568726,
				-3.5822012424468994,
				0.8998967409133911,
				1.4999516010284424,
				-2.0996110439300537,
				1.1375406980514526,
				1.0957282781600952,
				1.2828322649002075,
				1.309712290763855,
				0.8811727166175842,
				1.2710933685302734,
				1.0656192302703857,
				-0.1847948133945465
			],
			[
				1.6221824884414673,
				1.4741454124450684,
				1.4693583250045776,
				1.210106611251831,
				1.7130342721939087,
				-8.105083465576172,
				1.3218059539794922,
				1.9660084247589111,
				1.055283546447754,
				-2.5004079341888428,
				1.7386388778686523,
				1.6867351531982422,
				1.6294180154800415,
				1.3380247354507446,
				-4.533997058868408,
				0.46083322167396545
			],
			[
				1.831377625465393,
				1.3696404695510864,
				1.115679144859314,
				1.5851994752883911,
				-7.331109523773193,
				1.129523515701294,
				1.7132349014282227,
				-3.692044734954834,
				1.542250633239746,
				1.7557547092437744,
				0.8871753811836243,
				0.9009029269218445,
				1.5796916484832764,
				0.9603933095932007,
				1.6792980432510376,
				-0.4709027111530304
			],
			[
				1.4738506078720093,
				1.0417108535766602,
				1.5057426691055298,
				1.9074889421463013,
				1.5621486902236938,
				-23.663761138916016,
				1.3422844409942627,
				2.4796504974365234,
				1.647170901298523,
				-3.4483022689819336,
				1.095162272453308,
				1.0479742288589478,
				1.2387664318084717,
				1.8667945861816406,
				-8.853325843811035,
				-0.09647577255964279
			],
			[
				-0.24547870457172394,
				0.03148931264877319,
				-0.3448600769042969,
				-0.29997655749320984,
				-0.12816685438156128,
				0.04177570343017578,
				-0.39778417348861694,
				0.3732477128505707,
				-0.18765492737293243,
				0.25573280453681946,
				0.158440962433815,
				0.19122330844402313,
				-0.06805539131164551,
				-0.2898175120353699,
				-0.2550085783004761,
				0.2853074073791504
			],
			[
				1.5760934352874756,
				1.3087143898010254,
				1.378256916999817,
				1.152116298675537,
				-7.216179847717285,
				0.8231773376464844,
				1.4488651752471924,
				-3.528494358062744,
				1.2055363655090332,
				1.8889780044555664,
				1.6003789901733398,
				1.791405439376831,
				1.1893072128295898,
				1.746785283088684,
				1.7509205341339111,
				-0.33901554346084595
			]
		],
		"weight_1": [
			0.0547608844935894,
			0.06083374843001366,
			0.05956638976931572,
			0.06618400663137436,
			-1.4343812465667725,
			0.28099367022514343,
			0.05531780794262886,
			-0.2675951421260834,
			0.06106184795498848,
			0.3600105345249176,
			0.06616136431694031,
			0.05471396446228027,
			0.06618601828813553,
			0.056253742426633835,
			-0.04738658666610718,
			-0.02851950377225876
		]
	},
	"layer_5": {
		"weight_0": [
			[
				1.4794623851776123
			],
			[
				1.6508361101150513
			],
			[
				1.6693086624145508
			],
			[
				1.2125046253204346
			],
			[
				-3.6759345531463623
			],
			[
				-11.445232391357422
			],
			[
				1.3176122903823853
			],
			[
				-3.9890799522399902
			],
			[
				1.3762133121490479
			],
			[
				-5.325677871704102
			],
			[
				1.1428732872009277
			],
			[
				1.4680545330047607
			],
			[
				1.7340768575668335
			],
			[
				1.3364663124084473
			],
			[
				-5.119621276855469
			],
			[
				-0.5403566956520081
			]
		],
		"weight_1": [
			0.09053971618413925
		]
	}
}