{
	"layer_0": {
		"weight_0": [
			[
				7.896363258361816,
				-0.061608314514160156,
				-0.3381323218345642,
				-0.7050110697746277,
				0.15854527056217194,
				-0.06253406405448914,
				2.034949779510498,
				0.5413781404495239,
				0.09738334268331528,
				0.15369340777397156,
				3.9905929565429688,
				3.8143651485443115,
				1.8542139530181885,
				1.349976897239685,
				-0.5359497666358948,
				0.5843768119812012
			],
			[
				1.7686349153518677,
				-0.5344734787940979,
				-0.5692256689071655,
				7.5176239013671875,
				-0.3791050314903259,
				0.12247619032859802,
				3.964219093322754,
				0.43855488300323486,
				0.13391441106796265,
				-0.3867933452129364,
				1.759950876235962,
				-0.37143373489379883,
				3.2497708797454834,
				2.7547783851623535,
				-0.11498183012008667,
				5.810616970062256
			]
		],
		"weight_1": [
			-0.05139003321528435,
			0.0,
			0.0,
			0.7018707990646362,
			-0.16040900349617004,
			-0.12293799966573715,
			-0.03132401779294014,
			-0.05226489156484604,
			-0.17494021356105804,
			-0.15485543012619019,
			-1.6266288757324219,
			0.7523477077484131,
			-0.2436910718679428,
			0.2275283932685852,
			0.0,
			-0.12871938943862915
		]
	},
	"layer_1": {},
	"layer_2": {},
	"layer_3": {},
	"layer_4": {
		"weight_0": [
			[
				-5.128303527832031,
				1.545628547668457,
				-2.2316057682037354,
				-0.2552090883255005,
				-5.51295280456543,
				-2.9712412357330322,
				-5.369687080383301,
				-4.791357040405273,
				0.8688273429870605,
				-3.7695281505584717,
				1.4887827634811401,
				-4.402523994445801,
				-1.516189455986023,
				-1.6952406167984009,
				1.1131017208099365,
				-5.554877281188965
			],
			[
				0.33063799142837524,
				3.420626163482666,
				2.291649580001831,
				-0.4611818790435791,
				1.4566208124160767,
				-0.5652329921722412,
				0.09060578793287277,
				1.7697689533233643,
				3.390547513961792,
				1.4646137952804565,
				-6.866166114807129,
				2.0848424434661865,
				1.6599252223968506,
				2.3921566009521484,
				3.3605780601501465,
				0.06758899986743927
			],
			[
				-0.14247798919677734,
				0.0005897847004234791,
				0.33134448528289795,
				0.44277238845825195,
				-0.15305955708026886,
				0.23152801394462585,
				0.2272021770477295,
				-0.27827930450439453,
				-0.30893653631210327,
				0.14599204063415527,
				0.4506188929080963,
				0.43460896611213684,
				0.11268045008182526,
				-0.15476243197917938,
				0.0999402180314064,
				-0.5018162727355957
			],
			[
				-0.9615992307662964,
				2.6693994998931885,
				0.17803049087524414,
				-0.388094425201416,
				0.019683968275785446,
				-6.39801025390625,
				-6.164018630981445,
				-0.42880505323410034,
				2.699172258377075,
				0.4203537404537201,
				-1.2966080904006958,
				-2.6104373931884766,
				-0.0092051662504673,
				1.3275210857391357,
				2.4658563137054443,
				-5.688270092010498
			],
			[
				-0.12352960556745529,
				-0.13866063952445984,
				0.3203773498535156,
				0.2566882371902466,
				-0.11977267265319824,
				-0.41345876455307007,
				0.2694941759109497,
				-0.19620344042778015,
				-0.014520881697535515,
				-0.37873420119285583,
				0.2337963581085205,
				0.21269898116588593,
				0.007708544377237558,
				-0.12807509303092957,
				-0.2971896529197693,
				-0.4398947060108185
			],
			[
				0.004140888340771198,
				1.3725506067276,
				-2.0508041381835938,
				0.23432672023773193,
				-3.598548650741577,
				0.24302127957344055,
				0.01557868905365467,
				-3.124260902404785,
				1.610986590385437,
				-2.221569776535034,
				1.1163434982299805,
				-3.455751657485962,
				-2.267298698425293,
				-1.8049571514129639,
				2.113196611404419,
				-0.0944538563489914
			],
			[
				-0.42741432785987854,
				1.7441636323928833,
				0.559675931930542,
				-0.3423231840133667,
				-0.2812078297138214,
				0.009881110861897469,
				0.15933863818645477,
				-0.5323253870010376,
				1.5950440168380737,
				-0.6411352753639221,
				-0.039668645709753036,
				0.8031014204025269,
				-0.2579071521759033,
				1.4116290807724,
				1.5914667844772339,
				0.10675869137048721
			],
			[
				-0.863119900226593,
				2.898871660232544,
				1.42489755153656,
				-0.4909478425979614,
				-0.033480916172266006,
				-2.8801963329315186,
				-1.5267482995986938,
				0.33171579241752625,
				2.9790759086608887,
				0.7966795563697815,
				-2.7277843952178955,
				-0.07674141228199005,
				0.21117259562015533,
				1.2471716403961182,
				2.9544503688812256,
				-1.6651747226715088
			]
		],
		"weight_1": [
			0.0725424513220787,
			-0.7287686467170715,
			1.0291944742202759,
			0.0,
			1.4080055952072144,
			0.3858349621295929,
			0.38435572385787964,
			1.2137712240219116,
			-0.7102223038673401,
			0.9548781514167786,
			0.07299429923295975,
			0.6893931031227112,
			1.006225347518921,
			1.069812297821045,
			-0.721946120262146,
			0.5114684104919434
		]
	},
	"layer_5": {
		"weight_0": [
			[
				-1.2256391048431396
			],
			[
				2.405735969543457
			],
			[
				-3.592663049697876
			],
			[
				-0.13340994715690613
			],
			[
				-18.031442642211914
			],
			[
				-2.6035521030426025
			],
			[
				-3.0881175994873047
			],
			[
				-9.260978698730469
			],
			[
				2.5320050716400146
			],
			[
				-5.450589656829834
			],
			[
				-3.3072543144226074
			],
			[
				-20.053796768188477
			],
			[
				-5.668397426605225
			],
			[
				-3.941678762435913
			],
			[
				2.469282388687134
			],
			[
				-2.806553840637207
			]
		],
		"weight_1": [
			-0.7384029030799866
		]
	}
}