{
	"layer_0": {
		"weight_0": [
			[
				7.860383987426758,
				-0.061608314514160156,
				-0.3381323218345642,
				-0.6783699989318848,
				0.15854527056217194,
				-0.06253406405448914,
				2.1499650478363037,
				0.5413781404495239,
				0.09738334268331528,
				0.15369340777397156,
				3.9905929565429688,
				3.782111167907715,
				1.7840667963027954,
				1.3624719381332397,
				-0.5359497666358948,
				0.49321404099464417
			],
			[
				1.774733543395996,
				-0.5344734787940979,
				-0.5692256689071655,
				7.575372219085693,
				-0.3791050314903259,
				0.12247619032859802,
				4.061271667480469,
				0.43855488300323486,
				0.13391441106796265,
				-0.3867933452129364,
				1.759950876235962,
				-0.3360331058502197,
				3.159911632537842,
				2.782379150390625,
				-0.11498183012008667,
				5.927542209625244
			]
		],
		"weight_1": [
			-0.03382154181599617,
			0.0,
			0.0,
			0.673528254032135,
			-0.16040900349617004,
			-0.12293799966573715,
			-0.05873965099453926,
			-0.05226489156484604,
			-0.17494021356105804,
			-0.15485543012619019,
			-1.6266288757324219,
			0.72565758228302,
			-0.010310796089470387,
			0.35586878657341003,
			0.0,
			-0.10502444952726364
		]
	},
	"layer_1": {},
	"layer_2": {},
	"layer_3": {},
	"layer_4": {
		"weight_0": [
			[
				-7.2269287109375,
				1.4429094791412354,
				-1.9895762205123901,
				-0.2552090883255005,
				-5.182751178741455,
				-5.314416885375977,
				-7.801228046417236,
				-4.0834832191467285,
				0.7669349312782288,
				-3.342710494995117,
				1.6814637184143066,
				-5.068729400634766,
				-1.3008192777633667,
				-1.5662189722061157,
				1.0107735395431519,
				-7.985322952270508
			],
			[
				0.3411945104598999,
				3.5130653381347656,
				2.3029897212982178,
				-0.4611818790435791,
				1.4648975133895874,
				-0.5396709442138672,
				0.025426410138607025,
				1.7509254217147827,
				3.483686923980713,
				1.4491503238677979,
				-8.999799728393555,
				2.1954846382141113,
				1.6754282712936401,
				2.3577029705047607,
				3.4534173011779785,
				0.002226173644885421
			],
			[
				-0.14247798919677734,
				0.0005897847004234791,
				0.33134448528289795,
				0.44277238845825195,
				-0.15305955708026886,
				0.23152801394462585,
				0.2272021770477295,
				-0.27827930450439453,
				-0.30893653631210327,
				0.14599204063415527,
				0.4506188929080963,
				0.43460896611213684,
				0.11268045008182526,
				-0.15476243197917938,
				0.0999402180314064,
				-0.5018162727355957
			],
			[
				-3.222567081451416,
				2.6705856323242188,
				0.2885217070579529,
				-0.388094425201416,
				0.10404682904481888,
				-7.95750617980957,
				-7.782435894012451,
				-0.2788360118865967,
				2.7011184692382812,
				0.5251743197441101,
				-1.242592453956604,
				-2.5997567176818848,
				0.08266571909189224,
				1.3741631507873535,
				2.4674339294433594,
				-7.308300018310547
			],
			[
				-0.12352960556745529,
				-0.13866063952445984,
				0.3203773498535156,
				0.2566882371902466,
				-0.11977267265319824,
				-0.41345876455307007,
				0.2694941759109497,
				-0.19620344042778015,
				-0.014520881697535515,
				-0.37873420119285583,
				0.2337963581085205,
				0.21269898116588593,
				0.007708544377237558,
				-0.12807509303092957,
				-0.2971896529197693,
				-0.4398947060108185
			],
			[
				0.043042343109846115,
				1.2378674745559692,
				-1.8457472324371338,
				0.23432672023773193,
				-3.17885160446167,
				0.2544134259223938,
				-0.06283843517303467,
				-2.5266730785369873,
				1.477145791053772,
				-1.7742531299591064,
				1.2869189977645874,
				-4.1687517166137695,
				-2.055297613143921,
				-1.680464267730713,
				1.9788604974746704,
				-0.1735067069530487
			],
			[
				-0.4224478602409363,
				1.7932207584381104,
				0.5036361217498779,
				-0.3423231840133667,
				-0.23479528725147247,
				0.019214309751987457,
				0.07592281699180603,
				-0.3970140516757965,
				1.6448826789855957,
				-0.45892733335494995,
				0.22858826816082,
				0.8181470036506653,
				-0.2584039866924286,
				1.2991962432861328,
				1.640927791595459,
				0.023140762001276016
			],
			[
				-2.014765739440918,
				2.947159767150879,
				1.4930990934371948,
				-0.4909478425979614,
				0.008815616369247437,
				-2.8801963329315186,
				-1.7293527126312256,
				0.40401309728622437,
				3.028081178665161,
				0.8396284580230713,
				-3.6613545417785645,
				-0.0017251184908673167,
				0.2683551609516144,
				1.259814739227295,
				3.0031230449676514,
				-1.8804216384887695
			]
		],
		"weight_1": [
			0.11589672416448593,
			-0.69479900598526,
			0.9561103582382202,
			0.0,
			1.3678786754608154,
			0.41151750087738037,
			0.3212008774280548,
			0.9534059166908264,
			-0.6754509210586548,
			0.857560932636261,
			0.0027116676792502403,
			0.9311150312423706,
			0.9821617603302002,
			1.0101954936981201,
			-0.6875741481781006,
			0.4476439356803894
		]
	},
	"layer_5": {
		"weight_0": [
			[
				-2.0267016887664795
			],
			[
				2.430900812149048
			],
			[
				-3.413233757019043
			],
			[
				-0.13340994715690613
			],
			[
				-14.299785614013672
			],
			[
				-3.1886868476867676
			],
			[
				-3.621969223022461
			],
			[
				-6.705410957336426
			],
			[
				2.5621447563171387
			],
			[
				-4.490227699279785
			],
			[
				-2.4602088928222656
			],
			[
				-39.10434341430664
			],
			[
				-5.327490329742432
			],
			[
				-3.8051788806915283
			],
			[
				2.4934709072113037
			],
			[
				-3.33543062210083
			]
		],
		"weight_1": [
			-0.6885803937911987
		]
	}
}