{
	"layer_0": {
		"weight_0": [
			[
				-0.44800108671188354,
				-0.0010561943054199219,
				-0.7727065086364746,
				0.9351984262466431,
				0.11529066413640976,
				0.19968481361865997,
				3.031709909439087,
				-2.6067864894866943,
				0.7243164777755737,
				3.136401653289795,
				-0.221058189868927,
				0.13146348297595978,
				0.002732192864641547,
				0.07049275934696198,
				0.8392391800880432,
				-0.49773454666137695
			],
			[
				-0.2342313826084137,
				-0.31588515639305115,
				2.517885684967041,
				0.42036640644073486,
				0.044264961034059525,
				0.9815577268600464,
				0.21226921677589417,
				1.3877676725387573,
				1.6091572046279907,
				0.018536999821662903,
				-0.4012356996536255,
				3.1060726642608643,
				3.0350935459136963,
				-0.001015498535707593,
				1.9151495695114136,
				-0.42966198921203613
			]
		],
		"weight_1": [
			0.0,
			0.0,
			0.13774490356445312,
			-0.03454677388072014,
			-0.13484637439250946,
			-0.1019040048122406,
			-0.0006374596850946546,
			0.06728749722242355,
			-0.012835252098739147,
			0.006692236755043268,
			0.0,
			-0.01437273621559143,
			0.00035215442767366767,
			-0.07322990894317627,
			-0.06998022645711899,
			0.0
		]
	},
	"layer_1": {
		"weight_0": [
			[
				-0.2783360481262207,
				0.3869943618774414,
				0.26643669605255127,
				0.13678628206253052,
				-0.3997526168823242,
				-0.011200368404388428,
				0.19704550504684448,
				0.21136653423309326,
				0.21312636137008667,
				-0.38750770688056946
			],
			[
				-0.26526618003845215,
				-0.3742459714412689,
				-0.2604721784591675,
				-0.3014571964740753,
				-0.10747280716896057,
				-0.20182105898857117,
				-0.10248661041259766,
				0.17488139867782593,
				-0.037890344858169556,
				-0.03388813138008118
			],
			[
				-1.5166388750076294,
				0.34492912888526917,
				0.20910902321338654,
				-0.6431840062141418,
				-0.17486146092414856,
				-0.18207931518554688,
				0.8141765594482422,
				0.40089040994644165,
				-1.5745770931243896,
				-0.07114602625370026
			],
			[
				-0.1462400257587433,
				-2.260737657546997,
				0.6338536739349365,
				0.7428582310676575,
				0.2086467146873474,
				0.30349281430244446,
				-1.4000420570373535,
				-0.2920491695404053,
				-0.30039650201797485,
				-0.6787678599357605
			],
			[
				-0.03975871205329895,
				-0.4400104880332947,
				-0.10994815826416016,
				-0.17396040260791779,
				0.04649772122502327,
				-0.32926127314567566,
				-0.36754053831100464,
				-0.03333127498626709,
				0.245874285697937,
				0.1744752824306488
			],
			[
				-0.10884634405374527,
				0.6750819087028503,
				1.4241337776184082,
				1.4827755689620972,
				1.3937469720840454,
				1.1291757822036743,
				0.376288503408432,
				1.3288153409957886,
				-0.18022379279136658,
				-1.0424883365631104
			],
			[
				-0.29217594861984253,
				-3.4026458263397217,
				0.743717610836029,
				0.883426308631897,
				0.35698065161705017,
				-0.10380460321903229,
				-2.4211206436157227,
				-0.6493076086044312,
				-0.49573737382888794,
				0.09157726168632507
			],
			[
				-0.8003144264221191,
				0.10139364749193192,
				-0.2836992144584656,
				-0.1510743796825409,
				0.34757283329963684,
				0.11270816624164581,
				-1.8996305465698242,
				-0.1694996953010559,
				-1.2912729978561401,
				-0.027232788503170013
			],
			[
				0.6941055655479431,
				-0.32393679022789,
				0.8495548963546753,
				1.0192301273345947,
				0.3523244261741638,
				0.1867559403181076,
				-0.186000794172287,
				0.3676517903804779,
				0.8092607855796814,
				-0.4022408425807953
			],
			[
				0.04979288578033447,
				-14.01638126373291,
				0.4759399890899658,
				0.41809001564979553,
				0.14973139762878418,
				0.08373075723648071,
				-5.294904708862305,
				-1.5858651399612427,
				0.3607899248600006,
				-0.012062842957675457
			],
			[
				-0.02370905876159668,
				-0.06846883893013,
				0.20136100053787231,
				-0.24308601021766663,
				0.11563241481781006,
				-0.41602471470832825,
				-0.3866843283176422,
				0.23025572299957275,
				-0.17588472366333008,
				-0.23400931060314178
			],
			[
				0.272470623254776,
				0.1558264195919037,
				1.3613429069519043,
				1.3695580959320068,
				1.3568588495254517,
				0.5163387656211853,
				0.8434716463088989,
				0.6997469663619995,
				0.45134538412094116,
				0.6187677383422852
			],
			[
				0.9376226663589478,
				0.8218093514442444,
				0.9750410318374634,
				1.005079746246338,
				1.2179673910140991,
				0.8236483335494995,
				1.0511828660964966,
				0.7841874957084656,
				1.0510571002960205,
				-0.09079509228467941
			],
			[
				-0.14594164490699768,
				0.028371572494506836,
				-0.4138045907020569,
				0.2987050414085388,
				0.11944875866174698,
				0.032217442989349365,
				-0.22443130612373352,
				-0.06568649411201477,
				0.35419291257858276,
				0.21557234227657318
			],
			[
				0.5086593627929688,
				-0.0810152068734169,
				0.7475944757461548,
				0.8257304430007935,
				1.0059268474578857,
				0.7088826298713684,
				0.051816437393426895,
				0.6552197337150574,
				0.4862517714500427,
				-0.31392890214920044
			],
			[
				-0.09650182723999023,
				-0.11311376094818115,
				-0.1732993721961975,
				-0.18222317099571228,
				-0.08711564540863037,
				-0.37382781505584717,
				0.4174918532371521,
				-0.004843592643737793,
				0.3048606514930725,
				-0.25332018733024597
			]
		],
		"weight_1": [
			0.5900968313217163,
			0.18755516409873962,
			-0.1236678808927536,
			-0.09910749644041061,
			-0.029937906190752983,
			-0.0005436207866296172,
			0.16769319772720337,
			0.4790210723876953,
			0.8358449339866638,
			0.8092873096466064
		]
	},
	"layer_2": {
		"weight_0": [
			[
				3.193052053451538,
				3.362959623336792,
				3.0797502994537354,
				3.1298470497131348,
				3.6682965755462646,
				-0.5241228938102722
			],
			[
				-3.9448399543762207,
				-4.132994174957275,
				-3.1116528511047363,
				-3.5775716304779053,
				-3.993828535079956,
				-0.3074840307235718
			],
			[
				1.0088504552841187,
				0.912863552570343,
				1.0489815473556519,
				0.7563734650611877,
				1.144566535949707,
				-0.7146351337432861
			],
			[
				1.0058397054672241,
				0.8979692459106445,
				0.5714343786239624,
				0.31730011105537415,
				0.5989619493484497,
				0.3584490120410919
			],
			[
				0.5691534876823425,
				0.7362973690032959,
				1.2351961135864258,
				0.8284287452697754,
				0.6945183873176575,
				0.28376176953315735
			],
			[
				-0.08050272613763809,
				0.9381694197654724,
				0.2950393855571747,
				0.43118730187416077,
				0.5883305072784424,
				0.008110393770039082
			],
			[
				-2.17387318611145,
				-2.4470977783203125,
				-1.9704129695892334,
				-1.8768928050994873,
				-1.9797477722167969,
				0.11292535066604614
			],
			[
				-1.652952790260315,
				-2.370755672454834,
				-2.3585686683654785,
				-1.4584721326828003,
				-2.365366220474243,
				-0.3562369644641876
			],
			[
				3.535407066345215,
				4.4981489181518555,
				4.342325687408447,
				4.365184307098389,
				4.377821445465088,
				0.3831670582294464
			],
			[
				-0.3044830858707428,
				1.0475267171859741,
				0.3534357249736786,
				1.312134861946106,
				-0.26976728439331055,
				-0.4461180865764618
			]
		],
		"weight_1": [
			-1.0063692331314087,
			-0.9856820106506348,
			-0.9517756104469299,
			-0.9942172765731812,
			-1.001492977142334,
			-0.12269582599401474
		]
	},
	"layer_3": {
		"weight_0": [
			[
				1.9487653970718384
			],
			[
				1.7575311660766602
			],
			[
				1.2545171976089478
			],
			[
				1.7640856504440308
			],
			[
				1.3054237365722656
			],
			[
				-0.3215521275997162
			]
		],
		"weight_1": [
			-0.8739811778068542
		]
	}
}