{
	"layer_0": {
		"weight_0": [
			[
				-0.5063282251358032,
				-0.5221887826919556,
				5.056750774383545,
				4.943727016448975,
				0.049889806658029556,
				0.9956773519515991,
				6.454263687133789,
				6.517351150512695,
				0.04386024549603462,
				-0.3846781849861145,
				-0.011153697967529297,
				7.721732139587402,
				0.06819897890090942,
				-0.3380142152309418,
				0.00432093208655715,
				0.2299189567565918
			],
			[
				-0.11733773350715637,
				-0.5426293015480042,
				0.2991933524608612,
				0.5363715291023254,
				3.400784730911255,
				3.0869157314300537,
				0.5291968584060669,
				-0.009280254133045673,
				4.532772541046143,
				4.90945291519165,
				-0.4774565100669861,
				0.03261899948120117,
				-0.6072429418563843,
				-0.23441806435585022,
				-0.2720469832420349,
				4.8225297927856445
			]
		],
		"weight_1": [
			0.0,
			0.0,
			-0.0002908942988142371,
			0.01396525651216507,
			0.09815678745508194,
			0.07666424661874771,
			0.04803312197327614,
			0.04648783430457115,
			0.19022667407989502,
			0.3889564573764801,
			0.0,
			-0.014226526953279972,
			-0.07050763815641403,
			0.0,
			-0.009522005915641785,
			-0.09668251127004623
		]
	},
	"layer_1": {},
	"layer_2": {},
	"layer_3": {},
	"layer_4": {
		"weight_0": [
			[
				0.3813122510910034,
				-0.3775871992111206,
				0.4553567171096802,
				-0.3219262361526489,
				0.1537621021270752,
				0.08785903453826904,
				0.19901525974273682,
				0.47677886486053467,
				0.46708250045776367,
				-0.21664690971374512,
				0.00514066219329834,
				0.005656719207763672,
				-0.05846202373504639,
				0.045944929122924805,
				-0.4647566080093384,
				0.3494234085083008
			],
			[
				1.743809700012207,
				1.1448585987091064,
				1.6188230514526367,
				1.3897404670715332,
				2.1953625679016113,
				-5.668600082397461,
				1.4324562549591064,
				1.6668952703475952,
				1.8841577768325806,
				-1.141749382019043,
				1.5932835340499878,
				1.3040471076965332,
				1.7961958646774292,
				1.1021150350570679,
				-2.954916000366211,
				0.19481152296066284
			],
			[
				1.0325080156326294,
				1.5680547952651978,
				1.5663228034973145,
				1.5297194719314575,
				-2.9310503005981445,
				0.8857372403144836,
				1.3509938716888428,
				-1.6084760427474976,
				0.9902493357658386,
				0.9663825631141663,
				1.1312094926834106,
				1.1640056371688843,
				0.7390297055244446,
				1.1232126951217651,
				1.028978943824768,
				-1.557762861251831
			],
			[
				1.8033400774002075,
				1.6579419374465942,
				1.653322696685791,
				1.3856993913650513,
				2.2483866214752197,
				-8.601716995239258,
				1.4999128580093384,
				2.108865261077881,
				1.2344847917556763,
				-2.5839571952819824,
				1.9122271537780762,
				1.867600917816162,
				1.8141974210739136,
				1.5163835287094116,
				-4.9638190269470215,
				1.1304184198379517
			],
			[
				1.6675372123718262,
				1.2076135873794556,
				0.9544808268547058,
				1.4164780378341675,
				-7.003136157989502,
				1.118661642074585,
				1.54628586769104,
				-3.1911163330078125,
				1.3769826889038086,
				1.6103496551513672,
				0.7179300785064697,
				0.7371736168861389,
				1.4193514585494995,
				0.7945977449417114,
				1.6473276615142822,
				-5.092906951904297
			],
			[
				1.687364101409912,
				1.2578911781311035,
				1.722023606300354,
				2.115525007247925,
				2.089231491088867,
				-28.027254104614258,
				1.5528357028961182,
				2.612025499343872,
				1.8587461709976196,
				-3.5813260078430176,
				1.3011505603790283,
				1.2611961364746094,
				1.4558603763580322,
				2.077523946762085,
				-9.921996116638184,
				0.6094141006469727
			],
			[
				-0.24547870457172394,
				0.03148931264877319,
				-0.3448600769042969,
				-0.29997655749320984,
				-0.12816685438156128,
				0.04177570343017578,
				-0.39778417348861694,
				0.3732477128505707,
				-0.18765492737293243,
				0.25573280453681946,
				0.158440962433815,
				0.19122330844402313,
				-0.06805539131164551,
				-0.2898175120353699,
				-0.2550085783004761,
				0.2853074073791504
			],
			[
				1.4057437181472778,
				1.140133023262024,
				1.210517406463623,
				0.9769072532653809,
				-6.946429252624512,
				0.8136135935783386,
				1.2754020690917969,
				-2.8987786769866943,
				1.033761978149414,
				1.746535301208496,
				1.4246454238891602,
				1.6211590766906738,
				1.0224226713180542,
				1.574461817741394,
				1.7034858465194702,
				-4.737894535064697
			]
		],
		"weight_1": [
			0.07590114325284958,
			0.08439931273460388,
			0.08369425684213638,
			0.08158979564905167,
			-0.7787079811096191,
			0.2665228843688965,
			0.07304947823286057,
			-0.3060500919818878,
			0.08035516738891602,
			0.18987613916397095,
			0.08023186773061752,
			0.07576589286327362,
			0.09125193953514099,
			0.07480132579803467,
			0.056080613285303116,
			-0.8450568318367004
		]
	},
	"layer_5": {
		"weight_0": [
			[
				1.485129475593567
			],
			[
				1.6370805501937866
			],
			[
				1.6815630197525024
			],
			[
				1.2105809450149536
			],
			[
				-2.3014724254608154
			],
			[
				-10.742376327514648
			],
			[
				1.3048090934753418
			],
			[
				-3.5018093585968018
			],
			[
				1.3846304416656494
			],
			[
				-4.884899616241455
			],
			[
				1.1670445203781128
			],
			[
				1.4792158603668213
			],
			[
				1.7540779113769531
			],
			[
				1.3482695817947388
			],
			[
				-4.810410499572754
			],
			[
				-5.945346355438232
			]
		],
		"weight_1": [
			0.13698241114616394
		]
	}
}