{
	"layer_0": {
		"weight_0": [
			[
				-0.43097519874572754,
				2.2009949684143066,
				-0.17428147792816162,
				3.5274970531463623,
				2.6200785636901855,
				-0.348391592502594,
				3.5649075508117676,
				2.883964776992798,
				3.3897435665130615,
				2.98091983795166,
				2.5126404762268066,
				3.1692728996276855,
				2.403559684753418,
				3.2569963932037354,
				3.1041030883789062,
				3.3872244358062744
			],
			[
				-0.3335219621658325,
				2.3293731212615967,
				-0.21894702315330505,
				2.3900787830352783,
				3.015958309173584,
				-0.41993802785873413,
				1.9185702800750732,
				3.0121724605560303,
				2.7591731548309326,
				2.6380209922790527,
				2.6569197177886963,
				2.005582332611084,
				2.5389323234558105,
				2.5577640533447266,
				2.5652236938476562,
				2.1150550842285156
			]
		],
		"weight_1": [
			0.0,
			-2.162628412246704,
			0.0,
			0.11341320723295212,
			0.12775197625160217,
			0.0,
			0.12938089668750763,
			0.1324882060289383,
			0.14128080010414124,
			0.08892277628183365,
			-2.4715821743011475,
			0.051148854196071625,
			-2.363401412963867,
			0.13873232901096344,
			0.09542426466941833,
			0.10677937418222427
		]
	},
	"layer_1": {
		"weight_0": [
			[
				0.33948516845703125,
				0.2655397653579712,
				-0.17900824546813965,
				-0.003893613815307617,
				0.21359944343566895,
				0.1475909948348999,
				-0.2580537796020508,
				-0.07387113571166992
			],
			[
				0.6249324679374695,
				0.3651532828807831,
				0.5730003118515015,
				-0.1423090696334839,
				1.1092643737792969,
				0.6741450428962708,
				0.22550874948501587,
				0.20090453326702118
			],
			[
				-0.0925530195236206,
				-0.19560837745666504,
				-0.29535019397735596,
				0.21986889839172363,
				-0.4908323287963867,
				-0.35983026027679443,
				0.018968939781188965,
				-0.06874561309814453
			],
			[
				1.1676840782165527,
				1.069860816001892,
				0.5526870489120483,
				-0.368078351020813,
				0.7583094239234924,
				0.47837966680526733,
				0.1899162232875824,
				0.9988841414451599
			],
			[
				0.99985271692276,
				0.23533928394317627,
				0.9037073254585266,
				0.34437239170074463,
				0.4659138321876526,
				0.741472065448761,
				-0.3732881546020508,
				1.0663530826568604
			],
			[
				-0.10760104656219482,
				-0.053389787673950195,
				-0.09051132202148438,
				-0.2676229476928711,
				-0.10877907276153564,
				-0.24620866775512695,
				0.4213547706604004,
				0.49880409240722656
			],
			[
				0.7782015800476074,
				1.2026351690292358,
				1.3538106679916382,
				0.39576196670532227,
				1.0282351970672607,
				1.2035149335861206,
				0.3724910318851471,
				1.2158914804458618
			],
			[
				1.026992678642273,
				0.9619219899177551,
				0.9833481907844543,
				-0.4479982852935791,
				0.5236251354217529,
				0.47515302896499634,
				0.05494039133191109,
				0.6464494466781616
			],
			[
				0.4774254560470581,
				1.106139898300171,
				0.3914887607097626,
				0.13516640663146973,
				1.0123859643936157,
				0.9213618040084839,
				0.07443547248840332,
				1.0001076459884644
			],
			[
				0.37512218952178955,
				0.6172962784767151,
				0.6858037114143372,
				-0.22134196758270264,
				0.0451011024415493,
				0.6222510933876038,
				0.21042168140411377,
				0.29019710421562195
			],
			[
				3.9109673500061035,
				3.5855138301849365,
				3.58258056640625,
				-0.0431290864944458,
				3.513160467147827,
				3.4720890522003174,
				-0.15514197945594788,
				3.35097599029541
			],
			[
				0.6962498426437378,
				1.1592785120010376,
				0.7211799621582031,
				0.25833380222320557,
				0.9159852862358093,
				0.8291815519332886,
				0.1306425929069519,
				0.7245005965232849
			],
			[
				1.651979684829712,
				1.5605275630950928,
				1.9466842412948608,
				-0.4066634178161621,
				2.170870542526245,
				2.101996898651123,
				0.21974654495716095,
				1.882552146911621
			],
			[
				0.6055519580841064,
				0.8513535857200623,
				0.892753541469574,
				-0.43864357471466064,
				0.9827592968940735,
				1.004478096961975,
				-0.28687378764152527,
				0.8621516227722168
			],
			[
				0.753608763217926,
				0.18115893006324768,
				0.20701831579208374,
				-0.005873441696166992,
				0.1904246211051941,
				0.782618522644043,
				-0.26096630096435547,
				0.7272205352783203
			],
			[
				0.5332268476486206,
				0.7573242783546448,
				1.2840876579284668,
				-0.4661322832107544,
				0.48074063658714294,
				0.4506169855594635,
				-0.42648133635520935,
				1.2842020988464355
			]
		],
		"weight_1": [
			0.19006027281284332,
			0.20751477777957916,
			0.2085590660572052,
			0.0,
			0.18999184668064117,
			0.20382429659366608,
			-0.10344110429286957,
			0.21209296584129333
		]
	},
	"layer_2": {
		"weight_0": [
			[
				1.1833471059799194,
				0.259045273065567,
				-0.029599368572235107,
				0.13491706550121307
			],
			[
				0.8743530511856079,
				0.048321597278118134,
				-0.3390170931816101,
				0.8410122990608215
			],
			[
				1.2973008155822754,
				-0.6617549061775208,
				-0.16671150922775269,
				0.47086063027381897
			],
			[
				0.5155437588691711,
				0.07899636030197144,
				-0.5371848344802856,
				-0.4822911024093628
			],
			[
				0.7027005553245544,
				0.3569625914096832,
				0.6104863286018372,
				0.5271244645118713
			],
			[
				1.236919641494751,
				-0.5815417766571045,
				-0.6732558012008667,
				0.4520312547683716
			],
			[
				-0.3372114598751068,
				-0.6455778479576111,
				-0.5144088268280029,
				-0.24746790528297424
			],
			[
				0.7615107297897339,
				0.33233124017715454,
				-0.05192255973815918,
				1.044203519821167
			]
		],
		"weight_1": [
			0.26567161083221436,
			-0.055113617330789566,
			0.0,
			0.26587390899658203
		]
	},
	"layer_3": {
		"weight_0": [
			[
				1.072198510169983
			],
			[
				-0.15346500277519226
			],
			[
				0.11491024494171143
			],
			[
				0.9548347592353821
			]
		],
		"weight_1": [
			0.31350091099739075
		]
	}
}