{
	"layer_0": {
		"weight_0": [
			[
				0.04976874589920044,
				5.472607135772705,
				4.079348564147949,
				-0.7635558843612671,
				3.4002180099487305,
				-0.622036874294281,
				4.123167037963867,
				0.11652541905641556
			],
			[
				-0.12229401618242264,
				3.233152151107788,
				3.530315637588501,
				-0.2713778614997864,
				3.586320638656616,
				0.2176806926727295,
				3.9930553436279297,
				0.29352545738220215
			]
		],
		"weight_1": [
			-0.05556156486272812,
			0.26504817605018616,
			0.026013771072030067,
			0.0,
			-3.3455917835235596,
			-0.21809333562850952,
			0.17694637179374695,
			-0.3441426753997803
		]
	},
	"layer_1": {
		"weight_0": [
			[
				-0.09519881755113602,
				0.03330637887120247,
				0.02915235608816147,
				-0.3063337802886963,
				0.25448083877563477,
				0.6323750019073486
			],
			[
				2.127995014190674,
				-0.5990289449691772,
				0.12574216723442078,
				2.577545642852783,
				2.199514389038086,
				-0.08566272258758545
			],
			[
				2.0829076766967773,
				-0.430991530418396,
				-0.4321966767311096,
				1.1752153635025024,
				1.5085798501968384,
				0.11197948455810547
			],
			[
				-0.17652344703674316,
				0.40747010707855225,
				-0.09801799058914185,
				-0.10346978902816772,
				0.11422067880630493,
				-0.38893988728523254
			],
			[
				4.733330726623535,
				-0.7146130204200745,
				0.33767348527908325,
				4.410560131072998,
				4.495720386505127,
				-0.5990499258041382
			],
			[
				-0.4390776753425598,
				0.2850410044193268,
				-0.16721895337104797,
				-0.45393016934394836,
				0.21424536406993866,
				-0.2654497027397156
			],
			[
				1.536033034324646,
				0.5166283845901489,
				-0.2668514549732208,
				2.0652122497558594,
				1.5719399452209473,
				-0.13721102476119995
			],
			[
				0.0037919897586107254,
				0.2425273060798645,
				-0.5668303966522217,
				-0.04367843270301819,
				-0.09765923768281937,
				-0.14393705129623413
			]
		],
		"weight_1": [
			0.08269444853067398,
			-0.08883722871541977,
			-0.18037964403629303,
			0.2713882327079773,
			0.13834929466247559,
			0.0
		]
	},
	"layer_2": {
		"weight_0": [
			[
				-0.6463395953178406,
				1.594102382659912,
				-0.7395707964897156,
				-0.28352174162864685
			],
			[
				-0.5721572041511536,
				-0.30989667773246765,
				-0.46016573905944824,
				-0.31181350350379944
			],
			[
				-0.10565352439880371,
				-0.5516411662101746,
				-0.5017080307006836,
				0.3385850191116333
			],
			[
				0.024305561557412148,
				1.9335684776306152,
				-0.009761333465576172,
				-0.7739318609237671
			],
			[
				-0.4474388062953949,
				1.6176730394363403,
				0.0009400248527526855,
				-0.59847092628479
			],
			[
				0.1959558129310608,
				0.09405517578125,
				-0.15650999546051025,
				-0.29825258255004883
			]
		],
		"weight_1": [
			-0.015077070333063602,
			0.27688395977020264,
			0.0,
			0.0
		]
	},
	"layer_3": {
		"weight_0": [
			[
				-0.7612035274505615
			],
			[
				1.8135802745819092
			],
			[
				-0.6058918833732605
			],
			[
				0.0923076868057251
			]
		],
		"weight_1": [
			0.27561190724372864
		]
	}
}