{
	"layer_0": {
		"weight_0": [
			[
				0.04976874589920044,
				4.803628444671631,
				3.4137370586395264,
				-0.7635558843612671,
				2.8923041820526123,
				-0.622036874294281,
				3.4562082290649414,
				0.11652541905641556
			],
			[
				-0.12229401618242264,
				2.704021453857422,
				3.0043323040008545,
				-0.2713778614997864,
				3.053621768951416,
				0.2176806926727295,
				3.4660181999206543,
				0.29352545738220215
			]
		],
		"weight_1": [
			-0.05556156486272812,
			0.24660691618919373,
			0.011466160416603088,
			0.0,
			-2.854872941970825,
			-0.21809333562850952,
			0.16101717948913574,
			-0.3441426753997803
		]
	},
	"layer_1": {
		"weight_0": [
			[
				-0.09519881755113602,
				0.03330637887120247,
				0.02915235608816147,
				-0.3063337802886963,
				0.25448083877563477,
				0.6323750019073486
			],
			[
				2.1586647033691406,
				-0.5990289449691772,
				0.12574216723442078,
				2.6063337326049805,
				2.230020046234131,
				-0.08566272258758545
			],
			[
				2.177830457687378,
				-0.430991530418396,
				-0.4321966767311096,
				1.2682584524154663,
				1.6033023595809937,
				0.11197948455810547
			],
			[
				-0.17652344703674316,
				0.40747010707855225,
				-0.09801799058914185,
				-0.10346978902816772,
				0.11422067880630493,
				-0.38893988728523254
			],
			[
				4.907716274261475,
				-0.7146130204200745,
				0.33767348527908325,
				4.582966327667236,
				4.669937610626221,
				-0.5990499258041382
			],
			[
				-0.4390776753425598,
				0.2850410044193268,
				-0.16721895337104797,
				-0.45393016934394836,
				0.21424536406993866,
				-0.2654497027397156
			],
			[
				1.626551628112793,
				0.5166283845901489,
				-0.2668514549732208,
				2.153907537460327,
				1.6623058319091797,
				-0.13721102476119995
			],
			[
				0.0037919897586107254,
				0.2425273060798645,
				-0.5668303966522217,
				-0.04367843270301819,
				-0.09765923768281937,
				-0.14393705129623413
			]
		],
		"weight_1": [
			0.05745896324515343,
			-0.08883722871541977,
			-0.18037964403629303,
			0.2443791925907135,
			0.11295702308416367,
			0.0
		]
	},
	"layer_2": {
		"weight_0": [
			[
				-0.6463395953178406,
				1.7105963230133057,
				-0.7395707964897156,
				-0.28352174162864685
			],
			[
				-0.5721572041511536,
				-0.30989667773246765,
				-0.46016573905944824,
				-0.31181350350379944
			],
			[
				-0.10565352439880371,
				-0.5516411662101746,
				-0.5017080307006836,
				0.3385850191116333
			],
			[
				0.024305561557412148,
				2.0432846546173096,
				-0.009761333465576172,
				-0.7739318609237671
			],
			[
				-0.4474388062953949,
				1.7335494756698608,
				0.0009400248527526855,
				-0.59847092628479
			],
			[
				0.1959558129310608,
				0.09405517578125,
				-0.15650999546051025,
				-0.29825258255004883
			]
		],
		"weight_1": [
			-0.015077070333063602,
			0.24104228615760803,
			0.0,
			0.0
		]
	},
	"layer_3": {
		"weight_0": [
			[
				-0.7612035274505615
			],
			[
				1.927762746810913
			],
			[
				-0.6058918833732605
			],
			[
				0.0923076868057251
			]
		],
		"weight_1": [
			0.23039259016513824
		]
	}
}