{
	"layer_0": {
		"weight_0": [
			[
				0.04976874589920044,
				4.14331579208374,
				2.7562098503112793,
				-0.7635558843612671,
				2.413994073867798,
				-0.622036874294281,
				2.7975406646728516,
				0.11652541905641556
			],
			[
				-0.12229401618242264,
				2.1874563694000244,
				2.490528106689453,
				-0.2713778614997864,
				2.545818328857422,
				0.2176806926727295,
				2.951277017593384,
				0.29352545738220215
			]
		],
		"weight_1": [
			-0.05556156486272812,
			0.22418415546417236,
			-0.015824686735868454,
			0.0,
			-2.370832920074463,
			-0.21809333562850952,
			0.14071020483970642,
			-0.3441426753997803
		]
	},
	"layer_1": {
		"weight_0": [
			[
				-0.09519881755113602,
				0.03330637887120247,
				0.02915235608816147,
				-0.3063337802886963,
				0.25448083877563477,
				0.6323750019073486
			],
			[
				2.189955472946167,
				-0.5990289449691772,
				0.12574216723442078,
				2.635948657989502,
				2.261160135269165,
				-0.08566272258758545
			],
			[
				2.2928199768066406,
				-0.430991530418396,
				-0.4321966767311096,
				1.381641149520874,
				1.7181730270385742,
				0.11197948455810547
			],
			[
				-0.17652344703674316,
				0.40747010707855225,
				-0.09801799058914185,
				-0.10346978902816772,
				0.11422067880630493,
				-0.38893988728523254
			],
			[
				5.11345100402832,
				-0.7146130204200745,
				0.33767348527908325,
				4.786853313446045,
				4.875500202178955,
				-0.5990499258041382
			],
			[
				-0.4390776753425598,
				0.2850410044193268,
				-0.16721895337104797,
				-0.45393016934394836,
				0.21424536406993866,
				-0.2654497027397156
			],
			[
				1.7326526641845703,
				0.5166283845901489,
				-0.2668514549732208,
				2.258420705795288,
				1.7682615518569946,
				-0.13721102476119995
			],
			[
				0.0037919897586107254,
				0.2425273060798645,
				-0.5668303966522217,
				-0.04367843270301819,
				-0.09765923768281937,
				-0.14393705129623413
			]
		],
		"weight_1": [
			0.028177527710795403,
			-0.08883722871541977,
			-0.18037964403629303,
			0.21356837451457977,
			0.08354431390762329,
			0.0
		]
	},
	"layer_2": {
		"weight_0": [
			[
				-0.6463395953178406,
				1.8517796993255615,
				-0.7395707964897156,
				-0.28352174162864685
			],
			[
				-0.5721572041511536,
				-0.30989667773246765,
				-0.46016573905944824,
				-0.31181350350379944
			],
			[
				-0.10565352439880371,
				-0.5516411662101746,
				-0.5017080307006836,
				0.3385850191116333
			],
			[
				0.024305561557412148,
				2.1760077476501465,
				-0.009761333465576172,
				-0.7739318609237671
			],
			[
				-0.4474388062953949,
				1.8735429048538208,
				0.0009400248527526855,
				-0.59847092628479
			],
			[
				0.1959558129310608,
				0.09405517578125,
				-0.15650999546051025,
				-0.29825258255004883
			]
		],
		"weight_1": [
			-0.015077070333063602,
			0.20182640850543976,
			0.0,
			0.0
		]
	},
	"layer_3": {
		"weight_0": [
			[
				-0.7612035274505615
			],
			[
				2.0657541751861572
			],
			[
				-0.6058918833732605
			],
			[
				0.0923076868057251
			]
		],
		"weight_1": [
			0.18231230974197388
		]
	}
}