{
	"layer_0": {
		"weight_0": [
			[
				-0.07160353660583496,
				1.8883506059646606,
				7.24747896194458,
				1.3563939332962036,
				0.5947339534759521,
				0.3568154275417328,
				0.7151567339897156,
				2.6001405715942383,
				4.5092453956604,
				-0.47004005312919617,
				-0.35048848390579224,
				-0.10672318935394287,
				-1.8415621519088745,
				0.4891044795513153
			],
			[
				-0.2947051525115967,
				-0.7907443046569824,
				-0.15132543444633484,
				-10.277647018432617,
				-3.2114624977111816,
				-0.8232030272483826,
				-4.78232479095459,
				-0.5603967308998108,
				0.8768240809440613,
				-0.17450034618377686,
				-0.3063868284225464,
				-0.3143831491470337,
				-1.3497514724731445,
				-2.00251841545105
			]
		],
		"weight_1": [
			0.0,
			0.7289601564407349,
			0.14391037821769714,
			0.16635657846927643,
			0.4319814443588257,
			-0.2495051473379135,
			0.2843013107776642,
			0.5153866410255432,
			-0.005778471007943153,
			0.0,
			0.0,
			0.0,
			2.030951499938965,
			0.5206422209739685
		]
	},
	"layer_1": {
		"weight_0": [
			[
				0.15588802099227905,
				0.26174020767211914,
				-0.021613478660583496,
				-0.3247339129447937,
				-0.15892308950424194,
				-0.38262948393821716
			],
			[
				1.1092628240585327,
				0.9361212849617004,
				0.5477065443992615,
				-1.4163857698440552,
				0.6536642909049988,
				1.0029547214508057
			],
			[
				0.2571355998516083,
				0.1584474742412567,
				0.9753525257110596,
				-3.121933698654175,
				0.4697333872318268,
				0.19577784836292267
			],
			[
				3.730339765548706,
				3.5234010219573975,
				7.620800018310547,
				-1.0741908550262451,
				5.319533824920654,
				2.8522863388061523
			],
			[
				0.3716004490852356,
				0.7349461317062378,
				0.4229145050048828,
				1.9774869680404663,
				0.9876886010169983,
				1.6526954174041748
			],
			[
				0.12182029336690903,
				-0.15342870354652405,
				-0.16718533635139465,
				0.35142582654953003,
				-0.32344067096710205,
				0.24762456119060516
			],
			[
				2.0645010471343994,
				2.056952953338623,
				3.1501386165618896,
				1.3994954824447632,
				2.460178852081299,
				1.8492892980575562
			],
			[
				0.8855098485946655,
				0.42576125264167786,
				0.1956498920917511,
				-2.375523567199707,
				0.45112359523773193,
				0.16549183428287506
			],
			[
				0.1934499591588974,
				-0.20070195198059082,
				0.4948982894420624,
				-2.1997573375701904,
				0.5518320202827454,
				-0.7726618051528931
			],
			[
				0.003470480442047119,
				-0.0601561963558197,
				-0.011592507362365723,
				-0.5447738170623779,
				-0.40460118651390076,
				-0.47133010625839233
			],
			[
				0.5064431428909302,
				0.21655726432800293,
				0.033384740352630615,
				-0.011843621730804443,
				-0.38854366540908813,
				0.4952293634414673
			],
			[
				-0.49096179008483887,
				-0.24298277497291565,
				-0.2553565502166748,
				0.15778672695159912,
				-0.37951213121414185,
				-0.27251115441322327
			],
			[
				-0.6532691717147827,
				-0.4668167531490326,
				-2.2184627056121826,
				1.3669228553771973,
				-0.5113212466239929,
				-0.1316436380147934
			],
			[
				-0.17981314659118652,
				0.7083442807197571,
				-0.6203474998474121,
				0.8720263242721558,
				0.7477945685386658,
				1.0560754537582397
			]
		],
		"weight_1": [
			0.5428148508071899,
			0.5159291625022888,
			-0.5892167091369629,
			0.7258990406990051,
			0.0005674146814271808,
			0.08813968300819397
		]
	},
	"layer_2": {
		"weight_0": [
			[
				0.26061561703681946,
				-0.9123767018318176,
				1.5260310173034668,
				1.5179228782653809
			],
			[
				-0.5796695351600647,
				0.6444014310836792,
				1.663424015045166,
				2.043748378753662
			],
			[
				-1.118327260017395,
				1.2031526565551758,
				-2.453268051147461,
				-1.8200950622558594
			],
			[
				0.6359797716140747,
				-1.2975174188613892,
				-2.52866792678833,
				-3.1208908557891846
			],
			[
				1.4756124019622803,
				0.04889008402824402,
				1.3116257190704346,
				2.1228952407836914
			],
			[
				-1.1223297119140625,
				1.0386404991149902,
				1.061911940574646,
				1.9180303812026978
			]
		],
		"weight_1": [
			-0.5509702563285828,
			-2.8331477642059326,
			-0.1697104275226593,
			0.427549809217453
		]
	},
	"layer_3": {
		"weight_0": [
			[
				-9.041007041931152
			],
			[
				-1.6632987260818481
			],
			[
				2.9323034286499023
			],
			[
				3.430389642715454
			]
		],
		"weight_1": [
			0.4447033703327179
		]
	}
}