{
	"layer_0": {
		"weight_0": [
			[
				-0.48876041173934937,
				-0.42021644115448,
				0.1050812229514122,
				5.8717474937438965,
				6.4648613929748535,
				3.008445978164673,
				-0.32645511627197266,
				0.03271061182022095,
				0.352820485830307,
				0.41504669189453125,
				-0.21278899908065796,
				1.1566221714019775
			],
			[
				0.017309261485934258,
				-0.168115496635437,
				-0.18578240275382996,
				1.169028639793396,
				-1.1368629932403564,
				-0.20724476873874664,
				-0.33585262298583984,
				-0.2814549207687378,
				-1.708614468574524,
				-3.2884328365325928,
				-0.3493867814540863,
				-9.845338821411133
			]
		],
		"weight_1": [
			-0.020043805241584778,
			0.0,
			-0.08069338649511337,
			-0.002932441420853138,
			0.9645889401435852,
			0.18459133803844452,
			0.0,
			-0.0031622680835425854,
			0.6261720061302185,
			0.5022356510162354,
			0.0,
			0.3876383900642395
		]
	},
	"layer_1": {
		"weight_0": [
			[
				0.19078171253204346,
				0.18066160380840302,
				-0.3567129373550415,
				-0.5414674878120422,
				0.4924823045730591,
				-0.4685390889644623
			],
			[
				0.3155694007873535,
				-0.5181292295455933,
				0.15984559059143066,
				-0.024850845336914062,
				0.4935746192932129,
				-0.31702765822410583
			],
			[
				-0.10584671795368195,
				-0.47832173109054565,
				-0.5757831335067749,
				-0.33801254630088806,
				0.2095625400543213,
				-0.314060240983963
			],
			[
				1.238240361213684,
				0.82814621925354,
				1.8971240520477295,
				1.2487488985061646,
				0.028230786323547363,
				0.47414761781692505
			],
			[
				-0.1268240362405777,
				1.0708272457122803,
				1.0056208372116089,
				0.5644157528877258,
				-0.6366534233093262,
				1.3068842887878418
			],
			[
				0.7547805905342102,
				1.974594235420227,
				0.7040004134178162,
				1.891163945198059,
				0.3610205054283142,
				2.3857321739196777
			],
			[
				0.35244762897491455,
				0.11991757154464722,
				-0.35746610164642334,
				-0.4531171917915344,
				0.08351188898086548,
				0.4672219753265381
			],
			[
				-0.5416588187217712,
				-0.20261336863040924,
				0.46899664402008057,
				-0.0895276665687561,
				-0.5218438506126404,
				-0.14936426281929016
			],
			[
				0.835095226764679,
				-0.24327197670936584,
				-2.0469772815704346,
				0.5359821915626526,
				-0.041818272322416306,
				-0.0055876560509204865
			],
			[
				3.3416080474853516,
				0.15396800637245178,
				-1.8743256330490112,
				1.6177386045455933,
				-0.49946802854537964,
				1.2369821071624756
			],
			[
				-0.5142810344696045,
				-0.1358577013015747,
				0.40512996912002563,
				-0.1004292368888855,
				-0.24952620267868042,
				0.24829810857772827
			],
			[
				6.880990028381348,
				2.670928955078125,
				2.285517692565918,
				5.622213363647461,
				0.0934106707572937,
				4.1680755615234375
			]
		],
		"weight_1": [
			-0.5482823848724365,
			-0.6275176405906677,
			-2.3663198947906494,
			-1.0960752964019775,
			-0.07837262004613876,
			-0.5626591444015503
		]
	},
	"layer_2": {
		"weight_0": [
			[
				1.8232983350753784,
				-0.2134229987859726,
				-0.47091251611709595,
				0.9315325617790222
			],
			[
				1.6221976280212402,
				-0.47660285234451294,
				0.25544774532318115,
				-0.5033280849456787
			],
			[
				-5.121376991271973,
				-0.2746260464191437,
				-0.6650695204734802,
				0.8215646147727966
			],
			[
				2.3748998641967773,
				0.4755616784095764,
				-0.8008866310119629,
				0.30972570180892944
			],
			[
				0.35786178708076477,
				0.2359302043914795,
				-0.7111378908157349,
				0.603626012802124
			],
			[
				2.6709518432617188,
				0.02888561598956585,
				-0.2138255089521408,
				-0.5181518793106079
			]
		],
		"weight_1": [
			-0.9205267429351807,
			-0.12233182042837143,
			-0.038468968123197556,
			-2.9701955318450928
		]
	},
	"layer_3": {
		"weight_0": [
			[
				2.9673635959625244
			],
			[
				-0.2674621343612671
			],
			[
				0.12125236541032791
			],
			[
				-4.855690002441406
			]
		],
		"weight_1": [
			-0.9177179932594299
		]
	}
}