{"layer_0": {"weight_0": [[-1.9873563051223755, 0.6149223446846008, -0.09773221611976624, 3.7022974491119385, 4.955068588256836, 3.7812819480895996, 1.773354172706604, 2.4418137073516846, 1.0428786277770996, -0.3822352886199951, -0.6462234854698181, 0.1341344714164734, 6.103662967681885, -0.31922635436058044, 1.3402855396270752, -0.4297811985015869], [-1.1471139192581177, -1.9904019832611084, -0.5220967531204224, -0.7383899688720703, -0.28569307923316956, -0.4790239632129669, -8.733451843261719, -15.348499298095703, -3.9343886375427246, -0.16536664962768555, -5.142511367797852, -0.5778632760047913, 1.4859195947647095, -0.33060377836227417, -1.2241722345352173, 0.0063920896500349045]], "weight_1": [2.9952356815338135, 0.7145348191261292, 0.0, 0.786579966545105, 0.26096057891845703, 0.9692675471305847, 0.5086889863014221, 0.18472622334957123, 0.6300914287567139, 0.0, 1.7536669969558716, -0.1348043978214264, 1.0194597244262695, 0.0, 0.46440041065216064, -0.006613207049667835]}, "layer_1": {"weight_0": [[-0.3200182020664215, 0.04224491864442825, -1.8587565422058105, -0.36703547835350037, -1.2701596021652222, 0.9906103014945984, 1.1534367799758911, -0.1654556393623352, 0.899893045425415, 0.887759804725647, -1.019914150238037, 0.799931526184082, 1.877110481262207, 0.6017709374427795, 0.3194284737110138, 0.2978109121322632], [0.23325559496879578, -0.3654082119464874, -0.47944650053977966, -0.377802312374115, -0.6272208094596863, -0.32514747977256775, -0.1801750808954239, -0.07558166980743408, 1.516974925994873, 1.250274896621704, 0.3499516248703003, 1.2223873138427734, -1.0207087993621826, 1.6120985746383667, 1.765250325202942, 1.0561089515686035], [-0.35523679852485657, 0.028001219034194946, -0.023306548595428467, 0.2519499957561493, -0.1476602554321289, -0.30195027589797974, 0.03175589442253113, 0.18518105149269104, 0.27976325154304504, -0.007464230060577393, -0.19888904690742493, 0.3796185553073883, 0.27189603447914124, 0.213128000497818, -0.03236457705497742, -0.011525630950927734], [-0.16412872076034546, -0.27308592200279236, 0.9852061867713928, -0.06730267405509949, 0.9275225400924683, 0.38635674118995667, 0.14359678328037262, 0.26296719908714294, 1.4198172092437744, 1.570306658744812, 0.29823553562164307, 1.7318676710128784, -1.9180816411972046, 0.919022798538208, 1.6886872053146362, 1.6893621683120728], [-0.3516741394996643, 0.24998024106025696, 0.4014629125595093, -0.12807771563529968, 1.255177617073059, -0.07820776849985123, -0.4255310595035553, 0.18258795142173767, 1.0027344226837158, 0.967843234539032, 0.3623008131980896, 0.7626636624336243, -4.447969913482666, 1.163589358329773, 0.9874125123023987, 1.4151854515075684], [-0.42476704716682434, -0.33665257692337036, 0.7336350679397583, 0.3578295409679413, 0.7483596801757812, 0.24003757536411285, 0.2783704698085785, -0.28455883264541626, 1.0509686470031738, 1.1427966356277466, -0.05755823105573654, 0.6800425052642822, -1.1707457304000854, 1.235964059829712, 1.051364779472351, 0.5011153221130371], [-0.22945387661457062, 0.25967180728912354, 3.3938252925872803, -0.42199137806892395, -0.3967607319355011, -1.6923922300338745, -3.2309091091156006, -0.38587018847465515, 1.9953564405441284, 2.2066657543182373, 4.3842997550964355, 2.3955509662628174, -0.07085495442152023, 2.4125587940216064, 1.8272087574005127, 2.0008089542388916], [0.37897810339927673, 0.24271686375141144, 4.802380084991455, -0.00572630763053894, 0.13610370457172394, -8.332629203796387, -6.517576217651367, -0.08587092161178589, 3.634448766708374, 3.794128894805908, 5.557761192321777, 3.768226385116577, -2.476440191268921, 3.9958736896514893, 3.7174179553985596, 4.08714485168457], [0.304974228143692, 0.2696148753166199, 1.89495050907135, -0.39930829405784607, -0.8828614354133606, -0.3187670409679413, -0.9405574798583984, 0.16299691796302795, 2.049494743347168, 1.7566734552383423, 0.924325704574585, 2.0699379444122314, 0.7122094035148621, 1.8862829208374023, 1.7185027599334717, 1.864557147026062], [-0.4174046218395233, -0.132147878408432, 0.1168658435344696, 0.2332225739955902, -0.20015938580036163, -0.09034329652786255, 0.331015020608902, -0.006660938262939453, -0.4155735969543457, 0.39300063252449036, -0.41028323769569397, -0.2539069950580597, 0.2648836076259613, -0.002907305955886841, -0.276605486869812, 0.13629576563835144], [-0.016684532165527344, 0.11252981424331665, -1.2588869333267212, 0.11276832222938538, 0.07888113707304001, 0.2799527943134308, 0.8394014239311218, 0.3068901002407074, 0.8757492303848267, 0.2935899794101715, -1.7929049730300903, 0.4515894949436188, 1.8125749826431274, 0.7192370891571045, 0.3284437954425812, 0.7755253911018372], [0.25968459248542786, -0.306143194437027, 0.32923102378845215, 0.16234001517295837, -0.27199462056159973, 0.2682676613330841, 0.06079047918319702, 0.36974528431892395, 0.22481760382652283, -0.20629338920116425, -0.23643824458122253, -0.24357634782791138, 0.194184809923172, -0.2924346327781677, 0.3007121980190277, 0.0074264369904994965], [-0.1507311761379242, 0.044493418186903, 0.7014880776405334, -0.3996855318546295, 1.3695933818817139, 0.2749166786670685, 0.16744506359100342, -0.2805216312408447, 0.28431594371795654, 0.3016826808452606, 0.058188680559396744, 0.9494134187698364, -1.7016392946243286, 0.6962063312530518, 0.2908637821674347, 0.962722897529602], [-0.14382174611091614, 0.19352439045906067, -0.2760092616081238, -0.26395702362060547, -0.22722867131233215, -0.2805171608924866, 0.14011475443840027, 0.3005029857158661, 0.30112209916114807, 0.1495901644229889, 0.42254289984703064, -0.002069920301437378, -0.4287979006767273, 0.4179072082042694, 0.41202589869499207, 0.044462770223617554], [-0.03691139817237854, -0.2231423407793045, 0.2715153992176056, 0.04770517349243164, 0.39524421095848083, 0.6191793084144592, -0.1687450110912323, -0.30672740936279297, 1.1441630125045776, 1.3732846975326538, 0.2695375978946686, 1.2637848854064941, -0.9133390784263611, 0.9082950353622437, 1.1387946605682373, 0.9118097424507141], [0.3197005093097687, 0.1430489718914032, -0.16875317692756653, -0.2926545739173889, 0.07954031229019165, -0.04278118163347244, -0.23716512322425842, 0.4106239378452301, 0.15314050018787384, -0.23296763002872467, 0.00784352421760559, -0.3639255464076996, -0.3056158423423767, 0.0027873895596712828, -0.2820705771446228, 0.16817691922187805]], "weight_1": [0.0, -0.12800589203834534, -0.7661992311477661, 0.0, -0.11735466122627258, 0.6925267577171326, 0.8147680759429932, 0.0, 0.8511561751365662, 0.8527573347091675, -0.583245038986206, 0.8494253158569336, 1.834987759590149, 0.8498185276985168, 0.8526046872138977, 0.8501640558242798]}, "layer_2": {"weight_0": [[0.21519601345062256], [-0.0366157591342926], [-4.237666130065918], [0.1306329369544983], [-2.8187434673309326], [-4.159893989562988], [-6.158604145050049], [-0.39266717433929443], [1.6186162233352661], [1.6999802589416504], [-5.217551231384277], [2.0426580905914307], [-7.524825096130371], [1.918539047241211], [1.7547740936279297], [1.9314357042312622]], "weight_1": [0.859470009803772]}}