{
	"layer_0": {
		"weight_0": [
			[
				-0.050983726978302,
				0.6448619961738586,
				0.4188496470451355,
				-8.740246772766113,
				0.00962330773472786,
				-0.3734172582626343,
				0.2862344980239868,
				1.6559393405914307,
				-0.8182705044746399,
				0.13592270016670227,
				-0.9419981837272644,
				0.9256067872047424
			],
			[
				-0.5749036073684692,
				-3.8766818046569824,
				1.1356232166290283,
				0.48828941583633423,
				-0.06065390631556511,
				-0.5369046330451965,
				-0.5494093298912048,
				-0.932884693145752,
				3.970710039138794,
				-0.4868288040161133,
				5.3251190185546875,
				-7.016417980194092
			]
		],
		"weight_1": [
			0.0,
			0.7626469135284424,
			0.41975003480911255,
			2.0446901321411133,
			-0.002805389929562807,
			0.0,
			0.5504852533340454,
			0.3574756383895874,
			0.987008273601532,
			0.4947434365749359,
			0.4296349883079529,
			0.5825530886650085
		]
	},
	"layer_1": {
		"weight_0": [
			[
				-0.21167948842048645,
				0.019813895225524902,
				-0.3965274691581726,
				-0.27398282289505005,
				0.4039895534515381,
				-0.4203818440437317
			],
			[
				-0.4154336154460907,
				-0.48051100969314575,
				0.05351799726486206,
				1.0677340030670166,
				-0.2663993239402771,
				1.5901782512664795
			],
			[
				0.1560872197151184,
				-0.22591672837734222,
				-0.23036931455135345,
				-1.6218045949935913,
				-0.3941093385219574,
				-0.5675203204154968
			],
			[
				-0.30046817660331726,
				0.10950235277414322,
				1.1706846952438354,
				-0.11560187488794327,
				-0.46955838799476624,
				-0.4633927643299103
			],
			[
				-0.07556428760290146,
				-0.5258691906929016,
				0.09657859802246094,
				-0.1321224868297577,
				0.42902329564094543,
				-0.4067344665527344
			],
			[
				-0.03286778926849365,
				0.017480850219726562,
				-0.05941802263259888,
				0.4245326519012451,
				0.18780046701431274,
				-0.5523225665092468
			],
			[
				0.2359301596879959,
				-0.17986039817333221,
				-0.6560729146003723,
				0.33628466725349426,
				0.6758905053138733,
				-0.4957762658596039
			],
			[
				0.8747545480728149,
				0.7592076659202576,
				-0.6066638231277466,
				-0.6692177653312683,
				0.9843415021896362,
				0.4816165268421173
			],
			[
				0.08566206693649292,
				-0.08597264438867569,
				-0.22389854490756989,
				-0.49648317694664,
				0.10254206508398056,
				0.14419877529144287
			],
			[
				0.67537921667099,
				0.9520431160926819,
				-0.5166618824005127,
				0.25267040729522705,
				0.5536972284317017,
				0.21745041012763977
			],
			[
				-0.06996604800224304,
				0.04007931426167488,
				-0.14379097521305084,
				-2.1687228679656982,
				0.09680746495723724,
				-0.29546672105789185
			],
			[
				0.9322383403778076,
				0.51862633228302,
				0.2612990140914917,
				2.5014467239379883,
				0.8168713450431824,
				0.5391415357589722
			]
		],
		"weight_1": [
			0.6795191168785095,
			0.7471312880516052,
			-0.14093713462352753,
			0.9018080830574036,
			0.7944847941398621,
			0.8941877484321594
		]
	},
	"layer_2": {
		"weight_0": [
			[
				-0.8181597590446472,
				-0.5477396845817566,
				1.127867579460144,
				1.6457802057266235
			],
			[
				-0.6493158340454102,
				-0.7567382454872131,
				0.6485558152198792,
				0.8869534730911255
			],
			[
				0.5102744698524475,
				0.046523258090019226,
				-2.2475404739379883,
				-1.006151556968689
			],
			[
				-0.21409326791763306,
				0.0992065966129303,
				4.274374961853027,
				3.802483081817627
			],
			[
				-0.5553932189941406,
				0.5418798923492432,
				1.4239388704299927,
				2.1796557903289795
			],
			[
				0.5814051032066345,
				0.0697798803448677,
				3.2833995819091797,
				3.9339401721954346
			]
		],
		"weight_1": [
			-0.060974106192588806,
			0.03474391996860504,
			0.710105836391449,
			0.7022472023963928
		]
	},
	"layer_3": {
		"weight_0": [
			[
				0.431911438703537
			],
			[
				-2.3916187286376953
			],
			[
				3.7701845169067383
			],
			[
				3.1395928859710693
			]
		],
		"weight_1": [
			0.7293242812156677
		]
	}
}