{
	"layer_0": {
		"weight_0": [
			[
				-0.050983726978302,
				0.6153032779693604,
				0.5886020660400391,
				-4.636141300201416,
				0.00962330773472786,
				-0.3734172582626343,
				0.6916784644126892,
				1.4590703248977661,
				-0.29397815465927124,
				0.3855893015861511,
				0.328912615776062,
				0.7199522852897644
			],
			[
				-0.5749036073684692,
				-3.7597975730895996,
				1.0327653884887695,
				-0.17189864814281464,
				-0.06065390631556511,
				-0.5369046330451965,
				-0.7654895186424255,
				-0.9885891079902649,
				3.3233470916748047,
				-0.6299750804901123,
				4.413425445556641,
				-5.446811199188232
			]
		],
		"weight_1": [
			0.0,
			0.7909664511680603,
			0.48915013670921326,
			1.0119973421096802,
			-0.002805389929562807,
			0.0,
			0.7508546710014343,
			0.5542890429496765,
			0.9483615159988403,
			0.6242488622665405,
			0.6621497273445129,
			0.4696178138256073
		]
	},
	"layer_1": {
		"weight_0": [
			[
				-0.21167948842048645,
				0.019813895225524902,
				-0.3965274691581726,
				-0.27398282289505005,
				0.4039895534515381,
				-0.4203818440437317
			],
			[
				0.0985032245516777,
				0.04031110927462578,
				-0.03943200409412384,
				1.2382036447525024,
				0.2452981173992157,
				1.7491375207901
			],
			[
				0.26121029257774353,
				-0.10964982211589813,
				-0.07565686106681824,
				-0.6950485110282898,
				-0.29621708393096924,
				-0.38216325640678406
			],
			[
				-1.2573353052139282,
				-0.8442391753196716,
				0.44652968645095825,
				-0.24716401100158691,
				-1.4404577016830444,
				-1.6636345386505127
			],
			[
				-0.07556428760290146,
				-0.5258691906929016,
				0.09657859802246094,
				-0.1321224868297577,
				0.42902329564094543,
				-0.4067344665527344
			],
			[
				-0.03286778926849365,
				0.017480850219726562,
				-0.05941802263259888,
				0.4245326519012451,
				0.18780046701431274,
				-0.5523225665092468
			],
			[
				0.30689406394958496,
				-0.09208264946937561,
				-0.4188213646411896,
				0.6756486296653748,
				0.7361951470375061,
				-0.19446749985218048
			],
			[
				1.1286839246749878,
				1.017273187637329,
				0.09791923314332962,
				0.6588718891143799,
				1.2471047639846802,
				0.8987021446228027
			],
			[
				0.11429169774055481,
				-0.042077116668224335,
				-0.29334697127342224,
				-1.367584228515625,
				0.11324184387922287,
				0.05119301751255989
			],
			[
				0.734612226486206,
				1.0305780172348022,
				-0.31522834300994873,
				0.4053705930709839,
				0.5961136817932129,
				0.47694137692451477
			],
			[
				-0.045151062309741974,
				0.07820688188076019,
				-0.2486039400100708,
				-2.1055445671081543,
				0.10767080634832382,
				-0.41191667318344116
			],
			[
				1.5847387313842773,
				1.1752941608428955,
				-0.050438474863767624,
				2.845268726348877,
				1.4681551456451416,
				1.1911197900772095
			]
		],
		"weight_1": [
			0.5892016887664795,
			0.6759093403816223,
			-0.03484798222780228,
			0.6899842619895935,
			0.6847474575042725,
			0.8787220120429993
		]
	},
	"layer_2": {
		"weight_0": [
			[
				-0.7617950439453125,
				-0.4263673424720764,
				0.8610315918922424,
				1.3819553852081299
			],
			[
				-0.591788113117218,
				-0.5023084282875061,
				0.8072972893714905,
				1.0497602224349976
			],
			[
				0.5709845423698425,
				0.06979191303253174,
				-0.6139187812805176,
				0.631914496421814
			],
			[
				-0.21409326791763306,
				0.09604436904191971,
				5.162485122680664,
				4.690556526184082
			],
			[
				-0.5033193230628967,
				0.47299548983573914,
				1.0177712440490723,
				1.7762497663497925
			],
			[
				0.5814051032066345,
				0.06661762297153473,
				2.244640588760376,
				2.8961915969848633
			]
		],
		"weight_1": [
			0.006252792198210955,
			-0.07437875121831894,
			0.6093692183494568,
			0.6066948175430298
		]
	},
	"layer_3": {
		"weight_0": [
			[
				0.4949309825897217
			],
			[
				-0.5350294709205627
			],
			[
				3.14007830619812
			],
			[
				2.6371448040008545
			]
		],
		"weight_1": [
			0.6195520758628845
		]
	}
}