{
	"layer_0": {
		"weight_0": [
			[
				-0.7289556264877319,
				-0.752513587474823,
				-0.20830821990966797,
				12.712401390075684,
				-0.47348830103874207,
				0.41270172595977783,
				-0.42013078927993774,
				0.7035990953445435,
				4.938533306121826,
				2.620941638946533,
				-0.24927636981010437,
				0.9593179225921631,
				-0.3671647012233734,
				-0.4918280839920044
			],
			[
				0.2768235206604004,
				-1.847456932067871,
				0.10891275107860565,
				-0.7117044925689697,
				-0.5714530348777771,
				-2.3627922534942627,
				-0.2720925211906433,
				-5.230100631713867,
				-20.319623947143555,
				-0.20840242505073547,
				-0.19191491603851318,
				-8.069393157958984,
				-0.01095038652420044,
				-0.25943803787231445
			]
		],
		"weight_1": [
			-0.2825227677822113,
			2.529926061630249,
			-0.11115284264087677,
			1.3374472856521606,
			0.0,
			1.08126962184906,
			0.0,
			1.1581668853759766,
			1.071979284286499,
			0.5975077748298645,
			0.0,
			0.7418432235717773,
			0.0,
			0.0
		]
	},
	"layer_1": {},
	"layer_2": {},
	"layer_3": {},
	"layer_4": {
		"weight_0": [
			[
				-1.7318280935287476,
				-0.41664373874664307,
				-0.27000322937965393,
				2.3728482723236084,
				-0.8092851638793945,
				-0.41961681842803955,
				-0.21835649013519287,
				-0.5000953078269958,
				-2.0227482318878174,
				-1.4034433364868164,
				1.2449629306793213,
				-0.36589622497558594,
				-0.363947331905365,
				-0.7262393236160278
			],
			[
				1.7433925867080688,
				-0.12554630637168884,
				0.4701167643070221,
				-4.996195316314697,
				1.4126207828521729,
				1.350843906402588,
				0.6879854202270508,
				1.278062105178833,
				0.7997744679450989,
				2.091177463531494,
				0.3180491626262665,
				-0.3414868712425232,
				1.3008458614349365,
				1.3287091255187988
			],
			[
				-1.3828939199447632,
				-0.4526945948600769,
				0.8660116195678711,
				0.7137377858161926,
				0.9749240279197693,
				0.040387578308582306,
				0.4246596693992615,
				0.3351095914840698,
				-1.5493965148925781,
				0.14759515225887299,
				-0.020624160766601562,
				0.3963916301727295,
				0.3505033850669861,
				0.5643625259399414
			],
			[
				-1.7268048524856567,
				0.4809812605381012,
				0.9149327874183655,
				0.7742695212364197,
				0.566573441028595,
				1.010811686515808,
				0.7159559726715088,
				0.4390905201435089,
				-0.4072992503643036,
				-0.34961190819740295,
				-0.3411499559879303,
				0.409393310546875,
				0.37378236651420593,
				0.18150684237480164
			],
			[
				2.1031885147094727,
				0.1419685035943985,
				4.005703926086426,
				-1.7262330055236816,
				3.437164068222046,
				3.74487042427063,
				3.704021692276001,
				3.8857626914978027,
				1.4932725429534912,
				0.5239580273628235,
				-2.904487371444702,
				-0.1412096619606018,
				3.5223388671875,
				3.4815919399261475
			],
			[
				0.5164101719856262,
				0.30115607380867004,
				2.511489152908325,
				3.393862247467041,
				2.449221611022949,
				1.7283598184585571,
				2.5848395824432373,
				2.0945143699645996,
				2.013258695602417,
				-0.8611549735069275,
				-1.3096212148666382,
				-0.08299702405929565,
				1.7515958547592163,
				2.470012664794922
			],
			[
				0.5328791737556458,
				-0.40471529960632324,
				-0.12933319807052612,
				-0.1964564025402069,
				-0.42338821291923523,
				0.15360313653945923,
				0.4913380742073059,
				-0.01859492063522339,
				0.48037582635879517,
				0.40902799367904663,
				0.3538009524345398,
				-0.19971200823783875,
				-0.3258957862854004,
				-0.13232436776161194
			]
		],
		"weight_1": [
			-1.2794828414916992,
			-0.1059742420911789,
			-0.8894393444061279,
			2.3004989624023438,
			-0.8900140523910522,
			-0.891257643699646,
			-0.8829425573348999,
			-0.8781006932258606,
			-1.2991068363189697,
			-0.060955148190259933,
			1.6428565979003906,
			-0.006324549205601215,
			-0.8913215398788452,
			-0.8811466693878174
		]
	},
	"layer_5": {
		"weight_0": [
			[
				-5.3175249099731445
			],
			[
				-0.34349507093429565
			],
			[
				2.1633763313293457
			],
			[
				-8.924704551696777
			],
			[
				2.270819902420044
			],
			[
				1.9018176794052124
			],
			[
				2.512995958328247
			],
			[
				2.099709987640381
			],
			[
				-3.454993724822998
			],
			[
				-4.450238227844238
			],
			[
				-5.291487693786621
			],
			[
				0.5275940299034119
			],
			[
				2.236295700073242
			],
			[
				2.306880235671997
			]
		],
		"weight_1": [
			-0.8449169397354126
		]
	}
}