{
	"layer_0": {
		"weight_0": [
			[
				-0.2895870804786682,
				-0.25785523653030396,
				-8.597131729125977,
				1.5194348096847534,
				0.28262338042259216,
				-0.20207814872264862,
				1.8546757698059082,
				-0.3241385221481323,
				1.1274197101593018,
				-0.037750668823719025,
				0.3850032389163971,
				-3.9582271575927734,
				-10.657868385314941,
				0.015188946388661861
			],
			[
				-0.34459033608436584,
				-0.5426161885261536,
				-4.247070789337158,
				-3.3916573524475098,
				-0.23491020500659943,
				4.381656169891357,
				-0.5013858079910278,
				-0.11026912927627563,
				0.9104655981063843,
				-0.5399090051651001,
				0.6086562275886536,
				3.3190362453460693,
				5.117218017578125,
				-0.17950211465358734
			]
		],
		"weight_1": [
			0.0,
			0.7860332727432251,
			3.484879970550537,
			0.7913711667060852,
			-0.25589218735694885,
			0.011945378966629505,
			0.007339014671742916,
			0.0,
			0.4407864511013031,
			0.5307309627532959,
			1.6824904680252075,
			1.2585667371749878,
			1.162498950958252,
			-0.0031622452661395073
		]
	},
	"layer_1": {
		"weight_0": [
			[
				-0.3110504448413849,
				-0.04077339172363281,
				0.40453821420669556,
				0.2413986325263977,
				-0.48119935393333435,
				-0.14864066243171692
			],
			[
				0.24738404154777527,
				0.5007827281951904,
				-0.910271167755127,
				0.10098057240247726,
				-0.34734418988227844,
				0.24876736104488373
			],
			[
				2.21738338470459,
				-0.2060784250497818,
				-7.330102443695068,
				0.08553555607795715,
				0.7681812047958374,
				0.37862399220466614
			],
			[
				1.3289799690246582,
				0.7720332741737366,
				-0.40026527643203735,
				0.34070268273353577,
				0.6598765850067139,
				-0.3956003785133362
			],
			[
				-0.10637596994638443,
				-0.10790330171585083,
				-0.4825316071510315,
				-0.06672798842191696,
				0.13711017370224,
				-0.31489455699920654
			],
			[
				-5.510526657104492,
				-0.07146399468183517,
				0.015159361064434052,
				-0.3017885386943817,
				-1.0254377126693726,
				-0.9438915848731995
			],
			[
				0.1960562914609909,
				0.2936064600944519,
				-1.8288153409957886,
				0.17452380061149597,
				-1.330541729927063,
				-1.3099586963653564
			],
			[
				0.190171480178833,
				0.3027395009994507,
				0.5017812252044678,
				-0.13213405013084412,
				0.4222303032875061,
				0.0037720203399658203
			],
			[
				-0.5666149854660034,
				-0.004369519650936127,
				0.5963774919509888,
				-0.11514785140752792,
				-0.7715290188789368,
				-0.5915708541870117
			],
			[
				-0.03293820470571518,
				0.18120628595352173,
				-0.42661821842193604,
				0.04249376803636551,
				-0.06374939531087875,
				0.002691231667995453
			],
			[
				-0.41014546155929565,
				0.5666686296463013,
				-0.210948184132576,
				-0.6773064732551575,
				0.07355858385562897,
				-0.3866725265979767
			],
			[
				-5.824228763580322,
				-0.2250567227602005,
				0.49906501173973083,
				-0.18097126483917236,
				0.2120518833398819,
				-0.06836913526058197
			],
			[
				-1.0915659666061401,
				-0.1341302990913391,
				-0.2383480966091156,
				-0.23214653134346008,
				0.6604983806610107,
				0.6169951558113098
			],
			[
				-0.07652685046195984,
				-0.513181209564209,
				-0.15409255027770996,
				-0.1550573706626892,
				-0.44158047437667847,
				0.33152705430984497
			]
		],
		"weight_1": [
			2.0745060443878174,
			0.7606602311134338,
			-0.4219590723514557,
			1.350685954093933,
			-0.07784029096364975,
			-0.21212564408779144
		]
	},
	"layer_2": {
		"weight_0": [
			[
				0.9324514865875244,
				0.9958144426345825,
				1.2618749141693115,
				0.10662682354450226
			],
			[
				1.7563815116882324,
				2.801609516143799,
				1.491689682006836,
				-2.5125489234924316
			],
			[
				0.9989648461341858,
				1.3505115509033203,
				1.2459057569503784,
				-2.624185562133789
			],
			[
				3.869772434234619,
				3.552828311920166,
				3.9222564697265625,
				-0.084591343998909
			],
			[
				-0.4087502956390381,
				-0.21676629781723022,
				0.3724762499332428,
				0.8483313918113708
			],
			[
				-1.0768338441848755,
				-0.9388844966888428,
				-1.284159779548645,
				2.366021156311035
			]
		],
		"weight_1": [
			-0.04584378004074097,
			-0.04450763389468193,
			-0.040622174739837646,
			1.7697436809539795
		]
	},
	"layer_3": {
		"weight_0": [
			[
				4.648144721984863
			],
			[
				3.991345167160034
			],
			[
				4.757189750671387
			],
			[
				-8.568294525146484
			]
		],
		"weight_1": [
			-0.009322581812739372
		]
	}
}