{
	"layer_0": {
		"weight_0": [
			[
				6.573903560638428,
				-6.742702960968018,
				4.127973556518555,
				-9.020824432373047,
				3.1230921745300293,
				-7.841299057006836,
				-10.386860847473145,
				6.147655010223389,
				-8.953628540039062,
				5.250438213348389,
				6.214888572692871,
				-6.50917387008667,
				7.930150032043457,
				-9.059822082519531,
				4.621877193450928,
				-8.111618041992188
			],
			[
				0.27602311968803406,
				7.430136203765869,
				-20.37055015563965,
				-2.361994504928589,
				1.7742666006088257,
				-2.1556026935577393,
				-3.7531960010528564,
				-2.198357105255127,
				7.695671558380127,
				-20.383853912353516,
				-0.0060195703990757465,
				-1.1661652326583862,
				-3.3951778411865234,
				-1.9845073223114014,
				-7.235944747924805,
				9.171856880187988
			]
		],
		"weight_1": [
			-0.4198708236217499,
			-9.23336410522461,
			0.7096042633056641,
			-8.469186782836914,
			4.025624752044678,
			-8.128002166748047,
			-7.961127281188965,
			0.37773847579956055,
			-7.37965726852417,
			1.506805658340454,
			0.13566239178180695,
			-8.335638046264648,
			2.8999671936035156,
			-8.14449405670166,
			1.7667930126190186,
			-8.670400619506836
		]
	},
	"layer_1": {},
	"layer_2": {
		"weight_0": [
			[
				-16.774044036865234,
				-16.6951847076416,
				-5.356482982635498,
				-3.3771233558654785,
				-1.4057875871658325,
				-15.613096237182617,
				-19.278974533081055,
				-2.707455635070801
			],
			[
				14.351301193237305,
				14.373976707458496,
				3.5915017127990723,
				-0.07235939055681229,
				-0.3517830967903137,
				14.349811553955078,
				14.01181411743164,
				1.5623579025268555
			],
			[
				-21.12888526916504,
				-21.656055450439453,
				7.640664100646973,
				0.13329675793647766,
				2.583513021469116,
				-20.733137130737305,
				-25.05674934387207,
				-1.4246113300323486
			],
			[
				13.382246971130371,
				13.74913215637207,
				3.7744648456573486,
				0.2942397892475128,
				0.4126962125301361,
				13.818642616271973,
				13.87166976928711,
				1.7273173332214355
			],
			[
				-12.86111831665039,
				-12.586432456970215,
				-1.9528135061264038,
				0.470992773771286,
				-0.1189751923084259,
				-12.65708065032959,
				-11.785950660705566,
				-0.9324473738670349
			],
			[
				13.601311683654785,
				13.567048072814941,
				3.6844022274017334,
				0.4733462333679199,
				0.5149040818214417,
				13.788249015808105,
				13.615591049194336,
				0.9934937953948975
			],
			[
				13.387572288513184,
				13.965995788574219,
				3.520843505859375,
				0.04725627228617668,
				0.6852957010269165,
				13.574172019958496,
				14.015055656433105,
				1.4595671892166138
			],
			[
				-16.687633514404297,
				-16.856576919555664,
				2.31064772605896,
				-0.6317234039306641,
				0.47674915194511414,
				-16.092830657958984,
				-19.5012264251709,
				1.3589706420898438
			],
			[
				15.599527359008789,
				14.754633903503418,
				2.549893379211426,
				0.04399154335260391,
				-0.5517242550849915,
				14.53083610534668,
				16.34290885925293,
				1.015302300453186
			],
			[
				-22.685693740844727,
				-22.339378356933594,
				3.113325357437134,
				0.17434823513031006,
				-1.1779980659484863,
				-22.027246475219727,
				-26.34231948852539,
				2.63739275932312
			],
			[
				-14.450974464416504,
				-14.63125228881836,
				0.6449776887893677,
				4.470510482788086,
				1.4610183238983154,
				-13.966387748718262,
				-17.583444595336914,
				1.374550700187683
			],
			[
				13.587268829345703,
				14.00508975982666,
				3.987825393676758,
				0.7625560760498047,
				0.32314321398735046,
				13.990571022033691,
				13.219069480895996,
				0.9600051045417786
			],
			[
				-16.349992752075195,
				-16.885604858398438,
				0.3499071002006531,
				0.3839939832687378,
				0.3070034980773926,
				-16.176082611083984,
				-19.53929328918457,
				0.8653963804244995
			],
			[
				13.906387329101562,
				13.615971565246582,
				3.6687281131744385,
				0.37896865606307983,
				0.5097216367721558,
				13.522290229797363,
				14.2670316696167,
				1.229514241218567
			],
			[
				-19.266864776611328,
				-18.992382049560547,
				0.9239981770515442,
				0.14014722406864166,
				0.45257171988487244,
				-17.975290298461914,
				-22.737140655517578,
				0.4882187247276306
			],
			[
				14.488926887512207,
				14.816426277160645,
				2.7714767456054688,
				-0.4455374777317047,
				-0.6573665142059326,
				14.77060317993164,
				16.12307357788086,
				1.7255887985229492
			]
		],
		"weight_1": [
			-10.520389556884766,
			-10.572844505310059,
			-3.59004545211792,
			-0.50019770860672,
			-0.5583667755126953,
			-10.586871147155762,
			-8.886170387268066,
			-0.05031450092792511
		]
	},
	"layer_3": {},
	"layer_4": {
		"weight_0": [
			[
				0.8545658588409424,
				14.513880729675293,
				15.482085227966309,
				14.638136863708496
			],
			[
				0.8524459004402161,
				15.281396865844727,
				15.509561538696289,
				15.12399959564209
			],
			[
				0.11745141446590424,
				-31.299121856689453,
				-31.03571319580078,
				-32.037532806396484
			],
			[
				0.544422447681427,
				-14.422409057617188,
				-14.653631210327148,
				-14.625262260437012
			],
			[
				0.6334787011146545,
				-18.28742218017578,
				-18.15774154663086,
				-17.434370040893555
			],
			[
				0.9632983207702637,
				14.996078491210938,
				15.494841575622559,
				15.328509330749512
			],
			[
				0.65339195728302,
				15.221136093139648,
				15.447504043579102,
				14.800976753234863
			],
			[
				0.3801193833351135,
				-18.818470001220703,
				-19.57370376586914,
				-18.7074031829834
			]
		],
		"weight_1": [
			-1.1728354692459106,
			0.46058836579322815,
			0.4302592873573303,
			0.46958276629447937
		]
	},
	"layer_5": {},
	"layer_6": {
		"weight_0": [
			[
				19.992467880249023
			],
			[
				-19.391441345214844
			],
			[
				-19.498682022094727
			],
			[
				-19.87490463256836
			]
		],
		"weight_1": [
			-0.3691251277923584
		]
	}
}