{
	"layer_0": {
		"weight_0": [
			[
				6.540754795074463,
				-4.1867475509643555,
				4.686013221740723,
				-8.476338386535645,
				2.7496132850646973,
				-7.308555603027344,
				-10.015533447265625,
				6.514150142669678,
				-8.513882637023926,
				5.860691070556641,
				6.276439666748047,
				-5.738485336303711,
				8.1893310546875,
				-8.54953384399414,
				5.005621910095215,
				-13.118145942687988
			],
			[
				0.2512989342212677,
				8.897138595581055,
				-22.856203079223633,
				-3.0486583709716797,
				1.1360417604446411,
				-2.925598382949829,
				-4.500349998474121,
				-2.1738295555114746,
				7.792250156402588,
				-22.27402687072754,
				0.054307255893945694,
				-1.9397469758987427,
				-4.539883613586426,
				-2.7294933795928955,
				-7.520208358764648,
				9.403871536254883
			]
		],
		"weight_1": [
			-0.36683860421180725,
			-8.895564079284668,
			0.8872435092926025,
			-8.0783052444458,
			4.668856620788574,
			-7.742380619049072,
			-7.6165571212768555,
			0.3680039644241333,
			-7.457131862640381,
			1.7636305093765259,
			0.021798506379127502,
			-7.940930366516113,
			3.479201078414917,
			-7.762717247009277,
			1.7873958349227905,
			-8.085576057434082
		]
	},
	"layer_1": {},
	"layer_2": {
		"weight_0": [
			[
				-16.092029571533203,
				-16.009418487548828,
				-7.135725498199463,
				-3.631655216217041,
				-1.4489916563034058,
				-14.953032493591309,
				-18.529010772705078,
				-3.3926777839660645
			],
			[
				14.256241798400879,
				14.276471138000488,
				4.501928806304932,
				-0.8910250067710876,
				-0.6584308743476868,
				14.272440910339355,
				13.861112594604492,
				1.468489408493042
			],
			[
				-21.582630157470703,
				-22.100505828857422,
				8.23934268951416,
				0.3201666474342346,
				2.335822582244873,
				-21.213821411132812,
				-25.409957885742188,
				-1.6124579906463623
			],
			[
				13.386489868164062,
				13.751033782958984,
				4.173782825469971,
				0.811351478099823,
				0.6134651303291321,
				13.840398788452148,
				13.82127857208252,
				1.921039342880249
			],
			[
				-12.661548614501953,
				-12.384969711303711,
				-2.1503801345825195,
				0.5702858567237854,
				-0.09984834492206573,
				-12.473729133605957,
				-11.536819458007812,
				-0.888482391834259
			],
			[
				13.614502906799316,
				13.577960968017578,
				4.151016712188721,
				0.9705750942230225,
				0.712940514087677,
				13.819068908691406,
				13.57494831085205,
				1.1734615564346313
			],
			[
				13.380733489990234,
				13.956701278686523,
				3.760221004486084,
				0.6963927149772644,
				0.9225790500640869,
				13.585223197937012,
				13.953499794006348,
				1.6845788955688477
			],
			[
				-16.344722747802734,
				-16.509456634521484,
				2.942937135696411,
				-0.5326222777366638,
				0.34636950492858887,
				-15.772058486938477,
				-19.08521270751953,
				1.5127475261688232
			],
			[
				15.518526077270508,
				14.669939994812012,
				2.9843621253967285,
				-0.020765958353877068,
				-0.7429684996604919,
				14.470139503479004,
				16.19621467590332,
				1.1220625638961792
			],
			[
				-24.048725128173828,
				-23.69355010986328,
				3.263436794281006,
				0.06245003268122673,
				-1.1444703340530396,
				-23.417421340942383,
				-27.6063289642334,
				2.348005533218384
			],
			[
				-13.903788566589355,
				-14.080463409423828,
				1.2407759428024292,
				4.680030345916748,
				1.5392717123031616,
				-13.440235137939453,
				-16.968788146972656,
				1.8791762590408325
			],
			[
				13.612805366516113,
				14.028389930725098,
				4.612895965576172,
				1.1421709060668945,
				0.4872719347476959,
				14.033604621887207,
				13.19147777557373,
				1.0908418893814087
			],
			[
				-16.32215690612793,
				-16.85553550720215,
				0.16555684804916382,
				0.33783048391342163,
				0.32648760080337524,
				-16.16544532775879,
				-19.45859146118164,
				0.7760274410247803
			],
			[
				13.903388023376465,
				13.610858917236328,
				4.038704872131348,
				0.8857165575027466,
				0.7039015889167786,
				13.537111282348633,
				14.20956039428711,
				1.4263266324996948
			],
			[
				-19.9403018951416,
				-19.6602725982666,
				1.1226942539215088,
				0.0833410695195198,
				0.47452858090400696,
				-18.6722412109375,
				-23.33066749572754,
				0.3888164758682251
			],
			[
				14.549225807189941,
				14.872940063476562,
				3.244281053543091,
				-0.25164520740509033,
				-0.878962516784668,
				14.85067081451416,
				16.11736297607422,
				1.8076006174087524
			]
		],
		"weight_1": [
			-10.638039588928223,
			-10.688867568969727,
			-4.983445167541504,
			-0.5453246235847473,
			-0.6024875044822693,
			-10.72045612335205,
			-8.956147193908691,
			0.20858129858970642
		]
	},
	"layer_3": {},
	"layer_4": {
		"weight_0": [
			[
				0.8529641032218933,
				13.088897705078125,
				14.057119369506836,
				13.213284492492676
			],
			[
				0.8488579988479614,
				13.860979080200195,
				14.089168548583984,
				13.703716278076172
			],
			[
				0.12779946625232697,
				-36.89911651611328,
				-36.63577651977539,
				-37.637691497802734
			],
			[
				0.5998597741127014,
				-13.882508277893066,
				-14.11375617980957,
				-14.085494041442871
			],
			[
				0.6501298546791077,
				-16.733407974243164,
				-16.603740692138672,
				-15.880472183227539
			],
			[
				0.9622964262962341,
				13.580613136291504,
				14.079378128051758,
				13.913164138793945
			],
			[
				0.6506089568138123,
				13.755382537841797,
				13.981746673583984,
				13.335339546203613
			],
			[
				0.4219510555267334,
				-16.906110763549805,
				-17.661359786987305,
				-16.795120239257812
			]
		],
		"weight_1": [
			-1.43375563621521,
			1.284654974937439,
			1.2543047666549683,
			1.293534755706787
		]
	},
	"layer_5": {},
	"layer_6": {
		"weight_0": [
			[
				19.20447540283203
			],
			[
				-21.2135009765625
			],
			[
				-21.25925636291504
			],
			[
				-21.774234771728516
			]
		],
		"weight_1": [
			-1.1886394023895264
		]
	}
}