{
	"layer_0": {
		"weight_0": [
			[
				0.6295257806777954,
				-0.36808669567108154,
				1.62199068069458,
				1.4461078643798828,
				1.127593994140625,
				2.334580183029175,
				2.493957757949829,
				-2.172109842300415,
				3.218250274658203,
				-0.12123063206672668,
				0.21819494664669037,
				4.3232221603393555,
				-0.06181968376040459,
				4.907472610473633,
				-0.046702802181243896,
				1.55719792842865
			],
			[
				-3.3428969383239746,
				-0.3449513912200928,
				-0.032917849719524384,
				-3.8444066047668457,
				-6.4848785400390625,
				-15.197914123535156,
				0.1578252911567688,
				2.8509886264801025,
				-0.019042283296585083,
				-0.5243512988090515,
				-0.9225641489028931,
				-32.66094970703125,
				-0.6360678672790527,
				1.0585354566574097,
				-0.4025726914405823,
				-0.40050578117370605
			]
		],
		"weight_1": [
			1.3253308534622192,
			0.0,
			0.0018868162296712399,
			0.7171122431755066,
			0.34343385696411133,
			0.38966819643974304,
			-0.22951623797416687,
			1.5454620122909546,
			0.0029778555035591125,
			0.0,
			0.5270785689353943,
			0.2665189504623413,
			0.671936571598053,
			0.044964827597141266,
			0.0,
			0.02328723482787609
		]
	},
	"layer_1": {},
	"layer_2": {
		"weight_0": [
			[
				0.6039881706237793,
				-0.4732494354248047,
				-0.12779057025909424,
				0.8255962133407593,
				-0.06791098415851593,
				0.9054713845252991,
				1.55734384059906,
				-0.7173776626586914
			],
			[
				0.15817296504974365,
				-0.3633573055267334,
				-0.1157761812210083,
				0.18947303295135498,
				0.10713768005371094,
				-0.39357638359069824,
				0.08732521533966064,
				0.17196178436279297
			],
			[
				0.042912136763334274,
				-0.11959648132324219,
				-0.40288472175598145,
				-2.062737464904785,
				0.24062755703926086,
				0.3330339789390564,
				-15.375064849853516,
				0.3487403988838196
			],
			[
				1.6407010555267334,
				-0.2511107921600342,
				-0.1705920696258545,
				-1.125319242477417,
				0.8273683786392212,
				-0.9659131169319153,
				1.689644694328308,
				-2.4570140838623047
			],
			[
				-0.4927230477333069,
				0.3362053632736206,
				0.0766991376876831,
				0.07294706255197525,
				1.9057471752166748,
				1.1473890542984009,
				3.315398693084717,
				-0.2181914895772934
			],
			[
				-0.36376121640205383,
				-0.20867860317230225,
				0.19585943222045898,
				-1.6291550397872925,
				1.5723795890808105,
				0.8281248211860657,
				2.794312000274658,
				-0.3645705282688141
			],
			[
				-0.35951346158981323,
				-0.29207277297973633,
				-0.22179043292999268,
				12.258146286010742,
				-0.40485960245132446,
				0.344531774520874,
				-7.281193256378174,
				-0.31210118532180786
			],
			[
				-0.03854914382100105,
				-0.4956282377243042,
				-0.47391486167907715,
				1.761549949645996,
				-0.17548467218875885,
				-0.26857200264930725,
				4.134091854095459,
				0.5121291875839233
			],
			[
				0.6059592366218567,
				-0.4172464609146118,
				0.3511923551559448,
				-3.517261505126953,
				-0.0001181627158075571,
				0.3675168752670288,
				-21.369829177856445,
				0.5076327323913574
			],
			[
				-0.16643810272216797,
				0.05031263828277588,
				-0.011824965476989746,
				0.22778499126434326,
				-0.16881132125854492,
				-0.05538010597229004,
				0.07719385623931885,
				0.11155343055725098
			],
			[
				0.31263139843940735,
				0.04047250747680664,
				-0.35099923610687256,
				2.6960020065307617,
				0.14338801801204681,
				1.8907043933868408,
				-0.7128501534461975,
				0.13343635201454163
			],
			[
				1.6424477100372314,
				0.2802518606185913,
				0.24503648281097412,
				-0.2181355208158493,
				0.44790270924568176,
				0.1518494188785553,
				-3.2981128692626953,
				-0.17181739211082458
			],
			[
				0.5124222636222839,
				-0.03188657760620117,
				-0.23843014240264893,
				0.143560528755188,
				0.8060424327850342,
				1.6904741525650024,
				-4.136956214904785,
				1.608225703239441
			],
			[
				-0.16864150762557983,
				0.291662335395813,
				-0.4169590473175049,
				-5.5191545486450195,
				-0.13436579704284668,
				-0.25882968306541443,
				-15.132000923156738,
				0.6270245909690857
			],
			[
				0.44382989406585693,
				0.22045695781707764,
				-0.43241238594055176,
				-0.4013468027114868,
				0.2971642017364502,
				-0.2255094051361084,
				-0.006322145462036133,
				0.10904371738433838
			],
			[
				0.8604786992073059,
				-0.011113643646240234,
				-0.434897780418396,
				-0.4102761745452881,
				0.3843572437763214,
				0.604468822479248,
				-6.642708778381348,
				0.12673057615756989
			]
		],
		"weight_1": [
			0.33077627420425415,
			0.0,
			0.0,
			1.8498362302780151,
			-0.5253317356109619,
			0.799044132232666,
			-1.0131213665008545,
			1.186403512954712
		]
	},
	"layer_3": {},
	"layer_4": {
		"weight_0": [
			[
				-0.9055471420288086,
				0.300423800945282,
				1.6541589498519897,
				0.46346917748451233
			],
			[
				0.3202572464942932,
				0.4899083971977234,
				-0.6416093707084656,
				0.02831137180328369
			],
			[
				-0.1576533317565918,
				0.03505373001098633,
				0.6469106078147888,
				-0.41503703594207764
			],
			[
				-0.010350941680371761,
				0.11097938567399979,
				-0.6800548434257507,
				-0.17426797747612
			],
			[
				1.8040142059326172,
				0.35266244411468506,
				1.318526029586792,
				1.984808325767517
			],
			[
				0.3703550100326538,
				1.0487492084503174,
				-0.7126312851905823,
				-0.41723212599754333
			],
			[
				0.1673479825258255,
				-0.5626779198646545,
				0.18512578308582306,
				-0.09695339947938919
			],
			[
				0.7147905826568604,
				0.3355441093444824,
				1.0318653583526611,
				-0.2373403161764145
			]
		],
		"weight_1": [
			2.636279821395874,
			-0.7518842816352844,
			0.47347378730773926,
			1.0072933435440063
		]
	},
	"layer_5": {},
	"layer_6": {
		"weight_0": [
			[
				-5.208611965179443
			],
			[
				10.013105392456055
			],
			[
				7.833467960357666
			],
			[
				11.321873664855957
			]
		],
		"weight_1": [
			4.037580490112305
		]
	}
}