{
	"layer_0": {
		"weight_0": [
			[
				6.670047760009766,
				-9.952340126037598,
				3.3785791397094727,
				-9.821303367614746,
				4.366070747375488,
				-8.571404457092285,
				-10.873807907104492,
				5.903713226318359,
				-10.800262451171875,
				4.6819844245910645,
				6.1823906898498535,
				-7.634664535522461,
				7.846205711364746,
				-9.764328956604004,
				4.599114418029785,
				-9.980978965759277
			],
			[
				0.3137209415435791,
				4.118016719818115,
				-16.331497192382812,
				-1.8960304260253906,
				3.025347948074341,
				-1.5373891592025757,
				-2.81007981300354,
				-2.3339171409606934,
				6.742915153503418,
				-16.260469436645508,
				-0.051250770688056946,
				-0.9115647673606873,
				-2.511037588119507,
				-1.3467820882797241,
				-6.6773529052734375,
				7.949893474578857
			]
		],
		"weight_1": [
			-0.5020344257354736,
			-9.164911270141602,
			0.5175528526306152,
			-8.625273704528809,
			2.6348021030426025,
			-8.292863845825195,
			-8.078815460205078,
			0.21097983419895172,
			-6.742953300476074,
			1.0093488693237305,
			0.23164507746696472,
			-8.500636100769043,
			2.164734363555908,
			-8.301279067993164,
			1.3630906343460083,
			-7.952467441558838
		]
	},
	"layer_1": {},
	"layer_2": {
		"weight_0": [
			[
				-17.16346549987793,
				-17.08765411376953,
				-2.708305597305298,
				-2.981990098953247,
				-1.2968493700027466,
				-15.978797912597656,
				-19.74566078186035,
				-1.7743332386016846
			],
			[
				14.278514862060547,
				14.303567886352539,
				2.432964324951172,
				0.36777767539024353,
				-0.38271990418434143,
				14.256053924560547,
				14.00620174407959,
				1.500331997871399
			],
			[
				-20.121931076049805,
				-20.656953811645508,
				4.907641887664795,
				-0.22478678822517395,
				2.5348711013793945,
				-19.697063446044922,
				-24.15711784362793,
				-0.34995463490486145
			],
			[
				13.243880271911621,
				13.613245010375977,
				2.640664577484131,
				0.292906790971756,
				0.05713297426700592,
				13.658422470092773,
				13.802597045898438,
				1.5992445945739746
			],
			[
				-13.116232872009277,
				-12.844070434570312,
				-1.4680312871932983,
				0.42724645137786865,
				-0.18927855789661407,
				-12.890911102294922,
				-12.109297752380371,
				-0.9483310580253601
			],
			[
				13.461771965026855,
				13.430004119873047,
				2.5135979652404785,
				0.4923737645149231,
				0.1641802191734314,
				13.627117156982422,
				13.54544448852539,
				0.8780768513679504
			],
			[
				13.248418807983398,
				13.829385757446289,
				2.4531781673431396,
				-0.019897347316145897,
				0.2973533570766449,
				13.413154602050781,
				13.945971488952637,
				1.313595175743103
			],
			[
				-16.960041046142578,
				-17.13288116455078,
				1.4511363506317139,
				-0.6320055723190308,
				0.5387726426124573,
				-16.34008026123047,
				-19.855758666992188,
				0.9700760245323181
			],
			[
				15.473750114440918,
				14.631250381469727,
				1.596684455871582,
				0.3103109300136566,
				-0.4981885850429535,
				14.38390064239502,
				16.28357696533203,
				0.8677965998649597
			],
			[
				-21.07255744934082,
				-20.73387908935547,
				2.2714741230010986,
				0.5686494708061218,
				-0.8059003353118896,
				-20.38401985168457,
				-24.837379455566406,
				2.6207494735717773
			],
			[
				-14.790406227111816,
				-14.973544120788574,
				-0.12361815571784973,
				3.7483415603637695,
				1.30282461643219,
				-14.282770156860352,
				-17.997812271118164,
				0.6804332137107849
			],
			[
				13.449556350708008,
				13.869937896728516,
				2.7568349838256836,
				0.8449583649635315,
				0.0022767125628888607,
				13.831660270690918,
				13.150026321411133,
				0.8757327795028687
			],
			[
				-16.256017684936523,
				-16.793128967285156,
				0.1871214061975479,
				0.6213312149047852,
				0.31009113788604736,
				-16.062850952148438,
				-19.503564834594727,
				1.042069673538208
			],
			[
				13.773138046264648,
				13.485360145568848,
				2.5542151927948,
				0.38307708501815796,
				0.16792339086532593,
				13.367143630981445,
				14.203396797180176,
				1.0979217290878296
			],
			[
				-18.729257583618164,
				-18.459047317504883,
				1.1911230087280273,
				0.24800924956798553,
				0.4267931580543518,
				-17.411571502685547,
				-22.286861419677734,
				0.7669628262519836
			],
			[
				14.468866348266602,
				14.798417091369629,
				1.6879411935806274,
				0.424565851688385,
				-0.5268914103507996,
				14.73097038269043,
				16.16522979736328,
				1.6394152641296387
			]
		],
		"weight_1": [
			-10.376564979553223,
			-10.431361198425293,
			-1.9110589027404785,
			-0.8244932293891907,
			-0.3197290301322937,
			-10.423089027404785,
			-8.806187629699707,
			-0.37937986850738525
		]
	},
	"layer_3": {},
	"layer_4": {
		"weight_0": [
			[
				0.7587644457817078,
				16.185914993286133,
				17.15453338623047,
				16.31005859375
			],
			[
				0.7573879361152649,
				16.947269439697266,
				17.175474166870117,
				16.78964614868164
			],
			[
				0.2459619790315628,
				-25.482898712158203,
				-25.2194881439209,
				-26.22124671936035
			],
			[
				0.4951503276824951,
				-15.14631175994873,
				-15.377497673034668,
				-15.349056243896484
			],
			[
				0.6022939085960388,
				-19.80558967590332,
				-19.675870895385742,
				-18.952415466308594
			],
			[
				0.8672720789909363,
				16.660383224487305,
				17.15959930419922,
				16.993072509765625
			],
			[
				0.5458927154541016,
				16.915054321289062,
				17.1412353515625,
				16.49470329284668
			],
			[
				0.2827242612838745,
				-20.3292179107666,
				-21.08441925048828,
				-20.21808624267578
			]
		],
		"weight_1": [
			-0.8521946668624878,
			-0.9364707469940186,
			-0.9667664170265198,
			-0.9273602962493896
		]
	},
	"layer_5": {},
	"layer_6": {
		"weight_0": [
			[
				20.482446670532227
			],
			[
				-18.577560424804688
			],
			[
				-18.729726791381836
			],
			[
				-18.996990203857422
			]
		],
		"weight_1": [
			1.023065209388733
		]
	}
}