{
	"layer_0": {
		"weight_0": [
			[
				0.17592298984527588,
				0.41451001167297363,
				0.7754167914390564,
				-0.0074690524488687515,
				0.7306144833564758,
				0.4285660684108734,
				1.519567847251892,
				-18.046358108520508,
				-0.2806447744369507,
				0.43660762906074524,
				1.365649938583374,
				1.628000259399414,
				2.124389410018921,
				-2.1314852237701416,
				0.38629835844039917,
				-7.43467903137207
			],
			[
				-2.25071382522583,
				-1.751481533050537,
				1.039665937423706,
				-0.7991767525672913,
				-0.6602437496185303,
				-3.3509395122528076,
				-0.5690333247184753,
				0.02035750448703766,
				0.9326573610305786,
				-4.780313491821289,
				-11.539432525634766,
				-1.0960445404052734,
				0.28657612204551697,
				-0.3926779329776764,
				-1.3093339204788208,
				1.7329293489456177
			]
		],
		"weight_1": [
			0.14835654199123383,
			0.5620635151863098,
			0.3413451910018921,
			0.7523425817489624,
			0.3013133108615875,
			0.5127145051956177,
			0.20443397760391235,
			0.6038192510604858,
			-0.4452938139438629,
			0.15838722884655,
			0.08704770356416702,
			0.23545847833156586,
			0.5668794512748718,
			1.2285276651382446,
			0.6269169449806213,
			-0.6508088707923889
		]
	},
	"layer_1": {},
	"layer_2": {
		"weight_0": [
			[
				-0.5892965197563171,
				0.4532916247844696,
				0.5499395728111267,
				2.2719740867614746,
				0.9965867400169373,
				1.321370005607605,
				0.2606631815433502,
				0.8628330826759338
			],
			[
				0.31662485003471375,
				0.5313382744789124,
				0.9028542041778564,
				0.4842991530895233,
				0.5424874424934387,
				0.2534676790237427,
				0.7993994355201721,
				0.699120283126831
			],
			[
				0.17784157395362854,
				-0.230603888630867,
				0.2628714442253113,
				-0.7375773191452026,
				0.3104288876056671,
				-1.2268280982971191,
				-0.6303547620773315,
				0.1090342178940773
			],
			[
				-0.16583330929279327,
				0.8647298216819763,
				0.2582836449146271,
				0.04706191644072533,
				0.3896700441837311,
				-0.04852050542831421,
				0.21296003460884094,
				0.7666049599647522
			],
			[
				0.3936699628829956,
				0.7416600584983826,
				0.4108726978302002,
				-0.23276180028915405,
				0.09400680661201477,
				-0.8402329087257385,
				0.43988651037216187,
				0.2728251814842224
			],
			[
				0.44829457998275757,
				0.4968366026878357,
				1.2355753183364868,
				0.31687623262405396,
				0.8731984496116638,
				0.8869450092315674,
				0.541689395904541,
				0.6010380387306213
			],
			[
				-0.39102187752723694,
				0.5233599543571472,
				0.03531314432621002,
				0.4831734597682953,
				-0.21340982615947723,
				-0.5536136031150818,
				0.2842235267162323,
				-0.07776758819818497
			],
			[
				0.5266168117523193,
				1.1149319410324097,
				-0.40782681107521057,
				-1.4699105024337769,
				-0.26051005721092224,
				0.20664913952350616,
				-0.19425447285175323,
				0.09816046804189682
			],
			[
				0.08942865580320358,
				-0.5286636352539062,
				-1.1006524562835693,
				0.27679139375686646,
				-0.5363972783088684,
				0.04639926552772522,
				-0.4460814893245697,
				-0.5417220592498779
			],
			[
				-2.08429217338562,
				-0.28504428267478943,
				-0.6767544746398926,
				2.662050724029541,
				-0.7898985743522644,
				-0.4073847830295563,
				-0.5429887771606445,
				-0.155373677611351
			],
			[
				-3.1144871711730957,
				1.3444875478744507,
				1.4971340894699097,
				0.3074737787246704,
				1.5426900386810303,
				-4.262241363525391,
				-0.17813439667224884,
				0.7755458354949951
			],
			[
				-0.4572189450263977,
				-0.31241366267204285,
				0.5012830495834351,
				0.5749126076698303,
				-0.1338326781988144,
				0.49103087186813354,
				0.596092700958252,
				-0.09275831282138824
			],
			[
				-0.47166571021080017,
				0.4953670799732208,
				0.285647451877594,
				-0.5439419150352478,
				0.19272351264953613,
				-1.1067192554473877,
				-0.6193981766700745,
				0.4019172489643097
			],
			[
				1.3750970363616943,
				-0.5786437392234802,
				-0.16416046023368835,
				-0.07592055201530457,
				-0.3314376473426819,
				2.483527183532715,
				-0.27762141823768616,
				-0.8657627105712891
			],
			[
				0.6069298386573792,
				1.2380692958831787,
				1.0316513776779175,
				0.46094536781311035,
				0.9064013361930847,
				-0.13871441781520844,
				0.866234302520752,
				1.1040483713150024
			],
			[
				0.060923557728528976,
				0.015412095002830029,
				0.5031677484512329,
				-0.8972359299659729,
				-0.27233707904815674,
				1.2088236808776855,
				-0.6155094504356384,
				0.39863160252571106
			]
		],
		"weight_1": [
			-0.5856907963752747,
			0.5589266419410706,
			0.48652383685112,
			0.1393846869468689,
			0.5228196382522583,
			-0.8750686049461365,
			0.2876427471637726,
			0.5289121270179749
		]
	},
	"layer_3": {},
	"layer_4": {
		"weight_0": [
			[
				-1.9426729679107666,
				-1.6263467073440552,
				-2.222262144088745,
				2.217268943786621
			],
			[
				0.5654642581939697,
				0.34734395146369934,
				0.6156685948371887,
				-0.8073207139968872
			],
			[
				0.45581355690956116,
				0.6878807544708252,
				1.3873573541641235,
				-0.7104817628860474
			],
			[
				4.593331336975098,
				4.095982551574707,
				4.321347713470459,
				-3.6448636054992676
			],
			[
				1.1326850652694702,
				0.6820069551467896,
				1.167547345161438,
				-1.4368185997009277
			],
			[
				-2.1623668670654297,
				-1.5890721082687378,
				-3.1851537227630615,
				2.7846224308013916
			],
			[
				0.7556809782981873,
				1.6839962005615234,
				1.5469423532485962,
				-1.4394878149032593
			],
			[
				0.6133826971054077,
				0.4497462213039398,
				1.2943432331085205,
				-1.4156365394592285
			]
		],
		"weight_1": [
			0.5809189081192017,
			0.5567569732666016,
			0.6072850823402405,
			-0.6630662679672241
		]
	},
	"layer_5": {},
	"layer_6": {
		"weight_0": [
			[
				3.1658921241760254
			],
			[
				3.0118587017059326
			],
			[
				3.008673906326294
			],
			[
				-3.111161231994629
			]
		],
		"weight_1": [
			0.6412620544433594
		]
	}
}