{
	"layer_0": {
		"weight_0": [
			[
				-0.14385026693344116,
				4.7313761711120605,
				-0.24066628515720367,
				5.857897758483887,
				1.1285467147827148,
				-0.2794102430343628,
				-0.2216174602508545,
				0.8425542116165161,
				-0.2937098741531372,
				6.7267279624938965,
				0.19002147018909454,
				0.49732306599617004,
				0.11567948758602142,
				0.059778496623039246,
				-0.4140377640724182,
				-0.9584614038467407
			],
			[
				-0.5704478621482849,
				1.2576395273208618,
				0.33710741996765137,
				0.7483500838279724,
				-8.409295082092285,
				-0.3938666582107544,
				-0.23895502090454102,
				-0.5156616568565369,
				0.3362230062484741,
				0.74559086561203,
				-0.6330720782279968,
				3.833310604095459,
				-0.14169125258922577,
				-0.5576332807540894,
				-0.3984467387199402,
				-0.9175637364387512
			]
		],
		"weight_1": [
			0.0,
			0.5416038036346436,
			0.010237211361527443,
			0.6939531564712524,
			0.6022292971611023,
			0.0,
			0.0,
			1.5213820934295654,
			0.0401923768222332,
			0.39030301570892334,
			-0.11051224917173386,
			-0.018235839903354645,
			-0.09858839213848114,
			-0.0063245538622140884,
			0.0,
			2.9437286853790283
		]
	},
	"layer_1": {},
	"layer_2": {},
	"layer_3": {},
	"layer_4": {
		"weight_0": [
			[
				-0.49872010946273804,
				0.6974011659622192,
				1.7734564542770386,
				1.7721924781799316,
				0.4584064781665802,
				-0.4203784167766571,
				1.6448997259140015,
				-0.3655397891998291,
				0.130945086479187,
				0.2647632360458374,
				-0.768530547618866,
				1.0762856006622314,
				1.2801239490509033,
				-0.33978867530822754,
				-0.2369070053100586,
				-0.3273678719997406
			],
			[
				0.07416318356990814,
				0.9196462631225586,
				1.7294566631317139,
				1.782424807548523,
				0.3047414720058441,
				-0.15794041752815247,
				1.0304954051971436,
				-0.2058732807636261,
				0.6331421732902527,
				-0.3872840106487274,
				-1.362536072731018,
				1.3902209997177124,
				1.4927515983581543,
				-0.1785874366760254,
				-0.17903268337249756,
				-0.4595434367656708
			],
			[
				0.3169820308685303,
				0.5968493223190308,
				3.1017062664031982,
				3.4654386043548584,
				-2.377835273742676,
				-4.813573837280273,
				3.2412257194519043,
				-0.26864615082740784,
				3.7694456577301025,
				0.22308015823364258,
				-0.6135810017585754,
				3.4284579753875732,
				0.7937040328979492,
				-0.020724177360534668,
				0.021811842918395996,
				-0.05566048622131348
			],
			[
				-0.10466986149549484,
				-0.3486608564853668,
				0.8795934915542603,
				1.046342372894287,
				0.3568417727947235,
				0.7569273114204407,
				0.6754212379455566,
				-0.41665834188461304,
				1.2579506635665894,
				0.40668579936027527,
				0.8266076445579529,
				0.9662820100784302,
				-0.2425260990858078,
				0.1433624029159546,
				-0.31512749195098877,
				0.049885984510183334
			],
			[
				0.016206473112106323,
				1.1786003112792969,
				1.7178572416305542,
				1.034511923789978,
				-0.6176305413246155,
				-0.7298216223716736,
				1.773404598236084,
				-0.08746310323476791,
				0.5231907367706299,
				-0.47940316796302795,
				-2.4375081062316895,
				1.8122347593307495,
				2.30373215675354,
				-0.45786070823669434,
				0.3601800203323364,
				0.18170762062072754
			],
			[
				-0.06080712378025055,
				1.038380742073059,
				-0.6609821915626526,
				-0.6946672201156616,
				-0.6195328235626221,
				-0.052996303886175156,
				0.06717172265052795,
				0.3284665048122406,
				-6.611125946044922,
				-0.20296013355255127,
				0.16082607209682465,
				-0.13435684144496918,
				1.6324968338012695,
				0.05913257598876953,
				-0.4334402084350586,
				0.09358367323875427
			],
			[
				0.09081266820430756,
				0.21749591827392578,
				-0.3692316710948944,
				-0.297345906496048,
				0.012625407427549362,
				0.33231329917907715,
				-0.2539772093296051,
				0.3452688455581665,
				-0.2882462739944458,
				0.14533352851867676,
				-0.41838085651397705,
				-0.09391018003225327,
				-0.07292623072862625,
				-0.07829296588897705,
				-0.432323694229126,
				-0.49410879611968994
			],
			[
				-0.016794893890619278,
				-0.8983431458473206,
				0.5611081719398499,
				0.8599635362625122,
				0.8445011973381042,
				1.2145923376083374,
				0.604236900806427,
				-0.34128254652023315,
				1.2147877216339111,
				-0.36098575592041016,
				1.3095006942749023,
				0.7178876399993896,
				-1.9102404117584229,
				-0.2904113531112671,
				-0.40246427059173584,
				0.04067385569214821
			]
		],
		"weight_1": [
			-0.0835835188627243,
			-0.9644419550895691,
			0.8779296278953552,
			0.8891991972923279,
			0.7477778196334839,
			0.984718382358551,
			0.8615726232528687,
			-0.07545000314712524,
			1.3385674953460693,
			-0.003162270411849022,
			2.4800140857696533,
			0.8776602745056152,
			-0.8208236694335938,
			0.0,
			0.0,
			-0.0064558908343315125
		]
	},
	"layer_5": {
		"weight_0": [
			[
				-0.34800612926483154
			],
			[
				-2.6658363342285156
			],
			[
				2.08101749420166
			],
			[
				1.9026908874511719
			],
			[
				-4.645387172698975
			],
			[
				-4.8741455078125
			],
			[
				1.5512934923171997
			],
			[
				-0.2781684994697571
			],
			[
				4.454013824462891
			],
			[
				-0.12691693007946014
			],
			[
				-4.8385114669799805
			],
			[
				2.1146862506866455
			],
			[
				-3.805023431777954
			],
			[
				0.38845574855804443
			],
			[
				-0.29160112142562866
			],
			[
				-0.3754120171070099
			]
		],
		"weight_1": [
			0.8886526226997375
		]
	}
}