{
	"layer_0": {
		"weight_0": [
			[
				0.17214439809322357,
				0.34921348094940186,
				0.02527673728764057,
				0.12875764071941376,
				0.8631375432014465,
				0.403182715177536,
				1.864730954170227,
				-35.915557861328125,
				-0.31652095913887024,
				0.6636527180671692,
				2.2551538944244385,
				1.7947953939437866,
				2.2276737689971924,
				-3.4686951637268066,
				0.3761293888092041,
				-18.985567092895508
			],
			[
				-2.2182462215423584,
				-1.8224855661392212,
				0.8999685049057007,
				-0.8709035515785217,
				-0.29766160249710083,
				-3.6103198528289795,
				-0.5043448805809021,
				-1.256535530090332,
				1.2201237678527832,
				-7.017460823059082,
				-18.501617431640625,
				-0.3234415650367737,
				0.3862116038799286,
				-1.0073455572128296,
				-1.521946907043457,
				1.1922575235366821
			]
		],
		"weight_1": [
			0.126791313290596,
			0.48557597398757935,
			0.1620538830757141,
			0.5618614554405212,
			0.21060863137245178,
			0.44620558619499207,
			0.11781895905733109,
			1.2254128456115723,
			-0.4680037498474121,
			0.18660351634025574,
			0.06049945950508118,
			0.1369890719652176,
			0.2909555733203888,
			1.6465855836868286,
			0.5940223336219788,
			-0.20505547523498535
		]
	},
	"layer_1": {},
	"layer_2": {
		"weight_0": [
			[
				-0.3513140380382538,
				0.938631534576416,
				0.44454872608184814,
				2.2779104709625244,
				0.8976250886917114,
				1.740554928779602,
				0.15029731392860413,
				0.7512074112892151
			],
			[
				0.0960576981306076,
				0.07887126505374908,
				1.0089119672775269,
				0.2921038269996643,
				0.6931217312812805,
				-0.07649970799684525,
				0.7114159464836121,
				0.7707939147949219
			],
			[
				0.2891140580177307,
				-0.05015035718679428,
				0.2880893349647522,
				-0.7527176141738892,
				0.30498945713043213,
				-1.3988726139068604,
				-0.7443681359291077,
				0.13155435025691986
			],
			[
				0.3687411844730377,
				-0.16663581132888794,
				0.39891526103019714,
				-0.050901610404253006,
				0.5797982811927795,
				-0.40198835730552673,
				0.012665854766964912,
				0.9353305697441101
			],
			[
				0.3382706940174103,
				0.2561882436275482,
				0.346378356218338,
				-0.526495635509491,
				0.05590198189020157,
				-1.122292399406433,
				0.17709317803382874,
				0.17823342978954315
			],
			[
				0.6880319118499756,
				-0.16754281520843506,
				1.0929009914398193,
				0.4044564664363861,
				0.7442880272865295,
				1.0613679885864258,
				0.43191778659820557,
				0.4419228434562683
			],
			[
				-0.3905351161956787,
				-0.20330223441123962,
				0.042424026876688004,
				0.47884055972099304,
				-0.18746528029441833,
				-0.6884818077087402,
				0.22858132421970367,
				-0.10506457090377808
			],
			[
				0.21026240289211273,
				1.4255058765411377,
				-0.16111348569393158,
				-0.44928625226020813,
				0.055865153670310974,
				-0.25889188051223755,
				-0.19534897804260254,
				0.42030519247055054
			],
			[
				0.4457835853099823,
				-0.7750706076622009,
				-1.3628910779953003,
				0.5722571015357971,
				-0.8178438544273376,
				-0.17813554406166077,
				-0.4705218970775604,
				-0.928433895111084
			],
			[
				-1.5794535875320435,
				1.385154128074646,
				-1.3813124895095825,
				3.0474658012390137,
				-1.4819077253341675,
				-0.13678742945194244,
				-1.2391314506530762,
				-0.8597797751426697
			],
			[
				-1.8266915082931519,
				2.32492733001709,
				2.264155864715576,
				0.19381727278232574,
				2.3499808311462402,
				-4.01461935043335,
				-0.1906478852033615,
				1.530555009841919
			],
			[
				-0.43947237730026245,
				-0.9581218957901001,
				0.3754386603832245,
				0.45231276750564575,
				-0.2402423918247223,
				0.5268769264221191,
				0.491905152797699,
				-0.25212645530700684
			],
			[
				-0.5218107104301453,
				0.15151722729206085,
				0.3923480808734894,
				-0.612723708152771,
				0.3009606897830963,
				-1.6208059787750244,
				-0.6889326572418213,
				0.4797237813472748
			],
			[
				0.7929705381393433,
				-1.2036619186401367,
				-0.5153875946998596,
				-0.031154699623584747,
				-0.7010548114776611,
				2.186077356338501,
				-0.1212080791592598,
				-1.0087710618972778
			],
			[
				0.27199485898017883,
				0.42223334312438965,
				1.3946963548660278,
				0.27720561623573303,
				1.3276797533035278,
				-0.5678603053092957,
				0.6866862177848816,
				1.421073317527771
			],
			[
				0.4228278696537018,
				0.5608771443367004,
				0.452760249376297,
				-1.3586848974227905,
				-0.07152965664863586,
				0.8478673100471497,
				-0.8319289684295654,
				0.6264777779579163
			]
		],
		"weight_1": [
			-0.698074460029602,
			0.9178815484046936,
			0.6206300258636475,
			0.16850906610488892,
			0.6451250314712524,
			-1.1591451168060303,
			0.16060656309127808,
			0.6844378113746643
		]
	},
	"layer_3": {},
	"layer_4": {
		"weight_0": [
			[
				-1.6228638887405396,
				-1.3456404209136963,
				-2.003298044204712,
				2.001183032989502
			],
			[
				-0.9854789972305298,
				-1.157884955406189,
				-0.9582089185714722,
				0.7630674839019775
			],
			[
				0.5586123466491699,
				0.7813873291015625,
				1.44322669506073,
				-0.7694412469863892
			],
			[
				4.093726634979248,
				3.5972437858581543,
				3.817556381225586,
				-3.1413159370422363
			],
			[
				1.1810619831085205,
				0.7482302784919739,
				1.1300592422485352,
				-1.4022213220596313
			],
			[
				-1.1336842775344849,
				-0.4944291114807129,
				-2.629664897918701,
				2.230175495147705
			],
			[
				1.1426259279251099,
				2.0652716159820557,
				1.926274061203003,
				-1.8188389539718628
			],
			[
				0.39851272106170654,
				0.21762844920158386,
				1.003199815750122,
				-1.1276865005493164
			]
		],
		"weight_1": [
			0.7338807582855225,
			0.6601595282554626,
			0.887307345867157,
			-0.9459413886070251
		]
	},
	"layer_5": {},
	"layer_6": {
		"weight_0": [
			[
				4.286008358001709
			],
			[
				4.025812149047852
			],
			[
				3.9405581951141357
			],
			[
				-3.932793378829956
			]
		],
		"weight_1": [
			0.9478095769882202
		]
	}
}