{
	"layer_0": {
		"weight_0": [
			[
				0.9026380777359009,
				-0.36808669567108154,
				2.1182861328125,
				1.021024465560913,
				0.7055241465568542,
				1.2938508987426758,
				1.90153169631958,
				-1.390074372291565,
				2.950148344039917,
				-0.12123063206672668,
				0.5222223997116089,
				2.1268656253814697,
				-0.8014119863510132,
				4.849912166595459,
				-0.046702802181243896,
				1.3290989398956299
			],
			[
				-0.9437947273254395,
				-0.3449513912200928,
				-0.021665211766958237,
				-1.9983997344970703,
				-3.261559009552002,
				-7.533559322357178,
				-0.15504106879234314,
				1.4551526308059692,
				-0.0179811492562294,
				-0.5243512988090515,
				-0.93250972032547,
				-15.331886291503906,
				-0.5381052494049072,
				0.4425702393054962,
				-0.4025726914405823,
				-0.25580838322639465
			]
		],
		"weight_1": [
			0.3737102746963501,
			0.0,
			0.006033057346940041,
			0.6372109651565552,
			0.2606959939002991,
			0.274095743894577,
			0.013403257355093956,
			1.0544127225875854,
			0.005685684736818075,
			0.0,
			0.6285485029220581,
			0.1517612636089325,
			1.4208136796951294,
			0.0033098068088293076,
			0.0,
			0.03281599283218384
		]
	},
	"layer_1": {},
	"layer_2": {
		"weight_0": [
			[
				0.292866051197052,
				-0.4732494354248047,
				-0.12779057025909424,
				0.2316165566444397,
				0.19044817984104156,
				1.3788650035858154,
				1.1462008953094482,
				-0.9512261748313904
			],
			[
				0.15817296504974365,
				-0.3633573055267334,
				-0.1157761812210083,
				0.18947303295135498,
				0.10713768005371094,
				-0.39357638359069824,
				0.08732521533966064,
				0.17196178436279297
			],
			[
				0.17338266968727112,
				-0.11959648132324219,
				-0.40288472175598145,
				-1.4614001512527466,
				0.1148262545466423,
				0.4191451072692871,
				-6.857080936431885,
				0.5465555787086487
			],
			[
				1.3381637334823608,
				-0.2511107921600342,
				-0.1705920696258545,
				0.16330459713935852,
				0.7802544832229614,
				0.28207477927207947,
				2.0748133659362793,
				-1.203498363494873
			],
			[
				1.0836069583892822,
				0.3362053632736206,
				0.0766991376876831,
				0.050961919128894806,
				1.539929747581482,
				-0.5012054443359375,
				2.9513983726501465,
				0.4820403456687927
			],
			[
				1.1309176683425903,
				-0.20867860317230225,
				0.19585943222045898,
				-0.7198225259780884,
				1.0827659368515015,
				1.6784132719039917,
				2.7141709327697754,
				0.04348662123084068
			],
			[
				-0.06157136335968971,
				-0.29207277297973633,
				-0.22179043292999268,
				1.9445720911026,
				0.23079250752925873,
				0.1426914483308792,
				-5.318872928619385,
				-0.061431821435689926
			],
			[
				-0.013895541429519653,
				-0.4956282377243042,
				-0.47391486167907715,
				1.0168293714523315,
				-0.33808982372283936,
				-0.2761753797531128,
				2.2975869178771973,
				0.37019041180610657
			],
			[
				0.5452824234962463,
				-0.4172464609146118,
				0.3511923551559448,
				-1.8199952840805054,
				-0.2429661601781845,
				0.3300640285015106,
				-9.453936576843262,
				0.5398623943328857
			],
			[
				-0.16643810272216797,
				0.05031263828277588,
				-0.011824965476989746,
				0.22778499126434326,
				-0.16881132125854492,
				-0.05538010597229004,
				0.07719385623931885,
				0.11155343055725098
			],
			[
				0.08249066025018692,
				0.04047250747680664,
				-0.35099923610687256,
				0.9223120212554932,
				0.6774949431419373,
				0.5319437980651855,
				-0.1898239105939865,
				0.2648329734802246
			],
			[
				1.6940823793411255,
				0.2802518606185913,
				0.24503648281097412,
				-1.6532689332962036,
				2.279876947402954,
				1.4362893104553223,
				-1.7134114503860474,
				1.0439574718475342
			],
			[
				-0.045611992478370667,
				-0.03188657760620117,
				-0.23843014240264893,
				0.4130927324295044,
				-0.01502425130456686,
				0.6281505227088928,
				0.19458310306072235,
				1.052820086479187
			],
			[
				-0.3561100959777832,
				0.291662335395813,
				-0.4169590473175049,
				-2.674201726913452,
				-0.347556471824646,
				-0.3296796679496765,
				-13.531889915466309,
				0.4543133080005646
			],
			[
				0.44382989406585693,
				0.22045695781707764,
				-0.43241238594055176,
				-0.4013468027114868,
				0.2971642017364502,
				-0.2255094051361084,
				-0.006322145462036133,
				0.10904371738433838
			],
			[
				0.8192991018295288,
				-0.011113643646240234,
				-0.434897780418396,
				-0.9523181915283203,
				0.4296591877937317,
				0.5242695808410645,
				-1.451393723487854,
				0.21949099004268646
			]
		],
		"weight_1": [
			0.28852179646492004,
			0.0,
			0.0,
			1.1548296213150024,
			-0.07788033038377762,
			0.23234646022319794,
			0.5675161480903625,
			0.6899615526199341
		]
	},
	"layer_3": {},
	"layer_4": {
		"weight_0": [
			[
				-0.6031151413917542,
				0.5614191293716431,
				0.9354663491249084,
				0.768071174621582
			],
			[
				0.3202572464942932,
				0.4899083971977234,
				-0.6416093707084656,
				0.02831137180328369
			],
			[
				-0.1576533317565918,
				0.03505373001098633,
				0.6469106078147888,
				-0.41503703594207764
			],
			[
				0.2744005620479584,
				0.2331073135137558,
				-0.69377201795578,
				-0.2797098755836487
			],
			[
				-0.6486496329307556,
				0.3272702693939209,
				0.5437551140785217,
				1.8714615106582642
			],
			[
				0.24398435652256012,
				1.1896014213562012,
				0.09985075145959854,
				-0.17413735389709473
			],
			[
				-0.056587934494018555,
				-0.33603549003601074,
				-0.29865503311157227,
				-0.18271271884441376
			],
			[
				1.003584861755371,
				0.0896732360124588,
				1.1520363092422485,
				-0.3723340332508087
			]
		],
		"weight_1": [
			1.7818928956985474,
			-0.17266838252544403,
			0.30168959498405457,
			0.6928091049194336
		]
	},
	"layer_5": {},
	"layer_6": {
		"weight_0": [
			[
				-3.3924458026885986
			],
			[
				8.245485305786133
			],
			[
				7.891561985015869
			],
			[
				8.967117309570312
			]
		],
		"weight_1": [
			5.517886161804199
		]
	}
}