{
	"layer_0": {
		"weight_0": [
			[
				0.39520835876464844,
				0.025584585964679718,
				1.7826812267303467,
				-0.642611563205719,
				-0.2940257489681244,
				-0.1564359962940216,
				0.08084258437156677,
				0.034529801458120346,
				0.24124230444431305,
				0.5374144315719604,
				2.40863299369812,
				8.169931411743164,
				0.37936219573020935,
				0.8509666323661804,
				2.6558268070220947,
				-0.2217782437801361
			],
			[
				-2.3111746311187744,
				-0.09624692797660828,
				-0.5253482460975647,
				-1.5510848760604858,
				-0.43505018949508667,
				-0.38038334250450134,
				0.13749203085899353,
				-0.4914900064468384,
				-2.124774217605591,
				-5.960299968719482,
				-0.017356691882014275,
				0.02688498981297016,
				-1.8688244819641113,
				-7.923840045928955,
				-21.266759872436523,
				-0.16917559504508972
			]
		],
		"weight_1": [
			0.7684437036514282,
			-0.019147945567965508,
			0.012682934291660786,
			2.1538186073303223,
			0.0,
			0.0,
			-0.2251424640417099,
			-0.0031622746028006077,
			0.4565590023994446,
			0.758041262626648,
			-0.0005563263548538089,
			0.050693921744823456,
			1.0120954513549805,
			0.4243166148662567,
			0.23331515491008759,
			0.0
		]
	},
	"layer_1": {
		"weight_0": [
			[
				0.6371675729751587,
				-0.013744592666625977,
				-0.047982510179281235,
				0.24271267652511597,
				0.8344694972038269,
				-0.05774012580513954,
				-0.15449345111846924,
				0.6039442420005798,
				0.9901005625724792,
				0.19124872982501984
			],
			[
				-0.39685505628585815,
				-0.11791965365409851,
				0.39940762519836426,
				-0.07745036482810974,
				0.30394911766052246,
				-0.45359018445014954,
				0.10574126243591309,
				-0.08762992918491364,
				0.3334253132343292,
				0.35176199674606323
			],
			[
				0.3168525695800781,
				0.26168298721313477,
				0.7357075214385986,
				-0.036231718957424164,
				0.8135086297988892,
				0.4252457916736603,
				-0.3123878538608551,
				0.4521985352039337,
				-0.9443365335464478,
				-3.0556294918060303
			],
			[
				0.5274803042411804,
				-0.2356802225112915,
				-1.2932285070419312,
				0.09451669454574585,
				0.13685975968837738,
				-0.2778230905532837,
				-0.3017633557319641,
				0.06745293736457825,
				0.5036892294883728,
				0.11629551649093628
			],
			[
				0.1374797821044922,
				0.40311163663864136,
				-0.1739298701286316,
				0.3508414626121521,
				0.3675481081008911,
				-0.21283236145973206,
				0.22399330139160156,
				-0.15083745121955872,
				0.11810898780822754,
				-0.33213406801223755
			],
			[
				-0.4695163667201996,
				-0.40833523869514465,
				0.3566276431083679,
				0.2582535743713379,
				-0.11681830883026123,
				0.02234184741973877,
				0.07921302318572998,
				0.09032052755355835,
				-0.4722284972667694,
				-0.03728252649307251
			],
			[
				0.3290790021419525,
				0.08401572704315186,
				-0.0835474357008934,
				-0.4152584969997406,
				-0.24116502702236176,
				-0.27491676807403564,
				0.2250741720199585,
				-0.20834091305732727,
				0.24904651939868927,
				-0.26023441553115845
			],
			[
				-0.016216948628425598,
				0.0877884030342102,
				-0.13166505098342896,
				-0.4354037344455719,
				-0.2642265558242798,
				-0.17494475841522217,
				0.18290680646896362,
				-0.2553980350494385,
				0.09599870443344116,
				-0.40760326385498047
			],
			[
				1.2477837800979614,
				-0.1377541720867157,
				-0.2285335212945938,
				0.2770939767360687,
				0.6496973037719727,
				-0.7338184118270874,
				-0.18349871039390564,
				1.386188268661499,
				1.7807738780975342,
				0.25152844190597534
			],
			[
				0.5249123573303223,
				0.25586026906967163,
				0.804113507270813,
				-0.15277527272701263,
				0.7603505253791809,
				-0.5130348205566406,
				-0.17933213710784912,
				0.9705020189285278,
				0.3909093737602234,
				1.1275639533996582
			],
			[
				0.9072091579437256,
				-0.008750736713409424,
				0.21477998793125153,
				0.11210157722234726,
				0.7335959672927856,
				0.37983614206314087,
				-0.3699924647808075,
				0.641178548336029,
				-0.8095044493675232,
				-5.7490763664245605
			],
			[
				0.4208265244960785,
				-0.34382280707359314,
				0.20631590485572815,
				-0.3112696707248688,
				0.31183093786239624,
				0.7358934283256531,
				0.07232940196990967,
				0.6593059301376343,
				-1.0122548341751099,
				-4.808387756347656
			],
			[
				0.6236032247543335,
				-0.4531281292438507,
				0.0037663534749299288,
				0.27481451630592346,
				-0.038006991147994995,
				-0.027965379878878593,
				-0.37802213430404663,
				0.8503119945526123,
				0.16133439540863037,
				0.17022109031677246
			],
			[
				1.689720630645752,
				0.2929930090904236,
				3.0116066932678223,
				-0.8456199169158936,
				1.485970377922058,
				0.046588778495788574,
				-0.291480153799057,
				1.0984532833099365,
				-1.7186760902404785,
				2.0694589614868164
			],
			[
				2.354537010192871,
				0.010019302368164062,
				1.5851136445999146,
				-0.8997583985328674,
				2.4381864070892334,
				2.1091816425323486,
				-0.020652294158935547,
				2.280541181564331,
				-3.357708692550659,
				-0.4203498959541321
			],
			[
				-0.05409088730812073,
				-0.07443472743034363,
				0.21330833435058594,
				-0.1170244812965393,
				0.36592429876327515,
				0.02610987424850464,
				0.020607709884643555,
				-0.300620436668396,
				-0.06651502847671509,
				0.3861510753631592
			]
		],
		"weight_1": [
			0.2744559645652771,
			0.0,
			-0.5930851101875305,
			0.43064162135124207,
			0.24969598650932312,
			0.09844230860471725,
			0.0,
			0.2434350848197937,
			0.3624575138092041,
			0.4859294593334198
		]
	},
	"layer_2": {
		"weight_0": [
			[
				1.0523312091827393,
				0.764559805393219,
				0.7887885570526123,
				-0.4522457718849182,
				0.6090176105499268,
				0.29415664076805115
			],
			[
				-0.5067873001098633,
				-0.5319818258285522,
				0.45014673471450806,
				-0.596071183681488,
				0.5822609066963196,
				-0.01041877269744873
			],
			[
				0.127446249127388,
				-0.7118176817893982,
				-0.2506880462169647,
				0.2820056676864624,
				-0.6661662459373474,
				-0.09696052223443985
			],
			[
				-1.1925491094589233,
				-1.5844440460205078,
				-1.4086079597473145,
				0.05568885803222656,
				-2.1710240840911865,
				-0.3811308741569519
			],
			[
				1.0301183462142944,
				0.6946033835411072,
				0.9541853666305542,
				-0.41699105501174927,
				0.7898427844047546,
				-0.5375576019287109
			],
			[
				-1.5353721380233765,
				-1.5139029026031494,
				-0.9746541976928711,
				-0.32556775212287903,
				-1.497962236404419,
				-0.1630791574716568
			],
			[
				-0.5284873247146606,
				-0.32516226172447205,
				-0.14994969964027405,
				-0.3503909409046173,
				0.22361129522323608,
				0.43039435148239136
			],
			[
				0.6601963639259338,
				0.980303168296814,
				0.6102954745292664,
				-0.4692396819591522,
				1.0118460655212402,
				0.10948266088962555
			],
			[
				-1.128236174583435,
				-0.7004982233047485,
				-0.6700543165206909,
				0.5246095657348633,
				-0.2918531894683838,
				-0.1910255402326584
			],
			[
				-1.6454895734786987,
				-1.786314845085144,
				-1.0674711465835571,
				0.2081698179244995,
				-2.0532233715057373,
				0.1556459665298462
			]
		],
		"weight_1": [
			0.5606288313865662,
			0.21083661913871765,
			0.5582190752029419,
			-0.010690199211239815,
			0.29187554121017456,
			-0.23910042643547058
		]
	},
	"layer_3": {
		"weight_0": [
			[
				2.9757068157196045
			],
			[
				2.8438880443573
			],
			[
				2.092099666595459
			],
			[
				-0.7867251634597778
			],
			[
				3.5072333812713623
			],
			[
				-0.009062225930392742
			]
		],
		"weight_1": [
			0.6115943789482117
		]
	}
}