{
	"layer_0": {
		"weight_0": [
			[
				0.8238399028778076,
				-0.5512440800666809,
				1.410827875137329,
				-0.16586190462112427,
				0.8301566243171692,
				0.7742248177528381,
				-0.24444913864135742,
				1.0905941724777222,
				0.8239398002624512,
				1.2191168069839478,
				1.2121984958648682,
				1.0118687152862549,
				1.2464467287063599,
				1.0987322330474854,
				-0.004453539848327637,
				-0.36313214898109436
			],
			[
				-0.6705213785171509,
				-0.2693215310573578,
				-0.002515384927392006,
				-0.32077616453170776,
				1.2806683778762817,
				-0.8175125122070312,
				0.03581695258617401,
				-1.4670886993408203,
				-0.2106764018535614,
				-0.6139369606971741,
				-0.25333282351493835,
				-0.7275842428207397,
				-0.01598319597542286,
				-0.5801491737365723,
				-0.2835876941680908,
				1.7761784791946411
			]
		],
		"weight_1": [
			0.9776995182037354,
			0.0,
			0.9870096445083618,
			0.0,
			0.4432354271411896,
			0.7091398239135742,
			-0.03994390368461609,
			0.6389380693435669,
			0.9665673971176147,
			0.8650626540184021,
			0.9644153118133545,
			0.9564182758331299,
			0.9517970085144043,
			0.9461016654968262,
			0.0,
			0.25629469752311707
		]
	},
	"layer_1": {
		"weight_0": [
			[
				1.2221932411193848,
				1.1870017051696777,
				-0.176080584526062,
				0.05154537409543991,
				-0.163641095161438,
				0.6884792447090149,
				1.3814060688018799,
				0.3821824789047241
			],
			[
				0.20776796340942383,
				0.4822545051574707,
				0.4776461124420166,
				0.41653740406036377,
				-0.19840633869171143,
				-0.4847233295440674,
				-0.27624523639678955,
				-0.3328516483306885
			],
			[
				0.5296933054924011,
				0.1298208236694336,
				-0.07093524932861328,
				-0.4299476742744446,
				0.3386296033859253,
				-0.00900663249194622,
				0.6579588651657104,
				-0.37094366550445557
			],
			[
				-0.26130831241607666,
				0.44754040241241455,
				-0.10796093940734863,
				-0.42097413539886475,
				0.41132962703704834,
				0.010540008544921875,
				-0.37091386318206787,
				-0.05321955680847168
			],
			[
				-0.24780580401420593,
				-0.09999481588602066,
				0.048760056495666504,
				-0.2652500867843628,
				-0.17503976821899414,
				-1.0846596956253052,
				0.030176488682627678,
				-0.4350169897079468
			],
			[
				1.4293311834335327,
				1.2928110361099243,
				-0.1809614896774292,
				0.24988533556461334,
				-0.4501403570175171,
				0.8553723096847534,
				0.46635735034942627,
				0.25427937507629395
			],
			[
				-0.24015557765960693,
				-0.02200460061430931,
				0.21140038967132568,
				0.4362773895263672,
				0.20090436935424805,
				-0.05269351601600647,
				-0.30954602360725403,
				0.4963245391845703
			],
			[
				1.4550186395645142,
				1.1487901210784912,
				-0.45034945011138916,
				0.43667736649513245,
				-0.44929325580596924,
				1.3995381593704224,
				1.3765619993209839,
				0.07494401931762695
			],
			[
				0.3709629476070404,
				0.6242218017578125,
				-0.4556465148925781,
				-0.2319168895483017,
				0.2890946865081787,
				0.011817431077361107,
				0.5651171803474426,
				-0.13500571250915527
			],
			[
				1.2559417486190796,
				1.0563158988952637,
				-0.337211012840271,
				0.40215277671813965,
				0.10633742809295654,
				0.562252402305603,
				0.5768305063247681,
				0.0798947811126709
			],
			[
				0.2573363184928894,
				0.1738567352294922,
				-0.46634232997894287,
				0.06812520325183868,
				-0.3005034923553467,
				0.2664458751678467,
				0.6983095407485962,
				0.13070976734161377
			],
			[
				0.883740246295929,
				1.3546879291534424,
				-0.05334484577178955,
				-0.4344899356365204,
				0.08748173713684082,
				0.2835496962070465,
				1.324314832687378,
				0.22845327854156494
			],
			[
				1.0217618942260742,
				0.04331531748175621,
				-0.36104893684387207,
				-0.21845319867134094,
				-0.43394744396209717,
				-0.4692230522632599,
				0.597939670085907,
				-0.4544179439544678
			],
			[
				0.5894612669944763,
				0.4858867824077606,
				0.4939814805984497,
				0.24682140350341797,
				-0.3104088306427002,
				0.010213583707809448,
				1.1807081699371338,
				-0.2753610610961914
			],
			[
				0.25277674198150635,
				-0.2679738998413086,
				-0.43579328060150146,
				0.40396034717559814,
				0.246903657913208,
				-0.15836000442504883,
				0.37573206424713135,
				-0.08002877235412598
			],
			[
				-1.745073676109314,
				-2.019151449203491,
				0.4209015369415283,
				0.42975497245788574,
				-0.4437516927719116,
				-1.981703519821167,
				-1.6574357748031616,
				-0.34196555614471436
			]
		],
		"weight_1": [
			0.9475594162940979,
			0.8481751084327698,
			0.0,
			-0.0018789044115692377,
			0.0,
			0.4120049476623535,
			0.9620286226272583,
			0.0
		]
	},
	"layer_2": {
		"weight_0": [
			[
				-0.2449658066034317,
				-0.1050301194190979,
				1.1439337730407715,
				-0.4300236105918884
			],
			[
				0.24357272684574127,
				0.21413075923919678,
				1.4225107431411743,
				0.22508054971694946
			],
			[
				-0.380492627620697,
				-0.6203874349594116,
				-0.6992413401603699,
				-0.05145823955535889
			],
			[
				0.21444617211818695,
				0.2930144667625427,
				0.27164262533187866,
				0.4500885605812073
			],
			[
				-0.5060002207756042,
				-0.02561938762664795,
				-0.18638283014297485,
				-0.6338142156600952
			],
			[
				0.5330615639686584,
				-0.1718839406967163,
				2.0414493083953857,
				-0.3866339325904846
			],
			[
				-0.11231933534145355,
				-0.13802719116210938,
				1.42959725856781,
				-0.20550686120986938
			],
			[
				-0.25667279958724976,
				-0.4464988112449646,
				-0.4467962086200714,
				0.17334777116775513
			]
		],
		"weight_1": [
			-0.3507363498210907,
			0.0,
			0.944443941116333,
			0.0
		]
	},
	"layer_3": {
		"weight_0": [
			[
				-0.5090271830558777
			],
			[
				0.781853437423706
			],
			[
				1.7639613151550293
			],
			[
				0.5474870204925537
			]
		],
		"weight_1": [
			0.9375644326210022
		]
	}
}