{
	"layer_0": {
		"weight_0": [
			[
				0.4016558825969696,
				0.10937100648880005,
				0.8422465324401855,
				-0.006755650043487549,
				-4.57670259475708,
				-0.058803021907806396,
				0.13998718559741974,
				-0.5200358033180237,
				0.10423602163791656,
				1.2562248706817627,
				0.09337220340967178,
				-0.09226995706558228,
				-0.5828600525856018,
				0.5622740983963013,
				1.3895633220672607,
				0.18203526735305786
			],
			[
				-2.154648542404175,
				-0.6083360910415649,
				-7.718855857849121,
				-0.2624633312225342,
				-0.8294565081596375,
				-0.33989423513412476,
				-1.5119132995605469,
				-0.0045146942138671875,
				0.12127897888422012,
				-0.10363835841417313,
				-0.4479544460773468,
				-0.19419944286346436,
				0.04492757469415665,
				-3.9955637454986572,
				-0.1863066405057907,
				-1.2342934608459473
			]
		],
		"weight_1": [
			0.36163094639778137,
			-0.032632891088724136,
			0.17220380902290344,
			0.0,
			0.7403340339660645,
			0.0,
			0.6576802134513855,
			0.0,
			0.6419535875320435,
			0.2923373579978943,
			-0.033305466175079346,
			0.0,
			-0.04717337712645531,
			0.28482362627983093,
			0.23607006669044495,
			0.9549435377120972
		]
	},
	"layer_1": {
		"weight_0": [
			[
				0.7749302983283997,
				0.929216206073761,
				1.0276683568954468,
				1.0074149370193481,
				0.228671595454216,
				-1.0492558479309082,
				-0.14346837997436523,
				0.322319358587265
			],
			[
				-0.4301478862762451,
				-0.2510142922401428,
				-0.042506419122219086,
				0.3522737920284271,
				0.4501999616622925,
				0.20635467767715454,
				0.4076627492904663,
				0.022606609389185905
			],
			[
				2.787001371383667,
				2.6763768196105957,
				2.7614543437957764,
				3.2049670219421387,
				-2.3912994861602783,
				1.919162631034851,
				0.3214591145515442,
				0.419641375541687
			],
			[
				0.31654107570648193,
				-0.06183969974517822,
				-0.33317506313323975,
				0.25911033153533936,
				-0.4537283182144165,
				0.3321894407272339,
				-0.3218216896057129,
				0.3182542324066162
			],
			[
				-1.5083303451538086,
				-1.7525776624679565,
				-1.459801435470581,
				-1.4360480308532715,
				1.1877436637878418,
				-2.774871587753296,
				0.46287181973457336,
				-0.049040257930755615
			],
			[
				-0.021085023880004883,
				-0.19992947578430176,
				-0.06988155841827393,
				0.10539841651916504,
				0.3874502182006836,
				-0.47285008430480957,
				-0.3425896167755127,
				-0.06879615783691406
			],
			[
				0.6573142409324646,
				0.8339724540710449,
				0.6441264152526855,
				0.7674586176872253,
				0.05943785980343819,
				0.26035818457603455,
				-0.3597949147224426,
				-0.15144222974777222
			],
			[
				0.05485522747039795,
				0.37772083282470703,
				0.06502699851989746,
				-0.1361680030822754,
				-0.32971251010894775,
				-0.35565173625946045,
				-0.04753291606903076,
				-0.012879610061645508
			],
			[
				-0.23958563804626465,
				0.0005173295503482223,
				-0.1183721274137497,
				0.25184690952301025,
				0.8623136281967163,
				0.07201002538204193,
				-0.04316270351409912,
				0.1422446221113205
			],
			[
				0.2390860766172409,
				0.3265269696712494,
				0.4570486545562744,
				0.33594247698783875,
				0.30491694808006287,
				-0.7052221894264221,
				-0.24998731911182404,
				-0.17895305156707764
			],
			[
				0.25983262062072754,
				-0.09369777143001556,
				-0.43883776664733887,
				0.3518611490726471,
				0.3476647138595581,
				0.48625466227531433,
				-0.09446918964385986,
				0.045530278235673904
			],
			[
				-0.262467622756958,
				0.4239107370376587,
				0.07490193843841553,
				0.25627315044403076,
				0.010631084442138672,
				-0.21807539463043213,
				-0.1048053503036499,
				-0.16352629661560059
			],
			[
				0.09972523897886276,
				0.11301785707473755,
				-0.3920367360115051,
				0.05464228242635727,
				-0.19579190015792847,
				0.2569063901901245,
				-0.35991501808166504,
				0.1347520798444748
			],
			[
				0.9637600779533386,
				1.5123430490493774,
				1.0874613523483276,
				1.6263166666030884,
				0.08129018545150757,
				-0.9951890707015991,
				-0.12644648551940918,
				-0.170492023229599
			],
			[
				0.6967917084693909,
				-0.04235781356692314,
				0.352083683013916,
				0.23525837063789368,
				-0.09078771620988846,
				-1.0349854230880737,
				-0.1965009719133377,
				-0.4998292624950409
			],
			[
				1.0004652738571167,
				0.5137938261032104,
				0.9189779162406921,
				0.22213108837604523,
				0.30559274554252625,
				0.9341901540756226,
				-0.46822571754455566,
				-0.3909687101840973
			]
		],
		"weight_1": [
			0.6579484343528748,
			0.47999823093414307,
			0.607914388179779,
			0.574402391910553,
			0.2674616575241089,
			0.7575540542602539,
			-0.00608774833381176,
			-0.11329410970211029
		]
	},
	"layer_2": {
		"weight_0": [
			[
				2.1454617977142334,
				2.335706949234009,
				-0.073661208152771,
				-0.6572303771972656
			],
			[
				2.6945271492004395,
				2.2123618125915527,
				0.050070106983184814,
				0.2493659406900406
			],
			[
				1.9762499332427979,
				2.1620466709136963,
				-0.5472938418388367,
				0.06162809208035469
			],
			[
				2.474829912185669,
				2.329362392425537,
				-0.24064180254936218,
				0.3282293677330017
			],
			[
				-2.7131412029266357,
				-3.121206283569336,
				-0.13051344454288483,
				-0.3123137950897217
			],
			[
				-3.7796168327331543,
				-4.403758525848389,
				0.23556526005268097,
				-0.17249208688735962
			],
			[
				-0.4189510643482208,
				-0.186720609664917,
				0.5703628659248352,
				0.07718843221664429
			],
			[
				0.20687270164489746,
				-0.11752165853977203,
				0.10209500789642334,
				0.6607853174209595
			]
		],
		"weight_1": [
			0.6998019814491272,
			0.665080726146698,
			-0.00602301862090826,
			-0.32887113094329834
		]
	},
	"layer_3": {
		"weight_0": [
			[
				2.735997200012207
			],
			[
				2.809812068939209
			],
			[
				-0.09036138653755188
			],
			[
				-0.20959419012069702
			]
		],
		"weight_1": [
			0.7042474150657654
		]
	}
}