{
	"layer_0": {
		"weight_0": [
			[
				3.0792722702026367,
				-0.061121344566345215,
				-0.37143078446388245,
				0.07656864821910858,
				-0.1807202249765396,
				0.008206638507544994,
				0.5836461782455444,
				2.139829635620117,
				0.745639979839325,
				-0.4345186948776245,
				-0.20101606845855713,
				-0.127384752035141,
				-0.47390124201774597,
				1.1285215616226196,
				1.0169423818588257,
				0.945823609828949
			],
			[
				0.3734467327594757,
				-0.1640779674053192,
				-0.2746433913707733,
				-0.10520687699317932,
				-0.611519992351532,
				-0.3483460247516632,
				-0.5334456562995911,
				0.0772523283958435,
				-4.982313632965088,
				1.6492500305175781,
				-0.1816449761390686,
				-0.4941744804382324,
				-0.26093873381614685,
				0.05744142830371857,
				-1.8993637561798096,
				-1.2853672504425049
			]
		],
		"weight_1": [
			0.032792557030916214,
			0.0,
			0.0,
			-0.06557677686214447,
			0.7898358106613159,
			-0.0031622692476958036,
			0.7350812554359436,
			0.222736656665802,
			0.12282755970954895,
			0.23895354568958282,
			0.0,
			0.0,
			0.0,
			0.696556568145752,
			0.26391351222991943,
			0.45678433775901794
		]
	},
	"layer_1": {},
	"layer_2": {
		"weight_0": [
			[
				-0.4854313135147095,
				-0.07485207170248032,
				-0.7445349097251892,
				0.4415644109249115,
				-1.903066873550415,
				0.189385786652565,
				-0.05451047420501709,
				0.36693835258483887
			],
			[
				-0.1063375473022461,
				0.2743316888809204,
				0.38847815990448,
				0.4883841276168823,
				-0.0725255012512207,
				0.038007497787475586,
				-0.3162015676498413,
				0.48751020431518555
			],
			[
				0.024628043174743652,
				0.09475934505462646,
				-0.06708014011383057,
				0.20201635360717773,
				-0.07802367210388184,
				0.1143578290939331,
				-0.08744955062866211,
				-0.21228063106536865
			],
			[
				0.14621150493621826,
				-0.3267782926559448,
				-0.11725318431854248,
				-0.17703641951084137,
				-0.4285583198070526,
				-0.032677602022886276,
				-0.23330473899841309,
				0.011312656104564667
			],
			[
				-0.07466018199920654,
				0.28125646710395813,
				0.5383512377738953,
				-0.18449530005455017,
				0.20321865379810333,
				0.5460756421089172,
				0.2768979072570801,
				-0.22493091225624084
			],
			[
				-0.4489341974258423,
				-0.4666973650455475,
				0.09070134162902832,
				-0.2834395170211792,
				-0.16246938705444336,
				0.24745739996433258,
				0.36807405948638916,
				0.17665883898735046
			],
			[
				-0.3687690496444702,
				0.09334559738636017,
				-0.2720886170864105,
				-0.14359599351882935,
				0.3136264681816101,
				0.9614991545677185,
				-0.4932204484939575,
				0.2768787145614624
			],
			[
				-0.14376592636108398,
				-0.3976094722747803,
				-0.06251414120197296,
				-0.4864768981933594,
				-0.8488282561302185,
				0.7464961409568787,
				0.057779550552368164,
				0.1394120752811432
			],
			[
				-0.43708765506744385,
				3.3257975578308105,
				0.09490368515253067,
				-0.36181744933128357,
				-0.5708007216453552,
				1.8031505346298218,
				0.20520853996276855,
				3.2862179279327393
			],
			[
				-0.08693313598632812,
				-1.6882648468017578,
				0.2257547378540039,
				-0.4651068150997162,
				0.36938315629959106,
				-0.5559496879577637,
				-0.48535120487213135,
				-1.208983302116394
			],
			[
				-0.38794636726379395,
				-0.13595938682556152,
				0.388962984085083,
				0.36681318283081055,
				0.13229656219482422,
				-0.49166154861450195,
				-0.2584049701690674,
				0.43860864639282227
			],
			[
				0.42341113090515137,
				-0.024429678916931152,
				0.09852838516235352,
				-0.1711893081665039,
				0.18904459476470947,
				-0.32591259479522705,
				-0.4467737674713135,
				-0.33802497386932373
			],
			[
				0.3707045316696167,
				0.08358967304229736,
				0.21788978576660156,
				0.48118603229522705,
				-0.4584909677505493,
				0.44435811042785645,
				0.4546254873275757,
				-0.3549410104751587
			],
			[
				0.01900327205657959,
				-0.38902753591537476,
				0.014051686972379684,
				-0.5175983309745789,
				0.05704620108008385,
				0.4309244453907013,
				0.10415685176849365,
				-0.07447583228349686
			],
			[
				-0.2018810510635376,
				0.5558280944824219,
				1.813890814781189,
				0.4332929849624634,
				0.6029748320579529,
				-0.7051820158958435,
				-0.16160106658935547,
				1.1739585399627686
			],
			[
				0.06721889972686768,
				1.0972700119018555,
				1.293046474456787,
				-0.4688175916671753,
				-0.10463882982730865,
				1.5567846298217773,
				0.09601998329162598,
				0.8518097400665283
			]
		],
		"weight_1": [
			0.0,
			0.46290063858032227,
			0.46502870321273804,
			-0.03367318585515022,
			0.4083026051521301,
			0.6732484698295593,
			0.0,
			0.17592288553714752
		]
	},
	"layer_3": {},
	"layer_4": {
		"weight_0": [
			[
				0.6974583268165588,
				0.17508995532989502,
				-0.5905624628067017,
				-0.4935765266418457
			],
			[
				-2.91758394241333,
				0.47204285860061646,
				1.6666836738586426,
				0.9488041996955872
			],
			[
				-0.026133105158805847,
				-0.04194909334182739,
				0.9803892970085144,
				-1.4100441932678223
			],
			[
				-0.687966525554657,
				-0.16312313079833984,
				-0.5838286876678467,
				-0.48533299565315247
			],
			[
				1.7128225564956665,
				-0.1331080198287964,
				-1.70259428024292,
				-2.138185977935791
			],
			[
				0.8784574270248413,
				-0.6205954551696777,
				0.26870763301849365,
				1.6276911497116089
			],
			[
				0.4440760016441345,
				0.3707178235054016,
				-0.6569658517837524,
				-0.6446228623390198
			],
			[
				-0.7117894291877747,
				-0.6770688891410828,
				0.9223656058311462,
				0.3474422097206116
			]
		],
		"weight_1": [
			1.8197838068008423,
			0.0,
			-0.9025578498840332,
			0.7048851847648621
		]
	},
	"layer_5": {},
	"layer_6": {
		"weight_0": [
			[
				-4.447309970855713
			],
			[
				0.8096387386322021
			],
			[
				12.101999282836914
			],
			[
				10.629495620727539
			]
		],
		"weight_1": [
			9.676648139953613
		]
	}
}