{
	"layer_0": {
		"weight_0": 0.0,
		"weight_1": 1.0,
		"weight_2": -1
	},
	"layer_1": {
		"weight_0": [
			0.44656801223754883,
			0.3362206220626831,
			0.9090166687965393,
			0.0,
			0.0,
			0.0,
			0.39579954743385315,
			1.719724178314209,
			1.0571982860565186,
			2.1594719886779785,
			-0.22465579211711884,
			0.6812211275100708,
			0.9076153635978699,
			0.0,
			0.11265397816896439,
			0.6925968527793884
		],
		"weight_1": [
			[
				3.9039947986602783,
				5.142671585083008,
				0.5938825011253357,
				-0.4647122025489807,
				-0.14068955183029175,
				-0.030146420001983643,
				1.344054102897644,
				-1.3237870931625366,
				0.4890211522579193,
				-1.7444024085998535,
				0.24167750775814056,
				0.8461703658103943,
				2.490178346633911,
				-0.043791890144348145,
				-0.6287017464637756,
				1.148551106452942
			],
			[
				-0.4063129127025604,
				-0.7796110510826111,
				-3.0860133171081543,
				-0.07677006721496582,
				-0.15888231992721558,
				-0.3815387785434723,
				-7.937714099884033,
				-3.7074832916259766,
				-2.034011125564575,
				-0.4690428376197815,
				-0.3274649977684021,
				-4.895395278930664,
				2.381859064102173,
				-0.3583719730377197,
				1.9063109159469604,
				-0.21906401216983795
			]
		],
		"weight_2": -1,
		"weight_3": -7.937714099884033,
		"weight_4": 7.937714099884033,
		"weight_5": -1.0344233678196528e-30,
		"weight_6": 5.450575828552246
	},
	"layer_2": {
		"weight_0": [
			0.8028978705406189,
			0.950173020362854,
			0.5354459285736084,
			0.9624627828598022,
			0.06192459911108017,
			0.802516758441925,
			0.0628688633441925,
			0.0
		],
		"weight_1": [
			[
				0.276460200548172,
				0.598974347114563,
				-2.213399887084961,
				0.18616461753845215,
				0.2656412720680237,
				-1.1903671026229858,
				-0.4624249339103699,
				0.07181274890899658
			],
			[
				0.2301378697156906,
				0.7549542784690857,
				-2.353790760040283,
				-0.4976597726345062,
				0.07926847785711288,
				-1.068603515625,
				-0.15634578466415405,
				-0.12946844100952148
			],
			[
				1.183495044708252,
				2.2725491523742676,
				0.41373559832572937,
				0.44990265369415283,
				1.1314705610275269,
				0.6139894723892212,
				-0.33158019185066223,
				-0.22372984886169434
			],
			[
				0.491845965385437,
				0.11386334896087646,
				-0.11464881896972656,
				0.13284528255462646,
				-0.1264653205871582,
				0.4651106595993042,
				-0.1452195644378662,
				0.06386220455169678
			],
			[
				0.11761939525604248,
				-0.0963139533996582,
				0.4770500659942627,
				0.07193946838378906,
				-0.24048209190368652,
				0.31114113330841064,
				-0.3515279293060303,
				0.33547914028167725
			],
			[
				0.14442145824432373,
				0.3084977865219116,
				-0.441943883895874,
				0.31214892864227295,
				-0.4507378339767456,
				0.31763720512390137,
				-0.09689688682556152,
				-0.13407659530639648
			],
			[
				2.594132661819458,
				3.6142048835754395,
				0.21577264368534088,
				1.4382542371749878,
				3.279407501220703,
				-1.8372830152511597,
				-1.7117066383361816,
				0.278364896774292
			],
			[
				0.6950368285179138,
				0.8017107844352722,
				0.8119404911994934,
				0.6317929029464722,
				-0.30241987109184265,
				0.18881087005138397,
				1.1021316051483154,
				0.4320129156112671
			],
			[
				1.4225897789001465,
				1.2038800716400146,
				-0.27262017130851746,
				0.9418824315071106,
				0.11246149986982346,
				0.6160961389541626,
				0.1614382565021515,
				0.17624258995056152
			],
			[
				0.7658325433731079,
				0.4981297254562378,
				0.7336305379867554,
				1.2296297550201416,
				-0.35164690017700195,
				0.6129592061042786,
				1.2071895599365234,
				-0.3916524648666382
			],
			[
				-0.12375615537166595,
				-0.22430559992790222,
				0.29068824648857117,
				-0.049872420728206635,
				0.15751536190509796,
				-0.46504950523376465,
				0.11269903928041458,
				0.2957603931427002
			],
			[
				2.1477885246276855,
				2.4626424312591553,
				0.840749979019165,
				0.3735450506210327,
				2.1734306812286377,
				0.16938288509845734,
				-1.4593851566314697,
				-0.48416364192962646
			],
			[
				-0.2071630209684372,
				0.5480172634124756,
				-0.6994511485099792,
				0.038407664746046066,
				-1.6251963376998901,
				-0.5374161005020142,
				-0.10032443702220917,
				-0.47696995735168457
			],
			[
				-0.17999756336212158,
				0.006589055061340332,
				0.05912649631500244,
				0.0759514570236206,
				0.09659326076507568,
				0.4503052234649658,
				-0.3818638324737549,
				0.1504981517791748
			],
			[
				-0.7570360898971558,
				-1.1936029195785522,
				0.5045716762542725,
				-0.5897254347801208,
				-3.241968870162964,
				0.11509488523006439,
				-0.41994509100914,
				-0.11739981174468994
			],
			[
				0.550095796585083,
				0.6981409788131714,
				-0.5493495464324951,
				0.6692649722099304,
				-0.5295827388763428,
				0.2339593768119812,
				-0.23877812922000885,
				0.0975273847579956
			]
		],
		"weight_2": -1,
		"weight_3": -3.6142048835754395,
		"weight_4": 3.6142048835754395,
		"weight_5": -1.0344233678196528e-30,
		"weight_6": 16.46885871887207
	},
	"layer_3": {
		"weight_0": [
			0.9294230937957764,
			0.21297144889831543,
			0.8328816890716553,
			0.8903383016586304
		],
		"weight_1": [
			[
				1.0339429378509521,
				-0.0975225567817688,
				0.4300198256969452,
				0.3239208459854126
			],
			[
				0.6086909174919128,
				-0.20820696651935577,
				0.747855007648468,
				0.8528382778167725
			],
			[
				-2.7790396213531494,
				2.7692081928253174,
				-1.6716043949127197,
				-2.961263656616211
			],
			[
				0.5223316550254822,
				0.9182030558586121,
				0.8691174983978271,
				0.5794937014579773
			],
			[
				3.2161433696746826,
				-2.484099864959717,
				2.8191277980804443,
				3.418529510498047
			],
			[
				-1.4772921800613403,
				0.8563182950019836,
				-0.6872567534446716,
				-1.2249258756637573
			],
			[
				-1.0198649168014526,
				0.3777535855770111,
				-0.4150879979133606,
				-1.2230370044708252
			],
			[
				-0.10555899143218994,
				0.5362582802772522,
				-0.39122626185417175,
				-0.42416757345199585
			]
		],
		"weight_2": -1,
		"weight_3": -3.418529510498047,
		"weight_4": 3.418529510498047,
		"weight_5": -1.0344233678196528e-30,
		"weight_6": 23.098386764526367
	},
	"layer_4": {
		"weight_0": [
			0.9770551919937134
		],
		"weight_1": [
			[
				2.1886651515960693
			],
			[
				-3.5970325469970703
			],
			[
				1.2624602317810059
			],
			[
				2.9502673149108887
			]
		],
		"weight_2": -1,
		"weight_3": -3.5968799591064453,
		"weight_4": 3.5968799591064453,
		"weight_5": -0.054836779832839966,
		"weight_6": 136.7835235595703
	}
}