{
	"layer_0": {
		"weight_0": [
			[
				4.208942890167236,
				-0.13956218957901,
				1.9555503129959106,
				3.514739513397217,
				0.12841522693634033,
				0.00382739445194602,
				2.83827805519104,
				-0.33656901121139526,
				3.7894630432128906,
				-0.03823697566986084,
				-0.12739011645317078,
				5.67036771774292,
				-0.28203848004341125,
				-0.20763638615608215,
				0.03873535618185997,
				0.07774148881435394
			],
			[
				0.9685096144676208,
				-0.38097482919692993,
				1.4333022832870483,
				0.6852906346321106,
				-0.23508396744728088,
				-0.023167181760072708,
				1.2143982648849487,
				-0.4813165068626404,
				1.4966042041778564,
				-0.2020469307899475,
				-0.18696188926696777,
				0.28100934624671936,
				4.868654727935791,
				-0.547981321811676,
				3.8534750938415527,
				-0.27436214685440063
			]
		],
		"weight_1": [
			-0.013553345575928688,
			0.0,
			-0.08857312053442001,
			0.21125733852386475,
			-0.13171735405921936,
			-0.004964328370988369,
			-0.014909053221344948,
			0.0,
			0.09327743202447891,
			0.0,
			0.0,
			0.08628325909376144,
			0.3197184205055237,
			0.0,
			0.02380479872226715,
			-0.08382733166217804
		]
	},
	"layer_1": {
		"weight_0": [
			[
				0.9741466641426086,
				-0.399269700050354,
				-0.01996169611811638,
				1.2798813581466675,
				-1.7117198705673218,
				1.1986205577850342,
				0.06290996074676514,
				1.5350253582000732
			],
			[
				0.004280805587768555,
				0.35601353645324707,
				0.4757091999053955,
				0.05290937423706055,
				0.4342688322067261,
				0.18677473068237305,
				0.14725935459136963,
				0.0277554988861084
			],
			[
				1.0708147287368774,
				0.2673162817955017,
				-0.3214159607887268,
				1.0809545516967773,
				-0.05531129613518715,
				-0.10883908718824387,
				-0.3134315013885498,
				0.6087718605995178
			],
			[
				1.275290608406067,
				0.26451870799064636,
				-0.4574153423309326,
				0.908417284488678,
				-1.6275314092636108,
				0.5660017728805542,
				-0.08785605430603027,
				1.4919992685317993
			],
			[
				-0.11770493537187576,
				0.1314183622598648,
				0.3500463664531708,
				-0.2622673809528351,
				0.01708953082561493,
				-0.1062103733420372,
				-0.44728243350982666,
				0.2803694009780884
			],
			[
				-0.19633498787879944,
				-0.2890000343322754,
				-0.1696041226387024,
				-0.49116232991218567,
				-0.04398899897933006,
				-0.1268152892589569,
				-0.30897557735443115,
				-0.054321520030498505
			],
			[
				1.1051843166351318,
				0.21915990114212036,
				0.17396993935108185,
				1.0615839958190918,
				-0.40298551321029663,
				0.5010730624198914,
				-0.2343142032623291,
				1.407659649848938
			],
			[
				-0.3574254512786865,
				0.034589529037475586,
				-0.4590979814529419,
				-0.11042237281799316,
				-0.2966039180755615,
				0.121551513671875,
				0.05204653739929199,
				-0.3822077512741089
			],
			[
				1.5673178434371948,
				-0.2513435482978821,
				-0.17605815827846527,
				1.5304079055786133,
				-0.9590845704078674,
				0.7918602228164673,
				-0.23196935653686523,
				0.7236036658287048
			],
			[
				-0.13286137580871582,
				-0.21905744075775146,
				0.1700533628463745,
				0.398659348487854,
				-0.39461588859558105,
				-0.0294266939163208,
				-0.119698166847229,
				0.3709549903869629
			],
			[
				0.24903488159179688,
				-0.3406076431274414,
				-0.40883779525756836,
				-0.22256779670715332,
				0.37808048725128174,
				-0.38767218589782715,
				-0.30673062801361084,
				0.20017409324645996
			],
			[
				1.2406553030014038,
				-0.26047101616859436,
				-0.199204683303833,
				1.9129575490951538,
				-4.115045070648193,
				1.7677041292190552,
				0.2679694890975952,
				1.7854233980178833
			],
			[
				0.979670524597168,
				-0.4208080768585205,
				0.18751990795135498,
				1.0433303117752075,
				2.2388994693756104,
				-4.333214282989502,
				-0.02439749240875244,
				1.4815207719802856
			],
			[
				-0.3818312883377075,
				0.22188305854797363,
				-0.3547515869140625,
				0.22226393222808838,
				0.1184229850769043,
				-0.33335936069488525,
				-0.4030708074569702,
				-0.059850215911865234
			],
			[
				1.336238145828247,
				-0.5182405710220337,
				-0.0494152307510376,
				1.143858551979065,
				1.4645962715148926,
				-3.929811954498291,
				-0.34374475479125977,
				1.21388840675354
			],
			[
				0.06353840976953506,
				-0.13137274980545044,
				0.20025460422039032,
				-0.37856927514076233,
				-0.10044406354427338,
				-0.2048744559288025,
				-0.33022594451904297,
				-0.34414422512054443
			]
		],
		"weight_1": [
			-0.07649160921573639,
			-0.07008913159370422,
			0.0019707928877323866,
			-0.10382582992315292,
			0.4424841105937958,
			-0.20404185354709625,
			0.0,
			-0.06688474118709564
		]
	},
	"layer_2": {
		"weight_0": [
			[
				1.5412825345993042,
				-0.699719250202179,
				-0.45641323924064636,
				-0.18427002429962158
			],
			[
				-0.36953556537628174,
				-0.6374850869178772,
				0.6272022128105164,
				0.6247530579566956
			],
			[
				-0.2720690369606018,
				0.19681936502456665,
				-0.6428608894348145,
				0.29873573780059814
			],
			[
				1.3356326818466187,
				-0.3995278477668762,
				0.4882940351963043,
				0.12937133014202118
			],
			[
				-4.521811485290527,
				-0.2802979350090027,
				-0.7005348205566406,
				-0.5273991823196411
			],
			[
				-2.8649141788482666,
				-0.3951819837093353,
				-0.6776221394538879,
				0.5757654905319214
			],
			[
				-0.39148470759391785,
				-0.5031782388687134,
				-0.5587654113769531,
				-0.0361328125
			],
			[
				1.2174421548843384,
				0.3426794409751892,
				-0.07259294390678406,
				-0.7409396767616272
			]
		],
		"weight_1": [
			-0.0623314343392849,
			0.0,
			-0.11572623997926712,
			-0.035717256367206573
		]
	},
	"layer_3": {
		"weight_0": [
			[
				2.849855661392212
			],
			[
				-0.037052035331726074
			],
			[
				-0.9263293743133545
			],
			[
				-0.1536146104335785
			]
		],
		"weight_1": [
			-0.05326951667666435
		]
	}
}