{
	"layer_0": {
		"weight_0": [
			[
				0.7471614480018616,
				-0.11376005411148071,
				-0.015660252422094345,
				-0.2403647005558014,
				0.5941279530525208,
				0.03753894940018654,
				0.9920465350151062,
				0.7758645415306091,
				-0.10592416673898697,
				0.6750906109809875,
				-0.6090623140335083,
				-0.34537482261657715,
				-0.5481157898902893,
				0.6495044231414795,
				-0.02316545508801937,
				-0.40151113271713257
			],
			[
				0.5481958985328674,
				-0.15478762984275818,
				0.8875573873519897,
				-0.31282034516334534,
				0.7782602906227112,
				-0.18504102528095245,
				-0.04462319239974022,
				0.37713316082954407,
				0.8172392249107361,
				0.48306888341903687,
				0.17103806138038635,
				-0.16695529222488403,
				-0.3194975256919861,
				0.1722629815340042,
				0.8537387251853943,
				-0.478954553604126
			]
		],
		"weight_1": [
			0.3957325518131256,
			0.0,
			0.4102322459220886,
			0.0,
			0.44234153628349304,
			-0.013308575376868248,
			0.44062143564224243,
			0.4459003806114197,
			0.44667795300483704,
			0.44431573152542114,
			-0.0397978350520134,
			0.0,
			0.0,
			0.4547877013683319,
			0.44908973574638367,
			0.0
		]
	},
	"layer_1": {},
	"layer_2": {
		"weight_0": [
			[
				-0.3315732479095459,
				0.07999005168676376,
				0.4518491327762604,
				0.11359542608261108,
				-0.2261018306016922,
				0.6915468573570251,
				0.3067219853401184,
				0.20679853856563568
			],
			[
				0.2554624080657959,
				-0.407285213470459,
				0.20637524127960205,
				-0.07411003112792969,
				-0.0914379358291626,
				-0.07682538032531738,
				-0.49553024768829346,
				-0.3649393320083618
			],
			[
				-0.12457990646362305,
				0.3472731113433838,
				0.5950469374656677,
				-0.007230059709399939,
				0.4282578229904175,
				0.5259687304496765,
				0.3858148455619812,
				0.11882027983665466
			],
			[
				0.13390326499938965,
				-0.2955935001373291,
				-0.17020559310913086,
				0.04617130756378174,
				0.13111042976379395,
				-0.2435743808746338,
				0.14747238159179688,
				-0.36647284030914307
			],
			[
				-0.24258144199848175,
				0.4647461175918579,
				0.7420416474342346,
				0.1335117518901825,
				-0.37472569942474365,
				-0.03977004811167717,
				0.8288788199424744,
				-0.3174406588077545
			],
			[
				0.22641229629516602,
				0.3132166862487793,
				-0.09295801818370819,
				-0.042381640523672104,
				-0.2612253427505493,
				-0.22892636060714722,
				0.1158994734287262,
				0.10028818249702454
			],
			[
				-0.04442307725548744,
				0.19993071258068085,
				0.1700288951396942,
				-0.11757104098796844,
				-0.27246803045272827,
				0.3729728162288666,
				0.37292763590812683,
				-0.16335070133209229
			],
			[
				-0.47459229826927185,
				0.5723307132720947,
				0.4047096073627472,
				0.10311286151409149,
				0.07382836192846298,
				0.7536511421203613,
				0.9138262271881104,
				0.47012054920196533
			],
			[
				0.38807475566864014,
				0.17867666482925415,
				0.4288158118724823,
				-0.5193833708763123,
				-0.3724733889102936,
				0.7155757546424866,
				0.30004921555519104,
				0.42743566632270813
			],
			[
				0.39090055227279663,
				0.5113456845283508,
				0.49821534752845764,
				-0.36787381768226624,
				0.4026007056236267,
				0.6306505799293518,
				0.8484671711921692,
				0.45953479409217834
			],
			[
				-0.3894268274307251,
				0.4089532196521759,
				0.21865250170230865,
				-0.03017805702984333,
				0.278036504983902,
				-0.46383458375930786,
				-0.45430245995521545,
				0.4335390031337738
			],
			[
				-0.09676849842071533,
				0.4146796464920044,
				0.44874000549316406,
				-0.1461712121963501,
				0.041657209396362305,
				0.4886202812194824,
				-0.2151193618774414,
				-0.37067997455596924
			],
			[
				-0.3216536045074463,
				0.3889518976211548,
				0.4717690944671631,
				0.24007582664489746,
				0.08113300800323486,
				0.2737354040145874,
				-0.47840964794158936,
				-0.03389632701873779
			],
			[
				0.4632980227470398,
				0.34560391306877136,
				0.6456728577613831,
				-0.1315024197101593,
				0.2947177588939667,
				0.6469910144805908,
				0.40250179171562195,
				0.03414984047412872
			],
			[
				-0.37350332736968994,
				0.7567052841186523,
				0.2227831333875656,
				0.39204657077789307,
				0.2986598312854767,
				0.24005889892578125,
				0.8667686581611633,
				-0.16157618165016174
			],
			[
				0.09764599800109863,
				-0.16556215286254883,
				-0.4433809518814087,
				0.47685861587524414,
				0.10764539241790771,
				-0.14975321292877197,
				-0.47247183322906494,
				-0.4629487991333008
			]
		],
		"weight_1": [
			-0.0031622766982764006,
			0.36709028482437134,
			0.4485235810279846,
			-0.03790072724223137,
			-0.026687633246183395,
			0.43026161193847656,
			0.4250066876411438,
			-0.00910396222025156
		]
	},
	"layer_3": {},
	"layer_4": {
		"weight_0": [
			[
				-0.3410612940788269,
				-0.24325120449066162,
				-0.4107000231742859,
				-0.09831095486879349
			],
			[
				0.7266366481781006,
				-0.1526280641555786,
				0.580281138420105,
				0.18178576231002808
			],
			[
				0.9612003564834595,
				-0.6905015707015991,
				0.1050427034497261,
				0.7403688430786133
			],
			[
				0.4796530306339264,
				-0.5689971446990967,
				-0.07802318781614304,
				-0.3998773992061615
			],
			[
				0.6180086135864258,
				-0.48077449202537537,
				-0.32417410612106323,
				-0.2351526916027069
			],
			[
				0.18006421625614166,
				-0.36118584871292114,
				0.9934487342834473,
				0.4720311164855957
			],
			[
				0.44586873054504395,
				-0.4654625356197357,
				0.780608057975769,
				1.0746731758117676
			],
			[
				0.7410303354263306,
				-0.3419506847858429,
				-0.3357226848602295,
				0.04354119300842285
			]
		],
		"weight_1": [
			0.4637952148914337,
			0.0,
			0.4189106523990631,
			0.36933964490890503
		]
	},
	"layer_5": {},
	"layer_6": {
		"weight_0": [
			[
				2.3213202953338623
			],
			[
				-0.43015825748443604
			],
			[
				2.94500732421875
			],
			[
				3.0920238494873047
			]
		],
		"weight_1": [
			2.288464307785034
		]
	}
}