{
	"layer_0": {
		"weight_0": [
			[
				0.8272258043289185,
				-0.30978915095329285,
				0.8420760035514832,
				1.5815426111221313,
				0.9628872871398926,
				1.2543011903762817,
				-0.2189851701259613,
				-0.27434414625167847,
				0.7823378443717957,
				-0.13499173521995544,
				0.9860780835151672,
				1.5091509819030762,
				-0.1427011787891388,
				1.3773998022079468,
				1.5959957838058472,
				1.45988929271698
			],
			[
				-0.5478959083557129,
				-0.03197741508483887,
				-0.4736674427986145,
				-0.4759751260280609,
				-0.72259521484375,
				-0.4489234685897827,
				-0.5288457274436951,
				-0.40460965037345886,
				-0.7091464400291443,
				-0.1390797197818756,
				-0.3804890513420105,
				-0.8482908606529236,
				-0.3365270495414734,
				-0.9562438130378723,
				-0.9896970391273499,
				-0.8769537806510925
			]
		],
		"weight_1": [
			0.779704749584198,
			0.0,
			0.7554848194122314,
			0.7355780601501465,
			0.7636654376983643,
			0.7791076898574829,
			0.0,
			0.0,
			0.7796726226806641,
			0.0,
			0.791422426700592,
			0.6986947059631348,
			0.0,
			0.4700714945793152,
			0.6808567643165588,
			0.7452841997146606
		]
	},
	"layer_1": {
		"weight_0": [
			[
				-0.2085803747177124,
				0.24359670281410217,
				0.8945971727371216,
				0.4047754108905792,
				0.6833238005638123,
				0.7519344091415405,
				-0.4893472194671631,
				0.2013617306947708
			],
			[
				-0.3752638101577759,
				-0.31986260414123535,
				-0.42751944065093994,
				0.1882694959640503,
				-0.41149210929870605,
				0.33282923698425293,
				-0.406833291053772,
				0.06438970565795898
			],
			[
				0.4762129485607147,
				0.04919019341468811,
				0.513944685459137,
				0.8856380581855774,
				0.013678466901183128,
				0.8319132924079895,
				-0.2962750196456909,
				0.299326092004776
			],
			[
				0.565447986125946,
				0.3427451252937317,
				0.7661879658699036,
				0.40253862738609314,
				0.94268399477005,
				0.6977120041847229,
				0.16601279377937317,
				0.4114159047603607
			],
			[
				-0.014440353959798813,
				-0.425884485244751,
				0.9609670042991638,
				0.6076897382736206,
				0.45801684260368347,
				1.2943432331085205,
				-0.4238094389438629,
				-0.019151613116264343
			],
			[
				-0.04580758139491081,
				-0.31967973709106445,
				0.4560118019580841,
				0.7865434885025024,
				0.8856462240219116,
				0.796631395816803,
				0.06708153337240219,
				-0.4598565995693207
			],
			[
				-0.13193774223327637,
				-0.32627296447753906,
				0.3961803913116455,
				0.37476086616516113,
				0.030876874923706055,
				0.3585699796676636,
				-0.4084796905517578,
				0.2836049795150757
			],
			[
				-0.1953287124633789,
				-0.36251723766326904,
				-0.3995128870010376,
				-0.28529787063598633,
				-0.3888547420501709,
				-0.1847522258758545,
				-0.0023040771484375,
				0.054531216621398926
			],
			[
				-0.3806375563144684,
				-0.48872730135917664,
				0.9037356376647949,
				0.4072970747947693,
				0.7073893547058105,
				0.6471226811408997,
				-0.5292009115219116,
				-0.15593549609184265
			],
			[
				-0.17953121662139893,
				-0.4102567434310913,
				0.0974569320678711,
				-0.12117350101470947,
				-0.4339163303375244,
				-0.28550946712493896,
				-0.0823441743850708,
				-0.2967621088027954
			],
			[
				0.3082476556301117,
				-0.06607561558485031,
				0.4817785620689392,
				0.3771986961364746,
				0.6066734194755554,
				0.2571110427379608,
				0.18837597966194153,
				-0.20800632238388062
			],
			[
				-0.08348815143108368,
				0.3424724042415619,
				0.9652708172798157,
				1.4657342433929443,
				1.4630435705184937,
				1.115347981452942,
				0.24462635815143585,
				-0.12126178294420242
			],
			[
				-0.3469587564468384,
				0.4282921552658081,
				-0.33840036392211914,
				0.37188494205474854,
				0.39013755321502686,
				-0.4401843547821045,
				0.47430920600891113,
				-0.11947262287139893
			],
			[
				-0.3399825990200043,
				-0.027147753164172173,
				1.2434552907943726,
				1.3120691776275635,
				1.0680230855941772,
				1.6591852903366089,
				0.09628467261791229,
				-0.21750324964523315
			],
			[
				-0.2574995458126068,
				-0.45572781562805176,
				1.8045233488082886,
				1.5228122472763062,
				1.0323656797409058,
				1.3276602029800415,
				-0.3628295063972473,
				-0.09464843571186066
			],
			[
				-0.20960943400859833,
				-0.05805669352412224,
				1.370641827583313,
				1.5189896821975708,
				1.577322244644165,
				1.4460254907608032,
				0.2825862169265747,
				0.19261428713798523
			]
		],
		"weight_1": [
			0.135404571890831,
			-0.027454107999801636,
			0.7701107859611511,
			0.7646712064743042,
			0.7719298601150513,
			0.7610132694244385,
			-0.17629699409008026,
			-0.05287642404437065
		]
	},
	"layer_2": {
		"weight_0": [
			[
				-0.18782365322113037,
				-0.6619488000869751,
				0.5338820815086365,
				0.1881888508796692
			],
			[
				-0.6458779573440552,
				-0.09206608682870865,
				0.151093527674675,
				-0.050126075744628906
			],
			[
				-0.5028836131095886,
				1.1974815130233765,
				-0.07818934321403503,
				-0.6251158118247986
			],
			[
				-0.28745824098587036,
				1.0320277214050293,
				-0.28407448530197144,
				0.4369369149208069
			],
			[
				-0.7122697830200195,
				1.481817364692688,
				0.47205567359924316,
				-0.4868694245815277
			],
			[
				-0.3004523813724518,
				1.2844583988189697,
				-0.09535085409879684,
				0.08109104633331299
			],
			[
				0.37827277183532715,
				-0.18966595828533173,
				-0.3390006721019745,
				-0.6076782941818237
			],
			[
				0.5665728449821472,
				-0.3705524504184723,
				-0.05890309810638428,
				0.172410249710083
			]
		],
		"weight_1": [
			-0.016705350950360298,
			0.7764892578125,
			0.03668780252337456,
			0.0
		]
	},
	"layer_3": {
		"weight_0": [
			[
				-0.48313263058662415
			],
			[
				1.1187106370925903
			],
			[
				-0.5878257751464844
			],
			[
				0.7538542747497559
			]
		],
		"weight_1": [
			0.7467562556266785
		]
	}
}