{
	"layer_0": {
		"weight_0": [
			[
				-0.04954266548156738,
				-0.45707079768180847,
				0.017465531826019287,
				-0.3428686261177063,
				2.9151527881622314,
				2.078230857849121,
				0.5926097631454468,
				-0.09992048144340515,
				1.2465962171554565,
				-0.18313753604888916,
				2.6351702213287354,
				0.5212538242340088,
				0.09126709401607513,
				-0.13228480517864227,
				3.383608818054199,
				-0.33681079745292664
			],
			[
				-0.05979984998703003,
				-0.04415005445480347,
				-0.22792145609855652,
				-0.30478692054748535,
				0.7459160089492798,
				1.3837149143218994,
				2.2763657569885254,
				-0.1837432086467743,
				0.8418744802474976,
				-0.1665540337562561,
				1.0862388610839844,
				2.787184000015259,
				-0.6352893114089966,
				4.9924774169921875,
				0.2974500060081482,
				4.0146098136901855
			]
		],
		"weight_1": [
			0.0,
			0.0,
			-0.02033672295510769,
			0.0,
			0.09527381509542465,
			-0.05105368793010712,
			-0.0697263777256012,
			0.0,
			-1.1695295572280884,
			0.0,
			0.0821169763803482,
			0.012507042847573757,
			-0.09462101012468338,
			0.2159481793642044,
			0.1441468894481659,
			0.38334229588508606
		]
	},
	"layer_1": {
		"weight_0": [
			[
				0.1984090805053711,
				-0.22009241580963135,
				-0.37358200550079346,
				-0.39000701904296875,
				0.08085525035858154,
				0.3880971670150757,
				-0.10767769813537598,
				0.2964792251586914
			],
			[
				-0.09968185424804688,
				-0.2322559356689453,
				-0.07168924808502197,
				-0.19598329067230225,
				-0.4370993375778198,
				0.42137932777404785,
				0.16377711296081543,
				-0.13231372833251953
			],
			[
				0.2574046850204468,
				0.47279155254364014,
				0.28686055541038513,
				0.015377768315374851,
				0.2891523838043213,
				-0.06485986709594727,
				0.3037723898887634,
				-0.4244813323020935
			],
			[
				0.2829620838165283,
				0.17401504516601562,
				-0.48684000968933105,
				-0.15239882469177246,
				-0.3424149751663208,
				-0.13679134845733643,
				0.3238879442214966,
				0.04363560676574707
			],
			[
				0.560431182384491,
				-0.26642659306526184,
				-0.3466987609863281,
				0.8452161550521851,
				-0.936866819858551,
				-1.846373200416565,
				0.7056154608726501,
				0.42600858211517334
			],
			[
				0.09481047838926315,
				-0.5390583276748657,
				0.3337844908237457,
				0.14497531950473785,
				-0.010751903057098389,
				-0.6199126839637756,
				0.5796785354614258,
				1.0927836894989014
			],
			[
				0.819794774055481,
				-0.15041248500347137,
				0.19194765388965607,
				0.4970247745513916,
				0.42565056681632996,
				0.3899846076965332,
				1.2651113271713257,
				0.9402744770050049
			],
			[
				0.0051670074462890625,
				0.4234035015106201,
				-0.47519516944885254,
				0.14418935775756836,
				0.11930501461029053,
				-0.2846146821975708,
				0.1605008840560913,
				0.13860952854156494
			],
			[
				1.2484204769134521,
				0.6356627941131592,
				-0.1947828084230423,
				1.1870887279510498,
				1.632858395576477,
				-0.9649742245674133,
				1.8201282024383545,
				1.4356001615524292
			],
			[
				-0.48249197006225586,
				0.10384535789489746,
				0.10637295246124268,
				0.013961315155029297,
				0.02683734893798828,
				0.4613286256790161,
				0.4973360300064087,
				0.4187791347503662
			],
			[
				0.5403037071228027,
				0.1260213851928711,
				0.23096346855163574,
				1.0170294046401978,
				-0.5712725520133972,
				-1.2827978134155273,
				1.0196832418441772,
				0.3087250590324402
			],
			[
				0.6345283389091492,
				0.8065836429595947,
				-0.3529589772224426,
				1.4580671787261963,
				0.5650222897529602,
				0.04491787403821945,
				1.2502192258834839,
				0.7248708605766296
			],
			[
				-0.20879457890987396,
				-0.330310583114624,
				0.35005465149879456,
				-0.09716536849737167,
				0.33083009719848633,
				-0.09835696220397949,
				-0.3169161081314087,
				-0.3237585425376892
			],
			[
				1.549595832824707,
				0.6364516019821167,
				-0.18689589202404022,
				1.2897967100143433,
				1.230913519859314,
				1.0177812576293945,
				1.4316502809524536,
				1.6927684545516968
			],
			[
				0.48570889234542847,
				0.19877541065216064,
				-0.29813918471336365,
				0.020872466266155243,
				-1.5506651401519775,
				-2.9063642024993896,
				0.8204742074012756,
				0.6303685307502747
			],
			[
				1.2515045404434204,
				0.17222541570663452,
				0.15238212049007416,
				1.1462682485580444,
				1.3463771343231201,
				0.9038282036781311,
				1.8061200380325317,
				1.3273853063583374
			]
		],
		"weight_1": [
			-0.0031570440623909235,
			0.3981859087944031,
			-0.08624717593193054,
			0.0551450215280056,
			0.46276745200157166,
			0.2947304844856262,
			0.04818360507488251,
			0.06560902297496796
		]
	},
	"layer_2": {
		"weight_0": [
			[
				0.8257570266723633,
				0.6875256299972534,
				0.907518744468689,
				0.7301180958747864
			],
			[
				0.6286791563034058,
				-1.14299476146698,
				-0.029530322179198265,
				0.17825599014759064
			],
			[
				0.7500714659690857,
				-0.4324997067451477,
				-0.01245521754026413,
				-0.5613142848014832
			],
			[
				0.9399507641792297,
				-0.07211200892925262,
				1.4410054683685303,
				0.4526500403881073
			],
			[
				-2.3087096214294434,
				2.658930540084839,
				-2.096778631210327,
				-2.7466464042663574
			],
			[
				-3.2489638328552246,
				3.263451337814331,
				-3.0615739822387695,
				-3.2823543548583984
			],
			[
				0.48554110527038574,
				0.12696559727191925,
				0.7994694709777832,
				1.4042322635650635
			],
			[
				1.329501986503601,
				-0.3977961540222168,
				1.2957395315170288,
				1.033735752105713
			]
		],
		"weight_1": [
			0.10098817944526672,
			0.6363493800163269,
			0.09335023164749146,
			0.09303247928619385
		]
	},
	"layer_3": {
		"weight_0": [
			[
				1.399749994277954
			],
			[
				-2.6240594387054443
			],
			[
				2.217895030975342
			],
			[
				2.033684015274048
			]
		],
		"weight_1": [
			0.10345809161663055
		]
	}
}