{
	"layer_0": {
		"weight_0": [
			[
				0.4684363305568695,
				0.6671304702758789,
				0.03636255860328674,
				0.025066744536161423,
				1.3763458728790283,
				1.313124418258667,
				0.9953457117080688,
				1.3480437994003296,
				-0.13343283534049988,
				-0.4266669750213623,
				1.2018678188323975,
				1.4399973154067993,
				1.1862452030181885,
				1.1556291580200195,
				0.0016684195725247264,
				1.4618232250213623
			],
			[
				-0.8366938233375549,
				-0.5319376587867737,
				-0.23090961575508118,
				-0.14843444526195526,
				-0.8961703181266785,
				-0.4320409595966339,
				0.9598199725151062,
				-1.468260407447815,
				-0.5496364235877991,
				-0.2813143730163574,
				-0.47876548767089844,
				-1.1620581150054932,
				-0.3929564356803894,
				-0.7138635516166687,
				0.009339421056210995,
				-0.4074665904045105
			]
		],
		"weight_1": [
			0.7873566746711731,
			0.8776979446411133,
			-0.008527036756277084,
			-0.006250337231904268,
			0.8533728122711182,
			0.8667411804199219,
			0.638607919216156,
			0.6562371253967285,
			0.0,
			0.0,
			0.8918771147727966,
			0.853969931602478,
			0.8823067545890808,
			0.8560453653335571,
			-0.011354696936905384,
			0.878353476524353
		]
	},
	"layer_1": {
		"weight_0": [
			[
				0.037197694182395935,
				1.2888247966766357,
				-0.39944279193878174,
				-0.32664725184440613,
				-0.4903146028518677,
				0.9027940630912781,
				0.5892455577850342,
				0.0031499224714934826
			],
			[
				0.3393103778362274,
				0.7122231125831604,
				-0.058782219886779785,
				0.2741212546825409,
				-0.31416916847229004,
				0.16458046436309814,
				0.853819727897644,
				-0.06749802082777023
			],
			[
				0.03689942508935928,
				-0.08631786704063416,
				-0.2853018641471863,
				0.22936832904815674,
				0.2428300380706787,
				0.1531917005777359,
				-0.17249661684036255,
				0.22794902324676514
			],
			[
				0.43669477105140686,
				0.3529236316680908,
				-0.05506026744842529,
				-0.3665808439254761,
				-0.14068055152893066,
				-0.3877003788948059,
				-0.475749671459198,
				-0.14249002933502197
			],
			[
				-0.31242769956588745,
				1.267495036125183,
				-0.27269959449768066,
				-0.33119577169418335,
				-0.3245779275894165,
				0.7502961754798889,
				1.709429144859314,
				0.22273772954940796
			],
			[
				-0.26799577474594116,
				0.42950302362442017,
				0.1328934282064438,
				0.15674395859241486,
				-0.40437066555023193,
				0.8664467334747314,
				0.9988164305686951,
				-0.14570245146751404
			],
			[
				1.0094014406204224,
				-0.28816771507263184,
				-0.15595006942749023,
				-0.48418867588043213,
				-0.34991133213043213,
				-0.3531123399734497,
				0.08631057292222977,
				0.6197500824928284
			],
			[
				-0.8874431848526001,
				1.4491722583770752,
				0.46880006790161133,
				0.4057111442089081,
				-0.21347177028656006,
				2.021287202835083,
				1.7251465320587158,
				-0.5073381662368774
			],
			[
				0.3311421871185303,
				0.40417158603668213,
				0.4363492727279663,
				-0.1296534538269043,
				0.20236647129058838,
				-0.40884482860565186,
				0.15291881561279297,
				-0.45641636848449707
			],
			[
				-0.3771646022796631,
				0.49351823329925537,
				0.24782812595367432,
				0.09995079040527344,
				-0.1556386947631836,
				-0.4484715461730957,
				0.25560593605041504,
				-0.06623005867004395
			],
			[
				0.5394461154937744,
				0.81463223695755,
				0.35664689540863037,
				0.25406017899513245,
				-0.2261887788772583,
				0.791976809501648,
				0.6071606874465942,
				0.48760733008384705
			],
			[
				-0.8838968276977539,
				1.6369435787200928,
				-0.23366059362888336,
				-0.19262360036373138,
				0.34277212619781494,
				1.600983738899231,
				1.606979250907898,
				-0.14276066422462463
			],
			[
				0.46449247002601624,
				0.4321918785572052,
				-0.07802917063236237,
				0.12735556066036224,
				0.1505495309829712,
				0.24157868325710297,
				0.3344521224498749,
				0.1942676156759262
			],
			[
				-0.5356959104537964,
				1.222859501838684,
				-0.27765440940856934,
				-0.10874121636152267,
				0.18578720092773438,
				1.2393014430999756,
				0.8721415996551514,
				-0.3286522328853607
			],
			[
				-0.35261180996894836,
				-0.2864021062850952,
				-0.03037572279572487,
				0.1382766216993332,
				-0.27959227561950684,
				0.46393415331840515,
				-0.080736443400383,
				-0.11664581298828125
			],
			[
				0.703434944152832,
				0.4358038008213043,
				-0.14716161787509918,
				-0.237248495221138,
				-0.36256909370422363,
				0.3249204158782959,
				0.6783017516136169,
				-0.2872898280620575
			]
		],
		"weight_1": [
			-0.13797715306282043,
			0.862518310546875,
			-0.0031622773967683315,
			-0.03299356997013092,
			0.0,
			0.8425524234771729,
			0.8935683965682983,
			0.004998461809009314
		]
	},
	"layer_2": {
		"weight_0": [
			[
				-1.8851568698883057,
				0.9579389095306396,
				0.02964305877685547,
				-0.2941150367259979
			],
			[
				1.4343183040618896,
				-0.11885632574558258,
				-0.5925202965736389,
				-0.1286669373512268
			],
			[
				-0.35414421558380127,
				0.27036553621292114,
				0.04720449447631836,
				-0.29994967579841614
			],
			[
				-0.6220844388008118,
				0.6317561268806458,
				0.33696943521499634,
				0.19059616327285767
			],
			[
				0.5591686367988586,
				0.28223299980163574,
				-0.6471993923187256,
				-0.35726770758628845
			],
			[
				1.1491549015045166,
				-0.3599972724914551,
				-0.518852949142456,
				-0.050657451152801514
			],
			[
				1.5888046026229858,
				0.4178265929222107,
				-0.27058327198028564,
				0.0076105594635009766
			],
			[
				-0.9760782718658447,
				-0.043949294835329056,
				0.5835117697715759,
				0.13506072759628296
			]
		],
		"weight_1": [
			0.8597192764282227,
			0.013998585753142834,
			0.0,
			0.0
		]
	},
	"layer_3": {
		"weight_0": [
			[
				1.525451421737671
			],
			[
				-1.0845236778259277
			],
			[
				-0.39246582984924316
			],
			[
				0.6258082389831543
			]
		],
		"weight_1": [
			0.8509620428085327
		]
	}
}