{
	"layer_0": {
		"weight_0": [
			[
				0.6009994149208069,
				0.7915038466453552,
				1.1169438362121582,
				-0.34230536222457886,
				0.7492105960845947,
				0.06860554963350296,
				0.31588760018348694,
				-0.16042539477348328,
				0.6148850321769714,
				0.7033429145812988,
				1.0281411409378052,
				0.18883801996707916,
				-0.5024964809417725,
				-0.28031283617019653,
				0.30749592185020447,
				0.734958827495575
			],
			[
				0.4991559088230133,
				0.17027339339256287,
				-0.03424564376473427,
				-0.25109076499938965,
				0.17272387444972992,
				-0.543931245803833,
				0.7653605937957764,
				-0.433833509683609,
				0.20415574312210083,
				0.7574625611305237,
				0.983654260635376,
				0.7975848317146301,
				-0.20599296689033508,
				-0.3795378804206848,
				0.49106502532958984,
				1.0658800601959229
			]
		],
		"weight_1": [
			0.581160843372345,
			0.32742589712142944,
			0.5710124373435974,
			0.0,
			0.5798914432525635,
			-0.006313375197350979,
			0.279717355966568,
			0.0,
			0.564789891242981,
			0.5674978494644165,
			0.5707718133926392,
			0.5862568020820618,
			0.0,
			0.0,
			0.1303437203168869,
			0.5738953351974487
		]
	},
	"layer_1": {},
	"layer_2": {
		"weight_0": [
			[
				0.33734431862831116,
				0.07478773593902588,
				-0.008109639398753643,
				0.7846937775611877,
				-0.3923490047454834,
				-0.07348529249429703,
				0.2716865539550781,
				0.3611757457256317
			],
			[
				-0.3491668105125427,
				0.11683964729309082,
				-0.14021535217761993,
				0.43124696612358093,
				0.04755449295043945,
				-0.15010666847229004,
				0.293809175491333,
				0.44832301139831543
			],
			[
				-0.018545735627412796,
				-0.4933943748474121,
				-0.5269620418548584,
				1.0625762939453125,
				0.07340860366821289,
				-0.3600086271762848,
				-0.36564183235168457,
				0.12735874950885773
			],
			[
				0.4305921792984009,
				-0.04357790946960449,
				-0.2754366397857666,
				0.156105637550354,
				-0.48992812633514404,
				0.35180139541625977,
				-0.12240779399871826,
				-0.04752087593078613
			],
			[
				-0.27074095606803894,
				-0.1847400665283203,
				0.294646292924881,
				0.7079224586486816,
				0.29000329971313477,
				-0.09841209650039673,
				-0.3358724117279053,
				0.33284392952919006
			],
			[
				-0.37909936904907227,
				0.054413676261901855,
				0.335302472114563,
				-0.18737918138504028,
				0.4331883192062378,
				-0.49445080757141113,
				-0.2441185712814331,
				-0.23717832565307617
			],
			[
				0.016114860773086548,
				0.05005359649658203,
				-0.3789926767349243,
				0.4033248722553253,
				-0.04602658748626709,
				-0.23396942019462585,
				-0.28904783725738525,
				0.6558517813682556
			],
			[
				-0.220788836479187,
				-0.17496025562286377,
				0.45601987838745117,
				0.28746962547302246,
				0.1333369016647339,
				0.25507068634033203,
				-0.04333651065826416,
				0.40428125858306885
			],
			[
				0.29801490902900696,
				-0.23641693592071533,
				0.2720559537410736,
				0.5989148020744324,
				0.4866293668746948,
				0.2428184151649475,
				0.297510027885437,
				0.6012867093086243
			],
			[
				-0.5319582223892212,
				0.4135810136795044,
				-0.23347321152687073,
				0.8986656069755554,
				-0.22998344898223877,
				0.3420749306678772,
				0.2714577913284302,
				-0.2645849287509918
			],
			[
				0.3201647698879242,
				-0.04466712474822998,
				0.20368732511997223,
				1.0156731605529785,
				-0.29341304302215576,
				-0.4022703468799591,
				-0.1485118865966797,
				-0.14447350800037384
			],
			[
				-0.40805143117904663,
				-0.3718677759170532,
				0.29798606038093567,
				0.7157880067825317,
				-0.4915822744369507,
				0.062479306012392044,
				-0.07116913795471191,
				0.28064146637916565
			],
			[
				0.46337568759918213,
				0.007848381996154785,
				-0.4966163635253906,
				-0.25050199031829834,
				0.42293083667755127,
				-0.0423731803894043,
				0.36307644844055176,
				0.020853042602539062
			],
			[
				0.21623075008392334,
				0.2759721279144287,
				0.28626060485839844,
				0.11354386806488037,
				-0.014113068580627441,
				0.11009752750396729,
				-0.18776452541351318,
				-0.163618803024292
			],
			[
				0.06753459572792053,
				-0.12561559677124023,
				-0.14208967983722687,
				0.3199526369571686,
				0.17671966552734375,
				-0.5414490103721619,
				-0.03335249423980713,
				0.4789579212665558
			],
			[
				0.02036430686712265,
				-0.19707930088043213,
				-0.10728227347135544,
				0.7854085564613342,
				-0.13171255588531494,
				0.2999972701072693,
				-0.4611971378326416,
				0.024395540356636047
			]
		],
		"weight_1": [
			-0.05493967607617378,
			0.0,
			-0.1109190583229065,
			0.5621768236160278,
			0.0,
			-0.13190437853336334,
			0.0,
			0.20266544818878174
		]
	},
	"layer_3": {},
	"layer_4": {
		"weight_0": [
			[
				-0.3967721164226532,
				-0.37701213359832764,
				0.06337546557188034,
				-0.6741536855697632
			],
			[
				0.26323217153549194,
				-0.5174468159675598,
				-0.5598581433296204,
				-0.5183212757110596
			],
			[
				-0.728434145450592,
				-0.255450963973999,
				-0.09499125927686691,
				-0.2434236705303192
			],
			[
				0.04890644922852516,
				1.047336220741272,
				1.1436095237731934,
				-0.12492191791534424
			],
			[
				0.23405694961547852,
				-0.5034956932067871,
				0.31762534379959106,
				0.5837119221687317
			],
			[
				-0.3124864995479584,
				-0.3323665261268616,
				-0.28859174251556396,
				-0.2143683135509491
			],
			[
				-0.09003406763076782,
				0.14636081457138062,
				0.4768093228340149,
				0.04510200023651123
			],
			[
				-0.050653908401727676,
				0.6555755138397217,
				0.11915065348148346,
				0.08627104759216309
			]
		],
		"weight_1": [
			-0.2945418655872345,
			0.5156784653663635,
			0.5592338442802429,
			0.0
		]
	},
	"layer_5": {},
	"layer_6": {
		"weight_0": [
			[
				-0.036996640264987946
			],
			[
				3.1874372959136963
			],
			[
				3.138658046722412
			],
			[
				0.1632322072982788
			]
		],
		"weight_1": [
			2.338636636734009
		]
	}
}