{
	"layer_0": {
		"weight_0": [
			[
				-0.3885617256164551,
				0.20809517800807953,
				0.4205213487148285,
				-0.22011321783065796,
				0.8630117774009705,
				0.8240767121315002,
				-0.47958678007125854,
				-0.336592435836792,
				0.7582876086235046,
				-0.5580122470855713,
				1.0899900197982788,
				0.06669439375400543,
				-0.2675064206123352,
				0.7139014601707458,
				-0.45705220103263855,
				-0.5105809569358826
			],
			[
				-0.2713353633880615,
				-0.12624506652355194,
				-0.07914083451032639,
				0.03922072425484657,
				-1.210789442062378,
				-0.6737270951271057,
				-0.4792911112308502,
				-0.06164616346359253,
				-0.2212279587984085,
				-0.3990379571914673,
				-0.810367226600647,
				-0.10310513526201248,
				1.2078135013580322,
				-0.22301480174064636,
				-0.44900524616241455,
				-0.3246624767780304
			]
		],
		"weight_1": [
			0.0,
			0.6801039576530457,
			0.7374193072319031,
			-0.041140202432870865,
			0.3644852638244629,
			0.7720580697059631,
			0.0,
			0.0,
			0.7304156422615051,
			0.0,
			0.7438393235206604,
			-0.05832786113023758,
			0.2024013102054596,
			0.7520545125007629,
			0.0,
			0.0
		]
	},
	"layer_1": {
		"weight_0": [
			[
				0.07370245456695557,
				0.20616662502288818,
				0.31255853176116943,
				-0.47952353954315186,
				0.08072972297668457,
				-0.07639622688293457,
				0.14050424098968506,
				-0.43608081340789795
			],
			[
				0.7830559015274048,
				0.08720836788415909,
				0.4623504877090454,
				-0.06875070184469223,
				-0.33792275190353394,
				0.29405421018600464,
				0.3918597102165222,
				0.6703322529792786
			],
			[
				0.3463633060455322,
				-0.014812612906098366,
				0.4125027358531952,
				0.687148928642273,
				0.10278435796499252,
				0.5386502742767334,
				-0.1618833988904953,
				0.2171681821346283
			],
			[
				0.04004249721765518,
				0.31400948762893677,
				-0.23810334503650665,
				-0.4114420711994171,
				0.3384972810745239,
				-0.061588823795318604,
				0.16095305979251862,
				-0.06271907687187195
			],
			[
				1.0163110494613647,
				0.34487998485565186,
				0.6148136258125305,
				0.8135525584220886,
				-0.07303886115550995,
				-0.10734733194112778,
				1.0477734804153442,
				1.3379086256027222
			],
			[
				0.41544944047927856,
				0.17920099198818207,
				1.325129508972168,
				1.244252324104309,
				0.026628850027918816,
				-0.6301421523094177,
				1.340877890586853,
				0.7096651792526245
			],
			[
				-0.17340588569641113,
				-0.08839309215545654,
				0.05459952354431152,
				-0.40498507022857666,
				0.3651902675628662,
				-0.34232378005981445,
				-0.275532603263855,
				-0.3378206491470337
			],
			[
				0.3956984281539917,
				0.053826093673706055,
				0.2999594211578369,
				-0.47874629497528076,
				0.0028235912322998047,
				0.11576855182647705,
				-0.2976306676864624,
				-0.02975642681121826
			],
			[
				0.5820034146308899,
				0.06478191912174225,
				0.3080936372280121,
				0.4465409219264984,
				-0.38404157757759094,
				0.4355487823486328,
				0.8005485534667969,
				0.8712948560714722
			],
			[
				-0.15974795818328857,
				-0.07948410511016846,
				0.42009472846984863,
				0.45889127254486084,
				0.02009451389312744,
				0.027591347694396973,
				-0.12927758693695068,
				0.48629844188690186
			],
			[
				0.9798800349235535,
				-0.38329070806503296,
				1.0729591846466064,
				1.351867437362671,
				-0.40543657541275024,
				-0.11550361663103104,
				0.9415315389633179,
				1.3319333791732788
			],
			[
				0.07273493707180023,
				0.3979685306549072,
				-0.3051169216632843,
				-0.22649350762367249,
				-0.3078535795211792,
				-0.4679577350616455,
				0.33472585678100586,
				0.0010605885181576014
			],
			[
				-0.5805810689926147,
				-0.047608572989702225,
				-1.3438011407852173,
				-1.514931559562683,
				0.3899911046028137,
				1.1527701616287231,
				-1.2950150966644287,
				-0.6589510440826416
			],
			[
				0.0034699169918894768,
				-0.15254861116409302,
				0.545524001121521,
				0.3714336156845093,
				-0.5293566584587097,
				-0.1858133226633072,
				0.7141711711883545,
				0.38127401471138
			],
			[
				-0.34015655517578125,
				-0.01899731159210205,
				-0.3927861452102661,
				-0.22541379928588867,
				-0.1239469051361084,
				-0.4299497604370117,
				0.27472078800201416,
				0.4377490282058716
			],
			[
				0.08839035034179688,
				-0.29482483863830566,
				-0.1840428113937378,
				0.37201952934265137,
				0.08825302124023438,
				-0.36646556854248047,
				-0.17850208282470703,
				-0.4056413173675537
			]
		],
		"weight_1": [
			0.7598322629928589,
			-0.11827952414751053,
			0.6982275247573853,
			0.7321818470954895,
			-0.04956834390759468,
			-0.1318608671426773,
			0.735605776309967,
			0.7592965364456177
		]
	},
	"layer_2": {
		"weight_0": [
			[
				-0.46782106161117554,
				0.9064701795578003,
				0.5362945199012756,
				0.7049544453620911
			],
			[
				0.5269007682800293,
				-0.37397176027297974,
				-0.029094800353050232,
				0.6505905389785767
			],
			[
				0.010628364980220795,
				0.824726939201355,
				-0.6488673686981201,
				1.453317642211914
			],
			[
				0.47978171706199646,
				1.4260543584823608,
				0.5995644927024841,
				1.6811007261276245
			],
			[
				-0.04340926930308342,
				-0.36599186062812805,
				0.16277098655700684,
				-0.40565091371536255
			],
			[
				0.6742411255836487,
				-0.9463183283805847,
				-0.5750900506973267,
				-0.41224539279937744
			],
			[
				-0.6354198455810547,
				1.0630836486816406,
				-0.20212553441524506,
				1.146896243095398
			],
			[
				0.5218102335929871,
				0.9486125707626343,
				-0.3957454562187195,
				1.4716156721115112
			]
		],
		"weight_1": [
			-0.15751172602176666,
			0.7765445113182068,
			-0.06519933044910431,
			0.7976940274238586
		]
	},
	"layer_3": {
		"weight_0": [
			[
				-1.0537124872207642
			],
			[
				1.9334560632705688
			],
			[
				-0.7407717704772949
			],
			[
				0.9266901612281799
			]
		],
		"weight_1": [
			0.772810161113739
		]
	}
}