{
	"layer_0": {
		"weight_0": [
			[
				0.08161574602127075,
				-0.15514320135116577,
				0.6526182293891907,
				0.6226645112037659,
				1.0608034133911133,
				0.749342143535614,
				0.7586036920547485,
				0.09011369198560715,
				1.1615121364593506,
				-0.5395181179046631,
				0.8413850665092468,
				0.08575548976659775,
				0.6258856654167175,
				0.6333755850791931,
				0.3955192267894745,
				-0.039463531225919724
			],
			[
				-0.01033867709338665,
				1.4506738185882568,
				-0.11051932722330093,
				-0.8278847932815552,
				-0.3684476912021637,
				-0.21075914800167084,
				-0.11589924991130829,
				-0.1962714046239853,
				-0.25598928332328796,
				-0.5547578930854797,
				0.3158275783061981,
				-0.3754870593547821,
				-0.11919508129358292,
				-1.7003302574157715,
				-1.71826171875,
				1.45294189453125
			]
		],
		"weight_1": [
			-0.08081930130720139,
			0.16707758605480194,
			0.6291413307189941,
			0.5537469983100891,
			0.576953113079071,
			0.56068354845047,
			0.5426185131072998,
			0.5589255094528198,
			0.5880609154701233,
			0.0,
			0.6804990768432617,
			-0.03839784488081932,
			0.5364205837249756,
			0.4432537257671356,
			0.2799105942249298,
			0.09194440394639969
		]
	},
	"layer_1": {
		"weight_0": [
			[
				0.0512312650680542,
				-0.36997905373573303,
				-0.002098634373396635,
				0.5402478575706482,
				-0.4803745746612549,
				-0.3130028247833252,
				0.43899574875831604,
				-0.3697901964187622
			],
			[
				0.03921222686767578,
				-2.174316883087158,
				-1.0527523756027222,
				-1.1541498899459839,
				0.8386914134025574,
				0.4147355556488037,
				-0.7285955548286438,
				-0.8934317827224731
			],
			[
				0.24933123588562012,
				-0.014845836907625198,
				0.949946939945221,
				0.8101320862770081,
				-0.15798313915729523,
				-0.4942284822463989,
				0.974252462387085,
				0.7374038100242615
			],
			[
				-0.1556689739227295,
				1.0163520574569702,
				0.4175969362258911,
				0.9444324970245361,
				-0.7465349435806274,
				0.38564491271972656,
				1.0250678062438965,
				1.0873169898986816
			],
			[
				0.27516305446624756,
				0.20509816706180573,
				0.7193750143051147,
				0.24591641128063202,
				0.1474665403366089,
				0.3432338237762451,
				0.9188693761825562,
				0.8669060468673706
			],
			[
				0.008331775665283203,
				0.07335622608661652,
				0.32436564564704895,
				-0.018240483477711678,
				-0.29733219742774963,
				-0.1534942388534546,
				0.10814245045185089,
				0.7006285190582275
			],
			[
				-0.4169696569442749,
				0.32606950402259827,
				0.5490847826004028,
				0.6870461106300354,
				0.17587047815322876,
				-0.44762122631073,
				0.33754488825798035,
				0.40266457200050354
			],
			[
				0.03674745559692383,
				0.17885607481002808,
				-0.26338282227516174,
				0.22633223235607147,
				-0.18533089756965637,
				-0.44775474071502686,
				0.6247838139533997,
				0.13372386991977692
			],
			[
				-0.40588855743408203,
				0.31508389115333557,
				0.8995600342750549,
				0.9146913886070251,
				-0.2051384150981903,
				-0.46053409576416016,
				0.9780580401420593,
				0.9552906155586243
			],
			[
				0.3021090030670166,
				0.3814598321914673,
				-0.4796510934829712,
				-0.11391472816467285,
				0.0024834871292114258,
				0.3780961036682129,
				-0.21348989009857178,
				0.20043134689331055
			],
			[
				-0.19774913787841797,
				-0.3528885841369629,
				0.09074214100837708,
				0.754147469997406,
				-0.25361889600753784,
				-0.3934987783432007,
				0.7129025459289551,
				0.48972102999687195
			],
			[
				-0.46187829971313477,
				-0.3714040219783783,
				0.20612142980098724,
				-0.2671510577201843,
				0.31820666790008545,
				0.3617802858352661,
				-0.2946155071258545,
				-0.07077862322330475
			],
			[
				-0.3981940746307373,
				0.31461966037750244,
				-0.03915924206376076,
				0.570936918258667,
				0.017561467364430428,
				-0.2794722318649292,
				0.688283383846283,
				0.52369624376297
			],
			[
				-0.0643686056137085,
				1.4119877815246582,
				1.1947181224822998,
				0.7883546948432922,
				-0.8547630310058594,
				0.19088733196258545,
				0.8313794732093811,
				1.5342669486999512
			],
			[
				-0.26717495918273926,
				1.214632272720337,
				1.485726237297058,
				1.7794370651245117,
				-0.1287141740322113,
				-0.4041033983230591,
				1.4960970878601074,
				1.631221055984497
			],
			[
				-0.39373815059661865,
				-2.049558162689209,
				-0.32043254375457764,
				-1.254716157913208,
				1.135776162147522,
				0.38785576820373535,
				-0.311934232711792,
				-1.1665611267089844
			]
		],
		"weight_1": [
			0.0,
			0.41216841340065,
			0.6563763618469238,
			0.6401765942573547,
			-0.20335052907466888,
			-0.0031622739043086767,
			0.6980404853820801,
			0.55531245470047
		]
	},
	"layer_2": {
		"weight_0": [
			[
				0.07667958736419678,
				0.2941516041755676,
				-0.39099764823913574,
				0.2182416319847107
			],
			[
				1.8621636629104614,
				-0.8908963203430176,
				-0.379957377910614,
				1.7756495475769043
			],
			[
				1.3357614278793335,
				0.2370353490114212,
				-0.5732638835906982,
				0.790046751499176
			],
			[
				1.4689977169036865,
				0.2519380748271942,
				-0.5194138884544373,
				0.29403769969940186
			],
			[
				1.214506983757019,
				-0.6351059675216675,
				-0.6772862076759338,
				0.8427954912185669
			],
			[
				0.2188892960548401,
				-0.0920458436012268,
				-0.5116630792617798,
				0.4145764410495758
			],
			[
				0.951949417591095,
				0.499706894159317,
				-0.10279786586761475,
				0.6552513241767883
			],
			[
				1.2659664154052734,
				-0.5478639602661133,
				-0.18868905305862427,
				1.4302349090576172
			]
		],
		"weight_1": [
			0.581768274307251,
			-0.05726056173443794,
			0.0,
			0.5816942453384399
		]
	},
	"layer_3": {
		"weight_0": [
			[
				1.6971993446350098
			],
			[
				-1.9077824354171753
			],
			[
				-0.8828130960464478
			],
			[
				1.7366087436676025
			]
		],
		"weight_1": [
			0.5780818462371826
		]
	}
}