{
	"layer_0": {
		"weight_0": [
			[
				-0.3716663122177124,
				1.1832550764083862,
				0.40717998147010803,
				0.31300967931747437,
				-0.37952741980552673,
				-0.3996027112007141,
				5.666083335876465,
				0.31227028369903564,
				2.2212629318237305,
				0.006202368065714836,
				0.6490320563316345,
				0.27259188890457153,
				-0.4887186884880066,
				-0.5280206799507141,
				-0.13883426785469055,
				-0.07980120927095413
			],
			[
				-0.45398521423339844,
				-10.601553916931152,
				-3.7771263122558594,
				-2.4208390712738037,
				-0.0965210497379303,
				-0.5259683132171631,
				0.15878885984420776,
				-1.6574490070343018,
				-0.9636204242706299,
				-0.10342863202095032,
				-6.2685770988464355,
				-1.8738411664962769,
				-0.27190250158309937,
				-0.048529863357543945,
				0.020643191412091255,
				0.018652593716979027
			]
		],
		"weight_1": [
			0.0,
			0.1614934653043747,
			0.46802419424057007,
			0.5510426759719849,
			0.0,
			0.0,
			0.0026784103829413652,
			1.076246976852417,
			0.7154154777526855,
			-0.0031622694805264473,
			0.35046008229255676,
			0.7464597225189209,
			0.0,
			0.0,
			-0.026284661144018173,
			-0.018803942948579788
		]
	},
	"layer_1": {
		"weight_0": [
			[
				0.32311737537384033,
				0.3824958801269531,
				0.23024427890777588,
				-0.4531090259552002,
				-0.3730062246322632,
				-0.008905291557312012,
				-0.2628437280654907,
				-0.29016876220703125
			],
			[
				5.317265510559082,
				5.091616153717041,
				0.3753703236579895,
				2.3834033012390137,
				5.064970016479492,
				1.154116153717041,
				-3.2363226413726807,
				4.282383918762207
			],
			[
				1.687332272529602,
				2.481184244155884,
				0.7515623569488525,
				1.6509121656417847,
				2.9827256202697754,
				-1.080586314201355,
				0.2540290057659149,
				1.9178035259246826
			],
			[
				1.4002257585525513,
				1.3726123571395874,
				-0.12039538472890854,
				1.7898050546646118,
				1.7580368518829346,
				-0.4100744128227234,
				0.9268925189971924,
				1.6952707767486572
			],
			[
				0.24202239513397217,
				0.19876492023468018,
				0.3630712032318115,
				-0.18586742877960205,
				0.1554410457611084,
				0.4077645540237427,
				0.32938694953918457,
				-0.00744175910949707
			],
			[
				0.16903924942016602,
				-0.3738245964050293,
				0.18717432022094727,
				0.29691994190216064,
				0.20136630535125732,
				0.44905006885528564,
				0.43605875968933105,
				-0.001882791519165039
			],
			[
				-0.4270195960998535,
				-0.004789478145539761,
				-6.735930919647217,
				-0.6389323472976685,
				0.5800746083259583,
				1.9292985200881958,
				-1.4376460313796997,
				1.694934368133545
			],
			[
				0.48160678148269653,
				0.20741073787212372,
				0.4419046640396118,
				1.4662765264511108,
				-0.33197954297065735,
				0.36406463384628296,
				0.845600426197052,
				0.4630811810493469
			],
			[
				0.9492990970611572,
				0.4038267433643341,
				-0.6203166246414185,
				1.2136496305465698,
				0.012953494675457478,
				0.5098884105682373,
				-0.31036391854286194,
				1.625246286392212
			],
			[
				-0.3236014246940613,
				0.21334946155548096,
				0.4701821804046631,
				-0.4273129403591156,
				-0.20638692378997803,
				-0.10779917240142822,
				-0.16677236557006836,
				0.10133494436740875
			],
			[
				3.507021903991699,
				2.9184811115264893,
				1.6280021667480469,
				0.30640092492103577,
				4.47156286239624,
				-0.5824285745620728,
				-0.6450403928756714,
				2.5553627014160156
			],
			[
				1.3075493574142456,
				1.2545040845870972,
				0.027544373646378517,
				1.324313998222351,
				0.4783881902694702,
				0.047457367181777954,
				0.4639449417591095,
				0.6459541916847229
			],
			[
				-0.011692047119140625,
				-0.4730217456817627,
				-0.34807538986206055,
				-0.13070440292358398,
				0.2786470651626587,
				0.09056615829467773,
				0.4682224988937378,
				0.15791618824005127
			],
			[
				0.46023428440093994,
				-0.09902608394622803,
				-0.19125068187713623,
				0.1807093620300293,
				-0.22160065174102783,
				0.26346874237060547,
				-0.4003249406814575,
				0.11413431167602539
			],
			[
				0.171957865357399,
				-0.35670360922813416,
				0.3619163930416107,
				-0.4325157701969147,
				0.08720535784959793,
				0.4112076759338379,
				0.22016656398773193,
				0.15092648565769196
			],
			[
				0.10429195314645767,
				-0.346679151058197,
				-0.05347112938761711,
				-0.2309074103832245,
				-0.037164509296417236,
				0.12733261287212372,
				-0.02971780300140381,
				0.21261580288410187
			]
		],
		"weight_1": [
			0.6051581501960754,
			0.6584380269050598,
			0.43270143866539,
			1.3184741735458374,
			0.1267492026090622,
			0.00479161087423563,
			0.6770249009132385,
			0.5466775894165039
		]
	},
	"layer_2": {
		"weight_0": [
			[
				0.49673184752464294,
				2.653297185897827,
				0.446852445602417,
				0.2028607279062271
			],
			[
				-0.03401343524456024,
				2.0412232875823975,
				0.19627706706523895,
				0.19022218883037567
			],
			[
				3.374770402908325,
				-3.057112455368042,
				-0.7792443037033081,
				3.557448625564575
			],
			[
				0.8829351663589478,
				2.3744590282440186,
				-0.6921719908714294,
				0.5546427965164185
			],
			[
				-0.7316930294036865,
				2.039072036743164,
				0.9433354735374451,
				0.1875278502702713
			],
			[
				-0.2097921371459961,
				-0.12773486971855164,
				0.5001904368400574,
				-3.96893048286438
			],
			[
				1.6689509153366089,
				-2.3664729595184326,
				-1.09916090965271,
				2.7515475749969482
			],
			[
				-0.4053688049316406,
				1.6616816520690918,
				-0.3644755482673645,
				-0.720445990562439
			]
		],
		"weight_1": [
			1.2502936124801636,
			0.7235684394836426,
			-1.8597873449325562,
			0.43536853790283203
		]
	},
	"layer_3": {
		"weight_0": [
			[
				-3.535437822341919
			],
			[
				2.157017230987549
			],
			[
				-4.088839054107666
			],
			[
				-3.5322375297546387
			]
		],
		"weight_1": [
			0.7145206332206726
		]
	}
}