{
	"layer_0": {
		"weight_0": [
			[
				1.0429502725601196,
				0.8383089303970337,
				0.47158026695251465,
				1.0082541704177856,
				-0.4224156141281128,
				-0.3336275517940521,
				0.9827783107757568,
				-0.2835959494113922,
				1.013767123222351,
				0.6302368640899658,
				-0.2869109809398651,
				1.3375684022903442,
				0.8979548215866089,
				0.22896189987659454,
				0.16568845510482788,
				0.6301416158676147
			],
			[
				-0.2658008337020874,
				-0.6656575202941895,
				0.9348233342170715,
				-0.46161967515945435,
				-0.2776828706264496,
				-0.2371465563774109,
				-0.549404501914978,
				1.493381142616272,
				-0.7878996133804321,
				-0.4749913811683655,
				-0.39568132162094116,
				-0.6646817326545715,
				-0.6619948744773865,
				-0.3561353385448456,
				-0.6446624398231506,
				-0.29563212394714355
			]
		],
		"weight_1": [
			0.8031510710716248,
			0.7911182045936584,
			0.2706282138824463,
			0.8020000457763672,
			0.0,
			0.0,
			0.6918888092041016,
			0.21730461716651917,
			0.7562178373336792,
			0.8190063834190369,
			0.0,
			0.7978599667549133,
			0.7455146312713623,
			0.8156399726867676,
			0.6489603519439697,
			0.8243190050125122
		]
	},
	"layer_1": {
		"weight_0": [
			[
				0.8080093860626221,
				0.060413673520088196,
				0.6454898715019226,
				0.24491798877716064,
				-0.0962064266204834,
				-0.2580855190753937,
				0.17642658948898315,
				0.8417691588401794
			],
			[
				1.1264761686325073,
				-0.7355047464370728,
				1.085289716720581,
				-0.22207045555114746,
				-0.08416616916656494,
				-0.1493811160326004,
				1.0924255847930908,
				1.2808246612548828
			],
			[
				0.1504063606262207,
				0.8862132430076599,
				-0.6799735426902771,
				-0.278173565864563,
				-0.1857830286026001,
				-0.4828421175479889,
				-0.5191698670387268,
				-0.00528976134955883
			],
			[
				0.5389788746833801,
				-0.004091442562639713,
				0.8722864985466003,
				-0.3919789791107178,
				-0.35128140449523926,
				0.2588025629520416,
				1.1150649785995483,
				1.013601303100586
			],
			[
				-0.08741557598114014,
				-0.02954566478729248,
				0.45033323764801025,
				-0.4081155061721802,
				-0.41657114028930664,
				0.41054463386535645,
				-0.19685757160186768,
				0.007100105285644531
			],
			[
				-0.48075389862060547,
				-0.09754359722137451,
				-0.2307872772216797,
				-0.08908796310424805,
				0.19677340984344482,
				0.31868505477905273,
				0.4041250944137573,
				0.3486480712890625
			],
			[
				0.7354645133018494,
				0.11226748675107956,
				0.48966243863105774,
				-0.23783397674560547,
				-0.12071371078491211,
				-0.45405757427215576,
				0.9167812466621399,
				0.7752460241317749
			],
			[
				-1.2899256944656372,
				1.4900951385498047,
				-1.514682650566101,
				-0.06263065338134766,
				-0.2532484531402588,
				-0.10422134399414062,
				-1.5700815916061401,
				-0.7942973971366882
			],
			[
				1.0926382541656494,
				-0.13310788571834564,
				0.9071055054664612,
				-0.07495152950286865,
				0.44027984142303467,
				0.3830723464488983,
				1.5079388618469238,
				0.959343433380127
			],
			[
				0.6315276622772217,
				0.015423031523823738,
				1.0681774616241455,
				-0.3985302448272705,
				0.13166606426239014,
				-0.10923520475625992,
				0.446956604719162,
				1.1751623153686523
			],
			[
				-0.13442766666412354,
				-0.4502124786376953,
				-0.2598142623901367,
				0.046946167945861816,
				0.2921484708786011,
				-0.006433010101318359,
				0.43614661693573,
				-0.44675004482269287
			],
			[
				0.5148217678070068,
				-0.22182275354862213,
				1.3886674642562866,
				-0.31321215629577637,
				-0.1664268970489502,
				0.04920222610235214,
				0.7138921022415161,
				1.2403030395507812
			],
			[
				0.6637522578239441,
				0.11444204300642014,
				0.7966979146003723,
				0.3101620674133301,
				-0.2453022003173828,
				0.12170876562595367,
				0.9391486644744873,
				1.2262074947357178
			],
			[
				0.20960263907909393,
				0.04599529877305031,
				0.3448711633682251,
				-0.2490062713623047,
				0.029039740562438965,
				0.10566900670528412,
				0.7293249368667603,
				0.8108549118041992
			],
			[
				0.6572842597961426,
				0.17841404676437378,
				0.490936815738678,
				-0.36128759384155273,
				-0.24168157577514648,
				0.22694379091262817,
				1.178007960319519,
				0.5597187876701355
			],
			[
				0.554921567440033,
				0.2682007849216461,
				0.9196637868881226,
				-0.13405072689056396,
				0.10479521751403809,
				0.07770142704248428,
				0.19463635981082916,
				0.09206151962280273
			]
		],
		"weight_1": [
			0.8048063516616821,
			-0.13955233991146088,
			0.7882048487663269,
			0.0,
			0.0,
			-0.09035004675388336,
			0.7868453860282898,
			0.7917721271514893
		]
	},
	"layer_2": {
		"weight_0": [
			[
				0.2798870801925659,
				0.9715933203697205,
				-0.4741314649581909,
				0.2970064580440521
			],
			[
				0.15510797500610352,
				-1.5325126647949219,
				-0.5847352147102356,
				0.07180756330490112
			],
			[
				0.12690937519073486,
				1.4612747430801392,
				0.10597675293684006,
				0.44001850485801697
			],
			[
				-0.4922252893447876,
				0.6062083840370178,
				-0.6087973713874817,
				-0.21595168113708496
			],
			[
				0.10526663064956665,
				-0.49680376052856445,
				0.10439658164978027,
				0.06803494691848755
			],
			[
				0.7066709399223328,
				-0.2545868158340454,
				-0.10207763314247131,
				0.2758668065071106
			],
			[
				-0.23825547099113464,
				1.4526724815368652,
				-0.0385209396481514,
				0.1421676129102707
			],
			[
				-0.44595327973365784,
				1.0121163129806519,
				-0.060733579099178314,
				-0.7280638217926025
			]
		],
		"weight_1": [
			0.0,
			0.7799302339553833,
			-0.018501821905374527,
			-0.1685585230588913
		]
	},
	"layer_3": {
		"weight_0": [
			[
				0.9668548107147217
			],
			[
				1.6966602802276611
			],
			[
				-0.9294382333755493
			],
			[
				-0.7641421556472778
			]
		],
		"weight_1": [
			0.8141700029373169
		]
	}
}