{
	"layer_0": {
		"weight_0": 0.0,
		"weight_1": 1.0,
		"weight_2": -1
	},
	"layer_1": {
		"weight_0": [
			0.0,
			0.6855345964431763,
			0.7277467846870422,
			-0.04430229589343071,
			0.5317153334617615,
			0.7745877504348755,
			0.0,
			0.0,
			0.7324011325836182,
			0.0,
			0.7484675049781799,
			-0.05832786113023758,
			0.1993989795446396,
			0.7544131875038147,
			0.0,
			0.0
		],
		"weight_1": [
			[
				-0.3885617256164551,
				0.4389802813529968,
				0.6469326019287109,
				-0.22011321783065796,
				0.8694605231285095,
				1.0540146827697754,
				-0.47958678007125854,
				-0.336592435836792,
				0.9899123907089233,
				-0.5580122470855713,
				1.3113408088684082,
				0.06669439375400543,
				-0.49815624952316284,
				0.9452982544898987,
				-0.45705220103263855,
				-0.5105809569358826
			],
			[
				-0.2713353633880615,
				-0.07948313653469086,
				-0.06778322160243988,
				0.036058634519577026,
				-1.9853827953338623,
				-0.6363856792449951,
				-0.4792911112308502,
				-0.06164616346359253,
				-0.1823738068342209,
				-0.3990379571914673,
				-0.7710913419723511,
				-0.10310513526201248,
				1.1697568893432617,
				-0.1838173121213913,
				-0.44900524616241455,
				-0.3246624767780304
			]
		],
		"weight_2": -1,
		"weight_3": -1.9853827953338623,
		"weight_4": 1.9853827953338623,
		"weight_5": -0.5658519268035889,
		"weight_6": 2.314739227294922
	},
	"layer_2": {
		"weight_0": [
			0.7656973004341125,
			-0.11827952414751053,
			0.7039011120796204,
			0.7123568058013916,
			-0.04956834390759468,
			-0.13898029923439026,
			0.7416565418243408,
			0.7648577094078064
		],
		"weight_1": [
			[
				0.07370245456695557,
				0.20616662502288818,
				0.31255853176116943,
				-0.47952353954315186,
				0.08072972297668457,
				-0.07639622688293457,
				0.14050424098968506,
				-0.43608081340789795
			],
			[
				0.7406415343284607,
				0.08720836788415909,
				0.41970333456993103,
				-0.13488110899925232,
				-0.33792275190353394,
				0.33502987027168274,
				0.34973177313804626,
				0.6275302171707153
			],
			[
				0.30937543511390686,
				-0.014812612906098366,
				0.3752559423446655,
				0.6259186267852783,
				0.10278435796499252,
				0.5741345286369324,
				-0.1985657960176468,
				0.17977730929851532
			],
			[
				0.04004249721765518,
				0.31400948762893677,
				-0.23810334503650665,
				-0.4114420711994171,
				0.3384972810745239,
				-0.061588823795318604,
				0.16095305979251862,
				-0.06271907687187195
			],
			[
				1.7044590711593628,
				0.34487998485565186,
				1.3027409315109253,
				1.5014528036117554,
				-0.07303886115550995,
				-0.7956129312515259,
				1.7354583740234375,
				1.9885954856872559
			],
			[
				0.26086050271987915,
				0.17920099198818207,
				1.170588493347168,
				1.077416181564331,
				0.026628850027918816,
				-0.47660142183303833,
				1.1866018772125244,
				0.5548840165138245
			],
			[
				-0.17340588569641113,
				-0.08839309215545654,
				0.05459952354431152,
				-0.40498507022857666,
				0.3651902675628662,
				-0.34232378005981445,
				-0.275532603263855,
				-0.3378206491470337
			],
			[
				0.3956984281539917,
				0.053826093673706055,
				0.2999594211578369,
				-0.47874629497528076,
				0.0028235912322998047,
				0.11576855182647705,
				-0.2976306676864624,
				-0.02975642681121826
			],
			[
				0.5274559855461121,
				0.06478191912174225,
				0.25331661105155945,
				0.37019097805023193,
				-0.38404157757759094,
				0.48861435055732727,
				0.7463269829750061,
				0.816355288028717
			],
			[
				-0.15974795818328857,
				-0.07948410511016846,
				0.42009472846984863,
				0.45889127254486084,
				0.02009451389312744,
				0.027591347694396973,
				-0.12927758693695068,
				0.48629844188690186
			],
			[
				0.8021271824836731,
				-0.38329070806503296,
				0.8953124284744263,
				1.1679339408874512,
				-0.40543657541275024,
				0.0613953173160553,
				0.7640984654426575,
				1.1540424823760986
			],
			[
				0.07273493707180023,
				0.3979685306549072,
				-0.3051169216632843,
				-0.22649350762367249,
				-0.3078535795211792,
				-0.4679577350616455,
				0.33472585678100586,
				0.0010605885181576014
			],
			[
				-0.4023679196834564,
				-0.047608572989702225,
				-1.1661911010742188,
				-1.3859914541244507,
				0.3899911046028137,
				0.9728130102157593,
				-1.1166868209838867,
				-0.4813075065612793
			],
			[
				-0.051407210528850555,
				-0.15254861116409302,
				0.4904192388057709,
				0.2945334315299988,
				-0.5293566584587097,
				-0.1324148029088974,
				0.6596176028251648,
				0.32600414752960205
			],
			[
				-0.34015655517578125,
				-0.01899731159210205,
				-0.3927861452102661,
				-0.22541379928588867,
				-0.1239469051361084,
				-0.4299497604370117,
				0.27472078800201416,
				0.4377490282058716
			],
			[
				0.08839035034179688,
				-0.29482483863830566,
				-0.1840428113937378,
				0.37201952934265137,
				0.08825302124023438,
				-0.36646556854248047,
				-0.17850208282470703,
				-0.4056413173675537
			]
		],
		"weight_2": -1,
		"weight_3": -1.9885954856872559,
		"weight_4": 1.9885954856872559,
		"weight_5": -0.5658519268035889,
		"weight_6": 8.684157371520996
	},
	"layer_3": {
		"weight_0": [
			-0.16422836482524872,
			0.782817542552948,
			-0.06519933044910431,
			0.80373615026474
		],
		"weight_1": [
			[
				-0.5099165439605713,
				0.9481905698776245,
				0.5362945199012756,
				0.7465338110923767
			],
			[
				0.5269007682800293,
				-0.37397176027297974,
				-0.029094800353050232,
				0.6505905389785767
			],
			[
				0.11183709651231766,
				0.7233590483665466,
				-0.6488673686981201,
				1.3518893718719482
			],
			[
				0.6069034337997437,
				1.2988475561141968,
				0.5995644927024841,
				1.5538330078125
			],
			[
				-0.04340926930308342,
				-0.36599186062812805,
				0.16277098655700684,
				-0.40565091371536255
			],
			[
				0.7566577792167664,
				-1.0295612812042236,
				-0.5750900506973267,
				-0.4960728883743286
			],
			[
				-0.580629825592041,
				1.0081182718276978,
				-0.20212553441524506,
				1.0918872356414795
			],
			[
				0.49277547001838684,
				0.9772632122039795,
				-0.3957454562187195,
				1.5001184940338135
			]
		],
		"weight_2": -1,
		"weight_3": -1.5548397302627563,
		"weight_4": 1.5548397302627563,
		"weight_5": -0.5658519268035889,
		"weight_6": 44.315765380859375
	},
	"layer_4": {
		"weight_0": [
			0.7791733145713806
		],
		"weight_1": [
			[
				-1.078385353088379
			],
			[
				1.8772034645080566
			],
			[
				-0.7407717704772949
			],
			[
				0.8787978291511536
			]
		],
		"weight_2": -1,
		"weight_3": -1.8782179355621338,
		"weight_4": 1.8782179355621338,
		"weight_5": -0.5658519268035889,
		"weight_6": 84.55728912353516
	}
}