{
	"layer_0": {
		"weight_0": [
			[
				0.9216660261154175,
				-1.777890682220459,
				1.1197071075439453,
				0.6529569029808044,
				0.6626140475273132,
				0.3204253911972046,
				0.41497236490249634,
				0.1399940401315689,
				0.2731935381889343,
				0.36890709400177,
				0.3144279718399048,
				-9.757319450378418,
				0.03980796039104462,
				1.1961809396743774,
				-0.28886812925338745,
				0.45410194993019104
			],
			[
				-8.432069778442383,
				-0.3675343990325928,
				-0.6449961066246033,
				-2.2688093185424805,
				-0.07449402660131454,
				-3.523550271987915,
				-1.609736442565918,
				-0.6522442698478699,
				-0.7301807403564453,
				-0.4668195843696594,
				-1.128464698791504,
				-1.0147851705551147,
				-0.46366965770721436,
				-0.2152647078037262,
				-0.03801316022872925,
				-0.3811662197113037
			]
		],
		"weight_1": [
			0.14766409993171692,
			0.77895188331604,
			0.6380654573440552,
			0.21047978103160858,
			0.8924486041069031,
			0.2666366398334503,
			0.38728779554367065,
			0.43867596983909607,
			-0.1750810146331787,
			0.45586565136909485,
			0.4916423559188843,
			1.0282039642333984,
			0.4848442077636719,
			0.7556459903717041,
			0.0,
			0.3752717971801758
		]
	},
	"layer_1": {
		"weight_0": [
			[
				5.779390811920166,
				4.692384719848633,
				-3.715493679046631,
				5.50510835647583,
				5.402895927429199,
				-0.4743862748146057,
				-0.3139767646789551,
				5.126696586608887
			],
			[
				-0.29239651560783386,
				-0.7110310196876526,
				0.6019801497459412,
				-0.5362645387649536,
				-0.773000180721283,
				-0.42942655086517334,
				0.058340754359960556,
				-0.8662237524986267
			],
			[
				1.1875990629196167,
				0.7843805551528931,
				-0.09915716201066971,
				0.26278814673423767,
				0.7923457026481628,
				0.26841074228286743,
				-0.37931352853775024,
				0.727089524269104
			],
			[
				1.259527564048767,
				0.3384603261947632,
				0.7264423370361328,
				0.5162907838821411,
				0.9053479433059692,
				1.0000581741333008,
				-0.4354056119918823,
				0.6469330787658691
			],
			[
				0.531693160533905,
				-0.3730412423610687,
				0.5895107388496399,
				-0.2793063223361969,
				0.42256593704223633,
				-0.2740591764450073,
				-0.4499715566635132,
				0.5164769291877747
			],
			[
				2.50734543800354,
				0.9224900007247925,
				0.07320325821638107,
				1.4086025953292847,
				1.0299729108810425,
				1.6825391054153442,
				-0.2403196096420288,
				1.3569464683532715
			],
			[
				1.3772327899932861,
				0.8180518746376038,
				-0.37098202109336853,
				0.6753445267677307,
				1.136877179145813,
				0.41013482213020325,
				-0.3222307562828064,
				0.966144859790802
			],
			[
				0.9669821858406067,
				0.7670308947563171,
				0.3687598407268524,
				0.4934576749801636,
				0.5768091678619385,
				-0.04436216130852699,
				0.01093297079205513,
				0.5875176191329956
			],
			[
				0.17905957996845245,
				0.08558546006679535,
				-0.24041320383548737,
				-0.14469347894191742,
				-0.19856803119182587,
				0.28922536969184875,
				-0.0413135290145874,
				0.08329768478870392
			],
			[
				0.42989617586135864,
				-0.2628610134124756,
				0.05906808003783226,
				0.56377112865448,
				-0.02107824757695198,
				0.2982676029205322,
				0.20389486849308014,
				0.5368909239768982
			],
			[
				1.415763258934021,
				0.45476233959198,
				-0.2711552083492279,
				0.512972891330719,
				0.9562780857086182,
				0.29183119535446167,
				-0.29295313358306885,
				0.7162660360336304
			],
			[
				-0.25815701484680176,
				-0.8566769361495972,
				0.6808106303215027,
				-0.3410131335258484,
				-0.4987115263938904,
				-0.5928430557250977,
				0.026681404560804367,
				-0.19027644395828247
			],
			[
				0.6297236084938049,
				0.5611183047294617,
				0.11161912232637405,
				0.33186930418014526,
				0.8692786693572998,
				1.0444284677505493,
				0.25051650404930115,
				0.2607918083667755
			],
			[
				0.23419985175132751,
				0.4342382848262787,
				-0.1407603770494461,
				0.29180821776390076,
				0.5437803268432617,
				-0.6752201318740845,
				0.3047424852848053,
				0.7329738140106201
			],
			[
				-0.3657197952270508,
				0.157975435256958,
				-0.3417850732803345,
				-0.36683428287506104,
				0.3283689022064209,
				0.2180095911026001,
				0.30911970138549805,
				-0.09639966487884521
			],
			[
				0.48699313402175903,
				0.173023983836174,
				0.4534488916397095,
				0.06341230869293213,
				0.9427415132522583,
				-0.1429949253797531,
				-0.13413932919502258,
				0.4261397421360016
			]
		],
		"weight_1": [
			0.7279969453811646,
			0.4861641824245453,
			0.0033099628053605556,
			0.5806529521942139,
			0.6178935766220093,
			0.23847350478172302,
			-0.07782242447137833,
			0.6458258032798767
		]
	},
	"layer_2": {
		"weight_0": [
			[
				0.2173401117324829,
				1.2379461526870728,
				0.7309962511062622,
				0.3147370517253876
			],
			[
				0.2828614115715027,
				1.9325690269470215,
				-1.253956913948059,
				1.720826506614685
			],
			[
				-0.18085819482803345,
				-2.425856113433838,
				2.2546067237854004,
				-1.337859869003296
			],
			[
				-0.19306206703186035,
				1.6948224306106567,
				-0.2509804964065552,
				1.43653404712677
			],
			[
				-0.15843188762664795,
				1.8102754354476929,
				0.06427320092916489,
				1.276675820350647
			],
			[
				0.061761319637298584,
				5.217155933380127,
				-5.27686071395874,
				5.87797212600708
			],
			[
				-0.35474783182144165,
				-0.43737486004829407,
				0.1315704882144928,
				-0.13426518440246582
			],
			[
				-0.33639422059059143,
				1.0282126665115356,
				0.292305588722229,
				1.4655259847640991
			]
		],
		"weight_1": [
			-0.03999888524413109,
			0.6610478758811951,
			0.2787259519100189,
			0.6622111797332764
		]
	},
	"layer_3": {
		"weight_0": [
			[
				-0.26360538601875305
			],
			[
				2.421955108642578
			],
			[
				-3.359684705734253
			],
			[
				1.5392308235168457
			]
		],
		"weight_1": [
			0.6769026517868042
		]
	}
}