{
	"layer_0": {
		"weight_0": 0.0,
		"weight_1": 1.0,
		"weight_2": -1
	},
	"layer_1": {
		"weight_0": [
			0.9503450393676758,
			0.41358569264411926,
			0.0,
			0.0,
			0.09982071816921234,
			0.0,
			0.0,
			1.049401879310608,
			0.0,
			0.19924628734588623,
			0.07774419337511063,
			0.9744035005569458,
			0.0,
			0.8056381344795227,
			-0.23252907395362854,
			1.046105146408081
		],
		"weight_1": [
			[
				0.471439927816391,
				0.5806965827941895,
				-0.1269485354423523,
				-0.5090634822845459,
				1.0465401411056519,
				-0.5423294901847839,
				-0.30648675560951233,
				6.815761566162109,
				-0.139250248670578,
				0.7515907883644104,
				0.8192471861839294,
				1.1110073328018188,
				-0.47342827916145325,
				0.5435729026794434,
				2.229882001876831,
				-8.97346019744873
			],
			[
				-1.9551857709884644,
				-3.82899808883667,
				-0.10556486248970032,
				-0.34404897689819336,
				-9.204696655273438,
				-0.04048717021942139,
				-0.36711692810058594,
				-0.6426164507865906,
				-0.28414323925971985,
				-4.9983696937561035,
				-6.196720123291016,
				-1.2796834707260132,
				-0.5617969036102295,
				-3.214932441711426,
				0.5677592754364014,
				-1.2640137672424316
			]
		],
		"weight_2": -1,
		"weight_3": -9.204696655273438,
		"weight_4": 9.204696655273438,
		"weight_5": -8.775056838989258,
		"weight_6": 7.4717278480529785
	},
	"layer_2": {
		"weight_0": -1,
		"weight_1": -1.0344233678196528e-30,
		"weight_2": 7.404467582702637
	},
	"layer_3": {
		"weight_0": [
			1.613712191581726,
			-0.4059997498989105,
			0.6573212742805481,
			-0.04020588845014572,
			0.6515346765518188,
			0.7101806998252869,
			-0.04637359082698822,
			1.0326110124588013
		],
		"weight_1": [
			[
				0.6678797602653503,
				1.0363941192626953,
				0.779172420501709,
				0.31928107142448425,
				1.099594235420227,
				0.4298119843006134,
				-0.2467978149652481,
				1.5280085802078247
			],
			[
				-0.7097632884979248,
				-2.4205775260925293,
				1.6377747058868408,
				-0.32892242074012756,
				1.3056600093841553,
				1.457685947418213,
				-0.4278147220611572,
				2.236738920211792
			],
			[
				-0.28071093559265137,
				0.47671496868133545,
				0.2730470895767212,
				-0.2678886651992798,
				0.11502528190612793,
				-0.2118459939956665,
				-0.25437378883361816,
				0.23871219158172607
			],
			[
				-0.4166144132614136,
				-0.4694032669067383,
				0.4170619249343872,
				-0.4448845386505127,
				0.361163854598999,
				-0.43687403202056885,
				-0.36767685413360596,
				0.14879417419433594
			],
			[
				3.418743133544922,
				-0.03482196480035782,
				5.42219877243042,
				-3.8630616664886475,
				5.21235466003418,
				5.374792575836182,
				0.17185884714126587,
				5.03479528427124
			],
			[
				0.30690014362335205,
				0.4172704219818115,
				-0.19127023220062256,
				0.09040236473083496,
				0.05280327796936035,
				-0.21131610870361328,
				-0.10963356494903564,
				-0.11320030689239502
			],
			[
				-0.33394312858581543,
				-0.056236982345581055,
				-0.1565018892288208,
				0.08031690120697021,
				0.12485790252685547,
				0.3516288995742798,
				-0.18186867237091064,
				0.39405810832977295
			],
			[
				-0.39315274357795715,
				0.06326567381620407,
				0.6202536225318909,
				0.4632031321525574,
				-0.014863591641187668,
				0.07819008827209473,
				-0.40502411127090454,
				1.3621834516525269
			],
			[
				0.11872053146362305,
				0.2926861047744751,
				0.42115163803100586,
				-0.19460391998291016,
				0.4569603204727173,
				0.023899316787719727,
				-0.3035767078399658,
				0.4651069641113281
			],
			[
				-2.3781380653381348,
				-1.08018958568573,
				2.0507965087890625,
				-1.3448885679244995,
				2.3924789428710938,
				2.447237730026245,
				0.2853142321109772,
				2.370105743408203
			],
			[
				-0.02417253889143467,
				-0.22087594866752625,
				2.6184122562408447,
				-2.3952767848968506,
				2.183776378631592,
				3.1527817249298096,
				0.14668205380439758,
				1.7265312671661377
			],
			[
				0.13259084522724152,
				0.35152241587638855,
				0.33880117535591125,
				0.39677900075912476,
				0.4980747401714325,
				0.9837563633918762,
				0.1335754543542862,
				1.4204000234603882
			],
			[
				0.08015048503875732,
				-0.18880748748779297,
				-0.4117426872253418,
				0.004027247428894043,
				-0.22260558605194092,
				0.28806746006011963,
				0.009717345237731934,
				-0.41986119747161865
			],
			[
				-0.09778378158807755,
				-3.172370433807373,
				0.5952063202857971,
				-0.1568509340286255,
				1.180221438407898,
				1.041128158569336,
				0.11899333447217941,
				1.9220530986785889
			],
			[
				-1.105825662612915,
				-0.41691654920578003,
				0.12575189769268036,
				0.6347887516021729,
				-0.31941282749176025,
				-0.2471890151500702,
				0.31033584475517273,
				0.7304601073265076
			],
			[
				-3.051966667175293,
				2.3136098384857178,
				-1.855764389038086,
				1.9973106384277344,
				-1.5094789266586304,
				-1.8359280824661255,
				-0.20985479652881622,
				-2.089081048965454
			]
		],
		"weight_2": -1,
		"weight_3": -5.42219877243042,
		"weight_4": 5.42219877243042,
		"weight_5": -3.6644339561462402,
		"weight_6": 18.22793960571289
	},
	"layer_4": {
		"weight_0": -1,
		"weight_1": -1.0344233678196528e-30,
		"weight_2": 17.771591186523438
	},
	"layer_5": {
		"weight_0": [
			0.7305645942687988,
			-0.00477999821305275,
			0.6806180477142334,
			0.05825177952647209
		],
		"weight_1": [
			[
				-2.5418829917907715,
				-0.35130932927131653,
				-2.348438262939453,
				2.0343358516693115
			],
			[
				1.206368088722229,
				0.42985254526138306,
				0.7109060883522034,
				-0.8981752395629883
			],
			[
				1.592673420906067,
				0.5185415744781494,
				1.4956660270690918,
				-0.11345617473125458
			],
			[
				-1.9517526626586914,
				-0.14629021286964417,
				-2.8116343021392822,
				2.4483327865600586
			],
			[
				1.4831249713897705,
				-0.5875310897827148,
				1.0733411312103271,
				0.46382462978363037
			],
			[
				1.9152164459228516,
				-0.4376857280731201,
				1.518433928489685,
				-0.04424653574824333
			],
			[
				0.2890082001686096,
				0.4076797366142273,
				-0.4970775246620178,
				0.3282597064971924
			],
			[
				0.7190233469009399,
				-0.3891477882862091,
				1.770290732383728,
				-0.3660385310649872
			]
		],
		"weight_2": -1,
		"weight_3": -2.8126471042633057,
		"weight_4": 2.8126471042633057,
		"weight_5": -8.038738250732422,
		"weight_6": 41.1163444519043
	},
	"layer_6": {
		"weight_0": -1,
		"weight_1": -1.0344233678196528e-30,
		"weight_2": 39.89605712890625
	},
	"layer_7": {
		"weight_0": [
			0.759998083114624
		],
		"weight_1": [
			[
				1.9439759254455566
			],
			[
				0.00017433613538742065
			],
			[
				2.1622469425201416
			],
			[
				-1.7360183000564575
			]
		],
		"weight_2": -1,
		"weight_3": -2.161351203918457,
		"weight_4": 2.161351203918457,
		"weight_5": -0.00464181462302804,
		"weight_6": 138.26206970214844
	}
}