{
	"layer_0": {
		"weight_0": [
			[
				-0.41587695479393005,
				2.1241466999053955,
				0.5852734446525574,
				-0.26743999123573303,
				1.8357669115066528,
				0.20199869573116302,
				-0.18341943621635437,
				-0.5202146172523499,
				-0.1708521693944931,
				-0.14207252860069275,
				0.05157805234193802,
				4.488468170166016,
				0.19093720614910126,
				1.75409734249115,
				0.5563893914222717,
				1.4774458408355713
			],
			[
				4.764851093292236,
				-2.779564380645752,
				3.7513067722320557,
				-0.041110455989837646,
				1.9788738489151,
				6.003608703613281,
				-0.5291265845298767,
				-0.021152019500732422,
				0.08043673634529114,
				-0.4448789060115814,
				-0.5578951239585876,
				-0.04384114220738411,
				0.06807716190814972,
				1.0114529132843018,
				3.8214375972747803,
				1.9678544998168945
			]
		],
		"weight_1": [
			0.447675496339798,
			-0.11987042427062988,
			0.13725396990776062,
			0.0,
			9.892444359138608e-05,
			0.07354160398244858,
			0.0,
			0.0,
			-0.08390450477600098,
			0.0,
			-0.05710601434111595,
			0.044893644750118256,
			-0.21618430316448212,
			-0.06067228689789772,
			0.23293641209602356,
			0.04299134388566017
		]
	},
	"layer_1": {
		"weight_0": [
			[
				0.7162461876869202,
				0.9415778517723083,
				1.5493690967559814,
				1.1266435384750366,
				-0.5047779679298401,
				1.8070632219314575,
				1.678881287574768,
				1.966587781906128
			],
			[
				-2.423175811767578,
				-0.08973543345928192,
				-0.20719054341316223,
				0.002394472248852253,
				0.0438649021089077,
				-1.033372402191162,
				-0.6263927221298218,
				3.160663604736328
			],
			[
				0.22575069963932037,
				-0.2265155166387558,
				1.4201023578643799,
				1.60383939743042,
				-0.13361847400665283,
				1.7043503522872925,
				1.2348459959030151,
				1.19180166721344
			],
			[
				-0.2318582534790039,
				0.33160924911499023,
				-0.0902402400970459,
				0.12534260749816895,
				-0.291259765625,
				-0.3582489490509033,
				0.12758564949035645,
				0.12973928451538086
			],
			[
				-0.6531911492347717,
				-0.5897209644317627,
				0.7189580202102661,
				1.1745742559432983,
				0.2075689435005188,
				0.7456257939338684,
				1.5259709358215332,
				0.2292962372303009
			],
			[
				-0.046988118439912796,
				0.6218754649162292,
				1.3737596273422241,
				1.8613179922103882,
				0.2591216266155243,
				1.4631906747817993,
				1.9039628505706787,
				1.594883680343628
			],
			[
				-0.3300427198410034,
				0.06402373313903809,
				0.16898834705352783,
				0.14289486408233643,
				0.09004950523376465,
				0.2685213088989258,
				-0.30271756649017334,
				-0.11401760578155518
			],
			[
				-0.38272595405578613,
				-0.0694589614868164,
				-0.20632529258728027,
				-0.42865562438964844,
				0.350844144821167,
				0.13351786136627197,
				-0.1572049856185913,
				0.46274447441101074
			],
			[
				-0.21338748931884766,
				-0.0007754743564873934,
				-0.4462638199329376,
				0.4132551848888397,
				-0.31164076924324036,
				0.19540062546730042,
				-0.28450334072113037,
				0.14976239204406738
			],
			[
				-0.49002063274383545,
				0.08855712413787842,
				-0.18924188613891602,
				-0.3070627450942993,
				0.09052097797393799,
				-0.3073732852935791,
				0.2189631462097168,
				0.4950786828994751
			],
			[
				0.30727851390838623,
				0.3421204686164856,
				0.38378921151161194,
				-0.07742293179035187,
				-0.3929666578769684,
				-0.42985206842422485,
				-0.10609374195337296,
				-0.1251128613948822
			],
			[
				-12.785664558410645,
				-4.710542678833008,
				-0.05716387927532196,
				1.4145174026489258,
				0.06756375730037689,
				-0.7184208035469055,
				0.6762489080429077,
				-3.0373966693878174
			],
			[
				-0.4310426712036133,
				0.4146994650363922,
				-0.26701366901397705,
				0.18265391886234283,
				-0.01407515536993742,
				-0.0796327143907547,
				-0.16499684751033783,
				0.16774149239063263
			],
			[
				-0.7122195959091187,
				-0.7940483689308167,
				0.9380059242248535,
				1.0933635234832764,
				-0.3186500370502472,
				0.2816660404205322,
				1.1350599527359009,
				-0.566444993019104
			],
			[
				0.17215685546398163,
				0.10923220962285995,
				0.984667181968689,
				1.5895274877548218,
				-0.4874838888645172,
				1.7920211553573608,
				1.7112147808074951,
				1.1168076992034912
			],
			[
				-0.5179057717323303,
				-0.5329333543777466,
				0.7000703811645508,
				1.2996822595596313,
				0.07043483853340149,
				0.8076729774475098,
				1.4766790866851807,
				0.4094616174697876
			]
		],
		"weight_1": [
			0.29588866233825684,
			-0.1582513302564621,
			0.059859443455934525,
			0.18756991624832153,
			-0.04458833485841751,
			0.1777569204568863,
			0.1891746073961258,
			0.14032836258411407
		]
	},
	"layer_2": {
		"weight_0": [
			[
				4.255596160888672,
				-4.846764087677002,
				0.27361834049224854,
				0.2742193341255188
			],
			[
				1.965311884880066,
				-2.591400384902954,
				-0.526372492313385,
				0.11436951160430908
			],
			[
				-0.029490284621715546,
				1.6116446256637573,
				-0.4622403383255005,
				-0.3946819603443146
			],
			[
				-0.9300721883773804,
				1.3482818603515625,
				0.2759493291378021,
				-0.027107179164886475
			],
			[
				0.24410676956176758,
				-0.49872198700904846,
				0.2784050703048706,
				-0.4088227450847626
			],
			[
				0.4044695198535919,
				1.6004804372787476,
				-0.6767628192901611,
				-0.2669964134693146
			],
			[
				-0.45543810725212097,
				1.7988262176513672,
				-0.09948290139436722,
				-0.6834111213684082
			],
			[
				2.119920492172241,
				-4.5286545753479,
				-0.5858256816864014,
				-0.6545071601867676
			]
		],
		"weight_1": [
			-0.5453001260757446,
			0.2668769061565399,
			0.00948670506477356,
			0.0
		]
	},
	"layer_3": {
		"weight_0": [
			[
				-3.613115072250366
			],
			[
				2.7736144065856934
			],
			[
				0.6225753426551819
			],
			[
				0.6484017372131348
			]
		],
		"weight_1": [
			0.2751406133174896
		]
	}
}