{
	"layer_0": {
		"weight_0": [
			[
				-0.5348868370056152,
				-0.29993489384651184,
				-0.26333701610565186,
				0.5272248983383179,
				-0.16206523776054382,
				-0.2963829040527344,
				0.8289453387260437,
				0.2624393701553345,
				0.8528571724891663,
				0.15429863333702087,
				0.752314567565918,
				-0.5783263444900513,
				0.6571237444877625,
				-0.21672272682189941,
				0.9014533758163452,
				-0.2222989797592163
			],
			[
				-0.5352688431739807,
				0.6587938070297241,
				-0.31350642442703247,
				0.6002569198608398,
				-0.270021915435791,
				-0.4762827455997467,
				0.45765233039855957,
				-0.6281237602233887,
				0.756472647190094,
				0.6062514781951904,
				0.3559204041957855,
				0.040064990520477295,
				0.7830008864402771,
				-0.06627881526947021,
				0.4407086670398712,
				-0.41581183671951294
			]
		],
		"weight_1": [
			0.0,
			0.2408655434846878,
			0.0,
			0.35232532024383545,
			0.0,
			0.0,
			0.5277824401855469,
			-0.17676031589508057,
			0.5426368713378906,
			0.4890415370464325,
			0.5062860250473022,
			-0.04171954467892647,
			0.5103575587272644,
			0.0,
			0.43226003646850586,
			0.0
		]
	},
	"layer_1": {},
	"layer_2": {
		"weight_0": [
			[
				0.4406551122665405,
				0.36702704429626465,
				0.20677566528320312,
				-0.05141139030456543,
				-0.31747138500213623,
				-0.08524048328399658,
				-0.024789094924926758,
				-0.21117544174194336
			],
			[
				0.3476288318634033,
				0.40128591656684875,
				0.12503916025161743,
				0.34497490525245667,
				0.3295847475528717,
				0.3943156898021698,
				0.397907018661499,
				0.21447965502738953
			],
			[
				0.3246488571166992,
				0.2088707685470581,
				-0.39851152896881104,
				0.13165152072906494,
				0.269692063331604,
				-0.3819091320037842,
				-0.2609415054321289,
				-0.4815216064453125
			],
			[
				-0.29776883125305176,
				0.15311270952224731,
				-0.33973386883735657,
				0.5159938335418701,
				-0.29921039938926697,
				-0.4286162555217743,
				-0.4268895387649536,
				-0.3605802655220032
			],
			[
				-0.4984111785888672,
				0.3696129322052002,
				-0.06515991687774658,
				0.3159327507019043,
				-0.38383686542510986,
				-0.4332289695739746,
				0.010733723640441895,
				-0.19933664798736572
			],
			[
				0.33916258811950684,
				-0.43701112270355225,
				-0.011393070220947266,
				-0.23314034938812256,
				0.038906216621398926,
				-0.23855483531951904,
				-0.41843509674072266,
				-0.3154635429382324
			],
			[
				-0.34639179706573486,
				0.60447096824646,
				-0.007415229920297861,
				0.6355268955230713,
				-0.4070335030555725,
				0.1545730084180832,
				-0.12423384189605713,
				0.26645633578300476
			],
			[
				0.06430685520172119,
				0.08189192414283752,
				-0.20243370532989502,
				-0.07543190568685532,
				0.2551814317703247,
				0.17645835876464844,
				-0.3802666664123535,
				-0.5178754925727844
			],
			[
				-0.3024578094482422,
				0.9359101057052612,
				0.45733949542045593,
				0.6872531771659851,
				0.022817816585302353,
				-0.2834511399269104,
				-0.04524850845336914,
				0.08487480133771896
			],
			[
				-0.26214599609375,
				0.8089525699615479,
				0.021464552730321884,
				0.3478597402572632,
				0.18759912252426147,
				0.016914991661906242,
				-0.4634683132171631,
				0.3464731276035309
			],
			[
				0.4690709114074707,
				0.8613888025283813,
				-0.48222315311431885,
				0.8685593605041504,
				0.26950421929359436,
				0.090088851749897,
				-0.2011704444885254,
				-0.2677125930786133
			],
			[
				-0.30751895904541016,
				-0.2872887849807739,
				0.15109415352344513,
				0.07090830057859421,
				0.05331034958362579,
				-0.0012135254219174385,
				-0.17134463787078857,
				-0.0032463271636515856
			],
			[
				-0.342515230178833,
				0.46855679154396057,
				-0.2612146735191345,
				0.7292758822441101,
				-0.11070606857538223,
				0.20803555846214294,
				-0.32063472270965576,
				-0.453145295381546
			],
			[
				-0.015027165412902832,
				0.4310256242752075,
				0.21458494663238525,
				-0.11909472942352295,
				0.10944581031799316,
				0.13725805282592773,
				-0.467479944229126,
				-0.34300482273101807
			],
			[
				-0.21982276439666748,
				0.7581794261932373,
				-0.3396446704864502,
				0.5189361572265625,
				0.3017491400241852,
				-0.028235992416739464,
				-0.24100708961486816,
				0.3860580027103424
			],
			[
				-0.25457823276519775,
				0.002745389938354492,
				0.3043445348739624,
				0.1006091833114624,
				0.07757091522216797,
				-0.3430901765823364,
				0.36952638626098633,
				0.25278687477111816
			]
		],
		"weight_1": [
			0.0,
			0.5276432037353516,
			-0.028967298567295074,
			0.5143675208091736,
			-0.11943985521793365,
			-0.041318297386169434,
			0.0,
			-0.09354756772518158
		]
	},
	"layer_3": {},
	"layer_4": {
		"weight_0": [
			[
				-0.42527061700820923,
				-0.02020639181137085,
				0.04748821258544922,
				-0.10036414861679077
			],
			[
				0.836839497089386,
				-0.6664055585861206,
				-0.19700731337070465,
				-0.3024146258831024
			],
			[
				-0.6046885848045349,
				0.2395230531692505,
				0.4011434018611908,
				0.17016421258449554
			],
			[
				1.1286232471466064,
				-0.5593817234039307,
				0.15033601224422455,
				0.30001795291900635
			],
			[
				-0.586287260055542,
				0.019632697105407715,
				0.34361058473587036,
				0.5794712901115417
			],
			[
				-0.4231119155883789,
				-0.07036179304122925,
				-0.6056205034255981,
				0.19340386986732483
			],
			[
				0.5970811247825623,
				0.46511489152908325,
				-0.20606690645217896,
				0.6575892567634583
			],
			[
				-0.22807185351848602,
				-0.3897925913333893,
				0.3390118479728699,
				-0.6268050670623779
			]
		],
		"weight_1": [
			0.5302150845527649,
			0.0,
			-0.023312872275710106,
			-0.03270954266190529
		]
	},
	"layer_5": {},
	"layer_6": {
		"weight_0": [
			[
				3.020444869995117
			],
			[
				-0.6068896055221558
			],
			[
				0.0012195302406325936
			],
			[
				-0.9930084347724915
			]
		],
		"weight_1": [
			2.3567681312561035
		]
	}
}