{
	"layer_0": {
		"weight_0": [
			[
				-0.5557264089584351,
				0.9752465486526489,
				1.9108974933624268,
				1.7002242803573608,
				-0.23871096968650818,
				-0.01089064497500658,
				1.0600957870483398,
				-0.5171645283699036,
				2.268829822540283,
				2.5373387336730957,
				0.10124582052230835,
				-0.1880429983139038,
				0.12017731368541718,
				-0.0014461874961853027,
				-0.27214187383651733,
				2.3582961559295654
			],
			[
				-0.465607225894928,
				-7.072397232055664,
				-1.1965399980545044,
				-1.3889950513839722,
				-0.11415413022041321,
				0.22724375128746033,
				-3.333406686782837,
				-0.5099183320999146,
				-1.1530507802963257,
				-1.3541311025619507,
				-0.055714499205350876,
				-0.0887993574142456,
				0.011608963832259178,
				-0.17858928442001343,
				-0.05018097162246704,
				-1.0440350770950317
			]
		],
		"weight_1": [
			0.0,
			0.5565524101257324,
			1.1870065927505493,
			1.7856833934783936,
			0.0,
			-0.2273009568452835,
			0.8487316966056824,
			0.0,
			1.1466623544692993,
			1.6232178211212158,
			-0.09439925849437714,
			0.0,
			-0.13499143719673157,
			0.0,
			0.0,
			1.0358339548110962
		]
	},
	"layer_1": {
		"weight_0": [
			[
				0.28752338886260986,
				0.2263476848602295,
				0.4044729471206665,
				-0.27976560592651367,
				-0.06358909606933594,
				-0.26273441314697266,
				0.46802449226379395,
				-0.020073890686035156
			],
			[
				-0.17542660236358643,
				0.45809733867645264,
				-0.39643263816833496,
				-3.46423602104187,
				5.493124485015869,
				5.222573757171631,
				0.06821393966674805,
				0.09242808818817139
			],
			[
				-0.022509455680847168,
				-0.33187544345855713,
				0.3836686909198761,
				0.5216231346130371,
				1.373879075050354,
				1.2353615760803223,
				-0.22869062423706055,
				0.3038440942764282
			],
			[
				-0.37347185611724854,
				-0.10916745662689209,
				0.18073132634162903,
				0.7726175785064697,
				0.9413776993751526,
				0.7156749963760376,
				-0.41007018089294434,
				-0.1966487169265747
			],
			[
				0.09720754623413086,
				0.058449387550354004,
				0.3266010284423828,
				0.15231919288635254,
				0.2774777412414551,
				0.3046804666519165,
				-0.4000297784805298,
				-0.23667573928833008
			],
			[
				0.1794048547744751,
				-0.2509312629699707,
				-0.13275980949401855,
				-0.17161054909229279,
				-0.34967654943466187,
				-0.24301208555698395,
				0.20547926425933838,
				-0.36928415298461914
			],
			[
				0.17125821113586426,
				0.1071920394897461,
				0.3073066771030426,
				-1.5718375444412231,
				2.4786369800567627,
				2.463482141494751,
				0.258247971534729,
				0.3993713855743408
			],
			[
				0.0662156343460083,
				0.08628952503204346,
				0.46015822887420654,
				-0.1907515525817871,
				0.3289724588394165,
				-0.44773662090301514,
				0.05572378635406494,
				-0.16733837127685547
			],
			[
				-0.2463698387145996,
				-0.10421168804168701,
				-0.13365387916564941,
				-0.04931814968585968,
				1.7346328496932983,
				1.602951169013977,
				0.08217966556549072,
				-0.4526313543319702
			],
			[
				-0.44872725009918213,
				-0.33048784732818604,
				-0.49892422556877136,
				0.6632916927337646,
				1.0247564315795898,
				0.8984845280647278,
				0.11728811264038086,
				-0.08660531044006348
			],
			[
				-0.35522544384002686,
				-0.48661911487579346,
				-0.4522676467895508,
				0.2948949933052063,
				-0.44259727001190186,
				-0.043609943240880966,
				-0.0711824893951416,
				-0.46926605701446533
			],
			[
				-0.2288975715637207,
				-0.2557861804962158,
				0.34003472328186035,
				-0.29592788219451904,
				0.27207374572753906,
				-0.11140179634094238,
				0.04280102252960205,
				-0.019635796546936035
			],
			[
				-0.18700480461120605,
				0.42482566833496094,
				0.4140282869338989,
				-0.027684543281793594,
				-0.4094541668891907,
				-0.09823192656040192,
				-0.06805753707885742,
				0.416489839553833
			],
			[
				-0.21981072425842285,
				0.427807092666626,
				-0.006097555160522461,
				-0.00904083251953125,
				-0.38428425788879395,
				-0.34217965602874756,
				-0.12229335308074951,
				0.11455798149108887
			],
			[
				-0.020267486572265625,
				-0.23763227462768555,
				0.16464078426361084,
				0.1036067008972168,
				-0.40402770042419434,
				0.19075477123260498,
				0.14068186283111572,
				0.4507094621658325
			],
			[
				-0.3916435241699219,
				-0.27916836738586426,
				-0.14534908533096313,
				0.04142965003848076,
				0.6082074642181396,
				1.2141245603561401,
				-0.3524123430252075,
				-0.38515913486480713
			]
		],
		"weight_1": [
			0.0,
			0.0,
			-0.00843030121177435,
			0.12442009896039963,
			0.9760400056838989,
			1.0900741815567017,
			0.0,
			0.0
		]
	},
	"layer_2": {
		"weight_0": [
			[
				0.4492664933204651,
				0.620398223400116,
				0.384099543094635,
				-0.16847580671310425
			],
			[
				-0.5491756200790405,
				-0.44084304571151733,
				-0.1576244831085205,
				0.36821895837783813
			],
			[
				-0.3912549316883087,
				-0.5208945870399475,
				-0.588310182094574,
				0.3462833762168884
			],
			[
				0.6883072853088379,
				-0.3328048288822174,
				-3.9582126140594482,
				-0.5304261445999146
			],
			[
				0.1556299924850464,
				-0.1376386284828186,
				1.3864372968673706,
				0.5464949607849121
			],
			[
				-0.6716026663780212,
				-0.04672873020172119,
				2.0533323287963867,
				-0.562029242515564
			],
			[
				-0.1091223955154419,
				0.24621719121932983,
				-0.36856845021247864,
				-0.03345853090286255
			],
			[
				-0.46947020292282104,
				0.5921011567115784,
				-0.4118003249168396,
				-0.2600868344306946
			]
		],
		"weight_1": [
			-0.017456291243433952,
			0.0,
			1.1079102754592896,
			-0.09460516273975372
		]
	},
	"layer_3": {
		"weight_0": [
			[
				-0.22790157794952393
			],
			[
				-0.9868059754371643
			],
			[
				2.0472350120544434
			],
			[
				-0.5354593396186829
			]
		],
		"weight_1": [
			1.108794093132019
		]
	}
}