{
	"layer_0": {
		"weight_0": [
			[
				0.5707570314407349,
				-0.6514701843261719,
				-0.20713397860527039,
				-1.5595498085021973,
				-0.6846475601196289,
				4.533461570739746,
				0.8508757948875427,
				2.766427755355835,
				0.09615698456764221,
				3.0874810218811035,
				-0.3319188952445984,
				-0.45647862553596497,
				0.15539969503879547,
				-0.40883857011795044,
				-0.4601059854030609,
				1.4988404512405396
			],
			[
				-1.8434170484542847,
				-0.8610398769378662,
				-0.0387614369392395,
				0.48502010107040405,
				-4.433110237121582,
				0.293704628944397,
				-3.2463185787200928,
				-0.20612014830112457,
				-0.2111838161945343,
				0.5564756989479065,
				-0.5656156539916992,
				-0.031367480754852295,
				-0.46398791670799255,
				-0.4778949022293091,
				-0.46673470735549927,
				-8.3992919921875
			]
		],
		"weight_1": [
			0.653249204158783,
			1.4902088642120361,
			0.0,
			1.0417180061340332,
			1.2453058958053589,
			0.9400882720947266,
			0.36274147033691406,
			0.5453513860702515,
			-0.07367978245019913,
			0.19696122407913208,
			0.0,
			0.0,
			-0.09766862541437149,
			0.0,
			0.0,
			0.20429417490959167
		]
	},
	"layer_1": {
		"weight_0": [
			[
				1.6493473052978516,
				1.5791404247283936,
				0.1718834936618805,
				0.23206917941570282,
				0.15784063935279846,
				0.9207941293716431,
				0.2012917697429657,
				-0.07632243633270264
			],
			[
				0.07138665020465851,
				-0.6275368928909302,
				-0.5101646780967712,
				-0.5722379088401794,
				1.230617642402649,
				0.2590807378292084,
				-0.8775174617767334,
				-0.45183539390563965
			],
			[
				-0.134621262550354,
				0.14777803421020508,
				-0.07178175449371338,
				-0.3560459613800049,
				0.21345889568328857,
				0.17085039615631104,
				0.1073298454284668,
				0.4833310842514038
			],
			[
				-0.8829749822616577,
				-1.2858633995056152,
				-0.3150446116924286,
				-0.961383044719696,
				1.134873867034912,
				-1.3251417875289917,
				-0.37551623582839966,
				-0.17240989208221436
			],
			[
				-0.2529297471046448,
				0.1737634241580963,
				-1.4825764894485474,
				-0.3196694254875183,
				0.8940660357475281,
				0.18273702263832092,
				-0.5253713726997375,
				-0.06878793239593506
			],
			[
				0.437818706035614,
				0.9797457456588745,
				0.09513645619153976,
				0.9701849818229675,
				-0.5270388722419739,
				1.1110782623291016,
				0.9159955978393555,
				-0.390710711479187
			],
			[
				1.717818260192871,
				2.02872896194458,
				1.0914980173110962,
				-0.761809766292572,
				-1.7864155769348145,
				1.5153814554214478,
				-0.05495483800768852,
				-0.446860671043396
			],
			[
				1.0787185430526733,
				1.389431357383728,
				-0.2649537920951843,
				0.8683384656906128,
				-0.4836607575416565,
				1.4957351684570312,
				1.0451908111572266,
				-0.3617662191390991
			],
			[
				-0.20028774440288544,
				-0.29746758937835693,
				-0.1462281495332718,
				-0.4569995105266571,
				0.4350419342517853,
				-0.2649048864841461,
				-0.3600963056087494,
				-0.32676541805267334
			],
			[
				0.5795872807502747,
				0.25471922755241394,
				0.5463213920593262,
				0.7116075158119202,
				-1.3495099544525146,
				0.6768687963485718,
				0.885090708732605,
				-0.4840646982192993
			],
			[
				0.31590116024017334,
				0.4338362216949463,
				0.4434547424316406,
				0.19003665447235107,
				-0.0901484489440918,
				0.20259928703308105,
				-0.31604433059692383,
				0.431130051612854
			],
			[
				0.1611793041229248,
				-0.4250136613845825,
				-0.430850625038147,
				0.11481547355651855,
				0.06419777870178223,
				-0.18374598026275635,
				-0.3516402244567871,
				0.13025438785552979
			],
			[
				0.028760110959410667,
				-0.13874253630638123,
				0.09062695503234863,
				-0.32021886110305786,
				0.12459830939769745,
				-0.2650420069694519,
				0.36931368708610535,
				0.4588010311126709
			],
			[
				-0.2948188781738281,
				0.36463868618011475,
				0.42883074283599854,
				-0.23216485977172852,
				0.4115915298461914,
				0.378021240234375,
				0.46059465408325195,
				-0.004723787307739258
			],
			[
				0.10995054244995117,
				-0.4873988628387451,
				0.3915156126022339,
				0.1983814239501953,
				0.22528469562530518,
				-0.14826703071594238,
				0.43912529945373535,
				-0.1478327512741089
			],
			[
				5.66798210144043,
				4.87177848815918,
				6.4302473068237305,
				0.5783098340034485,
				-3.931096315383911,
				5.466934680938721,
				0.8016695976257324,
				0.4157973527908325
			]
		],
		"weight_1": [
			0.4554458260536194,
			0.514111340045929,
			-0.2648361623287201,
			-0.2167975902557373,
			0.05335954204201698,
			0.5306379795074463,
			-0.4978881776332855,
			0.0
		]
	},
	"layer_2": {
		"weight_0": [
			[
				1.640169382095337,
				-0.6526060104370117,
				-0.05827011540532112,
				0.6779050827026367
			],
			[
				2.014394521713257,
				-0.5523909330368042,
				-0.10247237980365753,
				1.6632150411605835
			],
			[
				-2.3794548511505127,
				-0.7059723734855652,
				1.5260882377624512,
				-2.3533432483673096
			],
			[
				-1.6802512407302856,
				-0.23740056157112122,
				0.6513298749923706,
				-0.836104691028595
			],
			[
				-2.2892396450042725,
				0.014082252979278564,
				-3.702950954437256,
				-1.9806797504425049
			],
			[
				1.7342703342437744,
				0.021703779697418213,
				0.6549810171127319,
				1.8018299341201782
			],
			[
				-2.0793139934539795,
				-0.4690549671649933,
				1.350142002105713,
				-1.7265925407409668
			],
			[
				0.2888721227645874,
				-0.40491774678230286,
				0.5826272368431091,
				0.3841089606285095
			]
		],
		"weight_1": [
			0.4907880425453186,
			0.0,
			0.8982084393501282,
			0.488979697227478
		]
	},
	"layer_3": {
		"weight_0": [
			[
				3.154902696609497
			],
			[
				0.09796285629272461
			],
			[
				-1.1046034097671509
			],
			[
				2.2483885288238525
			]
		],
		"weight_1": [
			0.5016974806785583
		]
	}
}