{
	"layer_0": {
		"weight_0": 0.0,
		"weight_1": 1.0,
		"weight_2": -1
	},
	"layer_1": {
		"weight_0": [
			0.0,
			0.5646642446517944,
			0.0,
			0.2522490322589874,
			0.5575555562973022,
			0.6632495522499084,
			0.25991731882095337,
			0.0,
			0.5803145170211792,
			0.0,
			0.0,
			0.5020378232002258,
			0.417634516954422,
			0.0,
			0.557672381401062,
			0.4053235650062561
		],
		"weight_1": [
			[
				-0.0004156827926635742,
				1.1260900497436523,
				-0.14968392252922058,
				0.5524851083755493,
				0.30477291345596313,
				1.2015292644500732,
				0.6168289184570312,
				-0.4322747588157654,
				0.3380165696144104,
				-0.4922819137573242,
				-0.1615472435951233,
				0.5430912971496582,
				-1.7918663024902344,
				-0.5038580894470215,
				1.07430100440979,
				0.6098856925964355
			],
			[
				-0.054837703704833984,
				-0.3569091856479645,
				-0.3180422782897949,
				-2.078408718109131,
				-0.23615001142024994,
				-0.6264046430587769,
				-2.088106632232666,
				-0.0801289975643158,
				-0.2261326014995575,
				-0.3155673146247864,
				-0.5083745718002319,
				-1.1991705894470215,
				0.09044738858938217,
				-0.2041524350643158,
				-0.5010680556297302,
				-1.7649236917495728
			]
		],
		"weight_2": -1,
		"weight_3": -2.0864102840423584,
		"weight_4": 2.0864102840423584,
		"weight_5": -0.5658519268035889,
		"weight_6": 2.155860185623169
	},
	"layer_2": {
		"weight_0": [
			-0.11844496428966522,
			0.012551553547382355,
			0.334587961435318,
			-0.19733858108520508,
			0.5552403926849365,
			0.5509385466575623,
			0.5516616702079773,
			0.5532436370849609
		],
		"weight_1": [
			[
				0.37558233737945557,
				-0.2521634101867676,
				-0.007857680320739746,
				-0.23862719535827637,
				0.27133119106292725,
				0.25510406494140625,
				0.4179304838180542,
				0.350111722946167
			],
			[
				-0.4748246967792511,
				7.168727461248636e-05,
				0.021690720692276955,
				-0.03375039994716644,
				0.3371705710887909,
				0.44539618492126465,
				0.4688626527786255,
				0.30224645137786865
			],
			[
				-0.27048301696777344,
				0.18571531772613525,
				-0.2061293125152588,
				0.4730863571166992,
				-0.37965822219848633,
				0.3559544086456299,
				0.3964974880218506,
				-0.045455098152160645
			],
			[
				0.14335283637046814,
				-0.3279169797897339,
				-0.20785823464393616,
				-0.4630347490310669,
				2.0924930572509766,
				1.3692007064819336,
				1.9364793300628662,
				1.4266588687896729
			],
			[
				-0.1147877648472786,
				-0.14282415807247162,
				-0.09998393803834915,
				-0.14332851767539978,
				0.40253937244415283,
				0.005572764202952385,
				0.27510055899620056,
				-0.3426649570465088
			],
			[
				0.1377134919166565,
				0.15008144080638885,
				-0.02623252384364605,
				0.7040323615074158,
				1.1153746843338013,
				0.43584105372428894,
				0.9599832892417908,
				1.0731867551803589
			],
			[
				0.2003011703491211,
				-0.44351184368133545,
				0.09205777943134308,
				-0.685573399066925,
				1.9113911390304565,
				2.0397562980651855,
				2.0784995555877686,
				1.6521731615066528
			],
			[
				-0.1811767816543579,
				-0.16311144828796387,
				-0.32765424251556396,
				-0.20852530002593994,
				-0.13781464099884033,
				0.24404668807983398,
				0.29733920097351074,
				0.2682288885116577
			],
			[
				-0.5821415781974792,
				-0.01253725029528141,
				0.08124672621488571,
				-0.04200630635023117,
				-0.005493812263011932,
				0.35795852541923523,
				-0.5091273188591003,
				0.42784783244132996
			],
			[
				-0.26931190490722656,
				0.3515397310256958,
				0.239202618598938,
				0.3049048185348511,
				-0.2512863874435425,
				0.32871949672698975,
				-0.463908314704895,
				-0.36334049701690674
			],
			[
				-0.11069071292877197,
				-0.39954674243927,
				-0.4957764148712158,
				-0.4911869764328003,
				0.4271993637084961,
				0.39556729793548584,
				0.021530747413635254,
				-0.04392707347869873
			],
			[
				0.31027260422706604,
				-0.3829948902130127,
				-0.2027798891067505,
				-0.19547785818576813,
				0.6912956833839417,
				0.6973936557769775,
				1.5267372131347656,
				1.3463021516799927
			],
			[
				0.319161057472229,
				0.1988830268383026,
				-1.0076936483383179,
				0.7536002993583679,
				-1.5699743032455444,
				-1.4097129106521606,
				-0.8578384518623352,
				-1.4674392938613892
			],
			[
				-0.1785738468170166,
				0.3727506399154663,
				-0.3865799903869629,
				0.36550796031951904,
				-0.30938291549682617,
				0.24432110786437988,
				0.0390779972076416,
				0.2825731039047241
			],
			[
				0.10494858026504517,
				-0.457348108291626,
				0.2950170934200287,
				0.43172088265419006,
				0.19685567915439606,
				1.0779433250427246,
				1.0175775289535522,
				0.5481447577476501
			],
			[
				0.15997913479804993,
				-0.16912686824798584,
				0.5744531750679016,
				-0.25180450081825256,
				1.4953593015670776,
				1.4014220237731934,
				1.2618366479873657,
				1.4235620498657227
			]
		],
		"weight_2": -1,
		"weight_3": -2.095153570175171,
		"weight_4": 2.095153570175171,
		"weight_5": -0.5658519268035889,
		"weight_6": 8.465010643005371
	},
	"layer_3": {
		"weight_0": [
			0.5486738085746765,
			-0.010445484891533852,
			0.5762979984283447,
			0.5462464690208435
		],
		"weight_1": [
			[
				0.10874088108539581,
				0.2349720150232315,
				-0.444962739944458,
				-0.5782157182693481
			],
			[
				0.13277418911457062,
				0.6840144991874695,
				-0.3911471962928772,
				-0.04856301099061966
			],
			[
				-0.2341446578502655,
				0.5703742504119873,
				0.8418295383453369,
				0.6048323512077332
			],
			[
				-0.6682717800140381,
				0.20618203282356262,
				-1.1639806032180786,
				-1.2348649501800537
			],
			[
				1.4665488004684448,
				-0.11393766105175018,
				1.2514426708221436,
				1.6448252201080322
			],
			[
				0.9257400631904602,
				0.578021228313446,
				1.500758409500122,
				1.3523379564285278
			],
			[
				1.5075256824493408,
				-0.6458771824836731,
				0.3951679468154907,
				1.1581988334655762
			],
			[
				1.4132319688796997,
				-0.39693722128868103,
				1.1527246236801147,
				1.6076918840408325
			]
		],
		"weight_2": -1,
		"weight_3": -1.64728844165802,
		"weight_4": 1.64728844165802,
		"weight_5": -0.5658519268035889,
		"weight_6": 38.8260612487793
	},
	"layer_4": {
		"weight_0": [
			0.5373003482818604
		],
		"weight_1": [
			[
				1.403334140777588
			],
			[
				-0.2213328629732132
			],
			[
				1.0408124923706055
			],
			[
				1.3217459917068481
			]
		],
		"weight_2": -1,
		"weight_3": -1.4058231115341187,
		"weight_4": 1.4058231115341187,
		"weight_5": -0.5658519268035889,
		"weight_6": 102.39921569824219
	}
}