{
	"layer_0": {
		"weight_0": 0.0,
		"weight_1": 1.0,
		"weight_2": -1
	},
	"layer_1": {
		"weight_0": [
			0.5031456351280212,
			0.31166666746139526,
			0.40244176983833313,
			0.309441477060318,
			0.5363965630531311,
			0.0,
			0.19731692969799042,
			0.0,
			0.4735811650753021,
			0.0,
			0.4703559875488281,
			0.3941044807434082,
			0.0,
			0.6317799687385559,
			0.48728147149086,
			0.49018755555152893
		],
		"weight_1": [
			[
				1.1581791639328003,
				0.2468509078025818,
				0.7067322134971619,
				0.6538605093955994,
				1.0330653190612793,
				-0.2693362534046173,
				0.5109989047050476,
				-0.43426984548568726,
				1.2726117372512817,
				-0.0034289956092834473,
				0.5721995830535889,
				0.23931238055229187,
				-0.20750340819358826,
				1.4126042127609253,
				1.225714087486267,
				0.8975027799606323
			],
			[
				-0.44533827900886536,
				-0.4513550400733948,
				-0.5235492587089539,
				-1.9853827953338623,
				-0.5570090413093567,
				-0.3557710647583008,
				-1.8556969165802002,
				-0.20365262031555176,
				-0.5086201429367065,
				-0.4646092653274536,
				-1.3502200841903687,
				1.0361058712005615,
				-0.20040088891983032,
				1.5385868549346924,
				-0.30564945936203003,
				-0.52213054895401
			]
		],
		"weight_2": -1,
		"weight_3": -1.9853827953338623,
		"weight_4": 1.9853827953338623,
		"weight_5": -0.5658519268035889,
		"weight_6": 3.0781636238098145
	},
	"layer_2": {
		"weight_0": [
			-0.08800655603408813,
			-0.008166651241481304,
			0.5383104085922241,
			0.5277796387672424,
			-0.04370017349720001,
			0.5323256254196167,
			0.4633561074733734,
			0.26816025376319885
		],
		"weight_1": [
			[
				-0.008726770058274269,
				0.1940896213054657,
				0.4822092056274414,
				0.44771555066108704,
				0.08497980237007141,
				0.23072192072868347,
				0.690451443195343,
				0.1694823056459427
			],
			[
				0.30515068769454956,
				-0.1598316729068756,
				0.10824130475521088,
				0.4239161014556885,
				-0.05761236324906349,
				-0.2721365690231323,
				-0.5447747111320496,
				0.2649438679218292
			],
			[
				0.11644099652767181,
				0.2128368467092514,
				0.5825487375259399,
				0.04703313112258911,
				0.28316015005111694,
				-0.173575296998024,
				0.3873954713344574,
				0.46498289704322815
			],
			[
				-0.5824927091598511,
				0.16911739110946655,
				1.904530644416809,
				1.5619885921478271,
				0.22637556493282318,
				2.2741639614105225,
				1.948366641998291,
				2.3168773651123047
			],
			[
				0.40453508496284485,
				-0.3944324254989624,
				0.507568895816803,
				0.9625458121299744,
				0.18426991999149323,
				1.0443874597549438,
				0.7740987539291382,
				0.41604095697402954
			],
			[
				-0.42721641063690186,
				-0.23344123363494873,
				0.23495662212371826,
				-0.38958990573883057,
				0.45396924018859863,
				-0.19403517246246338,
				-0.3749784231185913,
				0.1947183609008789
			],
			[
				-0.6723947525024414,
				-0.1827099770307541,
				1.2299493551254272,
				1.4406284093856812,
				0.37632787227630615,
				1.0865650177001953,
				1.0945502519607544,
				1.5533912181854248
			],
			[
				0.06146812438964844,
				0.4323415756225586,
				0.327046275138855,
				0.2534980773925781,
				-0.4698532819747925,
				0.1249474287033081,
				-0.39007723331451416,
				0.34734511375427246
			],
			[
				0.2591504156589508,
				-0.4415702223777771,
				0.7776115536689758,
				0.9160913825035095,
				-0.3311493396759033,
				0.20603851974010468,
				0.09780042618513107,
				0.4525136351585388
			],
			[
				-0.11739027500152588,
				0.3060358762741089,
				0.3853651285171509,
				-0.4127466678619385,
				0.36421334743499756,
				0.43056797981262207,
				-0.4192456007003784,
				-0.3866075277328491
			],
			[
				-0.5156400799751282,
				0.181253120303154,
				1.1995768547058105,
				1.0484683513641357,
				-0.5404479503631592,
				1.6030775308609009,
				1.4147377014160156,
				1.0322587490081787
			],
			[
				0.11352325230836868,
				0.2670934796333313,
				0.22600029408931732,
				-0.32994920015335083,
				-0.03719116747379303,
				-0.27361616492271423,
				0.19486913084983826,
				-1.0739649534225464
			],
			[
				-0.2245643138885498,
				0.4078042507171631,
				0.021460294723510742,
				0.004340529441833496,
				0.27513206005096436,
				0.49215877056121826,
				-0.019355177879333496,
				0.002483367919921875
			],
			[
				-0.2283099740743637,
				-0.3561610281467438,
				-0.2779105305671692,
				0.005218298174440861,
				-0.38477054238319397,
				0.17275221645832062,
				-0.01833103783428669,
				-1.080493450164795
			],
			[
				0.08164577186107635,
				0.3652275800704956,
				0.017368732020258904,
				0.07700749486684799,
				0.2110416144132614,
				0.6966333985328674,
				0.5176237225532532,
				0.06385024636983871
			],
			[
				0.36647963523864746,
				0.19674551486968994,
				0.7706174254417419,
				0.9170655012130737,
				0.0007215423975139856,
				0.7164953947067261,
				0.7958920001983643,
				0.6339874863624573
			]
		],
		"weight_2": -1,
		"weight_3": -2.3176820278167725,
		"weight_4": 2.3176820278167725,
		"weight_5": -0.5658519268035889,
		"weight_6": 7.289819240570068
	},
	"layer_3": {
		"weight_0": [
			0.5244731307029724,
			0.5240318775177002,
			0.5228087902069092,
			-0.06785721331834793
		],
		"weight_1": [
			[
				-0.406170129776001,
				-1.3081536293029785,
				-1.4227087497711182,
				0.563148558139801
			],
			[
				0.5020005702972412,
				-0.46728816628456116,
				-0.51148521900177,
				-0.3333541750907898
			],
			[
				0.7655667066574097,
				1.0755970478057861,
				0.6269577145576477,
				0.44278770685195923
			],
			[
				1.3466858863830566,
				0.8837911486625671,
				1.268435001373291,
				-0.5761208534240723
			],
			[
				0.5809515714645386,
				-0.18239140510559082,
				-0.4300937056541443,
				-0.24739371240139008
			],
			[
				0.364994615316391,
				0.8917639255523682,
				1.5885483026504517,
				-0.678881049156189
			],
			[
				0.9159007668495178,
				1.033880352973938,
				0.49556633830070496,
				0.3923289477825165
			],
			[
				1.0949146747589111,
				1.5172094106674194,
				1.751318097114563,
				-0.5673562288284302
			]
		],
		"weight_2": -1,
		"weight_3": -1.7517489194869995,
		"weight_4": 1.7517489194869995,
		"weight_5": -0.5658519268035889,
		"weight_6": 30.484926223754883
	},
	"layer_4": {
		"weight_0": [
			0.5203156471252441
		],
		"weight_1": [
			[
				1.2773181200027466
			],
			[
				1.4748423099517822
			],
			[
				1.893951416015625
			],
			[
				0.3682912588119507
			]
		],
		"weight_2": -1,
		"weight_3": -1.894129991531372,
		"weight_4": 1.894129991531372,
		"weight_5": -0.5658519268035889,
		"weight_6": 105.54352569580078
	}
}