{
	"layer_0": {
		"weight_0": 0.0,
		"weight_1": 1.0,
		"weight_2": -1
	},
	"layer_1": {
		"weight_0": [
			-0.04786772280931473,
			-0.5237263441085815,
			0.8497329950332642,
			0.7779115438461304,
			0.2609330713748932,
			1.1961694955825806,
			0.46706995368003845,
			0.153311088681221,
			0.2826465666294098,
			0.9404097199440002,
			-0.1834108680486679,
			0.333415150642395,
			0.0,
			0.03142791986465454,
			-0.31100553274154663,
			1.7083524465560913
		],
		"weight_1": [
			[
				-0.0647425502538681,
				1.0438456535339355,
				0.7381709218025208,
				0.7594249248504639,
				2.7742505073547363,
				1.7211432456970215,
				1.517066478729248,
				3.4650721549987793,
				-0.40113577246665955,
				-0.9513348340988159,
				0.23806501924991608,
				0.8045654296875,
				-0.37372761964797974,
				3.535902261734009,
				0.9662989974021912,
				0.017505237832665443
			],
			[
				0.041110359132289886,
				0.16077718138694763,
				-2.0054686069488525,
				-3.1957340240478516,
				-0.2807398736476898,
				2.2934999465942383,
				-0.3267378807067871,
				0.17220467329025269,
				2.9050240516662598,
				-0.3950253129005432,
				-0.460700660943985,
				-5.854507923126221,
				-0.3517923951148987,
				0.6731510758399963,
				0.16129495203495026,
				0.24104654788970947
			]
		],
		"weight_2": -1,
		"weight_3": -5.857150077819824,
		"weight_4": 5.857150077819824,
		"weight_5": -3.3394137455289297e-10,
		"weight_6": 4.946356773376465
	},
	"layer_2": {
		"weight_0": [
			0.5142908692359924,
			0.7358573079109192,
			0.0,
			0.0,
			0.4769262969493866,
			1.7249914407730103,
			0.4703507721424103,
			0.5268316268920898
		],
		"weight_1": [
			[
				-0.3510250449180603,
				-0.3346913456916809,
				-0.22303378582000732,
				0.25579583644866943,
				0.3374931216239929,
				-0.2984517216682434,
				-0.4478001296520233,
				-0.34646257758140564
			],
			[
				-2.059565305709839,
				-2.317462205886841,
				-0.05416584014892578,
				0.07766520977020264,
				-2.8000879287719727,
				-0.07689033448696136,
				-0.9634119272232056,
				-2.488590717315674
			],
			[
				1.4926257133483887,
				1.776354193687439,
				-0.3888814449310303,
				0.1191028356552124,
				1.3083497285842896,
				0.44310489296913147,
				1.3247510194778442,
				0.698181688785553
			],
			[
				1.2540748119354248,
				1.853523850440979,
				-0.024595141410827637,
				-0.17593610286712646,
				1.3476976156234741,
				0.8931896686553955,
				1.94461989402771,
				1.6801506280899048
			],
			[
				0.9843080043792725,
				1.2807490825653076,
				0.009299159049987793,
				-0.4156050682067871,
				0.45579367876052856,
				-2.256012201309204,
				0.46695491671562195,
				0.40386834740638733
			],
			[
				-0.648369312286377,
				0.3503618538379669,
				-0.4318728446960449,
				0.13868260383605957,
				0.2803610563278198,
				0.0037882875185459852,
				-1.350835919380188,
				0.2971106171607971
			],
			[
				0.37801581621170044,
				1.1049093008041382,
				-0.010866641998291016,
				-0.4943108558654785,
				0.2558720111846924,
				-0.4546617865562439,
				-0.23214232921600342,
				0.09247805178165436
			],
			[
				0.19740323722362518,
				0.8764867782592773,
				-0.3000774383544922,
				0.296250581741333,
				0.3354233503341675,
				-2.4355695247650146,
				-0.07150854170322418,
				0.5077213644981384
			],
			[
				-2.905348300933838,
				-0.8797587752342224,
				-0.2714576721191406,
				-0.08199965953826904,
				-0.44815918803215027,
				-0.04355618357658386,
				-4.45336389541626,
				-0.9518992900848389
			],
			[
				0.1796402633190155,
				-0.060661740601062775,
				-0.005125761032104492,
				0.018251538276672363,
				0.1654481291770935,
				0.31018704175949097,
				-0.10421214252710342,
				-0.11282665282487869
			],
			[
				-0.28687575459480286,
				0.14748796820640564,
				-0.09042882919311523,
				0.026330947875976562,
				0.12530145049095154,
				0.15859712660312653,
				-0.1736648678779602,
				-0.008542738854885101
			],
			[
				2.37450909614563,
				3.3115859031677246,
				-0.2860182523727417,
				-0.2049800157546997,
				2.6360204219818115,
				-1.1075981855392456,
				3.965142011642456,
				2.6657540798187256
			],
			[
				0.37249505519866943,
				-0.43515634536743164,
				-0.04359710216522217,
				0.26060330867767334,
				0.22514855861663818,
				-0.29370951652526855,
				0.32408106327056885,
				0.2778475284576416
			],
			[
				-0.036675576120615005,
				0.476837694644928,
				0.07560229301452637,
				-0.42886126041412354,
				0.26881086826324463,
				-2.415031671524048,
				0.19746260344982147,
				0.37606021761894226
			],
			[
				-2.382701873779297,
				-1.7511568069458008,
				-0.2136472463607788,
				-0.16412925720214844,
				-2.2320051193237305,
				0.09702847898006439,
				-2.1780378818511963,
				-2.204451560974121
			],
			[
				-0.028133559972047806,
				0.5914946794509888,
				-0.48145973682403564,
				-0.09965252876281738,
				-0.2109927386045456,
				0.6033380627632141,
				-0.2985338568687439,
				0.4333108961582184
			]
		],
		"weight_2": -1,
		"weight_3": -4.45336389541626,
		"weight_4": 4.45336389541626,
		"weight_5": -3.3394137455289297e-10,
		"weight_6": 14.381875038146973
	},
	"layer_3": {
		"weight_0": [
			0.4266965687274933,
			0.0,
			-0.08084876835346222,
			0.48376670479774475
		],
		"weight_1": [
			[
				2.2055253982543945,
				-0.5982562899589539,
				0.06811238825321198,
				1.7761776447296143
			],
			[
				1.1158459186553955,
				-0.46848514676094055,
				-0.2593826353549957,
				1.3903348445892334
			],
			[
				-0.6331552267074585,
				-0.040725648403167725,
				-0.5284714102745056,
				-0.3117285370826721
			],
			[
				-0.6066165566444397,
				-0.0011143684387207031,
				-0.5202015042304993,
				0.11362183094024658
			],
			[
				0.3372349143028259,
				-0.21569138765335083,
				-0.7459566593170166,
				0.8924516439437866
			],
			[
				-2.8853394985198975,
				-0.46864598989486694,
				0.26012104749679565,
				-3.7526698112487793
			],
			[
				5.515230178833008,
				0.13727986812591553,
				0.3614799976348877,
				5.938928127288818
			],
			[
				0.7626909613609314,
				0.5566858649253845,
				0.6120158433914185,
				1.2971041202545166
			]
		],
		"weight_2": -1,
		"weight_3": -5.938928127288818,
		"weight_4": 5.938928127288818,
		"weight_5": -3.3394137455289297e-10,
		"weight_6": 39.02875518798828
	},
	"layer_4": {
		"weight_0": [
			0.48559778928756714
		],
		"weight_1": [
			[
				1.9078704118728638
			],
			[
				1.0142276287078857
			],
			[
				-0.263073593378067
			],
			[
				2.1425085067749023
			]
		],
		"weight_2": -1,
		"weight_3": -2.1416423320770264,
		"weight_4": 2.1416423320770264,
		"weight_5": -3.3394137455289297e-10,
		"weight_6": 137.99392700195312
	}
}