{
	"layer_0": {
		"weight_0": [
			[
				0.39560943841934204,
				-0.4539140462875366,
				0.9941595792770386,
				0.9668994545936584,
				0.4315864145755768,
				0.340628057718277,
				1.0764553546905518,
				-0.2971172630786896,
				-0.032637059688568115,
				0.04913404956459999,
				0.20813430845737457,
				-0.09220746159553528,
				0.17014247179031372,
				-0.4741809368133545,
				0.972308337688446,
				-0.42235976457595825
			],
			[
				1.0282460451126099,
				-0.17737656831741333,
				0.7544733881950378,
				0.5799655914306641,
				1.0597283840179443,
				0.6729243397712708,
				1.0924136638641357,
				-0.1469419300556183,
				-0.5426834225654602,
				-0.2106456160545349,
				0.9505032300949097,
				-0.059574007987976074,
				-0.21233691275119781,
				-0.22950032353401184,
				0.8958501815795898,
				-0.2312820851802826
			]
		],
		"weight_1": [
			0.5523198843002319,
			0.0,
			0.6700403094291687,
			0.4398660957813263,
			0.6693764925003052,
			0.6998983025550842,
			0.5624639391899109,
			0.0,
			0.0,
			-0.023162806406617165,
			0.6806502938270569,
			0.0,
			-0.14710792899131775,
			0.0,
			0.5144160985946655,
			0.0
		]
	},
	"layer_1": {},
	"layer_2": {
		"weight_0": [
			[
				0.6068289875984192,
				0.32156428694725037,
				-0.01937606744468212,
				-0.2069551944732666,
				0.289789080619812,
				-0.3387677073478699,
				0.9380778074264526,
				-0.17758631706237793
			],
			[
				0.47497034072875977,
				-0.4120476245880127,
				-0.4002408981323242,
				0.46062636375427246,
				-0.21674776077270508,
				0.19924354553222656,
				-0.45303893089294434,
				0.030437707901000977
			],
			[
				1.1640832424163818,
				-0.33710339665412903,
				-0.4190535247325897,
				-0.16532456874847412,
				0.28655827045440674,
				0.03972511366009712,
				0.6531022191047668,
				0.0005266666412353516
			],
			[
				0.6826830506324768,
				-0.2422594279050827,
				0.0176161527633667,
				0.03390157222747803,
				0.11733432859182358,
				0.3332745432853699,
				0.33772343397140503,
				0.4916626214981079
			],
			[
				1.1690595149993896,
				-0.02970876917243004,
				-0.26601678133010864,
				-0.3708631992340088,
				-0.39901605248451233,
				0.2103242427110672,
				0.8400620222091675,
				0.3541170358657837
			],
			[
				1.1453139781951904,
				-0.1836727261543274,
				-0.20180729031562805,
				0.01849961280822754,
				0.2039751261472702,
				-0.2914905250072479,
				0.7275587916374207,
				-0.2988208532333374
			],
			[
				0.8874634504318237,
				0.1328258514404297,
				0.3304803967475891,
				0.1202542781829834,
				-0.03673849254846573,
				-0.46945852041244507,
				0.18439140915870667,
				-0.42849159240722656
			],
			[
				0.30767297744750977,
				0.34179162979125977,
				-0.013770699501037598,
				0.45430684089660645,
				0.10735559463500977,
				0.012317895889282227,
				-0.2426304817199707,
				0.49194788932800293
			],
			[
				0.3194236755371094,
				0.2149648666381836,
				-0.12497413158416748,
				-0.11356496810913086,
				-0.4769343137741089,
				-0.4225032329559326,
				0.3885335922241211,
				-0.3918870687484741
			],
			[
				-0.1537051647901535,
				-0.26439398527145386,
				-0.05987131595611572,
				-0.13478529453277588,
				0.4577944278717041,
				0.35477519035339355,
				0.4743807315826416,
				0.20022916793823242
			],
			[
				0.7874183654785156,
				-0.013364006765186787,
				-0.19923529028892517,
				0.2292882204055786,
				-0.41653013229370117,
				0.4088726043701172,
				1.0314314365386963,
				-0.46379292011260986
			],
			[
				0.49676764011383057,
				0.43675243854522705,
				-0.42647266387939453,
				0.09728646278381348,
				0.05076026916503906,
				-0.4243730306625366,
				-0.0006815195083618164,
				0.32519447803497314
			],
			[
				-0.28625330328941345,
				-0.3108125627040863,
				0.34193599224090576,
				-0.20555853843688965,
				-0.4080215096473694,
				-0.2928708791732788,
				0.1678335815668106,
				0.13239169120788574
			],
			[
				-0.4540140628814697,
				0.135778546333313,
				0.2999802827835083,
				-0.12886333465576172,
				-0.4701038599014282,
				0.0191270112991333,
				0.4948081970214844,
				-0.4526214599609375
			],
			[
				0.5301123261451721,
				0.20301806926727295,
				0.13128376007080078,
				-0.3326205015182495,
				-0.11128874123096466,
				0.04594186693429947,
				0.6264757513999939,
				-0.2960398197174072
			],
			[
				-0.31061887741088867,
				-0.18862617015838623,
				0.4338400363922119,
				0.21820425987243652,
				-0.3430814743041992,
				0.0032045841217041016,
				0.18097221851348877,
				0.09630203247070312
			]
		],
		"weight_1": [
			0.6633905172348022,
			-0.10195239633321762,
			-0.05972713604569435,
			0.0,
			-0.11638900637626648,
			-0.03838392347097397,
			0.6620838642120361,
			0.0
		]
	},
	"layer_3": {},
	"layer_4": {
		"weight_0": [
			[
				-0.43452364206314087,
				0.900932788848877,
				1.0041842460632324,
				-0.07107362896203995
			],
			[
				0.5413320064544678,
				-0.6613127589225769,
				-0.37268683314323425,
				-0.3031744062900543
			],
			[
				-0.010804258286952972,
				0.3790229260921478,
				-0.3862735629081726,
				0.6417552828788757
			],
			[
				0.08144575357437134,
				0.6860881447792053,
				0.15716594457626343,
				0.2324504852294922
			],
			[
				0.1793941706418991,
				-0.7845515608787537,
				-0.2731857895851135,
				0.48031899333000183
			],
			[
				-0.09168320894241333,
				0.4081736207008362,
				-0.1704055815935135,
				0.25019192695617676
			],
			[
				0.2177891731262207,
				0.25160202383995056,
				0.9534479975700378,
				-0.416898250579834
			],
			[
				0.25307613611221313,
				-0.15988034009933472,
				0.6730125546455383,
				-0.6307181119918823
			]
		],
		"weight_1": [
			-0.017306584864854813,
			0.45826253294944763,
			0.45448482036590576,
			-0.04779684916138649
		]
	},
	"layer_5": {},
	"layer_6": {
		"weight_0": [
			[
				-0.6218275427818298
			],
			[
				2.261108636856079
			],
			[
				2.809051752090454
			],
			[
				-0.3434526324272156
			]
		],
		"weight_1": [
			2.3494629859924316
		]
	}
}