{
	"layer_0": {
		"weight_0": 0.0,
		"weight_1": 1.0,
		"weight_2": -1
	},
	"layer_1": {
		"weight_0": [
			0.0,
			0.38443899154663086,
			0.4471511244773865,
			0.8609049916267395,
			0.5635672807693481,
			0.26566964387893677,
			0.0,
			0.0,
			1.072392463684082,
			0.0,
			0.019113752990961075,
			-0.04992187023162842,
			0.018483271822333336,
			0.8444620370864868,
			0.27129867672920227,
			0.3495955467224121
		],
		"weight_1": [
			[
				-0.48166269063949585,
				1.473546028137207,
				0.5567196607589722,
				1.0288995504379272,
				1.0162005424499512,
				-0.561633288860321,
				-0.1271701455116272,
				-0.3719334900379181,
				0.9726294875144958,
				-0.35240381956100464,
				2.0588018894195557,
				0.10346823185682297,
				3.270944833755493,
				0.5254905819892883,
				1.9600919485092163,
				1.7545768022537231
			],
			[
				-0.5383409261703491,
				-1.6226496696472168,
				-4.010766983032227,
				-0.836272656917572,
				3.583632707595825,
				3.0260655879974365,
				-0.14361268281936646,
				-0.4213758111000061,
				-0.5420209169387817,
				-0.02192479372024536,
				0.08468464761972427,
				-0.4344615936279297,
				0.294979989528656,
				-2.812443733215332,
				-4.028987407684326,
				0.7988153100013733
			]
		],
		"weight_2": -1,
		"weight_3": -4.029768943786621,
		"weight_4": 4.029768943786621,
		"weight_5": -3.365797281265259,
		"weight_6": 4.979336261749268
	},
	"layer_2": {
		"weight_0": -1,
		"weight_1": -3.3394137455289297e-10,
		"weight_2": 4.956231117248535
	},
	"layer_3": {
		"weight_0": [
			0.8347330093383789,
			0.9450258612632751,
			0.6140072345733643,
			0.6771073341369629,
			0.31819021701812744,
			0.0,
			-1.2537589073181152,
			1.506812572479248
		],
		"weight_1": [
			[
				-0.18058502674102783,
				0.23240065574645996,
				-0.4936889410018921,
				-0.26017022132873535,
				0.002672910690307617,
				-0.060840606689453125,
				-0.39069628715515137,
				-0.060312747955322266
			],
			[
				0.7110821604728699,
				0.29378223419189453,
				-0.21377180516719818,
				1.1543720960617065,
				0.3595629632472992,
				-0.46910738945007324,
				0.038828179240226746,
				1.4405814409255981
			],
			[
				4.041423320770264,
				3.612825870513916,
				0.3879777789115906,
				3.9669973850250244,
				1.9336786270141602,
				0.13386249542236328,
				-0.6562657356262207,
				4.227362632751465
			],
			[
				0.855939507484436,
				0.22279280424118042,
				0.507917582988739,
				0.47898995876312256,
				0.5096988081932068,
				0.42736387252807617,
				-0.18349114060401917,
				1.7298346757888794
			],
			[
				0.28670352697372437,
				0.5936933755874634,
				-0.37221527099609375,
				0.11969918012619019,
				-1.870843768119812,
				-0.3932006359100342,
				-0.04953158646821976,
				0.33075082302093506
			],
			[
				-0.31956949830055237,
				-0.7797618508338928,
				0.845818042755127,
				-0.9810103178024292,
				-4.03415060043335,
				-0.25092530250549316,
				-0.27420276403427124,
				-1.652177333831787
			],
			[
				0.4940134286880493,
				-0.41091203689575195,
				-0.2196211814880371,
				0.4376615285873413,
				-0.3809407949447632,
				0.30892348289489746,
				-0.21035981178283691,
				0.11224973201751709
			],
			[
				-0.11108136177062988,
				-0.3448305130004883,
				-0.3754192590713501,
				-0.26983094215393066,
				0.3592097759246826,
				-0.4443233013153076,
				0.21400117874145508,
				-0.007938981056213379
			],
			[
				0.9923768043518066,
				0.9392812252044678,
				0.6690881848335266,
				0.8607020378112793,
				0.4880830645561218,
				-0.2003777027130127,
				-0.4735262393951416,
				1.8096904754638672
			],
			[
				0.06135404109954834,
				0.4935516119003296,
				-0.25252485275268555,
				-0.3744924068450928,
				-0.25377559661865234,
				-0.4689518213272095,
				0.07576823234558105,
				0.23185086250305176
			],
			[
				0.6736564636230469,
				0.35018861293792725,
				-2.3039379119873047,
				0.4930981695652008,
				0.21974125504493713,
				0.11651623249053955,
				0.744660496711731,
				1.2415828704833984
			],
			[
				0.06695583462715149,
				-0.03719675540924072,
				0.2310994416475296,
				-0.16783598065376282,
				0.36244210600852966,
				-0.2142266035079956,
				-0.29426348209381104,
				0.19328056275844574
			],
			[
				0.45219534635543823,
				-0.0024399857502430677,
				-3.9527225494384766,
				0.29009315371513367,
				-0.07024481147527695,
				-0.3850818872451782,
				0.7229037284851074,
				0.5034427642822266
			],
			[
				1.4192849397659302,
				1.6263630390167236,
				0.9617406129837036,
				1.957166314125061,
				0.813011646270752,
				0.46193015575408936,
				-0.8099775314331055,
				2.615055561065674
			],
			[
				1.4622725248336792,
				0.6590147614479065,
				-0.3556761145591736,
				1.0341734886169434,
				0.9852124452590942,
				-0.3342949151992798,
				1.3326717615127563,
				2.072749614715576
			],
			[
				0.09255754202604294,
				-0.23175716400146484,
				-0.18494854867458344,
				0.6128604412078857,
				-0.591266930103302,
				-0.4138582944869995,
				0.26067739725112915,
				1.0775483846664429
			]
		],
		"weight_2": -1,
		"weight_3": -4.226993560791016,
		"weight_4": 4.226993560791016,
		"weight_5": -20.409210205078125,
		"weight_6": 22.7392520904541
	},
	"layer_4": {
		"weight_0": -1,
		"weight_1": -3.3394137455289297e-10,
		"weight_2": 22.26309585571289
	},
	"layer_5": {
		"weight_0": [
			0.8127146363258362,
			-0.15268398821353912,
			-0.0031622773967683315,
			0.012842397205531597
		],
		"weight_1": [
			[
				1.5677464008331299,
				-0.33029165863990784,
				-0.348694771528244,
				0.17861181497573853
			],
			[
				1.038923740386963,
				0.002636247780174017,
				0.14461128413677216,
				0.27589261531829834
			],
			[
				-2.099932909011841,
				2.2304165363311768,
				-0.6002088785171509,
				2.2863433361053467
			],
			[
				1.5842199325561523,
				-0.1987111121416092,
				0.3101678490638733,
				-0.828048050403595
			],
			[
				3.968770980834961,
				-3.174584150314331,
				-0.6419814825057983,
				-3.3997654914855957
			],
			[
				0.4802934527397156,
				0.08431023359298706,
				-0.5691990852355957,
				0.07480829954147339
			],
			[
				-1.848437786102295,
				1.4904885292053223,
				-0.006153358146548271,
				0.8791840672492981
			],
			[
				1.1725832223892212,
				0.5463966727256775,
				-0.10435248911380768,
				0.4506676495075226
			]
		],
		"weight_2": -1,
		"weight_3": -3.968770980834961,
		"weight_4": 3.968770980834961,
		"weight_5": -1.738337755203247,
		"weight_6": 71.4566421508789
	},
	"layer_6": {
		"weight_0": -1,
		"weight_1": -3.3394137455289297e-10,
		"weight_2": 69.85511016845703
	},
	"layer_7": {
		"weight_0": [
			1.0194045305252075
		],
		"weight_1": [
			[
				2.4657957553863525
			],
			[
				-2.4320240020751953
			],
			[
				-0.8497262001037598
			],
			[
				-2.932060480117798
			]
		],
		"weight_2": -1,
		"weight_3": -2.933509588241577,
		"weight_4": 2.933509588241577,
		"weight_5": -0.07677105814218521,
		"weight_6": 141.67010498046875
	}
}