{
	"layer_0": {
		"weight_0": [
			[
				0.8844386339187622,
				-0.698760986328125,
				0.4616010785102844,
				1.126766562461853,
				-4.553667068481445,
				0.5835530757904053,
				0.6250702142715454,
				-0.23079919815063477,
				4.020676612854004,
				1.9104079008102417,
				0.21621036529541016,
				0.23500174283981323,
				-0.10876151919364929,
				0.9238702058792114,
				0.5719833970069885,
				0.5556672215461731
			],
			[
				-0.4965549111366272,
				-0.6014431715011597,
				-2.254852294921875,
				-0.33826255798339844,
				-1.0362707376480103,
				-5.3168487548828125,
				-5.721359729766846,
				-0.19477057456970215,
				0.14472025632858276,
				-0.4127477705478668,
				-0.527152955532074,
				-1.209020972251892,
				-0.2989461123943329,
				-0.3852727711200714,
				-4.2251152992248535,
				-3.069286823272705
			]
		],
		"weight_1": [
			0.5086262822151184,
			1.2454558610916138,
			0.6115253567695618,
			0.34439367055892944,
			1.2587873935699463,
			0.17476369440555573,
			0.1227540671825409,
			0.0,
			0.28259989619255066,
			0.44987043738365173,
			-0.14650151133537292,
			0.6367391347885132,
			0.0,
			0.5002731680870056,
			0.2750774323940277,
			0.39693570137023926
		]
	},
	"layer_1": {},
	"layer_2": {
		"weight_0": [
			[
				0.5774326920509338,
				1.114122986793518,
				0.19173632562160492,
				-0.4886120557785034,
				1.1160857677459717,
				-0.5059221982955933,
				0.024329859763383865,
				-0.3356970548629761
			],
			[
				1.400172233581543,
				0.27945345640182495,
				0.10447324067354202,
				-0.28531062602996826,
				0.14974258840084076,
				0.6609023809432983,
				-1.4258372783660889,
				0.2209453582763672
			],
			[
				1.4765257835388184,
				1.784825325012207,
				-0.4264296591281891,
				0.19522607326507568,
				1.2293615341186523,
				1.3428306579589844,
				0.6864685416221619,
				0.43492376804351807
			],
			[
				0.18821300566196442,
				0.3149317502975464,
				0.23203358054161072,
				0.14936697483062744,
				0.29611432552337646,
				-0.6463949680328369,
				0.3464095890522003,
				-0.3414098024368286
			],
			[
				-0.13559219241142273,
				-1.2215209007263184,
				-0.10911861062049866,
				-0.13644146919250488,
				-0.5086132287979126,
				0.9329172372817993,
				-0.5957452654838562,
				-0.4124464988708496
			],
			[
				3.923651695251465,
				4.154214859008789,
				-0.031139492988586426,
				-0.3771088123321533,
				4.258365154266357,
				0.26700344681739807,
				1.6431605815887451,
				-0.30947887897491455
			],
			[
				4.355228424072266,
				4.237626075744629,
				0.19417046010494232,
				-0.2357853651046753,
				4.631799221038818,
				-0.9644420742988586,
				2.1149182319641113,
				-0.09608685970306396
			],
			[
				-0.2287062406539917,
				-0.49924027919769287,
				-0.007678627967834473,
				0.2571679353713989,
				0.28201305866241455,
				-0.056894898414611816,
				0.49152040481567383,
				-0.2470874786376953
			],
			[
				-0.12764830887317657,
				0.32239633798599243,
				0.1278260052204132,
				-0.2263582944869995,
				0.1802762746810913,
				-2.428377866744995,
				0.5207403302192688,
				-0.2227102518081665
			],
			[
				0.3897126615047455,
				0.5738106966018677,
				-0.4760894179344177,
				-0.4147326946258545,
				0.7338040471076965,
				-1.4629870653152466,
				-0.014389643445611,
				-0.20797979831695557
			],
			[
				0.21620656549930573,
				-0.3935593366622925,
				-0.41368216276168823,
				-0.17664706707000732,
				-0.18081551790237427,
				-0.10736021399497986,
				-0.029685288667678833,
				-0.3675950765609741
			],
			[
				0.8705762028694153,
				0.9262976050376892,
				-0.1747259944677353,
				0.4708811044692993,
				1.031714916229248,
				0.2214507758617401,
				-0.9289079308509827,
				-0.28773820400238037
			],
			[
				0.2569535970687866,
				-0.1371244192123413,
				0.40200865268707275,
				-0.29292476177215576,
				0.43820691108703613,
				-0.1806555986404419,
				0.05091571807861328,
				-0.3907897472381592
			],
			[
				0.7460874915122986,
				0.01893606409430504,
				-0.01764458417892456,
				0.06390440464019775,
				0.16129085421562195,
				-0.5496614575386047,
				0.21480467915534973,
				-0.14157021045684814
			],
			[
				2.6723227500915527,
				3.7238810062408447,
				0.09486620873212814,
				0.19932150840759277,
				3.1754908561706543,
				-0.053236961364746094,
				1.543534278869629,
				0.1882261037826538
			],
			[
				1.5932775735855103,
				2.472893238067627,
				0.2754756510257721,
				-0.13217687606811523,
				2.6606295108795166,
				0.7544745206832886,
				1.1842323541641235,
				-0.17355716228485107
			]
		],
		"weight_1": [
			0.9532645344734192,
			0.22417445480823517,
			-0.11774641275405884,
			0.0,
			0.34963104128837585,
			0.636589765548706,
			-0.5312483310699463,
			0.0
		]
	},
	"layer_3": {},
	"layer_4": {
		"weight_0": [
			[
				1.4006822109222412,
				-0.31415367126464844,
				0.5869817733764648,
				0.900108814239502
			],
			[
				2.2123804092407227,
				-0.5227979421615601,
				-0.6092550754547119,
				2.133326292037964
			],
			[
				-0.3854488134384155,
				-0.08195918053388596,
				-0.361284464597702,
				0.703212559223175
			],
			[
				-0.5719084739685059,
				-0.5883664488792419,
				-0.39566516876220703,
				0.6465746760368347
			],
			[
				2.0464611053466797,
				-0.1534387320280075,
				-0.18270936608314514,
				1.5809293985366821
			],
			[
				-2.8981130123138428,
				0.4763423502445221,
				2.95477032661438,
				-3.4469223022460938
			],
			[
				-2.589576482772827,
				-0.0684005469083786,
				-0.1939147561788559,
				-1.537022590637207
			],
			[
				-0.0656195878982544,
				0.15815603733062744,
				0.2414180040359497,
				-0.11876815557479858
			]
		],
		"weight_1": [
			0.4070435166358948,
			-0.0056030466221272945,
			1.571211814880371,
			0.4090977907180786
		]
	},
	"layer_5": {},
	"layer_6": {
		"weight_0": [
			[
				2.049877643585205
			],
			[
				-0.9538359045982361
			],
			[
				-4.160952091217041
			],
			[
				1.7587441205978394
			]
		],
		"weight_1": [
			0.3973259925842285
		]
	}
}