{
	"layer_0": {
		"weight_0": [
			[
				4.500631809234619,
				-0.4629676342010498,
				-0.1854345202445984,
				0.39224711060523987,
				1.630197525024414,
				-0.3931128978729248,
				1.0461534261703491,
				2.257951498031616,
				-0.5588381290435791,
				0.38819360733032227,
				8.780616760253906,
				-0.5113838911056519,
				-0.39160794019699097,
				-0.2795868515968323,
				-0.505313515663147,
				3.659392833709717
			],
			[
				0.5881742835044861,
				-0.41766858100891113,
				-0.4561503231525421,
				-3.27053165435791,
				-0.8702806234359741,
				-0.3011910617351532,
				-8.945908546447754,
				-0.10942672193050385,
				-0.388465940952301,
				-1.833574652671814,
				-0.3128740191459656,
				-0.5332316160202026,
				-0.17544448375701904,
				-0.2813723385334015,
				-0.03046780824661255,
				-0.11562056094408035
			]
		],
		"weight_1": [
			0.057452492415905,
			0.0,
			0.0,
			0.48691192269325256,
			0.39759302139282227,
			0.0,
			0.34213024377822876,
			0.018021512776613235,
			0.0,
			0.6384886503219604,
			0.6369271278381348,
			0.0,
			0.0,
			0.0,
			0.0,
			0.10198747366666794
		]
	},
	"layer_1": {
		"weight_0": [
			[
				0.24057665467262268,
				1.6211769580841064,
				0.745829164981842,
				1.0303287506103516,
				0.8960505127906799,
				0.4661066234111786,
				0.33101630210876465,
				-0.38431841135025024
			],
			[
				0.26351332664489746,
				0.2501072883605957,
				0.44027137756347656,
				0.2008875608444214,
				-0.13378381729125977,
				0.04126286506652832,
				-0.08271563053131104,
				0.08138012886047363
			],
			[
				0.16260802745819092,
				0.2951153516769409,
				-0.17971718311309814,
				0.08409440517425537,
				-0.3951464891433716,
				0.4658064842224121,
				0.022036194801330566,
				-0.39054203033447266
			],
			[
				2.2799112796783447,
				-2.4912302494049072,
				1.6232545375823975,
				2.2622954845428467,
				1.5754367113113403,
				1.9892244338989258,
				0.8329221606254578,
				-0.10054970532655716
			],
			[
				0.7054640650749207,
				-0.26780933141708374,
				1.0485650300979614,
				0.6418896913528442,
				0.6410916447639465,
				0.6744351983070374,
				-1.1649523973464966,
				-0.3568538427352905
			],
			[
				-0.035061001777648926,
				0.21627283096313477,
				-0.33119678497314453,
				-0.256087064743042,
				0.18227362632751465,
				0.47051358222961426,
				-0.2585374116897583,
				0.48600447177886963
			],
			[
				6.972445487976074,
				3.0095019340515137,
				6.338298320770264,
				6.856329917907715,
				6.285304069519043,
				7.071011066436768,
				3.5903685092926025,
				-0.21666309237480164
			],
			[
				1.0526760816574097,
				0.06613116711378098,
				0.8876520991325378,
				0.7942862510681152,
				0.8216798305511475,
				1.0272448062896729,
				0.7656976580619812,
				-0.4311397671699524
			],
			[
				0.0720757246017456,
				0.4265875816345215,
				0.22856473922729492,
				0.23515355587005615,
				-0.37091612815856934,
				0.12550508975982666,
				0.41928648948669434,
				-0.4587167501449585
			],
			[
				0.3318270742893219,
				-2.4127390384674072,
				-0.22163335978984833,
				0.2960796356201172,
				0.04462222009897232,
				-0.20300564169883728,
				-0.8661320805549622,
				0.4598954916000366
			],
			[
				0.619968593120575,
				1.449020504951477,
				1.1210379600524902,
				1.1751066446304321,
				0.741019070148468,
				1.1550495624542236,
				0.2474137395620346,
				-0.08908718824386597
			],
			[
				0.20963668823242188,
				-0.09963452816009521,
				0.41166067123413086,
				0.04818928241729736,
				0.33452868461608887,
				-0.22249507904052734,
				-0.20553243160247803,
				-0.004481673240661621
			],
			[
				0.26730573177337646,
				0.26959526538848877,
				-0.10325992107391357,
				-0.36394035816192627,
				-0.01269221305847168,
				-0.2568490505218506,
				0.20217680931091309,
				0.06439566612243652
			],
			[
				-0.3774144649505615,
				0.30569541454315186,
				-0.4182438850402832,
				-0.3383667469024658,
				-0.10887205600738525,
				-0.10432910919189453,
				0.4835019111633301,
				-0.06755423545837402
			],
			[
				0.041469454765319824,
				0.13513731956481934,
				0.13402390480041504,
				0.09083640575408936,
				-0.42856764793395996,
				-0.41887903213500977,
				-0.473476767539978,
				0.16627228260040283
			],
			[
				1.3774631023406982,
				1.0714679956436157,
				1.6247234344482422,
				0.853629469871521,
				1.5469563007354736,
				0.9180173873901367,
				0.619425892829895,
				-0.38009214401245117
			]
		],
		"weight_1": [
			-0.363982230424881,
			-2.3144707679748535,
			-0.6175863146781921,
			-0.5738100409507751,
			-0.6311615109443665,
			-0.557033121585846,
			-2.1628334522247314,
			-0.02529819682240486
		]
	},
	"layer_2": {
		"weight_0": [
			[
				0.2434360384941101,
				1.3262403011322021,
				-0.3845982551574707,
				-0.5671523213386536
			],
			[
				-0.2573418915271759,
				-5.1615824699401855,
				0.3117617964744568,
				0.3593701124191284
			],
			[
				0.5186403393745422,
				1.8820693492889404,
				0.13652139902114868,
				0.3272239863872528
			],
			[
				-0.13737036287784576,
				1.8387659788131714,
				-0.6964594721794128,
				-0.5847373604774475
			],
			[
				-0.054623670876026154,
				1.3172043561935425,
				-0.6422275900840759,
				0.3348981738090515
			],
			[
				-0.7005228400230408,
				1.888757586479187,
				0.13637065887451172,
				-0.28485673666000366
			],
			[
				-0.417639821767807,
				-4.2163262367248535,
				-0.4912894368171692,
				0.2706102132797241
			],
			[
				-0.42069026827812195,
				0.12151966989040375,
				-0.18622416257858276,
				-0.1747189164161682
			]
		],
		"weight_1": [
			-0.05757186561822891,
			-0.5511163473129272,
			0.0,
			-0.043794237077236176
		]
	},
	"layer_3": {
		"weight_0": [
			[
				-0.5851197242736816
			],
			[
				2.521620512008667
			],
			[
				-0.9018375873565674
			],
			[
				-0.600472629070282
			]
		],
		"weight_1": [
			-0.5424709916114807
		]
	}
}