{
	"layer_0": {
		"weight_0": [
			[
				-0.47905227541923523,
				0.005860327742993832,
				0.7307549715042114,
				-0.047659337520599365,
				-0.2244510054588318,
				0.18880359828472137,
				-0.2232855260372162,
				1.0853924751281738,
				1.1250368356704712,
				1.2098009586334229,
				1.161786437034607,
				-0.05610626935958862,
				1.04838228225708,
				1.1399750709533691,
				0.5709166526794434,
				1.3875612020492554
			],
			[
				-0.17543306946754456,
				-0.23081433773040771,
				-1.046133279800415,
				-0.5497925281524658,
				-0.29890176653862,
				-0.5626967549324036,
				-0.47127196192741394,
				-0.11366192996501923,
				0.10121680051088333,
				-0.5778757333755493,
				-0.4429294764995575,
				-0.2598074972629547,
				-0.29633674025535583,
				-0.9133826494216919,
				0.021173208951950073,
				0.1639673262834549
			]
		],
		"weight_1": [
			0.0,
			-0.003162269713357091,
			0.33846336603164673,
			0.0,
			0.0,
			-0.11118984967470169,
			0.0,
			0.26210546493530273,
			0.19428545236587524,
			0.349785715341568,
			0.3082939088344574,
			0.0,
			0.25174176692962646,
			0.3018125295639038,
			0.25494828820228577,
			0.20189201831817627
		]
	},
	"layer_1": {},
	"layer_2": {
		"weight_0": [
			[
				-0.27090466022491455,
				0.27073514461517334,
				-0.15309393405914307,
				0.17675673961639404,
				0.4265986680984497,
				-0.34977400302886963,
				0.04468262195587158,
				-0.3503549098968506
			],
			[
				0.482261061668396,
				-0.14680242538452148,
				-0.04652030020952225,
				-0.2826550006866455,
				-0.43428272008895874,
				0.33290326595306396,
				0.02998284623026848,
				0.4603312909603119
			],
			[
				0.13948506116867065,
				-0.274558424949646,
				0.7050948739051819,
				-0.47143009305000305,
				0.5166093707084656,
				0.7066758275032043,
				1.1376166343688965,
				0.9993410110473633
			],
			[
				-0.189336895942688,
				-0.24225032329559326,
				-0.42304539680480957,
				0.10652565956115723,
				-0.2139662504196167,
				-0.1809380054473877,
				-0.3957645893096924,
				0.19553375244140625
			],
			[
				0.4513981342315674,
				-0.48334765434265137,
				-0.23103117942810059,
				0.4860696792602539,
				-0.21326124668121338,
				0.0017096996307373047,
				-0.029134035110473633,
				-0.058768272399902344
			],
			[
				0.3399069607257843,
				0.4507465064525604,
				-0.3560827076435089,
				0.3694937229156494,
				0.14762550592422485,
				-0.2675536572933197,
				-0.10945424437522888,
				-0.18332630395889282
			],
			[
				0.4106789827346802,
				0.2565488815307617,
				0.3138577938079834,
				-0.25631964206695557,
				-0.22885596752166748,
				-0.0716543197631836,
				-0.45704829692840576,
				0.34116828441619873
			],
			[
				0.056163039058446884,
				-0.3698144257068634,
				0.3379191756248474,
				0.20176775753498077,
				0.483038067817688,
				0.3909010589122772,
				0.21084584295749664,
				0.3987100124359131
			],
			[
				0.09092725813388824,
				0.6741191148757935,
				0.34848058223724365,
				0.18828487396240234,
				-0.19752560555934906,
				0.061720043420791626,
				0.4232375919818878,
				0.3770894408226013
			],
			[
				-0.1921180635690689,
				-0.5095904469490051,
				0.40169697999954224,
				-0.22409768402576447,
				0.40193018317222595,
				0.4751649796962738,
				0.7525429725646973,
				0.873808741569519
			],
			[
				-0.44489580392837524,
				0.06718495488166809,
				0.657368540763855,
				-0.4823891222476959,
				0.42016157507896423,
				0.30861973762512207,
				0.8590492606163025,
				0.23972614109516144
			],
			[
				-0.0880734920501709,
				0.030769824981689453,
				-0.2900015115737915,
				-0.14369571208953857,
				-0.4639091491699219,
				0.2670954465866089,
				-0.43292295932769775,
				-0.011421799659729004
			],
			[
				-0.39003875851631165,
				0.1502869725227356,
				0.7569524645805359,
				-0.21166539192199707,
				0.4630259871482849,
				0.548007071018219,
				0.712963879108429,
				0.6744728088378906
			],
			[
				0.3955881893634796,
				-0.18612901866436005,
				0.6419434547424316,
				0.29899516701698303,
				1.014472484588623,
				0.19425652921199799,
				0.9782798290252686,
				0.3139583170413971
			],
			[
				0.2292199581861496,
				0.6271173357963562,
				0.560438334941864,
				-0.5968511700630188,
				-0.2812339961528778,
				-0.3543508052825928,
				0.6213233470916748,
				0.14332111179828644
			],
			[
				-0.07883228361606598,
				0.2474908083677292,
				0.1383054256439209,
				0.3100443482398987,
				0.33212748169898987,
				-0.5347736477851868,
				0.17317035794258118,
				-0.1308622509241104
			]
		],
		"weight_1": [
			0.09403295069932938,
			0.0811758041381836,
			0.26255497336387634,
			-0.15841558575630188,
			0.22173160314559937,
			-0.01520131342113018,
			0.24679350852966309,
			0.2485051155090332
		]
	},
	"layer_3": {},
	"layer_4": {
		"weight_0": [
			[
				-0.7849829792976379,
				0.14266227185726166,
				-0.3087606430053711,
				-0.14006391167640686
			],
			[
				-0.6965257525444031,
				0.5562724471092224,
				-0.9673228859901428,
				-0.4259134829044342
			],
			[
				0.6164492964744568,
				-0.03261943906545639,
				0.31989067792892456,
				0.7568344473838806
			],
			[
				-0.20985740423202515,
				-0.00449287099763751,
				-0.15118177235126495,
				-0.6396383047103882
			],
			[
				0.8487175703048706,
				0.21936358511447906,
				0.7473004460334778,
				0.44053909182548523
			],
			[
				0.8783073425292969,
				0.026383861899375916,
				-0.1788993626832962,
				0.19253455102443695
			],
			[
				0.7074362635612488,
				-0.08853784948587418,
				1.1155163049697876,
				0.92751544713974
			],
			[
				0.3321758210659027,
				-0.6804633140563965,
				0.740071713924408,
				0.7384554743766785
			]
		],
		"weight_1": [
			0.2443525195121765,
			-0.02051413804292679,
			0.21374154090881348,
			0.22032487392425537
		]
	},
	"layer_5": {},
	"layer_6": {
		"weight_0": [
			[
				2.788347005844116
			],
			[
				-0.586155354976654
			],
			[
				3.313636302947998
			],
			[
				2.3254780769348145
			]
		],
		"weight_1": [
			2.3317716121673584
		]
	}
}