{
	"layer_0": {
		"weight_0": 0.0,
		"weight_1": 1.0,
		"weight_2": -1
	},
	"layer_1": {
		"weight_0": [
			0.0,
			0.21542134881019592,
			0.6675799489021301,
			0.699694812297821,
			0.0,
			0.0,
			0.0026711199898272753,
			1.3541182279586792,
			0.9111949801445007,
			-0.0031622694805264473,
			0.3935752213001251,
			0.9908921122550964,
			0.0,
			0.0,
			-0.026284661144018173,
			-0.018803942948579788
		],
		"weight_1": [
			[
				-0.3716663122177124,
				1.798196792602539,
				0.4661038815975189,
				0.3626437783241272,
				-0.37952741980552673,
				-0.3996027112007141,
				4.557352066040039,
				0.25809940695762634,
				2.358971357345581,
				0.006202368065714836,
				0.8877699375152588,
				0.29404202103614807,
				-0.4887186884880066,
				-0.5280206799507141,
				-0.13883426785469055,
				-0.07980120927095413
			],
			[
				-0.45398521423339844,
				-13.156827926635742,
				-4.378645896911621,
				-2.8051576614379883,
				-0.0965210497379303,
				-0.5259683132171631,
				0.05186697840690613,
				-1.971401333808899,
				-1.370581030845642,
				-0.10342863202095032,
				-6.628726959228516,
				-2.3693666458129883,
				-0.27190250158309937,
				-0.048529863357543945,
				0.020643191412091255,
				0.018652593716979027
			]
		],
		"weight_2": -1,
		"weight_3": -13.156827926635742,
		"weight_4": 13.156827926635742,
		"weight_5": -1.0344233678196528e-30,
		"weight_6": 4.518831253051758
	},
	"layer_2": {
		"weight_0": [
			0.6718785762786865,
			0.7991653680801392,
			0.039796821773052216,
			1.4948008060455322,
			0.18971078097820282,
			0.29862722754478455,
			0.6581785678863525,
			0.546222448348999
		],
		"weight_1": [
			[
				0.32311737537384033,
				0.3824958801269531,
				0.23024427890777588,
				-0.4531090259552002,
				-0.3730062246322632,
				-0.008905291557312012,
				-0.2628437280654907,
				-0.29016876220703125
			],
			[
				1.1796607971191406,
				3.4045205116271973,
				0.1597500592470169,
				2.15844464302063,
				3.1378462314605713,
				0.6375758647918701,
				-3.077920436859131,
				3.5071818828582764
			],
			[
				0.2091907113790512,
				1.7238599061965942,
				0.7465704679489136,
				1.311216950416565,
				1.8899017572402954,
				-0.9031227827072144,
				-0.036533813923597336,
				1.6656516790390015
			],
			[
				0.028121167793869972,
				0.7525885105133057,
				-0.13282543420791626,
				1.1134544610977173,
				1.1343622207641602,
				-0.08617881685495377,
				0.6819782257080078,
				1.3250356912612915
			],
			[
				0.24202239513397217,
				0.19876492023468018,
				0.3630712032318115,
				-0.18586742877960205,
				0.1554410457611084,
				0.4077645540237427,
				0.32938694953918457,
				-0.00744175910949707
			],
			[
				0.16903924942016602,
				-0.3738245964050293,
				0.18717432022094727,
				0.29691994190216064,
				0.20136630535125732,
				0.44905006885528564,
				0.43605875968933105,
				-0.001882791519165039
			],
			[
				-0.5354633927345276,
				0.032133325934410095,
				-7.937909126281738,
				-0.6018121242523193,
				0.5079492926597595,
				1.7122671604156494,
				-1.4562381505966187,
				1.5319771766662598
			],
			[
				-0.035196203738451004,
				0.11847388744354248,
				0.5893493294715881,
				1.3891960382461548,
				-0.3435715138912201,
				0.21844737231731415,
				0.8428053259849548,
				0.25637903809547424
			],
			[
				0.5504082441329956,
				0.3086225390434265,
				-0.5213989019393921,
				1.1692861318588257,
				-0.21674351394176483,
				0.29445868730545044,
				-0.37087908387184143,
				1.365002155303955
			],
			[
				-0.3236014246940613,
				0.21334946155548096,
				0.4701821804046631,
				-0.4273129403591156,
				-0.20638692378997803,
				-0.10779917240142822,
				-0.16677236557006836,
				0.10133494436740875
			],
			[
				-0.7342969179153442,
				2.093395709991455,
				1.5385913848876953,
				1.173276662826538,
				2.66377329826355,
				-0.8778160214424133,
				-1.6737741231918335,
				2.429769277572632
			],
			[
				0.5253942608833313,
				1.242580533027649,
				0.2771035432815552,
				1.338756799697876,
				0.4547121524810791,
				0.06925048679113388,
				0.4890151619911194,
				0.6278990507125854
			],
			[
				-0.011692047119140625,
				-0.4730217456817627,
				-0.34807538986206055,
				-0.13070440292358398,
				0.2786470651626587,
				0.09056615829467773,
				0.4682224988937378,
				0.15791618824005127
			],
			[
				0.46023428440093994,
				-0.09902608394622803,
				-0.19125068187713623,
				0.1807093620300293,
				-0.22160065174102783,
				0.26346874237060547,
				-0.4003249406814575,
				0.11413431167602539
			],
			[
				0.171957865357399,
				-0.35670360922813416,
				0.3619163930416107,
				-0.4325157701969147,
				0.08720535784959793,
				0.4112076759338379,
				0.22016656398773193,
				0.15092648565769196
			],
			[
				0.10429195314645767,
				-0.346679151058197,
				-0.05347112938761711,
				-0.2309074103832245,
				-0.037164509296417236,
				0.12733261287212372,
				-0.02971780300140381,
				0.21261580288410187
			]
		],
		"weight_2": -1,
		"weight_3": -7.937909126281738,
		"weight_4": 7.937909126281738,
		"weight_5": -1.0344233678196528e-30,
		"weight_6": 13.480181694030762
	},
	"layer_3": {
		"weight_0": [
			1.5151729583740234,
			0.9451574683189392,
			-1.8823447227478027,
			-0.2860569357872009
		],
		"weight_1": [
			[
				0.7066106796264648,
				1.1975899934768677,
				1.340076208114624,
				0.15137866139411926
			],
			[
				-0.1367442011833191,
				1.5529757738113403,
				0.2210364043712616,
				0.12718133628368378
			],
			[
				2.874746322631836,
				-2.6431994438171387,
				-0.801375687122345,
				3.057391405105591
			],
			[
				0.9053334593772888,
				2.2235262393951416,
				-0.5914741158485413,
				0.6464106440544128
			],
			[
				-0.8452717065811157,
				1.3849365711212158,
				0.8019956946372986,
				0.12724463641643524
			],
			[
				-0.3168308734893799,
				-0.022299425676465034,
				0.506965696811676,
				-3.96893048286438
			],
			[
				1.1622737646102905,
				-2.312554121017456,
				-1.1805000305175781,
				3.3629214763641357
			],
			[
				-0.48414066433906555,
				1.475093960762024,
				-0.14101579785346985,
				-0.6396793723106384
			]
		],
		"weight_2": -1,
		"weight_3": -3.96893048286438,
		"weight_4": 3.96893048286438,
		"weight_5": -1.0344233678196528e-30,
		"weight_6": 50.289127349853516
	},
	"layer_4": {
		"weight_0": [
			1.4961408376693726
		],
		"weight_1": [
			[
				-3.2639877796173096
			],
			[
				2.7929351329803467
			],
			[
				-3.99975323677063
			],
			[
				-3.1181039810180664
			]
		],
		"weight_2": -1,
		"weight_3": -3.99975323677063,
		"weight_4": 3.99975323677063,
		"weight_5": -0.14005517959594727,
		"weight_6": 135.2770538330078
	}
}