{
	"layer_0": {
		"weight_0": [
			[
				0.37891659140586853,
				0.27243080735206604,
				0.1734919548034668,
				-0.12938839197158813,
				-0.1590709537267685,
				0.08621595054864883,
				0.18630461394786835,
				-0.39788129925727844,
				0.5744145512580872,
				-0.48689770698547363,
				-0.17239567637443542,
				0.2598252296447754,
				-0.12668530642986298,
				0.3421989381313324,
				-0.4793013036251068,
				-0.09638413786888123
			],
			[
				-0.1704145222902298,
				-0.5795935392379761,
				0.4591185450553894,
				-0.2022828757762909,
				0.38423800468444824,
				-0.31763941049575806,
				0.3847987949848175,
				0.5921159386634827,
				-0.5464975833892822,
				-0.09418880939483643,
				-0.4057270884513855,
				0.08091927319765091,
				0.45776697993278503,
				0.04098234325647354,
				-0.45769888162612915,
				0.15178625285625458
			]
		],
		"weight_1": [
			-0.031824469566345215,
			-0.03319349139928818,
			-0.030258215963840485,
			0.0,
			0.03556089475750923,
			0.03421621397137642,
			0.03447332978248596,
			0.03594015911221504,
			0.012601920403540134,
			0.0,
			0.0,
			-0.00385463354177773,
			-0.03128446638584137,
			0.007167515344917774,
			0.0,
			-0.031748414039611816
		]
	},
	"layer_1": {},
	"layer_2": {
		"weight_0": [
			[
				0.23518723249435425,
				-0.011670827865600586,
				-0.3325902223587036,
				-0.16064605116844177,
				0.13508261740207672,
				0.3026212453842163,
				0.15295438468456268,
				-0.13661350309848785
			],
			[
				0.3998887538909912,
				0.22078776359558105,
				-0.20827306807041168,
				-0.399660587310791,
				-0.3531433641910553,
				0.46730682253837585,
				0.1793464720249176,
				0.15987873077392578
			],
			[
				0.4260496497154236,
				-0.4634988307952881,
				0.371707946062088,
				-0.42303988337516785,
				-0.26156777143478394,
				0.27084991335868835,
				0.45049938559532166,
				0.33431515097618103
			],
			[
				0.4085536003112793,
				-0.45698511600494385,
				-0.32035231590270996,
				0.430192232131958,
				0.23065173625946045,
				-0.4130368232727051,
				0.13024091720581055,
				0.4873896837234497
			],
			[
				-0.12540613114833832,
				0.2613614797592163,
				-0.1978132128715515,
				0.014928407035768032,
				-0.04783792048692703,
				-0.16968348622322083,
				-0.35858166217803955,
				-0.1933118849992752
			],
			[
				-0.4523734748363495,
				0.4429734945297241,
				0.5089395642280579,
				-0.3300940990447998,
				0.3936179280281067,
				-0.03225035220384598,
				-0.4706733822822571,
				-0.22434327006340027
			],
			[
				-0.24936337769031525,
				0.08233177661895752,
				0.2921261191368103,
				0.2708137333393097,
				-0.34361058473587036,
				0.4940202534198761,
				0.18396610021591187,
				0.02045631967484951
			],
			[
				-0.26900753378868103,
				-0.3537527322769165,
				-0.17740030586719513,
				0.027798037976026535,
				-0.14734089374542236,
				0.3701530992984772,
				-0.29742631316185,
				-0.30009371042251587
			],
			[
				0.0761842206120491,
				0.13724911212921143,
				0.44863176345825195,
				-0.3624095916748047,
				0.16071559488773346,
				0.14938616752624512,
				-0.24696114659309387,
				-0.31742796301841736
			],
			[
				0.10452783107757568,
				-0.03815758228302002,
				-0.3670119047164917,
				-0.2067246437072754,
				0.005020260810852051,
				-0.3157767057418823,
				-0.2501283884048462,
				-0.09588265419006348
			],
			[
				0.22686421871185303,
				0.3515580892562866,
				0.2957315444946289,
				-0.1570652723312378,
				-0.09430515766143799,
				-0.3917207717895508,
				0.1597222089767456,
				0.2216120958328247
			],
			[
				0.2250189483165741,
				-0.06209874153137207,
				-0.04864984378218651,
				-0.16601157188415527,
				0.1835615485906601,
				0.1840686947107315,
				-0.11915915459394455,
				0.23188096284866333
			],
			[
				0.36461326479911804,
				-0.3756319284439087,
				0.32902130484580994,
				0.28863370418548584,
				0.008564786054193974,
				-0.05760034918785095,
				0.4011073708534241,
				0.21333155035972595
			],
			[
				-0.1782185286283493,
				-0.20204567909240723,
				-0.024058833718299866,
				-0.3229650855064392,
				0.3941875696182251,
				0.15764740109443665,
				0.22729556262493134,
				0.10807831585407257
			],
			[
				0.48236846923828125,
				-0.4879932403564453,
				-0.16056430339813232,
				0.20237863063812256,
				-0.2114337682723999,
				0.3173365592956543,
				-0.3621683120727539,
				0.4747638702392578
			],
			[
				0.2713474631309509,
				-0.3209151029586792,
				-0.3827667236328125,
				-0.007350940722972155,
				-0.14564228057861328,
				-0.4417498707771301,
				-0.3411635756492615,
				-0.3264974057674408
			]
		],
		"weight_1": [
			-0.03218400478363037,
			0.0,
			-0.017270030453801155,
			-0.025318779051303864,
			-0.011478356085717678,
			0.0317230150103569,
			-0.03156314417719841,
			0.036634884774684906
		]
	},
	"layer_3": {},
	"layer_4": {
		"weight_0": [
			[
				-0.5163477659225464,
				0.12317198514938354,
				0.3054371476173401,
				0.6314846277236938
			],
			[
				-0.2054675817489624,
				-0.0284574031829834,
				-0.6735794544219971,
				-0.1688482165336609
			],
			[
				-0.5878947377204895,
				-0.32539913058280945,
				0.6087356805801392,
				-0.48491784930229187
			],
			[
				0.5659050345420837,
				0.5782817006111145,
				-0.22747324407100677,
				0.36210137605667114
			],
			[
				0.6242603659629822,
				-0.47495096921920776,
				0.425820916891098,
				-0.15889319777488708
			],
			[
				-0.2766573131084442,
				-0.6963605284690857,
				-0.6283741593360901,
				0.12525957822799683
			],
			[
				0.028641164302825928,
				0.22006875276565552,
				0.6126036047935486,
				0.27184268832206726
			],
			[
				0.6174548268318176,
				0.4900328516960144,
				-0.030884884297847748,
				-0.3504858911037445
			]
		],
		"weight_1": [
			0.0,
			0.0,
			-0.031403783708810806,
			-0.03294314071536064
		]
	},
	"layer_5": {},
	"layer_6": {
		"weight_0": [
			[
				0.29518353939056396
			],
			[
				0.3834480047225952
			],
			[
				-0.2752712666988373
			],
			[
				-0.26783785223960876
			]
		],
		"weight_1": [
			2.363402843475342
		]
	}
}