{
	"layer_0": {
		"weight_0": [
			[
				0.6648456454277039,
				1.0422130823135376,
				0.049397364258766174,
				0.8314858675003052,
				-0.5290712714195251,
				-0.28849920630455017,
				0.6930227875709534,
				-0.7768821120262146,
				0.945917010307312,
				0.7001668214797974,
				0.4444607198238373,
				-0.11966085433959961,
				0.5604104995727539,
				-0.08197268843650818,
				0.4310126006603241,
				0.6732305288314819
			],
			[
				0.4173120856285095,
				0.05990332365036011,
				-0.07092470675706863,
				0.18100322782993317,
				0.12341458350419998,
				-0.5054428577423096,
				0.5541534423828125,
				0.3125443160533905,
				0.19371014833450317,
				0.17818790674209595,
				0.7434335350990295,
				-0.3624453544616699,
				0.8784026503562927,
				-0.08696392178535461,
				0.5650843381881714,
				0.48564955592155457
			]
		],
		"weight_1": [
			0.5063796639442444,
			0.5131240487098694,
			-0.044316742569208145,
			0.4875430762767792,
			0.009158212691545486,
			0.0,
			0.5143332481384277,
			0.006356275640428066,
			0.5350884795188904,
			0.5106528997421265,
			0.5698909759521484,
			0.0,
			0.5652164220809937,
			0.0,
			0.5709376335144043,
			0.48774802684783936
		]
	},
	"layer_1": {},
	"layer_2": {
		"weight_0": [
			[
				-0.08013927936553955,
				0.4877808094024658,
				0.5990659594535828,
				-0.010093160904943943,
				-0.29857131838798523,
				0.39467543363571167,
				-0.1246703565120697,
				-0.25254935026168823
			],
			[
				-0.26222050189971924,
				0.45887482166290283,
				0.6010445356369019,
				0.0916312038898468,
				-0.41634050011634827,
				0.2902793288230896,
				0.15501545369625092,
				0.05868331342935562
			],
			[
				0.4739542007446289,
				-0.4359852969646454,
				0.09371203929185867,
				0.37105125188827515,
				-0.2594532370567322,
				-0.29923656582832336,
				-0.44030705094337463,
				0.295035719871521
			],
			[
				-0.05988907814025879,
				0.5911622643470764,
				0.5349752902984619,
				0.38108912110328674,
				0.30844613909721375,
				0.34174880385398865,
				-0.11979604512453079,
				-0.2801968455314636
			],
			[
				0.23871293663978577,
				-0.08365528285503387,
				-0.40540611743927,
				-0.15144221484661102,
				-0.03383338451385498,
				-0.4173533320426941,
				-0.3755612373352051,
				0.1703268438577652
			],
			[
				0.18526828289031982,
				-0.45638811588287354,
				-0.44757509231567383,
				-0.39428138732910156,
				-0.10151076316833496,
				0.34757721424102783,
				-0.275423526763916,
				0.038596272468566895
			],
			[
				-0.5059199333190918,
				0.5450000166893005,
				0.9152014255523682,
				0.40497732162475586,
				0.058051493018865585,
				0.22582432627677917,
				0.26302316784858704,
				0.41449829936027527
			],
			[
				0.14967675507068634,
				-0.30355772376060486,
				-0.38892537355422974,
				-0.525327742099762,
				0.581136167049408,
				-0.027009956538677216,
				-0.347609281539917,
				0.13369514048099518
			],
			[
				-0.13459324836730957,
				0.2988572120666504,
				0.7421457767486572,
				-0.1434188336133957,
				-0.0024237348698079586,
				-0.5393140316009521,
				-0.15180911123752594,
				-0.3146288990974426
			],
			[
				-0.13992607593536377,
				0.739790141582489,
				0.11015650629997253,
				0.337552547454834,
				0.22841551899909973,
				-0.07622019201517105,
				-0.07470846176147461,
				0.35371583700180054
			],
			[
				0.2195892632007599,
				0.3798493444919586,
				1.0171087980270386,
				0.23311066627502441,
				-0.22587008774280548,
				-0.3075026273727417,
				-0.4448073208332062,
				0.011508937925100327
			],
			[
				0.005620121955871582,
				0.13885140419006348,
				0.0851285457611084,
				-0.2073155641555786,
				0.03327000141143799,
				-0.26484501361846924,
				0.337638258934021,
				0.42973971366882324
			],
			[
				0.0812203660607338,
				0.9376206398010254,
				0.9275738596916199,
				0.2162696123123169,
				0.034699276089668274,
				0.2587694525718689,
				0.24028389155864716,
				-0.4594900608062744
			],
			[
				0.044899821281433105,
				-0.478456974029541,
				0.4254809617996216,
				-0.3395742177963257,
				-0.2080240249633789,
				-0.27802038192749023,
				0.14427411556243896,
				-0.12097573280334473
			],
			[
				-0.20067764818668365,
				0.4227612316608429,
				0.7846385836601257,
				-0.24358609318733215,
				0.25535500049591064,
				-0.5193029642105103,
				0.2496473491191864,
				0.4005433917045593
			],
			[
				-0.3939237594604492,
				0.7550576329231262,
				0.1402931809425354,
				0.5312945246696472,
				0.1887626349925995,
				-0.42763254046440125,
				-0.37885236740112305,
				0.12235502153635025
			]
		],
		"weight_1": [
			-0.04041606932878494,
			0.516853928565979,
			0.5620378851890564,
			0.04726767539978027,
			-0.07595083117485046,
			-0.04605840519070625,
			-0.03442112356424332,
			-0.036866724491119385
		]
	},
	"layer_3": {},
	"layer_4": {
		"weight_0": [
			[
				-0.3563738167285919,
				0.016558773815631866,
				-0.30914515256881714,
				0.08424485474824905
			],
			[
				0.12410201132297516,
				-0.5333343148231506,
				1.1204962730407715,
				0.8153621554374695
			],
			[
				1.1810487508773804,
				-0.16130304336547852,
				0.6463214159011841,
				0.7418727874755859
			],
			[
				0.4061938226222992,
				-0.5692014098167419,
				-0.4739462435245514,
				0.19059155881404877
			],
			[
				-0.217068150639534,
				0.276374876499176,
				0.1841093897819519,
				-0.4834755063056946
			],
			[
				-0.4021014869213104,
				-0.6924378275871277,
				-0.512596070766449,
				-0.18581345677375793
			],
			[
				0.024960968643426895,
				-0.3892173767089844,
				0.028938407078385353,
				-0.09194134920835495
			],
			[
				-0.4401681423187256,
				-0.448030948638916,
				0.15805718302726746,
				-0.6155412197113037
			]
		],
		"weight_1": [
			0.5012710094451904,
			0.004735921509563923,
			0.46940597891807556,
			0.4871179163455963
		]
	},
	"layer_5": {},
	"layer_6": {
		"weight_0": [
			[
				2.27488374710083
			],
			[
				0.4558744430541992
			],
			[
				3.180093765258789
			],
			[
				2.9913899898529053
			]
		],
		"weight_1": [
			2.2828218936920166
		]
	}
}