{
	"layer_0": {
		"weight_0": [
			[
				-0.5769404172897339,
				-0.5647526979446411,
				0.532603919506073,
				0.4144933819770813,
				0.015745148062705994,
				0.6350302696228027,
				0.5347040891647339,
				0.7630642056465149,
				0.05464094132184982,
				-0.19065383076667786,
				0.5625317096710205,
				0.597317099571228,
				1.0968247652053833,
				0.8222575783729553,
				0.955734372138977,
				0.22395169734954834
			],
			[
				0.007980067282915115,
				-0.5535915493965149,
				-0.2481120079755783,
				-1.6117676496505737,
				-0.41842061281204224,
				-1.42372465133667,
				-1.8155193328857422,
				-0.5834445953369141,
				-0.4719284474849701,
				0.0012749854940921068,
				-0.8910507559776306,
				-0.2746540904045105,
				-0.5973306894302368,
				-0.25448527932167053,
				-0.4243469834327698,
				-0.4139214754104614
			]
		],
		"weight_1": [
			-0.0106740090996027,
			0.0,
			0.48008567094802856,
			0.3229331970214844,
			0.43565693497657776,
			0.31248489022254944,
			0.32815438508987427,
			0.5146954655647278,
			-0.006324543617665768,
			-0.005530129186809063,
			0.4201461672782898,
			0.4705811142921448,
			0.5168898701667786,
			0.4800245463848114,
			0.3886988162994385,
			0.5029494166374207
		]
	},
	"layer_1": {
		"weight_0": [
			[
				-0.2594676613807678,
				-0.4697204530239105,
				0.28898918628692627,
				0.2996440827846527,
				-0.036905527114868164,
				-0.15312454104423523,
				0.3190407454967499,
				-0.46563076972961426
			],
			[
				-0.4577103853225708,
				-0.4710092544555664,
				0.19353604316711426,
				0.017281651496887207,
				-0.004651784896850586,
				0.036180853843688965,
				-0.15444016456604004,
				-0.41199278831481934
			],
			[
				0.25984707474708557,
				0.1351747214794159,
				-0.5157981514930725,
				0.5771123170852661,
				0.15538634359836578,
				0.5547136068344116,
				0.5811863541603088,
				0.33775508403778076
			],
			[
				-0.23639783263206482,
				1.325721025466919,
				1.5575300455093384,
				1.2284578084945679,
				0.18689262866973877,
				1.7717784643173218,
				1.4109055995941162,
				1.8218504190444946
			],
			[
				0.40803444385528564,
				0.6428338885307312,
				-0.007373904809355736,
				-0.050969988107681274,
				-0.42682522535324097,
				0.16834154725074768,
				0.39901265501976013,
				0.3283255994319916
			],
			[
				0.07822204381227493,
				1.5199015140533447,
				1.0863869190216064,
				0.7297172546386719,
				-0.2657533884048462,
				0.7357427477836609,
				1.146222472190857,
				1.5272772312164307
			],
			[
				0.3837866485118866,
				1.804616928100586,
				1.5843864679336548,
				2.067431688308716,
				0.16684651374816895,
				1.3951417207717896,
				1.6658074855804443,
				1.458986520767212
			],
			[
				0.0842096209526062,
				1.2256022691726685,
				0.7750687599182129,
				1.1087861061096191,
				-0.2928348779678345,
				0.6677132248878479,
				1.0064481496810913,
				0.5993724465370178
			],
			[
				-0.19588300585746765,
				0.47249841690063477,
				0.45005229115486145,
				0.10872577875852585,
				-0.08811426162719727,
				-0.4177353084087372,
				0.21725520491600037,
				-0.1479853391647339
			],
			[
				0.20772428810596466,
				-0.25513511896133423,
				-0.23333585262298584,
				0.11979539692401886,
				0.08168590068817139,
				-0.18464972078800201,
				-0.43650978803634644,
				-0.01920258440077305
			],
			[
				-0.0609259158372879,
				0.6580116152763367,
				0.8950188159942627,
				1.269927740097046,
				-0.18144440650939941,
				0.898677408695221,
				0.9856333136558533,
				1.2110339403152466
			],
			[
				-0.041669491678476334,
				0.6010994911193848,
				0.10711277276277542,
				-0.10890716314315796,
				-0.13152466714382172,
				0.2066584974527359,
				-0.18190504610538483,
				0.5045142769813538
			],
			[
				-0.006521951872855425,
				0.623590350151062,
				0.3956642150878906,
				0.5001159906387329,
				-0.04565536975860596,
				1.2429686784744263,
				1.1793954372406006,
				0.44158944487571716
			],
			[
				-0.5373549461364746,
				0.5135563015937805,
				0.1569414883852005,
				0.6607699990272522,
				0.029962079599499702,
				0.5342706441879272,
				-0.08147457987070084,
				0.4177272915840149
			],
			[
				0.02344851940870285,
				0.13674074411392212,
				0.28324094414711,
				0.3968377411365509,
				-0.3293118476867676,
				0.7357958555221558,
				0.636726975440979,
				0.30532991886138916
			],
			[
				-0.0986480712890625,
				0.18794207274913788,
				0.15130122005939484,
				-0.0025880862958729267,
				-0.0666113793849945,
				0.5868647694587708,
				0.44520923495292664,
				0.7266117930412292
			]
		],
		"weight_1": [
			-0.08659841865301132,
			0.47330617904663086,
			0.22783374786376953,
			0.47246676683425903,
			-0.009486626833677292,
			0.47053712606430054,
			0.47198814153671265,
			0.47432076930999756
		]
	},
	"layer_2": {
		"weight_0": [
			[
				-0.47700202465057373,
				-0.13050538301467896,
				0.15727069973945618,
				-0.2043900340795517
			],
			[
				0.9433443546295166,
				-0.41751712560653687,
				0.2859509289264679,
				1.1726443767547607
			],
			[
				1.535517930984497,
				-0.41225752234458923,
				0.2958076298236847,
				0.7723250389099121
			],
			[
				1.3759071826934814,
				-0.5448243618011475,
				-0.7133121490478516,
				1.1987123489379883
			],
			[
				0.036658432334661484,
				0.39780527353286743,
				-0.27813395857810974,
				0.05516505986452103
			],
			[
				1.0700619220733643,
				0.07717776298522949,
				0.21987728774547577,
				1.2618166208267212
			],
			[
				0.3148353695869446,
				0.049127399921417236,
				-0.4705106317996979,
				1.0131614208221436
			],
			[
				0.8809261918067932,
				-0.4175715744495392,
				-0.03906552493572235,
				1.372268795967102
			]
		],
		"weight_1": [
			0.47565117478370667,
			0.0,
			-0.012876126915216446,
			0.46249422430992126
		]
	},
	"layer_3": {
		"weight_0": [
			[
				0.9556759595870972
			],
			[
				-0.8541721701622009
			],
			[
				-0.2511868476867676
			],
			[
				1.7928688526153564
			]
		],
		"weight_1": [
			0.45913025736808777
		]
	}
}