{
	"layer_0": {
		"weight_0": [
			[
				-0.27266839146614075,
				-0.2865634262561798,
				0.07114905118942261,
				-0.07661261409521103,
				-0.033651452511548996,
				0.5144924521446228,
				0.45385420322418213,
				0.3200789988040924,
				-0.34352919459342957,
				0.2646870017051697,
				-0.0244612917304039,
				0.2943265736103058,
				0.569103479385376,
				-0.1319371461868286,
				-0.5694029927253723,
				-0.34172961115837097
			],
			[
				0.08574242144823074,
				-0.5498302578926086,
				-0.32621628046035767,
				0.12365606427192688,
				0.22212868928909302,
				0.3051542341709137,
				-0.4700365662574768,
				-0.09673258662223816,
				-0.12185254693031311,
				0.24478404223918915,
				0.381788432598114,
				0.5092292428016663,
				-0.20327505469322205,
				-0.1597522795200348,
				-0.02541893720626831,
				0.35218462347984314
			]
		],
		"weight_1": [
			-0.007428669836372137,
			0.0,
			0.0,
			0.0002739959745667875,
			-0.002602947875857353,
			0.0032410123385488987,
			0.0,
			0.003162190318107605,
			0.0,
			0.005962583236396313,
			-0.003136974759399891,
			-0.0007589993765577674,
			0.0,
			0.0,
			0.0,
			-0.007870709523558617
		]
	},
	"layer_1": {
		"weight_0": [
			[
				0.28385818004608154,
				0.21408534049987793,
				-0.29914605617523193,
				0.07556358724832535,
				0.07884858548641205,
				-0.04721629619598389,
				-0.47704216837882996,
				0.20860815048217773
			],
			[
				-0.15329229831695557,
				-0.3523995876312256,
				-0.44625556468963623,
				0.13164162635803223,
				-0.14727783203125,
				-0.24224519729614258,
				-0.1821655035018921,
				-0.07324516773223877
			],
			[
				-0.29454636573791504,
				0.16260027885437012,
				0.053788185119628906,
				-0.055440545082092285,
				0.3928483724594116,
				-0.39705705642700195,
				-0.32810258865356445,
				-0.21159887313842773
			],
			[
				-0.21124577522277832,
				0.4796234369277954,
				-0.12964269518852234,
				0.3316260278224945,
				0.4063659608364105,
				0.4051699638366699,
				-0.4957798719406128,
				0.3614605665206909
			],
			[
				0.29863691329956055,
				-0.30695879459381104,
				-0.19478517770767212,
				-0.09606859087944031,
				-0.3658770024776459,
				0.3697468042373657,
				0.020650779828429222,
				0.15415549278259277
			],
			[
				-0.07267391681671143,
				-0.04829227924346924,
				0.2079450786113739,
				0.4622345268726349,
				-0.16623829305171967,
				-0.12313079833984375,
				-0.16001944243907928,
				-0.41490888595581055
			],
			[
				-0.08573591709136963,
				0.3005797863006592,
				-0.09560227394104004,
				-0.307989239692688,
				-0.17294049263000488,
				0.17555856704711914,
				0.4942445755004883,
				-0.26870763301849365
			],
			[
				0.0336228609085083,
				0.012975096702575684,
				-0.13248401880264282,
				-0.01373516209423542,
				-0.3361619710922241,
				-0.36845433712005615,
				-0.12038911879062653,
				-0.027559757232666016
			],
			[
				-0.16938960552215576,
				0.3711812496185303,
				0.06233477592468262,
				0.03210747241973877,
				0.10927152633666992,
				0.3545759916305542,
				0.26936864852905273,
				0.43978750705718994
			],
			[
				-0.19328272342681885,
				-0.16135060787200928,
				0.29017403721809387,
				0.12854906916618347,
				-0.12043120712041855,
				-0.24720335006713867,
				-0.02149469219148159,
				-0.4824495315551758
			],
			[
				0.020770907402038574,
				-0.4170107841491699,
				-0.13254952430725098,
				0.01841585710644722,
				0.25116926431655884,
				-0.23454129695892334,
				0.44329309463500977,
				-0.15605735778808594
			],
			[
				-0.3776589632034302,
				-0.15374386310577393,
				0.30737194418907166,
				-0.4349437355995178,
				0.16499145328998566,
				-0.37156832218170166,
				0.3385753929615021,
				-0.4514148235321045
			],
			[
				0.290718674659729,
				0.4490150213241577,
				0.29748547077178955,
				-0.43576204776763916,
				-0.218880295753479,
				-0.280226469039917,
				-0.17793500423431396,
				0.3381866216659546
			],
			[
				-0.30729830265045166,
				-0.31715524196624756,
				-0.33942437171936035,
				0.0930565595626831,
				0.38332295417785645,
				0.22591745853424072,
				-0.40321242809295654,
				-0.42826926708221436
			],
			[
				0.4795866012573242,
				0.39170968532562256,
				-0.011047601699829102,
				0.06040537357330322,
				-0.19754362106323242,
				-0.0011082887649536133,
				0.13900482654571533,
				0.43554723262786865
			],
			[
				-0.05095517635345459,
				0.14802944660186768,
				-0.211350679397583,
				0.48778828978538513,
				0.42168664932250977,
				0.06395018100738525,
				-0.13367965817451477,
				-0.2468022108078003
			]
		],
		"weight_1": [
			0.0,
			0.0,
			0.009563182480633259,
			0.002247563563287258,
			-0.009416175074875355,
			0.0,
			-0.0019953246228396893,
			0.0
		]
	},
	"layer_2": {
		"weight_0": [
			[
				0.6299375891685486,
				-0.5589547157287598,
				-0.16709941625595093,
				0.40721529722213745
			],
			[
				-0.003995537757873535,
				0.5331231951713562,
				0.06705582141876221,
				-0.3329939842224121
			],
			[
				-0.3845917284488678,
				-0.5984166264533997,
				-0.5569878816604614,
				-0.049655668437480927
			],
			[
				-0.32393577694892883,
				0.06035780906677246,
				0.19543766975402832,
				0.22019731998443604
			],
			[
				0.11392902582883835,
				-0.01672452688217163,
				0.31613442301750183,
				0.06263766437768936
			],
			[
				-0.27876126766204834,
				0.2721772789955139,
				-0.6028452515602112,
				0.15545493364334106
			],
			[
				0.4430159628391266,
				-0.1998920440673828,
				-0.4237906336784363,
				-0.34785789251327515
			],
			[
				-0.21053782105445862,
				0.23428136110305786,
				-0.523795485496521,
				-0.6051759719848633
			]
		],
		"weight_1": [
			-0.008307110518217087,
			0.0,
			-0.003988069947808981,
			-0.006319110747426748
		]
	},
	"layer_3": {
		"weight_0": [
			[
				-0.3005252778530121
			],
			[
				-0.29079246520996094
			],
			[
				-0.6087205410003662
			],
			[
				-0.9637464880943298
			]
		],
		"weight_1": [
			2.3638916015625
		]
	}
}