{
	"layer_0": {
		"weight_0": [
			[
				0.9050635099411011,
				-4.627421855926514,
				1.3888194561004639,
				-0.06760525703430176,
				2.191899538040161,
				0.08297973871231079,
				1.1824142932891846,
				0.3724031150341034,
				-0.10506130009889603,
				0.7998764514923096,
				0.07631562650203705,
				0.8250547647476196,
				0.8242583274841309,
				1.297241449356079,
				-0.006590795237571001,
				-0.36718273162841797
			],
			[
				-0.3081341087818146,
				0.17020459473133087,
				0.2861243784427643,
				-0.3867074251174927,
				1.1528489589691162,
				0.00204038736410439,
				-1.217551827430725,
				0.06509583443403244,
				3.6759259700775146,
				-0.22124533355236053,
				-0.07370350509881973,
				0.06917010247707367,
				-1.2190459966659546,
				-4.474747180938721,
				3.7802066802978516,
				-0.27408576011657715
			]
		],
		"weight_1": [
			0.9738054275512695,
			0.9558785557746887,
			0.9005866646766663,
			0.0,
			1.0063117742538452,
			-0.08801973611116409,
			1.1703487634658813,
			0.8596001863479614,
			0.04489899426698685,
			0.9704128503799438,
			-0.07016979157924652,
			0.9537979960441589,
			1.1906745433807373,
			0.8833629488945007,
			0.04253428801894188,
			0.0
		]
	},
	"layer_1": {
		"weight_0": [
			[
				0.43031519651412964,
				0.2662818431854248,
				0.7157434225082397,
				0.04346334934234619,
				0.2534802258014679,
				-0.34967684745788574,
				0.0937732458114624,
				0.29986685514450073
			],
			[
				-3.866429090499878,
				-2.756514072418213,
				-4.953292369842529,
				-0.44625306129455566,
				-0.21294689178466797,
				0.28623342514038086,
				-0.10557818412780762,
				0.11662521958351135
			],
			[
				0.8178042769432068,
				-0.15923109650611877,
				0.9182581305503845,
				-0.46079063415527344,
				0.09880353510379791,
				-0.07682216167449951,
				-0.39034533500671387,
				-0.26498788595199585
			],
			[
				-0.267600417137146,
				0.18299925327301025,
				0.29015934467315674,
				0.215659499168396,
				0.23986029624938965,
				-0.16943812370300293,
				-0.1003035306930542,
				-0.3514735698699951
			],
			[
				0.33320552110671997,
				-0.4473781883716583,
				1.135353446006775,
				0.2416454553604126,
				-0.19198690354824066,
				-0.44184601306915283,
				-0.25578367710113525,
				0.08794025331735611
			],
			[
				-0.41943269968032837,
				-0.44147902727127075,
				-0.10443134605884552,
				-0.40009796619415283,
				-0.0008834433974698186,
				-0.4478721618652344,
				0.44831395149230957,
				-0.11759282648563385
			],
			[
				0.23798958957195282,
				0.7479056119918823,
				0.6802048683166504,
				-0.36690378189086914,
				0.1290646344423294,
				0.2598409652709961,
				0.3148742914199829,
				-0.21717700362205505
			],
			[
				0.840380847454071,
				-0.022074684500694275,
				0.38145145773887634,
				0.4259462356567383,
				0.1280057430267334,
				0.20741772651672363,
				-0.29091334342956543,
				-0.08473312854766846
			],
			[
				-0.9823417067527771,
				-3.9622654914855957,
				-0.13682948052883148,
				-0.18814754486083984,
				-0.022368021309375763,
				-0.16943025588989258,
				-0.2764134407043457,
				0.12901671230793
			],
			[
				0.5122583508491516,
				0.28068238496780396,
				0.766063392162323,
				-0.33202826976776123,
				-0.25200918316841125,
				-0.1489659547805786,
				-0.2821040153503418,
				0.22595621645450592
			],
			[
				-0.21159903705120087,
				0.21051423251628876,
				-0.00221056304872036,
				-0.18910253047943115,
				0.18198394775390625,
				0.35310661792755127,
				-0.23995888233184814,
				-0.4203524589538574
			],
			[
				0.301286518573761,
				0.05280371010303497,
				0.9197495579719543,
				-0.4052155017852783,
				-0.12295345962047577,
				-0.3201124668121338,
				-0.01216888427734375,
				-0.4622155427932739
			],
			[
				0.9966726303100586,
				1.115051507949829,
				1.5486711263656616,
				-0.1627347469329834,
				-0.10784392803907394,
				0.49897193908691406,
				0.0240476131439209,
				-0.1589963436126709
			],
			[
				3.4260313510894775,
				1.3152097463607788,
				3.1872003078460693,
				0.20408999919891357,
				-0.04065036401152611,
				-0.2993745803833008,
				-0.435461163520813,
				0.1992805004119873
			],
			[
				-1.062214732170105,
				-4.234618663787842,
				-0.017420707270503044,
				-0.21645712852478027,
				-0.29265421628952026,
				-0.18890869617462158,
				0.07266569137573242,
				-0.39738017320632935
			],
			[
				-0.033308982849121094,
				-0.1074291467666626,
				-0.29956793785095215,
				0.3906933069229126,
				-0.1804713010787964,
				-0.17618775367736816,
				0.46797335147857666,
				-0.29954349994659424
			]
		],
		"weight_1": [
			0.8250678181648254,
			1.167941689491272,
			1.3393670320510864,
			0.0,
			-0.01916566677391529,
			0.0,
			0.0,
			-0.00626851711422205
		]
	},
	"layer_2": {
		"weight_0": [
			[
				-0.34611567854881287,
				-0.5821420550346375,
				1.8198310136795044,
				0.09621657431125641
			],
			[
				0.5193164944648743,
				-0.15286153554916382,
				3.0493903160095215,
				-1.715938687324524
			],
			[
				-0.08522753417491913,
				-0.6843449473381042,
				1.817501187324524,
				0.4061557650566101
			],
			[
				-0.12898856401443481,
				-0.20061779022216797,
				0.043135762214660645,
				0.14440232515335083
			],
			[
				-0.08533373475074768,
				0.6928840279579163,
				-0.011822368018329144,
				0.03859420493245125
			],
			[
				0.011763036251068115,
				0.003410518169403076,
				-0.4851287603378296,
				0.010201871395111084
			],
			[
				-0.3602525293827057,
				0.6784316897392273,
				0.18925535678863525,
				-0.03769409656524658
			],
			[
				0.6267241835594177,
				0.49087029695510864,
				-0.4899697005748749,
				0.6412668228149414
			]
		],
		"weight_1": [
			-0.0988001674413681,
			0.0,
			0.9980273842811584,
			0.17302292585372925
		]
	},
	"layer_3": {
		"weight_0": [
			[
				-0.3261364996433258
			],
			[
				-0.2398255467414856
			],
			[
				2.4425559043884277
			],
			[
				-2.5199623107910156
			]
		],
		"weight_1": [
			1.0016576051712036
		]
	}
}