{
	"layer_0": {
		"weight_0": [
			[
				-0.2531805634498596,
				-0.1607612669467926,
				-0.04671025276184082,
				0.498124897480011,
				-0.3971134126186371,
				0.46165257692337036,
				0.16352325677871704,
				-0.4435717463493347,
				0.3943963944911957,
				0.016675906255841255,
				0.30276766419410706,
				0.16275832056999207,
				0.5211708545684814,
				-0.3416121304035187,
				0.008402450010180473,
				0.17869751155376434
			],
			[
				-0.14421451091766357,
				-0.2625179886817932,
				-0.552056074142456,
				-0.07770189642906189,
				0.41982847452163696,
				0.3284153640270233,
				0.10734789818525314,
				-0.36292630434036255,
				0.2732276916503906,
				0.42657530307769775,
				0.2836540937423706,
				-0.5540094971656799,
				0.21949376165866852,
				-0.27955904603004456,
				0.2148047536611557,
				0.30742374062538147
			]
		],
		"weight_1": [
			0.0,
			0.0,
			0.0,
			-0.008460227400064468,
			-0.020107828080654144,
			-0.003745165653526783,
			0.006710059009492397,
			0.0,
			0.010493854060769081,
			0.00794854573905468,
			0.01063095685094595,
			0.011130854487419128,
			-0.016628311946988106,
			0.0,
			-0.007972199469804764,
			0.010344626381993294
		]
	},
	"layer_1": {
		"weight_0": [
			[
				0.21276700496673584,
				0.16642677783966064,
				-0.4658536911010742,
				-0.45500385761260986,
				0.44656145572662354,
				0.47563600540161133,
				0.08639085292816162,
				0.3794776201248169
			],
			[
				-0.26316583156585693,
				-0.38447630405426025,
				0.3222137689590454,
				0.43686819076538086,
				0.3272312879562378,
				0.3583177328109741,
				-0.26800835132598877,
				0.39045250415802
			],
			[
				0.1477116346359253,
				-0.28481757640838623,
				-0.11790919303894043,
				0.05313587188720703,
				0.30993497371673584,
				-0.3891056776046753,
				-0.4176955223083496,
				-0.11827516555786133
			],
			[
				0.25209513306617737,
				-0.47571468353271484,
				0.4724351763725281,
				-0.15341022610664368,
				-0.07354161143302917,
				-0.3029571771621704,
				0.2383403778076172,
				0.4318803548812866
			],
			[
				0.3786497116088867,
				-0.03071129322052002,
				-0.23343653976917267,
				0.45521971583366394,
				0.3662777841091156,
				-0.4684898555278778,
				-0.046430230140686035,
				-0.15679609775543213
			],
			[
				0.400659441947937,
				-0.2890816926956177,
				0.3238421082496643,
				-0.12330392748117447,
				-0.4224417507648468,
				-0.4541507363319397,
				-0.21728241443634033,
				-0.23672807216644287
			],
			[
				-0.09310118854045868,
				0.45493483543395996,
				-0.266239196062088,
				0.49158909916877747,
				-0.4818181097507477,
				0.3534945845603943,
				-0.08499014377593994,
				0.0889965295791626
			],
			[
				-0.2748091220855713,
				-0.26155900955200195,
				0.16302883625030518,
				-0.3952648639678955,
				0.019172191619873047,
				0.03476715087890625,
				-0.48416006565093994,
				0.2192164659500122
			],
			[
				0.14555828273296356,
				0.48624229431152344,
				0.15658356249332428,
				0.04026564210653305,
				-0.33449581265449524,
				0.11972619593143463,
				-0.23704743385314941,
				-0.12359893321990967
			],
			[
				0.19195494055747986,
				0.030189156532287598,
				-0.012807582505047321,
				0.25447168946266174,
				0.4735911190509796,
				0.39185598492622375,
				0.09020590782165527,
				-0.003733515739440918
			],
			[
				0.15625055134296417,
				0.02195131778717041,
				0.4318695366382599,
				0.4202432930469513,
				0.19498494267463684,
				0.26040714979171753,
				0.1662440299987793,
				-0.49032020568847656
			],
			[
				-0.41292309761047363,
				0.3477565050125122,
				0.06582777202129364,
				0.0649804025888443,
				0.31394755840301514,
				0.14810681343078613,
				0.4208846092224121,
				-0.3572145700454712
			],
			[
				-0.2894836962223053,
				-0.09391164779663086,
				-0.4380022883415222,
				-0.2030230462551117,
				-0.07465264201164246,
				-0.306078165769577,
				-0.4982478618621826,
				-0.404629111289978
			],
			[
				-0.34324610233306885,
				-0.42167699337005615,
				0.20384001731872559,
				-0.3680839538574219,
				-0.31913816928863525,
				0.09848535060882568,
				-0.08745121955871582,
				0.39457952976226807
			],
			[
				0.06313589215278625,
				-0.2674015760421753,
				-0.0105489082634449,
				-0.06784531474113464,
				0.12355735898017883,
				-0.28465938568115234,
				-0.4370006322860718,
				-0.065574049949646
			],
			[
				0.3571687936782837,
				-0.22872626781463623,
				0.2860803008079529,
				0.4611169993877411,
				-0.25536292791366577,
				0.2848659157752991,
				-0.3268324136734009,
				-0.3415687084197998
			]
		],
		"weight_1": [
			-0.0049649872817099094,
			0.0,
			0.0106829097494483,
			0.0077955108135938644,
			-0.019218377768993378,
			0.0031622517853975296,
			0.0,
			0.0
		]
	},
	"layer_2": {
		"weight_0": [
			[
				0.1220918595790863,
				-0.3904167115688324,
				-0.3579145669937134,
				0.21777969598770142
			],
			[
				0.2648068070411682,
				0.4956997036933899,
				0.614923894405365,
				-0.7051118612289429
			],
			[
				0.0512346550822258,
				-0.34889766573905945,
				-0.6401858925819397,
				-0.13682466745376587
			],
			[
				-0.4670555889606476,
				-0.7043108940124512,
				0.5515782833099365,
				-0.43389809131622314
			],
			[
				-0.042570650577545166,
				0.23374438285827637,
				0.04392950236797333,
				0.3605944514274597
			],
			[
				0.5373218655586243,
				-0.6435774564743042,
				-0.14203564822673798,
				-0.21596550941467285
			],
			[
				-0.10036414861679077,
				0.4124308228492737,
				0.11912131309509277,
				0.3865489363670349
			],
			[
				0.3371710181236267,
				-0.3412131369113922,
				0.3400185704231262,
				0.1950053572654724
			]
		],
		"weight_1": [
			-0.009705422446131706,
			0.0,
			-0.020635973662137985,
			0.0
		]
	},
	"layer_3": {
		"weight_0": [
			[
				-0.9903786182403564
			],
			[
				0.7567530870437622
			],
			[
				-0.24397331476211548
			],
			[
				0.44192051887512207
			]
		],
		"weight_1": [
			2.363509178161621
		]
	}
}