{
	"layer_0": {
		"weight_0": 0.0,
		"weight_1": 1.0,
		"weight_2": -1
	},
	"layer_1": {
		"weight_0": [
			0.5727103352546692,
			0.44761231541633606,
			1.4986698627471924,
			0.16464488208293915,
			0.3863328993320465,
			0.0,
			0.1385343223810196,
			-0.0158107727766037,
			0.0,
			0.7002559304237366,
			0.3073311448097229,
			0.01689528301358223,
			0.15534068644046783,
			0.37980955839157104,
			0.0,
			0.4878321886062622
		],
		"weight_1": [
			[
				0.7199693918228149,
				0.9062755703926086,
				-0.7337754964828491,
				1.0966405868530273,
				5.280787467956543,
				-0.229679673910141,
				2.2169501781463623,
				0.1591814011335373,
				-0.19538697600364685,
				0.21884728968143463,
				0.6370168328285217,
				2.9134020805358887,
				2.093148708343506,
				0.6003366708755493,
				-0.07166624069213867,
				0.5099895596504211
			],
			[
				-0.7767230868339539,
				-1.1729682683944702,
				0.39256933331489563,
				-7.937551498413086,
				-0.267535924911499,
				-0.20881164073944092,
				-1.1606600284576416,
				-0.48761647939682007,
				-0.043326497077941895,
				-1.8947309255599976,
				-4.575852870941162,
				0.7821894288063049,
				-3.186067581176758,
				1.2336348295211792,
				-0.26125064492225647,
				-3.327216148376465
			]
		],
		"weight_2": -1,
		"weight_3": -7.937551498413086,
		"weight_4": 7.937551498413086,
		"weight_5": -7.3271379470825195,
		"weight_6": 5.425271034240723
	},
	"layer_2": {
		"weight_0": -1,
		"weight_1": -3.3394137455289297e-10,
		"weight_2": 5.377026081085205
	},
	"layer_3": {
		"weight_0": [
			-0.8835750818252563,
			0.6656796336174011,
			0.33976757526397705,
			0.1940665990114212,
			0.6113485097885132,
			1.0221060514450073,
			0.3717963993549347,
			-0.0031622769311070442
		],
		"weight_1": [
			[
				-0.014071810990571976,
				0.8925849199295044,
				-0.4032035768032074,
				-0.1293562650680542,
				0.6682415008544922,
				0.4384377896785736,
				0.6980485320091248,
				-0.2190479189157486
			],
			[
				0.20159152150154114,
				0.5797932147979736,
				0.09927975386381149,
				0.2115374356508255,
				1.0029524564743042,
				0.26221394538879395,
				0.7227845788002014,
				-0.08040870726108551
			],
			[
				-0.5325996279716492,
				0.38700634241104126,
				0.8982971906661987,
				0.6413734555244446,
				-0.056577496230602264,
				0.9608650803565979,
				-0.0229061059653759,
				-0.48192381858825684
			],
			[
				1.3683147430419922,
				5.458091735839844,
				-3.4688963890075684,
				-1.0312025547027588,
				5.86856746673584,
				-3.3102898597717285,
				5.196921348571777,
				0.08006654679775238
			],
			[
				0.9299558997154236,
				1.3070651292800903,
				-0.16645511984825134,
				0.17579682171344757,
				1.055540680885315,
				-0.9783432483673096,
				0.4459332823753357,
				0.2024305909872055
			],
			[
				0.11006152629852295,
				0.3548840284347534,
				0.26849448680877686,
				-0.14085352420806885,
				-0.36683499813079834,
				-0.3896437883377075,
				-0.41624486446380615,
				-0.28311049938201904
			],
			[
				0.9959535598754883,
				0.9128105044364929,
				-0.6158446073532104,
				-0.19784827530384064,
				1.1249680519104004,
				0.3929426670074463,
				1.2623306512832642,
				-0.04319573566317558
			],
			[
				-0.1960078626871109,
				-0.395110160112381,
				0.5293771028518677,
				0.2524477243423462,
				0.29353004693984985,
				0.008551221340894699,
				-0.30358099937438965,
				0.007341034710407257
			],
			[
				0.33693599700927734,
				0.30586493015289307,
				-0.45991408824920654,
				0.21139609813690186,
				0.14270126819610596,
				-0.006990313529968262,
				-0.27258574962615967,
				-0.17053234577178955
			],
			[
				-0.8796281218528748,
				1.6443535089492798,
				-0.04681158438324928,
				-0.4777555763721466,
				0.6244224905967712,
				0.7246081829071045,
				0.975395143032074,
				-0.15941321849822998
			],
			[
				-1.02226722240448,
				2.647312879562378,
				-0.8611717820167542,
				-2.638543128967285,
				3.096512794494629,
				-0.2502688765525818,
				2.6163151264190674,
				0.0019426234066486359
			],
			[
				1.116235613822937,
				-0.019819367676973343,
				0.15194541215896606,
				1.170796513557434,
				0.045151736587285995,
				-1.0090283155441284,
				0.283817321062088,
				-0.09057431668043137
			],
			[
				1.1298353672027588,
				1.263621211051941,
				0.021808406338095665,
				-0.11318610608577728,
				0.5800581574440002,
				-1.2938884496688843,
				1.5572642087936401,
				-0.11694170534610748
			],
			[
				0.11601234972476959,
				-0.23330630362033844,
				0.8005369305610657,
				1.3620758056640625,
				0.010234014131128788,
				0.9027531743049622,
				-0.2830427289009094,
				-0.2300112396478653
			],
			[
				-0.20585298538208008,
				-0.29110777378082275,
				0.3358722925186157,
				0.48220813274383545,
				0.3066779375076294,
				0.09901654720306396,
				-0.35969078540802,
				-0.02717268466949463
			],
			[
				-0.6289993524551392,
				2.6732289791107178,
				0.0427129901945591,
				-1.031398892402649,
				1.9813674688339233,
				0.22255055606365204,
				1.4392274618148804,
				0.17563579976558685
			]
		],
		"weight_2": -1,
		"weight_3": -5.86856746673584,
		"weight_4": 5.86856746673584,
		"weight_5": -5.080122470855713,
		"weight_6": 14.876879692077637
	},
	"layer_4": {
		"weight_0": -1,
		"weight_1": -3.3394137455289297e-10,
		"weight_2": 14.33236312866211
	},
	"layer_5": {
		"weight_0": [
			0.652670681476593,
			-0.11368849873542786,
			0.44191187620162964,
			0.5117243528366089
		],
		"weight_1": [
			[
				1.77180016040802,
				-0.5146170854568481,
				-2.826413154602051,
				-3.0598442554473877
			],
			[
				0.13271364569664001,
				-0.6172357797622681,
				1.453126311302185,
				1.140601396560669
			],
			[
				1.0129764080047607,
				0.4452841579914093,
				-0.9566843509674072,
				-0.5486475825309753
			],
			[
				-2.704366683959961,
				-0.21367967128753662,
				1.5715911388397217,
				0.8084731101989746
			],
			[
				-0.14055268466472626,
				-0.48962539434432983,
				0.6258591413497925,
				1.5789165496826172
			],
			[
				1.9148738384246826,
				0.011446657590568066,
				-1.5164109468460083,
				-1.4182981252670288
			],
			[
				-1.0881361961364746,
				-0.6618998646736145,
				1.4566341638565063,
				1.7503488063812256
			],
			[
				-0.3433701992034912,
				0.4963154196739197,
				0.24333429336547852,
				-0.4573296308517456
			]
		],
		"weight_2": -1,
		"weight_3": -3.061044931411743,
		"weight_4": 3.061044931411743,
		"weight_5": -27.93879508972168,
		"weight_6": 33.09284973144531
	},
	"layer_6": {
		"weight_0": -1,
		"weight_1": -3.3394137455289297e-10,
		"weight_2": 31.69330596923828
	},
	"layer_7": {
		"weight_0": [
			0.5527240633964539
		],
		"weight_1": [
			[
				-5.374878406524658
			],
			[
				0.020264580845832825
			],
			[
				2.0284993648529053
			],
			[
				2.5841333866119385
			]
		],
		"weight_2": -1,
		"weight_3": -5.374878406524658,
		"weight_4": 5.374878406524658,
		"weight_5": -3.3570377033775856e-10,
		"weight_6": 135.9847412109375
	}
}