{
	"layer_0": {
		"weight_0": [
			[
				-0.06879520416259766,
				0.4324963688850403,
				0.02782946452498436,
				0.3762010335922241,
				-0.1622137427330017,
				0.5161530375480652,
				-0.4990111291408539,
				0.34874799847602844,
				0.012051915749907494,
				-0.03333687782287598,
				-0.44577112793922424,
				-0.17069029808044434,
				-0.5370946526527405,
				-0.5173153281211853,
				-0.2919267416000366,
				0.3969425559043884
			],
			[
				-0.2837667763233185,
				-0.29475876688957214,
				0.22523382306098938,
				-0.1555860936641693,
				-0.05334019660949707,
				0.28915104269981384,
				-0.31092172861099243,
				0.4424996078014374,
				0.16159416735172272,
				-0.06002289056777954,
				0.2108086794614792,
				-0.11858510971069336,
				-0.41780170798301697,
				0.4158479869365692,
				0.4707368016242981,
				0.44520965218544006
			]
		],
		"weight_1": [
			0.0,
			0.05464765056967735,
			-0.027461599558591843,
			0.042636506259441376,
			0.0,
			-0.012843098491430283,
			0.0,
			-0.021981842815876007,
			0.035986971110105515,
			0.0,
			0.011922704987227917,
			0.0,
			0.0,
			-0.0077531225979328156,
			0.03452727198600769,
			-0.0008740370976738632
		]
	},
	"layer_1": {},
	"layer_2": {
		"weight_0": [
			[
				0.43214893341064453,
				-0.022010326385498047,
				-0.11205875873565674,
				0.4814615249633789,
				-0.44823145866394043,
				0.2834357023239136,
				0.11926233768463135,
				-0.10000336170196533
			],
			[
				0.19946491718292236,
				0.3559756278991699,
				-0.1407008171081543,
				0.40053999423980713,
				0.04985237121582031,
				0.08275735378265381,
				-0.06629407405853271,
				0.44624385237693787
			],
			[
				0.42877498269081116,
				0.25616681575775146,
				-0.1869492530822754,
				0.0009595874580554664,
				0.00971674919128418,
				0.09347283840179443,
				0.39841529726982117,
				-0.20991092920303345
			],
			[
				0.16118836402893066,
				-0.4731292724609375,
				0.1544051170349121,
				0.5375431180000305,
				0.27907371520996094,
				0.10558581352233887,
				-0.345221608877182,
				-0.34404295682907104
			],
			[
				-0.44102275371551514,
				0.17153632640838623,
				0.4614572525024414,
				0.39246368408203125,
				0.3401062488555908,
				-0.0885077714920044,
				0.1751081943511963,
				0.4644205570220947
			],
			[
				-0.5020166635513306,
				0.12063264846801758,
				0.0029011964797973633,
				0.23543107509613037,
				-0.1189192533493042,
				0.06187033653259277,
				0.4573533236980438,
				-0.2691170871257782
			],
			[
				0.09610128402709961,
				-0.14723420143127441,
				0.43165528774261475,
				-0.3007768392562866,
				0.3363220691680908,
				0.08237719535827637,
				0.0629889965057373,
				-0.154388427734375
			],
			[
				-0.06641572713851929,
				-0.19748401641845703,
				-0.2373286485671997,
				-0.17404192686080933,
				-0.11594009399414062,
				-0.35594117641448975,
				0.22345201671123505,
				0.4404585659503937
			],
			[
				0.04481472447514534,
				-0.11815118789672852,
				-0.3763173818588257,
				0.29856473207473755,
				0.11903345584869385,
				0.4156811237335205,
				-0.46738871932029724,
				-0.18580539524555206
			],
			[
				-0.16754686832427979,
				0.3421057462692261,
				0.052495718002319336,
				-0.0054662227630615234,
				0.44231319427490234,
				-0.38941121101379395,
				-0.35981595516204834,
				-0.14765942096710205
			],
			[
				0.437008798122406,
				0.07589352130889893,
				0.14912712574005127,
				0.0557609386742115,
				-0.28584885597229004,
				-0.09360039234161377,
				-0.4577372372150421,
				-0.3587205111980438
			],
			[
				-0.41106438636779785,
				0.31458616256713867,
				-0.35773134231567383,
				0.08226609230041504,
				-0.48901987075805664,
				-0.2692157030105591,
				-0.32974958419799805,
				0.4012486934661865
			],
			[
				-0.22805416584014893,
				0.27223753929138184,
				0.04548478126525879,
				0.05206120014190674,
				-0.3623305559158325,
				-0.31543874740600586,
				0.4998100996017456,
				0.3061361312866211
			],
			[
				0.33520251512527466,
				0.34673285484313965,
				0.09669864177703857,
				-0.48409292101860046,
				0.43293142318725586,
				-0.48776566982269287,
				-0.33424147963523865,
				0.42754775285720825
			],
			[
				-0.35986003279685974,
				-0.15517497062683105,
				-0.2555950880050659,
				0.4213319718837738,
				-0.4245551824569702,
				-0.36840343475341797,
				0.09481285512447357,
				0.342489093542099
			],
			[
				0.10853742808103561,
				-0.35611701011657715,
				-0.45261895656585693,
				0.34085580706596375,
				-0.15898573398590088,
				-0.3780686855316162,
				0.18208974599838257,
				-0.1840382218360901
			]
		],
		"weight_1": [
			-0.011276792734861374,
			0.0,
			0.0,
			0.020111899822950363,
			0.0,
			0.0,
			-0.0331653393805027,
			-0.006837247870862484
		]
	},
	"layer_3": {},
	"layer_4": {
		"weight_0": [
			[
				0.05411219596862793,
				0.2759106755256653,
				-0.1951831728219986,
				0.28988638520240784
			],
			[
				-0.6900784373283386,
				-0.4646172523498535,
				0.050694048404693604,
				-0.2340269386768341
			],
			[
				-0.35408931970596313,
				0.5659505724906921,
				0.1976199746131897,
				0.5076707005500793
			],
			[
				-0.6289492845535278,
				-0.4090280532836914,
				-0.3837847411632538,
				-0.05138208717107773
			],
			[
				0.6817980408668518,
				-0.3087366223335266,
				0.2823665142059326,
				-0.37531617283821106
			],
			[
				0.029218554496765137,
				-0.039141952991485596,
				0.43999308347702026,
				-0.3723282814025879
			],
			[
				-0.16197603940963745,
				-0.30652475357055664,
				-0.2650187611579895,
				0.13299107551574707
			],
			[
				-0.6728863716125488,
				0.5667275190353394,
				0.584857165813446,
				-0.17045387625694275
			]
		],
		"weight_1": [
			0.0,
			-0.011475488543510437,
			-0.01051180250942707,
			-0.0390738919377327
		]
	},
	"layer_5": {},
	"layer_6": {
		"weight_0": [
			[
				0.6822556257247925
			],
			[
				-1.0857995748519897
			],
			[
				-0.8259778618812561
			],
			[
				-0.005607109051197767
			]
		],
		"weight_1": [
			2.363471031188965
		]
	}
}