{
	"layer_0": {
		"weight_0": [
			[
				0.8616980314254761,
				1.1124485731124878,
				-0.31786099076271057,
				0.5874441266059875,
				4.5783514976501465,
				-0.229679673910141,
				2.531813621520996,
				0.09472662955522537,
				-0.19538697600364685,
				0.31943678855895996,
				0.4285051226615906,
				2.481701135635376,
				3.0941920280456543,
				0.42369523644447327,
				-0.07166624069213867,
				0.48371171951293945
			],
			[
				-0.5668417811393738,
				-0.6922326683998108,
				0.7102306485176086,
				-5.751201152801514,
				-0.20157112181186676,
				-0.20881164073944092,
				-0.46900004148483276,
				-0.4918002486228943,
				-0.043326497077941895,
				-1.4322640895843506,
				-3.2764029502868652,
				1.0809600353240967,
				-1.488990306854248,
				1.4110537767410278,
				-0.26125064492225647,
				-2.4446988105773926
			]
		],
		"weight_1": [
			0.4908283054828644,
			0.4546199142932892,
			1.4317224025726318,
			0.17816616594791412,
			0.20210228860378265,
			0.0,
			0.4236787259578705,
			-0.029136013239622116,
			0.0,
			0.5976020693778992,
			0.3781099319458008,
			0.023843757808208466,
			0.07678799331188202,
			0.4885390102863312,
			0.0,
			0.48991939425468445
		]
	},
	"layer_1": {},
	"layer_2": {
		"weight_0": [
			[
				-0.15194201469421387,
				0.9347984194755554,
				-0.37075260281562805,
				-0.3548089265823364,
				0.7289450764656067,
				0.2950552701950073,
				0.7507433891296387,
				-0.2190479189157486
			],
			[
				0.13629759848117828,
				0.5883370041847229,
				0.20933185517787933,
				-0.10202007740736008,
				1.0310992002487183,
				0.5771531462669373,
				0.702955961227417,
				-0.08040870726108551
			],
			[
				-0.46597012877464294,
				0.34960734844207764,
				0.8914670944213867,
				0.47752344608306885,
				-0.11588352918624878,
				0.5751175880432129,
				-0.02836650237441063,
				-0.48192381858825684
			],
			[
				0.08293692767620087,
				3.9792120456695557,
				-2.8688135147094727,
				-0.733085036277771,
				4.527982711791992,
				-2.447568893432617,
				4.164126396179199,
				0.08006654679775238
			],
			[
				0.8376155495643616,
				1.5172455310821533,
				-0.021362528204917908,
				-0.03366329148411751,
				1.2373276948928833,
				-0.8981664180755615,
				0.48668286204338074,
				0.2024305909872055
			],
			[
				0.11006152629852295,
				0.3548840284347534,
				0.26849448680877686,
				-0.14085352420806885,
				-0.36683499813079834,
				-0.3896437883377075,
				-0.41624486446380615,
				-0.28311049938201904
			],
			[
				0.8499438762664795,
				1.1479063034057617,
				-0.4630504846572876,
				-0.4466714859008789,
				1.3204572200775146,
				0.3096892237663269,
				1.3004355430603027,
				-0.04319573566317558
			],
			[
				-0.2378314882516861,
				-0.1334449201822281,
				0.342731237411499,
				0.27651965618133545,
				0.3802717626094818,
				0.006325364112854004,
				-0.2579353153705597,
				0.007341034710407257
			],
			[
				0.33693599700927734,
				0.30586493015289307,
				-0.45991408824920654,
				0.21139609813690186,
				0.14270126819610596,
				-0.006990313529968262,
				-0.27258574962615967,
				-0.17053234577178955
			],
			[
				-0.8544438481330872,
				1.3521082401275635,
				-0.13273675739765167,
				-0.8213979005813599,
				0.48638439178466797,
				0.43732011318206787,
				1.0018199682235718,
				-0.15941321849822998
			],
			[
				-1.1358611583709717,
				1.6874701976776123,
				-0.9436159729957581,
				-2.5428833961486816,
				2.256580114364624,
				-0.1103079617023468,
				2.234152317047119,
				0.0019426234066486359
			],
			[
				1.0963244438171387,
				0.17431877553462982,
				0.27686312794685364,
				0.9974238276481628,
				0.15922003984451294,
				-1.0642009973526,
				0.2748061716556549,
				-0.09057431668043137
			],
			[
				0.9681491255760193,
				1.6514074802398682,
				0.05348867550492287,
				-0.2847747504711151,
				0.8663828372955322,
				-0.09780506789684296,
				1.6114202737808228,
				-0.11694170534610748
			],
			[
				0.13785627484321594,
				-0.13183756172657013,
				0.8443816304206848,
				1.2475066184997559,
				0.048188384622335434,
				0.494389146566391,
				-0.28544291853904724,
				-0.2300112396478653
			],
			[
				-0.20585298538208008,
				-0.29110777378082275,
				0.3358722925186157,
				0.48220813274383545,
				0.3066779375076294,
				0.09901654720306396,
				-0.35969078540802,
				-0.02717268466949463
			],
			[
				-0.5924209356307983,
				1.9442253112792969,
				-0.22115284204483032,
				-1.058398962020874,
				1.5024234056472778,
				-0.2055182158946991,
				1.3757176399230957,
				0.17563579976558685
			]
		],
		"weight_1": [
			-0.7671306729316711,
			0.5495806932449341,
			0.41750437021255493,
			-0.06928960233926773,
			0.48556503653526306,
			0.7243825197219849,
			0.2957591712474823,
			-0.0031622769311070442
		]
	},
	"layer_3": {},
	"layer_4": {
		"weight_0": [
			[
				2.1717944145202637,
				-0.5146170854568481,
				-2.745283842086792,
				-2.7232344150543213
			],
			[
				0.32797834277153015,
				-0.6063731908798218,
				1.460640788078308,
				1.272983193397522
			],
			[
				1.196857213973999,
				0.45624056458473206,
				-0.9452974796295166,
				-0.7644507884979248
			],
			[
				-1.5157219171524048,
				-0.20272088050842285,
				1.7590994834899902,
				0.8789249658584595
			],
			[
				0.11066005378961563,
				-0.4787631630897522,
				0.5897677540779114,
				1.7254490852355957
			],
			[
				0.8158069849014282,
				0.022334830835461617,
				-1.4073059558868408,
				-1.7957347631454468
			],
			[
				-0.8979537487030029,
				-0.6618998646736145,
				1.4199743270874023,
				1.9569586515426636
			],
			[
				-0.3433701992034912,
				0.4963154196739197,
				0.24333429336547852,
				-0.4573296308517456
			]
		],
		"weight_1": [
			0.6300556659698486,
			-0.10281948745250702,
			0.3328650891780853,
			0.3325110673904419
		]
	},
	"layer_5": {},
	"layer_6": {
		"weight_0": [
			[
				-4.54118013381958
			],
			[
				0.03111652284860611
			],
			[
				2.040684938430786
			],
			[
				2.5601189136505127
			]
		],
		"weight_1": [
			0.3261529803276062
		]
	}
}