{
	"layer_0": {
		"weight_0": 0.0,
		"weight_1": 1.0,
		"weight_2": -1
	},
	"layer_1": {
		"weight_0": [
			1.2020628452301025,
			-0.1798463761806488,
			-0.07475530356168747,
			0.0,
			0.0,
			-0.12070640921592712,
			1.6337357759475708,
			-0.3495083749294281,
			0.9273092150688171,
			0.0,
			1.0087316036224365,
			1.0819131135940552,
			0.0,
			1.5550212860107422,
			0.8804543614387512,
			0.34010449051856995
		],
		"weight_1": [
			[
				-2.8681280612945557,
				0.012848883867263794,
				-0.3004824221134186,
				-0.5671500563621521,
				-0.47108739614486694,
				0.13946908712387085,
				2.0884149074554443,
				2.9452741146087646,
				2.2960000038146973,
				-0.3830040693283081,
				1.3090122938156128,
				2.1686558723449707,
				-0.4078577756881714,
				-0.9702625274658203,
				2.032289743423462,
				-3.0624353885650635
			],
			[
				-0.3257126212120056,
				0.1441870629787445,
				0.07170422375202179,
				-0.39462223649024963,
				-0.08020031452178955,
				-0.1749933660030365,
				1.4991602897644043,
				0.2781122326850891,
				-0.8649399876594543,
				-0.24234330654144287,
				0.04407282546162605,
				-5.572358131408691,
				-0.15932127833366394,
				-1.5040600299835205,
				-7.938018798828125,
				3.942732095718384
			]
		],
		"weight_2": -1,
		"weight_3": -7.938018798828125,
		"weight_4": 7.938018798828125,
		"weight_5": -1.0344233678196528e-30,
		"weight_6": 4.986548900604248
	},
	"layer_2": {
		"weight_0": [
			0.3352108895778656,
			-0.0031613765750080347,
			0.006607197690755129,
			1.0363354682922363,
			0.0,
			0.819266676902771,
			0.21357908844947815,
			-0.0031622746028006077
		],
		"weight_1": [
			[
				1.0236854553222656,
				-0.23831632733345032,
				-0.0008991690119728446,
				-0.25598135590553284,
				-0.3257324695587158,
				1.7118085622787476,
				-0.5066946744918823,
				0.2596191167831421
			],
			[
				-0.47069811820983887,
				0.41070014238357544,
				0.021675705909729004,
				-0.27488720417022705,
				-0.18317770957946777,
				-0.26678162813186646,
				-0.3257906436920166,
				-0.4968918561935425
			],
			[
				0.16854161024093628,
				-0.30999934673309326,
				0.12235665321350098,
				-0.3844292461872101,
				-0.005290865898132324,
				-0.04340242221951485,
				-0.17837870121002197,
				-0.18085050582885742
			],
			[
				0.21420907974243164,
				-0.4112354516983032,
				0.2325594425201416,
				-0.4572412967681885,
				0.26758646965026855,
				0.02565908432006836,
				0.17759490013122559,
				-0.4038112163543701
			],
			[
				-0.1864234209060669,
				0.4789026975631714,
				0.48889780044555664,
				0.4653986692428589,
				0.2206355333328247,
				0.45761942863464355,
				0.4448291063308716,
				-0.13372349739074707
			],
			[
				0.30185428261756897,
				-0.37984317541122437,
				0.033194541931152344,
				-0.07743493467569351,
				0.4839831590652466,
				-0.393523633480072,
				-0.3903566598892212,
				0.42534828186035156
			],
			[
				0.9530065059661865,
				-0.30181872844696045,
				0.6587517261505127,
				1.1436076164245605,
				-0.3620346784591675,
				-0.010517708957195282,
				1.2216016054153442,
				-0.4819679260253906
			],
			[
				1.594961404800415,
				0.05833934620022774,
				0.03529294952750206,
				-1.150629997253418,
				-0.21072649955749512,
				-1.7742565870285034,
				-0.6463274359703064,
				-0.010795682668685913
			],
			[
				-0.5811135172843933,
				0.2776241898536682,
				0.14413273334503174,
				1.5295573472976685,
				-0.24646568298339844,
				0.9671576023101807,
				0.6620460748672485,
				-0.24235747754573822
			],
			[
				-0.43823742866516113,
				0.46781158447265625,
				-0.22803819179534912,
				-0.3082042932510376,
				-0.20875990390777588,
				-0.10506772994995117,
				-0.14169025421142578,
				0.3458024263381958
			],
			[
				0.5499178171157837,
				-0.29026904702186584,
				-0.26983174681663513,
				1.4438832998275757,
				0.04631471633911133,
				0.8091542720794678,
				0.623302161693573,
				-0.18421697616577148
			],
			[
				-0.7478318214416504,
				-0.22746431827545166,
				-0.6855850219726562,
				2.3202617168426514,
				0.02557051181793213,
				1.9433687925338745,
				-1.0705937147140503,
				-0.4384816288948059
			],
			[
				0.2465142011642456,
				0.168329119682312,
				0.441180944442749,
				-0.23724210262298584,
				-0.4264554977416992,
				-0.47850513458251953,
				-0.09654831886291504,
				-0.09336221218109131
			],
			[
				0.8089187145233154,
				-0.3677639365196228,
				-0.40734270215034485,
				0.22146351635456085,
				0.3731105327606201,
				0.6158872246742249,
				-0.5660950541496277,
				-0.4814133644104004
			],
			[
				-2.0772533416748047,
				-0.22234570980072021,
				-1.3574204444885254,
				3.123976945877075,
				-0.4858032464981079,
				3.8962223529815674,
				-2.742070198059082,
				0.2944854497909546
			],
			[
				2.931511163711548,
				-0.31740593910217285,
				1.8149774074554443,
				-1.5335279703140259,
				-0.17322421073913574,
				-1.515552043914795,
				1.4661304950714111,
				-0.406734824180603
			]
		],
		"weight_2": -1,
		"weight_3": -3.8951141834259033,
		"weight_4": 3.8951141834259033,
		"weight_5": -1.0344233678196528e-30,
		"weight_6": 19.312963485717773
	},
	"layer_3": {
		"weight_0": [
			2.40579891204834,
			0.7818877100944519,
			-0.5665367245674133,
			0.6327016353607178
		],
		"weight_1": [
			[
				1.117579698562622,
				-2.5333175659179688,
				1.1890376806259155,
				2.628159284591675
			],
			[
				0.6932483315467834,
				-0.008006294257938862,
				0.30894917249679565,
				0.6579136252403259
			],
			[
				0.5184448957443237,
				1.0617196559906006,
				1.111077070236206,
				-2.18137788772583
			],
			[
				-3.998540163040161,
				1.7988289594650269,
				-0.06198430433869362,
				-0.39069390296936035
			],
			[
				0.17813974618911743,
				0.5947937369346619,
				0.6557363867759705,
				-0.04308724403381348
			],
			[
				-1.0737392902374268,
				1.6632474660873413,
				-0.36813366413116455,
				0.17125527560710907
			],
			[
				0.17366795241832733,
				1.6439459323883057,
				1.5189019441604614,
				-2.197275400161743
			],
			[
				-0.10243892669677734,
				-0.2334447205066681,
				0.04041004180908203,
				-0.19997604191303253
			]
		],
		"weight_2": -1,
		"weight_3": -3.998540163040161,
		"weight_4": 3.998540163040161,
		"weight_5": -1.0344233678196528e-30,
		"weight_6": 47.8599739074707
	},
	"layer_4": {
		"weight_0": [
			1.310154914855957
		],
		"weight_1": [
			[
				-1.4328036308288574
			],
			[
				3.001810312271118
			],
			[
				1.212375521659851
			],
			[
				-3.999750852584839
			]
		],
		"weight_2": -1,
		"weight_3": -3.999750852584839,
		"weight_4": 3.999750852584839,
		"weight_5": -1.296762235369897e-07,
		"weight_6": 136.17813110351562
	}
}