{
	"layer_0": {
		"weight_0": 0.0,
		"weight_1": 1.0,
		"weight_2": -1
	},
	"layer_1": {
		"weight_0": [
			-0.1643781065940857,
			0.0,
			0.5912861824035645,
			0.4893490672111511,
			0.0,
			0.5189400315284729,
			0.0,
			0.512712299823761,
			0.43745648860931396,
			0.0,
			0.5633131861686707,
			0.43066516518592834,
			0.5912261009216309,
			0.0,
			1.063506007194519,
			0.0
		],
		"weight_1": [
			[
				0.18570758402347565,
				-0.22970473766326904,
				1.4138025045394897,
				1.9450182914733887,
				-0.5375956892967224,
				2.023932933807373,
				-0.47081249952316284,
				1.1518243551254272,
				1.0261166095733643,
				-0.4247496426105499,
				1.8847345113754272,
				0.9034281373023987,
				1.863160252571106,
				-0.23283463716506958,
				-0.7554972171783447,
				-0.2825140058994293
			],
			[
				-0.1971159279346466,
				-0.5334787964820862,
				-0.4871451258659363,
				-0.5523444414138794,
				-0.08671188354492188,
				-0.4102330207824707,
				-0.5134844779968262,
				-1.8085577487945557,
				-2.0250418186187744,
				-0.14835408329963684,
				-0.6014499664306641,
				-2.1097800731658936,
				-0.7362873554229736,
				-0.13272559642791748,
				-0.423891544342041,
				-0.2651154696941376
			]
		],
		"weight_2": -1,
		"weight_3": -2.1095833778381348,
		"weight_4": 2.1095833778381348,
		"weight_5": -0.5658519268035889,
		"weight_6": 2.561833381652832
	},
	"layer_2": {
		"weight_0": [
			-0.009600521065294743,
			-0.2881995737552643,
			-0.010522652417421341,
			-0.27807068824768066,
			-0.007819297723472118,
			0.5713570713996887,
			0.3311290740966797,
			-0.04239054396748543
		],
		"weight_1": [
			[
				0.3381911516189575,
				-0.009658982045948505,
				0.47242286801338196,
				-0.40313518047332764,
				0.22624213993549347,
				-0.3296351730823517,
				0.16862963140010834,
				-0.3863476514816284
			],
			[
				0.40877068042755127,
				-0.26221954822540283,
				0.44188010692596436,
				-0.3404250144958496,
				0.13474524021148682,
				-0.4590643644332886,
				-0.2527339458465576,
				0.27301907539367676
			],
			[
				-0.07586419582366943,
				-0.20620504021644592,
				-0.35297051072120667,
				0.2129116952419281,
				0.07358014583587646,
				0.9881625175476074,
				0.013423841446638107,
				0.3391481637954712
			],
			[
				0.31214672327041626,
				0.4988260865211487,
				0.06343583762645721,
				0.65462327003479,
				-0.3033745586872101,
				0.9028974175453186,
				-0.1697814017534256,
				0.5138893723487854
			],
			[
				0.1943274736404419,
				0.16709506511688232,
				-0.43907856941223145,
				-0.13081872463226318,
				-0.39421164989471436,
				0.3540157079696655,
				-0.157456636428833,
				-0.1990145444869995
			],
			[
				-0.3006778955459595,
				0.42104390263557434,
				-0.46466052532196045,
				0.24316103756427765,
				-0.47035786509513855,
				1.0487605333328247,
				-0.6358183026313782,
				0.42286205291748047
			],
			[
				-0.08309721946716309,
				0.2715243101119995,
				0.11281538009643555,
				-0.012119889259338379,
				0.25430071353912354,
				-0.2275540828704834,
				0.004521489143371582,
				0.010393977165222168
			],
			[
				-0.506209671497345,
				0.10285646468400955,
				-0.19962531328201294,
				-0.03080790303647518,
				0.2446521520614624,
				1.6340607404708862,
				0.05040096864104271,
				-0.2257995754480362
			],
			[
				0.19384194910526276,
				-0.15826205909252167,
				-0.03527311235666275,
				-0.21818338334560394,
				-0.31661972403526306,
				2.052457094192505,
				-0.3361055850982666,
				0.0150601239874959
			],
			[
				0.4208019971847534,
				0.3147534132003784,
				-0.2786027193069458,
				-0.3925197124481201,
				0.3822934627532959,
				0.22935450077056885,
				-0.21783030033111572,
				-0.4261479377746582
			],
			[
				-0.13580814003944397,
				0.08286800980567932,
				0.25403207540512085,
				0.22904235124588013,
				0.23418445885181427,
				0.9809144139289856,
				-0.4580116271972656,
				-0.020103972405195236
			],
			[
				-0.4003368616104126,
				0.06998887658119202,
				-0.4760611057281494,
				0.07205048203468323,
				-0.05418729782104492,
				2.0684921741485596,
				0.0859784260392189,
				0.3049115836620331
			],
			[
				0.16120582818984985,
				0.47950980067253113,
				-0.07974466681480408,
				0.2724226713180542,
				0.17031575739383698,
				1.3179969787597656,
				-0.048588793724775314,
				0.016033293679356575
			],
			[
				0.01881861686706543,
				-0.4905019998550415,
				0.4550248384475708,
				-0.4560844898223877,
				-0.22708415985107422,
				-0.22333693504333496,
				0.12691986560821533,
				0.4188251495361328
			],
			[
				-0.22345614433288574,
				-1.0376588106155396,
				-0.4626096487045288,
				-1.182123064994812,
				-0.04531586170196533,
				0.13471820950508118,
				0.9484805464744568,
				-0.4819335639476776
			],
			[
				-0.15675091743469238,
				-0.2382822036743164,
				0.19268321990966797,
				-0.015281438827514648,
				-0.11828792095184326,
				0.024091243743896484,
				0.26889896392822266,
				-0.05079245567321777
			]
		],
		"weight_2": -1,
		"weight_3": -2.068373680114746,
		"weight_4": 2.068373680114746,
		"weight_5": -0.5658519268035889,
		"weight_6": 16.01471710205078
	},
	"layer_3": {
		"weight_0": [
			-0.7872130870819092,
			0.5601620674133301,
			-0.1342218518257141,
			0.5604440569877625
		],
		"weight_1": [
			[
				0.5409955382347107,
				0.17296339571475983,
				0.24983888864517212,
				0.28097936511039734
			],
			[
				1.008253574371338,
				-1.0880769491195679,
				-0.9085438251495361,
				-1.006323218345642
			],
			[
				0.38007622957229614,
				0.5900149941444397,
				0.5340461730957031,
				-0.5468525886535645
			],
			[
				0.9657850861549377,
				-0.8023969531059265,
				-0.6928417682647705,
				-1.2114131450653076
			],
			[
				0.42307090759277344,
				-0.5536912083625793,
				-0.10950891673564911,
				-0.3447408676147461
			],
			[
				0.03317901864647865,
				1.5139974355697632,
				1.1104912757873535,
				1.8358553647994995
			],
			[
				-0.8860882520675659,
				-1.7258703708648682,
				-1.4731812477111816,
				-1.5846213102340698
			],
			[
				0.8042909502983093,
				0.4527650773525238,
				0.36970508098602295,
				0.3374624252319336
			]
		],
		"weight_2": -1,
		"weight_3": -1.8357234001159668,
		"weight_4": 1.8357234001159668,
		"weight_5": -0.5658519268035889,
		"weight_6": 22.343202590942383
	},
	"layer_4": {
		"weight_0": [
			0.5542171001434326
		],
		"weight_1": [
			[
				-1.3788139820098877
			],
			[
				2.2870821952819824
			],
			[
				0.9137240052223206
			],
			[
				2.119495153427124
			]
		],
		"weight_2": -1,
		"weight_3": -2.28684401512146,
		"weight_4": 2.28684401512146,
		"weight_5": -0.5658519268035889,
		"weight_6": 77.08814239501953
	}
}