{
	"layer_0": {
		"weight_0": 0.0,
		"weight_1": 1.0,
		"weight_2": -1
	},
	"layer_1": {
		"weight_0": [
			0.5002576112747192,
			0.4886932075023651,
			0.5107287168502808,
			0.0,
			0.49042046070098877,
			0.2582392990589142,
			0.4801814556121826,
			-0.17353948950767517,
			0.2938872277736664,
			0.5308193564414978,
			0.4080943763256073,
			0.5031446218490601,
			0.4807243049144745,
			0.48310962319374084,
			0.4833889603614807,
			0.43369248509407043
		],
		"weight_1": [
			[
				0.4155885875225067,
				0.679016649723053,
				0.14757126569747925,
				-0.5353184938430786,
				0.6246779561042786,
				0.652614414691925,
				0.6330352425575256,
				-0.6700147390365601,
				0.41960304975509644,
				0.07640331238508224,
				0.3121958076953888,
				0.190664604306221,
				0.29275092482566833,
				0.6987581253051758,
				0.6777887344360352,
				0.6282494068145752
			],
			[
				0.4841500520706177,
				0.8668132424354553,
				0.8245383501052856,
				-0.07086467742919922,
				0.9228498935699463,
				0.3089302182197571,
				0.6975254416465759,
				0.3257790505886078,
				0.6166581511497498,
				0.5568543076515198,
				0.5691538453102112,
				0.6592115759849548,
				0.4091772139072418,
				-0.1738234907388687,
				0.6471112966537476,
				0.6451167464256287
			]
		],
		"weight_2": -1,
		"weight_3": -0.9228498935699463,
		"weight_4": 0.9228498935699463,
		"weight_5": -0.5658519268035889,
		"weight_6": 2.135638952255249
	},
	"layer_2": {
		"weight_0": [
			-0.008453775197267532,
			0.5166212320327759,
			0.0,
			0.5129387974739075,
			0.0,
			0.4785526692867279,
			-0.09223682433366776,
			-0.05328880995512009
		],
		"weight_1": [
			[
				0.10319218039512634,
				0.5283560752868652,
				-0.2851440906524658,
				0.641291081905365,
				0.08068180084228516,
				0.8786002397537231,
				0.10990416258573532,
				-0.028941290453076363
			],
			[
				0.12374487519264221,
				0.9302899241447449,
				-0.23250436782836914,
				0.17143717408180237,
				0.16218066215515137,
				0.4356074631214142,
				0.047719817608594894,
				-0.2621641755104065
			],
			[
				-0.35502877831459045,
				0.2528855502605438,
				0.0034132003784179688,
				0.9932386875152588,
				0.24077343940734863,
				0.41909053921699524,
				-0.20405453443527222,
				-0.5008394718170166
			],
			[
				0.0670926570892334,
				-0.30681681632995605,
				-0.4383721351623535,
				-0.06869804859161377,
				0.06855237483978271,
				0.006476163864135742,
				-0.050742387771606445,
				-0.08791613578796387
			],
			[
				-0.4966987669467926,
				0.9174794554710388,
				-0.31164371967315674,
				0.780238926410675,
				-0.24970149993896484,
				0.6472615003585815,
				0.13017481565475464,
				0.3577229380607605
			],
			[
				0.3160044252872467,
				0.6739503145217896,
				0.11978697776794434,
				0.5594757199287415,
				-0.4836388826370239,
				-0.019616100937128067,
				-0.45995277166366577,
				0.30580204725265503
			],
			[
				-0.16281794011592865,
				0.35700327157974243,
				-0.041100382804870605,
				0.494466632604599,
				-0.15036725997924805,
				0.9293299317359924,
				-0.4205501079559326,
				-0.2578129172325134
			],
			[
				-0.06282439082860947,
				0.2657335698604584,
				0.2940877676010132,
				-0.13772377371788025,
				-0.07268738746643066,
				-0.19445852935314178,
				0.09379682689905167,
				0.19962003827095032
			],
			[
				0.41390639543533325,
				0.156723752617836,
				-0.43099749088287354,
				0.5554473400115967,
				0.1718975305557251,
				0.36019259691238403,
				0.21237170696258545,
				-0.010006832890212536
			],
			[
				-0.267026424407959,
				0.6213735938072205,
				-0.1367647647857666,
				0.8389697670936584,
				-0.3768841028213501,
				0.8028032779693604,
				-0.2811943292617798,
				-0.20048153400421143
			],
			[
				0.4494897723197937,
				0.2546728551387787,
				0.24391627311706543,
				0.45063117146492004,
				0.18343257904052734,
				0.5338414907455444,
				0.21749359369277954,
				-0.5328352451324463
			],
			[
				0.37266913056373596,
				0.37325695157051086,
				0.020098447799682617,
				0.41725778579711914,
				-0.013917684555053711,
				0.7437781691551208,
				-0.5889433026313782,
				0.3728536069393158
			],
			[
				-0.2251608520746231,
				0.7602856159210205,
				0.02783656120300293,
				0.031358279287815094,
				-0.13155686855316162,
				0.8420203328132629,
				0.37169235944747925,
				0.25030019879341125
			],
			[
				-0.046307142823934555,
				0.23337793350219727,
				-0.30676329135894775,
				0.41388562321662903,
				0.13279831409454346,
				0.8838090896606445,
				0.08137264102697372,
				0.01852155104279518
			],
			[
				-0.3757510483264923,
				0.5437530875205994,
				-0.47625553607940674,
				0.13350562751293182,
				0.025500893592834473,
				0.9393767714500427,
				0.2019154578447342,
				-0.3560260832309723
			],
			[
				0.2077455222606659,
				0.05564458668231964,
				-0.4440581798553467,
				0.7720872163772583,
				-0.11708378791809082,
				0.8334602117538452,
				0.2327621728181839,
				0.36808064579963684
			]
		],
		"weight_2": -1,
		"weight_3": -0.9932386875152588,
		"weight_4": 0.9932386875152588,
		"weight_5": -0.5658519268035889,
		"weight_6": 10.041536331176758
	},
	"layer_3": {
		"weight_0": [
			0.4890635013580322,
			-0.1293136328458786,
			-0.018696893006563187,
			-0.010339278727769852
		],
		"weight_1": [
			[
				-0.6150081157684326,
				-0.4037192463874817,
				0.04776930809020996,
				0.2100907266139984
			],
			[
				0.6921359896659851,
				-0.2988571226596832,
				-0.6920543313026428,
				-0.4853329062461853
			],
			[
				-0.48496371507644653,
				0.6659319996833801,
				0.28764480352401733,
				0.6523708701133728
			],
			[
				0.7580596208572388,
				-0.3592511713504791,
				-0.16083800792694092,
				-0.29147422313690186
			],
			[
				0.6888647675514221,
				0.010750830173492432,
				0.1502600908279419,
				-0.5360421538352966
			],
			[
				0.9509428143501282,
				0.3898150622844696,
				-0.6188877820968628,
				0.08793502300977707
			],
			[
				-0.6221795082092285,
				-0.20863290131092072,
				0.647206723690033,
				-0.013222185894846916
			],
			[
				-0.632050633430481,
				0.34717047214508057,
				0.36548516154289246,
				-0.5969316363334656
			]
		],
		"weight_2": -1,
		"weight_3": -0.9509428143501282,
		"weight_4": 0.9509428143501282,
		"weight_5": -0.5658519268035889,
		"weight_6": 16.368606567382812
	},
	"layer_4": {
		"weight_0": [
			2.842121124267578
		],
		"weight_1": [
			[
				0.9986029267311096
			],
			[
				-0.04963097721338272
			],
			[
				-0.07582014799118042
			],
			[
				-0.8832258582115173
			]
		],
		"weight_2": -1,
		"weight_3": -0.9986029267311096,
		"weight_4": 0.9986029267311096,
		"weight_5": -0.5658519268035889,
		"weight_6": 13.491436958312988
	}
}