{
	"layer_0": {
		"weight_0": 0.0,
		"weight_1": 1.0,
		"weight_2": -1
	},
	"layer_1": {
		"weight_0": [
			0.0,
			0.1963532269001007,
			1.004827618598938,
			0.9957289695739746,
			0.9584512114524841,
			-0.010123522020876408,
			0.9161796569824219,
			0.0,
			0.9208636283874512,
			0.17179995775222778,
			-0.04304086044430733,
			-0.14601518213748932,
			-0.11087002605199814,
			0.0,
			0.8216531276702881,
			0.9927809834480286
		],
		"weight_1": [
			[
				-0.033174753189086914,
				-0.6266323924064636,
				1.2481088638305664,
				1.7604198455810547,
				1.4829341173171997,
				-0.10806025564670563,
				1.696169137954712,
				-0.0654296875,
				1.9847971200942993,
				-0.5846177935600281,
				0.09650161117315292,
				0.17434194684028625,
				0.12692426145076752,
				-0.553806722164154,
				1.0905981063842773,
				1.779645562171936
			],
			[
				-0.5136603713035583,
				1.8209463357925415,
				0.15956418216228485,
				0.8229484558105469,
				0.04802153632044792,
				0.0033798168879002333,
				-0.7267438769340515,
				-0.4525529444217682,
				-0.9135259389877319,
				1.7799633741378784,
				-0.4122943580150604,
				-0.25391069054603577,
				-0.140621155500412,
				-0.19525384902954102,
				-0.527457594871521,
				0.7509709596633911
			]
		],
		"weight_2": -1,
		"weight_3": -1.9847971200942993,
		"weight_4": 1.9847971200942993,
		"weight_5": -0.5658519268035889,
		"weight_6": 3.1098146438598633
	},
	"layer_2": {
		"weight_0": [
			0.0,
			0.8080928325653076,
			0.9073387980461121,
			0.9973098635673523,
			0.3620094656944275,
			-0.291129469871521,
			-0.1112051010131836,
			0.9121195673942566
		],
		"weight_1": [
			[
				0.05675363540649414,
				-0.0436406135559082,
				-0.16409218311309814,
				0.3929154872894287,
				0.15141284465789795,
				0.21372568607330322,
				0.3690835237503052,
				0.33624863624572754
			],
			[
				0.4977010488510132,
				-1.675443172454834,
				-1.5852880477905273,
				-0.9824544787406921,
				1.3032933473587036,
				1.9623533487319946,
				-0.044816404581069946,
				-1.673788070678711
			],
			[
				0.21922028064727783,
				0.21791702508926392,
				0.7673044800758362,
				0.8199383616447449,
				1.1618109941482544,
				0.6061928868293762,
				-0.3292805552482605,
				0.9448566436767578
			],
			[
				-0.3259749412536621,
				0.24666772782802582,
				0.8666145205497742,
				1.0230587720870972,
				0.8075201511383057,
				1.0024099349975586,
				0.003512187162414193,
				0.5107642412185669
			],
			[
				-0.22907555103302002,
				0.4332808256149292,
				0.6379162073135376,
				0.9422048330307007,
				0.6370840072631836,
				0.3597875237464905,
				-0.1595495045185089,
				0.5128655433654785
			],
			[
				-0.43260717391967773,
				0.21287745237350464,
				-0.37973088026046753,
				0.06374993175268173,
				0.19134831428527832,
				0.036467574536800385,
				-0.15807665884494781,
				0.0752008706331253
			],
			[
				-0.25819361209869385,
				0.951808750629425,
				1.006028175354004,
				0.6181941032409668,
				0.6353511214256287,
				-0.6334373950958252,
				0.08736041933298111,
				1.2291218042373657
			],
			[
				0.3639369010925293,
				0.133325457572937,
				0.3300938606262207,
				0.12709105014801025,
				0.15685033798217773,
				0.15346801280975342,
				0.30198824405670166,
				-0.4841728210449219
			],
			[
				-0.2946889400482178,
				1.1781971454620361,
				1.1179476976394653,
				1.0816515684127808,
				0.18618172407150269,
				-0.364301472902298,
				0.02312813512980938,
				1.4134883880615234
			],
			[
				-0.3382275104522705,
				-1.4962217807769775,
				-1.470650315284729,
				-1.2093453407287598,
				1.6845922470092773,
				1.7234218120574951,
				-0.5395970940589905,
				-1.5294467210769653
			],
			[
				-0.4410524368286133,
				-0.41323205828666687,
				-0.4419128894805908,
				0.16544753313064575,
				-0.3721437454223633,
				-0.27143657207489014,
				0.12285963445901871,
				0.3422233760356903
			],
			[
				-0.18495678901672363,
				-0.2806331515312195,
				-0.2837580144405365,
				-0.06917671114206314,
				0.08994007110595703,
				-0.5189734101295471,
				-0.17064431309700012,
				0.12213129550218582
			],
			[
				0.25533175468444824,
				-0.02874104492366314,
				0.024090522900223732,
				-0.37753769755363464,
				0.2880394458770752,
				0.40522974729537964,
				0.27550646662712097,
				-0.2547282576560974
			],
			[
				-0.4214913845062256,
				0.3143354654312134,
				0.4175429344177246,
				0.3674541711807251,
				0.38546228408813477,
				-0.07580685615539551,
				0.42943263053894043,
				-0.07661795616149902
			],
			[
				-0.4188191890716553,
				0.60760897397995,
				0.5920289158821106,
				0.961618959903717,
				0.08201633393764496,
				0.041625361889600754,
				0.2454155534505844,
				0.9567881226539612
			],
			[
				-0.06830227375030518,
				0.33712583780288696,
				0.9410906434059143,
				1.0809907913208008,
				1.1103049516677856,
				0.9498077630996704,
				0.02619154565036297,
				0.41711774468421936
			]
		],
		"weight_2": -1,
		"weight_3": -1.9635127782821655,
		"weight_4": 1.9635127782821655,
		"weight_5": -0.5658519268035889,
		"weight_6": 13.198542594909668
	},
	"layer_3": {
		"weight_0": [
			0.005662200506776571,
			0.8428735136985779,
			0.5495701432228088,
			1.0392866134643555
		],
		"weight_1": [
			[
				0.532919704914093,
				0.43332940340042114,
				-0.6637813448905945,
				-0.5543321967124939
			],
			[
				0.29723086953163147,
				0.7653377652168274,
				1.0688658952713013,
				0.9467124938964844
			],
			[
				-0.12315914779901505,
				0.559001088142395,
				1.0704771280288696,
				1.596842885017395
			],
			[
				-0.48063603043556213,
				0.3070956766605377,
				0.06059269234538078,
				1.1014299392700195
			],
			[
				0.24649678170681,
				-0.8789092302322388,
				-0.33696284890174866,
				0.7751423120498657
			],
			[
				-0.03516596555709839,
				-2.321777820587158,
				-1.6089966297149658,
				-0.3983500003814697
			],
			[
				-0.6136311888694763,
				-0.16080090403556824,
				-0.5225469470024109,
				-0.4785543978214264
			],
			[
				-0.04005561023950577,
				1.3742438554763794,
				0.3824365735054016,
				1.2681900262832642
			]
		],
		"weight_2": -1,
		"weight_3": -2.3226969242095947,
		"weight_4": 2.3226969242095947,
		"weight_5": -0.5658519268035889,
		"weight_6": 48.541202545166016
	},
	"layer_4": {
		"weight_0": [
			0.7430008053779602
		],
		"weight_1": [
			[
				-0.987356424331665
			],
			[
				1.9415392875671387
			],
			[
				0.6799837946891785
			],
			[
				1.1657207012176514
			]
		],
		"weight_2": -1,
		"weight_3": -1.9406838417053223,
		"weight_4": 1.9406838417053223,
		"weight_5": -0.5658519268035889,
		"weight_6": 81.7229995727539
	}
}