{
	"layer_0": {
		"weight_0": [
			[
				1.147256851196289,
				-0.293292760848999,
				-0.41826531291007996,
				2.464944839477539,
				1.1069085597991943,
				0.05966583266854286,
				-0.002844572067260742,
				-0.09356346726417542,
				-0.29230430722236633,
				-0.5089261531829834,
				-2.4020955562591553,
				3.821329116821289,
				0.09489323943853378,
				0.5368316173553467,
				-0.5114238262176514,
				-0.4518279433250427
			],
			[
				-3.6156108379364014,
				-0.4674476087093353,
				-0.054592132568359375,
				3.0364933013916016,
				-5.413220405578613,
				-0.047382108867168427,
				-0.23261702060699463,
				-0.4452378749847412,
				-0.424502432346344,
				-0.11067405343055725,
				3.897278308868408,
				0.10173842310905457,
				-1.1365729570388794,
				0.7108097076416016,
				-0.0915917456150055,
				-0.1172153651714325
			]
		],
		"weight_1": [
			0.6854913234710693,
			0.0,
			0.0,
			0.37005817890167236,
			0.5404102802276611,
			-0.05782430246472359,
			0.0,
			0.0,
			0.0,
			0.0,
			0.23722119629383087,
			0.0008590592769905925,
			1.682700753211975,
			2.1640865802764893,
			0.0,
			0.0
		]
	},
	"layer_1": {
		"weight_0": [
			[
				1.4518183469772339,
				1.8054312467575073,
				1.0274115800857544,
				-0.18672120571136475,
				2.434420108795166,
				0.9594040513038635,
				1.9078471660614014,
				-0.02020740509033203
			],
			[
				0.38408124446868896,
				-0.38731372356414795,
				-0.07029366493225098,
				-0.09351074695587158,
				0.30365443229675293,
				0.13549494743347168,
				-0.3070336580276489,
				-0.06266164779663086
			],
			[
				0.1069183349609375,
				-0.4919341802597046,
				-0.41184449195861816,
				-0.39193224906921387,
				-0.26497340202331543,
				0.37438130378723145,
				0.3125101327896118,
				0.45476436614990234
			],
			[
				1.0298064947128296,
				0.22880342602729797,
				-0.9175089001655579,
				-0.15669918060302734,
				-0.06516037881374359,
				-1.3500205278396606,
				-0.4013333022594452,
				-0.44351375102996826
			],
			[
				2.3957138061523438,
				1.9744735956192017,
				0.2472371906042099,
				-0.3099466562271118,
				2.513546943664551,
				2.4113900661468506,
				2.182833671569824,
				0.331781268119812
			],
			[
				-0.11501854658126831,
				-0.051758863031864166,
				0.46106743812561035,
				-0.47665297985076904,
				-0.0395461730659008,
				-0.38758769631385803,
				-0.2176869809627533,
				-0.44917285442352295
			],
			[
				0.4144958257675171,
				-0.3018791675567627,
				-0.14691507816314697,
				0.49549317359924316,
				-0.05629992485046387,
				-0.16163384914398193,
				-0.4454857110977173,
				0.09771966934204102
			],
			[
				0.29449987411499023,
				0.13544631004333496,
				-0.15004348754882812,
				-0.003114461898803711,
				0.4256364107131958,
				0.39846575260162354,
				-0.001318812370300293,
				-0.45407092571258545
			],
			[
				0.2943081855773926,
				0.008382678031921387,
				0.3690530061721802,
				0.47614002227783203,
				0.1791524887084961,
				0.10453546047210693,
				-0.18419981002807617,
				0.07013332843780518
			],
			[
				-0.2904247045516968,
				-0.12846803665161133,
				0.1446399688720703,
				0.14327692985534668,
				-0.38720619678497314,
				0.2788379192352295,
				0.1795034408569336,
				-0.13222897052764893
			],
			[
				-0.732030987739563,
				-0.8336291909217834,
				0.3983146846294403,
				-0.20790350437164307,
				-0.6460474133491516,
				-4.179781913757324,
				-1.7424978017807007,
				-0.20891571044921875
			],
			[
				0.9187301993370056,
				0.2791554033756256,
				-2.396665334701538,
				-0.3026916980743408,
				-0.17269878089427948,
				0.37578076124191284,
				-0.1424694061279297,
				-0.09713900089263916
			],
			[
				0.8213462233543396,
				0.27062010765075684,
				0.7095465064048767,
				-0.3322685956954956,
				1.0118629932403564,
				0.21046069264411926,
				1.388290286064148,
				-0.3055607080459595
			],
			[
				0.8230813145637512,
				0.8798037171363831,
				0.9372186064720154,
				-0.2597646713256836,
				0.5955768823623657,
				-0.5751669406890869,
				0.49622291326522827,
				0.10762155055999756
			],
			[
				0.15580499172210693,
				0.3090280294418335,
				0.499972939491272,
				0.09872019290924072,
				-0.36141180992126465,
				-0.27989161014556885,
				-0.19711124897003174,
				0.10909712314605713
			],
			[
				-0.12669503688812256,
				-0.13731729984283447,
				0.42132556438446045,
				0.07172691822052002,
				-0.3411332368850708,
				0.4189335107803345,
				-0.48789286613464355,
				0.2535080909729004
			]
		],
		"weight_1": [
			1.2793573141098022,
			1.0477371215820312,
			1.2834515571594238,
			0.0,
			0.9434918165206909,
			0.9258362054824829,
			1.2511615753173828,
			0.0
		]
	},
	"layer_2": {
		"weight_0": [
			[
				0.6417006850242615,
				-0.14777392148971558,
				-0.8149418830871582,
				1.607026219367981
			],
			[
				-0.365640789270401,
				0.005983531475067139,
				-0.3684673607349396,
				1.51736319065094
			],
			[
				0.6437370777130127,
				-0.3666018843650818,
				1.9411170482635498,
				-0.930586576461792
			],
			[
				-0.4805268347263336,
				0.665989339351654,
				-0.1096038818359375,
				0.5592232346534729
			],
			[
				-0.12751361727714539,
				-0.18912118673324585,
				0.22354087233543396,
				1.5212725400924683
			],
			[
				-3.8975794315338135,
				-0.29920485615730286,
				-1.292318344116211,
				5.1707072257995605
			],
			[
				0.254573792219162,
				-0.6795828342437744,
				0.12702986598014832,
				1.7929790019989014
			],
			[
				0.5495689511299133,
				-0.19101184606552124,
				0.5216041207313538,
				0.34069114923477173
			]
		],
		"weight_1": [
			-0.10568653047084808,
			0.0,
			-0.8143764734268188,
			1.1224592924118042
		]
	},
	"layer_3": {
		"weight_0": [
			[
				-3.8943607807159424
			],
			[
				0.014081478118896484
			],
			[
				-6.360751152038574
			],
			[
				2.5223448276519775
			]
		],
		"weight_1": [
			1.1338598728179932
		]
	}
}