{
	"layer_0": {
		"weight_0": 0.0,
		"weight_1": 1.0,
		"weight_2": -1
	},
	"layer_1": {
		"weight_0": [
			0.9072509407997131,
			0.8876342177391052,
			0.8805912733078003,
			0.8914586305618286,
			-0.1193547397851944,
			0.0,
			0.8075288534164429,
			0.90784752368927,
			0.8439077138900757,
			0.8939522504806519,
			0.3640384078025818,
			0.8872087597846985,
			0.9284188747406006,
			0.0,
			0.0,
			0.3221133053302765
		],
		"weight_1": [
			[
				2.3798491954803467,
				2.3771910667419434,
				2.187837600708008,
				2.058434009552002,
				0.1230681762099266,
				-0.05836278200149536,
				1.2042983770370483,
				1.46009361743927,
				2.247792959213257,
				2.288426160812378,
				1.0878779888153076,
				1.846643328666687,
				1.7002677917480469,
				-0.1611914336681366,
				-0.25579097867012024,
				-1.1436561346054077
			],
			[
				-0.35655882954597473,
				-0.5608530044555664,
				-0.660164475440979,
				-0.5271872282028198,
				-0.0643286406993866,
				-0.19980597496032715,
				-0.5864788889884949,
				-0.12399930506944656,
				-0.7395846247673035,
				-0.3055902421474457,
				-1.0113955736160278,
				-0.6994379758834839,
				-0.6204994320869446,
				-0.37430399656295776,
				-0.2234143614768982,
				1.8369948863983154
			]
		],
		"weight_2": -1,
		"weight_3": -2.3789827823638916,
		"weight_4": 2.3789827823638916,
		"weight_5": -1.0252670049667358,
		"weight_6": 3.057093620300293
	},
	"layer_2": {
		"weight_0": -1,
		"weight_1": -0.5658519268035889,
		"weight_2": 3.052114963531494
	},
	"layer_3": {
		"weight_0": [
			0.060201652348041534,
			0.8480864763259888,
			-0.09926395863294601,
			0.8505073189735413,
			0.10259364545345306,
			0.0,
			0.11871527135372162,
			1.03248929977417
		],
		"weight_1": [
			[
				-0.23136809468269348,
				1.060807466506958,
				0.3236663043498993,
				1.0811113119125366,
				0.512771487236023,
				0.029242634773254395,
				0.5680814981460571,
				1.1619199514389038
			],
			[
				-0.00452052615582943,
				0.768435001373291,
				-0.08953036367893219,
				1.3843528032302856,
				-0.08500101417303085,
				-0.42552292346954346,
				-0.13338129222393036,
				1.0769926309585571
			],
			[
				-0.5276834964752197,
				0.8658822774887085,
				-0.6041622757911682,
				1.057239294052124,
				-0.07287152111530304,
				-0.31780457496643066,
				0.001977378036826849,
				1.059295654296875
			],
			[
				-0.3715899586677551,
				0.7223339676856995,
				0.36554983258247375,
				0.9635892510414124,
				0.2705177366733551,
				0.1374068260192871,
				-0.1458204686641693,
				0.643629789352417
			],
			[
				-0.15775319933891296,
				-0.37745219469070435,
				0.283282995223999,
				-0.2477940171957016,
				-0.005609393119812012,
				-0.3304356336593628,
				0.3759170174598694,
				0.2850196659564972
			],
			[
				0.17405378818511963,
				0.10965228080749512,
				-0.37087130546569824,
				0.4821474552154541,
				0.39187073707580566,
				0.44617795944213867,
				-0.46174395084381104,
				0.0030875205993652344
			],
			[
				-0.4555951952934265,
				0.5144617557525635,
				0.020523540675640106,
				0.5643788576126099,
				-0.4710310101509094,
				0.19153809547424316,
				-0.18579736351966858,
				0.20989347994327545
			],
			[
				0.39626041054725647,
				0.2671222388744354,
				-0.5671576857566833,
				0.6857842206954956,
				-0.32950854301452637,
				-0.24385321140289307,
				0.1848035752773285,
				0.7948925495147705
			],
			[
				-0.292705774307251,
				1.197439193725586,
				0.38679713010787964,
				0.995904803276062,
				-0.48343151807785034,
				0.26911747455596924,
				0.030989674851298332,
				1.5079138278961182
			],
			[
				0.40116021037101746,
				0.8827062249183655,
				-0.20511318743228912,
				1.0397183895111084,
				-0.10431356728076935,
				-0.29845333099365234,
				0.5654119849205017,
				0.6342544555664062
			],
			[
				-0.04565488174557686,
				0.8437619805335999,
				0.29510733485221863,
				0.9013673663139343,
				-0.2830708920955658,
				-0.20231032371520996,
				-0.3428814709186554,
				0.8969117999076843
			],
			[
				0.21042004227638245,
				0.64255291223526,
				0.018876701593399048,
				1.4034603834152222,
				-0.3930821418762207,
				-0.3548157215118408,
				-0.047846585512161255,
				0.778105616569519
			],
			[
				-0.06054792180657387,
				1.1945468187332153,
				-0.43591010570526123,
				1.1726443767547607,
				0.33775681257247925,
				-0.01646578311920166,
				-0.010032618418335915,
				1.4840912818908691
			],
			[
				-0.12405836582183838,
				0.4174884557723999,
				0.4078030586242676,
				-0.32902729511260986,
				0.10265660285949707,
				-0.16316556930541992,
				0.3592935800552368,
				0.1819167137145996
			],
			[
				0.1373523473739624,
				-0.49154138565063477,
				-0.4176921844482422,
				-0.19603502750396729,
				-0.3657665252685547,
				0.057917237281799316,
				-0.35055482387542725,
				0.28766655921936035
			],
			[
				0.6467058658599854,
				-1.9485843181610107,
				0.07894207537174225,
				-2.0329575538635254,
				0.5081306099891663,
				0.08710885047912598,
				0.743091344833374,
				-1.3802530765533447
			]
		],
		"weight_2": -1,
		"weight_3": -2.0340137481689453,
		"weight_4": 2.0340137481689453,
		"weight_5": -3.129512310028076,
		"weight_6": 25.38553810119629
	},
	"layer_4": {
		"weight_0": -1,
		"weight_1": -0.5658519268035889,
		"weight_2": 19.54115867614746
	},
	"layer_5": {
		"weight_0": [
			0.8832491040229797,
			0.20641164481639862,
			0.09294106066226959,
			0.0
		],
		"weight_1": [
			[
				0.25598466396331787,
				0.4517875015735626,
				-0.707098126411438,
				-0.20882448554039001
			],
			[
				1.1342860460281372,
				-0.3878626227378845,
				0.037779781967401505,
				-0.6151949167251587
			],
			[
				-0.027012672275304794,
				0.3810442090034485,
				0.07645944505929947,
				-0.6373807191848755
			],
			[
				1.6114003658294678,
				-0.45970919728279114,
				-0.0631413534283638,
				-0.1949765682220459
			],
			[
				1.0652925968170166,
				-0.09604804962873459,
				-0.8062509298324585,
				-0.2809153199195862
			],
			[
				0.5638877749443054,
				-0.4512519836425781,
				-0.25539422035217285,
				-0.5327500104904175
			],
			[
				-0.43488991260528564,
				0.3528841435909271,
				0.8001649379730225,
				-0.5890892148017883
			],
			[
				1.0929839611053467,
				0.6407634019851685,
				0.36204764246940613,
				0.46968668699264526
			]
		],
		"weight_2": -1,
		"weight_3": -1.6104751825332642,
		"weight_4": 1.6104751825332642,
		"weight_5": -6.3281049728393555,
		"weight_6": 56.13998794555664
	},
	"layer_6": {
		"weight_0": -1,
		"weight_1": -0.5658519268035889,
		"weight_2": 36.26129150390625
	},
	"layer_7": {
		"weight_0": [
			0.8556156754493713
		],
		"weight_1": [
			[
				1.2064566612243652
			],
			[
				0.8817137479782104
			],
			[
				-1.7567154169082642
			],
			[
				0.4814819097518921
			]
		],
		"weight_2": -1,
		"weight_3": -1.7576825618743896,
		"weight_4": 1.7576825618743896,
		"weight_5": -0.5658519268035889,
		"weight_6": 26.769418716430664
	}
}