{
	"layer_0": {
		"weight_0": [
			[
				-1.047263264656067,
				0.9100510478019714,
				-0.38765376806259155,
				0.27382799983024597,
				-0.35897308588027954,
				5.039531230926514,
				0.533990204334259,
				0.18282362818717957,
				0.30056867003440857,
				-0.5809755325317383,
				1.412756323814392,
				0.06726958602666855,
				-0.5457374453544617,
				0.04570281505584717,
				0.7830588221549988,
				3.7595012187957764
			],
			[
				1.9128258228302002,
				-3.50461745262146,
				-0.1283062994480133,
				0.9832737445831299,
				-0.5490595102310181,
				1.1285663843154907,
				-2.7679295539855957,
				-0.5224092602729797,
				-0.4458644390106201,
				-1.781105637550354,
				-12.140463829040527,
				-0.43279457092285156,
				-0.5369415879249573,
				-0.014331546612083912,
				-5.4516921043396,
				0.44432371854782104
			]
		],
		"weight_1": [
			0.4080791771411896,
			0.9785885810852051,
			0.0,
			0.7618302702903748,
			0.0,
			0.021922998130321503,
			1.3792498111724854,
			-0.11606895923614502,
			-0.24499081075191498,
			2.3643410205841064,
			0.3832404613494873,
			0.4210740327835083,
			0.0,
			-0.045629069209098816,
			0.4056120216846466,
			0.0026757458690553904
		]
	},
	"layer_1": {
		"weight_0": [
			[
				-0.3634082078933716,
				0.7162049412727356,
				-0.6959410905838013,
				0.07742297649383545,
				-0.20600974559783936,
				-1.500849723815918,
				-4.047329425811768,
				1.5488309860229492
			],
			[
				0.08311581611633301,
				-0.21958278119564056,
				1.4956132173538208,
				-0.17738428711891174,
				0.4683825969696045,
				1.22947096824646,
				1.8434419631958008,
				0.3099935054779053
			],
			[
				-0.34089410305023193,
				0.3236809968948364,
				-0.2041490077972412,
				0.44552743434906006,
				0.3210608959197998,
				-0.05744612216949463,
				-0.34685778617858887,
				-0.34808874130249023
			],
			[
				0.1502164602279663,
				-0.9743272066116333,
				0.2585822641849518,
				-0.31807076930999756,
				0.28616082668304443,
				0.40410590171813965,
				-0.6492922902107239,
				0.03543095290660858
			],
			[
				0.3898431062698364,
				0.1970435380935669,
				0.4430462121963501,
				0.09437596797943115,
				-0.10094022750854492,
				0.029965996742248535,
				0.3897411823272705,
				-0.055976152420043945
			],
			[
				-0.3021951913833618,
				0.17480678856372833,
				0.6478362679481506,
				-0.22276955842971802,
				-0.29697227478027344,
				-0.22790172696113586,
				-0.23070618510246277,
				-2.8131933212280273
			],
			[
				-0.42372775077819824,
				-0.18447859585285187,
				1.0628526210784912,
				-0.21728134155273438,
				-0.472237229347229,
				2.0583548545837402,
				1.3239494562149048,
				0.6602619886398315
			],
			[
				-0.2727707624435425,
				0.3248891532421112,
				0.009720960631966591,
				0.37547633051872253,
				0.39068520069122314,
				0.13446462154388428,
				-0.2310769408941269,
				0.08589862287044525
			],
			[
				0.08001899719238281,
				0.19944176077842712,
				0.054807789623737335,
				0.37896281480789185,
				-0.2723296880722046,
				0.16361579298973083,
				-0.19985713064670563,
				-0.14572812616825104
			],
			[
				-0.3341820240020752,
				1.445171594619751,
				-0.2916996479034424,
				-0.2097666710615158,
				-0.09616255760192871,
				1.268079161643982,
				0.9173749685287476,
				0.8595601916313171
			],
			[
				-0.2874351739883423,
				-9.218460083007812,
				6.724865436553955,
				-0.4556446373462677,
				-0.21685326099395752,
				5.296759128570557,
				4.877075672149658,
				-3.460744619369507
			],
			[
				-0.2831462621688843,
				0.3124160170555115,
				0.32358047366142273,
				-0.26197946071624756,
				-0.11816036701202393,
				1.166053056716919,
				-0.40777862071990967,
				0.16602835059165955
			],
			[
				-0.18025696277618408,
				-0.24055981636047363,
				-0.14969193935394287,
				0.36312615871429443,
				-0.46085309982299805,
				-0.37872934341430664,
				0.42513811588287354,
				0.056354403495788574
			],
			[
				0.23897969722747803,
				0.24811774492263794,
				-0.2533198297023773,
				0.033301349729299545,
				-0.15227985382080078,
				0.1512545645236969,
				-0.11470884084701538,
				0.2602386772632599
			],
			[
				-0.24997079372406006,
				-1.8361035585403442,
				2.988590955734253,
				0.23865371942520142,
				-0.002228260040283203,
				2.605762004852295,
				3.1711630821228027,
				-1.3519641160964966
			],
			[
				-0.09512293338775635,
				0.35985374450683594,
				0.9035369157791138,
				0.35775405168533325,
				-0.07802331447601318,
				0.24341048300266266,
				-0.12109500169754028,
				-2.564899444580078
			]
		],
		"weight_1": [
			0.0,
			0.5582169890403748,
			0.2870276868343353,
			-0.006392127834260464,
			0.0,
			1.0880059003829956,
			0.29793959856033325,
			1.3557795286178589
		]
	},
	"layer_2": {
		"weight_0": [
			[
				0.42082029581069946,
				-0.07248008251190186,
				0.6420925259590149,
				0.07970505952835083
			],
			[
				-0.20037026703357697,
				2.327577590942383,
				1.6879947185516357,
				-3.3653573989868164
			],
			[
				-1.2529593706130981,
				1.6753188371658325,
				0.1546896994113922,
				0.030390510335564613
			],
			[
				-0.5867571830749512,
				-0.6743203997612,
				-0.24467897415161133,
				0.41054651141166687
			],
			[
				-0.6977863907814026,
				-0.4031919240951538,
				0.14607828855514526,
				-0.5619198083877563
			],
			[
				0.6183382272720337,
				2.0474565029144287,
				-0.6538480520248413,
				-1.0261849164962769
			],
			[
				-0.03859473019838333,
				3.001519203186035,
				-1.674898624420166,
				0.32606399059295654
			],
			[
				0.5784642696380615,
				-2.0594234466552734,
				1.11283540725708,
				4.300608158111572
			]
		],
		"weight_1": [
			3.4126534461975098,
			0.5256529450416565,
			0.9092427492141724,
			0.2277919501066208
		]
	},
	"layer_3": {
		"weight_0": [
			[
				-3.979675054550171
			],
			[
				2.3468637466430664
			],
			[
				2.442476511001587
			],
			[
				-6.493012428283691
			]
		],
		"weight_1": [
			0.4891970455646515
		]
	}
}