{
	"layer_0": {
		"weight_0": 0.0,
		"weight_1": 1.0,
		"weight_2": -1
	},
	"layer_1": {
		"weight_0": [
			0.7730277180671692,
			1.7317365407943726,
			0.5372568964958191,
			0.7368450164794922,
			1.0654233694076538,
			-0.16999608278274536,
			0.3390105962753296,
			-0.12137244641780853,
			0.9043801426887512,
			0.0,
			0.942853569984436,
			-0.18133175373077393,
			-0.029175441712141037,
			0.8967711329460144,
			0.7388467192649841,
			0.0
		],
		"weight_1": [
			[
				0.7493919730186462,
				-0.9024614095687866,
				-0.5454126596450806,
				1.47263765335083,
				2.250546455383301,
				0.2059178203344345,
				5.729293346405029,
				0.14780952036380768,
				0.6971965432167053,
				-0.11853557825088501,
				0.8759980797767639,
				0.2584335207939148,
				0.03702114149928093,
				-0.19231431186199188,
				1.6819236278533936,
				-0.030909836292266846
			],
			[
				-5.193550109863281,
				-0.9102392196655273,
				3.6290979385375977,
				-0.7845650911331177,
				2.1695661544799805,
				-0.28121238946914673,
				-0.21867060661315918,
				-0.19660978019237518,
				-2.2343289852142334,
				-0.3674115240573883,
				-3.910158157348633,
				-0.6060076951980591,
				-0.0634942576289177,
				4.1396074295043945,
				-1.7704542875289917,
				-0.24062734842300415
			]
		],
		"weight_2": -1,
		"weight_3": -5.729276180267334,
		"weight_4": 5.729276180267334,
		"weight_5": -4.0988969802856445,
		"weight_6": 5.835912227630615
	},
	"layer_2": {
		"weight_0": -1,
		"weight_1": -3.3394137455289297e-10,
		"weight_2": 5.771204948425293
	},
	"layer_3": {
		"weight_0": [
			-0.027273530140519142,
			0.8654186129570007,
			-0.04554639756679535,
			1.3034058809280396,
			0.710023820400238,
			0.1771325170993805,
			0.20392416417598724,
			1.1129236221313477
		],
		"weight_1": [
			[
				-0.35632508993148804,
				0.3240596652030945,
				-0.8249993324279785,
				-0.042625799775123596,
				1.9505767822265625,
				-1.1264429092407227,
				1.1002190113067627,
				3.2857251167297363
			],
			[
				-0.3740397095680237,
				0.905326247215271,
				0.427078515291214,
				1.2430168390274048,
				0.9258800148963928,
				-0.1660921424627304,
				0.7134212851524353,
				1.3135899305343628
			],
			[
				-0.28166699409484863,
				0.17848563194274902,
				-0.33534809947013855,
				0.4768129885196686,
				-2.75506591796875,
				0.9479959607124329,
				-3.020580768585205,
				-1.0488699674606323
			],
			[
				0.11320799589157104,
				-1.0098402500152588,
				0.023384321480989456,
				-0.18950261175632477,
				1.256965160369873,
				-0.5397480726242065,
				0.7128785848617554,
				1.4492069482803345
			],
			[
				-0.3031960427761078,
				-0.27780091762542725,
				-0.24481992423534393,
				-0.6280248761177063,
				-1.0922726392745972,
				0.46115970611572266,
				-0.9981526732444763,
				0.41331547498703003
			],
			[
				0.13136117160320282,
				0.3969770669937134,
				-0.285487562417984,
				-0.421657919883728,
				0.12411656975746155,
				-0.4433281421661377,
				-0.06500068306922913,
				-0.35680708289146423
			],
			[
				0.13729220628738403,
				-2.689802646636963,
				0.02225201576948166,
				-1.2781598567962646,
				0.11590526252985,
				-0.05376249551773071,
				0.06788511574268341,
				0.11610086262226105
			],
			[
				-0.3167067766189575,
				0.2516326904296875,
				-0.47200408577919006,
				0.3141005039215088,
				-0.14094847440719604,
				-0.16450250148773193,
				0.19791142642498016,
				-0.2242232710123062
			],
			[
				0.3033905029296875,
				0.35190215706825256,
				-0.46044275164604187,
				0.5356032252311707,
				0.6024183034896851,
				0.11984134465456009,
				0.2762954831123352,
				1.853586196899414
			],
			[
				-0.36801302433013916,
				0.41147589683532715,
				0.03879725933074951,
				-0.1864694356918335,
				0.13211989402770996,
				-0.35261785984039307,
				0.1772470474243164,
				0.18067920207977295
			],
			[
				-0.46756649017333984,
				0.2174733281135559,
				-0.5657540559768677,
				0.16294270753860474,
				1.0763441324234009,
				-0.9995738863945007,
				0.7850766777992249,
				2.5079777240753174
			],
			[
				0.04963100329041481,
				-0.2182621955871582,
				0.09549784660339355,
				-0.13325345516204834,
				0.0351579450070858,
				-0.30357587337493896,
				-0.2888372838497162,
				0.18194463849067688
			],
			[
				-0.06549667567014694,
				-0.40876686573028564,
				-0.3888981342315674,
				-0.3886117935180664,
				-0.42068782448768616,
				0.25338995456695557,
				0.2823597192764282,
				-0.14036783576011658
			],
			[
				-0.48250865936279297,
				-0.2986733913421631,
				0.22435440123081207,
				0.3496021628379822,
				-1.5642354488372803,
				0.6067407727241516,
				-1.7952284812927246,
				0.13684993982315063
			],
			[
				-0.014108999632298946,
				-0.2528945505619049,
				-0.2597993016242981,
				0.6025387644767761,
				0.7847146391868591,
				-0.1873357743024826,
				1.3250672817230225,
				1.5382384061813354
			],
			[
				-0.04769241809844971,
				0.24200832843780518,
				-0.25337183475494385,
				0.26893889904022217,
				0.3210320472717285,
				0.1628110408782959,
				-0.06601130962371826,
				-0.2820422649383545
			]
		],
		"weight_2": -1,
		"weight_3": -3.285351276397705,
		"weight_4": 3.285351276397705,
		"weight_5": -23.46245765686035,
		"weight_6": 16.27614402770996
	},
	"layer_4": {
		"weight_0": -1,
		"weight_1": -3.3394137455289297e-10,
		"weight_2": 15.749874114990234
	},
	"layer_5": {
		"weight_0": [
			0.9575801491737366,
			1.0447659492492676,
			-0.7808617949485779,
			-0.7749620079994202
		],
		"weight_1": [
			[
				-0.0077239335514605045,
				0.3654234707355499,
				-0.4948846101760864,
				0.5679044127464294
			],
			[
				-3.8427443504333496,
				-3.9774067401885986,
				1.9752017259597778,
				3.7566473484039307
			],
			[
				0.6481411457061768,
				0.2484203726053238,
				0.634137749671936,
				-0.634975016117096
			],
			[
				-0.4569389820098877,
				-1.580801248550415,
				0.3355914056301117,
				2.768589735031128
			],
			[
				1.833491563796997,
				2.074998378753662,
				-0.07288399338722229,
				-0.11109945923089981
			],
			[
				0.43663936853408813,
				0.6986020803451538,
				-2.790074586868286,
				-1.070326805114746
			],
			[
				3.9763431549072266,
				3.9798545837402344,
				-2.0373260974884033,
				-1.8443031311035156
			],
			[
				1.5511205196380615,
				1.3945777416229248,
				0.12042660266160965,
				-0.422735333442688
			]
		],
		"weight_2": -1,
		"weight_3": -3.9798545837402344,
		"weight_4": 3.9798545837402344,
		"weight_5": -23.594417572021484,
		"weight_6": 29.96803855895996
	},
	"layer_6": {
		"weight_0": -1,
		"weight_1": -3.3394137455289297e-10,
		"weight_2": 29.031021118164062
	},
	"layer_7": {
		"weight_0": [
			1.1068449020385742
		],
		"weight_1": [
			[
				2.471870183944702
			],
			[
				2.502146005630493
			],
			[
				-4.742560863494873
			],
			[
				-4.851320266723633
			]
		],
		"weight_2": -1,
		"weight_3": -4.851382255554199,
		"weight_4": 4.851382255554199,
		"weight_5": -0.050406601279973984,
		"weight_6": 137.54640197753906
	}
}