{
	"layer_0": {
		"weight_0": [
			[
				-0.24466228485107422,
				-4.388827800750732,
				-0.18023371696472168,
				1.687038779258728,
				5.2014336585998535,
				8.650969505310059,
				2.8567309379577637,
				3.538175106048584
			],
			[
				-0.29054486751556396,
				4.175276279449463,
				7.3331403732299805,
				4.309851169586182,
				1.4794704914093018,
				0.6718729138374329,
				3.1704413890838623,
				2.0325493812561035
			]
		],
		"weight_1": [
			0.0,
			0.1950889229774475,
			0.29009366035461426,
			-0.07841721922159195,
			0.2819528579711914,
			0.00025156751507893205,
			-0.05357358604669571,
			-0.2001430243253708
		]
	},
	"layer_1": {
		"weight_0": [
			[
				-0.5629908442497253,
				0.540743887424469,
				0.42227989435195923,
				-0.45448875427246094,
				0.19603639841079712,
				-0.3457843065261841,
				-0.26672640442848206,
				0.5143232941627502
			],
			[
				-2.2074382305145264,
				-3.7263906002044678,
				1.557282567024231,
				2.6751081943511963,
				1.211667537689209,
				1.265897274017334,
				1.281221628189087,
				1.6806163787841797
			],
			[
				-8.538582801818848,
				0.7355555891990662,
				1.207688570022583,
				1.3139327764511108,
				1.9414231777191162,
				1.0968393087387085,
				1.9304581880569458,
				2.1230669021606445
			],
			[
				-2.7073769569396973,
				1.5265740156173706,
				1.157105803489685,
				0.4848671853542328,
				1.9051417112350464,
				1.5366795063018799,
				1.9448943138122559,
				0.9800027012825012
			],
			[
				1.1356534957885742,
				-1.640592336654663,
				1.2533115148544312,
				-4.7513427734375,
				1.4622807502746582,
				1.0813349485397339,
				1.4226815700531006,
				-3.0635952949523926
			],
			[
				1.8074201345443726,
				0.26888248324394226,
				1.505628228187561,
				-9.860779762268066,
				1.7828131914138794,
				1.965720295906067,
				2.0617830753326416,
				-4.334277629852295
			],
			[
				0.08380585163831711,
				1.3838056325912476,
				1.6639741659164429,
				0.044768840074539185,
				1.948166847229004,
				1.076292634010315,
				1.5583614110946655,
				0.05689462274312973
			],
			[
				1.601509690284729,
				0.09574034810066223,
				1.8119832277297974,
				-0.8104214668273926,
				1.43998122215271,
				1.8689064979553223,
				1.6313899755477905,
				-0.0988093763589859
			]
		],
		"weight_1": [
			-1.324325442314148,
			2.5133116245269775,
			-1.1937161684036255,
			0.746636152267456,
			-1.449843168258667,
			-1.1735981702804565,
			-1.455865502357483,
			0.5694583654403687
		]
	},
	"layer_2": {
		"weight_0": [
			[
				-3.7687089443206787
			],
			[
				10.940727233886719
			],
			[
				1.9298025369644165
			],
			[
				-9.61378002166748
			],
			[
				1.2759389877319336
			],
			[
				1.1099013090133667
			],
			[
				1.5951899290084839
			],
			[
				-4.609037399291992
			]
		],
		"weight_1": [
			-2.2744123935699463
		]
	}
}