{
	"layer_0": {
		"weight_0": 0.0,
		"weight_1": 1.0,
		"weight_2": -1
	},
	"layer_1": {
		"weight_0": [
			0.330377459526062,
			0.0,
			0.0741930827498436,
			0.22900106012821198,
			0.0,
			0.0,
			0.8860004544258118,
			0.0,
			1.0102932453155518,
			-0.12675905227661133,
			0.3987646996974945,
			0.4905967116355896,
			1.829405665397644,
			0.0,
			0.5953276753425598,
			0.0
		],
		"weight_1": [
			[
				1.660509705543518,
				-0.4349091053009033,
				5.283654689788818,
				0.8643825650215149,
				-0.08243522047996521,
				-0.019954979419708252,
				1.3158639669418335,
				-0.1686876118183136,
				1.600677251815796,
				1.7723323106765747,
				-0.9373078346252441,
				-5.303637981414795,
				-0.896583616733551,
				-0.45193296670913696,
				0.879548192024231,
				-0.006532073020935059
			],
			[
				-0.4672859311103821,
				-0.4815410077571869,
				1.0508840084075928,
				-0.23132021725177765,
				-0.527756929397583,
				-0.07537096738815308,
				-3.4274749755859375,
				-0.5107561945915222,
				-2.6976404190063477,
				3.0733654499053955,
				3.645810842514038,
				3.3446543216705322,
				-1.1032485961914062,
				-0.18743732571601868,
				-0.6327473521232605,
				-0.10867741703987122
			]
		],
		"weight_2": -1,
		"weight_3": -5.304650783538818,
		"weight_4": 5.304650783538818,
		"weight_5": -1.0344233678196528e-30,
		"weight_6": 6.06019926071167
	},
	"layer_2": {
		"weight_0": [
			0.8023125529289246,
			0.6232928037643433,
			-0.29152557253837585,
			-0.16074280440807343,
			0.7978110909461975,
			-0.4741494357585907,
			0.9543277025222778,
			0.6209535002708435
		],
		"weight_1": [
			[
				0.6205284595489502,
				0.33889052271842957,
				0.9061369299888611,
				0.28242334723472595,
				0.8357564806938171,
				-0.061777371913194656,
				-0.8515477776527405,
				-0.5904580354690552
			],
			[
				0.0013412237167358398,
				-0.10532164573669434,
				0.08977150917053223,
				-0.44042539596557617,
				0.1023935079574585,
				0.4562869071960449,
				-0.05586600303649902,
				-0.3315112590789795
			],
			[
				-0.25993457436561584,
				-0.12185795605182648,
				0.8708620667457581,
				-1.0198265314102173,
				1.0000133514404297,
				0.552781343460083,
				-2.671759605407715,
				-0.5182333588600159
			],
			[
				0.3415346145629883,
				-0.006737103685736656,
				0.8689172267913818,
				0.12041459232568741,
				0.3911774158477783,
				0.11858709901571274,
				-0.7310383915901184,
				-0.10857755690813065
			],
			[
				-0.03260219097137451,
				0.22329497337341309,
				-0.21397650241851807,
				-0.22931134700775146,
				-0.3108116388320923,
				-0.2228773832321167,
				0.05430412292480469,
				-0.45744788646698
			],
			[
				0.29336118698120117,
				-0.36049365997314453,
				0.1707298755645752,
				0.4707643985748291,
				-0.39230287075042725,
				-0.1880016326904297,
				-0.33663439750671387,
				0.10921943187713623
			],
			[
				0.3905007839202881,
				1.0783421993255615,
				-1.0576300621032715,
				0.3339262008666992,
				1.4661221504211426,
				-0.2915169298648834,
				0.5416576862335205,
				1.1125198602676392
			],
			[
				-0.04049575328826904,
				-0.22437644004821777,
				-0.061537981033325195,
				0.24584972858428955,
				0.04701113700866699,
				0.2869257926940918,
				-0.43617868423461914,
				-0.2803241014480591
			],
			[
				0.7864392995834351,
				0.4809443950653076,
				-0.15741297602653503,
				-0.16115961968898773,
				1.7098877429962158,
				-0.6421041488647461,
				0.6453249454498291,
				-0.20450459420681
			],
			[
				-0.805162250995636,
				-1.2198526859283447,
				-0.4643884599208832,
				0.001046672579832375,
				0.42747774720191956,
				1.2164207696914673,
				-2.343742847442627,
				0.5712280869483948
			],
			[
				-2.461674690246582,
				-3.5025715827941895,
				-0.7598376870155334,
				2.274202585220337,
				-0.3993394374847412,
				2.2583799362182617,
				0.9812027812004089,
				0.7937785387039185
			],
			[
				-1.9753623008728027,
				-2.500145196914673,
				0.6139416098594666,
				1.1589579582214355,
				-0.5820009112358093,
				1.1157552003860474,
				1.4123599529266357,
				0.8089964389801025
			],
			[
				0.8071191906929016,
				0.5746443867683411,
				0.45245155692100525,
				0.06637183576822281,
				0.38151735067367554,
				-0.009071032516658306,
				0.5867118239402771,
				1.5013238191604614
			],
			[
				0.20850586891174316,
				-0.27233922481536865,
				-0.15537869930267334,
				-0.4643765687942505,
				0.3228645324707031,
				-0.3400890827178955,
				-0.0521007776260376,
				-0.44228172302246094
			],
			[
				0.9106695652008057,
				0.29057884216308594,
				0.02025686949491501,
				0.18340814113616943,
				0.5800355076789856,
				0.4602792263031006,
				-0.8981220722198486,
				0.34554731845855713
			],
			[
				0.4062469005584717,
				0.11329662799835205,
				-0.45221173763275146,
				-0.27495408058166504,
				-0.1776033639907837,
				-0.480025053024292,
				0.23052620887756348,
				-0.41596508026123047
			]
		],
		"weight_2": -1,
		"weight_3": -3.5019330978393555,
		"weight_4": 3.5019330978393555,
		"weight_5": -1.0344233678196528e-30,
		"weight_6": 16.430574417114258
	},
	"layer_3": {
		"weight_0": [
			-2.502800703048706,
			0.9384528994560242,
			0.3017351031303406,
			0.9882248640060425
		],
		"weight_1": [
			[
				-0.02567976713180542,
				1.051171064376831,
				1.3547990322113037,
				1.9337430000305176
			],
			[
				0.32635021209716797,
				2.939574718475342,
				3.0065433979034424,
				2.2703537940979004
			],
			[
				0.6788807511329651,
				0.7319323420524597,
				-0.5826275944709778,
				0.31379979848861694
			],
			[
				0.020308947190642357,
				-0.7540229558944702,
				-2.772538185119629,
				0.009367602877318859
			],
			[
				0.21911901235580444,
				1.276711106300354,
				0.8251990675926208,
				1.9948745965957642
			],
			[
				0.5516265034675598,
				0.46399834752082825,
				-4.912130355834961,
				-0.40687867999076843
			],
			[
				-0.3011363744735718,
				-1.9767366647720337,
				4.422318458557129,
				-1.7438414096832275
			],
			[
				-0.982381284236908,
				0.3628131151199341,
				-2.689009428024292,
				0.8296434879302979
			]
		],
		"weight_2": -1,
		"weight_3": -4.912130355834961,
		"weight_4": 4.912130355834961,
		"weight_5": -1.0344233678196528e-30,
		"weight_6": 39.8460578918457
	},
	"layer_4": {
		"weight_0": [
			0.9124343395233154
		],
		"weight_1": [
			[
				-3.7618775367736816
			],
			[
				2.700252056121826
			],
			[
				5.647258758544922
			],
			[
				1.588901162147522
			]
		],
		"weight_2": -1,
		"weight_3": -5.647258758544922,
		"weight_4": 5.647258758544922,
		"weight_5": -1.0344233678196528e-30,
		"weight_6": 140.9766387939453
	}
}