{
	"layer_0": {
		"weight_0": [
			[
				2.2225117683410645,
				3.874864101409912,
				1.6311882734298706,
				2.9829840660095215,
				4.252669334411621,
				-0.4319750666618347,
				0.06920228153467178,
				-0.37578675150871277,
				0.7761492729187012,
				1.0556011199951172,
				0.2686273753643036,
				-0.41916581988334656,
				1.188768744468689,
				-0.03626784682273865,
				-0.43876758217811584,
				0.28923726081848145
			],
			[
				1.2704170942306519,
				0.7367469072341919,
				1.6148931980133057,
				0.6794454455375671,
				0.13216932117938995,
				-0.04844534397125244,
				-0.0436062254011631,
				-0.3786160349845886,
				3.538910388946533,
				2.942409038543701,
				4.33396053314209,
				-0.024845898151397705,
				1.720254898071289,
				0.08167613297700882,
				4.639555931091309,
				4.360232830047607
			]
		],
		"weight_1": [
			0.07220274209976196,
			0.07959157973527908,
			-0.032197266817092896,
			-0.01544596441090107,
			0.10041366517543793,
			0.0,
			-0.07115133106708527,
			0.0,
			0.2568114995956421,
			-0.5141173601150513,
			0.17893165349960327,
			0.0,
			0.07334885001182556,
			-0.08183877915143967,
			0.4459967315196991,
			0.21545472741127014
		]
	},
	"layer_1": {
		"weight_0": [
			[
				-0.45214730501174927,
				-0.469637930393219,
				-0.1512051820755005,
				0.7486211657524109,
				0.2632429599761963,
				1.3767402172088623,
				1.5254936218261719,
				0.1974278688430786
			],
			[
				-0.2549852430820465,
				-1.7941313982009888,
				-0.37819552421569824,
				-0.011526582762598991,
				-0.2951998710632324,
				1.6357420682907104,
				1.6009701490402222,
				0.010126471519470215
			],
			[
				0.4246092140674591,
				-0.3545670509338379,
				-0.0069304704666137695,
				1.172632098197937,
				1.009366512298584,
				0.7260718941688538,
				1.5047831535339355,
				-0.4659613370895386
			],
			[
				0.10044454038143158,
				-1.5908037424087524,
				0.3667433261871338,
				-0.5220750570297241,
				-0.7858421206474304,
				1.9929183721542358,
				2.967987298965454,
				-0.11247646808624268
			],
			[
				-0.12385758757591248,
				-3.268454074859619,
				-0.13292884826660156,
				-0.2492883801460266,
				-0.7744401693344116,
				2.21437668800354,
				1.894015908241272,
				-0.17882978916168213
			],
			[
				0.04426610469818115,
				-0.036600351333618164,
				0.34665095806121826,
				-0.3402085304260254,
				0.16945624351501465,
				0.4211916923522949,
				-0.4310106039047241,
				-0.35935282707214355
			],
			[
				0.15890955924987793,
				-0.43966221809387207,
				0.3890596628189087,
				-0.4260650873184204,
				-0.3485443890094757,
				-0.23595312237739563,
				-0.02788989618420601,
				-0.07687163352966309
			],
			[
				0.48251330852508545,
				-0.48979878425598145,
				0.049997806549072266,
				-0.2215116024017334,
				0.3763163089752197,
				-0.21075987815856934,
				-0.4096097946166992,
				-0.1824944019317627
			],
			[
				0.1013062447309494,
				0.42278042435646057,
				0.17825424671173096,
				1.6646007299423218,
				1.6321886777877808,
				1.2876591682434082,
				0.6005882024765015,
				-0.1372591257095337
			],
			[
				0.16238225996494293,
				0.21037115156650543,
				-0.4233030080795288,
				1.8872872591018677,
				1.6935160160064697,
				1.01154363155365,
				0.9432207345962524,
				-0.24379944801330566
			],
			[
				-0.13459698855876923,
				0.4240648150444031,
				-0.4762246608734131,
				2.585552930831909,
				2.4335389137268066,
				1.0441319942474365,
				0.8416996598243713,
				0.1764848232269287
			],
			[
				-0.08164405822753906,
				-0.10708510875701904,
				-0.34487712383270264,
				0.20252609252929688,
				0.1944425106048584,
				-0.33226335048675537,
				0.2965736389160156,
				-0.48405587673187256
			],
			[
				0.19763243198394775,
				-0.08675339072942734,
				-0.45089197158813477,
				1.1189954280853271,
				1.0133434534072876,
				1.0040055513381958,
				0.9827317595481873,
				0.11034834384918213
			],
			[
				-0.31440871953964233,
				-0.380609393119812,
				0.24442052841186523,
				0.2247186303138733,
				-0.013509207405149937,
				-0.23530644178390503,
				-0.4082099497318268,
				0.1144188642501831
			],
			[
				-0.04695798084139824,
				1.1001102924346924,
				-0.304917573928833,
				3.217573404312134,
				4.007141590118408,
				0.38527071475982666,
				0.007815391756594181,
				-0.4902479648590088
			],
			[
				-0.3155079782009125,
				0.4998297393321991,
				-0.04656100273132324,
				2.118046998977661,
				2.4154562950134277,
				0.820377767086029,
				0.9242348670959473,
				-0.23127210140228271
			]
		],
		"weight_1": [
			-0.009295890107750893,
			0.12592364847660065,
			0.0,
			-0.2853594422340393,
			-0.20136062800884247,
			0.16911503672599792,
			0.1860542893409729,
			0.0
		]
	},
	"layer_2": {
		"weight_0": [
			[
				0.45907658338546753,
				-0.24464762210845947,
				-0.15411192178726196,
				-0.3443233072757721
			],
			[
				2.8511574268341064,
				-0.2917414903640747,
				-3.3221867084503174,
				0.09000492095947266
			],
			[
				0.20492488145828247,
				0.22870749235153198,
				-0.21765238046646118,
				0.3328353762626648
			],
			[
				0.6972897052764893,
				-0.30768245458602905,
				1.5603338479995728,
				0.22810284793376923
			],
			[
				0.9798564314842224,
				-0.3205142915248871,
				2.040919780731201,
				-0.5066769123077393
			],
			[
				-0.6149665713310242,
				-0.604433000087738,
				1.3834969997406006,
				-0.08762799948453903
			],
			[
				-0.729896605014801,
				-0.09840178489685059,
				0.9876904487609863,
				-0.002989943139255047
			],
			[
				-0.6383777260780334,
				-0.30621403455734253,
				0.3776436448097229,
				0.3387147784233093
			]
		],
		"weight_1": [
			0.11322121322154999,
			0.0,
			0.2113652378320694,
			-0.0956001728773117
		]
	},
	"layer_3": {
		"weight_0": [
			[
				-4.736063003540039
			],
			[
				-0.7543001174926758
			],
			[
				1.9183344841003418
			],
			[
				-0.22055266797542572
			]
		],
		"weight_1": [
			0.2202698290348053
		]
	}
}