{
	"layer_0": {
		"weight_0": [
			[
				-0.2779068350791931,
				0.5638132095336914,
				1.7029982805252075,
				1.7155110836029053,
				2.810344696044922,
				1.4535222053527832,
				0.041761402040719986,
				0.6401147246360779,
				0.4816031754016876,
				-0.3505018949508667,
				1.4377142190933228,
				-0.2727617025375366,
				5.129178524017334,
				-0.44094735383987427,
				-0.11691460013389587,
				-0.43553030490875244
			],
			[
				-0.3175792396068573,
				-4.342762470245361,
				0.18734999001026154,
				-0.13195595145225525,
				2.863206148147583,
				-1.3628041744232178,
				-0.3763514459133148,
				-2.984647512435913,
				0.5464401841163635,
				-0.11042681336402893,
				0.20906300842761993,
				-0.4740583002567291,
				0.8945334553718567,
				2.3449020385742188,
				-0.4645252823829651,
				3.421060562133789
			]
		],
		"weight_1": [
			0.0,
			0.689538300037384,
			1.2266193628311157,
			0.9311399459838867,
			0.24466611444950104,
			0.6118925213813782,
			-0.0023289271630346775,
			1.0633901357650757,
			0.8047067523002625,
			0.0,
			0.5454569458961487,
			0.0,
			0.0067369285970926285,
			0.17208513617515564,
			0.0,
			0.20569215714931488
		]
	},
	"layer_1": {},
	"layer_2": {
		"weight_0": [
			[
				0.0720670223236084,
				0.39822518825531006,
				-0.22481966018676758,
				-0.32129836082458496,
				-0.05287063121795654,
				-0.028031110763549805,
				0.2659170627593994,
				0.47883546352386475
			],
			[
				0.36665576696395874,
				0.3559100329875946,
				-0.031679511070251465,
				3.877300500869751,
				1.6030714511871338,
				0.5146539211273193,
				-1.9663619995117188,
				3.40329647064209
			],
			[
				-0.43973562121391296,
				0.08707532286643982,
				0.43890810012817383,
				0.7391771674156189,
				-0.2444467693567276,
				0.12332120537757874,
				0.6525915861129761,
				0.9278284907341003
			],
			[
				-0.3972759246826172,
				0.07573985308408737,
				-0.22248375415802002,
				1.1592442989349365,
				0.24665164947509766,
				-0.39895355701446533,
				0.18288525938987732,
				0.8856096267700195
			],
			[
				0.33776941895484924,
				-0.17303387820720673,
				-0.08457720279693604,
				0.6360885500907898,
				-0.6964999437332153,
				-0.7306464910507202,
				0.4072670638561249,
				0.7284198999404907
			],
			[
				0.10532034933567047,
				0.14531074464321136,
				-0.24022841453552246,
				1.3821791410446167,
				0.9357712268829346,
				-0.029958168044686317,
				0.1911705583333969,
				1.4127781391143799
			],
			[
				-0.18967846035957336,
				0.3136259615421295,
				0.006427645683288574,
				-0.517278790473938,
				-0.3914969563484192,
				-0.13694369792938232,
				0.165480375289917,
				0.1557808667421341
			],
			[
				-0.3893442153930664,
				0.5947355031967163,
				-0.23921024799346924,
				2.113955020904541,
				1.4231816530227661,
				0.5256577134132385,
				0.0956680178642273,
				2.0568296909332275
			],
			[
				-0.13829606771469116,
				0.20496110618114471,
				-0.29222404956817627,
				0.39276063442230225,
				-0.14929601550102234,
				0.7373368740081787,
				-0.35007673501968384,
				0.6001966595649719
			],
			[
				-0.3072441816329956,
				0.30137479305267334,
				0.033271193504333496,
				-0.34286975860595703,
				-0.012521743774414062,
				-0.338101863861084,
				-0.18944501876831055,
				-0.006010293960571289
			],
			[
				0.119838647544384,
				-0.2672797441482544,
				-0.19722843170166016,
				1.135573387145996,
				0.13525471091270447,
				-0.0023574628867208958,
				-0.20003454387187958,
				0.7886805534362793
			],
			[
				0.3198554515838623,
				0.15315675735473633,
				-0.31192779541015625,
				-0.3083409070968628,
				0.23533344268798828,
				-0.42554593086242676,
				0.4488786458969116,
				0.424338698387146
			],
			[
				0.7151229381561279,
				-1.8583844900131226,
				-0.3129678964614868,
				0.7351693511009216,
				-0.21534281969070435,
				-3.3061702251434326,
				0.4223988354206085,
				1.0988085269927979
			],
			[
				-0.23982098698616028,
				0.3230028748512268,
				0.4250293970108032,
				-0.6527804136276245,
				-3.3597259521484375,
				0.682822585105896,
				0.02935752458870411,
				-1.2035776376724243
			],
			[
				0.46994006633758545,
				-0.4176595211029053,
				0.30192649364471436,
				0.4727591276168823,
				0.4872626066207886,
				0.07962191104888916,
				0.07404279708862305,
				0.00823974609375
			],
			[
				-0.1250804215669632,
				0.1993127167224884,
				-0.14532554149627686,
				-0.9121900796890259,
				-3.795215129852295,
				0.251590758562088,
				-0.49348577857017517,
				-0.8785942792892456
			]
		],
		"weight_1": [
			-0.7220252156257629,
			0.8996106386184692,
			0.0,
			0.6773684620857239,
			0.34251922369003296,
			0.35027432441711426,
			0.08090890198945999,
			0.7082326412200928
		]
	},
	"layer_3": {},
	"layer_4": {
		"weight_0": [
			[
				-1.7398326396942139,
				1.8275878429412842,
				-0.29492154717445374,
				1.2082728147506714
			],
			[
				-2.361539840698242,
				0.7566049098968506,
				-0.240960955619812,
				2.0580978393554688
			],
			[
				0.7068483233451843,
				0.3418322205543518,
				0.0707663893699646,
				-0.4646061062812805
			],
			[
				1.8033473491668701,
				-0.48893463611602783,
				-0.2974534332752228,
				0.28672274947166443
			],
			[
				3.1600124835968018,
				-0.338389128446579,
				-0.4782204031944275,
				-3.231069803237915
			],
			[
				-2.292795181274414,
				2.3871302604675293,
				-0.05645805597305298,
				2.047823905944824
			],
			[
				-1.2291871309280396,
				0.1312742382287979,
				0.05139916390180588,
				1.1879713535308838
			],
			[
				1.9003816843032837,
				0.4835982918739319,
				-0.15225988626480103,
				0.09526004642248154
			]
		],
		"weight_1": [
			0.6459014415740967,
			0.4334871470928192,
			-0.003162262961268425,
			0.18972435593605042
		]
	},
	"layer_5": {},
	"layer_6": {
		"weight_0": [
			[
				2.7696831226348877
			],
			[
				-1.9692596197128296
			],
			[
				-0.8275194764137268
			],
			[
				-3.6669235229492188
			]
		],
		"weight_1": [
			0.6360666751861572
		]
	}
}