{
	"layer_0": {
		"weight_0": [
			[
				-0.033174753189086914,
				-0.30368542671203613,
				0.30560773611068726,
				0.6635852456092834,
				0.7067587375640869,
				-0.10540414601564407,
				1.2546958923339844,
				-0.0654296875,
				1.296834111213684,
				-0.2680138945579529,
				0.09650161117315292,
				0.17434194684028625,
				0.12692426145076752,
				-0.553806722164154,
				0.5787623524665833,
				0.6877835392951965
			],
			[
				-0.5136603713035583,
				1.4378886222839355,
				-0.11299945414066315,
				0.3591565787792206,
				-0.03430572524666786,
				0.005988475400954485,
				-0.47391676902770996,
				-0.4525529444217682,
				-0.6665006875991821,
				1.3879612684249878,
				-0.4122943580150604,
				-0.25391069054603577,
				-0.140621155500412,
				-0.19525384902954102,
				-0.3493748605251312,
				0.3007385730743408
			]
		],
		"weight_1": [
			0.0,
			0.23019683361053467,
			0.9711858630180359,
			0.9869070053100586,
			0.9316522479057312,
			-0.007548944558948278,
			0.8841657042503357,
			0.0,
			0.8866214752197266,
			0.20724529027938843,
			-0.04304086044430733,
			-0.14601518213748932,
			-0.11087002605199814,
			0.0,
			0.7808487415313721,
			0.9955024123191833
		]
	},
	"layer_1": {
		"weight_0": [
			[
				0.05675363540649414,
				-0.0436406135559082,
				-0.16409218311309814,
				0.3929154872894287,
				0.15141284465789795,
				0.21372568607330322,
				0.3690835237503052,
				0.33624863624572754
			],
			[
				0.4977010488510132,
				-1.4191917181015015,
				-1.4764059782028198,
				-1.0192655324935913,
				0.760393500328064,
				1.5535447597503662,
				-0.044816404581069946,
				-1.5590908527374268
			],
			[
				0.21922028064727783,
				0.28063344955444336,
				0.761482834815979,
				0.7055379152297974,
				1.0468218326568604,
				0.5197552442550659,
				-0.3292805552482605,
				0.8920329213142395
			],
			[
				-0.3259749412536621,
				0.3214815557003021,
				0.8364256024360657,
				0.8557009100914001,
				0.42302075028419495,
				0.8679608106613159,
				0.003512187162414193,
				0.45646947622299194
			],
			[
				-0.22907555103302002,
				0.4777206778526306,
				0.5985382199287415,
				0.7834644913673401,
				0.40340110659599304,
				0.2790500223636627,
				-0.1595495045185089,
				0.43780389428138733
			],
			[
				-0.43260717391967773,
				0.21287745237350464,
				-0.37973088026046753,
				0.06374993175268173,
				0.19134831428527832,
				0.036467574536800385,
				-0.15807665884494781,
				0.0752008706331253
			],
			[
				-0.25819361209869385,
				0.9607713222503662,
				0.9349212050437927,
				0.43621397018432617,
				0.501563310623169,
				-0.6620039939880371,
				0.08736041933298111,
				1.12394380569458
			],
			[
				0.3639369010925293,
				0.133325457572937,
				0.3300938606262207,
				0.12709105014801025,
				0.15685033798217773,
				0.15346801280975342,
				0.30198824405670166,
				-0.4841728210449219
			],
			[
				-0.2946889400482178,
				1.207608699798584,
				1.0645726919174194,
				0.9176613092422485,
				0.10955910384654999,
				-0.40792420506477356,
				0.02312813512980938,
				1.329124927520752
			],
			[
				-0.3382275104522705,
				-1.229628562927246,
				-1.3576736450195312,
				-1.2447028160095215,
				1.1249436140060425,
				1.2971550226211548,
				-0.5395970940589905,
				-1.4044368267059326
			],
			[
				-0.4410524368286133,
				-0.41323205828666687,
				-0.4419128894805908,
				0.16544753313064575,
				-0.3721437454223633,
				-0.27143657207489014,
				0.12285963445901871,
				0.3422233760356903
			],
			[
				-0.18495678901672363,
				-0.2806331515312195,
				-0.2837580144405365,
				-0.06917671114206314,
				0.08994007110595703,
				-0.5189734101295471,
				-0.17064431309700012,
				0.12213129550218582
			],
			[
				0.25533175468444824,
				-0.02874104492366314,
				0.024090522900223732,
				-0.37753769755363464,
				0.2880394458770752,
				0.40522974729537964,
				0.27550646662712097,
				-0.2547282576560974
			],
			[
				-0.4214913845062256,
				0.3143354654312134,
				0.4175429344177246,
				0.3674541711807251,
				0.38546228408813477,
				-0.07580685615539551,
				0.42943263053894043,
				-0.07661795616149902
			],
			[
				-0.4188191890716553,
				0.6354363560676575,
				0.5611270070075989,
				0.8324806690216064,
				0.06630980968475342,
				0.002128085121512413,
				0.2454155534505844,
				0.8792207837104797
			],
			[
				-0.06830227375030518,
				0.41090819239616394,
				0.9112825989723206,
				0.9151610732078552,
				0.7393979430198669,
				0.8185386657714844,
				0.02619154565036297,
				0.3623644709587097
			]
		],
		"weight_1": [
			0.0,
			0.8286268711090088,
			0.9130781888961792,
			0.9353620409965515,
			0.6041535139083862,
			-0.290801465511322,
			-0.1112051010131836,
			0.8347942233085632
		]
	},
	"layer_2": {
		"weight_0": [
			[
				0.532919704914093,
				0.43332940340042114,
				-0.6637813448905945,
				-0.5543321967124939
			],
			[
				0.29723086953163147,
				0.5551748275756836,
				1.4599584341049194,
				0.9228204488754272
			],
			[
				-0.12953001260757446,
				0.41087502241134644,
				1.4771320819854736,
				1.459625482559204
			],
			[
				-0.5029681921005249,
				0.1775062531232834,
				0.4767933487892151,
				0.9479830265045166
			],
			[
				0.21648721396923065,
				-0.8429474830627441,
				0.13185258209705353,
				0.5577203035354614
			],
			[
				-0.06595636159181595,
				-2.1218245029449463,
				-1.0907516479492188,
				-0.611181378364563
			],
			[
				-0.6136311888694763,
				-0.16080090403556824,
				-0.5225469470024109,
				-0.4785543978214264
			],
			[
				-0.008182952180504799,
				1.1941221952438354,
				0.789870023727417,
				1.1900900602340698
			]
		],
		"weight_1": [
			-0.03548262640833855,
			0.602332353591919,
			0.900124728679657,
			0.9704172015190125
		]
	},
	"layer_3": {
		"weight_0": [
			[
				-0.9265734553337097
			],
			[
				1.3269063234329224
			],
			[
				0.971159815788269
			],
			[
				1.4569958448410034
			]
		],
		"weight_1": [
			0.9606361389160156
		]
	}
}