{
	"layer_0": {
		"weight_0": [
			[
				0.8133147954940796,
				1.1789470911026,
				0.9964895248413086,
				0.4656877815723419,
				0.024764861911535263,
				0.638383686542511,
				0.20349064469337463,
				0.020183512941002846,
				0.6639361381530762,
				-0.5460457801818848,
				0.060840096324682236,
				-0.1290850043296814,
				0.914823591709137,
				0.8335322737693787,
				0.26446741819381714,
				-0.5744778513908386
			],
			[
				-0.5740403532981873,
				-0.5151605010032654,
				-0.6326183080673218,
				-0.5162397623062134,
				-0.02210257388651371,
				-1.9805468320846558,
				-0.5655205845832825,
				0.08591374009847641,
				-0.26028475165367126,
				-0.2664751708507538,
				-0.4260191321372986,
				-0.43722081184387207,
				-1.644600510597229,
				0.7307500243186951,
				-0.5847817063331604,
				0.03393579646945
			]
		],
		"weight_1": [
			0.6080248951911926,
			0.5963006615638733,
			0.4035373032093048,
			0.6102427840232849,
			-0.021921124309301376,
			0.39345288276672363,
			-0.12713323533535004,
			-0.10635136812925339,
			0.4867047071456909,
			0.0,
			-0.005936578847467899,
			0.0,
			0.46022912859916687,
			0.499828040599823,
			-0.188449889421463,
			-0.03623952344059944
		]
	},
	"layer_1": {
		"weight_0": [
			[
				1.044418215751648,
				0.203467458486557,
				-0.33484864234924316,
				0.8757856488227844,
				-0.1623835563659668,
				-0.3724691867828369,
				0.6549163460731506,
				0.3825157880783081
			],
			[
				0.5014955401420593,
				-0.17046725749969482,
				-0.4167705774307251,
				0.7342802882194519,
				-0.43884575366973877,
				-0.03486013412475586,
				0.9672389626502991,
				-0.11304189264774323
			],
			[
				0.5982789993286133,
				0.134163036942482,
				0.26485884189605713,
				0.6818956732749939,
				-0.4371798038482666,
				0.043276190757751465,
				1.351049542427063,
				-0.23388056457042694
			],
			[
				0.8497190475463867,
				-0.00270584668032825,
				-0.4670586585998535,
				0.8715601563453674,
				0.3146709203720093,
				0.3567720651626587,
				0.14051105082035065,
				-0.17144501209259033
			],
			[
				0.15481355786323547,
				0.167093887925148,
				0.4419887065887451,
				0.04331493377685547,
				0.034328460693359375,
				0.19307971000671387,
				-0.24026578664779663,
				0.39420947432518005
			],
			[
				1.654361605644226,
				0.324861079454422,
				-0.27669477462768555,
				1.575965404510498,
				0.05351364612579346,
				-0.250327467918396,
				2.2507553100585938,
				0.04503864049911499
			],
			[
				-0.1141120120882988,
				0.20313450694084167,
				0.12876605987548828,
				-0.2148289680480957,
				-0.10561656951904297,
				-0.025394439697265625,
				0.01771288923919201,
				0.3646806478500366
			],
			[
				0.21358489990234375,
				0.29916760325431824,
				0.4350022077560425,
				-0.20566843450069427,
				0.1872084140777588,
				-0.45255255699157715,
				-0.10157887637615204,
				-0.5421540141105652
			],
			[
				0.14866478741168976,
				-0.5024383664131165,
				0.03706192970275879,
				0.0338372066617012,
				-0.3988136053085327,
				-0.3321518898010254,
				0.1383194923400879,
				0.03624846786260605
			],
			[
				-0.3197082281112671,
				-0.15961694717407227,
				-0.19859254360198975,
				-0.1149287223815918,
				0.009459137916564941,
				-0.12700963020324707,
				0.34883320331573486,
				-0.10709178447723389
			],
			[
				-0.3542391061782837,
				-0.2029200941324234,
				0.31300389766693115,
				0.008023858070373535,
				-0.4648209810256958,
				0.050289273262023926,
				-0.44125956296920776,
				-0.3508578836917877
			],
			[
				0.4087573289871216,
				-0.35789215564727783,
				0.28333544731140137,
				0.20523762702941895,
				-0.3755906820297241,
				0.45721912384033203,
				-0.11503815650939941,
				-0.24506866931915283
			],
			[
				1.4036293029785156,
				0.13043569028377533,
				0.38885021209716797,
				1.0941672325134277,
				-0.0721745491027832,
				-0.09672665596008301,
				1.1629992723464966,
				0.0751052126288414
			],
			[
				0.41519248485565186,
				-0.3075627386569977,
				-0.26893770694732666,
				-0.47287940979003906,
				-0.4105321168899536,
				-0.2462313175201416,
				-0.3862251937389374,
				-0.05289549380540848
			],
			[
				-0.2125711292028427,
				-0.360436350107193,
				-0.3527028560638428,
				-0.36359110474586487,
				-0.23142313957214355,
				0.03678858280181885,
				0.019678901880979538,
				0.3251374661922455
			],
			[
				0.0011425435077399015,
				-0.04484463855624199,
				-0.06740987300872803,
				-0.3238292634487152,
				-0.4007108211517334,
				-0.320956826210022,
				0.06188294291496277,
				-0.3564029932022095
			]
		],
		"weight_1": [
			0.5928308367729187,
			-0.00673616724088788,
			0.0,
			0.5713052749633789,
			0.0,
			0.0,
			0.5761961936950684,
			-0.06162574514746666
		]
	},
	"layer_2": {
		"weight_0": [
			[
				0.5166358351707458,
				1.3368314504623413,
				1.550920844078064,
				-0.3350224196910858
			],
			[
				-0.04401330277323723,
				-0.22266317903995514,
				0.49486422538757324,
				-0.03288400173187256
			],
			[
				0.3251956105232239,
				0.27471768856048584,
				0.3326084017753601,
				-0.5796445608139038
			],
			[
				1.5907903909683228,
				1.573175072669983,
				1.0494011640548706,
				-0.4338286221027374
			],
			[
				0.6408050656318665,
				-0.3582313358783722,
				0.08458971977233887,
				0.061208367347717285
			],
			[
				-0.2788868844509125,
				0.46613532304763794,
				0.3022382855415344,
				0.1772763729095459
			],
			[
				1.0618336200714111,
				0.8694604635238647,
				1.4758280515670776,
				-0.027711868286132812
			],
			[
				-0.08678154647350311,
				-0.4351471960544586,
				-0.17033374309539795,
				-0.38373035192489624
			]
		],
		"weight_1": [
			0.49277257919311523,
			0.5855047106742859,
			0.5729121565818787,
			0.0
		]
	},
	"layer_3": {
		"weight_0": [
			[
				1.7713959217071533
			],
			[
				1.9217816591262817
			],
			[
				1.3608473539352417
			],
			[
				-1.061216950416565
			]
		],
		"weight_1": [
			0.5646905303001404
		]
	}
}