{
	"layer_0": {
		"weight_0": [
			[
				-0.32044553756713867,
				0.5511220693588257,
				0.670933187007904,
				0.25061073899269104,
				0.4747680425643921,
				0.09865394234657288,
				-0.10723525285720825,
				0.66860032081604,
				-0.3865154981613159,
				0.5896062254905701,
				0.05174122005701065,
				0.015177154913544655,
				-0.008590519428253174,
				0.7787558436393738,
				0.3321818709373474,
				-0.15790101885795593
			],
			[
				-0.21676746010780334,
				0.6931666731834412,
				0.41375118494033813,
				0.5407220125198364,
				0.47272372245788574,
				-0.07376093417406082,
				-0.16473868489265442,
				0.8894191980361938,
				0.21022450923919678,
				0.14384342730045319,
				0.35562819242477417,
				-0.36771684885025024,
				-0.4099135994911194,
				0.4463181793689728,
				0.4529452621936798,
				0.8388710618019104
			]
		],
		"weight_1": [
			0.0,
			0.456398069858551,
			0.45466506481170654,
			0.47830289602279663,
			0.44961437582969666,
			-0.0923025906085968,
			0.0,
			0.472062885761261,
			-0.1932172030210495,
			0.45461538434028625,
			0.30498597025871277,
			-0.003162274369969964,
			0.0,
			0.44608718156814575,
			0.3017367124557495,
			0.3703400492668152
		]
	},
	"layer_1": {},
	"layer_2": {
		"weight_0": [
			[
				-0.09192442893981934,
				-0.2263432741165161,
				-0.4327714443206787,
				0.3547630310058594,
				0.007869958877563477,
				0.26982641220092773,
				-0.29556119441986084,
				0.306704044342041
			],
			[
				0.7409716248512268,
				0.41863012313842773,
				0.057932499796152115,
				-0.05441220477223396,
				0.15682491660118103,
				3.8743019104003906e-05,
				0.4528137743473053,
				-0.3808826208114624
			],
			[
				0.49295687675476074,
				-0.1454411745071411,
				0.6127880811691284,
				-0.2946402430534363,
				-0.27524620294570923,
				-0.1566535234451294,
				0.6599909067153931,
				-0.2825688123703003
			],
			[
				0.3645690679550171,
				-0.05516362190246582,
				-0.05044504255056381,
				0.049812737852334976,
				0.09603295475244522,
				0.057216525077819824,
				0.8403395414352417,
				-0.45421910285949707
			],
			[
				0.5994465947151184,
				-0.36623919010162354,
				0.7974553108215332,
				0.10393988341093063,
				-0.20405642688274384,
				0.23803365230560303,
				0.7826942205429077,
				-0.454148530960083
			],
			[
				-0.3271223306655884,
				-0.26244401931762695,
				0.09259653836488724,
				0.13375315070152283,
				-0.4859355390071869,
				-0.15700769424438477,
				-0.3053854703903198,
				0.35773491859436035
			],
			[
				0.46952199935913086,
				0.40776824951171875,
				0.15480554103851318,
				-0.1913241147994995,
				0.09183478355407715,
				0.4034395217895508,
				0.41408419609069824,
				0.11662745475769043
			],
			[
				0.8426092863082886,
				-0.42066121101379395,
				0.633849024772644,
				-0.3970748484134674,
				-0.2935619056224823,
				-0.4363436698913574,
				0.6023803353309631,
				-0.05513204261660576
			],
			[
				-0.13012509047985077,
				-0.17125892639160156,
				-0.213663250207901,
				-0.351372092962265,
				0.4795506000518799,
				0.09629559516906738,
				0.00455615296959877,
				-0.4549236297607422
			],
			[
				0.8626968860626221,
				-0.32506680488586426,
				0.29404112696647644,
				0.2882305383682251,
				-0.43083298206329346,
				0.23134052753448486,
				0.27611732482910156,
				-0.460060715675354
			],
			[
				0.5884273648262024,
				-0.26544129848480225,
				0.3842910826206207,
				-0.02940535917878151,
				0.319520503282547,
				0.06328260898590088,
				0.14769038558006287,
				-0.379130482673645
			],
			[
				-0.054554473608732224,
				0.19535279273986816,
				-0.13898682594299316,
				-0.2455275058746338,
				0.050574541091918945,
				0.453204870223999,
				-0.3443768620491028,
				-0.08072268962860107
			],
			[
				0.10447907447814941,
				-0.11939847469329834,
				0.4441242218017578,
				-0.3484511375427246,
				-0.23653411865234375,
				0.4491581916809082,
				-0.2533799409866333,
				-0.3255068063735962
			],
			[
				0.6426575779914856,
				-0.32543039321899414,
				0.7861190438270569,
				0.3234054446220398,
				-0.09621544182300568,
				0.03831899166107178,
				0.697047770023346,
				0.48578810691833496
			],
			[
				0.1022777110338211,
				0.16219007968902588,
				0.42828890681266785,
				0.26084038615226746,
				0.22121255099773407,
				0.04173469543457031,
				0.5015714168548584,
				0.1315753310918808
			],
			[
				0.09849704056978226,
				-0.313409686088562,
				0.4204271733760834,
				-0.2717564105987549,
				-0.2393610179424286,
				-0.44137299060821533,
				0.5976560115814209,
				0.24936926364898682
			]
		],
		"weight_1": [
			0.45207837224006653,
			0.0,
			0.3903913199901581,
			-0.05271459370851517,
			-0.010055480524897575,
			0.0,
			0.4630168378353119,
			-0.003162277163937688
		]
	},
	"layer_3": {},
	"layer_4": {
		"weight_0": [
			[
				0.637676477432251,
				-0.4280320703983307,
				-0.5950677394866943,
				0.3871377110481262
			],
			[
				0.03463292121887207,
				0.5345072150230408,
				0.21287816762924194,
				0.20665186643600464
			],
			[
				0.5148333311080933,
				0.3316534757614136,
				0.3872109055519104,
				-0.07868718355894089
			],
			[
				-0.5385993123054504,
				0.5462097525596619,
				-0.6932160258293152,
				-0.4699625074863434
			],
			[
				-0.6015885472297668,
				-0.4790796637535095,
				0.1099587231874466,
				-0.029967427253723145
			],
			[
				-0.2698113024234772,
				0.18900686502456665,
				0.22311091423034668,
				-0.2887800931930542
			],
			[
				0.9330635666847229,
				0.10777445137500763,
				0.229574054479599,
				-0.6105191707611084
			],
			[
				-0.3665904998779297,
				0.595048725605011,
				0.6514467597007751,
				-0.29695168137550354
			]
		],
		"weight_1": [
			0.4513779282569885,
			-0.10966953635215759,
			-0.15866470336914062,
			-0.010391894727945328
		]
	},
	"layer_5": {},
	"layer_6": {
		"weight_0": [
			[
				3.01869797706604
			],
			[
				-0.009499337524175644
			],
			[
				-0.5734630823135376
			],
			[
				-0.7006304860115051
			]
		],
		"weight_1": [
			2.357107639312744
		]
	}
}