{
	"layer_0": {
		"weight_0": [
			[
				0.6385897397994995,
				1.7292600870132446,
				-0.4710930287837982,
				1.9059391021728516,
				1.1811797618865967,
				1.5674710273742676,
				1.2583835124969482,
				0.426312118768692,
				0.4634077847003937,
				1.3876756429672241,
				0.006176226772367954,
				0.5242694020271301,
				0.4688049256801605,
				1.4424729347229004,
				-0.24294523894786835,
				1.5225489139556885
			],
			[
				0.1649971753358841,
				0.3568355441093445,
				-0.2021116316318512,
				0.11279545724391937,
				0.07983528077602386,
				-0.05419720709323883,
				0.2499200403690338,
				0.05359671637415886,
				-2.798480749130249,
				-0.15688639879226685,
				-0.06521698832511902,
				-4.8844194412231445,
				-1.6175442934036255,
				0.1374490112066269,
				0.48350146412849426,
				-0.03247111663222313
			]
		],
		"weight_1": [
			0.2533787190914154,
			-0.5470388531684875,
			0.0,
			0.2935824990272522,
			0.16602574288845062,
			0.28511959314346313,
			0.23858338594436646,
			0.7756531834602356,
			0.37878090143203735,
			0.27598336338996887,
			-0.003162272507324815,
			0.2101164609193802,
			0.519126296043396,
			0.2964688837528229,
			0.5603177547454834,
			0.28257739543914795
		]
	},
	"layer_1": {},
	"layer_2": {
		"weight_0": [
			[
				0.13242211937904358,
				-0.19741646945476532,
				0.32707104086875916,
				-0.15480925142765045,
				-0.13822700083255768,
				0.3902631402015686,
				0.042601969093084335,
				0.14840292930603027
			],
			[
				-1.6119812726974487,
				2.124715805053711,
				-1.1958985328674316,
				0.4130224883556366,
				1.7487612962722778,
				-1.1367436647415161,
				-0.867607057094574,
				-0.3240586519241333
			],
			[
				0.10479307174682617,
				0.29629504680633545,
				-0.4944453239440918,
				-0.432430624961853,
				-0.3154791593551636,
				0.41594398021698,
				0.024996280670166016,
				0.020772933959960938
			],
			[
				0.5971473455429077,
				0.5709506273269653,
				0.6776769757270813,
				-0.4306219816207886,
				0.1065027117729187,
				0.3995896279811859,
				0.3938821852207184,
				-0.2746332883834839
			],
			[
				0.5449436902999878,
				-0.2715306878089905,
				0.28300124406814575,
				0.26370060443878174,
				-0.16941489279270172,
				0.1800212413072586,
				0.02873935177922249,
				-0.4128882884979248
			],
			[
				0.9849705100059509,
				0.07015831023454666,
				0.30089664459228516,
				0.2408110648393631,
				0.13519386947155,
				1.0004255771636963,
				0.8690145015716553,
				0.1693248748779297
			],
			[
				0.6707027554512024,
				-0.1285174936056137,
				0.7097649574279785,
				-0.17311373353004456,
				-0.14399667084217072,
				-0.15582305192947388,
				0.11387082934379578,
				0.045420289039611816
			],
			[
				0.1239444836974144,
				0.5159277319908142,
				0.1733737289905548,
				-0.016520168632268906,
				0.5275701880455017,
				-0.5108050107955933,
				-0.4048910439014435,
				-0.4408458471298218
			],
			[
				1.8444690704345703,
				-0.4978417754173279,
				2.4169764518737793,
				-0.33497053384780884,
				-1.4615827798843384,
				1.7063921689987183,
				1.6685558557510376,
				0.016217589378356934
			],
			[
				1.0493366718292236,
				0.33081597089767456,
				1.1801784038543701,
				-0.07557792961597443,
				-0.02860138937830925,
				0.9340429902076721,
				0.5203099846839905,
				-0.03880810737609863
			],
			[
				-0.019950594753026962,
				-0.40037474036216736,
				0.13346636295318604,
				-0.32098937034606934,
				0.4216073751449585,
				-0.26012322306632996,
				0.2791064977645874,
				-0.3636016845703125
			],
			[
				3.9109654426574707,
				-2.475280523300171,
				4.4146528244018555,
				0.39515960216522217,
				-2.9589903354644775,
				4.458045482635498,
				3.747512102127075,
				-0.4243037700653076
			],
			[
				1.1450626850128174,
				-0.4665496349334717,
				1.2295560836791992,
				-0.1727440059185028,
				0.14213307201862335,
				1.2359282970428467,
				1.429535150527954,
				-0.19291400909423828
			],
			[
				0.36541298031806946,
				0.1799134761095047,
				0.6647616624832153,
				0.45033833384513855,
				0.3649179935455322,
				0.18107111752033234,
				0.4701893925666809,
				-0.0023212432861328125
			],
			[
				-0.8681600093841553,
				0.2100471407175064,
				-0.5470820665359497,
				-0.05394110083580017,
				0.9010657072067261,
				-0.2740367650985718,
				-0.33334246277809143,
				-0.28791701793670654
			],
			[
				0.676760733127594,
				-0.24924904108047485,
				0.1383715718984604,
				-0.47250697016716003,
				0.05065461993217468,
				0.942688524723053,
				0.8950790762901306,
				0.08264219760894775
			]
		],
		"weight_1": [
			0.28167083859443665,
			0.1992148905992508,
			0.2856804430484772,
			-0.04171301797032356,
			0.33206242322921753,
			0.2957160770893097,
			0.29441046714782715,
			0.0
		]
	},
	"layer_3": {},
	"layer_4": {
		"weight_0": [
			[
				1.7591147422790527,
				0.0016312599182128906,
				1.106738805770874,
				1.5157687664031982
			],
			[
				-2.203965663909912,
				0.1366567611694336,
				-1.325819730758667,
				-1.5336025953292847
			],
			[
				0.6704652905464172,
				-0.5126071572303772,
				1.817823886871338,
				1.3950536251068115
			],
			[
				0.5348296761512756,
				-0.6857908964157104,
				0.10859192907810211,
				-0.33318427205085754
			],
			[
				-1.013325810432434,
				0.11360090970993042,
				-1.735732078552246,
				-1.827824354171753
			],
			[
				1.2883961200714111,
				-0.04671335220336914,
				1.9200704097747803,
				1.4146769046783447
			],
			[
				1.4016770124435425,
				-0.13414281606674194,
				0.7333556413650513,
				1.22510826587677
			],
			[
				0.23399895429611206,
				-0.21836113929748535,
				0.3760656714439392,
				0.1934221386909485
			]
		],
		"weight_1": [
			0.28454509377479553,
			0.0,
			0.28720739483833313,
			0.27905192971229553
		]
	},
	"layer_5": {},
	"layer_6": {
		"weight_0": [
			[
				1.615152359008789
			],
			[
				-0.38258665800094604
			],
			[
				1.5134128332138062
			],
			[
				2.070397138595581
			]
		],
		"weight_1": [
			0.2790188193321228
		]
	}
}