{
	"layer_0": {
		"weight_0": [
			[
				-0.14437168836593628,
				-0.37036579847335815,
				0.03544086590409279,
				0.9003143310546875,
				-0.22052934765815735,
				0.720513105392456,
				-0.5227770209312439,
				-0.17271701991558075,
				0.48705002665519714,
				0.5005788803100586,
				0.7528430223464966,
				0.7570757865905762,
				0.9907615184783936,
				0.6756424903869629,
				-0.487336128950119,
				-0.22308620810508728
			],
			[
				-0.3849741220474243,
				-0.5387510061264038,
				0.631779134273529,
				0.782337486743927,
				-0.07608205080032349,
				0.7052622437477112,
				0.08275402337312698,
				0.24764475226402283,
				0.6847736835479736,
				0.5365015268325806,
				0.7167385816574097,
				0.36301109194755554,
				0.9580321907997131,
				-0.03110581822693348,
				-0.5652655959129333,
				-0.3264367878437042
			]
		],
		"weight_1": [
			0.0,
			0.0,
			0.4744778573513031,
			0.3628492057323456,
			0.0,
			0.1873387098312378,
			-0.06015670299530029,
			-0.22915394604206085,
			0.25174182653427124,
			0.47261956334114075,
			0.45837050676345825,
			0.45825323462486267,
			0.4616589844226837,
			0.4797965884208679,
			0.0,
			0.0
		]
	},
	"layer_1": {},
	"layer_2": {
		"weight_0": [
			[
				-0.1421205997467041,
				-0.44083869457244873,
				0.26902592182159424,
				0.37217581272125244,
				0.4832867383956909,
				0.297540545463562,
				0.09740936756134033,
				-0.43644118309020996
			],
			[
				-0.10824787616729736,
				0.4503500461578369,
				0.17135107517242432,
				-0.25988900661468506,
				-0.13103127479553223,
				0.08507692813873291,
				0.3372809886932373,
				0.0722203254699707
			],
			[
				0.503170907497406,
				0.6326054334640503,
				-0.5323896408081055,
				-0.06127917766571045,
				0.2521722614765167,
				-0.20148825645446777,
				0.5004631876945496,
				0.1832863986492157
			],
			[
				0.2611638307571411,
				0.17885957658290863,
				0.24998167157173157,
				0.30773448944091797,
				-0.2804359793663025,
				0.18664252758026123,
				0.8504401445388794,
				-0.5157856345176697
			],
			[
				0.27192366123199463,
				-0.011326432228088379,
				0.11026990413665771,
				0.10669159889221191,
				-0.054372549057006836,
				-0.046747565269470215,
				-0.23150599002838135,
				-0.10289359092712402
			],
			[
				0.3458261489868164,
				0.08165954053401947,
				-0.39817267656326294,
				-0.3037821054458618,
				0.1672714799642563,
				-0.23475921154022217,
				0.32108187675476074,
				-0.4459241032600403
			],
			[
				-0.3696098327636719,
				-0.14379462599754333,
				0.2264508455991745,
				0.2251807451248169,
				0.035320017486810684,
				0.4457216262817383,
				0.2769240736961365,
				0.33319738507270813
			],
			[
				0.10869085788726807,
				-0.16054615378379822,
				-0.04940486699342728,
				0.2995185852050781,
				-0.09997313469648361,
				-0.2565559148788452,
				-0.2406129539012909,
				-0.34412893652915955
			],
			[
				0.13110648095607758,
				0.7319425344467163,
				-0.36017584800720215,
				-0.2335948944091797,
				0.37637588381767273,
				-0.02673804759979248,
				0.501532793045044,
				0.2056722193956375
			],
			[
				0.5950697064399719,
				0.7117633819580078,
				0.2510165870189667,
				-0.4831502437591553,
				-0.46784090995788574,
				-0.1598186492919922,
				0.6960806846618652,
				-0.5294651389122009
			],
			[
				0.9174213409423828,
				0.8063340783119202,
				-0.2305278331041336,
				0.4287956953048706,
				0.3360744118690491,
				0.4125828742980957,
				0.7530540227890015,
				0.3945664167404175
			],
			[
				0.8986815214157104,
				0.6692630052566528,
				-0.3163359761238098,
				-0.29721808433532715,
				-0.25776800513267517,
				-0.23691320419311523,
				0.6931470632553101,
				0.022727640345692635
			],
			[
				0.8115478157997131,
				0.9123250842094421,
				0.37472862005233765,
				-0.33372175693511963,
				-0.3142756521701813,
				-0.3928985595703125,
				0.77598637342453,
				0.35407429933547974
			],
			[
				0.3496827483177185,
				0.9433603286743164,
				-0.07868628948926926,
				0.36915087699890137,
				0.433698832988739,
				0.18494880199432373,
				0.8189321756362915,
				-0.28183454275131226
			],
			[
				0.05378377437591553,
				0.42520129680633545,
				0.4979604482650757,
				0.1954505443572998,
				0.10726356506347656,
				-0.1407620906829834,
				0.0483856201171875,
				0.01981806755065918
			],
			[
				0.4941467046737671,
				0.2968742847442627,
				-0.3515818119049072,
				-0.11342465877532959,
				0.1687067747116089,
				0.32500946521759033,
				0.11378753185272217,
				-0.4354449510574341
			]
		],
		"weight_1": [
			0.44828692078590393,
			0.43999871611595154,
			-0.07151855528354645,
			0.0,
			-0.02483867108821869,
			0.0,
			0.40099066495895386,
			-0.06107483059167862
		]
	},
	"layer_3": {},
	"layer_4": {
		"weight_0": [
			[
				-0.372877299785614,
				0.8491904139518738,
				-0.5264070630073547,
				0.9594192504882812
			],
			[
				-0.48830538988113403,
				0.2843226492404938,
				0.40656834840774536,
				0.6482211947441101
			],
			[
				0.11510363966226578,
				0.008730780333280563,
				-0.06146681308746338,
				-0.24495597183704376
			],
			[
				0.3735058903694153,
				0.353573739528656,
				0.15621811151504517,
				-0.37604615092277527
			],
			[
				0.3918680250644684,
				0.10120723396539688,
				0.46386927366256714,
				-0.34568098187446594
			],
			[
				0.28579288721084595,
				0.03963184356689453,
				0.23530566692352295,
				-0.402728796005249
			],
			[
				0.4803802967071533,
				0.9612058401107788,
				-0.28174036741256714,
				0.3866662085056305
			],
			[
				0.4076201915740967,
				-0.42710942029953003,
				0.5163273215293884,
				0.19974221289157867
			]
		],
		"weight_1": [
			-0.018765879794955254,
			0.40940889716148376,
			0.0,
			0.4543033540248871
		]
	},
	"layer_5": {},
	"layer_6": {
		"weight_0": [
			[
				-0.9936920404434204
			],
			[
				2.5077648162841797
			],
			[
				-0.7657821178436279
			],
			[
				2.7062301635742188
			]
		],
		"weight_1": [
			2.3496363162994385
		]
	}
}