{
	"layer_0": {
		"weight_0": 0.0,
		"weight_1": 1.0,
		"weight_2": -1
	},
	"layer_1": {
		"weight_0": [
			0.3745204508304596,
			1.638630986213684,
			1.0122483968734741,
			1.8947442770004272,
			0.251360148191452,
			0.8392956852912903,
			0.03335900232195854,
			0.9002194404602051,
			0.07529174536466599,
			0.0,
			0.0,
			0.0,
			-0.0650436207652092,
			0.0,
			0.679397702217102,
			2.483978748321533
		],
		"weight_1": [
			[
				0.6933489441871643,
				1.1092134714126587,
				1.0374680757522583,
				1.6637048721313477,
				-0.4819950461387634,
				1.550525426864624,
				-0.033773455768823624,
				0.7171018719673157,
				-0.2961776554584503,
				-0.5733056664466858,
				-0.09077560901641846,
				-0.36935460567474365,
				0.1347741335630417,
				-0.3398232161998749,
				-4.183050632476807,
				5.654649257659912
			],
			[
				-4.634833335876465,
				-0.564983069896698,
				-0.44873371720314026,
				0.06310251355171204,
				1.497390627861023,
				0.044442616403102875,
				4.222275257110596,
				-0.6236584186553955,
				1.5565904378890991,
				-0.21566364169120789,
				-0.32489922642707825,
				-0.17750993371009827,
				-0.5559973120689392,
				-0.12925830483436584,
				-0.3788788914680481,
				4.661642074584961
			]
		],
		"weight_2": -1,
		"weight_3": -5.654239654541016,
		"weight_4": 5.654239654541016,
		"weight_5": -3.9475386142730713,
		"weight_6": 11.69762134552002
	},
	"layer_2": {
		"weight_0": -1,
		"weight_1": -3.3394137455289297e-10,
		"weight_2": 11.265583038330078
	},
	"layer_3": {
		"weight_0": [
			0.0,
			0.0,
			0.503187358379364,
			0.34801727533340454,
			0.061224762350320816,
			0.8793396949768066,
			0.041745610535144806,
			1.6503831148147583
		],
		"weight_1": [
			[
				-0.3119354248046875,
				-0.07060039043426514,
				1.262355089187622,
				1.1057132482528687,
				-1.6376218795776367,
				2.09411883354187,
				2.300163745880127,
				2.5204169750213623
			],
			[
				0.010542750358581543,
				-0.3999515771865845,
				-0.01796252466738224,
				-0.0178610160946846,
				0.33388710021972656,
				0.9194744229316711,
				-0.20542040467262268,
				1.7485042810440063
			],
			[
				-0.45983457565307617,
				0.3013570308685303,
				0.6639658808708191,
				-0.06889567524194717,
				0.06426024436950684,
				0.5358909964561462,
				0.4718806743621826,
				1.653131127357483
			],
			[
				0.4818323850631714,
				0.4354614019393921,
				-0.1555454581975937,
				0.49068328738212585,
				0.5629187226295471,
				0.12531311810016632,
				0.25924432277679443,
				1.6934245824813843
			],
			[
				-0.3422952890396118,
				0.23909902572631836,
				-0.8807305693626404,
				-0.4617328345775604,
				0.9536515474319458,
				-1.557146668434143,
				-1.191713571548462,
				0.19708523154258728
			],
			[
				-0.07851958274841309,
				-0.26824796199798584,
				0.3482392132282257,
				0.5768586993217468,
				0.02561824768781662,
				0.2831287682056427,
				0.4363442361354828,
				1.1498572826385498
			],
			[
				-0.06617856025695801,
				-0.30791544914245605,
				0.31770774722099304,
				-0.03506186604499817,
				0.221013143658638,
				-0.9351274371147156,
				-2.0442399978637695,
				0.12999747693538666
			],
			[
				-0.1297847032546997,
				-0.2716718912124634,
				0.3876942992210388,
				0.009594839997589588,
				0.11445973068475723,
				0.704079270362854,
				0.537453293800354,
				1.0679118633270264
			],
			[
				0.041925907135009766,
				-0.24165773391723633,
				-0.4362812042236328,
				-0.1561843901872635,
				0.716783881187439,
				-1.7604591846466064,
				-2.9813177585601807,
				-0.6681385636329651
			],
			[
				-0.38130998611450195,
				-0.1673206090927124,
				0.23274445533752441,
				-0.38710975646972656,
				0.1478114128112793,
				-0.05947268009185791,
				-0.05557811260223389,
				0.03679502010345459
			],
			[
				-0.21151483058929443,
				0.48841428756713867,
				0.1516427993774414,
				-0.018114089965820312,
				0.09302055835723877,
				-0.09125030040740967,
				0.02909374237060547,
				-0.2636455297470093
			],
			[
				-0.11678850650787354,
				0.028899669647216797,
				0.23155486583709717,
				-0.1558464765548706,
				-0.06503915786743164,
				0.3195456266403198,
				0.036376953125,
				0.2176358699798584
			],
			[
				0.18501293659210205,
				-0.26358842849731445,
				-0.42358464002609253,
				-0.1121811792254448,
				0.2834113836288452,
				0.36941447854042053,
				0.12810611724853516,
				0.2234700620174408
			],
			[
				-0.1194608211517334,
				-0.41868293285369873,
				-0.349163293838501,
				0.41686928272247314,
				0.30244767665863037,
				0.28326892852783203,
				0.032259225845336914,
				-0.33342909812927246
			],
			[
				-0.4051525592803955,
				-0.3664402961730957,
				-1.6723639965057373,
				-2.3082566261291504,
				2.119544267654419,
				-1.5003799200057983,
				-0.16349193453788757,
				-2.514669895172119
			],
			[
				-0.4884617328643799,
				-0.2295224666595459,
				0.5124019384384155,
				0.23057718575000763,
				0.8745089173316956,
				-0.06487037986516953,
				-0.4295302927494049,
				1.515884518623352
			]
		],
		"weight_2": -1,
		"weight_3": -2.9813177585601807,
		"weight_4": 2.9813177585601807,
		"weight_5": -16.545551300048828,
		"weight_6": 33.86117935180664
	},
	"layer_4": {
		"weight_0": -1,
		"weight_1": -3.3394137455289297e-10,
		"weight_2": 32.693870544433594
	},
	"layer_5": {
		"weight_0": [
			0.5687606930732727,
			0.8756678700447083,
			0.49247631430625916,
			0.28617730736732483
		],
		"weight_1": [
			[
				0.12092030048370361,
				-0.4843975901603699,
				0.009947001934051514,
				0.45982497930526733
			],
			[
				0.6432109475135803,
				-0.22885552048683167,
				0.45640403032302856,
				0.6625249981880188
			],
			[
				1.1747099161148071,
				0.8377761244773865,
				1.2711873054504395,
				-0.16563613712787628
			],
			[
				1.4444146156311035,
				0.8303497433662415,
				0.7975592613220215,
				-0.1910468488931656
			],
			[
				-0.8453285098075867,
				-2.266568660736084,
				-1.310887098312378,
				1.2167177200317383
			],
			[
				1.7572499513626099,
				1.8274216651916504,
				1.6821188926696777,
				-0.04152999073266983
			],
			[
				5.042998790740967,
				4.43821382522583,
				4.429452896118164,
				-5.01933479309082
			],
			[
				1.5676213502883911,
				0.33722126483917236,
				1.1256886720657349,
				0.5528518557548523
			]
		],
		"weight_2": -1,
		"weight_3": -5.042998790740967,
		"weight_4": 5.042998790740967,
		"weight_5": -13.555033683776855,
		"weight_6": 62.14299392700195
	},
	"layer_6": {
		"weight_0": -1,
		"weight_1": -3.3394137455289297e-10,
		"weight_2": 57.793209075927734
	},
	"layer_7": {
		"weight_0": [
			0.5640581846237183
		],
		"weight_1": [
			[
				1.5500596761703491
			],
			[
				2.791917562484741
			],
			[
				1.8270937204360962
			],
			[
				-2.364997386932373
			]
		],
		"weight_2": -1,
		"weight_3": -2.793010950088501,
		"weight_4": 2.793010950088501,
		"weight_5": -0.015124650672078133,
		"weight_6": 137.87982177734375
	}
}