{
	"layer_0": {
		"weight_0": [
			[
				-0.188056081533432,
				1.3023097515106201,
				0.08780775964260101,
				-0.6168529391288757,
				1.3106589317321777,
				1.342810034751892,
				1.3809503316879272,
				0.09145942330360413,
				3.2187628746032715,
				2.7398264408111572,
				2.1245274543762207,
				0.4987837076187134,
				0.7620877027511597,
				-0.3712852895259857,
				-0.6280835866928101,
				0.006968855857849121
			],
			[
				-0.44843387603759766,
				-0.3654642105102539,
				-0.46717774868011475,
				0.5611658096313477,
				-0.2496580183506012,
				0.3353194296360016,
				0.37093186378479004,
				-0.17323842644691467,
				0.03577899932861328,
				1.3729383945465088,
				-0.1707412302494049,
				-2.985653877258301,
				-6.228925704956055,
				-0.22003322839736938,
				0.08495157212018967,
				-0.18779894709587097
			]
		],
		"weight_1": [
			0.0,
			0.4009306728839874,
			-0.03049251064658165,
			0.4172796905040741,
			0.3658619821071625,
			0.03728453442454338,
			0.1305856853723526,
			-0.07290584594011307,
			0.0011650330852717161,
			-0.5303874611854553,
			0.06860475242137909,
			0.3871484100818634,
			0.23686930537223816,
			0.0,
			-0.08694840967655182,
			-0.0031622769311070442
		]
	},
	"layer_1": {
		"weight_0": [
			[
				0.04276883602142334,
				-0.3010808229446411,
				-0.2773549556732178,
				-0.46488499641418457,
				-0.24726808071136475,
				-0.21302616596221924,
				-0.0933523178100586,
				0.17514407634735107
			],
			[
				0.3604499399662018,
				0.5756086111068726,
				0.13978888094425201,
				0.8615399599075317,
				-0.3018091917037964,
				0.9169896841049194,
				0.7879796624183655,
				-0.15960074961185455
			],
			[
				0.16371536254882812,
				-0.39496636390686035,
				-0.08339822292327881,
				0.20630155503749847,
				-0.0748608335852623,
				-0.2379240244626999,
				0.044352367520332336,
				-0.404974102973938
			],
			[
				-0.3065235912799835,
				-0.23727993667125702,
				0.7563419938087463,
				0.4630123972892761,
				-0.45291703939437866,
				-1.5190048217773438,
				-0.48909953236579895,
				0.2800326347351074
			],
			[
				0.6634595394134521,
				1.042697548866272,
				0.3232276439666748,
				1.0922348499298096,
				0.0229277852922678,
				1.1356521844863892,
				0.46300798654556274,
				-0.16691067814826965
			],
			[
				0.5603864789009094,
				0.4210505187511444,
				-2.252915382385254,
				0.03937060758471489,
				0.2953864634037018,
				-0.8316779136657715,
				-0.19835013151168823,
				-0.033898696303367615
			],
			[
				0.8057022094726562,
				0.607868492603302,
				-1.1285241842269897,
				0.6083889007568359,
				-0.061796557158231735,
				-0.1774928867816925,
				0.3327058255672455,
				-0.2634913921356201
			],
			[
				0.05276857689023018,
				-0.13628779351711273,
				-0.08218169212341309,
				0.039966341108083725,
				0.40910667181015015,
				-0.31038662791252136,
				0.22035124897956848,
				-0.38109052181243896
			],
			[
				0.4251050651073456,
				0.4250968396663666,
				-5.447505474090576,
				0.9889814853668213,
				0.9960196614265442,
				0.9223382472991943,
				0.43507203459739685,
				0.2472824603319168
			],
			[
				-0.08617569506168365,
				-0.05156397446990013,
				0.6443156003952026,
				-0.2454439103603363,
				1.3564199209213257,
				-2.089531421661377,
				-0.3754015266895294,
				-0.5050562620162964
			],
			[
				1.0443512201309204,
				0.8601807355880737,
				-1.6073975563049316,
				0.3404092788696289,
				0.6852869391441345,
				0.8199684619903564,
				0.8420943021774292,
				-0.5588017702102661
			],
			[
				1.554597020149231,
				2.2186129093170166,
				1.7325139045715332,
				0.7109954953193665,
				-0.03035568818449974,
				1.938031554222107,
				2.4777493476867676,
				0.22480356693267822
			],
			[
				4.481727600097656,
				4.702980995178223,
				0.5711886286735535,
				4.022183895111084,
				5.29740571975708,
				4.860082149505615,
				4.12697696685791,
				-0.11891615390777588
			],
			[
				0.29531002044677734,
				0.3208886384963989,
				0.027602553367614746,
				-0.006751298904418945,
				-0.38201260566711426,
				0.2934974431991577,
				0.4346187114715576,
				-0.10131406784057617
			],
			[
				0.038331497460603714,
				-0.42113345861434937,
				-0.07459986209869385,
				0.0801360011100769,
				0.3646799623966217,
				0.44241851568222046,
				0.18860463798046112,
				-0.3644564151763916
			],
			[
				-0.48232027888298035,
				0.10527743399143219,
				0.2570163905620575,
				-0.2506222724914551,
				-0.005835533142089844,
				-0.40320634841918945,
				-0.3072816729545593,
				-0.06815028190612793
			]
		],
		"weight_1": [
			0.21543046832084656,
			0.2450883388519287,
			0.606038510799408,
			0.40975359082221985,
			-1.4874827861785889,
			0.3107716739177704,
			0.11711006611585617,
			-0.12084425240755081
		]
	},
	"layer_2": {
		"weight_0": [
			[
				1.214494228363037,
				0.0405195876955986,
				0.7861096262931824,
				0.21266961097717285
			],
			[
				1.3845871686935425,
				-0.6325386166572571,
				1.3178414106369019,
				-0.6357064843177795
			],
			[
				-2.2548162937164307,
				2.2688381671905518,
				-2.8305366039276123,
				2.7058064937591553
			],
			[
				1.1847419738769531,
				-0.358329176902771,
				0.9904518723487854,
				0.8013938665390015
			],
			[
				-2.4884026050567627,
				0.6669633984565735,
				-2.324873685836792,
				-1.2527508735656738
			],
			[
				2.7633628845214844,
				0.4386228621006012,
				2.7121541500091553,
				-0.5975457429885864
			],
			[
				0.5852590203285217,
				0.8293536305427551,
				1.8408209085464478,
				0.19952450692653656
			],
			[
				0.32680532336235046,
				-0.37399375438690186,
				-0.18900425732135773,
				-0.08451428264379501
			]
		],
		"weight_1": [
			0.2429400533437729,
			-1.0034198760986328,
			0.24150007963180542,
			1.1433656215667725
		]
	},
	"layer_3": {
		"weight_0": [
			[
				2.3326494693756104
			],
			[
				-5.149622917175293
			],
			[
				2.7167327404022217
			],
			[
				-3.26645565032959
			]
		],
		"weight_1": [
			0.24322988092899323
		]
	}
}