{
	"layer_0": {
		"weight_0": 0.0,
		"weight_1": 1.0,
		"weight_2": -1
	},
	"layer_1": {
		"weight_0": [
			0.18508195877075195,
			0.8862608075141907,
			0.5816743969917297,
			0.07053560763597488,
			-0.1951368898153305,
			-0.17670714855194092,
			0.014098210260272026,
			1.6427462100982666,
			0.0,
			1.0933330059051514,
			0.0,
			0.0,
			1.8370410203933716,
			0.14565207064151764,
			0.37345778942108154,
			0.5824828743934631
		],
		"weight_1": [
			[
				2.405761480331421,
				0.553786039352417,
				1.661424994468689,
				1.3311923742294312,
				0.18177293241024017,
				0.13338880240917206,
				4.472648620605469,
				0.3080047070980072,
				-0.5223369002342224,
				0.4170299470424652,
				-0.4771372675895691,
				-0.06316804885864258,
				0.4930688440799713,
				1.9184907674789429,
				0.9253934621810913,
				2.20310115814209
			],
			[
				-15.67094898223877,
				-5.893207550048828,
				-0.8084202408790588,
				-3.433246612548828,
				-0.4261649250984192,
				0.02837429568171501,
				-0.06041492149233818,
				-3.0767667293548584,
				-0.29872724413871765,
				-4.500177383422852,
				-0.07682031393051147,
				-0.2756255269050598,
				-2.532895565032959,
				-1.5898209810256958,
				-6.548971176147461,
				-1.0543133020401
			]
		],
		"weight_2": -1,
		"weight_3": -15.67094898223877,
		"weight_4": 15.67094898223877,
		"weight_5": -1.1747631106841295e-35,
		"weight_6": 4.418854713439941
	},
	"layer_2": {
		"weight_0": [
			0.9502954483032227,
			-0.6891992092132568,
			0.1264173984527588,
			2.0058164596557617,
			0.0,
			2.329941511154175,
			-0.07800924777984619,
			0.3658961355686188
		],
		"weight_1": [
			[
				7.9971466064453125,
				4.551478862762451,
				4.90453577041626,
				-0.28881680965423584,
				-0.34021198749542236,
				-3.000145196914673,
				-0.21687555313110352,
				0.5168848633766174
			],
			[
				0.5550689101219177,
				-0.178497314453125,
				2.1818909645080566,
				-0.028880953788757324,
				-0.2864736318588257,
				-0.3625221252441406,
				-0.0839836597442627,
				0.9514816403388977
			],
			[
				0.5351983308792114,
				0.5462021231651306,
				0.9556378722190857,
				-0.2203957885503769,
				-0.2213289737701416,
				0.15733414888381958,
				0.3439686596393585,
				-0.2335328608751297
			],
			[
				-0.739040732383728,
				-1.0875037908554077,
				0.34578219056129456,
				-0.6538244485855103,
				-0.3494616746902466,
				-2.2397589683532715,
				0.3054696321487427,
				-1.8847140073776245
			],
			[
				-0.17012669146060944,
				0.5498142242431641,
				-0.12014223635196686,
				-0.06882226467132568,
				-0.1959218978881836,
				-0.28149858117103577,
				-0.4644850492477417,
				-0.07512092590332031
			],
			[
				-0.281362920999527,
				0.28363797068595886,
				0.10830240696668625,
				0.1545034646987915,
				-0.15439975261688232,
				0.3648456335067749,
				0.3542066812515259,
				-0.22325420379638672
			],
			[
				0.8501855134963989,
				1.1858489513397217,
				0.6843981146812439,
				0.18153724074363708,
				-0.45862841606140137,
				-1.5140053033828735,
				-0.1772833615541458,
				-5.818428039550781
			],
			[
				0.4775305688381195,
				-0.7688494324684143,
				0.436177134513855,
				-1.3274916410446167,
				0.2584247589111328,
				0.7224444150924683,
				-0.4470376670360565,
				-0.10218659788370132
			],
			[
				-0.3833959102630615,
				0.4431086778640747,
				0.29693901538848877,
				0.21045219898223877,
				-0.18507540225982666,
				0.07513308525085449,
				0.3586384057998657,
				-0.254955530166626
			],
			[
				0.4744289815425873,
				-0.5229411125183105,
				1.4940736293792725,
				-1.7914824485778809,
				-0.20893573760986328,
				0.2698345482349396,
				-0.2443103790283203,
				0.4891410768032074
			],
			[
				0.08777391910552979,
				-0.34899818897247314,
				0.037279605865478516,
				-0.11712968349456787,
				0.3051903247833252,
				-0.3072488307952881,
				0.009203433990478516,
				0.33432650566101074
			],
			[
				-0.28571391105651855,
				-0.25401294231414795,
				0.3657691478729248,
				-0.0014805793762207031,
				0.3390974998474121,
				0.09392833709716797,
				-0.143468976020813,
				0.21803319454193115
			],
			[
				0.9772431254386902,
				-0.21146105229854584,
				0.8200582265853882,
				-1.391380786895752,
				-0.4196885824203491,
				1.0483651161193848,
				-0.008073734119534492,
				0.40717190504074097
			],
			[
				0.5458502769470215,
				0.7895247340202332,
				0.7932007908821106,
				-0.06331206113100052,
				0.17979788780212402,
				-0.7300044894218445,
				-0.4171143174171448,
				-1.2998788356781006
			],
			[
				2.1291024684906006,
				1.2372761964797974,
				3.148064136505127,
				0.2893104553222656,
				0.10729002952575684,
				-2.4203062057495117,
				-0.32264649868011475,
				1.2874727249145508
			],
			[
				1.0694807767868042,
				0.43426209688186646,
				1.4532032012939453,
				-0.15795746445655823,
				0.2968885898590088,
				-0.3464319407939911,
				-0.2025437355041504,
				-0.3883713483810425
			]
		],
		"weight_2": -1,
		"weight_3": -7.9971466064453125,
		"weight_4": 7.9971466064453125,
		"weight_5": -1.1747631106841295e-35,
		"weight_6": 15.097811698913574
	},
	"layer_3": {
		"weight_0": [
			-3.2563765048980713,
			0.0,
			1.3041491508483887,
			-2.9925057888031006
		],
		"weight_1": [
			[
				-0.6474329829216003,
				-0.6938170194625854,
				2.3234174251556396,
				-0.29403090476989746
			],
			[
				-3.998847246170044,
				0.28197234869003296,
				-2.597144842147827,
				0.5330321788787842
			],
			[
				0.42019739747047424,
				-0.3631713092327118,
				1.8097543716430664,
				0.20205259323120117
			],
			[
				-1.7457094192504883,
				-0.6469630599021912,
				1.4352446794509888,
				0.5955789685249329
			],
			[
				0.3368298411369324,
				-0.5981789231300354,
				0.37224799394607544,
				0.3736409544944763
			],
			[
				1.2145051956176758,
				0.4061998724937439,
				-1.058505892753601,
				1.6840415000915527
			],
			[
				-0.5967450737953186,
				-0.13493144512176514,
				0.3453800678253174,
				-0.04182552918791771
			],
			[
				2.194563627243042,
				-0.20612168312072754,
				-1.8035051822662354,
				2.3981051445007324
			]
		],
		"weight_2": -1,
		"weight_3": -3.998847246170044,
		"weight_4": 3.998847246170044,
		"weight_5": -1.1747631106841295e-35,
		"weight_6": 43.84314727783203
	},
	"layer_4": {
		"weight_0": [
			1.5361353158950806
		],
		"weight_1": [
			[
				-3.999361515045166
			],
			[
				0.43475914001464844
			],
			[
				3.1612026691436768
			],
			[
				-2.581672430038452
			]
		],
		"weight_2": -1,
		"weight_3": -3.999361515045166,
		"weight_4": 3.999361515045166,
		"weight_5": -0.001058886293321848,
		"weight_6": 135.41981506347656
	}
}