{
	"layer_0": {
		"weight_0": [
			[
				0.9500890970230103,
				0.4430240988731384,
				0.5747117400169373,
				0.48007526993751526,
				0.826423168182373,
				-0.2693362534046173,
				0.3138505220413208,
				-0.43426984548568726,
				1.0685187578201294,
				-0.0034289956092834473,
				0.42704328894615173,
				0.34271180629730225,
				-0.20750340819358826,
				0.7636672258377075,
				1.007513165473938,
				0.6914550065994263
			],
			[
				-0.40915435552597046,
				-0.3471234440803528,
				-0.4572547376155853,
				-1.896854281425476,
				-0.5663051605224609,
				-0.3557710647583008,
				-1.398428201675415,
				-0.20365262031555176,
				-0.44306331872940063,
				-0.4646092653274536,
				-1.3591278791427612,
				0.6677571535110474,
				-0.20040088891983032,
				0.6632775664329529,
				-0.2701183259487152,
				-0.47716253995895386
			]
		],
		"weight_1": [
			0.494299978017807,
			0.44381508231163025,
			0.402611643075943,
			0.39323875308036804,
			0.49738621711730957,
			0.0,
			0.289800226688385,
			0.0,
			0.48155173659324646,
			0.0,
			0.32392942905426025,
			0.2943030595779419,
			0.0,
			0.41791853308677673,
			0.48124822974205017,
			0.48595455288887024
		]
	},
	"layer_1": {
		"weight_0": [
			[
				-0.08717675507068634,
				0.1940896213054657,
				0.4862050414085388,
				0.4510088264942169,
				0.08497980237007141,
				0.23403741419315338,
				0.69422847032547,
				0.4486658275127411
			],
			[
				0.3150935173034668,
				-0.1598316729068756,
				0.0983872041106224,
				0.41349664330482483,
				-0.05761236324906349,
				-0.28240349888801575,
				-0.554443359375,
				0.28100135922431946
			],
			[
				-0.026648707687854767,
				0.2128368467092514,
				0.6710302233695984,
				0.13507802784442902,
				0.28316015005111694,
				-0.0854182317852974,
				0.47575125098228455,
				0.6797846555709839
			],
			[
				-0.4582480192184448,
				0.16911739110946655,
				1.7613142728805542,
				1.4187984466552734,
				0.22637556493282318,
				2.130974769592285,
				1.8051855564117432,
				2.1729609966278076
			],
			[
				0.2957956790924072,
				-0.3944324254989624,
				0.5489650964736938,
				1.0034855604171753,
				0.18426991999149323,
				1.085445761680603,
				0.8153425455093384,
				0.6538473963737488
			],
			[
				-0.42721641063690186,
				-0.23344123363494873,
				0.23495662212371826,
				-0.38958990573883057,
				0.45396924018859863,
				-0.19403517246246338,
				-0.3749784231185913,
				0.1947183609008789
			],
			[
				-0.43978068232536316,
				-0.1827099770307541,
				0.9879841208457947,
				1.1987526416778564,
				0.37632787227630615,
				0.8446478843688965,
				0.8525851368904114,
				1.3111467361450195
			],
			[
				0.06146812438964844,
				0.4323415756225586,
				0.327046275138855,
				0.2534980773925781,
				-0.4698532819747925,
				0.1249474287033081,
				-0.39007723331451416,
				0.34734511375427246
			],
			[
				0.18599949777126312,
				-0.4415702223777771,
				0.761025071144104,
				0.8989331126213074,
				-0.3311493396759033,
				0.18890942633152008,
				0.08097315579652786,
				0.7348430156707764
			],
			[
				-0.11739027500152588,
				0.3060358762741089,
				0.3853651285171509,
				-0.4127466678619385,
				0.36421334743499756,
				0.43056797981262207,
				-0.4192456007003784,
				-0.3866075277328491
			],
			[
				-0.3964722156524658,
				0.181253120303154,
				1.0590664148330688,
				0.9078739881515503,
				-0.5404479503631592,
				1.462526559829712,
				1.2743347883224487,
				0.9354282021522522
			],
			[
				0.18045522272586823,
				0.2670934796333313,
				0.17521212995052338,
				-0.3818238079547882,
				-0.03719116747379303,
				-0.3254835605621338,
				0.14397680759429932,
				-0.6753810048103333
			],
			[
				-0.2245643138885498,
				0.4078042507171631,
				0.021460294723510742,
				0.004340529441833496,
				0.27513206005096436,
				0.49215877056121826,
				-0.019355177879333496,
				0.002483367919921875
			],
			[
				-0.2410838007926941,
				-0.3561610281467438,
				-0.2884455621242523,
				-0.006384959910064936,
				-0.38477054238319397,
				0.1611420214176178,
				-0.029034441336989403,
				-0.6412176489830017
			],
			[
				0.01603773608803749,
				0.3652275800704956,
				0.016179310157895088,
				0.07495834678411484,
				0.2110416144132614,
				0.6945710778236389,
				0.5162041783332825,
				0.37561288475990295
			],
			[
				0.2519433796405792,
				0.19674551486968994,
				0.8188496232032776,
				0.9647127985954285,
				0.0007215423975139856,
				0.7642384767532349,
				0.8439645767211914,
				0.869006872177124
			]
		],
		"weight_1": [
			-0.009345266036689281,
			-0.008166651241481304,
			0.49568963050842285,
			0.48425760865211487,
			-0.04370017349720001,
			0.48886677622795105,
			0.4207470118999481,
			0.44600003957748413
		]
	},
	"layer_2": {
		"weight_0": [
			[
				-0.019405730068683624,
				-0.9215187430381775,
				-1.0361292362213135,
				0.5854479670524597
			],
			[
				0.5020005702972412,
				-0.46728816628456116,
				-0.51148521900177,
				-0.3333541750907898
			],
			[
				0.7541657090187073,
				1.0639737844467163,
				0.6153005957603455,
				0.4817820191383362
			],
			[
				1.3490885496139526,
				0.8859648704528809,
				1.270576000213623,
				-0.5377703309059143
			],
			[
				0.5809515714645386,
				-0.18239140510559082,
				-0.4300937056541443,
				-0.24739371240139008
			],
			[
				0.3271500766277313,
				0.8536777496337891,
				1.5504266023635864,
				-0.6399030685424805
			],
			[
				0.8819519281387329,
				0.9996832013130188,
				0.46133264899253845,
				0.4315710663795471
			],
			[
				0.8441957831382751,
				1.2664448022842407,
				1.5005719661712646,
				-0.5673562288284302
			]
		],
		"weight_1": [
			0.4807617962360382,
			0.48015153408050537,
			0.47889700531959534,
			-0.028643397614359856
		]
	},
	"layer_3": {
		"weight_0": [
			[
				1.2354573011398315
			],
			[
				1.4094234704971313
			],
			[
				1.8235845565795898
			],
			[
				0.3682912588119507
			]
		],
		"weight_1": [
			0.4760766923427582
		]
	}
}