{
	"layer_0": {
		"weight_0": [
			[
				0.6487558484077454,
				0.4798002541065216,
				-0.176764577627182,
				0.5428749918937683,
				-0.5557493567466736,
				0.4591425955295563,
				0.5022454857826233,
				0.43137091398239136,
				-0.017947614192962646,
				0.4187932014465332,
				-0.008667063899338245,
				0.3640252351760864,
				0.4753709137439728,
				0.019684236496686935,
				0.7350263595581055,
				0.09161083400249481
			],
			[
				0.04510562866926193,
				-0.1231500580906868,
				-0.35064685344696045,
				0.6443199515342712,
				-0.2509646713733673,
				-0.12488866597414017,
				-0.028786761686205864,
				0.3779166042804718,
				-0.22860974073410034,
				0.17201901972293854,
				0.7196692228317261,
				-0.24873311817646027,
				0.0639873817563057,
				0.7084484696388245,
				0.12712538242340088,
				-0.28366488218307495
			]
		],
		"weight_1": [
			0.4380183517932892,
			0.352545827627182,
			0.0,
			0.4326932430267334,
			0.0,
			0.1577160507440567,
			0.4213963449001312,
			0.4243173897266388,
			0.0,
			0.3660907447338104,
			0.4453968107700348,
			0.06546332687139511,
			0.2668727934360504,
			0.4363987445831299,
			0.4312487542629242,
			-0.05597596615552902
		]
	},
	"layer_1": {},
	"layer_2": {
		"weight_0": [
			[
				0.7697867155075073,
				0.3494865298271179,
				0.9147874712944031,
				-0.13667821884155273,
				0.5575257539749146,
				0.49499231576919556,
				0.4652707576751709,
				0.22117090225219727
			],
			[
				0.49202901124954224,
				0.5775482654571533,
				0.684161365032196,
				-0.20998871326446533,
				0.1449493020772934,
				-0.07100585103034973,
				0.8755747675895691,
				0.08417177200317383
			],
			[
				0.17402148246765137,
				-0.3291207551956177,
				0.34040510654449463,
				-0.482200026512146,
				0.22427630424499512,
				0.043723106384277344,
				0.019866466522216797,
				-0.3341677188873291
			],
			[
				0.4356909692287445,
				0.15702396631240845,
				0.4624840319156647,
				-0.1148751974105835,
				-0.3810129463672638,
				0.6312122344970703,
				0.24535930156707764,
				-0.20458388328552246
			],
			[
				0.238899827003479,
				0.2009739875793457,
				0.06949877738952637,
				-0.21950960159301758,
				0.49446284770965576,
				-0.2244929075241089,
				0.24704551696777344,
				-0.1459728479385376
			],
			[
				0.04436430707573891,
				0.671867847442627,
				0.03125760704278946,
				-0.4954526424407959,
				-0.09544173628091812,
				0.4009779989719391,
				0.20486174523830414,
				-0.466968297958374
			],
			[
				0.05497924983501434,
				0.5546411871910095,
				0.782030463218689,
				-0.10296452045440674,
				0.42793402075767517,
				0.4110158681869507,
				0.6022056341171265,
				0.4918419122695923
			],
			[
				0.007152833044528961,
				0.4175999164581299,
				0.6596129536628723,
				-0.2401278018951416,
				0.41490745544433594,
				0.7006831169128418,
				0.2816994786262512,
				-0.07831788063049316
			],
			[
				-0.021769165992736816,
				-0.1595160961151123,
				0.18731164932250977,
				0.037468552589416504,
				0.3207437992095947,
				0.28935933113098145,
				-0.19337832927703857,
				0.13868403434753418
			],
			[
				0.48377808928489685,
				0.4146854281425476,
				0.40357705950737,
				0.09141266345977783,
				0.1215597540140152,
				0.2196769118309021,
				0.7404510974884033,
				-0.4756273031234741
			],
			[
				0.7264087200164795,
				0.8783997297286987,
				0.7818921804428101,
				0.16963136196136475,
				-0.10703659057617188,
				0.18334001302719116,
				0.33781251311302185,
				-0.017864108085632324
			],
			[
				0.36583268642425537,
				0.6087199449539185,
				-0.18701933324337006,
				-0.17189288139343262,
				0.14314724504947662,
				-0.04807162284851074,
				-0.21189628541469574,
				-0.1510002613067627
			],
			[
				0.26325690746307373,
				0.8987653255462646,
				0.22433651983737946,
				0.34586119651794434,
				0.4092048108577728,
				0.00791685376316309,
				0.5807943940162659,
				0.06546032428741455
			],
			[
				0.6044071316719055,
				0.1945236176252365,
				0.19051416218280792,
				-0.46174097061157227,
				0.02709319069981575,
				0.38252320885658264,
				0.8898358345031738,
				-0.14918851852416992
			],
			[
				0.39992058277130127,
				0.4527197480201721,
				0.30604004859924316,
				0.2557309865951538,
				0.45667770504951477,
				0.5478455424308777,
				0.3196069896221161,
				-0.42405104637145996
			],
			[
				0.03433258458971977,
				-0.41987255215644836,
				0.35235652327537537,
				-0.05261814594268799,
				0.5408632159233093,
				-0.021357325837016106,
				-0.3000299632549286,
				-0.4752795696258545
			]
		],
		"weight_1": [
			0.42103803157806396,
			0.4297148585319519,
			0.43205726146698,
			0.0,
			0.11943139135837555,
			0.3980122208595276,
			0.4060365855693817,
			0.0
		]
	},
	"layer_3": {},
	"layer_4": {
		"weight_0": [
			[
				0.9164425134658813,
				-0.4532284736633301,
				0.6859914660453796,
				0.7826865315437317
			],
			[
				0.563679575920105,
				-0.5431565642356873,
				0.690517783164978,
				0.27014464139938354
			],
			[
				0.21006256341934204,
				0.26346296072006226,
				0.651885986328125,
				0.5904732942581177
			],
			[
				0.04931837320327759,
				-0.06573611497879028,
				-0.19386893510818481,
				0.15601837635040283
			],
			[
				0.6315330862998962,
				-0.4290766716003418,
				-0.07286843657493591,
				0.3345952332019806
			],
			[
				1.0112711191177368,
				-0.5565857291221619,
				0.21569065749645233,
				1.0040113925933838
			],
			[
				0.6935874223709106,
				-0.5978114008903503,
				0.11807595938444138,
				0.6604076623916626
			],
			[
				-0.4532080888748169,
				-0.6593309640884399,
				-0.07221978902816772,
				0.4874832034111023
			]
		],
		"weight_1": [
			0.2767762839794159,
			0.0,
			0.4286140501499176,
			0.2946765422821045
		]
	},
	"layer_5": {},
	"layer_6": {
		"weight_0": [
			[
				2.9135122299194336
			],
			[
				1.0767152309417725
			],
			[
				2.865786552429199
			],
			[
				3.0204687118530273
			]
		],
		"weight_1": [
			2.220475196838379
		]
	}
}