{
	"layer_0": {
		"weight_0": 0.0,
		"weight_1": 1.0,
		"weight_2": -1
	},
	"layer_1": {
		"weight_0": [
			0.0,
			0.8972952961921692,
			0.0,
			0.6101523041725159,
			0.729920506477356,
			0.0,
			0.23586611449718475,
			0.4833742380142212,
			0.5930118560791016,
			0.0,
			0.0,
			0.0,
			0.061876315623521805,
			0.06910548359155655,
			0.16121765971183777,
			0.0
		],
		"weight_1": [
			[
				-0.3955721855163574,
				-0.14414751529693604,
				-0.3948414921760559,
				0.5487181544303894,
				0.5384995341300964,
				-0.33453384041786194,
				-0.7860695123672485,
				0.5787539482116699,
				0.7479705810546875,
				-0.1388995349407196,
				-0.40152791142463684,
				-0.13043606281280518,
				3.9688022136688232,
				3.0540337562561035,
				-0.6186708807945251,
				-0.5147574543952942
			],
			[
				-0.5209429264068604,
				-0.5487791299819946,
				-0.418066143989563,
				-3.5790529251098633,
				-2.2619211673736572,
				-0.4192892909049988,
				3.7352755069732666,
				-0.22552978992462158,
				-1.3757669925689697,
				-0.1466636061668396,
				-0.2634267508983612,
				-0.023232877254486084,
				0.8605425953865051,
				1.2194902896881104,
				3.6718504428863525,
				-0.5298208594322205
			]
		],
		"weight_2": -1,
		"weight_3": -3.9688022136688232,
		"weight_4": 3.9688022136688232,
		"weight_5": -2.7281932830810547,
		"weight_6": 4.62636137008667
	},
	"layer_2": {
		"weight_0": -1,
		"weight_1": -3.3394137455289297e-10,
		"weight_2": 4.569790840148926
	},
	"layer_3": {
		"weight_0": [
			0.7885676622390747,
			0.5426988005638123,
			-0.03939610347151756,
			-0.08906412869691849,
			0.7216156721115112,
			-1.0694544315338135,
			0.43192431330680847,
			0.58050936460495
		],
		"weight_1": [
			[
				0.017199993133544922,
				-0.01330268383026123,
				0.14159274101257324,
				0.378619909286499,
				0.3663158416748047,
				-0.334295392036438,
				-0.28998804092407227,
				0.20612144470214844
			],
			[
				0.7011890411376953,
				0.31395459175109863,
				-0.41902491450309753,
				0.38387757539749146,
				0.3594045639038086,
				-1.1931835412979126,
				0.35637977719306946,
				0.6580780744552612
			],
			[
				0.10481858253479004,
				-0.4126392602920532,
				0.27941441535949707,
				-0.4763457775115967,
				0.13203835487365723,
				-0.3868294954299927,
				-0.13173818588256836,
				0.18075931072235107
			],
			[
				1.2359485626220703,
				1.8409781455993652,
				-0.3456926643848419,
				0.34958693385124207,
				2.819200038909912,
				-0.015242737717926502,
				0.973109781742096,
				1.284029245376587
			],
			[
				0.45626911520957947,
				1.453338384628296,
				0.04871702194213867,
				0.14256833493709564,
				1.7416108846664429,
				-0.12556806206703186,
				0.9117981195449829,
				0.8505868911743164
			],
			[
				0.49496161937713623,
				0.23201191425323486,
				0.4597967863082886,
				-0.41487693786621094,
				0.3146604299545288,
				-0.4620751142501831,
				-0.4959675073623657,
				0.20370173454284668
			],
			[
				1.2435510158538818,
				-0.5610799789428711,
				-0.41092970967292786,
				-0.34690240025520325,
				-0.33107730746269226,
				-0.4734400808811188,
				-3.9865052700042725,
				-2.424062490463257
			],
			[
				0.130507230758667,
				0.6035310626029968,
				0.461110919713974,
				-0.5137078166007996,
				0.5939170122146606,
				0.3729017972946167,
				0.05137484893202782,
				-0.1119040846824646
			],
			[
				0.7826492190361023,
				0.21383026242256165,
				0.005609803833067417,
				-0.4616682827472687,
				1.0653536319732666,
				-0.14972782135009766,
				0.6241357922554016,
				0.4614231586456299
			],
			[
				0.3455458879470825,
				0.23313641548156738,
				-0.3396878242492676,
				0.23939073085784912,
				-0.4987802505493164,
				0.24832046031951904,
				-0.22243881225585938,
				0.3886229991912842
			],
			[
				-0.18266451358795166,
				-0.4267319440841675,
				0.3973439931869507,
				-0.3071967363357544,
				0.46630072593688965,
				-0.06554877758026123,
				-0.1466062068939209,
				-0.05079245567321777
			],
			[
				-0.27503418922424316,
				-0.04882693290710449,
				0.12279665470123291,
				0.3580894470214844,
				-0.1637258529663086,
				0.36766350269317627,
				-0.34244871139526367,
				0.48463642597198486
			],
			[
				-3.734199047088623,
				0.8028535842895508,
				0.22039398550987244,
				-0.4547397792339325,
				1.0250184535980225,
				0.7155591249465942,
				-0.14749880135059357,
				-0.17256125807762146
			],
			[
				-3.412076950073242,
				0.8594486117362976,
				-0.3908802568912506,
				-0.21484331786632538,
				0.40295085310935974,
				0.4656519889831543,
				-0.6446830034255981,
				-0.20135630667209625
			],
			[
				0.5002854466438293,
				-0.1084284707903862,
				-0.30904000997543335,
				0.07509970664978027,
				-0.28656885027885437,
				0.17315766215324402,
				-3.9963197708129883,
				-2.348060131072998
			],
			[
				0.1569429636001587,
				0.23885715007781982,
				-0.1532987356185913,
				0.3591630458831787,
				0.2668724060058594,
				0.39044642448425293,
				-0.07311546802520752,
				-0.24412226676940918
			]
		],
		"weight_2": -1,
		"weight_3": -3.9963197708129883,
		"weight_4": 3.9963197708129883,
		"weight_5": -30.138330459594727,
		"weight_6": 10.345873832702637
	},
	"layer_4": {
		"weight_0": -1,
		"weight_1": -3.3394137455289297e-10,
		"weight_2": 9.986151695251465
	},
	"layer_5": {
		"weight_0": [
			0.7100844979286194,
			0.6638790369033813,
			0.1380753517150879,
			0.7605195641517639
		],
		"weight_1": [
			[
				-2.3410658836364746,
				-2.2469708919525146,
				-2.4340178966522217,
				-1.346763014793396
			],
			[
				1.2905045747756958,
				1.0109213590621948,
				1.0298336744308472,
				0.2026432305574417
			],
			[
				-0.6252214908599854,
				0.6733063459396362,
				0.4414580166339874,
				0.5442190766334534
			],
			[
				-0.042393531650304794,
				0.4167066514492035,
				0.12156988680362701,
				-0.2827777564525604
			],
			[
				0.8423077464103699,
				0.9310232400894165,
				0.5296965837478638,
				1.3074010610580444
			],
			[
				-1.7392377853393555,
				-0.9009339213371277,
				-1.6886245012283325,
				-1.3325049877166748
			],
			[
				4.351827144622803,
				4.335946083068848,
				3.851471185684204,
				3.9288806915283203
			],
			[
				1.718672752380371,
				1.0082725286483765,
				1.6200621128082275,
				1.6459441184997559
			]
		],
		"weight_2": -1,
		"weight_3": -4.351827144622803,
		"weight_4": 4.351827144622803,
		"weight_5": -0.48839080333709717,
		"weight_6": 19.83500099182129
	},
	"layer_6": {
		"weight_0": -1,
		"weight_1": -3.3394137455289297e-10,
		"weight_2": 18.958337783813477
	},
	"layer_7": {
		"weight_0": [
			0.7619687914848328
		],
		"weight_1": [
			[
				2.579416275024414
			],
			[
				1.790806531906128
			],
			[
				1.681256890296936
			],
			[
				2.255951404571533
			]
		],
		"weight_2": -1,
		"weight_3": -2.5780961513519287,
		"weight_4": 2.5780961513519287,
		"weight_5": -3.3394137455289297e-10,
		"weight_6": 139.34979248046875
	}
}