{
	"layer_0": {
		"weight_0": [
			[
				0.15673105418682098,
				0.6241283416748047,
				-0.46698570251464844,
				-2.279986619949341,
				1.6012468338012695,
				0.36648228764533997,
				1.6240148544311523,
				0.9240966439247131,
				0.04340387508273125,
				1.2995390892028809,
				0.3177787661552429,
				-0.45683911442756653,
				0.4943222999572754,
				-0.5427755117416382,
				-0.35901907086372375,
				1.733304500579834
			],
			[
				-0.18332545459270477,
				-6.140758037567139,
				-0.4789385497570038,
				-0.24490217864513397,
				-0.5895500183105469,
				-1.2782955169677734,
				-0.22448569536209106,
				-0.4397280514240265,
				-0.19468148052692413,
				1.9056973457336426,
				-3.323310375213623,
				1.0327309370040894,
				-2.0719683170318604,
				-0.3527251183986664,
				-0.4098617136478424,
				0.183518648147583
			]
		],
		"weight_1": [
			-0.13647498190402985,
			0.12963663041591644,
			0.9664937853813171,
			0.8569602966308594,
			0.5724131464958191,
			0.5911245942115784,
			0.36257442831993103,
			0.42066821455955505,
			-0.0218656025826931,
			0.1526399552822113,
			0.2637867033481598,
			0.6340920329093933,
			0.49062225222587585,
			0.0,
			0.0,
			0.45368340611457825
		]
	},
	"layer_1": {
		"weight_0": [
			[
				0.011822670698165894,
				-0.37242186069488525,
				0.38998469710350037,
				-0.18354308605194092,
				-0.1531401425600052,
				0.38962066173553467,
				0.3166363537311554,
				-0.05687110871076584
			],
			[
				3.633136749267578,
				3.997765302658081,
				3.5650954246520996,
				-0.39625656604766846,
				-3.464233875274658,
				-0.6727790832519531,
				-2.6593430042266846,
				4.004603385925293
			],
			[
				0.34712332487106323,
				0.7561833262443542,
				0.05400177836418152,
				0.2844403386116028,
				0.2511499226093292,
				0.5495678782463074,
				-0.37222421169281006,
				0.4729921221733093
			],
			[
				-1.0363906621932983,
				-0.5050638914108276,
				-0.7665172219276428,
				0.4727044701576233,
				0.5104671120643616,
				2.395939588546753,
				0.6434497237205505,
				-0.7767407298088074
			],
			[
				0.8644274473190308,
				0.7691749930381775,
				0.9419016242027283,
				-1.2276406288146973,
				0.3288162350654602,
				-1.4390496015548706,
				0.3712048828601837,
				0.6998639106750488
			],
			[
				1.1702314615249634,
				0.6458141207695007,
				0.6627032160758972,
				-0.9285683631896973,
				-0.34471043944358826,
				0.32340455055236816,
				0.1203906238079071,
				0.9235146641731262
			],
			[
				0.3260968327522278,
				0.09672760218381882,
				-0.11958494037389755,
				-0.38003015518188477,
				-0.2301747351884842,
				-1.4947518110275269,
				0.4643341898918152,
				0.6737912893295288
			],
			[
				0.626315176486969,
				0.012447359971702099,
				0.2323678880929947,
				0.6251013875007629,
				-0.23758646845817566,
				-0.9504537582397461,
				0.2635866701602936,
				0.3611117899417877
			],
			[
				-0.33508041501045227,
				-0.18154585361480713,
				-0.2932382822036743,
				-0.44120049476623535,
				-0.11319828033447266,
				-0.3343956172466278,
				0.39342767000198364,
				-0.2048407793045044
			],
			[
				0.41654738783836365,
				0.08418792486190796,
				-0.9567820429801941,
				0.31997591257095337,
				0.34331199526786804,
				-0.8180845379829407,
				0.46664535999298096,
				-0.3842460811138153
			],
			[
				1.6968042850494385,
				1.6905890703201294,
				2.0371012687683105,
				-0.50840163230896,
				-0.9764174818992615,
				1.1085712909698486,
				-0.25297847390174866,
				1.8632090091705322
			],
			[
				0.51070237159729,
				0.2356692999601364,
				-0.7929717898368835,
				-0.12220927327871323,
				0.7654966711997986,
				0.3568629324436188,
				0.15992718935012817,
				0.4732978641986847
			],
			[
				0.7538616061210632,
				1.3110994100570679,
				1.388081431388855,
				0.7812515497207642,
				-0.4270176887512207,
				0.7014243006706238,
				-0.4956952929496765,
				0.65439772605896
			],
			[
				-0.34385108947753906,
				0.25854504108428955,
				0.4084819555282593,
				0.016976356506347656,
				-0.2623908519744873,
				-0.27730894088745117,
				0.37525689601898193,
				-0.3338003158569336
			],
			[
				0.26740121841430664,
				-0.42330753803253174,
				0.0039321184158325195,
				0.26973116397857666,
				0.4847928285598755,
				-0.1933290958404541,
				-0.4296959638595581,
				0.05008065700531006
			],
			[
				0.5697597861289978,
				0.7851158976554871,
				-0.45979100465774536,
				-0.08385186642408371,
				0.3447490334510803,
				-0.9642355442047119,
				-0.23313689231872559,
				-0.05907668173313141
			]
		],
		"weight_1": [
			0.6130728721618652,
			0.567359983921051,
			0.3754895329475403,
			0.21684014797210693,
			-0.0012975184945389628,
			0.34821170568466187,
			-0.02981988713145256,
			0.5660224556922913
		]
	},
	"layer_2": {
		"weight_0": [
			[
				-0.2986207604408264,
				1.2171683311462402,
				1.0361747741699219,
				1.0313454866409302
			],
			[
				-0.10967439413070679,
				0.6265047788619995,
				1.4216772317886353,
				1.2460598945617676
			],
			[
				0.12854313850402832,
				2.564875364303589,
				3.053811550140381,
				1.8363858461380005
			],
			[
				-0.17792576551437378,
				0.9802492260932922,
				0.8985074162483215,
				0.8012918829917908
			],
			[
				0.2471410185098648,
				-1.1017545461654663,
				-1.8258671760559082,
				-1.4143881797790527
			],
			[
				-0.34790706634521484,
				-3.73972487449646,
				-3.6006741523742676,
				-3.6132991313934326
			],
			[
				-0.35856229066848755,
				-0.9145694971084595,
				-1.0586107969284058,
				-1.2573133707046509
			],
			[
				0.36992567777633667,
				0.47160887718200684,
				1.5106581449508667,
				0.4872846007347107
			]
		],
		"weight_1": [
			-0.12084255367517471,
			0.8145763278007507,
			0.4729174077510834,
			0.6334769129753113
		]
	},
	"layer_3": {
		"weight_0": [
			[
				-0.7892101407051086
			],
			[
				2.298903465270996
			],
			[
				2.576634407043457
			],
			[
				2.7888057231903076
			]
		],
		"weight_1": [
			0.4823153018951416
		]
	}
}