{
	"layer_0": {
		"weight_0": [
			[
				0.4882547855377197,
				0.3994632959365845,
				-0.38002434372901917,
				0.5557762980461121,
				-0.1340101659297943,
				-0.5152225494384766,
				1.0510436296463013,
				0.8215080499649048,
				-0.20889699459075928,
				-0.24373316764831543,
				1.2668386697769165,
				0.523896336555481,
				1.3325694799423218,
				0.16431377828121185,
				0.27678754925727844,
				0.945156455039978
			],
			[
				-1.2694920301437378,
				-1.682146430015564,
				-0.4563406705856323,
				-1.205628752708435,
				-0.21670305728912354,
				-0.29256927967071533,
				-0.5073859691619873,
				-0.7787600755691528,
				-0.4006693959236145,
				-0.4409584403038025,
				-0.9603662490844727,
				-1.7140605449676514,
				-0.3116719424724579,
				-0.5230363011360168,
				-0.31290650367736816,
				-0.16678714752197266
			]
		],
		"weight_1": [
			0.19666481018066406,
			0.39885953068733215,
			0.0,
			0.3605438470840454,
			0.0,
			0.0,
			0.5980226397514343,
			0.6715773940086365,
			0.0,
			0.0,
			0.677046000957489,
			0.42655205726623535,
			0.656096339225769,
			-0.0981219932436943,
			0.6511464715003967,
			0.5647640824317932
		]
	},
	"layer_1": {
		"weight_0": [
			[
				1.659603476524353,
				0.9713953733444214,
				0.8468489646911621,
				1.2834906578063965,
				0.8043074607849121,
				-0.42227500677108765,
				1.130609393119812,
				-0.19192326068878174
			],
			[
				1.7364869117736816,
				1.9712225198745728,
				1.5616294145584106,
				1.6762028932571411,
				2.0123465061187744,
				-0.167362779378891,
				1.2781987190246582,
				-0.3447936773300171
			],
			[
				-0.19749367237091064,
				0.10586273670196533,
				0.42271196842193604,
				-0.014493584632873535,
				-0.00029349327087402344,
				0.4412599802017212,
				0.4813976287841797,
				0.3704413175582886
			],
			[
				1.3317891359329224,
				0.7437452077865601,
				1.370309591293335,
				1.3998463153839111,
				1.0927506685256958,
				-0.35155603289604187,
				0.7312670350074768,
				0.09922134876251221
			],
			[
				-0.2106020450592041,
				-0.2535914182662964,
				-0.32863450050354004,
				0.42498695850372314,
				0.016666769981384277,
				-0.3836784362792969,
				0.3331493139266968,
				0.3392045497894287
			],
			[
				-0.2880975008010864,
				-0.17714476585388184,
				0.40411365032196045,
				-0.1441504955291748,
				0.41028928756713867,
				0.27858710289001465,
				-0.06022083759307861,
				-0.16106140613555908
			],
			[
				0.5638587474822998,
				0.8571175932884216,
				0.5551685094833374,
				0.6886658072471619,
				0.30842694640159607,
				-0.08131935447454453,
				0.24721398949623108,
				0.1434413194656372
			],
			[
				0.8541813492774963,
				1.3238394260406494,
				1.4496361017227173,
				0.6884542107582092,
				0.76213139295578,
				-0.48085159063339233,
				1.2963253259658813,
				-0.42861640453338623
			],
			[
				0.1988542079925537,
				-0.43671655654907227,
				0.14109528064727783,
				-0.04603898525238037,
				-0.14442050457000732,
				0.3403027057647705,
				-0.243211030960083,
				-0.42129695415496826
			],
			[
				0.33766257762908936,
				-0.4490867853164673,
				0.4515247344970703,
				0.41755378246307373,
				-0.1384422779083252,
				0.16715013980865479,
				-0.2650071382522583,
				0.23294532299041748
			],
			[
				1.419947862625122,
				1.5809797048568726,
				0.7944282293319702,
				1.2087438106536865,
				1.432329773902893,
				0.4234926402568817,
				1.410307765007019,
				-0.4930514097213745
			],
			[
				1.9166518449783325,
				1.7865369319915771,
				1.6995911598205566,
				1.619118332862854,
				1.2048205137252808,
				-0.4878748655319214,
				1.203982949256897,
				0.3707449436187744
			],
			[
				-0.18103177845478058,
				0.6600559949874878,
				0.7688010334968567,
				0.35299643874168396,
				0.30746322870254517,
				0.11797560006380081,
				0.6706682443618774,
				-0.1507474184036255
			],
			[
				-0.16668100655078888,
				-0.19236642122268677,
				0.5674238801002502,
				0.04490610957145691,
				-0.424211710691452,
				0.4049169719219208,
				-0.031349603086709976,
				0.20962989330291748
			],
			[
				0.2830997407436371,
				0.29599007964134216,
				0.5968497395515442,
				0.243576318025589,
				0.35512828826904297,
				-0.21811413764953613,
				0.1511974185705185,
				-0.43363523483276367
			],
			[
				0.039643023163080215,
				0.5301204919815063,
				-0.22234055399894714,
				-0.01140192523598671,
				0.08553312718868256,
				-0.327825665473938,
				-0.16965089738368988,
				-0.16105294227600098
			]
		],
		"weight_1": [
			0.556265115737915,
			0.6113396883010864,
			0.6911411881446838,
			0.46466130018234253,
			0.5783250331878662,
			-0.010477317497134209,
			0.6032681465148926,
			0.0
		]
	},
	"layer_2": {
		"weight_0": [
			[
				1.3191287517547607,
				-0.41316503286361694,
				-0.3641342520713806,
				0.5223423838615417
			],
			[
				1.440245270729065,
				-0.06391668319702148,
				-0.008603694848716259,
				0.2833629250526428
			],
			[
				1.291503667831421,
				-0.19234251976013184,
				0.35970962047576904,
				-0.2983987033367157
			],
			[
				0.9525331258773804,
				-0.14224189519882202,
				0.04735109955072403,
				-0.36126193404197693
			],
			[
				1.0846349000930786,
				-0.07030028104782104,
				0.10392958670854568,
				0.3213290572166443
			],
			[
				-0.5235645174980164,
				-0.5555644035339355,
				-0.396601140499115,
				0.03174483776092529
			],
			[
				1.0347025394439697,
				0.15556824207305908,
				-0.17548611760139465,
				-0.6547021269798279
			],
			[
				-0.48819977045059204,
				0.32890814542770386,
				-0.32874152064323425,
				-0.16726398468017578
			]
		],
		"weight_1": [
			0.6224190592765808,
			0.0,
			0.07780585438013077,
			-0.1120440885424614
		]
	},
	"layer_3": {
		"weight_0": [
			[
				1.9179033041000366
			],
			[
				0.8868393898010254
			],
			[
				-1.23465895652771
			],
			[
				-1.029006838798523
			]
		],
		"weight_1": [
			0.6177902817726135
		]
	}
}