{
	"layer_0": {
		"weight_0": 0.0,
		"weight_1": 1.0,
		"weight_2": -1
	},
	"layer_1": {
		"weight_0": [
			0.0,
			0.7105011940002441,
			0.2681773006916046,
			0.7005997896194458,
			0.0,
			-0.021618269383907318,
			0.7853990197181702,
			0.7617568373680115,
			0.3527020812034607,
			0.0,
			0.8114709258079529,
			0.6628158092498779,
			0.3425230085849762,
			0.5552226305007935,
			0.8000988960266113,
			0.7407863736152649
		],
		"weight_1": [
			[
				-0.550262451171875,
				1.427514672279358,
				-0.6450344324111938,
				1.4736545085906982,
				-0.3664991855621338,
				0.013911807909607887,
				1.3735144138336182,
				1.4006346464157104,
				0.852179229259491,
				-0.21203598380088806,
				0.7822124361991882,
				1.1811081171035767,
				0.7691590189933777,
				0.9370190501213074,
				1.9853250980377197,
				1.1626827716827393
			],
			[
				-0.48802560567855835,
				-0.594581663608551,
				1.5240485668182373,
				-0.17628926038742065,
				-0.14520269632339478,
				0.0064959959127008915,
				-0.7601766586303711,
				0.2725541591644287,
				-1.4876043796539307,
				-0.2081875503063202,
				-0.008265160955488682,
				-0.6279489994049072,
				-1.389681339263916,
				-1.8951843976974487,
				0.24934759736061096,
				-0.38498109579086304
			]
		],
		"weight_2": -1,
		"weight_3": -1.9853250980377197,
		"weight_4": 1.9853250980377197,
		"weight_5": -0.5658519268035889,
		"weight_6": 2.9827370643615723
	},
	"layer_2": {
		"weight_0": [
			-0.005774097517132759,
			0.7397472858428955,
			0.3523998558521271,
			0.697882890701294,
			0.7362244725227356,
			0.7690613269805908,
			-0.03612910583615303,
			0.7199423909187317
		],
		"weight_1": [
			[
				-0.15939855575561523,
				-0.3568582534790039,
				0.42751097679138184,
				0.35101771354675293,
				0.08526110649108887,
				0.12995660305023193,
				-0.228743314743042,
				0.07583630084991455
			],
			[
				-0.138236403465271,
				0.3054380714893341,
				0.9351924657821655,
				0.8294010162353516,
				1.0789283514022827,
				1.1830947399139404,
				0.04679882526397705,
				0.5491343140602112
			],
			[
				0.06998356431722641,
				-0.7468522787094116,
				-2.2772040367126465,
				-1.0111851692199707,
				-1.215792179107666,
				-1.1108887195587158,
				0.37448248267173767,
				-1.1086703538894653
			],
			[
				-0.37757647037506104,
				0.6483241319656372,
				0.14805644750595093,
				0.8316431045532227,
				0.7848244905471802,
				0.19896237552165985,
				-0.5262347459793091,
				0.9296009540557861
			],
			[
				-0.09411990642547607,
				0.32649409770965576,
				0.3845411539077759,
				-0.49210572242736816,
				0.14434421062469482,
				-0.20883071422576904,
				0.3577994108200073,
				-0.024527549743652344
			],
			[
				-0.14601969718933105,
				0.16186264157295227,
				0.3025088310241699,
				0.23005960881710052,
				0.09240017831325531,
				-0.4728580713272095,
				0.3138362169265747,
				0.13279633224010468
			],
			[
				-0.37104642391204834,
				1.1449042558670044,
				0.7333799600601196,
				0.6651009917259216,
				1.1937735080718994,
				0.9242260456085205,
				-0.0026176385581493378,
				0.5505973100662231
			],
			[
				-0.24704426527023315,
				0.18339787423610687,
				-0.5926539897918701,
				-0.06863237917423248,
				0.1593627780675888,
				0.5826492309570312,
				-0.1842641830444336,
				0.36799356341362
			],
			[
				0.23933778703212738,
				1.1876978874206543,
				1.7146854400634766,
				1.269351601600647,
				1.380489468574524,
				1.3664389848709106,
				-0.24885182082653046,
				1.8265860080718994
			],
			[
				-0.4016927480697632,
				0.2177058458328247,
				-0.0619196891784668,
				-0.43059051036834717,
				0.2499551773071289,
				-0.35291481018066406,
				-0.2033597230911255,
				-0.19371402263641357
			],
			[
				-0.4125927686691284,
				0.8624296188354492,
				-0.0721827819943428,
				0.5861234664916992,
				0.7741541266441345,
				0.7031957507133484,
				-0.5286111235618591,
				0.36756768822669983
			],
			[
				0.1288663148880005,
				1.0190283060073853,
				0.9828025698661804,
				0.8835026621818542,
				0.6874815225601196,
				0.32093244791030884,
				-0.31054627895355225,
				1.160914659500122
			],
			[
				0.10545168071985245,
				1.6988922357559204,
				1.3661079406738281,
				1.4826711416244507,
				1.6292259693145752,
				1.210110068321228,
				0.4045068025588989,
				1.1628834009170532
			],
			[
				0.05238521099090576,
				1.8348196744918823,
				1.713622808456421,
				2.034081220626831,
				2.46734619140625,
				2.394528388977051,
				0.14611470699310303,
				1.8124988079071045
			],
			[
				-0.2245440036058426,
				0.4317450225353241,
				-0.6942019462585449,
				0.49368777871131897,
				0.7003856301307678,
				0.5381458401679993,
				-0.45075318217277527,
				0.5566520690917969
			],
			[
				0.40396666526794434,
				0.8336507081985474,
				0.4908825159072876,
				0.18239673972129822,
				0.9161946177482605,
				1.0757988691329956,
				0.2869807481765747,
				0.6357311606407166
			]
		],
		"weight_2": -1,
		"weight_3": -2.467055082321167,
		"weight_4": 2.467055082321167,
		"weight_5": -0.5658519268035889,
		"weight_6": 16.512371063232422
	},
	"layer_3": {
		"weight_0": [
			0.0,
			-0.31573763489723206,
			0.8576816320419312,
			0.012508449144661427
		],
		"weight_1": [
			[
				0.47077351808547974,
				-0.13121020793914795,
				-0.2192535549402237,
				0.017585409805178642
			],
			[
				-0.47098058462142944,
				0.16019397974014282,
				1.2436233758926392,
				0.33836740255355835
			],
			[
				-0.18845897912979126,
				0.26500940322875977,
				1.6249637603759766,
				0.1827414631843567
			],
			[
				-0.6501711010932922,
				0.37272390723228455,
				1.4414464235305786,
				-0.38544711470603943
			],
			[
				-0.4655478596687317,
				-0.07275188714265823,
				1.2078052759170532,
				-0.5564439296722412
			],
			[
				-0.6425575017929077,
				-0.6288207173347473,
				1.380433440208435,
				0.3515661358833313
			],
			[
				-0.06138521432876587,
				0.6134181618690491,
				-0.6130378246307373,
				0.5741227865219116
			],
			[
				-0.6194456815719604,
				0.02717338316142559,
				1.241162896156311,
				0.007261587306857109
			]
		],
		"weight_2": -1,
		"weight_3": -1.6246877908706665,
		"weight_4": 1.6246877908706665,
		"weight_5": -0.5658519268035889,
		"weight_6": 92.82089233398438
	},
	"layer_4": {
		"weight_0": [
			0.8343518376350403
		],
		"weight_1": [
			[
				0.37439286708831787
			],
			[
				-0.5569947361946106
			],
			[
				1.1477447748184204
			],
			[
				-0.7380173802375793
			]
		],
		"weight_2": -1,
		"weight_3": -1.1474899053573608,
		"weight_4": 1.1474899053573608,
		"weight_5": -0.5658519268035889,
		"weight_6": 74.1943130493164
	}
}