{
	"layer_0": {
		"weight_0": 0.0,
		"weight_1": 1.0,
		"weight_2": -1
	},
	"layer_1": {
		"weight_0": [
			0.5249868631362915,
			0.0,
			-0.0031622766982764006,
			0.27531442046165466,
			0.2655017375946045,
			0.6444326639175415,
			0.700410008430481,
			0.0,
			0.4684443473815918,
			0.6549831628799438,
			0.0,
			0.2287258356809616,
			0.6386894583702087,
			0.5422589182853699,
			0.6091198325157166,
			0.0
		],
		"weight_1": [
			[
				0.9104812145233154,
				-0.43908941745758057,
				0.021657301113009453,
				0.5530450344085693,
				-1.1226269006729126,
				1.387226939201355,
				1.2174255847930908,
				-0.25081419944763184,
				0.7513203024864197,
				1.031826376914978,
				-0.23927491903305054,
				0.5079872608184814,
				0.5758814215660095,
				0.3612380027770996,
				1.2593494653701782,
				-0.286627858877182
			],
			[
				-0.3610523045063019,
				-0.49192044138908386,
				-0.438191682100296,
				-1.7727174758911133,
				0.09455104172229767,
				-0.4798465371131897,
				-0.043267425149679184,
				-0.17258533835411072,
				-1.7871791124343872,
				-0.5817718505859375,
				-0.0988377034664154,
				-1.5692592859268188,
				-0.46606355905532837,
				0.6260251998901367,
				-0.2787644565105438,
				-0.3303548991680145
			]
		],
		"weight_2": -1,
		"weight_3": -1.7881180047988892,
		"weight_4": 1.7881180047988892,
		"weight_5": -0.5658519268035889,
		"weight_6": 2.341756820678711
	},
	"layer_2": {
		"weight_0": [
			0.6346686482429504,
			0.5100729465484619,
			0.6533334851264954,
			0.06044386327266693,
			0.6540719270706177,
			0.6088207960128784,
			0.5473582148551941,
			-0.17582960426807404
		],
		"weight_1": [
			[
				-0.37874171137809753,
				0.37419846653938293,
				0.250413715839386,
				0.044623225927352905,
				0.3422890901565552,
				-0.0532841682434082,
				0.45426565408706665,
				0.7162877321243286
			],
			[
				-0.35532307624816895,
				0.06095540523529053,
				-0.39682114124298096,
				-0.18088221549987793,
				0.22902297973632812,
				0.24601221084594727,
				-0.2793058156967163,
				-0.36685991287231445
			],
			[
				-0.1419476419687271,
				0.4594947099685669,
				0.2058013379573822,
				0.3623567819595337,
				-0.43673139810562134,
				-0.41902095079421997,
				0.14962995052337646,
				0.25294581055641174
			],
			[
				1.81163489818573,
				1.9596072435379028,
				1.40249764919281,
				-1.2787692546844482,
				1.452959418296814,
				1.7306922674179077,
				1.3502224683761597,
				-1.6962878704071045
			],
			[
				-1.0392858982086182,
				-1.242762565612793,
				-0.9968602657318115,
				0.7881563305854797,
				-1.317091464996338,
				-1.13400137424469,
				-0.4235398471355438,
				0.9809927344322205
			],
			[
				0.9508683681488037,
				0.518310546875,
				0.8461769819259644,
				0.05006900802254677,
				0.6285054683685303,
				0.8991087675094604,
				0.1935482621192932,
				-0.18209291994571686
			],
			[
				0.6634168028831482,
				0.08423806726932526,
				0.10880597680807114,
				0.16680365800857544,
				0.4931733310222626,
				0.616042971611023,
				0.4342540204524994,
				0.8744750022888184
			],
			[
				0.1332923173904419,
				0.004259347915649414,
				0.14620745182037354,
				-0.42370128631591797,
				-0.06718957424163818,
				0.24682986736297607,
				-0.26258671283721924,
				0.12661778926849365
			],
			[
				1.763479232788086,
				1.6589977741241455,
				1.9848713874816895,
				-0.11429063230752945,
				1.8578153848648071,
				1.8943207263946533,
				1.132576584815979,
				-0.8343366980552673
			],
			[
				0.6515312790870667,
				0.22358159720897675,
				0.6027830839157104,
				-0.04270252585411072,
				0.8197691440582275,
				0.5027063488960266,
				0.18958747386932373,
				-0.3768623471260071
			],
			[
				-0.3148512840270996,
				0.34311866760253906,
				0.11513972282409668,
				-0.1283879280090332,
				-0.2125999927520752,
				-0.37112605571746826,
				-0.4423220157623291,
				0.49205291271209717
			],
			[
				0.8965876698493958,
				1.0506882667541504,
				1.0339051485061646,
				-0.44745132327079773,
				1.1171728372573853,
				0.9940947890281677,
				0.9988613128662109,
				-0.6203937530517578
			],
			[
				0.9829192757606506,
				0.7182468771934509,
				0.5530967116355896,
				0.10419001430273056,
				0.2633131742477417,
				0.8016510605812073,
				0.7301052212715149,
				-0.07843846082687378
			],
			[
				-0.38152268528938293,
				0.03351878747344017,
				0.29650741815567017,
				0.5825030207633972,
				0.36406147480010986,
				-0.2612811326980591,
				0.21022070944309235,
				1.127551794052124
			],
			[
				0.7507357001304626,
				0.6755676865577698,
				0.6565372943878174,
				0.023940585553646088,
				-0.04539916291832924,
				0.24058818817138672,
				0.43697822093963623,
				-0.08695939183235168
			],
			[
				-0.14990806579589844,
				-0.13675343990325928,
				0.1755436658859253,
				-0.13037431240081787,
				0.45929110050201416,
				-0.09660470485687256,
				0.06200826168060303,
				-0.18654108047485352
			]
		],
		"weight_2": -1,
		"weight_3": -1.9848713874816895,
		"weight_4": 1.9848713874816895,
		"weight_5": -0.5658519268035889,
		"weight_6": 8.93955135345459
	},
	"layer_3": {
		"weight_0": [
			-0.09261498600244522,
			0.63582843542099,
			-0.0031622773967683315,
			0.62983638048172
		],
		"weight_1": [
			[
				-0.19509664177894592,
				1.019486665725708,
				-0.1811227947473526,
				1.5372419357299805
			],
			[
				0.30978596210479736,
				1.1570839881896973,
				0.14808271825313568,
				0.7461553812026978
			],
			[
				0.3440186083316803,
				1.1052929162979126,
				-0.2891698479652405,
				1.1722971200942993
			],
			[
				0.1413065791130066,
				-1.2232880592346191,
				0.07798415422439575,
				-0.6060774326324463
			],
			[
				-0.7823731899261475,
				1.3116258382797241,
				0.5171269774436951,
				1.3977313041687012
			],
			[
				0.41521337628364563,
				0.32579323649406433,
				-0.42987027764320374,
				1.470948338508606
			],
			[
				-0.16703131794929504,
				-0.06514161080121994,
				-0.38049453496932983,
				0.6420606374740601
			],
			[
				-0.38637688755989075,
				-1.5511754751205444,
				-0.5118873119354248,
				-1.9845101833343506
			]
		],
		"weight_2": -1,
		"weight_3": -1.9845101833343506,
		"weight_4": 1.9845101833343506,
		"weight_5": -0.5658519268035889,
		"weight_6": 48.4060173034668
	},
	"layer_4": {
		"weight_0": [
			0.625626266002655
		],
		"weight_1": [
			[
				-0.8970973491668701
			],
			[
				1.1034297943115234
			],
			[
				-0.8570641875267029
			],
			[
				1.741497278213501
			]
		],
		"weight_2": -1,
		"weight_3": -1.740537405014038,
		"weight_4": 1.740537405014038,
		"weight_5": -0.5658519268035889,
		"weight_6": 93.8119888305664
	}
}