{
	"layer_0": {
		"weight_0": [
			[
				0.7269203066825867,
				0.06760084629058838,
				0.3099157512187958,
				0.12642882764339447,
				-0.1477786898612976,
				0.6910984516143799,
				-0.5401749610900879,
				0.695137619972229,
				-0.4115987718105316,
				-0.2187868356704712,
				0.5716119408607483,
				0.5135860443115234,
				-0.5662306547164917,
				0.2764790952205658,
				0.3960956931114197,
				-0.09597468376159668
			],
			[
				0.6089849472045898,
				0.6828546524047852,
				0.15585282444953918,
				0.11424849182367325,
				-0.4150581955909729,
				0.7678737640380859,
				-0.061027586460113525,
				0.15939341485500336,
				0.0023368801921606064,
				0.6303588151931763,
				0.8491029739379883,
				0.7203290462493896,
				-0.2512378990650177,
				-0.4281409978866577,
				0.4772511124610901,
				0.8393709063529968
			]
		],
		"weight_1": [
			0.3403542935848236,
			0.3406641185283661,
			-0.02329724282026291,
			-0.15711461007595062,
			0.0,
			0.3338010311126709,
			0.0,
			0.3394702970981598,
			-0.005097151733934879,
			0.35075515508651733,
			0.3374020457267761,
			0.33459749817848206,
			0.0,
			-0.172816663980484,
			0.20567764341831207,
			0.3194771111011505
		]
	},
	"layer_1": {},
	"layer_2": {
		"weight_0": [
			[
				0.4813278615474701,
				0.27824410796165466,
				0.3013390600681305,
				0.7669385671615601,
				-0.43923258781433105,
				0.3264278173446655,
				-0.17932796478271484,
				0.2675005793571472
			],
			[
				0.6539328098297119,
				0.38274329900741577,
				0.3363962471485138,
				0.7176216244697571,
				-0.3835906982421875,
				-0.3426976203918457,
				-0.22162199020385742,
				-0.1934535950422287
			],
			[
				0.02883199416100979,
				-0.117887482047081,
				0.41692426800727844,
				-0.09696175158023834,
				0.232130765914917,
				-0.18197298049926758,
				0.18719124794006348,
				0.44577884674072266
			],
			[
				0.08551622927188873,
				0.12584149837493896,
				-0.3476886451244354,
				-0.10011980682611465,
				-0.20793545246124268,
				-0.27961647510528564,
				-0.23976588249206543,
				0.43971869349479675
			],
			[
				0.0009551048278808594,
				0.4675039052963257,
				-0.012090921401977539,
				-0.37002599239349365,
				0.05276000499725342,
				-0.1264946460723877,
				0.4960542917251587,
				-0.19061100482940674
			],
			[
				0.6735806465148926,
				0.4792453646659851,
				0.748435378074646,
				0.6045564413070679,
				-0.21098625659942627,
				-0.03136634826660156,
				-0.48061299324035645,
				-0.15599027276039124
			],
			[
				-0.18289411067962646,
				-0.11062490940093994,
				0.3204599618911743,
				0.16347646713256836,
				-0.23063969612121582,
				-0.4921363592147827,
				-0.24670660495758057,
				0.38177597522735596
			],
			[
				0.3704805374145508,
				0.7397472858428955,
				0.49961531162261963,
				0.6810275316238403,
				0.28149664402008057,
				-0.35061562061309814,
				-0.11552464962005615,
				-0.18120279908180237
			],
			[
				-0.3119523823261261,
				-0.4375559985637665,
				-0.49629342555999756,
				-0.4408263862133026,
				-0.2736111879348755,
				0.4421294927597046,
				-0.09267282485961914,
				-0.25146225094795227
			],
			[
				0.642603874206543,
				0.7273790240287781,
				0.35888442397117615,
				0.5743321776390076,
				0.4306901693344116,
				0.14160525798797607,
				0.3803349733352661,
				0.1405002623796463
			],
			[
				0.5344395041465759,
				0.031382523477077484,
				0.37366044521331787,
				0.5486016273498535,
				-0.10775399208068848,
				-0.41003096103668213,
				0.09329819679260254,
				-0.09945587813854218
			],
			[
				0.32092514634132385,
				0.049372974783182144,
				0.7969022393226624,
				0.35543251037597656,
				-0.4385533332824707,
				-0.30660223960876465,
				-0.1946399211883545,
				-0.24240721762180328
			],
			[
				-0.23294031620025635,
				0.22805380821228027,
				-0.17826271057128906,
				0.48305463790893555,
				-0.36104047298431396,
				-0.20229971408843994,
				0.0323786735534668,
				0.33919286727905273
			],
			[
				-0.3235956132411957,
				0.21745021641254425,
				0.008958114311099052,
				-0.1550423502922058,
				-0.4134972095489502,
				-0.2988288402557373,
				0.1890016794204712,
				-0.2883639335632324
			],
			[
				0.16061362624168396,
				0.6852647066116333,
				0.19450978934764862,
				-0.12785616517066956,
				0.49666547775268555,
				0.42884159088134766,
				-0.23064541816711426,
				0.16370339691638947
			],
			[
				0.08026033639907837,
				0.5547380447387695,
				0.3247753381729126,
				0.7023550271987915,
				0.11088335514068604,
				0.29971444606781006,
				-0.2425072193145752,
				-0.06294459104537964
			]
		],
		"weight_1": [
			0.3270331025123596,
			0.34290218353271484,
			0.3260110914707184,
			0.3297954797744751,
			0.0,
			0.0,
			0.0,
			-0.04012431204319
		]
	},
	"layer_3": {},
	"layer_4": {
		"weight_0": [
			[
				-0.665088415145874,
				0.2042788863182068,
				-0.41746917366981506,
				0.9495922327041626
			],
			[
				-0.5762841701507568,
				-0.3192829489707947,
				0.23254454135894775,
				0.8074305057525635
			],
			[
				-0.2959998548030853,
				-0.5592382550239563,
				0.09065981209278107,
				1.011297345161438
			],
			[
				-0.16758209466934204,
				-0.5558545589447021,
				-0.2875085175037384,
				0.6461545825004578
			],
			[
				-0.5467821955680847,
				0.5707467198371887,
				0.5072529911994934,
				0.4064238667488098
			],
			[
				-0.26536667346954346,
				0.46233755350112915,
				-0.19348996877670288,
				-0.07563084363937378
			],
			[
				-0.3778136074542999,
				0.5007514357566833,
				-0.1040765643119812,
				0.5187425017356873
			],
			[
				-0.37604379653930664,
				-0.6459842324256897,
				0.05970866605639458,
				-0.05660427734255791
			]
		],
		"weight_1": [
			0.0,
			0.0,
			0.0031622773967683315,
			0.3226427137851715
		]
	},
	"layer_5": {},
	"layer_6": {
		"weight_0": [
			[
				-0.49376314878463745
			],
			[
				-0.6207467317581177
			],
			[
				1.0906521081924438
			],
			[
				2.9841020107269287
			]
		],
		"weight_1": [
			2.3574140071868896
		]
	}
}