{
	"layer_0": {
		"weight_0": 0.0,
		"weight_1": 1.0,
		"weight_2": -1
	},
	"layer_1": {
		"weight_0": [
			1.0422158241271973,
			0.7600740194320679,
			0.0,
			0.22866123914718628,
			-0.24153876304626465,
			0.0,
			0.7269934415817261,
			0.08902288973331451,
			1.8953864574432373,
			-0.003162275766953826,
			0.0,
			1.137718677520752,
			0.23082852363586426,
			0.6241304874420166,
			0.4134334325790405,
			0.0
		],
		"weight_1": [
			[
				0.501528799533844,
				0.7910904884338379,
				-0.17390954494476318,
				2.1002285480499268,
				0.2580701410770416,
				-0.21582195162773132,
				0.5341572165489197,
				5.424794673919678,
				0.05358881130814552,
				0.03861069679260254,
				-0.5309953093528748,
				0.37291884422302246,
				5.052291393280029,
				2.2027437686920166,
				0.9219335913658142,
				-0.13776928186416626
			],
			[
				-2.430560350418091,
				-3.1210920810699463,
				-0.19639843702316284,
				-13.716472625732422,
				-0.5112802386283875,
				-0.3693148195743561,
				-4.266178131103516,
				-0.052701402455568314,
				-1.998096227645874,
				-0.3559146523475647,
				-0.48791468143463135,
				-1.6745860576629639,
				-0.2714237570762634,
				-0.642042875289917,
				-6.087993144989014,
				-0.18389391899108887
			]
		],
		"weight_2": -1,
		"weight_3": -13.716472625732422,
		"weight_4": 13.716472625732422,
		"weight_5": -1.0344233678196528e-30,
		"weight_6": 5.355335235595703
	},
	"layer_2": {
		"weight_0": [
			-0.12291114777326584,
			0.47202056646347046,
			-0.04277360439300537,
			0.0729798823595047,
			1.848778486251831,
			-0.5461394786834717,
			0.31617483496665955,
			0.6561477184295654
		],
		"weight_1": [
			[
				-0.018941424787044525,
				0.519477367401123,
				-0.14119593799114227,
				0.6118278503417969,
				1.6854088306427002,
				1.1203336715698242,
				-0.4173109829425812,
				1.1653380393981934
			],
			[
				0.07150356471538544,
				0.6696089506149292,
				0.1072654128074646,
				-0.2808842360973358,
				1.4105650186538696,
				1.6891319751739502,
				0.41145211458206177,
				0.6728785037994385
			],
			[
				-0.4651705026626587,
				-0.2904634475708008,
				0.4232063293457031,
				0.041960716247558594,
				0.34963393211364746,
				-0.11542010307312012,
				0.45029783248901367,
				0.4301973581314087
			],
			[
				-0.29679548740386963,
				-0.7154365181922913,
				-0.46143653988838196,
				0.17977465689182281,
				-0.7338494658470154,
				3.3547825813293457,
				4.023409843444824,
				5.720594882965088
			],
			[
				-0.350327730178833,
				0.2226841151714325,
				0.19625425338745117,
				0.15789198875427246,
				-0.0719422996044159,
				-0.22675396502017975,
				0.0604751817882061,
				-0.08280984312295914
			],
			[
				-0.3306635618209839,
				-0.21059095859527588,
				-0.18969440460205078,
				-0.3114379644393921,
				0.4140242338180542,
				-0.3275136947631836,
				0.24970078468322754,
				-0.12023448944091797
			],
			[
				-0.24040469527244568,
				0.28223106265068054,
				0.18409214913845062,
				0.577735185623169,
				1.9904491901397705,
				2.422024965286255,
				1.498745322227478,
				0.9909318089485168
			],
			[
				0.07640545815229416,
				-1.6523387432098389,
				-0.38081061840057373,
				-4.214775085449219,
				-0.405009388923645,
				0.030423764139413834,
				-0.264778196811676,
				0.8403543829917908
			],
			[
				0.16748596727848053,
				-0.06651318818330765,
				-0.31179535388946533,
				0.5975168943405151,
				2.326218366622925,
				0.5384454131126404,
				0.1713411659002304,
				-0.6216051578521729
			],
			[
				0.4866218566894531,
				0.20133158564567566,
				0.1981062889099121,
				0.4085954427719116,
				-0.4802645742893219,
				0.017050383612513542,
				-0.2030252069234848,
				0.15845350921154022
			],
			[
				0.12192428112030029,
				0.19556963443756104,
				-0.31695234775543213,
				0.3701808452606201,
				0.06723880767822266,
				-0.13300740718841553,
				0.30477845668792725,
				-0.11406266689300537
			],
			[
				-0.21697072684764862,
				-0.1044054701924324,
				0.14108586311340332,
				0.24781090021133423,
				1.149497151374817,
				-0.36549222469329834,
				0.555741548538208,
				0.3075486421585083
			],
			[
				-0.0728992223739624,
				-1.2050559520721436,
				-0.18442241847515106,
				-2.622605562210083,
				-0.10964380204677582,
				-0.4733749330043793,
				-0.3036225140094757,
				1.409503698348999
			],
			[
				-0.2398957461118698,
				0.42826494574546814,
				-0.21959395706653595,
				-0.8519344925880432,
				0.340640664100647,
				0.45119577646255493,
				0.22116832435131073,
				1.1945663690567017
			],
			[
				0.09355537593364716,
				0.09178552776575089,
				0.30393266677856445,
				1.2593141794204712,
				0.5459375977516174,
				2.4325335025787354,
				2.615260601043701,
				2.864784002304077
			],
			[
				-0.1186743974685669,
				0.4034019708633423,
				0.3421560525894165,
				-0.221948504447937,
				-0.18120765686035156,
				0.48256003856658936,
				0.13016760349273682,
				0.2994266748428345
			]
		],
		"weight_2": -1,
		"weight_3": -5.720594882965088,
		"weight_4": 5.720594882965088,
		"weight_5": -1.0344233678196528e-30,
		"weight_6": 17.623388290405273
	},
	"layer_3": {
		"weight_0": [
			-0.9069294929504395,
			-3.04081654548645,
			0.7692415118217468,
			1.0054608583450317
		],
		"weight_1": [
			[
				-0.6104531288146973,
				0.03822502866387367,
				-0.0893108993768692,
				-0.03863120451569557
			],
			[
				0.8255743980407715,
				0.47943946719169617,
				-1.5780985355377197,
				1.1771949529647827
			],
			[
				-0.20630712807178497,
				0.027588967233896255,
				-0.31912195682525635,
				0.34530165791511536
			],
			[
				1.949446678161621,
				-0.6768034100532532,
				-2.4459569454193115,
				2.4000749588012695
			],
			[
				0.7801512479782104,
				-0.4312916100025177,
				1.4946850538253784,
				0.605782151222229
			],
			[
				0.42705389857292175,
				0.23174138367176056,
				1.3239226341247559,
				0.18153880536556244
			],
			[
				-0.12758395075798035,
				0.2325313687324524,
				1.1369364261627197,
				-0.6256825923919678
			],
			[
				-1.416553258895874,
				0.5292057394981384,
				1.5476948022842407,
				-0.7818900346755981
			]
		],
		"weight_2": -1,
		"weight_3": -2.4459569454193115,
		"weight_4": 2.4459569454193115,
		"weight_5": -1.0344233678196528e-30,
		"weight_6": 50.32548904418945
	},
	"layer_4": {
		"weight_0": [
			1.145828366279602
		],
		"weight_1": [
			[
				-4.751363754272461
			],
			[
				-2.422823190689087
			],
			[
				2.8741071224212646
			],
			[
				-4.8955078125
			]
		],
		"weight_2": -1,
		"weight_3": -4.8955078125,
		"weight_4": 4.8955078125,
		"weight_5": -0.33676499128341675,
		"weight_6": 135.26217651367188
	}
}