{
	"layer_0": {
		"weight_0": 0.0,
		"weight_1": 1.0,
		"weight_2": -1
	},
	"layer_1": {
		"weight_0": [
			-0.07139243930578232,
			0.9878442287445068,
			0.0,
			0.0,
			0.9954744577407837,
			0.9394287467002869,
			0.0,
			1.0018190145492554,
			-0.0031621491070836782,
			0.9683016538619995,
			0.0,
			0.9548591375350952,
			0.0,
			0.7415998578071594,
			0.26587995886802673,
			0.0
		],
		"weight_1": [
			[
				0.14835989475250244,
				1.7737172842025757,
				-0.0029945969581604004,
				-0.35551777482032776,
				1.9947144985198975,
				1.488189935684204,
				-0.4185871481895447,
				0.9167041182518005,
				-0.03842198848724365,
				1.6805065870285034,
				-0.08889970183372498,
				1.5998103618621826,
				-0.35377800464630127,
				1.771285057067871,
				-0.8866757750511169,
				-0.5210247039794922
			],
			[
				-0.6037266850471497,
				-0.6033469438552856,
				-0.47838276624679565,
				-0.5635052919387817,
				-0.6861283183097839,
				-0.47873613238334656,
				-0.3182275593280792,
				-0.4009915888309479,
				-0.0016024340875446796,
				-0.32241544127464294,
				-0.5199025869369507,
				-0.8468071818351746,
				-0.21392980217933655,
				-0.5403040051460266,
				1.8145817518234253,
				-0.45907843112945557
			]
		],
		"weight_2": -1,
		"weight_3": -1.9947144985198975,
		"weight_4": 1.9947144985198975,
		"weight_5": -0.5658519268035889,
		"weight_6": 2.980443239212036
	},
	"layer_2": {
		"weight_0": [
			0.0,
			0.0,
			0.981334924697876,
			-0.07562653720378876,
			0.9668504595756531,
			-0.05451865494251251,
			-0.15286166965961456,
			-0.13178682327270508
		],
		"weight_1": [
			[
				0.035845279693603516,
				-0.21872353553771973,
				-0.18749046325683594,
				0.20486468076705933,
				-0.21526561677455902,
				0.18020860850811005,
				-0.5192050337791443,
				0.22586031258106232
			],
			[
				-0.13744616508483887,
				-0.45090532302856445,
				1.2140024900436401,
				0.13108722865581512,
				0.7941038608551025,
				0.10592934489250183,
				0.34568697214126587,
				0.010969928465783596
			],
			[
				0.21386992931365967,
				-0.2308940887451172,
				0.0750809907913208,
				-0.34488821029663086,
				0.020756244659423828,
				-0.031160950660705566,
				-0.03551888465881348,
				-0.28358983993530273
			],
			[
				0.03953433036804199,
				-0.3678278923034668,
				-0.23343932628631592,
				-0.4411388635635376,
				-0.34366822242736816,
				0.37221264839172363,
				0.021094799041748047,
				-0.4486396312713623
			],
			[
				-0.2259608507156372,
				-0.1276259422302246,
				1.3404725790023804,
				-0.30113646388053894,
				1.0542441606521606,
				0.21480445563793182,
				0.2663988471031189,
				0.10064209997653961
			],
			[
				-0.22774052619934082,
				-0.2883338928222656,
				0.4283190071582794,
				-0.0686306431889534,
				0.9759302735328674,
				-0.4963108003139496,
				-0.5814170241355896,
				0.3660205602645874
			],
			[
				-0.07414960861206055,
				-0.005579710006713867,
				0.3068019151687622,
				0.23413562774658203,
				0.03128993511199951,
				0.035485267639160156,
				-0.3281385898590088,
				-0.04696333408355713
			],
			[
				-0.05861032009124756,
				-0.4954875707626343,
				0.5333103537559509,
				-0.11296819150447845,
				0.622796356678009,
				-0.20915083587169647,
				0.1892375349998474,
				-0.04609358310699463
			],
			[
				-0.07795059680938721,
				0.39594483375549316,
				-0.2361006736755371,
				0.47839999198913574,
				-0.022792955860495567,
				-0.1522907018661499,
				0.34271034598350525,
				-0.10745203495025635
			],
			[
				0.25363099575042725,
				0.21087801456451416,
				0.5487427711486816,
				0.09956808388233185,
				0.9781184792518616,
				-0.0951373428106308,
				-0.14601866900920868,
				0.04251644015312195
			],
			[
				0.03187716007232666,
				0.272030234336853,
				-0.05206775665283203,
				0.45018458366394043,
				-0.14205574989318848,
				0.21371972560882568,
				-0.13380789756774902,
				0.24539148807525635
			],
			[
				-0.3692706823348999,
				0.32777881622314453,
				1.0378037691116333,
				-0.170021653175354,
				0.9562559723854065,
				0.29177621006965637,
				-0.10292183607816696,
				0.12164579331874847
			],
			[
				0.3217804431915283,
				0.21213996410369873,
				-0.4432387351989746,
				0.2977738380432129,
				-0.4640699625015259,
				-0.2967371940612793,
				0.46591758728027344,
				0.2574427127838135
			],
			[
				-0.3472328186035156,
				-0.3647531270980835,
				0.33525314927101135,
				0.5098569393157959,
				1.1362205743789673,
				-0.424655020236969,
				-0.014342161826789379,
				-0.6041219234466553
			],
			[
				0.017194628715515137,
				0.125899076461792,
				-1.8041119575500488,
				0.5638828277587891,
				-1.99519681930542,
				-0.026936054229736328,
				-0.38530489802360535,
				-0.01038512121886015
			],
			[
				-0.17528843879699707,
				-0.29411327838897705,
				-0.44157540798187256,
				0.2829946279525757,
				-0.3997918367385864,
				0.3025343418121338,
				0.09129488468170166,
				-0.26745641231536865
			]
		],
		"weight_2": -1,
		"weight_3": -1.99519681930542,
		"weight_4": 1.99519681930542,
		"weight_5": -0.5658519268035889,
		"weight_6": 15.534399032592773
	},
	"layer_3": {
		"weight_0": [
			1.019935965538025,
			-0.08225660026073456,
			0.0,
			1.0144789218902588
		],
		"weight_1": [
			[
				-0.5662531852722168,
				-0.227697491645813,
				0.5589302182197571,
				0.011648058891296387
			],
			[
				-0.6273484230041504,
				-0.471749484539032,
				0.5312613844871521,
				-0.0033929944038391113
			],
			[
				1.5970301628112793,
				0.030964704230427742,
				-0.533727765083313,
				1.382735252380371
			],
			[
				-0.4573015868663788,
				0.6117891669273376,
				-0.37279796600341797,
				-0.17952141165733337
			],
			[
				0.9102297425270081,
				0.2794210910797119,
				-0.4358241856098175,
				1.3768291473388672
			],
			[
				-0.35522395372390747,
				-0.15261442959308624,
				0.20809262990951538,
				0.22187258303165436
			],
			[
				-0.3298380374908447,
				0.040536459535360336,
				-0.6242836713790894,
				0.43588337302207947
			],
			[
				-0.16277830302715302,
				0.18338854610919952,
				0.5071969628334045,
				0.06601307541131973
			]
		],
		"weight_2": -1,
		"weight_3": -1.5975525379180908,
		"weight_4": 1.5975525379180908,
		"weight_5": -0.5658519268035889,
		"weight_6": 35.09519958496094
	},
	"layer_4": {
		"weight_0": [
			1.000382661819458
		],
		"weight_1": [
			[
				1.6545487642288208
			],
			[
				-1.1885279417037964
			],
			[
				-0.9632205963134766
			],
			[
				1.1476401090621948
			]
		],
		"weight_2": -1,
		"weight_3": -1.6550618410110474,
		"weight_4": 1.6550618410110474,
		"weight_5": -0.5658519268035889,
		"weight_6": 67.30422973632812
	}
}