{
	"layer_0": {
		"weight_0": [
			[
				0.6116438508033752,
				0.04474668204784393,
				1.0439499616622925,
				0.9053182601928711,
				0.7153335213661194,
				0.020999297499656677,
				0.183503195643425,
				0.9711131453514099,
				0.991859495639801,
				0.906784176826477,
				0.27054521441459656,
				-0.20998439192771912,
				0.19544900953769684,
				0.6718306541442871,
				0.5476148128509521,
				0.5744819045066833
			],
			[
				-1.6935230493545532,
				0.5583454966545105,
				0.26853078603744507,
				0.17460797727108002,
				-0.036695994436740875,
				0.1051916629076004,
				-0.5516597032546997,
				-0.011664990335702896,
				-0.4042401909828186,
				-0.014328318648040295,
				-0.5428388118743896,
				0.7293276190757751,
				-0.5774692296981812,
				-0.23824958503246307,
				-4.4856414794921875,
				-2.7609353065490723
			]
		],
		"weight_1": [
			0.5866993069648743,
			0.4300188422203064,
			0.5024983882904053,
			0.3252868354320526,
			0.5297363996505737,
			0.5779461860656738,
			0.3338779807090759,
			0.46648719906806946,
			0.4809626340866089,
			0.5333319902420044,
			-0.20168864727020264,
			0.1637701690196991,
			-0.12183747440576553,
			0.5242517590522766,
			0.23632828891277313,
			0.3929717540740967
		]
	},
	"layer_1": {},
	"layer_2": {
		"weight_0": [
			[
				1.4012866020202637,
				1.65677011013031,
				1.0473511219024658,
				1.61430025100708,
				1.0043669939041138,
				-0.5269901156425476,
				1.5782780647277832,
				-0.497239351272583
			],
			[
				0.1767309457063675,
				0.08088166266679764,
				0.12816789746284485,
				-0.28333064913749695,
				-0.3512616753578186,
				0.909980297088623,
				-0.34920111298561096,
				-0.09183061122894287
			],
			[
				0.5458386540412903,
				0.2108255922794342,
				0.5168075561523438,
				0.6222241520881653,
				0.21364624798297882,
				0.21920372545719147,
				0.44975557923316956,
				-0.3398926258087158
			],
			[
				0.10723427683115005,
				0.1268920600414276,
				-0.13242207467556,
				0.6060161590576172,
				0.3976345360279083,
				0.036369822919368744,
				0.1659795343875885,
				-0.05627572536468506
			],
			[
				0.3285536468029022,
				0.6670794486999512,
				0.8390625715255737,
				0.5371943712234497,
				0.7132388949394226,
				0.4932725727558136,
				0.21378567814826965,
				-0.2147998809814453
			],
			[
				0.012373445555567741,
				0.6503727436065674,
				0.23211681842803955,
				0.28692156076431274,
				0.6592661142349243,
				0.5723132491111755,
				0.5657821893692017,
				0.08978545665740967
			],
			[
				0.27297118306159973,
				-0.09463027864694595,
				0.048601701855659485,
				0.05426570028066635,
				0.7154737710952759,
				0.42940470576286316,
				0.6670612692832947,
				-0.43351423740386963
			],
			[
				0.276202917098999,
				0.44083690643310547,
				0.6199582815170288,
				0.7770902514457703,
				0.26025548577308655,
				0.16282933950424194,
				0.09093566983938217,
				-0.4836843013763428
			],
			[
				1.0987907648086548,
				0.7253818511962891,
				0.7224023938179016,
				0.7682768702507019,
				1.049036979675293,
				0.01259269192814827,
				1.0515261888504028,
				-0.14591491222381592
			],
			[
				0.06413562595844269,
				0.8005260825157166,
				0.40327534079551697,
				0.22992680966854095,
				0.5023930668830872,
				0.45126602053642273,
				0.7040107250213623,
				0.04855179786682129
			],
			[
				-0.3124200701713562,
				-0.188429057598114,
				-0.12051397562026978,
				0.08854498714208603,
				0.3400537669658661,
				0.03523552417755127,
				-0.011530382558703423,
				-0.2048245668411255
			],
			[
				-0.4864645302295685,
				0.1569734513759613,
				-0.3862161934375763,
				0.09849117696285248,
				-0.07254556566476822,
				0.7504868507385254,
				-0.5760917067527771,
				0.4229844808578491
			],
			[
				-0.25697803497314453,
				-0.3596726059913635,
				0.4183526635169983,
				-0.26770415902137756,
				0.23360739648342133,
				-0.19212746620178223,
				-0.3972090184688568,
				-0.3863637447357178
			],
			[
				0.27288615703582764,
				0.7684690356254578,
				0.8834894895553589,
				0.6143755912780762,
				0.9959373474121094,
				0.48286667466163635,
				0.8482999801635742,
				0.03201937675476074
			],
			[
				4.756779670715332,
				4.22801399230957,
				4.412450313568115,
				4.418211936950684,
				4.348320484161377,
				-4.096214294433594,
				4.891019821166992,
				-0.32949912548065186
			],
			[
				2.256723403930664,
				2.3606951236724854,
				2.63405179977417,
				1.7614814043045044,
				1.9039967060089111,
				-1.6878408193588257,
				2.039921522140503,
				0.17978274822235107
			]
		],
		"weight_1": [
			0.5371869802474976,
			0.5236932039260864,
			0.5081669092178345,
			0.4400843381881714,
			0.47004562616348267,
			0.06989239156246185,
			0.5022047758102417,
			0.0
		]
	},
	"layer_3": {},
	"layer_4": {
		"weight_0": [
			[
				0.19616037607192993,
				1.7970043420791626,
				-0.4150838851928711,
				1.5757334232330322
			],
			[
				0.18887747824192047,
				0.8875283598899841,
				0.1636144071817398,
				0.891565203666687
			],
			[
				0.05059107020497322,
				0.9723602533340454,
				-0.7296653389930725,
				1.4989500045776367
			],
			[
				-0.350488543510437,
				0.3640103042125702,
				0.28277069330215454,
				1.2848793268203735
			],
			[
				-0.09911102056503296,
				1.1731798648834229,
				-0.5639100074768066,
				1.0093576908111572
			],
			[
				2.1238486766815186,
				-2.2303831577301025,
				0.45384642481803894,
				-1.7906471490859985
			],
			[
				0.007421543821692467,
				1.6528829336166382,
				-0.20065061748027802,
				1.6573799848556519
			],
			[
				5.835294723510742e-05,
				-0.36422058939933777,
				-0.24263113737106323,
				-0.3259107768535614
			]
		],
		"weight_1": [
			0.12249579280614853,
			0.5159537196159363,
			-0.06815392524003983,
			0.499449759721756
		]
	},
	"layer_5": {},
	"layer_6": {
		"weight_0": [
			[
				-1.6655466556549072
			],
			[
				1.1793065071105957
			],
			[
				-0.6260149478912354
			],
			[
				1.5056289434432983
			]
		],
		"weight_1": [
			0.4987074136734009
		]
	}
}