{
	"layer_0": {
		"weight_0": [
			[
				0.48295193910598755,
				-0.36162853240966797,
				0.7326660752296448,
				-0.48851799964904785,
				-0.16491860151290894,
				0.7737114429473877,
				0.5787598490715027,
				0.6519237160682678,
				0.656817615032196,
				0.602226197719574,
				0.13540957868099213,
				0.46875014901161194,
				-0.422715961933136,
				0.2665785849094391,
				-0.2953777611255646,
				0.08910229802131653
			],
			[
				1.0388041734695435,
				-0.4992411434650421,
				0.6985896229743958,
				-0.4702205955982208,
				-0.4906763434410095,
				0.865003228187561,
				0.1384286731481552,
				0.5374221205711365,
				0.9318952560424805,
				0.6458625197410583,
				0.9605077505111694,
				0.1215541884303093,
				-0.06398540735244751,
				-0.38927340507507324,
				-0.43536943197250366,
				-0.5862138271331787
			]
		],
		"weight_1": [
			0.5812532901763916,
			0.0,
			0.41617247462272644,
			0.0,
			0.0,
			0.46027642488479614,
			0.5066320896148682,
			0.5014641880989075,
			0.4243939518928528,
			0.5497244000434875,
			0.5676295161247253,
			0.37480518221855164,
			0.0,
			-0.20927661657333374,
			0.0,
			-0.010630466043949127
		]
	},
	"layer_1": {},
	"layer_2": {
		"weight_0": [
			[
				-0.298204630613327,
				0.7932206988334656,
				-0.007765460759401321,
				1.0425196886062622,
				-0.47255969047546387,
				0.016839005053043365,
				-0.3341710567474365,
				-0.23585832118988037
			],
			[
				0.2698773145675659,
				-0.3225966691970825,
				-0.24086260795593262,
				0.3830115795135498,
				0.02641618251800537,
				0.415838360786438,
				0.23512625694274902,
				0.3254035711288452
			],
			[
				0.17852795124053955,
				0.6906581521034241,
				0.3763933479785919,
				0.6093662977218628,
				-0.296101450920105,
				0.32976841926574707,
				0.06451714038848877,
				0.13801240921020508
			],
			[
				0.3192178010940552,
				0.136102557182312,
				0.21129381656646729,
				0.023505091667175293,
				0.3886343240737915,
				0.14239561557769775,
				-0.4001798629760742,
				-0.15496158599853516
			],
			[
				-0.3437246084213257,
				0.014322519302368164,
				-0.48450684547424316,
				0.43398821353912354,
				-0.20808327198028564,
				0.25268661975860596,
				0.21150648593902588,
				-0.2952911853790283
			],
			[
				0.3835011422634125,
				0.05478468909859657,
				0.1286461055278778,
				0.8379494547843933,
				-0.17397046089172363,
				0.20494745671749115,
				-0.05256509780883789,
				-0.49225282669067383
			],
			[
				0.4075232148170471,
				0.9295284152030945,
				0.21164336800575256,
				1.0358232259750366,
				-0.25814831256866455,
				0.19665277004241943,
				-0.1196061372756958,
				-0.38472628593444824
			],
			[
				0.4153297245502472,
				0.745101809501648,
				0.2859947681427002,
				0.6057721376419067,
				0.40919947624206543,
				-0.04988235607743263,
				-0.2827732563018799,
				-0.09631633758544922
			],
			[
				-0.4621756076812744,
				0.659964382648468,
				-0.36012086272239685,
				0.4754753112792969,
				0.385858416557312,
				0.015696801245212555,
				0.04957127571105957,
				-0.19592344760894775
			],
			[
				-0.446869820356369,
				0.585860013961792,
				-0.48652714490890503,
				0.9473676085472107,
				-0.46769750118255615,
				-0.38929954171180725,
				-0.37497103214263916,
				0.28064894676208496
			],
			[
				0.0258815698325634,
				0.45697078108787537,
				-0.253337562084198,
				0.7038018703460693,
				-0.4170687198638916,
				-0.22418048977851868,
				0.4321516752243042,
				-0.012220382690429688
			],
			[
				-0.4426022171974182,
				0.1697843074798584,
				-0.10593926906585693,
				0.4142533242702484,
				0.14036035537719727,
				-0.5927649140357971,
				-0.21452093124389648,
				-0.19375181198120117
			],
			[
				-0.3597414493560791,
				-0.30700087547302246,
				0.25206923484802246,
				-0.2827564477920532,
				-0.2443937063217163,
				-0.23005235195159912,
				0.4270561933517456,
				-0.20888113975524902
			],
			[
				-0.36777666211128235,
				-0.22744807600975037,
				-0.2646665573120117,
				-0.27002468705177307,
				-0.03249049186706543,
				0.028013279661536217,
				0.061126708984375,
				-0.09986424446105957
			],
			[
				-0.4101961851119995,
				-0.3189343214035034,
				0.034468770027160645,
				-0.27929532527923584,
				-0.13800466060638428,
				-0.4429727792739868,
				0.4101628065109253,
				-0.338706374168396
			],
			[
				-0.0654066875576973,
				0.028943777084350586,
				0.41052690148353577,
				-0.43247294425964355,
				0.43407976627349854,
				0.36412763595581055,
				0.16461706161499023,
				-0.07304787635803223
			]
		],
		"weight_1": [
			-0.04369539022445679,
			0.5275799036026001,
			-0.015088231302797794,
			0.5518759489059448,
			0.0,
			-0.11588017642498016,
			0.0,
			0.0
		]
	},
	"layer_3": {},
	"layer_4": {
		"weight_0": [
			[
				-0.249580979347229,
				0.1400722712278366,
				-0.21138736605644226,
				-0.3614559769630432
			],
			[
				-0.23493394255638123,
				0.007399389520287514,
				0.5635190606117249,
				0.1112479493021965
			],
			[
				-0.47489482164382935,
				0.4115033745765686,
				-0.20821601152420044,
				-0.6064766645431519
			],
			[
				-0.40476667881011963,
				-0.2627888023853302,
				0.9865363240242004,
				-0.2642090320587158
			],
			[
				-0.10985928773880005,
				-0.18154650926589966,
				0.5676550269126892,
				-0.5768579840660095
			],
			[
				-0.5711511373519897,
				0.6458114981651306,
				-0.5205310583114624,
				0.21173325181007385
			],
			[
				0.2044696807861328,
				-0.32468700408935547,
				-0.6414440274238586,
				0.4784783720970154
			],
			[
				0.0557398796081543,
				0.10014462471008301,
				0.21040278673171997,
				-0.2533944249153137
			]
		],
		"weight_1": [
			0.0,
			-0.04356919974088669,
			0.4871262013912201,
			-0.016300536692142487
		]
	},
	"layer_5": {},
	"layer_6": {
		"weight_0": [
			[
				-0.6572163105010986
			],
			[
				-0.7048825621604919
			],
			[
				2.3539135456085205
			],
			[
				-0.14789043366909027
			]
		],
		"weight_1": [
			2.3587565422058105
		]
	}
}