{
	"layer_0": {
		"weight_0": [
			[
				-0.058502376079559326,
				0.4491667151451111,
				4.768742561340332,
				-7.725654125213623,
				-0.05328553915023804,
				0.5100373029708862,
				0.011865304782986641,
				1.018802285194397,
				0.3027874529361725,
				1.0426480770111084,
				1.0984183549880981,
				2.3760221004486084,
				-0.5695117115974426,
				0.1518075168132782,
				-0.5254950523376465,
				-0.35375112295150757
			],
			[
				-0.5685043931007385,
				-2.2463109493255615,
				-0.04950070381164551,
				-3.530451536178589,
				-0.34560704231262207,
				-5.0984578132629395,
				-0.12927481532096863,
				-0.4684790372848511,
				-3.087446689605713,
				-10.62132740020752,
				-1.5335028171539307,
				-0.18329910933971405,
				-0.4030991792678833,
				-0.5951487421989441,
				-0.5386807918548584,
				-1.386070728302002
			]
		],
		"weight_1": [
			0.0,
			0.6911460757255554,
			0.12752757966518402,
			1.0606423616409302,
			0.0,
			0.2541285753250122,
			-0.0031622755341231823,
			0.21538306772708893,
			0.3633297085762024,
			0.12705738842487335,
			0.5045784711837769,
			0.22733253240585327,
			0.0,
			-0.07543998956680298,
			0.0,
			1.7134335041046143
		]
	},
	"layer_1": {
		"weight_0": [
			[
				0.03149557113647461,
				-0.021475791931152344,
				-0.27274560928344727,
				0.4283050298690796,
				-0.10229778289794922,
				0.4243190288543701,
				0.07456624507904053,
				-0.07420969009399414
			],
			[
				1.137779712677002,
				2.3381876945495605,
				-0.9895138144493103,
				-3.146489381790161,
				-0.31875085830688477,
				0.17059680819511414,
				1.5957213640213013,
				1.2226364612579346
			],
			[
				-1.0171443223953247,
				-0.13453973829746246,
				-2.3574163913726807,
				0.5568113327026367,
				-0.42635035514831543,
				-0.03126924857497215,
				-0.014963643625378609,
				-0.03500652685761452
			],
			[
				-0.13681380450725555,
				0.07083916664123535,
				1.4364755153656006,
				-5.799917221069336,
				-0.012630581855773926,
				-0.5736773610115051,
				-0.606566309928894,
				-0.7809358239173889
			],
			[
				0.18699944019317627,
				0.271185040473938,
				0.20603525638580322,
				0.06254208087921143,
				0.3154318332672119,
				-0.4082268476486206,
				-0.041509270668029785,
				-0.17001283168792725
			],
			[
				-0.943206787109375,
				1.4170480966567993,
				1.6124078035354614,
				-0.3526414632797241,
				0.4856259822845459,
				2.4164438247680664,
				0.9116744995117188,
				1.8033310174942017
			],
			[
				0.13828277587890625,
				0.2744467556476593,
				-0.48470497131347656,
				-0.4373835325241089,
				-0.43666791915893555,
				0.18032586574554443,
				0.2681504487991333,
				-0.3406935930252075
			],
			[
				-0.31500643491744995,
				0.17483805119991302,
				-0.4422784745693207,
				-0.17600834369659424,
				-0.4616053104400635,
				0.4790218472480774,
				-0.074465811252594,
				0.3230037987232208
			],
			[
				0.39639797806739807,
				2.1598129272460938,
				1.0074304342269897,
				-0.11621987819671631,
				0.17500925064086914,
				1.0704107284545898,
				1.2016680240631104,
				1.3592712879180908
			],
			[
				-0.8863228559494019,
				1.4121352434158325,
				-0.11968809366226196,
				-0.020455360412597656,
				0.08184003829956055,
				3.91182804107666,
				2.528172731399536,
				3.3300774097442627
			],
			[
				-0.09861307591199875,
				0.5358018279075623,
				-1.353001594543457,
				-0.988949716091156,
				0.16907882690429688,
				0.21445614099502563,
				1.316681981086731,
				0.4187685549259186
			],
			[
				-0.09277349710464478,
				-0.10581730306148529,
				-2.107219934463501,
				-0.3708696663379669,
				-0.3251626491546631,
				0.6007212996482849,
				-0.3260526657104492,
				0.5190370678901672
			],
			[
				-0.11842429637908936,
				0.373515248298645,
				-0.2773280143737793,
				0.2016991376876831,
				-0.23625421524047852,
				-0.08530092239379883,
				-0.019806504249572754,
				0.3636183738708496
			],
			[
				-0.19474446773529053,
				0.5381215810775757,
				0.23202122747898102,
				0.31676435470581055,
				0.19202113151550293,
				0.08394138514995575,
				-0.0032608406618237495,
				-0.42468661069869995
			],
			[
				-0.4815882444381714,
				-0.22375023365020752,
				-0.19351232051849365,
				0.20862817764282227,
				-0.237227201461792,
				-0.0004899501800537109,
				0.05379688739776611,
				-0.33855676651000977
			],
			[
				0.33392974734306335,
				1.325617790222168,
				0.677236020565033,
				0.27091091871261597,
				-0.1653686761856079,
				-0.20713527500629425,
				0.18638427555561066,
				0.17540974915027618
			]
		],
		"weight_1": [
			0.5467905402183533,
			0.7172641158103943,
			0.13974301517009735,
			0.5282572507858276,
			0.0,
			0.09344063699245453,
			0.2824752926826477,
			0.11955404281616211
		]
	},
	"layer_2": {
		"weight_0": [
			[
				-1.3396719694137573,
				-0.5270232558250427,
				1.3369930982589722,
				-1.5757495164871216
			],
			[
				1.4213284254074097,
				-0.6606467962265015,
				0.8145973682403564,
				2.0445430278778076
			],
			[
				-2.601107597351074,
				0.39900368452072144,
				2.4942712783813477,
				-3.1946420669555664
			],
			[
				1.4871069192886353,
				-0.4855729937553406,
				0.08511365205049515,
				2.2713449001312256
			],
			[
				-0.00841754674911499,
				-0.17476040124893188,
				0.5935061573982239,
				0.6312107443809509
			],
			[
				1.675883173942566,
				-0.18756037950515747,
				-2.5540390014648438,
				1.6204713582992554
			],
			[
				1.4450361728668213,
				-0.1514316201210022,
				0.2307729572057724,
				2.43623948097229
			],
			[
				1.9141827821731567,
				-0.20502030849456787,
				-0.6501247882843018,
				1.9163782596588135
			]
		],
		"weight_1": [
			0.22387675940990448,
			0.0,
			1.2761915922164917,
			0.2249055802822113
		]
	},
	"layer_3": {
		"weight_0": [
			[
				2.7358806133270264
			],
			[
				-0.2773706912994385
			],
			[
				-5.617133140563965
			],
			[
				2.9844248294830322
			]
		],
		"weight_1": [
			0.2384370118379593
		]
	}
}