{
	"layer_0": {
		"weight_0": [
			[
				1.0733702182769775,
				-0.09964215755462646,
				-0.1269485354423523,
				-0.5090634822845459,
				0.6393446326255798,
				-0.5423294901847839,
				-0.30648675560951233,
				1.335695743560791,
				-0.139250248670578,
				0.31969958543777466,
				0.5276268720626831,
				1.0218372344970703,
				-0.47342827916145325,
				0.5610526204109192,
				1.5433517694473267,
				-4.33599328994751
			],
			[
				-0.6977263689041138,
				-0.9979038834571838,
				-0.10556486248970032,
				-0.34404897689819336,
				-5.811813831329346,
				-0.04048717021942139,
				-0.36711692810058594,
				-0.3671112060546875,
				-0.28414323925971985,
				-1.7039567232131958,
				-2.9895143508911133,
				-0.5468934774398804,
				-0.5617969036102295,
				-0.7133647203445435,
				-0.18693068623542786,
				-0.7029229998588562
			]
		],
		"weight_1": [
			0.6961472630500793,
			0.855398952960968,
			0.0,
			0.0,
			0.19466352462768555,
			0.0,
			0.0,
			0.36452072858810425,
			0.0,
			0.5908058285713196,
			0.3345145881175995,
			0.5501728057861328,
			0.0,
			0.6053978204727173,
			0.19625797867774963,
			0.7313926815986633
		]
	},
	"layer_1": {},
	"layer_2": {
		"weight_0": [
			[
				0.2924037277698517,
				0.05238145962357521,
				0.8441935777664185,
				0.31106674671173096,
				1.154977560043335,
				0.46945539116859436,
				-0.2467978149652481,
				0.8599302768707275
			],
			[
				1.0266985893249512,
				0.2669335603713989,
				1.003083348274231,
				0.2898905575275421,
				0.6481633186340332,
				0.8069175481796265,
				-0.4278147220611572,
				0.83885258436203
			],
			[
				-0.28071093559265137,
				0.47671496868133545,
				0.2730470895767212,
				-0.2678886651992798,
				0.11502528190612793,
				-0.2118459939956665,
				-0.25437378883361816,
				0.23871219158172607
			],
			[
				-0.4166144132614136,
				-0.4694032669067383,
				0.4170619249343872,
				-0.4448845386505127,
				0.361163854598999,
				-0.43687403202056885,
				-0.36767685413360596,
				0.14879417419433594
			],
			[
				0.23233449459075928,
				-0.010262131690979004,
				4.13374137878418,
				-2.703758955001831,
				3.891939163208008,
				4.085366249084473,
				0.17185884714126587,
				3.7878034114837646
			],
			[
				0.30690014362335205,
				0.4172704219818115,
				-0.19127023220062256,
				0.09040236473083496,
				0.05280327796936035,
				-0.21131610870361328,
				-0.10963356494903564,
				-0.11320030689239502
			],
			[
				-0.33394312858581543,
				-0.056236982345581055,
				-0.1565018892288208,
				0.08031690120697021,
				0.12485790252685547,
				0.3516288995742798,
				-0.18186867237091064,
				0.39405810832977295
			],
			[
				-0.3202081322669983,
				0.12092778831720352,
				0.6430203914642334,
				0.5158311724662781,
				0.006891828496009111,
				0.07352115958929062,
				-0.40502411127090454,
				0.7128762006759644
			],
			[
				0.11872053146362305,
				0.2926861047744751,
				0.42115163803100586,
				-0.19460391998291016,
				0.4569603204727173,
				0.023899316787719727,
				-0.3035767078399658,
				0.4651069641113281
			],
			[
				-0.2729780375957489,
				0.12948302924633026,
				0.9343966245651245,
				-0.23710739612579346,
				1.2537790536880493,
				1.2977482080459595,
				0.2853142321109772,
				1.1954423189163208
			],
			[
				-1.081851601600647,
				-0.07043405622243881,
				1.5631787776947021,
				-1.2731506824493408,
				1.1001675128936768,
				2.0148825645446777,
				0.14668205380439758,
				1.126894235610962
			],
			[
				-0.4517844319343567,
				0.1325870156288147,
				0.4508257508277893,
				0.350514680147171,
				0.6043869853019714,
				1.0685994625091553,
				0.1335754543542862,
				0.8418793678283691
			],
			[
				0.08015048503875732,
				-0.18880748748779297,
				-0.4117426872253418,
				0.004027247428894043,
				-0.22260558605194092,
				0.28806746006011963,
				0.009717345237731934,
				-0.41986119747161865
			],
			[
				0.22659508883953094,
				-0.4735340178012848,
				0.07265880703926086,
				0.39527860283851624,
				0.6436776518821716,
				0.4981071352958679,
				0.11899333447217941,
				0.4921230673789978
			],
			[
				-0.8014964461326599,
				-0.33008575439453125,
				0.4888317883014679,
				0.3566795587539673,
				0.045057252049446106,
				0.08662635087966919,
				0.31033584475517273,
				0.4358820617198944
			],
			[
				-2.39237904548645,
				-0.11990803480148315,
				-1.8914906978607178,
				1.9838993549346924,
				-1.5604761838912964,
				-1.8741586208343506,
				-0.20985479652881622,
				-2.1064791679382324
			]
		],
		"weight_1": [
			0.5228134393692017,
			-0.017284395173192024,
			0.5909846425056458,
			0.07329755276441574,
			0.5779204964637756,
			0.6209051609039307,
			-0.04637359082698822,
			0.520901620388031
		]
	},
	"layer_3": {},
	"layer_4": {
		"weight_0": [
			[
				-3.6935110092163086,
				-0.35130932927131653,
				-3.498709201812744,
				3.096137523651123
			],
			[
				0.5026294589042664,
				0.42985254526138306,
				0.006172319408506155,
				-0.18555641174316406
			],
			[
				1.5167025327682495,
				0.5185415744781494,
				1.6055268049240112,
				-0.09969257563352585
			],
			[
				-2.2145769596099854,
				-0.14629021286964417,
				-2.922933578491211,
				2.712315082550049
			],
			[
				1.6590007543563843,
				-0.5875310897827148,
				1.4095313549041748,
				0.17161326110363007
			],
			[
				1.885013461112976,
				-0.4376857280731201,
				1.6703236103057861,
				-0.12366803735494614
			],
			[
				0.2890082001686096,
				0.4076797366142273,
				-0.4970775246620178,
				0.3282597064971924
			],
			[
				0.6847819089889526,
				-0.3891477882862091,
				1.8382751941680908,
				-0.38342246413230896
			]
		],
		"weight_1": [
			0.5888358354568481,
			-0.00477999821305275,
			0.5962982773780823,
			0.14340299367904663
		]
	},
	"layer_5": {},
	"layer_6": {
		"weight_0": [
			[
				2.1958186626434326
			],
			[
				0.00017433613538742065
			],
			[
				2.4082298278808594
			],
			[
				-2.58135986328125
			]
		],
		"weight_1": [
			0.6035348773002625
		]
	}
}