{
	"layer_0": {
		"weight_0": [
			[
				-0.4741548001766205,
				0.11704953014850616,
				0.20860469341278076,
				1.3856574296951294,
				-0.4495275020599365,
				2.709273338317871,
				5.690906047821045,
				-0.5107529163360596,
				0.4918151795864105,
				1.8717424869537354,
				0.4006933271884918,
				0.46382516622543335,
				-0.285841166973114,
				0.6458566188812256,
				-0.24872055649757385,
				0.4147551357746124
			],
			[
				-0.45147567987442017,
				0.006513434927910566,
				-0.6231225728988647,
				-11.760248184204102,
				-0.12936800718307495,
				-0.48147228360176086,
				0.17566725611686707,
				-0.09160566329956055,
				-3.4814772605895996,
				-0.7020674347877502,
				-4.069798469543457,
				-2.0756571292877197,
				-0.47408419847488403,
				-6.472576141357422,
				-0.37168198823928833,
				-2.001447916030884
			]
		],
		"weight_1": [
			0.0,
			-0.13163113594055176,
			-0.12875919044017792,
			0.19025269150733948,
			0.0,
			0.3903752565383911,
			0.021551134064793587,
			0.0,
			0.8497760891914368,
			0.3418535888195038,
			0.5738756656646729,
			1.5101641416549683,
			0.0,
			0.4140929579734802,
			0.0,
			0.829720139503479
		]
	},
	"layer_1": {
		"weight_0": [
			[
				0.4518164396286011,
				0.21543216705322266,
				-0.41993725299835205,
				0.08634436130523682,
				-0.3781435489654541,
				0.00585329532623291,
				0.4093501567840576,
				-0.09399354457855225
			],
			[
				0.30900129675865173,
				-0.11256346106529236,
				0.27996230125427246,
				0.3666236400604248,
				0.06887014955282211,
				-0.4269310235977173,
				-0.20415948331356049,
				-0.09130091220140457
			],
			[
				-0.17452754080295563,
				-0.32355332374572754,
				-0.406349778175354,
				0.2583184242248535,
				-0.22806888818740845,
				0.03260695934295654,
				0.1517534703016281,
				-0.3507436513900757
			],
			[
				5.510105133056641,
				5.108566761016846,
				-0.17237460613250732,
				0.6505442261695862,
				5.867259502410889,
				-0.09243035316467285,
				4.542609691619873,
				-3.1102395057678223
			],
			[
				0.4568668603897095,
				-0.4127805233001709,
				0.4821738004684448,
				0.07878291606903076,
				-0.33870387077331543,
				-0.442493200302124,
				-0.1449434757232666,
				0.176996111869812
			],
			[
				0.613893985748291,
				0.9059975743293762,
				-0.41012895107269287,
				-1.676063060760498,
				0.7260032892227173,
				0.1678675413131714,
				0.15010271966457367,
				0.4539027214050293
			],
			[
				0.1655411571264267,
				0.640399158000946,
				-0.2593647241592407,
				-2.1670451164245605,
				0.9131603240966797,
				-0.13200128078460693,
				0.41543808579444885,
				-4.523595809936523
			],
			[
				-0.04004943370819092,
				0.4064406156539917,
				0.4378751516342163,
				-0.19120967388153076,
				-0.44665050506591797,
				0.38276445865631104,
				0.447245717048645,
				0.1991795301437378
			],
			[
				0.506714403629303,
				0.5793471932411194,
				-0.08913922309875488,
				-0.08062627911567688,
				-0.512180745601654,
				-0.2103055715560913,
				1.6223926544189453,
				1.0373666286468506
			],
			[
				0.12317055463790894,
				0.7964674830436707,
				-0.32075583934783936,
				-1.8211355209350586,
				-0.41274333000183105,
				-0.31574034690856934,
				0.3431699872016907,
				0.8074135184288025
			],
			[
				2.1510932445526123,
				1.2847410440444946,
				0.4481598138809204,
				0.5796622633934021,
				0.09708148241043091,
				-0.13272082805633545,
				2.0588619709014893,
				1.2521690130233765
			],
			[
				0.18307992815971375,
				0.03594299405813217,
				-0.009119749069213867,
				-0.2852257788181305,
				-0.6290795207023621,
				-0.4973893165588379,
				0.38089221715927124,
				1.0490269660949707
			],
			[
				0.07593917846679688,
				0.11512410640716553,
				0.3593508005142212,
				-0.4460866451263428,
				0.09678733348846436,
				-0.22305870056152344,
				0.22480380535125732,
				0.08827626705169678
			],
			[
				4.074303150177002,
				2.620359182357788,
				-0.4478381872177124,
				0.7864275574684143,
				2.639817714691162,
				0.05448579788208008,
				2.1597609519958496,
				0.26352137327194214
			],
			[
				-0.3432246446609497,
				-0.08485400676727295,
				0.1283191442489624,
				-0.38171863555908203,
				-0.44536125659942627,
				-0.3618607521057129,
				0.45943963527679443,
				-0.26552093029022217
			],
			[
				0.32510554790496826,
				0.8523032665252686,
				-0.07217919826507568,
				1.0875426530838013,
				-0.4526147246360779,
				0.24829411506652832,
				0.8567858934402466,
				0.5736558437347412
			]
		],
		"weight_1": [
			0.3613767921924591,
			0.33305877447128296,
			0.0,
			1.0210981369018555,
			-1.2886325120925903,
			0.0,
			0.20264793932437897,
			1.180509328842163
		]
	},
	"layer_2": {
		"weight_0": [
			[
				1.559480905532837,
				-0.2809452712535858,
				1.5691920518875122,
				0.801965594291687
			],
			[
				1.2370208501815796,
				-0.340257465839386,
				1.773501992225647,
				-0.44114986062049866
			],
			[
				0.015888690948486328,
				-0.06185472011566162,
				0.1492455005645752,
				-0.3480692505836487
			],
			[
				-1.9506280422210693,
				-0.6496108770370483,
				-1.4270814657211304,
				3.478994846343994
			],
			[
				-1.295128345489502,
				1.1415596008300781,
				-1.8535356521606445,
				-0.9629257321357727
			],
			[
				0.5514437556266785,
				0.09234476089477539,
				-0.229887455701828,
				-0.27852389216423035
			],
			[
				1.9519169330596924,
				0.6544819474220276,
				0.6609625816345215,
				-0.7737777829170227
			],
			[
				-1.442763328552246,
				0.055308133363723755,
				-0.4079141318798065,
				1.7702008485794067
			]
		],
		"weight_1": [
			0.26414474844932556,
			-1.5881656408309937,
			0.2731451690196991,
			-3.0045688152313232
		]
	},
	"layer_3": {
		"weight_0": [
			[
				2.7539474964141846
			],
			[
				-3.5591814517974854
			],
			[
				2.4981815814971924
			],
			[
				-7.557488441467285
			]
		],
		"weight_1": [
			0.2827898859977722
		]
	}
}