{
	"layer_0": {
		"weight_0": [
			[
				-0.5637850165367126,
				1.0772552490234375,
				0.11143015325069427,
				0.5361523628234863,
				-0.4216219186782837,
				0.924760103225708,
				1.1050941944122314,
				-0.5694721937179565,
				0.59023118019104,
				0.0819844901561737,
				1.0892229080200195,
				1.0897868871688843,
				0.18368934094905853,
				0.01971910148859024,
				-0.08354714512825012,
				1.0565075874328613
			],
			[
				-0.14475548267364502,
				0.11141061782836914,
				-0.4262889623641968,
				0.5243320465087891,
				-0.434285968542099,
				0.6010764241218567,
				0.20097319781780243,
				-0.4785977602005005,
				0.46514827013015747,
				-0.3589973747730255,
				-0.02664373628795147,
				0.2914668619632721,
				-0.2981293201446533,
				0.3194133937358856,
				-0.2721235454082489,
				0.06488225609064102
			]
		],
		"weight_1": [
			0.0,
			0.2778013050556183,
			-0.05513839051127434,
			0.28231751918792725,
			0.0,
			0.3286799490451813,
			0.346071720123291,
			0.0,
			0.34110358357429504,
			-0.03880000114440918,
			0.30281898379325867,
			0.33530354499816895,
			-0.14266075193881989,
			0.2990473508834839,
			0.0,
			0.25932881236076355
		]
	},
	"layer_1": {},
	"layer_2": {
		"weight_0": [
			[
				0.21037352085113525,
				0.2713810205459595,
				0.03838169574737549,
				0.47434794902801514,
				-0.19631969928741455,
				0.23839855194091797,
				-0.23579394817352295,
				-0.04825913906097412
			],
			[
				0.24420040845870972,
				-0.24152356386184692,
				0.1358284056186676,
				-0.16442374885082245,
				0.5555795431137085,
				-0.13062970340251923,
				0.12275215238332748,
				0.38422590494155884
			],
			[
				0.35447925329208374,
				-0.036702513694763184,
				-0.28600943088531494,
				-0.2985195219516754,
				0.23246756196022034,
				0.25048714876174927,
				-0.4549073576927185,
				-0.08040838688611984
			],
			[
				-0.1512344628572464,
				0.17971450090408325,
				0.46310296654701233,
				0.12261530756950378,
				0.3093903660774231,
				0.4035966396331787,
				-0.3865695595741272,
				0.28243422508239746
			],
			[
				-0.3975985050201416,
				0.45302116870880127,
				-0.25138556957244873,
				0.3651087284088135,
				0.142409086227417,
				-0.19071507453918457,
				-0.07910275459289551,
				-0.06501412391662598
			],
			[
				-0.3619592785835266,
				-0.3303813934326172,
				0.3859745264053345,
				0.13163195550441742,
				0.5788134336471558,
				-0.2105475217103958,
				0.2735145390033722,
				0.7942073345184326
			],
			[
				0.3723594546318054,
				0.20725709199905396,
				0.7310364246368408,
				-0.44494661688804626,
				0.1037965640425682,
				0.1921846568584442,
				0.17154918611049652,
				0.44808530807495117
			],
			[
				-0.17165732383728027,
				0.48020434379577637,
				0.2981058359146118,
				-0.2392580509185791,
				-0.46564197540283203,
				0.33049023151397705,
				-0.09738755226135254,
				0.002469658851623535
			],
			[
				-0.17873874306678772,
				0.3575619161128998,
				0.5431825518608093,
				0.2679174542427063,
				0.7543562054634094,
				0.35019341111183167,
				-0.007231465075165033,
				0.4950612485408783
			],
			[
				-0.35801488161087036,
				-0.01486814022064209,
				-0.23360002040863037,
				0.17752543091773987,
				-0.2699653208255768,
				0.4218830466270447,
				0.22719654440879822,
				-0.4004800319671631
			],
			[
				-0.14531563222408295,
				-0.16851940751075745,
				0.5011947154998779,
				0.3206647038459778,
				0.012628830969333649,
				-0.3793499171733856,
				-0.3791171610355377,
				0.13438625633716583
			],
			[
				-0.06456924229860306,
				0.07814079523086548,
				0.7894608974456787,
				-0.15815703570842743,
				0.02150401659309864,
				0.1996801644563675,
				0.11229107528924942,
				0.16025185585021973
			],
			[
				0.39783620834350586,
				-0.2118818759918213,
				-0.1232624277472496,
				-0.13835680484771729,
				-0.28850057721138,
				-0.053870391100645065,
				0.11119949072599411,
				0.1632065623998642
			],
			[
				-0.41342893242836,
				0.3065810203552246,
				0.2527621388435364,
				0.035206519067287445,
				0.14985784888267517,
				0.08175183087587357,
				-0.09391522407531738,
				0.7738491892814636
			],
			[
				-0.26948606967926025,
				-0.19104623794555664,
				-0.4236830472946167,
				0.1437743902206421,
				0.32508277893066406,
				-0.49655139446258545,
				-0.15349996089935303,
				0.02608811855316162
			],
			[
				0.129511758685112,
				0.3050175905227661,
				0.3340570032596588,
				0.4025193154811859,
				0.32545384764671326,
				0.33837890625,
				-0.505083441734314,
				0.57765793800354
			]
		],
		"weight_1": [
			-0.08413945138454437,
			0.03538313880562782,
			0.313946008682251,
			-0.05515314266085625,
			0.32675841450691223,
			-0.0706857442855835,
			-0.05229448899626732,
			0.3423687517642975
		]
	},
	"layer_3": {},
	"layer_4": {
		"weight_0": [
			[
				0.2788740396499634,
				-0.45825982093811035,
				0.5534065365791321,
				0.18507404625415802
			],
			[
				-0.17276373505592346,
				-0.12041355669498444,
				-0.6347657442092896,
				-0.6063147187232971
			],
			[
				0.6219307780265808,
				1.0044200420379639,
				-0.6777625679969788,
				0.9477441310882568
			],
			[
				-0.2521328926086426,
				-0.43374544382095337,
				-0.2913070321083069,
				0.616604745388031
			],
			[
				0.8415361046791077,
				0.9084487557411194,
				-0.23426701128482819,
				0.9653635621070862
			],
			[
				0.13274745643138885,
				-0.40542033314704895,
				0.5028720498085022,
				-0.5915926098823547
			],
			[
				-0.29105839133262634,
				-0.015460208989679813,
				-0.19606108963489532,
				0.22543053328990936
			],
			[
				0.7873414158821106,
				0.83622807264328,
				0.1062718853354454,
				-0.004982059821486473
			]
		],
		"weight_1": [
			0.3425973951816559,
			0.31900668144226074,
			-0.01440751738846302,
			0.3076310157775879
		]
	},
	"layer_5": {},
	"layer_6": {
		"weight_0": [
			[
				2.776059150695801
			],
			[
				3.277409791946411
			],
			[
				-0.5583661794662476
			],
			[
				2.649651288986206
			]
		],
		"weight_1": [
			2.2537102699279785
		]
	}
}