{
	"layer_0": {
		"weight_0": [
			[
				0.014847115613520145,
				-0.2216767966747284,
				0.5277090668678284,
				0.31001341342926025,
				-0.29883405566215515,
				-0.16677948832511902,
				-0.5299314260482788,
				-0.21841317415237427,
				0.3438885509967804,
				0.5598132610321045,
				-0.25518545508384705,
				-0.11430498957633972,
				-0.4510766267776489,
				0.029397178441286087,
				-0.2212734818458557,
				0.4822689890861511
			],
			[
				0.833192765712738,
				-0.26775410771369934,
				0.4980650246143341,
				0.939921498298645,
				-0.14538660645484924,
				-0.48322972655296326,
				-0.22355684638023376,
				0.12120833992958069,
				0.9316498637199402,
				0.14104364812374115,
				-0.16060447692871094,
				-0.4659930467605591,
				0.16255620121955872,
				0.06732578575611115,
				-0.2242731750011444,
				0.3110470473766327
			]
		],
		"weight_1": [
			0.5287700295448303,
			0.0,
			0.46612751483917236,
			0.5045344829559326,
			0.0,
			0.0,
			0.0,
			-0.12534362077713013,
			0.4536719024181366,
			0.4235000014305115,
			0.0,
			0.0,
			-0.1482408195734024,
			-0.10033627599477768,
			0.0,
			0.1233963817358017
		]
	},
	"layer_1": {},
	"layer_2": {
		"weight_0": [
			[
				0.6800782084465027,
				-0.033247340470552444,
				0.9119722247123718,
				0.18558436632156372,
				0.09294285625219345,
				0.38151758909225464,
				0.025851069018244743,
				-0.482776403427124
			],
			[
				-0.33806419372558594,
				-0.29252195358276367,
				-0.33991730213165283,
				0.2301185131072998,
				-0.3950822353363037,
				-0.15319693088531494,
				0.3103371858596802,
				-0.16472744941711426
			],
			[
				0.32039645314216614,
				0.2143479287624359,
				0.9638178944587708,
				0.4118812084197998,
				-0.5232419967651367,
				-0.07224550098180771,
				0.4015466868877411,
				-0.18515580892562866
			],
			[
				0.5564919710159302,
				-0.1282554268836975,
				0.6826523542404175,
				-0.22253203392028809,
				0.03715100139379501,
				0.36020997166633606,
				-0.13418759405612946,
				-0.22120487689971924
			],
			[
				-0.45795774459838867,
				-0.42904508113861084,
				0.17014265060424805,
				-0.40106165409088135,
				-0.012056469917297363,
				-0.46345269680023193,
				-0.2969686985015869,
				-0.04371762275695801
			],
			[
				-0.23022031784057617,
				0.2357017993927002,
				0.44164204597473145,
				-0.46585261821746826,
				0.17308557033538818,
				-0.17295324802398682,
				0.06778717041015625,
				0.498809814453125
			],
			[
				0.402454137802124,
				0.14433348178863525,
				-0.30911076068878174,
				0.47110092639923096,
				0.44771337509155273,
				-0.14125478267669678,
				0.29201948642730713,
				-0.1564849615097046
			],
			[
				-0.18784920871257782,
				0.4380771815776825,
				-0.34246957302093506,
				-0.43987545371055603,
				0.3634103536605835,
				0.33609703183174133,
				0.4522380828857422,
				-0.41610753536224365
			],
			[
				0.13618935644626617,
				-0.19155731797218323,
				0.7982856631278992,
				-0.09716958552598953,
				0.18117351830005646,
				0.8629286289215088,
				0.5511983036994934,
				-0.30322667956352234
			],
			[
				0.8013526201248169,
				-0.06991378962993622,
				0.26855313777923584,
				-0.276766300201416,
				0.23484352231025696,
				-0.013722178526222706,
				0.3903304636478424,
				0.015139814466238022
			],
			[
				0.45858216285705566,
				0.3613399267196655,
				0.21913838386535645,
				0.010658621788024902,
				0.4305931329727173,
				0.3791767358779907,
				-0.06012427806854248,
				0.2811335325241089
			],
			[
				-0.4769158363342285,
				0.297214150428772,
				0.03176534175872803,
				0.0915672779083252,
				0.045868515968322754,
				-0.4337730407714844,
				-0.28837287425994873,
				-0.3475632667541504
			],
			[
				-0.03745337948203087,
				0.3071831166744232,
				0.11293094605207443,
				0.1337517499923706,
				0.28190314769744873,
				-0.2749943137168884,
				0.14447930455207825,
				0.46907472610473633
			],
			[
				0.14106212556362152,
				-0.48891744017601013,
				-0.36145079135894775,
				0.40513506531715393,
				-0.4983174204826355,
				-0.3520761728286743,
				0.27692946791648865,
				0.061086658388376236
			],
			[
				0.2983936071395874,
				0.4124438762664795,
				-0.194929838180542,
				0.20707619190216064,
				0.12595415115356445,
				0.19571125507354736,
				0.32350945472717285,
				0.15691912174224854
			],
			[
				0.26139113306999207,
				0.1471901834011078,
				0.39923587441444397,
				-0.15172266960144043,
				-0.03008148819208145,
				0.15540765225887299,
				0.1275397092103958,
				0.012692959979176521
			]
		],
		"weight_1": [
			0.5056927800178528,
			-0.05636889860033989,
			0.49551430344581604,
			-0.050059542059898376,
			-0.06965931504964828,
			0.3940565884113312,
			0.23671910166740417,
			-0.003162271808832884
		]
	},
	"layer_3": {},
	"layer_4": {
		"weight_0": [
			[
				0.6172352433204651,
				-0.1901475191116333,
				-0.01735377311706543,
				0.9365527033805847
			],
			[
				0.6371422410011292,
				0.3502483665943146,
				-0.6719471216201782,
				-0.3056531250476837
			],
			[
				-0.44869205355644226,
				-0.5645081400871277,
				-0.12273330986499786,
				0.9810868501663208
			],
			[
				0.6753201484680176,
				-0.10287457704544067,
				0.14144711196422577,
				-0.5870895981788635
			],
			[
				0.48924869298934937,
				-0.23638513684272766,
				-0.4194950759410858,
				-0.5016205310821533
			],
			[
				-0.6346645355224609,
				-0.003794729709625244,
				0.14552021026611328,
				1.0979678630828857
			],
			[
				0.26779797673225403,
				-0.5672957301139832,
				0.33665981888771057,
				0.461515873670578
			],
			[
				-0.1556107997894287,
				0.5727377533912659,
				0.3409593999385834,
				-0.3229682743549347
			]
		],
		"weight_1": [
			-0.014419449493288994,
			-0.006179151125252247,
			-0.40034809708595276,
			0.51357501745224
		]
	},
	"layer_5": {},
	"layer_6": {
		"weight_0": [
			[
				-0.906592607498169
			],
			[
				-0.28035303950309753
			],
			[
				-0.1642225682735443
			],
			[
				2.5661990642547607
			]
		],
		"weight_1": [
			2.359175682067871
		]
	}
}