{
	"layer_0": {
		"weight_0": 0.0,
		"weight_1": 1.0,
		"weight_2": -1
	},
	"layer_1": {
		"weight_0": [
			0.18761281669139862,
			-0.6413275599479675,
			0.0,
			1.3394074440002441,
			0.21322190761566162,
			0.32739678025245667,
			0.31897518038749695,
			0.8749509453773499,
			0.39051932096481323,
			0.33275550603866577,
			-0.003162272507324815,
			0.18216584622859955,
			0.680404007434845,
			0.3977697789669037,
			0.5315601229667664,
			0.28264564275741577
		],
		"weight_1": [
			[
				0.9154666066169739,
				2.060513973236084,
				-0.4710930287837982,
				4.238456726074219,
				1.6172958612442017,
				1.983877420425415,
				1.7447459697723389,
				0.2606711685657501,
				0.6736747622489929,
				1.8158879280090332,
				0.006176226772367954,
				0.9818615317344666,
				0.5659906268119812,
				1.9670581817626953,
				-0.6088475584983826,
				1.876659870147705
			],
			[
				-0.002653086092323065,
				0.4292536973953247,
				-0.2021116316318512,
				1.1169902086257935,
				-0.021569984033703804,
				-0.15538078546524048,
				0.16191466152668,
				0.16508479416370392,
				-3.6811976432800293,
				-0.2418002039194107,
				-0.06521698832511902,
				-6.831921100616455,
				-2.231549024581909,
				0.042145196348428726,
				0.5551327466964722,
				-0.14966000616550446
			]
		],
		"weight_2": -1,
		"weight_3": -6.831921100616455,
		"weight_4": 6.831921100616455,
		"weight_5": -6.211813926696777,
		"weight_6": 6.270653247833252
	},
	"layer_2": {
		"weight_0": -1,
		"weight_1": -3.3394137455289297e-10,
		"weight_2": 6.099143981933594
	},
	"layer_3": {
		"weight_0": [
			0.5665361285209656,
			0.3022100031375885,
			0.18771019577980042,
			-0.04171301797032356,
			0.4167420268058777,
			0.19837099313735962,
			0.19531850516796112,
			0.0
		],
		"weight_1": [
			[
				0.5034244060516357,
				-0.07462973147630692,
				0.1978137046098709,
				-0.15480925142765045,
				-0.02277768775820732,
				0.2615357041358948,
				-0.08766654133796692,
				0.14840292930603027
			],
			[
				-1.1860086917877197,
				2.250369071960449,
				-1.335901141166687,
				0.4130224883556366,
				1.8757100105285645,
				-1.2762081623077393,
				-1.0080655813217163,
				-0.3240586519241333
			],
			[
				0.10479307174682617,
				0.29629504680633545,
				-0.4944453239440918,
				-0.432430624961853,
				-0.3154791593551636,
				0.41594398021698,
				0.024996280670166016,
				0.020772933959960938
			],
			[
				1.0168803930282593,
				0.6346157193183899,
				0.6057274341583252,
				-0.4306219816207886,
				0.16458795964717865,
				0.3281920254230499,
				0.3210299015045166,
				-0.2746332883834839
			],
			[
				0.9886822700500488,
				-0.1799032837152481,
				0.18264344334602356,
				0.26370060443878174,
				-0.08293293416500092,
				0.08017511665821075,
				-0.07245581597089767,
				-0.4128882884979248
			],
			[
				1.4148082733154297,
				0.18759743869304657,
				0.17603543400764465,
				0.2408110648393631,
				0.24621275067329407,
				0.8760948777198792,
				0.7433549761772156,
				0.1693248748779297
			],
			[
				1.055498719215393,
				-0.018815791234374046,
				0.5916522145271301,
				-0.17311373353004456,
				-0.039726849645376205,
				-0.27341344952583313,
				-0.0052030966617167,
				0.045420289039611816
			],
			[
				0.4854130446910858,
				0.5564696192741394,
				0.13501529395580292,
				-0.016520168632268906,
				0.5524630546569824,
				-0.5485469698905945,
				-0.4443698227405548,
				-0.4408458471298218
			],
			[
				2.8821916580200195,
				-0.5781650543212891,
				2.5601823329925537,
				-0.33497053384780884,
				-1.608959436416626,
				1.8492838144302368,
				1.8110123872756958,
				0.016217589378356934
			],
			[
				1.4453521966934204,
				0.495929092168808,
				1.0083260536193848,
				-0.07557792961597443,
				0.1293954998254776,
				0.7627400755882263,
				0.34775251150131226,
				-0.03880810737609863
			],
			[
				-0.019950594753026962,
				-0.40037474036216736,
				0.13346636295318604,
				-0.32098937034606934,
				0.4216073751449585,
				-0.26012322306632996,
				0.2791064977645874,
				-0.3636016845703125
			],
			[
				5.1389007568359375,
				-3.6104485988616943,
				5.620110988616943,
				0.39515960216522217,
				-4.164885520935059,
				5.6632256507873535,
				4.952559471130371,
				-0.4243037700653076
			],
			[
				2.270198345184326,
				-0.44117310643196106,
				1.2448956966400146,
				-0.1727440059185028,
				0.1185380294919014,
				1.2512778043746948,
				1.4439362287521362,
				-0.19291400909423828
			],
			[
				0.8068658113479614,
				0.25536879897117615,
				0.5816143155097961,
				0.45033833384513855,
				0.4342119097709656,
				0.0984545573592186,
				0.3861280381679535,
				-0.0023212432861328125
			],
			[
				-0.6981937289237976,
				0.2148730456829071,
				-0.5495282411575317,
				-0.05394110083580017,
				0.8905252814292908,
				-0.27578815817832947,
				-0.3371070325374603,
				-0.28791701793670654
			],
			[
				1.0914936065673828,
				-0.11805349588394165,
				-0.00038829765981063247,
				-0.47250697016716003,
				0.17556039988994598,
				0.8044641613960266,
				0.7555263638496399,
				0.08264219760894775
			]
		],
		"weight_2": -1,
		"weight_3": -5.6632256507873535,
		"weight_4": 5.6632256507873535,
		"weight_5": -2.7982728481292725,
		"weight_6": 21.52754783630371
	},
	"layer_4": {
		"weight_0": -1,
		"weight_1": -3.3394137455289297e-10,
		"weight_2": 20.682559967041016
	},
	"layer_5": {
		"weight_0": [
			0.1894463449716568,
			0.0,
			0.19455981254577637,
			0.19358107447624207
		],
		"weight_1": [
			[
				1.5838773250579834,
				0.0016312599182128906,
				0.932817816734314,
				1.3517687320709229
			],
			[
				-2.2457311153411865,
				0.1366567611694336,
				-1.365880012512207,
				-1.5650734901428223
			],
			[
				0.5122990608215332,
				-0.5126071572303772,
				1.6612505912780762,
				1.2482391595840454
			],
			[
				0.5348296761512756,
				-0.6857908964157104,
				0.10859192907810211,
				-0.33318427205085754
			],
			[
				-1.0213319063186646,
				0.11360090970993042,
				-1.7416800260543823,
				-1.8259270191192627
			],
			[
				1.0758470296859741,
				-0.04671335220336914,
				1.708696722984314,
				1.2140532732009888
			],
			[
				1.1959322690963745,
				-0.13414281606674194,
				0.528835117816925,
				1.0312196016311646
			],
			[
				0.23399895429611206,
				-0.21836113929748535,
				0.3760656714439392,
				0.1934221386909485
			]
		],
		"weight_2": -1,
		"weight_3": -2.246616840362549,
		"weight_4": 2.246616840362549,
		"weight_5": -4.601115703582764,
		"weight_6": 34.84532928466797
	},
	"layer_6": {
		"weight_0": -1,
		"weight_1": -3.3394137455289297e-10,
		"weight_2": 32.775169372558594
	},
	"layer_7": {
		"weight_0": [
			0.19560135900974274
		],
		"weight_1": [
			[
				1.2423051595687866
			],
			[
				-0.38258665800094604
			],
			[
				1.1665775775909424
			],
			[
				1.999828815460205
			]
		],
		"weight_2": -1,
		"weight_3": -1.999828815460205,
		"weight_4": 1.999828815460205,
		"weight_5": -3.3394137455289297e-10,
		"weight_6": 138.14071655273438
	}
}