{
	"layer_0": {
		"weight_0": [
			[
				-0.48166269063949585,
				0.8710412383079529,
				0.8499592542648315,
				1.1812143325805664,
				1.3800030946731567,
				-0.26857393980026245,
				-0.1271701455116272,
				-0.3719334900379181,
				1.1146748065948486,
				-0.35240381956100464,
				1.4338228702545166,
				0.10346823185682297,
				1.4143399000167847,
				0.7584789395332336,
				1.0781607627868652,
				1.8147122859954834
			],
			[
				-0.5383409261703491,
				-0.4709884524345398,
				-3.794201612472534,
				-0.626774787902832,
				3.968636989593506,
				2.6437251567840576,
				-0.14361268281936646,
				-0.4213758111000061,
				-0.4023285210132599,
				-0.02192479372024536,
				-0.2978675067424774,
				-0.4344615936279297,
				-0.026507247239351273,
				-2.0233404636383057,
				-0.7326866984367371,
				0.7881621718406677
			]
		],
		"weight_1": [
			0.0,
			0.6590936779975891,
			0.6340686678886414,
			0.5973969101905823,
			0.8086792230606079,
			0.17002689838409424,
			0.0,
			0.0,
			0.6519100666046143,
			0.0,
			0.6134495139122009,
			-0.04992187023162842,
			0.4622437357902527,
			0.7847066521644592,
			0.6843521595001221,
			0.6396424174308777
		]
	},
	"layer_1": {},
	"layer_2": {
		"weight_0": [
			[
				-0.18058502674102783,
				0.23240065574645996,
				-0.4936889410018921,
				-0.26017022132873535,
				0.002672910690307617,
				-0.060840606689453125,
				-0.39069628715515137,
				-0.060312747955322266
			],
			[
				0.33820128440856934,
				0.2265157550573349,
				-0.29988375306129456,
				0.6187283992767334,
				0.37163302302360535,
				-0.46910738945007324,
				0.19024300575256348,
				1.581969976425171
			],
			[
				2.7138285636901855,
				2.420403242111206,
				-0.07684216648340225,
				2.6671841144561768,
				1.6726101636886597,
				0.13386249542236328,
				-1.3486450910568237,
				2.07106351852417
			],
			[
				1.008596420288086,
				0.5170319080352783,
				0.2588084042072296,
				0.5568224787712097,
				0.5966394543647766,
				0.42736387252807617,
				0.0695529505610466,
				1.4773645401000977
			],
			[
				0.40515387058258057,
				0.8578532338142395,
				-0.45756596326828003,
				0.14248532056808472,
				-1.5307323932647705,
				-0.3932006359100342,
				0.006490031722933054,
				0.3893490433692932
			],
			[
				-0.3586094379425049,
				-0.7413225769996643,
				0.38175854086875916,
				-1.0860333442687988,
				-3.85225772857666,
				-0.25092530250549316,
				-0.044718582183122635,
				-1.440409779548645
			],
			[
				0.4940134286880493,
				-0.41091203689575195,
				-0.2196211814880371,
				0.4376615285873413,
				-0.3809407949447632,
				0.30892348289489746,
				-0.21035981178283691,
				0.11224973201751709
			],
			[
				-0.11108136177062988,
				-0.3448305130004883,
				-0.3754192590713501,
				-0.26983094215393066,
				0.3592097759246826,
				-0.4443233013153076,
				0.21400117874145508,
				-0.007938981056213379
			],
			[
				1.108461618423462,
				1.1805298328399658,
				0.28319838643074036,
				0.9108855724334717,
				0.5712018013000488,
				-0.2003777027130127,
				-0.13374124467372894,
				1.5026092529296875
			],
			[
				0.06135404109954834,
				0.4935516119003296,
				-0.25252485275268555,
				-0.3744924068450928,
				-0.25377559661865234,
				-0.4689518213272095,
				0.07576823234558105,
				0.23185086250305176
			],
			[
				0.985298216342926,
				0.9021071791648865,
				-0.10040794312953949,
				0.6690654158592224,
				0.28715500235557556,
				0.11651623249053955,
				0.46956419944763184,
				1.468790888786316
			],
			[
				0.06695583462715149,
				-0.03719675540924072,
				0.2310994416475296,
				-0.16783598065376282,
				0.36244210600852966,
				-0.2142266035079956,
				-0.29426348209381104,
				0.19328056275844574
			],
			[
				0.7143253684043884,
				0.5106537342071533,
				-0.550057590007782,
				0.4128071367740631,
				-0.038165703415870667,
				-0.3850818872451782,
				0.3616647720336914,
				0.7106123566627502
			],
			[
				1.2964457273483276,
				1.507509469985962,
				0.23076984286308289,
				1.8321340084075928,
				0.7362604141235352,
				0.46193015575408936,
				-0.6749546527862549,
				0.8617153167724609
			],
			[
				0.8549858331680298,
				0.5161057710647583,
				0.34215375781059265,
				0.1841561198234558,
				0.8009834289550781,
				-0.3342949151992798,
				0.18704937398433685,
				1.3919824361801147
			],
			[
				0.27816370129585266,
				0.14934471249580383,
				0.23008666932582855,
				0.6836471557617188,
				-0.37031280994415283,
				-0.4138582944869995,
				0.2190404236316681,
				1.109986424446106
			]
		],
		"weight_1": [
			0.6788557171821594,
			0.8328792452812195,
			-0.13974322378635406,
			0.508537232875824,
			0.3031599223613739,
			0.0,
			-0.08039554208517075,
			1.1883270740509033
		]
	},
	"layer_3": {},
	"layer_4": {
		"weight_0": [
			[
				1.6224974393844604,
				-0.2342122495174408,
				-0.34553250670433044,
				0.2653957009315491
			],
			[
				1.0749982595443726,
				0.0973292887210846,
				0.14777356386184692,
				0.3512633740901947
			],
			[
				-0.4248071610927582,
				0.4033769965171814,
				-0.6002088785171509,
				0.5042073130607605
			],
			[
				1.705557107925415,
				-0.15047843754291534,
				0.31333011388778687,
				-0.7995800971984863
			],
			[
				3.381756067276001,
				-2.8349649906158447,
				-0.6419814825057983,
				-2.937124490737915
			],
			[
				0.4802934527397156,
				0.08431023359298706,
				-0.5691990852355957,
				0.07480829954147339
			],
			[
				-0.9541480541229248,
				1.1666572093963623,
				-0.0029910802841186523,
				0.5553091764450073
			],
			[
				1.234419584274292,
				0.5915554761886597,
				-0.10119020938873291,
				0.4868561327457428
			]
		],
		"weight_1": [
			0.6521011590957642,
			0.0696934163570404,
			0.0,
			0.14679107069969177
		]
	},
	"layer_5": {},
	"layer_6": {
		"weight_0": [
			[
				2.142385482788086
			],
			[
				-2.363603353500366
			],
			[
				-0.8528884649276733
			],
			[
				-2.95033597946167
			]
		],
		"weight_1": [
			0.6493043899536133
		]
	}
}