{
	"layer_0": {
		"weight_0": [
			[
				0.5071786046028137,
				-0.35284072160720825,
				0.1389588713645935,
				0.5331037044525146,
				-0.428702712059021,
				-0.46250757575035095,
				0.4259890913963318,
				0.937989354133606,
				0.6521469354629517,
				0.6514855623245239,
				-0.16283592581748962,
				0.12178881466388702,
				-0.2814488708972931,
				0.7346519827842712,
				-0.5249613523483276,
				0.772907018661499
			],
			[
				0.6905481815338135,
				-0.46178919076919556,
				-0.4527396559715271,
				0.8267174959182739,
				-0.1295279562473297,
				0.05166546255350113,
				0.9169595241546631,
				0.6337332129478455,
				0.6158552169799805,
				0.15491579473018646,
				-0.2332581877708435,
				-0.5527177453041077,
				-0.4583852291107178,
				0.39940139651298523,
				-0.17018815875053406,
				0.8660293221473694
			]
		],
		"weight_1": [
			0.3627014458179474,
			0.0,
			-0.07704168558120728,
			0.3810720443725586,
			0.0,
			-0.05170201137661934,
			0.4785255789756775,
			0.4891640245914459,
			0.16906966269016266,
			0.47987425327301025,
			0.0,
			-0.04813363030552864,
			0.0,
			0.48743322491645813,
			0.0,
			0.4768325388431549
		]
	},
	"layer_1": {},
	"layer_2": {
		"weight_0": [
			[
				0.6385669708251953,
				-0.16787958145141602,
				0.06691845506429672,
				-0.27101266384124756,
				0.6032979488372803,
				0.36426258087158203,
				0.0867156833410263,
				0.8559380173683167
			],
			[
				-0.1679081916809082,
				0.48479163646698,
				0.12350738048553467,
				-0.2048276662826538,
				-0.25485122203826904,
				-0.33426833152770996,
				0.47275233268737793,
				0.4524064064025879
			],
			[
				-0.21201328933238983,
				0.24213123321533203,
				-0.4121166169643402,
				-0.4182717800140381,
				0.11452363431453705,
				0.42051029205322266,
				-0.33869633078575134,
				-0.43778616189956665
			],
			[
				0.24885942041873932,
				-0.2270832061767578,
				0.702416718006134,
				-0.3172508478164673,
				0.05976169928908348,
				-0.4901827573776245,
				-0.08072555065155029,
				0.19659912586212158
			],
			[
				0.11254119873046875,
				0.09477531909942627,
				0.014103174209594727,
				0.3169659376144409,
				0.03449058532714844,
				0.3298764228820801,
				-0.2851715087890625,
				0.49658501148223877
			],
			[
				0.17081700265407562,
				0.4691612720489502,
				-0.31858888268470764,
				0.2236950397491455,
				-0.4285345673561096,
				0.3960219621658325,
				-0.34797319769859314,
				-0.16281183063983917
			],
			[
				-0.23771855235099792,
				0.06035888195037842,
				0.6682971119880676,
				-0.09962093830108643,
				0.7158784866333008,
				-0.4993981122970581,
				0.11474110931158066,
				0.5889911651611328
			],
			[
				0.5597480535507202,
				-0.27566516399383545,
				0.713176965713501,
				-0.1494671106338501,
				0.9329944252967834,
				-0.3795816898345947,
				-0.3529475927352905,
				0.5141921639442444
			],
			[
				0.2896154224872589,
				-0.05951380729675293,
				0.5985966920852661,
				0.47918760776519775,
				0.07073942571878433,
				-0.047119140625,
				-0.40185797214508057,
				0.024172727018594742
			],
			[
				0.012367029674351215,
				0.15202844142913818,
				0.642113447189331,
				0.053972601890563965,
				0.899283766746521,
				0.4881267547607422,
				0.5085050463676453,
				0.6993380784988403
			],
			[
				0.17379963397979736,
				-0.32732880115509033,
				0.1286478042602539,
				0.06351649761199951,
				-0.19466114044189453,
				-0.4462108612060547,
				0.2193523645401001,
				-0.05383157730102539
			],
			[
				-0.228183314204216,
				0.21921789646148682,
				-0.45899152755737305,
				-0.3950192928314209,
				-0.32503601908683777,
				0.13928425312042236,
				-0.3047194480895996,
				-0.45682233572006226
			],
			[
				-0.29132211208343506,
				-0.45271408557891846,
				-0.1006016731262207,
				-0.4747762680053711,
				-0.05134618282318115,
				0.4614056348800659,
				-0.21377968788146973,
				-0.2554054260253906
			],
			[
				0.11884517222642899,
				-0.4282240867614746,
				0.6449757814407349,
				-0.45882725715637207,
				0.4694059491157532,
				-0.32735729217529297,
				-0.4158089756965637,
				0.8380191922187805
			],
			[
				-0.11360597610473633,
				-0.22386133670806885,
				-0.44507384300231934,
				-0.1996307373046875,
				0.052306413650512695,
				0.3499404191970825,
				0.24782085418701172,
				-0.019574642181396484
			],
			[
				0.7178081274032593,
				-0.13425981998443604,
				0.3220096528530121,
				-0.07367587089538574,
				0.7991863489151001,
				-0.3105736970901489,
				0.20734632015228271,
				0.9006398916244507
			]
		],
		"weight_1": [
			0.3213905096054077,
			0.0,
			0.42939886450767517,
			0.0,
			0.46123018860816956,
			0.0,
			-0.011290045455098152,
			0.46020546555519104
		]
	},
	"layer_3": {},
	"layer_4": {
		"weight_0": [
			[
				0.2966301739215851,
				-0.7576189637184143,
				0.3637363612651825,
				-0.15410609543323517
			],
			[
				0.33581894636154175,
				-0.06397753953933716,
				0.6624554991722107,
				0.3671204447746277
			],
			[
				0.7633024454116821,
				-0.5998461246490479,
				0.5180976390838623,
				0.37541070580482483
			],
			[
				-0.6119402050971985,
				-0.08189129829406738,
				0.5082452893257141,
				-0.48959532380104065
			],
			[
				0.7437083721160889,
				0.329933762550354,
				-0.7498388290405273,
				-0.4455215632915497
			],
			[
				0.5496919751167297,
				0.07149338722229004,
				-0.6592229008674622,
				-0.41627445816993713
			],
			[
				-0.5639923810958862,
				-0.7395291328430176,
				-0.6046425700187683,
				-0.44127023220062256
			],
			[
				0.6196555495262146,
				0.3010304272174835,
				-0.10927638411521912,
				-0.6515284180641174
			]
		],
		"weight_1": [
			0.47598451375961304,
			-0.15669502317905426,
			-0.03407147154211998,
			-0.00571734132245183
		]
	},
	"layer_5": {},
	"layer_6": {
		"weight_0": [
			[
				2.7230827808380127
			],
			[
				-0.6487253904342651
			],
			[
				-0.6595954895019531
			],
			[
				-0.9666069746017456
			]
		],
		"weight_1": [
			2.358405590057373
		]
	}
}