{
	"layer_0": {
		"weight_0": [
			[
				-0.1506548523902893,
				0.10256610810756683,
				0.9895696640014648,
				0.4510774612426758,
				-0.4787890911102295,
				0.515555739402771,
				-0.2994627058506012,
				-0.5079724788665771,
				0.0009415147360414267,
				0.5037226676940918,
				-0.43447428941726685,
				-0.06801199913024902,
				-0.4493705928325653,
				-0.41387081146240234,
				0.7453576922416687,
				-0.2080431580543518
			],
			[
				0.8004934191703796,
				-0.29581519961357117,
				0.4738696217536926,
				0.19342371821403503,
				-0.45641377568244934,
				0.2916158437728882,
				-0.41787755489349365,
				-0.3586849868297577,
				-0.5505363941192627,
				0.13997410237789154,
				-0.268632173538208,
				-0.3398645222187042,
				-0.3069767951965332,
				-0.05203509330749512,
				0.4709518551826477,
				-0.30504223704338074
			]
		],
		"weight_1": [
			0.4418434798717499,
			-0.0637013167142868,
			0.48240092396736145,
			0.4794639050960541,
			0.0,
			0.35784170031547546,
			0.0,
			0.0,
			-0.0031622769311070442,
			0.4652463495731354,
			0.0,
			0.0,
			0.0,
			0.0,
			0.29030823707580566,
			0.0
		]
	},
	"layer_1": {},
	"layer_2": {
		"weight_0": [
			[
				0.2688949704170227,
				0.6979714035987854,
				0.14134927093982697,
				0.5549142360687256,
				0.23066997528076172,
				0.2574273943901062,
				0.29559364914894104,
				0.3846398890018463
			],
			[
				0.2603994905948639,
				-0.416853666305542,
				0.008225798606872559,
				-0.433025062084198,
				0.3431225121021271,
				0.4871121644973755,
				0.14054055511951447,
				-0.3988083004951477
			],
			[
				0.6535454988479614,
				0.5378516316413879,
				-0.12398074567317963,
				0.33199936151504517,
				-0.1311335414648056,
				0.25380977988243103,
				0.8371509313583374,
				0.7284258008003235
			],
			[
				0.38326340913772583,
				0.8361476063728333,
				-0.37262624502182007,
				0.707529604434967,
				0.15942208468914032,
				0.11093319207429886,
				0.20871751010417938,
				0.27953875064849854
			],
			[
				-0.18986129760742188,
				0.2899665832519531,
				-0.40976107120513916,
				-0.02776944637298584,
				-0.3760685920715332,
				-0.08204495906829834,
				-0.2676476240158081,
				-0.39716994762420654
			],
			[
				0.6224126219749451,
				0.37700796127319336,
				0.4428827464580536,
				0.43656525015830994,
				0.3687647879123688,
				-0.4208732843399048,
				0.5981241464614868,
				0.19919610023498535
			],
			[
				0.029833078384399414,
				-0.049381136894226074,
				-0.21618175506591797,
				0.21879351139068604,
				-0.2906845808029175,
				0.4069192409515381,
				-0.43377482891082764,
				-0.26851654052734375
			],
			[
				-0.47379887104034424,
				-0.299854040145874,
				0.3457448482513428,
				-0.29381048679351807,
				-0.15544021129608154,
				0.0013371706008911133,
				0.1402604579925537,
				0.2116549015045166
			],
			[
				-0.11355376243591309,
				-0.44390109181404114,
				0.02508091926574707,
				-0.04230499267578125,
				0.35315120220184326,
				-0.12357795238494873,
				-0.40213844180107117,
				0.4422110319137573
			],
			[
				0.8050963878631592,
				0.9223363995552063,
				0.3258448839187622,
				0.39707139134407043,
				-0.4645577371120453,
				-0.10893301665782928,
				0.02659585326910019,
				0.021674130111932755
			],
			[
				0.3389841318130493,
				-0.22829580307006836,
				0.2832202911376953,
				-0.04694032669067383,
				0.49551641941070557,
				-0.4555875062942505,
				0.11134719848632812,
				0.22902309894561768
			],
			[
				0.43533074855804443,
				-0.37352287769317627,
				-0.0983649492263794,
				-0.05910933017730713,
				0.32886624336242676,
				-0.472916841506958,
				0.02600884437561035,
				0.4253358840942383
			],
			[
				-0.4476144313812256,
				0.24446415901184082,
				0.33084142208099365,
				0.0034629106521606445,
				-0.03130519390106201,
				-0.15190279483795166,
				0.025452256202697754,
				0.4945824146270752
			],
			[
				0.4655534029006958,
				0.48585712909698486,
				0.2256920337677002,
				-0.03776121139526367,
				0.1753758192062378,
				-0.2533622980117798,
				-0.12119638919830322,
				-0.012343764305114746
			],
			[
				0.3363400399684906,
				0.19894200563430786,
				-0.28567343950271606,
				0.12128616124391556,
				-0.11970599740743637,
				-0.605652928352356,
				0.5925674438476562,
				0.4196021854877472
			],
			[
				0.46927452087402344,
				0.14632129669189453,
				0.37137722969055176,
				0.3266942501068115,
				-0.16250526905059814,
				-0.037041544914245605,
				0.4620243310928345,
				-0.4252694845199585
			]
		],
		"weight_1": [
			0.3563993275165558,
			0.4847601056098938,
			-0.0523475781083107,
			0.31039416790008545,
			-0.1205897256731987,
			-0.13703732192516327,
			0.48163947463035583,
			0.469468891620636
		]
	},
	"layer_3": {},
	"layer_4": {
		"weight_0": [
			[
				0.06806035339832306,
				0.4624585509300232,
				-0.016738714650273323,
				0.1357598900794983
			],
			[
				0.38013309240341187,
				1.1502314805984497,
				-0.4286127984523773,
				-0.4335397481918335
			],
			[
				0.2926899790763855,
				-0.3325556814670563,
				-0.6281181573867798,
				0.35793596506118774
			],
			[
				0.1410074532032013,
				0.41535326838493347,
				0.47006356716156006,
				-0.1847051978111267
			],
			[
				-0.6706394553184509,
				-0.3156287372112274,
				-0.31320396065711975,
				-0.011573614552617073
			],
			[
				-0.5536789298057556,
				-0.4050031304359436,
				0.31215977668762207,
				0.5427775382995605
			],
			[
				-0.4744427502155304,
				0.7181419730186462,
				0.24257712066173553,
				-0.3477608859539032
			],
			[
				-0.2530807852745056,
				0.5482699871063232,
				-0.0821094810962677,
				-0.645679771900177
			]
		],
		"weight_1": [
			-0.07803932577371597,
			0.4610706567764282,
			-0.2531145513057709,
			-0.004984547384083271
		]
	},
	"layer_5": {},
	"layer_6": {
		"weight_0": [
			[
				-0.6242004036903381
			],
			[
				3.3882312774658203
			],
			[
				-0.1402878761291504
			],
			[
				-0.5107043385505676
			]
		],
		"weight_1": [
			2.3557028770446777
		]
	}
}