{
	"layer_0": {
		"weight_0": [
			[
				-0.3955721855163574,
				-0.03907650709152222,
				-0.3948414921760559,
				0.4878518283367157,
				1.1536668539047241,
				-0.33453384041786194,
				-0.391603022813797,
				0.9246856570243835,
				0.9284933805465698,
				-0.1388995349407196,
				-0.40152791142463684,
				-0.13043606281280518,
				3.698477268218994,
				3.0199124813079834,
				-0.23585385084152222,
				-0.5147574543952942
			],
			[
				-0.5209429264068604,
				-0.49759629368782043,
				-0.418066143989563,
				-2.195467948913574,
				-1.340196132659912,
				-0.4192892909049988,
				3.2802865505218506,
				-0.0810583308339119,
				-0.7112138867378235,
				-0.1466636061668396,
				-0.2634267508983612,
				-0.023232877254486084,
				1.0129117965698242,
				1.4447526931762695,
				3.3641836643218994,
				-0.5298208594322205
			]
		],
		"weight_1": [
			0.0,
			0.7988577485084534,
			0.0,
			0.7150060534477234,
			0.556059718132019,
			0.0,
			0.20166552066802979,
			0.35200753808021545,
			0.6852455139160156,
			0.0,
			0.0,
			0.0,
			0.006416663993149996,
			0.0011286112712696195,
			0.16221389174461365,
			0.0
		]
	},
	"layer_1": {},
	"layer_2": {
		"weight_0": [
			[
				0.017199993133544922,
				-0.01330268383026123,
				0.14159274101257324,
				0.378619909286499,
				0.3663158416748047,
				-0.334295392036438,
				-0.28998804092407227,
				0.20612144470214844
			],
			[
				0.7128893136978149,
				0.10231392085552216,
				-0.41902491450309753,
				0.38387757539749146,
				0.013957653194665909,
				-1.0442230701446533,
				0.3986687660217285,
				0.740454912185669
			],
			[
				0.10481858253479004,
				-0.4126392602920532,
				0.27941441535949707,
				-0.4763457775115967,
				0.13203835487365723,
				-0.3868294954299927,
				-0.13173818588256836,
				0.18075931072235107
			],
			[
				0.3316202163696289,
				1.1774089336395264,
				-0.3456926643848419,
				0.34958693385124207,
				1.8626503944396973,
				-0.6330212354660034,
				0.9484601020812988,
				1.2786933183670044
			],
			[
				0.007492342498153448,
				0.9417164325714111,
				0.04871702194213867,
				0.14256833493709564,
				0.989144504070282,
				0.5231008529663086,
				0.9776344299316406,
				0.9342895150184631
			],
			[
				0.49496161937713623,
				0.23201191425323486,
				0.4597967863082886,
				-0.41487693786621094,
				0.3146604299545288,
				-0.4620751142501831,
				-0.4959675073623657,
				0.20370173454284668
			],
			[
				0.9965816736221313,
				-0.6060039401054382,
				-0.41092970967292786,
				-0.34690240025520325,
				-0.35912349820137024,
				-0.48920851945877075,
				-3.8387396335601807,
				-1.9535033702850342
			],
			[
				0.12544898688793182,
				0.6656606197357178,
				0.461110919713974,
				-0.5137078166007996,
				0.5593089461326599,
				0.4265468716621399,
				0.24811796844005585,
				0.0787523090839386
			],
			[
				0.6705479025840759,
				0.19004639983177185,
				0.005609803833067417,
				-0.4616682827472687,
				0.8859730958938599,
				-0.22044354677200317,
				0.781988263130188,
				0.6088032722473145
			],
			[
				0.3455458879470825,
				0.23313641548156738,
				-0.3396878242492676,
				0.23939073085784912,
				-0.4987802505493164,
				0.24832046031951904,
				-0.22243881225585938,
				0.3886229991912842
			],
			[
				-0.18266451358795166,
				-0.4267319440841675,
				0.3973439931869507,
				-0.3071967363357544,
				0.46630072593688965,
				-0.06554877758026123,
				-0.1466062068939209,
				-0.05079245567321777
			],
			[
				-0.27503418922424316,
				-0.04882693290710449,
				0.12279665470123291,
				0.3580894470214844,
				-0.1637258529663086,
				0.36766350269317627,
				-0.34244871139526367,
				0.48463642597198486
			],
			[
				-3.32568097114563,
				0.9108186364173889,
				0.22039398550987244,
				-0.4547397792339325,
				1.0601017475128174,
				0.7173410058021545,
				-0.10639754682779312,
				-0.20779848098754883
			],
			[
				-3.078641891479492,
				0.9728180170059204,
				-0.3908802568912506,
				-0.21484331786632538,
				0.45411255955696106,
				0.4565593898296356,
				-0.5106793642044067,
				-0.18036410212516785
			],
			[
				0.2842142879962921,
				-0.14673294126987457,
				-0.30904000997543335,
				0.07509970664978027,
				-0.3101835250854492,
				0.1623670905828476,
				-3.7968368530273438,
				-1.7177950143814087
			],
			[
				0.1569429636001587,
				0.23885715007781982,
				-0.1532987356185913,
				0.3591630458831787,
				0.2668724060058594,
				0.39044642448425293,
				-0.07311546802520752,
				-0.24412226676940918
			]
		],
		"weight_1": [
			0.7352696061134338,
			0.3556743264198303,
			-0.03939610347151756,
			-0.08906412869691849,
			0.4485112726688385,
			-0.8891862034797668,
			0.5179013609886169,
			0.6906443238258362
		]
	},
	"layer_3": {},
	"layer_4": {
		"weight_0": [
			[
				-2.675973653793335,
				-2.579516887664795,
				-2.6802477836608887,
				-1.7098039388656616
			],
			[
				1.3460593223571777,
				1.0667932033538818,
				1.00993812084198,
				0.1525038182735443
			],
			[
				-0.6252214908599854,
				0.6733063459396362,
				0.4414580166339874,
				0.5442190766334534
			],
			[
				-0.042393531650304794,
				0.4167066514492035,
				0.12156988680362701,
				-0.2827777564525604
			],
			[
				0.9032449126243591,
				1.0030145645141602,
				0.5533721446990967,
				1.276759147644043
			],
			[
				-2.2311971187591553,
				-1.4262174367904663,
				-2.294633626937866,
				-1.932836651802063
			],
			[
				3.6516599655151367,
				3.4761576652526855,
				2.9406323432922363,
				3.0180823802948
			],
			[
				1.8075200319290161,
				1.1128424406051636,
				1.2790272235870361,
				1.5408974885940552
			]
		],
		"weight_1": [
			0.4286772310733795,
			0.3939655125141144,
			0.04602793604135513,
			0.4252474904060364
		]
	},
	"layer_5": {},
	"layer_6": {
		"weight_0": [
			[
				2.5780675411224365
			],
			[
				1.6931489706039429
			],
			[
				1.7297807931900024
			],
			[
				2.300851583480835
			]
		],
		"weight_1": [
			0.4222322106361389
		]
	}
}