{
	"layer_0": {
		"weight_0": [
			[
				-0.3212769627571106,
				0.41222959756851196,
				-0.14944800734519958,
				-0.4052732586860657,
				-0.16173431277275085,
				0.31207332015037537,
				0.46788737177848816,
				0.7043730020523071,
				0.8337133526802063,
				-0.08892518281936646,
				0.9503191113471985,
				0.7316083908081055,
				0.8355774283409119,
				0.8738810420036316,
				-0.4992249011993408,
				1.0273224115371704
			],
			[
				-0.1092054545879364,
				0.8949190974235535,
				-0.1348494291305542,
				-0.4118860363960266,
				-0.1403382420539856,
				0.5483325123786926,
				0.7604583501815796,
				0.3313661813735962,
				0.5386128425598145,
				-0.019028902053833008,
				0.9879558682441711,
				0.5461261868476868,
				0.11156891286373138,
				0.962261974811554,
				-0.4762442111968994,
				0.579997181892395
			]
		],
		"weight_1": [
			0.0,
			0.5019187331199646,
			0.0,
			0.0,
			0.0,
			0.516218364238739,
			0.5071057677268982,
			0.5135549306869507,
			0.5064764618873596,
			0.0,
			0.5046928524971008,
			0.5064652562141418,
			0.4949188530445099,
			0.5049653053283691,
			0.0,
			0.5024732351303101
		]
	},
	"layer_1": {},
	"layer_2": {
		"weight_0": [
			[
				-0.3828622102737427,
				0.20566463470458984,
				-0.4507657289505005,
				-0.13061726093292236,
				-0.04362213611602783,
				0.26593124866485596,
				-0.04551219940185547,
				-0.23812997341156006
			],
			[
				0.22162070870399475,
				0.15203630924224854,
				-0.1814659833908081,
				0.9892425537109375,
				0.8430874347686768,
				0.27280139923095703,
				-0.09803394973278046,
				0.36226433515548706
			],
			[
				-0.02234804630279541,
				0.2644999027252197,
				0.10649633407592773,
				-0.10607278347015381,
				-0.3206380605697632,
				-0.21565592288970947,
				0.06942856311798096,
				-0.2805083990097046
			],
			[
				-0.05651974678039551,
				0.21987760066986084,
				0.37151336669921875,
				0.4435781240463257,
				-0.48532724380493164,
				0.07351934909820557,
				0.39659583568573,
				0.06460487842559814
			],
			[
				-0.31709086894989014,
				-0.2601984739303589,
				-0.3152954578399658,
				-0.04812300205230713,
				0.45548462867736816,
				-0.4045189619064331,
				0.30909597873687744,
				-0.35384511947631836
			],
			[
				0.959465742111206,
				-0.1315150260925293,
				0.005960822105407715,
				0.8421961665153503,
				0.862829327583313,
				-0.48094654083251953,
				-0.25121867656707764,
				0.8621481657028198
			],
			[
				0.5325525403022766,
				-0.33285951614379883,
				-0.12006211280822754,
				0.9418846964836121,
				0.45336979627609253,
				-0.11360085010528564,
				0.2974162697792053,
				0.8779315948486328
			],
			[
				0.7947492599487305,
				0.06524956226348877,
				-0.2717231512069702,
				0.04950466379523277,
				0.23459492623806,
				0.37383151054382324,
				0.2917807400226593,
				0.8982086777687073
			],
			[
				0.9119203090667725,
				0.012134313583374023,
				-0.06650161743164062,
				0.5275681614875793,
				0.6865764856338501,
				0.16067850589752197,
				-0.3494182825088501,
				0.5066014528274536
			],
			[
				-0.4070470333099365,
				0.057884812355041504,
				-0.04607212543487549,
				0.3007572889328003,
				0.45297157764434814,
				0.29873454570770264,
				0.013174772262573242,
				-0.2887495756149292
			],
			[
				0.6560268402099609,
				-0.40277254581451416,
				-0.11264908313751221,
				0.47697925567626953,
				0.9441905617713928,
				-0.0653923749923706,
				0.1278124302625656,
				0.3356601297855377
			],
			[
				0.4347335994243622,
				-0.17825794219970703,
				0.36736249923706055,
				0.6499925851821899,
				0.7747654914855957,
				0.47748780250549316,
				0.13754789531230927,
				0.17015571892261505
			],
			[
				0.266911119222641,
				-0.02185499668121338,
				0.00872349739074707,
				0.3518112599849701,
				0.8724343776702881,
				-0.34885942935943604,
				-0.35115835070610046,
				0.6106674075126648
			],
			[
				0.9913022518157959,
				0.06785774230957031,
				0.16305983066558838,
				0.14287947118282318,
				0.6175904273986816,
				-0.3126974105834961,
				-0.37198352813720703,
				0.6080753803253174
			],
			[
				0.4104193449020386,
				-0.2887016534805298,
				0.3184025287628174,
				0.018702149391174316,
				-0.12265253067016602,
				0.22708868980407715,
				0.31356310844421387,
				-0.008814334869384766
			],
			[
				0.7931430339813232,
				-0.3214528560638428,
				-0.10849452018737793,
				0.2872167229652405,
				0.8733558058738708,
				-0.1037452220916748,
				0.3646255135536194,
				0.6087070107460022
			]
		],
		"weight_1": [
			0.5073437690734863,
			0.0,
			0.0,
			0.5100934505462646,
			0.4564575254917145,
			0.0,
			-0.0066570560447871685,
			0.4782608449459076
		]
	},
	"layer_3": {},
	"layer_4": {
		"weight_0": [
			[
				1.1575740575790405,
				-0.22160422801971436,
				0.7116997241973877,
				0.46786001324653625
			],
			[
				-0.12464559078216553,
				0.09611248970031738,
				-0.3999199867248535,
				0.10474824905395508
			],
			[
				-0.11464416980743408,
				-0.30475878715515137,
				-0.09994500875473022,
				0.333182156085968
			],
			[
				0.19453902542591095,
				0.37438538670539856,
				0.41662243008613586,
				0.6689973473548889
			],
			[
				0.13845506310462952,
				-0.4426863491535187,
				0.16403165459632874,
				0.9349052309989929
			],
			[
				-0.09009408950805664,
				-0.10972529649734497,
				0.32089096307754517,
				-0.36758288741111755
			],
			[
				-0.26669254899024963,
				0.10771101713180542,
				-0.45870041847229004,
				-0.6326335668563843
			],
			[
				0.12694264948368073,
				0.30243685841560364,
				0.3239263594150543,
				0.9598886370658875
			]
		],
		"weight_1": [
			0.44270631670951843,
			-0.10594242811203003,
			0.2003333568572998,
			0.2742011547088623
		]
	},
	"layer_5": {},
	"layer_6": {
		"weight_0": [
			[
				2.4198455810546875
			],
			[
				-0.6910836696624756
			],
			[
				2.160769462585449
			],
			[
				3.346031665802002
			]
		],
		"weight_1": [
			2.3130719661712646
		]
	}
}