{
	"layer_0": {
		"weight_0": 0.0,
		"weight_1": 1.0,
		"weight_2": -1
	},
	"layer_1": {
		"weight_0": [
			0.42566365003585815,
			0.2773982882499695,
			2.535832405090332,
			0.9015070796012878,
			1.0017602443695068,
			0.7870224118232727,
			0.4914883077144623,
			1.9744594097137451,
			0.5779852271080017,
			1.3639273643493652,
			-0.20168864727020264,
			0.628619372844696,
			-0.12183747440576553,
			0.633335530757904,
			0.10895044356584549,
			0.2341805100440979
		],
		"weight_1": [
			[
				0.584014356136322,
				0.06542658805847168,
				5.27032470703125,
				1.6150187253952026,
				1.2923473119735718,
				0.1443578451871872,
				-5.8382792472839355,
				3.3269872665405273,
				0.5544643998146057,
				1.9113268852233887,
				0.27054521441459656,
				-2.1845810413360596,
				0.19544900953769684,
				0.7378703355789185,
				0.8438393473625183,
				0.5720627903938293
			],
			[
				-2.9643919467926025,
				1.1610627174377441,
				2.2250139713287354,
				0.6290271878242493,
				-0.6114884614944458,
				-0.5594228506088257,
				-1.088057518005371,
				-0.05198810249567032,
				-1.7838302850723267,
				-0.5965869426727295,
				-0.5428388118743896,
				-0.2964935898780823,
				-0.5774692296981812,
				-1.089922547340393,
				-6.8514204025268555,
				-4.218974590301514
			]
		],
		"weight_2": -1,
		"weight_3": -6.8514204025268555,
		"weight_4": 6.8514204025268555,
		"weight_5": -6.312679290771484,
		"weight_6": 9.44776725769043
	},
	"layer_2": {
		"weight_0": -1,
		"weight_1": -3.3394137455289297e-10,
		"weight_2": 9.28971004486084
	},
	"layer_3": {
		"weight_0": [
			0.5986498594284058,
			0.573358416557312,
			0.5635992288589478,
			1.1545480489730835,
			0.551118791103363,
			-0.04079337790608406,
			0.5703470706939697,
			0.0
		],
		"weight_1": [
			[
				1.5788936614990234,
				1.8236370086669922,
				1.1896483898162842,
				3.5981972217559814,
				1.2171573638916016,
				-0.8047123551368713,
				1.7583041191101074,
				-0.497239351272583
			],
			[
				0.0449640192091465,
				-0.06370539963245392,
				-0.007072386331856251,
				0.06421881169080734,
				-0.46493178606033325,
				0.9956380128860474,
				-0.4741401672363281,
				-0.09183061122894287
			],
			[
				0.336594820022583,
				-0.011920810677111149,
				0.29932862520217896,
				1.1781481504440308,
				0.025766216218471527,
				0.37225401401519775,
				0.2470846176147461,
				-0.3398926258087158
			],
			[
				-0.1909087896347046,
				-0.18510222434997559,
				-0.43960732221603394,
				1.1381986141204834,
				0.12137451022863388,
				0.27642449736595154,
				-0.12561655044555664,
				-0.05627572536468506
			],
			[
				0.1774257868528366,
				0.5025153160095215,
				0.6768795847892761,
				1.2960960865020752,
				0.5849294662475586,
				0.5832224488258362,
				0.06919897347688675,
				-0.2147998809814453
			],
			[
				0.031102802604436874,
				0.6571981906890869,
				0.24207444489002228,
				1.0393376350402832,
				0.6988834142684937,
				0.4996480345726013,
				0.5911153554916382,
				0.08978545665740967
			],
			[
				-1.8178446292877197,
				-2.1882340908050537,
				-2.0408926010131836,
				-2.0202550888061523,
				-1.357826590538025,
				2.50148344039917,
				-1.4185314178466797,
				-0.43351423740386963
			],
			[
				0.029475541785359383,
				0.18041086196899414,
				0.36318138241767883,
				1.4097181558609009,
				0.035932257771492004,
				0.34988051652908325,
				-0.1491624265909195,
				-0.4836843013763428
			],
			[
				1.1980527639389038,
				0.8100444674491882,
				0.8009939193725586,
				2.0736989974975586,
				1.176719307899475,
				-0.16542719304561615,
				1.1563851833343506,
				-0.14591491222381592
			],
			[
				-0.11808398365974426,
				0.6047638654708862,
				0.21061523258686066,
				0.9495558142662048,
				0.34272539615631104,
				0.5732303261756897,
				0.5284111499786377,
				0.04855179786682129
			],
			[
				-0.3124200701713562,
				-0.188429057598114,
				-0.12051397562026978,
				0.08854498714208603,
				0.3400537669658661,
				0.03523552417755127,
				-0.011530382558703423,
				-0.2048245668411255
			],
			[
				-1.2587811946868896,
				-0.6224854588508606,
				-1.1600403785705566,
				-0.6563118100166321,
				-0.8309880495071411,
				1.4904659986495972,
				-1.340302586555481,
				0.4229844808578491
			],
			[
				-0.25697803497314453,
				-0.3596726059913635,
				0.4183526635169983,
				-0.26770415902137756,
				0.23360739648342133,
				-0.19212746620178223,
				-0.3972090184688568,
				-0.3863637447357178
			],
			[
				0.1778465360403061,
				0.6598785519599915,
				0.7748841643333435,
				1.5384525060653687,
				0.9254960417747498,
				0.5120261907577515,
				0.7599676847457886,
				0.03201937675476074
			],
			[
				5.731020450592041,
				5.205931186676025,
				5.391358852386475,
				5.524435043334961,
				5.317789554595947,
				-5.044692039489746,
				5.865159034729004,
				-0.32949912548065186
			],
			[
				2.5549495220184326,
				2.6456146240234375,
				2.879863739013672,
				3.774564027786255,
				2.233884811401367,
				-2.0951263904571533,
				2.333845853805542,
				0.17978274822235107
			]
		],
		"weight_2": -1,
		"weight_3": -5.865159034729004,
		"weight_4": 5.865159034729004,
		"weight_5": -5.8244218826293945,
		"weight_6": 30.778614044189453
	},
	"layer_4": {
		"weight_0": -1,
		"weight_1": -3.3394137455289297e-10,
		"weight_2": 29.306386947631836
	},
	"layer_5": {
		"weight_0": [
			-0.008086169138550758,
			0.6337823271751404,
			-0.15958863496780396,
			0.5484282374382019
		],
		"weight_1": [
			[
				0.07748965919017792,
				1.908493161201477,
				-0.5887627601623535,
				1.554295301437378
			],
			[
				-0.009012027643620968,
				1.0768194198608398,
				0.06628306210041046,
				0.9390667080879211
			],
			[
				-0.05969095602631569,
				1.0739587545394897,
				-0.8736234307289124,
				1.4760661125183105
			],
			[
				-0.4125596582889557,
				0.4165312647819519,
				0.15087875723838806,
				1.2510507106781006
			],
			[
				-0.18075476586818695,
				1.245707631111145,
				-0.6608327627182007,
				0.9389944076538086
			],
			[
				2.461317539215088,
				-2.586590528488159,
				0.3341984748840332,
				-2.237614154815674
			],
			[
				-0.05186638608574867,
				1.7044622898101807,
				-0.3330344259738922,
				1.5656098127365112
			],
			[
				5.835294723510742e-05,
				-0.36422058939933777,
				-0.24263113737106323,
				-0.3259107768535614
			]
		],
		"weight_2": -1,
		"weight_3": -2.5854101181030273,
		"weight_4": 2.5854101181030273,
		"weight_5": -8.657487869262695,
		"weight_6": 60.94820022583008
	},
	"layer_6": {
		"weight_0": -1,
		"weight_1": -3.3394137455289297e-10,
		"weight_2": 59.37051010131836
	},
	"layer_7": {
		"weight_0": [
			0.6479423642158508
		],
		"weight_1": [
			[
				-1.9388996362686157
			],
			[
				1.4272465705871582
			],
			[
				-0.5989969968795776
			],
			[
				1.6698905229568481
			]
		],
		"weight_2": -1,
		"weight_3": -1.9377049207687378,
		"weight_4": 1.9377049207687378,
		"weight_5": -0.004570535849779844,
		"weight_6": 139.99559020996094
	}
}