{
	"layer_0": {
		"weight_0": [
			[
				0.9086671471595764,
				-0.13754598796367645,
				0.12062866985797882,
				0.009859851561486721,
				0.5010476112365723,
				0.7453204989433289,
				0.8952022790908813,
				0.9439563751220703,
				-0.18926218152046204,
				0.07620827108621597,
				-0.2806089222431183,
				0.5499506592750549,
				0.06509517133235931,
				0.3912930488586426,
				-0.1447562873363495,
				0.1099708080291748
			],
			[
				0.2801014184951782,
				0.9262345433235168,
				-0.5269440412521362,
				0.8030990362167358,
				0.9029609560966492,
				0.8935202360153198,
				-0.028576888144016266,
				0.03682936728000641,
				-0.5605186820030212,
				0.8280820846557617,
				-0.24787014722824097,
				0.8115531206130981,
				-0.40258753299713135,
				-0.42201289534568787,
				-0.2741398811340332,
				-0.15403340756893158
			]
		],
		"weight_1": [
			0.41349661350250244,
			0.40492916107177734,
			-0.048754725605249405,
			0.4050450921058655,
			0.4046972095966339,
			0.4071168303489685,
			0.3939714729785919,
			0.40188148617744446,
			0.0,
			0.3409687876701355,
			0.0,
			0.40051326155662537,
			-0.012187809683382511,
			0.017316484823822975,
			0.0,
			-0.09023404121398926
		]
	},
	"layer_1": {},
	"layer_2": {
		"weight_0": [
			[
				-0.43234094977378845,
				0.07185718417167664,
				0.03789477050304413,
				-0.43817782402038574,
				0.6259700059890747,
				0.7572832107543945,
				-0.44501030445098877,
				0.19566777348518372
			],
			[
				0.31768539547920227,
				0.7553055882453918,
				0.5904939770698547,
				-0.41631531715393066,
				0.6957849860191345,
				0.5611989498138428,
				-0.23090386390686035,
				0.33389589190483093
			],
			[
				-0.38319969177246094,
				-0.3079492151737213,
				0.30308008193969727,
				0.4049234390258789,
				0.08769948035478592,
				-0.2314853072166443,
				-0.3727916479110718,
				0.025891676545143127
			],
			[
				-0.32044437527656555,
				0.631691575050354,
				0.7245319485664368,
				-0.031039953231811523,
				0.7135656476020813,
				0.8696595430374146,
				0.45977306365966797,
				0.23738998174667358
			],
			[
				0.035977140069007874,
				0.6904405951499939,
				0.25037211179733276,
				0.06339240074157715,
				0.4139782190322876,
				0.8110049366950989,
				0.06305480003356934,
				-0.06979706883430481
			],
			[
				0.03310789167881012,
				0.5597436428070068,
				0.4240487217903137,
				-0.2660316228866577,
				0.37236446142196655,
				0.7527742981910706,
				-0.35844922065734863,
				0.03051978163421154
			],
			[
				-0.2256084829568863,
				0.8251813650131226,
				0.3512752950191498,
				0.38202452659606934,
				0.8352417945861816,
				-0.08126840740442276,
				-0.03271031379699707,
				0.760462760925293
			],
			[
				0.2686291038990021,
				0.5130377411842346,
				0.8045369982719421,
				-0.33280253410339355,
				0.6012798547744751,
				0.2957526445388794,
				0.21033108234405518,
				0.660710871219635
			],
			[
				0.13081908226013184,
				0.3076866865158081,
				0.0630490779876709,
				-0.172934889793396,
				0.131453275680542,
				-0.21989715099334717,
				-0.12061154842376709,
				-0.2244964838027954
			],
			[
				0.16100704669952393,
				0.4665556848049164,
				0.4693685472011566,
				0.38054096698760986,
				-0.02220834232866764,
				0.7581824660301208,
				-0.49837160110473633,
				-0.0811757743358612
			],
			[
				-0.13841748237609863,
				-0.17141950130462646,
				0.09898149967193604,
				0.35686564445495605,
				-0.40595757961273193,
				0.18521392345428467,
				-0.019775032997131348,
				-0.04003477096557617
			],
			[
				-0.14722488820552826,
				0.4146847426891327,
				0.524368941783905,
				-0.34815049171447754,
				0.642459511756897,
				-0.04631778597831726,
				-0.18305659294128418,
				0.692188024520874
			],
			[
				-0.3778342008590698,
				0.3229846954345703,
				0.21178269386291504,
				0.4568995237350464,
				-0.413893461227417,
				-0.34502753615379333,
				0.34228944778442383,
				-0.3127667009830475
			],
			[
				0.3155512809753418,
				-0.08642497658729553,
				-0.12311022728681564,
				0.09796559810638428,
				0.013405847363173962,
				0.49539583921432495,
				0.011649131774902344,
				0.34401199221611023
			],
			[
				0.20621395111083984,
				-0.23492205142974854,
				0.27991509437561035,
				0.3683152198791504,
				0.32318615913391113,
				0.3357243537902832,
				-0.10823285579681396,
				0.388802170753479
			],
			[
				-0.241594597697258,
				0.05017809569835663,
				-0.37843456864356995,
				-0.17615139484405518,
				-0.2888793647289276,
				0.4199173152446747,
				-0.41418683528900146,
				-0.09110521525144577
			]
		],
		"weight_1": [
			-0.03561759740114212,
			0.3853563666343689,
			0.38950487971305847,
			0.0,
			0.3853295147418976,
			0.40258291363716125,
			0.0,
			0.3828364312648773
		]
	},
	"layer_3": {},
	"layer_4": {
		"weight_0": [
			[
				-0.6408796906471252,
				0.3183947205543518,
				-0.27735814452171326,
				-0.288217693567276
			],
			[
				0.8583104610443115,
				0.7050883173942566,
				0.4635073244571686,
				-0.2421255111694336
			],
			[
				0.4159802496433258,
				0.9777638912200928,
				0.24452027678489685,
				0.23076988756656647
			],
			[
				-0.06474077701568604,
				0.1945454478263855,
				-0.3625400960445404,
				0.031669795513153076
			],
			[
				0.8768422603607178,
				0.9569709300994873,
				0.5415669083595276,
				-0.2846631705760956
			],
			[
				0.6218723654747009,
				0.5673378109931946,
				1.1119431257247925,
				0.21641072630882263
			],
			[
				-0.10032212734222412,
				-0.18533200025558472,
				0.6400614380836487,
				-0.15282011032104492
			],
			[
				0.3023740351200104,
				0.8986749053001404,
				0.13834403455257416,
				0.11620981246232986
			]
		],
		"weight_1": [
			0.31079044938087463,
			0.2518584132194519,
			0.41816556453704834,
			-0.0516248494386673
		]
	},
	"layer_5": {},
	"layer_6": {
		"weight_0": [
			[
				2.719149112701416
			],
			[
				2.6340832710266113
			],
			[
				2.37461519241333
			],
			[
				-0.27945592999458313
			]
		],
		"weight_1": [
			2.320242166519165
		]
	}
}