{
	"layer_0": {
		"weight_0": 0.0,
		"weight_1": 1.0,
		"weight_2": -1
	},
	"layer_1": {
		"weight_0": [
			0.8185869455337524,
			0.4289016127586365,
			-0.14437788724899292,
			0.0,
			0.6057227253913879,
			-0.5281145572662354,
			0.8260204792022705,
			0.4190736711025238,
			0.5256060361862183,
			0.0,
			0.18977703154087067,
			0.4445224404335022,
			0.5120395421981812,
			0.0,
			0.3918079137802124,
			0.5918506383895874
		],
		"weight_1": [
			[
				0.8852294087409973,
				1.2526187896728516,
				0.14135630428791046,
				-0.5535866022109985,
				1.8372173309326172,
				1.3696980476379395,
				-7.878063678741455,
				2.221526861190796,
				-0.6967684626579285,
				-0.4562318027019501,
				1.03024160861969,
				0.6589229106903076,
				1.7963223457336426,
				-0.0234411358833313,
				0.8430941700935364,
				1.222328782081604
			],
			[
				-2.169895648956299,
				-0.5494207143783569,
				-0.19842998683452606,
				-0.15075457096099854,
				-0.6536343693733215,
				0.2185600996017456,
				-0.5354825854301453,
				-0.7710713744163513,
				0.8407191038131714,
				-0.36497676372528076,
				-7.937898635864258,
				-4.654841899871826,
				-0.6019631028175354,
				-0.38473132252693176,
				2.672611951828003,
				0.08028175681829453
			]
		],
		"weight_2": -1,
		"weight_3": -7.937898635864258,
		"weight_4": 7.937898635864258,
		"weight_5": -1.0344233678196528e-30,
		"weight_6": 3.7128663063049316
	},
	"layer_2": {
		"weight_0": [
			0.0,
			0.012229671701788902,
			0.5089900493621826,
			0.6386412978172302,
			0.07572038471698761,
			0.614924430847168,
			-0.009486621245741844,
			0.5066105723381042
		],
		"weight_1": [
			[
				0.07358098030090332,
				0.09169473499059677,
				0.4373629689216614,
				0.7913771867752075,
				-0.03237295523285866,
				0.3368539810180664,
				0.35767456889152527,
				2.0414998531341553
			],
			[
				0.06685686111450195,
				-0.22543112933635712,
				0.1845341920852661,
				0.14152120053768158,
				-1.2904598712921143,
				0.24609428644180298,
				-0.443499356508255,
				0.698589026927948
			],
			[
				-0.4215139150619507,
				-0.18965326249599457,
				0.3862248361110687,
				-0.3667049705982208,
				-0.14808446168899536,
				0.0268203504383564,
				-0.4230090379714966,
				-0.07735593616962433
			],
			[
				-0.392889142036438,
				-0.15276885032653809,
				0.13087916374206543,
				-0.2360093593597412,
				-0.1833726167678833,
				0.23682475090026855,
				-0.16264593601226807,
				-0.44172894954681396
			],
			[
				-0.35821664333343506,
				-0.42787274718284607,
				0.17815469205379486,
				0.5541695952415466,
				-1.6127243041992188,
				0.7514268159866333,
				-0.40507960319519043,
				0.7621992230415344
			],
			[
				0.30418825149536133,
				0.30618223547935486,
				-2.450547456741333,
				-1.1799370050430298,
				-0.29109999537467957,
				-2.03650164604187,
				-0.4071805477142334,
				-1.6749534606933594
			],
			[
				-0.29015469551086426,
				-0.05013930797576904,
				-1.5562785863876343,
				-1.45198655128479,
				-0.10583969205617905,
				-2.147608518600464,
				-0.3570002317428589,
				-1.7115581035614014
			],
			[
				0.1864023208618164,
				-0.06954678893089294,
				0.14777660369873047,
				0.6104801297187805,
				-0.5531041026115417,
				0.33620887994766235,
				0.056722335517406464,
				1.5344825983047485
			],
			[
				0.4000953435897827,
				-0.14330676198005676,
				0.05944930016994476,
				-0.7879811525344849,
				0.21427097916603088,
				-0.22233814001083374,
				0.33985045552253723,
				-0.3988005220890045
			],
			[
				0.47435855865478516,
				-0.49467670917510986,
				0.24370265007019043,
				0.08912134170532227,
				0.16337740421295166,
				-0.3284105062484741,
				0.12615251541137695,
				-0.12772607803344727
			],
			[
				-0.16701877117156982,
				-0.17091955244541168,
				4.105289936065674,
				5.403773307800293,
				0.09927114099264145,
				4.830954074859619,
				-0.3681107759475708,
				5.366971015930176
			],
			[
				-0.16924285888671875,
				0.331121027469635,
				0.040324389934539795,
				2.361015558242798,
				0.26937127113342285,
				0.19059933722019196,
				-0.1684093326330185,
				2.307210922241211
			],
			[
				-0.12343502044677734,
				0.4045213758945465,
				0.003306932980194688,
				0.36528149247169495,
				-1.2153536081314087,
				0.18991972506046295,
				0.3369153141975403,
				1.0002782344818115
			],
			[
				0.3981548547744751,
				0.13846826553344727,
				-0.21170282363891602,
				-0.399261474609375,
				0.1429457664489746,
				0.4011143445968628,
				0.26006221771240234,
				0.27692294120788574
			],
			[
				-0.4775106906890869,
				0.03221304342150688,
				0.07539231330156326,
				-1.0161163806915283,
				0.15211710333824158,
				0.3219852149486542,
				-0.4701213538646698,
				0.07409930974245071
			],
			[
				-0.44711339473724365,
				-0.28160274028778076,
				0.2574862241744995,
				-0.6807352304458618,
				-0.4192822277545929,
				0.03176683187484741,
				0.17331361770629883,
				0.6716281771659851
			]
		],
		"weight_2": -1,
		"weight_3": -5.403773307800293,
		"weight_4": 5.403773307800293,
		"weight_5": -1.0344233678196528e-30,
		"weight_6": 12.014901161193848
	},
	"layer_3": {
		"weight_0": [
			0.0072350818663835526,
			0.3707243800163269,
			0.0,
			0.009240451268851757
		],
		"weight_1": [
			[
				-0.4040581285953522,
				0.17561125755310059,
				0.5921980738639832,
				-0.2786462903022766
			],
			[
				0.10362520068883896,
				-0.49981385469436646,
				0.21172213554382324,
				-0.15194059908390045
			],
			[
				-0.04576340690255165,
				-2.1174919605255127,
				-0.6915206909179688,
				0.8538486957550049
			],
			[
				3.4559621810913086,
				0.6879356503486633,
				0.3391464352607727,
				3.938307046890259
			],
			[
				-1.0992671251296997,
				0.6280107498168945,
				-0.4020403027534485,
				-1.2089170217514038
			],
			[
				0.9977327585220337,
				-0.9131013751029968,
				-0.4474247097969055,
				1.2540316581726074
			],
			[
				0.667429506778717,
				-0.5031591653823853,
				0.5507004857063293,
				-0.5414026379585266
			],
			[
				1.7628105878829956,
				0.48057588934898376,
				-0.5211329460144043,
				1.7705464363098145
			]
		],
		"weight_2": -1,
		"weight_3": -3.936347007751465,
		"weight_4": 3.936347007751465,
		"weight_5": -1.0344233678196528e-30,
		"weight_6": 36.915714263916016
	},
	"layer_4": {
		"weight_0": [
			0.02942410483956337
		],
		"weight_1": [
			[
				2.0040669441223145
			],
			[
				-2.9077022075653076
			],
			[
				0.9801247119903564
			],
			[
				2.2146072387695312
			]
		],
		"weight_2": -1,
		"weight_3": -2.909014940261841,
		"weight_4": 2.909014940261841,
		"weight_5": -1.0344233678196528e-30,
		"weight_6": 140.58067321777344
	}
}