{
	"layer_0": {
		"weight_0": [
			[
				0.28195640444755554,
				-0.050344228744506836,
				0.4096904695034027,
				0.5387821197509766,
				0.14090275764465332,
				0.46337348222732544,
				-0.05782114714384079,
				0.16330400109291077,
				0.24962200224399567,
				-0.19804900884628296,
				0.02851606346666813,
				0.20407113432884216,
				-0.35473933815956116,
				0.02612469159066677,
				-0.30789613723754883,
				0.08509655296802521
			],
			[
				-0.3418721556663513,
				-0.41436564922332764,
				-0.22984471917152405,
				0.19428449869155884,
				0.45326748490333557,
				-0.32446566224098206,
				0.4942477345466614,
				-0.32129743695259094,
				0.5810711979866028,
				-0.1488255262374878,
				-0.45803922414779663,
				0.32013389468193054,
				0.4657060205936432,
				-0.43794241547584534,
				0.0246509350836277,
				-0.3460697829723358
			]
		],
		"weight_1": [
			-0.03404497727751732,
			0.0,
			-0.022613801062107086,
			-0.02626906707882881,
			-0.00722369272261858,
			0.023136476054787636,
			0.028746742755174637,
			-0.026853619143366814,
			0.030077366158366203,
			0.0,
			0.003962254151701927,
			0.029217999428510666,
			-0.01080325711518526,
			0.005913965404033661,
			0.011552510783076286,
			-0.02897196263074875
		]
	},
	"layer_1": {
		"weight_0": [
			[
				0.5278331637382507,
				-0.10569446533918381,
				0.3663639426231384,
				-0.31262385845184326,
				-0.11125660687685013,
				-0.1762605607509613,
				0.4684634208679199,
				-0.2632629871368408
			],
			[
				-0.1655503511428833,
				-0.11585044860839844,
				0.1016685962677002,
				-0.10610818862915039,
				-0.16324269771575928,
				0.06486237049102783,
				0.38678205013275146,
				-0.3252304792404175
			],
			[
				-0.22042308747768402,
				0.3684278726577759,
				-0.09856462478637695,
				-0.0719214677810669,
				-0.2557065188884735,
				0.30288058519363403,
				0.4825749397277832,
				-0.09842550754547119
			],
			[
				0.38649609684944153,
				0.41235142946243286,
				0.20448686182498932,
				-0.3316746950149536,
				-0.3827729821205139,
				-0.2625885307788849,
				-0.2167566865682602,
				-0.4893759489059448
			],
			[
				-0.1521933525800705,
				-0.37126827239990234,
				0.4384617805480957,
				-0.1566537618637085,
				0.3489522635936737,
				0.09116289764642715,
				-0.39286693930625916,
				-0.29475927352905273
			],
			[
				-0.33330976963043213,
				-0.20009499788284302,
				-0.02864358015358448,
				0.4520933926105499,
				0.24310870468616486,
				0.24420838057994843,
				-0.3571183979511261,
				-0.14450275897979736
			],
			[
				0.2176927924156189,
				-0.36674609780311584,
				-0.004232642240822315,
				-0.48912039399147034,
				0.20540933310985565,
				0.3335762619972229,
				0.28017300367355347,
				-0.05277609825134277
			],
			[
				-0.3602024018764496,
				0.3106578588485718,
				-0.00044419453479349613,
				-0.45175743103027344,
				-0.2205529808998108,
				0.3832613527774811,
				-0.09567761421203613,
				0.27946484088897705
			],
			[
				-0.15862464904785156,
				-0.3502397835254669,
				0.2719332277774811,
				-0.30460599064826965,
				0.4874268174171448,
				0.022697018459439278,
				0.1905726045370102,
				-0.177831768989563
			],
			[
				0.021532297134399414,
				0.23149621486663818,
				-0.49325311183929443,
				-0.46754539012908936,
				0.19701933860778809,
				-0.1759556531906128,
				0.05471813678741455,
				0.3029189109802246
			],
			[
				-0.05054781958460808,
				0.10875678062438965,
				-0.06965155154466629,
				0.22943352162837982,
				-0.01880585588514805,
				0.23786744475364685,
				-0.2555251121520996,
				0.35061705112457275
			],
			[
				0.5140275955200195,
				-0.17038583755493164,
				0.4183979332447052,
				0.3986014127731323,
				0.12428272515535355,
				-0.051091697067022324,
				-0.03924207761883736,
				-0.2528036832809448
			],
			[
				0.1454848051071167,
				-0.2560007572174072,
				0.3357774317264557,
				0.06253576278686523,
				-0.4882735311985016,
				-0.47202548384666443,
				-0.44376009702682495,
				-0.13554561138153076
			],
			[
				0.23166942596435547,
				0.2721431255340576,
				-0.21787291765213013,
				0.36266836524009705,
				-0.39612212777137756,
				-0.12372314184904099,
				-0.19534003734588623,
				-0.0637519359588623
			],
			[
				-0.018212061375379562,
				0.18657171726226807,
				-0.3009238839149475,
				0.2164229452610016,
				0.5023781061172485,
				0.3712894022464752,
				0.15115155279636383,
				-0.3637993335723877
			],
			[
				0.2754441499710083,
				-0.2678096890449524,
				0.30595698952674866,
				-0.36039090156555176,
				-0.2545008361339569,
				-0.40316224098205566,
				-0.4312291741371155,
				0.12006473541259766
			]
		],
		"weight_1": [
			0.02522740699350834,
			-0.012612932361662388,
			-0.02421753853559494,
			0.003162180073559284,
			0.027519023045897484,
			0.028454262763261795,
			-0.008415263146162033,
			0.0
		]
	},
	"layer_2": {
		"weight_0": [
			[
				-0.1451655626296997,
				-0.28468057513237,
				-0.40028712153434753,
				-0.28656986355781555
			],
			[
				0.6883529424667358,
				0.07573775202035904,
				-0.08436606079339981,
				0.4466446042060852
			],
			[
				-0.05711875855922699,
				0.3524503707885742,
				0.027699749916791916,
				-0.3138384521007538
			],
			[
				-0.09441214799880981,
				0.30816882848739624,
				0.4452664256095886,
				-0.061882078647613525
			],
			[
				-0.38539770245552063,
				-0.6141867637634277,
				-0.18573492765426636,
				0.36889445781707764
			],
			[
				-0.5534976720809937,
				-0.2778465151786804,
				0.6506471633911133,
				-0.12991727888584137
			],
			[
				-0.06231379508972168,
				0.6558874249458313,
				-0.2570784091949463,
				0.5191879272460938
			],
			[
				-0.5015338659286499,
				0.4335210919380188,
				0.5119163393974304,
				0.46955937147140503
			]
		],
		"weight_1": [
			-0.0075390879064798355,
			-0.024366803467273712,
			-0.0225339625030756,
			-0.011240937747061253
		]
	},
	"layer_3": {
		"weight_0": [
			[
				-0.7146159410476685
			],
			[
				-0.9605018496513367
			],
			[
				-0.2310861200094223
			],
			[
				-0.07047735154628754
			]
		],
		"weight_1": [
			2.3635382652282715
		]
	}
}