{
	"layer_0": {
		"weight_0": [
			[
				0.005942663177847862,
				0.8407998085021973,
				-0.17306092381477356,
				-0.18652941286563873,
				2.155085802078247,
				2.1419248580932617,
				-0.004718488547950983,
				0.731745183467865,
				-0.49265068769454956,
				1.2481821775436401,
				-0.22642835974693298,
				-0.21976205706596375,
				-0.4035548269748688,
				1.812181830406189,
				-0.3235589265823364,
				1.0008465051651
			],
			[
				-0.0960497260093689,
				-3.990204095840454,
				-0.4630831182003021,
				0.06874076277017593,
				-0.3170783221721649,
				-0.5472865104675293,
				0.10803517699241638,
				-6.119252681732178,
				-0.1415509581565857,
				0.5221221446990967,
				-0.27319392561912537,
				-0.05827385187149048,
				-0.11515334248542786,
				-0.5892163515090942,
				-0.5464034080505371,
				-2.716339349746704
			]
		],
		"weight_1": [
			-0.0031622732058167458,
			0.5675031542778015,
			0.0,
			-0.07127504795789719,
			1.0005590915679932,
			1.0110708475112915,
			-0.10867956280708313,
			0.2887479364871979,
			0.0,
			1.1961125135421753,
			0.0,
			0.0,
			0.0,
			1.2848058938980103,
			0.0,
			0.9558647274971008
		]
	},
	"layer_1": {
		"weight_0": [
			[
				0.2621539831161499,
				0.23702549934387207,
				-0.30344128608703613,
				0.4323418140411377,
				-0.20285770297050476,
				0.09177792072296143,
				0.10372328758239746,
				-0.13006098568439484
			],
			[
				0.0015312692848965526,
				-0.13524390757083893,
				0.27279043197631836,
				0.2069239616394043,
				2.7730977535247803,
				-0.3233351707458496,
				-1.0824180841445923,
				2.752831220626831
			],
			[
				-0.4389469623565674,
				-0.09766864776611328,
				-0.4678609371185303,
				-0.38558030128479004,
				-0.016200900077819824,
				-0.33096277713775635,
				0.2518845796585083,
				0.10813629627227783
			],
			[
				-0.5076236724853516,
				-0.2920290231704712,
				-0.36585772037506104,
				-0.3988410234451294,
				-0.2423536479473114,
				-0.11848251521587372,
				-0.4439736306667328,
				0.2983455955982208
			],
			[
				0.2324908822774887,
				0.26724469661712646,
				-0.39871811866760254,
				-0.191567063331604,
				1.2677401304244995,
				-0.12168413400650024,
				0.004847515840083361,
				1.1656240224838257
			],
			[
				-0.3243594467639923,
				-0.371309757232666,
				-0.2570232152938843,
				-0.467617392539978,
				1.3848413228988647,
				-0.1375272572040558,
				-0.1331571489572525,
				1.185539960861206
			],
			[
				0.39707380533218384,
				0.36553704738616943,
				-0.2526578903198242,
				0.4869823455810547,
				-0.2933836877346039,
				-0.505277693271637,
				-0.15119510889053345,
				0.15078245103359222
			],
			[
				0.09332597255706787,
				-0.243660569190979,
				0.21175086498260498,
				0.0576397180557251,
				5.715587139129639,
				-2.9766743183135986,
				-3.4027583599090576,
				5.242542266845703
			],
			[
				0.07033705711364746,
				0.09164261817932129,
				-0.25380098819732666,
				0.24519801139831543,
				-0.21097791194915771,
				-0.35043013095855713,
				-0.2360478639602661,
				-0.06694400310516357
			],
			[
				-0.27636393904685974,
				-0.43631768226623535,
				-0.25769245624542236,
				-0.35390257835388184,
				0.5200843214988708,
				0.8043209314346313,
				1.1314305067062378,
				0.1978587955236435
			],
			[
				-0.41487109661102295,
				0.45525217056274414,
				-0.4863933324813843,
				0.39669620990753174,
				-0.1340707540512085,
				0.13043665885925293,
				-0.1335742473602295,
				-0.41031861305236816
			],
			[
				-0.3362613916397095,
				0.36015117168426514,
				0.2969033718109131,
				-0.14056766033172607,
				-0.4226653575897217,
				-0.3620983362197876,
				0.37598419189453125,
				-0.14179503917694092
			],
			[
				0.43521761894226074,
				0.13618910312652588,
				0.11936533451080322,
				-0.3230478763580322,
				0.2567121982574463,
				-0.3966813087463379,
				0.01002204418182373,
				-0.1153939962387085
			],
			[
				0.16069376468658447,
				-0.23414434492588043,
				0.14493703842163086,
				-0.3125725984573364,
				1.0463738441467285,
				0.571748673915863,
				0.31216010451316833,
				1.416242241859436
			],
			[
				0.27626335620880127,
				-0.1439300775527954,
				-0.3819352388381958,
				0.06457734107971191,
				-0.014883279800415039,
				-0.18785834312438965,
				-0.46767425537109375,
				-0.11540675163269043
			],
			[
				0.059754155576229095,
				-0.18674683570861816,
				-0.260215163230896,
				-0.38405096530914307,
				1.3666483163833618,
				-0.6304315328598022,
				-0.09449481964111328,
				1.4122862815856934
			]
		],
		"weight_1": [
			-0.02240676060318947,
			-0.003162277629598975,
			0.0,
			0.0,
			1.1453313827514648,
			0.15104979276657104,
			-0.05130484327673912,
			1.1050922870635986
		]
	},
	"layer_2": {
		"weight_0": [
			[
				0.2931249141693115,
				0.46373823285102844,
				0.6593665480613708,
				-0.15426063537597656
			],
			[
				-0.32433727383613586,
				0.0548865869641304,
				-0.15341204404830933,
				0.6950257420539856
			],
			[
				-0.7001080513000488,
				0.45206135511398315,
				0.701116144657135,
				-0.6683894991874695
			],
			[
				0.14960968494415283,
				0.19852107763290405,
				0.34560734033584595,
				0.26280415058135986
			],
			[
				2.101884365081787,
				-0.06819462031126022,
				0.18153297901153564,
				0.21476100385189056
			],
			[
				-1.632124662399292,
				0.3027954697608948,
				1.842145323753357,
				-0.6278572082519531
			],
			[
				-3.006115198135376,
				-0.3687850534915924,
				0.9965460896492004,
				-0.505994439125061
			],
			[
				1.610227108001709,
				-0.10575760900974274,
				-0.1524367481470108,
				-0.218486949801445
			]
		],
		"weight_1": [
			1.152777910232544,
			-0.006358581595122814,
			0.1047421470284462,
			-0.1938885897397995
		]
	},
	"layer_3": {
		"weight_0": [
			[
				2.694460391998291
			],
			[
				-0.44077661633491516
			],
			[
				-1.730372428894043
			],
			[
				-0.34743306040763855
			]
		],
		"weight_1": [
			1.151316523551941
		]
	}
}