{
	"layer_0": {
		"weight_0": [
			[
				0.08500286936759949,
				-0.1897924244403839,
				1.2333283424377441,
				0.9878643155097961,
				0.5477822422981262,
				0.58113032579422,
				0.877606213092804,
				-0.02366703748703003,
				-0.3569762110710144,
				0.7494555115699768,
				0.16477233171463013,
				0.9339357614517212,
				-0.2126559615135193,
				0.5788365006446838,
				0.9718848466873169,
				1.2945873737335205
			],
			[
				-0.18927618861198425,
				-0.19139176607131958,
				-0.3209337592124939,
				-0.9888497591018677,
				-0.45037397742271423,
				-1.1261930465698242,
				-0.6108708381652832,
				-0.007742583751678467,
				-0.016868174076080322,
				-1.6174381971359253,
				-0.5217126607894897,
				-1.681990385055542,
				-0.4089420735836029,
				-0.7500167489051819,
				-0.6811065077781677,
				-0.5914032459259033
			]
		],
		"weight_1": [
			-0.06582745164632797,
			0.0,
			0.6795032024383545,
			0.6977869868278503,
			0.6644032597541809,
			0.26825547218322754,
			0.6909984350204468,
			0.0,
			0.0,
			0.4857012927532196,
			-0.09541004151105881,
			0.5307666063308716,
			0.0,
			0.7007019519805908,
			0.6931388974189758,
			0.6811748147010803
		]
	},
	"layer_1": {
		"weight_0": [
			[
				-0.01652802713215351,
				0.05691397190093994,
				0.019256221130490303,
				-0.3543168306350708,
				-0.3148069381713867,
				-0.06405580043792725,
				0.45399320125579834,
				-0.4182116687297821
			],
			[
				-0.25723326206207275,
				-0.4922811985015869,
				-0.48741865158081055,
				-0.11547386646270752,
				0.402446985244751,
				-0.404796838760376,
				0.1369551420211792,
				0.3782716989517212
			],
			[
				0.535203218460083,
				-0.4546613097190857,
				0.24479840695858002,
				-0.3017385005950928,
				-0.46299540996551514,
				-0.4744192361831665,
				-0.2949267625808716,
				0.7322989106178284
			],
			[
				1.0471490621566772,
				-0.3457337021827698,
				-0.23415836691856384,
				-0.12841320037841797,
				-0.2837812900543213,
				-0.22140157222747803,
				0.3741105794906616,
				1.6006871461868286
			],
			[
				0.416755735874176,
				0.3281210958957672,
				-0.5165122151374817,
				-0.02053546905517578,
				0.37744224071502686,
				0.49792206287384033,
				0.3134799003601074,
				0.061022575944662094
			],
			[
				0.9031614661216736,
				-0.45365965366363525,
				-0.350222110748291,
				-0.2819242477416992,
				0.020216941833496094,
				-0.18061470985412598,
				-0.18191134929656982,
				1.0312741994857788
			],
			[
				0.9559044241905212,
				-0.32388606667518616,
				-0.21575602889060974,
				-0.24627423286437988,
				-0.06724417209625244,
				-0.40139472484588623,
				-0.28769516944885254,
				0.31490272283554077
			],
			[
				-0.20175468921661377,
				-0.3600804805755615,
				0.47941577434539795,
				0.42703473567962646,
				-0.33997058868408203,
				0.1707477569580078,
				-0.04752242565155029,
				0.21661627292633057
			],
			[
				-0.23884356021881104,
				0.17181766033172607,
				0.15464353561401367,
				0.05547308921813965,
				-0.4211519956588745,
				-0.2650099992752075,
				0.026638031005859375,
				0.44929325580596924
			],
			[
				1.4850139617919922,
				0.44630908966064453,
				-0.5508363246917725,
				-0.3826087713241577,
				-0.4569859504699707,
				0.3412395715713501,
				-0.4705085754394531,
				2.178744316101074
			],
			[
				-0.26245200634002686,
				0.050989747047424316,
				-0.2260490506887436,
				-0.22607314586639404,
				0.20143568515777588,
				0.23084592819213867,
				0.39449524879455566,
				-0.07128086686134338
			],
			[
				1.5301220417022705,
				0.263233482837677,
				-0.30027085542678833,
				0.2870497703552246,
				0.40199244022369385,
				-0.2694200277328491,
				0.07277560234069824,
				1.903658151626587
			],
			[
				-0.47230374813079834,
				0.29936087131500244,
				-0.30743420124053955,
				-0.4194754362106323,
				-0.09822094440460205,
				-0.22494304180145264,
				0.4146963357925415,
				0.13323771953582764
			],
			[
				0.9133153557777405,
				0.2302026003599167,
				0.3033563494682312,
				-0.0988854169845581,
				-0.2318570613861084,
				-0.477530837059021,
				-0.3116039037704468,
				1.166036605834961
			],
			[
				0.9779171943664551,
				0.002527173375710845,
				-0.003922048956155777,
				0.11078548431396484,
				-0.11516809463500977,
				-0.31969499588012695,
				0.021958589553833008,
				0.5171133875846863
			],
			[
				1.0261930227279663,
				-0.03370973840355873,
				0.19678841531276703,
				0.30479955673217773,
				-0.3485623598098755,
				0.1781904697418213,
				0.016721487045288086,
				0.7461654543876648
			]
		],
		"weight_1": [
			0.67148756980896,
			-0.02770807594060898,
			-0.06532524526119232,
			0.0,
			0.0,
			0.0,
			0.0,
			0.6710048317909241
		]
	},
	"layer_2": {
		"weight_0": [
			[
				-0.6465436220169067,
				-0.46095752716064453,
				1.517409086227417,
				1.3967280387878418
			],
			[
				0.47039705514907837,
				-0.3460520803928375,
				-0.15319769084453583,
				-0.3221401870250702
			],
			[
				0.4052702784538269,
				0.39294344186782837,
				-0.18612731993198395,
				0.13616304099559784
			],
			[
				0.48107022047042847,
				-0.14363479614257812,
				-0.5857858657836914,
				-0.32541143894195557
			],
			[
				0.558219850063324,
				-0.2549724280834198,
				0.38557785749435425,
				-0.3368033766746521
			],
			[
				-0.3096466660499573,
				0.06668746471405029,
				0.5397271513938904,
				0.4473668932914734
			],
			[
				0.1405346393585205,
				-0.2400878369808197,
				0.35712915658950806,
				-0.3875712752342224
			],
			[
				-0.022131621837615967,
				-0.07200318574905396,
				1.6468487977981567,
				1.7510831356048584
			]
		],
		"weight_1": [
			0.0,
			0.0,
			0.6653174161911011,
			0.6645790338516235
		]
	},
	"layer_3": {
		"weight_0": [
			[
				0.7018961906433105
			],
			[
				-0.6836103200912476
			],
			[
				1.410035490989685
			],
			[
				1.4794232845306396
			]
		],
		"weight_1": [
			0.6572092771530151
		]
	}
}