{
	"layer_0": {
		"weight_0": [
			[
				0.1495407670736313,
				1.4467439651489258,
				-0.18959268927574158,
				0.1507812738418579,
				0.6820113062858582,
				-0.0022095171734690666,
				-0.016024529933929443,
				0.9709513783454895,
				0.5298908948898315,
				-0.26284176111221313,
				1.6131666898727417,
				-0.5664815306663513,
				0.588985800743103,
				5.081076622009277,
				-0.4674627482891083,
				0.5508063435554504
			],
			[
				-0.01972881704568863,
				-0.6645563840866089,
				-0.392103910446167,
				-0.1585269570350647,
				-6.728689193725586,
				-0.021229207515716553,
				-0.3648977279663086,
				-0.993066668510437,
				-4.9075188636779785,
				-0.36879655718803406,
				-0.3667629659175873,
				-1.1103439331054688,
				-2.193902015686035,
				-0.00397410849109292,
				-0.5042040348052979,
				-3.612985849380493
			]
		],
		"weight_1": [
			-0.15182046592235565,
			0.3495313227176666,
			0.0,
			-0.13449764251708984,
			0.2001218944787979,
			-0.0031622746028006077,
			0.0,
			0.3227103054523468,
			0.3405970335006714,
			0.0,
			0.3535124659538269,
			1.5034323930740356,
			0.6580055356025696,
			0.01216263510286808,
			0.0,
			0.5286653637886047
		]
	},
	"layer_1": {},
	"layer_2": {
		"weight_0": [
			[
				-0.31203025579452515,
				-0.001975992461666465,
				0.047641776502132416,
				-0.11006367206573486,
				-0.4212923049926758,
				-0.10891270637512207,
				-0.08499547094106674,
				-0.4432840943336487
			],
			[
				0.6277745962142944,
				0.17532286047935486,
				-0.048131316900253296,
				-0.08452610671520233,
				-0.4107930660247803,
				1.078958511352539,
				0.8985870480537415,
				-0.4279022216796875
			],
			[
				-0.22567129135131836,
				-0.4326847791671753,
				-0.08392846584320068,
				0.44768548011779785,
				0.017614364624023438,
				-0.20363450050354004,
				-0.48303699493408203,
				0.32887160778045654
			],
			[
				-0.17063024640083313,
				-0.23323488235473633,
				0.23806481063365936,
				0.367443323135376,
				0.09277200698852539,
				-0.35390323400497437,
				-0.016765449196100235,
				-0.47022974491119385
			],
			[
				4.974636077880859,
				0.17594213783740997,
				-0.14028839766979218,
				-0.32729673385620117,
				-0.4586571455001831,
				5.359733581542969,
				4.7692437171936035,
				-1.1253437995910645
			],
			[
				-0.33539387583732605,
				0.24816548824310303,
				-0.2880103588104248,
				-0.22998666763305664,
				-0.04916274547576904,
				-0.21828985214233398,
				-0.27882328629493713,
				0.3863964080810547
			],
			[
				0.3291131258010864,
				-0.42046427726745605,
				0.10936689376831055,
				0.31393444538116455,
				-0.35052359104156494,
				0.0672997236251831,
				0.42504000663757324,
				0.22485578060150146
			],
			[
				0.5118595957756042,
				-0.18470659852027893,
				-0.012771603651344776,
				0.02008989080786705,
				-0.3796338140964508,
				1.039611577987671,
				0.9578689336776733,
				-0.005381392315030098
			],
			[
				3.4717917442321777,
				0.9300656914710999,
				0.17525042593479156,
				0.2176647186279297,
				-1.4574954509735107,
				3.3202321529388428,
				4.031879901885986,
				-0.23607675731182098
			],
			[
				0.1591203212738037,
				-0.3857959508895874,
				0.049271464347839355,
				0.3614926338195801,
				0.14307022094726562,
				-0.23325848579406738,
				-0.07107746601104736,
				0.2949026823043823
			],
			[
				0.41406410932540894,
				-0.739520788192749,
				0.4059649705886841,
				-0.5534228682518005,
				-0.17327359318733215,
				0.9023436903953552,
				0.6099343299865723,
				-0.7523663640022278
			],
			[
				1.4084550142288208,
				0.4727405309677124,
				-0.07166612148284912,
				0.22683961689472198,
				0.748176097869873,
				-0.06577862799167633,
				-0.8749444484710693,
				1.1319204568862915
			],
			[
				1.7356197834014893,
				0.9458039402961731,
				-0.21379444003105164,
				-0.2597734332084656,
				-0.03855996951460838,
				1.5704833269119263,
				0.6436998844146729,
				0.9821111559867859
			],
			[
				-0.46753057837486267,
				-5.153050422668457,
				-0.38956743478775024,
				-0.2976228594779968,
				-0.08970972150564194,
				0.3818882703781128,
				1.6051506996154785,
				-4.086910724639893
			],
			[
				-0.489399790763855,
				-0.10891377925872803,
				-0.42596757411956787,
				0.4877084493637085,
				-0.02070021629333496,
				0.14818477630615234,
				-0.49452507495880127,
				0.43062376976013184
			],
			[
				2.029405117034912,
				0.8256310224533081,
				0.28738194704055786,
				-0.4097238779067993,
				-2.269101142883301,
				2.9211180210113525,
				3.3462836742401123,
				1.1532504558563232
			]
		],
		"weight_1": [
			1.0788177251815796,
			0.07804080843925476,
			-0.05917100980877876,
			-0.1309862583875656,
			0.41952139139175415,
			-0.0028273980133235455,
			-0.22564297914505005,
			0.7412264347076416
		]
	},
	"layer_3": {},
	"layer_4": {
		"weight_0": [
			[
				1.911930799484253,
				0.9692915678024292,
				-1.1809850931167603,
				-0.41483741998672485
			],
			[
				-2.9609179496765137,
				-2.7654402256011963,
				-0.03322665020823479,
				-1.1590334177017212
			],
			[
				-0.5597919821739197,
				0.4444013833999634,
				-0.3244898319244385,
				0.1420465111732483
			],
			[
				0.2974434196949005,
				0.18492120504379272,
				-0.10379034280776978,
				-0.12167203426361084
			],
			[
				1.5272488594055176,
				1.6024162769317627,
				3.7077081203460693,
				0.810096263885498
			],
			[
				1.7148362398147583,
				1.7046000957489014,
				0.3769201934337616,
				-0.8022867441177368
			],
			[
				1.7348659038543701,
				2.1796932220458984,
				1.1486825942993164,
				0.5477961301803589
			],
			[
				-3.0152320861816406,
				-2.4156265258789062,
				0.02064095251262188,
				0.8474929928779602
			]
		],
		"weight_1": [
			0.20632995665073395,
			0.25701865553855896,
			-2.4301488399505615,
			0.19772322475910187
		]
	},
	"layer_5": {},
	"layer_6": {
		"weight_0": [
			[
				1.9776015281677246
			],
			[
				1.8713525533676147
			],
			[
				-5.124703407287598
			],
			[
				1.0718718767166138
			]
		],
		"weight_1": [
			0.19315999746322632
		]
	}
}