{
	"layer_0": {
		"weight_0": [
			[
				0.8106527924537659,
				-0.09849053621292114,
				-0.2425200641155243,
				-0.5521060228347778,
				0.7172482013702393,
				1.3479194641113281,
				0.47635436058044434,
				1.1346145868301392,
				0.6721140146255493,
				-0.27783843874931335,
				0.7600318789482117,
				0.7652892470359802,
				0.4488756060600281,
				-0.38282251358032227,
				0.2604731321334839,
				0.30015721917152405
			],
			[
				0.021925708279013634,
				-0.057817697525024414,
				-0.005708277225494385,
				-0.017625808715820312,
				-1.5463114976882935,
				0.09189174324274063,
				-1.7735008001327515,
				-0.3256783187389374,
				0.711868941783905,
				1.3884080648422241,
				-0.594529926776886,
				-0.41097065806388855,
				-0.3321579694747925,
				-0.5243850350379944,
				-0.30458617210388184,
				-0.7658111453056335
			]
		],
		"weight_1": [
			0.6552199721336365,
			0.0,
			0.0,
			0.0,
			0.3898725211620331,
			0.6684648394584656,
			0.38130825757980347,
			0.5441700220108032,
			0.931298553943634,
			0.2402113527059555,
			0.6337868571281433,
			0.6347406506538391,
			0.6699098348617554,
			0.0,
			0.583892285823822,
			-0.20193646848201752
		]
	},
	"layer_1": {
		"weight_0": [
			[
				-0.3448643684387207,
				0.5318078398704529,
				0.013786626979708672,
				0.2546168267726898,
				0.5729357600212097,
				0.27202752232551575,
				0.2634696364402771,
				-0.07821116596460342
			],
			[
				0.20217525959014893,
				0.11043405532836914,
				0.04630589485168457,
				0.013901829719543457,
				-0.31294775009155273,
				0.06950509548187256,
				-0.1942540407180786,
				0.0842897891998291
			],
			[
				0.30490195751190186,
				0.27089571952819824,
				-0.32077741622924805,
				-0.2832561731338501,
				0.11341118812561035,
				0.06974279880523682,
				0.3663289546966553,
				-0.26034772396087646
			],
			[
				0.2679879665374756,
				-0.25805771350860596,
				-0.02713298797607422,
				-0.19924867153167725,
				0.25826358795166016,
				0.2963228225708008,
				-0.46973860263824463,
				0.004124879837036133
			],
			[
				0.3037828207015991,
				1.01953125,
				-0.29657354950904846,
				1.4156584739685059,
				1.2145286798477173,
				0.11531625688076019,
				1.6020430326461792,
				1.4172240495681763
			],
			[
				-0.44656431674957275,
				0.18213613331317902,
				0.07288939505815506,
				0.003938974346965551,
				0.73516845703125,
				-0.323051780462265,
				0.7510179877281189,
				-0.22521519660949707
			],
			[
				-0.005912303924560547,
				2.15236496925354,
				0.07237088680267334,
				2.205960750579834,
				2.042348623275757,
				0.03581957519054413,
				1.631941556930542,
				1.688583493232727
			],
			[
				0.1644347906112671,
				0.5870898365974426,
				-0.046330180019140244,
				0.6453673243522644,
				0.2382732480764389,
				-0.2660270929336548,
				1.0326042175292969,
				0.4778103828430176
			],
			[
				-0.23309504985809326,
				0.019233478233218193,
				-0.15859781205654144,
				0.4574483335018158,
				0.3677022159099579,
				-0.36592793464660645,
				-0.3372080326080322,
				-0.4009242653846741
			],
			[
				0.13617360591888428,
				-0.9354270696640015,
				-0.31746137142181396,
				-0.7971590757369995,
				-1.2344756126403809,
				-0.09564626216888428,
				-1.2780886888504028,
				-1.5622369050979614
			],
			[
				-0.08079326152801514,
				0.5017592906951904,
				-0.005064529366791248,
				1.1721916198730469,
				1.1230443716049194,
				0.03952588140964508,
				1.0501667261123657,
				0.6866392493247986
			],
			[
				-0.02991199493408203,
				0.26332777738571167,
				0.1646110564470291,
				0.9264227151870728,
				1.1086632013320923,
				0.3725300133228302,
				0.5650981068611145,
				0.3177691698074341
			],
			[
				0.36221814155578613,
				0.9708600044250488,
				-0.3691970109939575,
				0.5950847864151001,
				0.7321473956108093,
				0.31194648146629333,
				0.9192885160446167,
				0.1357312947511673
			],
			[
				-0.35896992683410645,
				-0.4918140172958374,
				0.38561153411865234,
				-0.07722508907318115,
				-0.39288949966430664,
				-0.1575857400894165,
				0.4564330577850342,
				-0.4507443904876709
			],
			[
				-0.40406060218811035,
				0.5261859893798828,
				-0.17188817262649536,
				-0.07045191526412964,
				0.15604360401630402,
				-0.16144850850105286,
				0.3484271168708801,
				0.3509413003921509
			],
			[
				-0.004255533218383789,
				0.37955883145332336,
				0.1674722284078598,
				-0.20215459167957306,
				-0.30907031893730164,
				-0.29711395502090454,
				-0.021436374634504318,
				0.18072450160980225
			]
		],
		"weight_1": [
			0.0,
			0.6669585704803467,
			-0.03857716545462608,
			0.5558705925941467,
			0.644267737865448,
			-0.04676230624318123,
			0.6602591872215271,
			0.3574192523956299
		]
	},
	"layer_2": {
		"weight_0": [
			[
				-0.026881933212280273,
				0.05189543962478638,
				0.45304256677627563,
				0.450019896030426
			],
			[
				1.559821605682373,
				0.7834964394569397,
				0.6235079169273376,
				-0.5771499276161194
			],
			[
				0.35518044233322144,
				-0.18039937317371368,
				0.2965833246707916,
				0.3105957508087158
			],
			[
				1.6213552951812744,
				0.3664221465587616,
				0.4521688222885132,
				0.279265433549881
			],
			[
				1.5045222043991089,
				1.2822272777557373,
				0.6972292065620422,
				-0.6755304336547852
			],
			[
				-0.5587249398231506,
				0.38926389813423157,
				0.4456728398799896,
				0.2895611524581909
			],
			[
				1.2564351558685303,
				1.280644178390503,
				1.1087965965270996,
				0.32598769664764404
			],
			[
				0.77298903465271,
				1.4983503818511963,
				1.1414082050323486,
				0.24520549178123474
			]
		],
		"weight_1": [
			0.6343485116958618,
			0.6326280236244202,
			0.1755097210407257,
			-0.015872830525040627
		]
	},
	"layer_3": {
		"weight_0": [
			[
				1.1848961114883423
			],
			[
				1.302995204925537
			],
			[
				0.708375096321106
			],
			[
				0.00011911888577742502
			]
		],
		"weight_1": [
			0.6240788102149963
		]
	}
}