{
	"layer_0": {
		"weight_0": 0.0,
		"weight_1": 1.0,
		"weight_2": -1
	},
	"layer_1": {
		"weight_0": [
			0.7807387709617615,
			0.0,
			0.558784008026123,
			0.6748731136322021,
			0.654708206653595,
			0.0,
			0.15784060955047607,
			0.6881476044654846,
			0.6583331823348999,
			0.2543734610080719,
			0.6718796491622925,
			0.4585638642311096,
			0.7624313235282898,
			0.7137306928634644,
			0.722623884677887,
			0.1427626758813858
		],
		"weight_1": [
			[
				0.9261946678161621,
				-0.24728980660438538,
				0.7309272289276123,
				0.9676411151885986,
				0.6866309642791748,
				-0.3564770817756653,
				-0.4740062654018402,
				1.4586645364761353,
				1.0766627788543701,
				-0.03585308417677879,
				1.3593181371688843,
				1.2348428964614868,
				1.0456461906433105,
				0.4680992066860199,
				0.5028193593025208,
				-0.42354699969291687
			],
			[
				0.46045881509780884,
				-0.5139580965042114,
				-1.806208610534668,
				-0.5434674620628357,
				-0.5000308156013489,
				-0.1340177357196808,
				1.64395272731781,
				-0.8520428538322449,
				-0.5684711933135986,
				1.7715312242507935,
				-0.18267928063869476,
				-0.39572274684906006,
				-0.06598266959190369,
				-0.2865017354488373,
				-0.35618534684181213,
				1.5121434926986694
			]
		],
		"weight_2": -1,
		"weight_3": -1.804861307144165,
		"weight_4": 1.804861307144165,
		"weight_5": -0.5658519268035889,
		"weight_6": 2.445383071899414
	},
	"layer_2": {
		"weight_0": [
			0.5173476934432983,
			0.7739468812942505,
			0.761649489402771,
			0.7523321509361267,
			-0.12681502103805542,
			-0.09933585673570633,
			-0.07845580577850342,
			0.7833091616630554
		],
		"weight_1": [
			[
				-0.2889668941497803,
				0.710598349571228,
				0.4359743297100067,
				0.4447705149650574,
				0.03439441695809364,
				0.011051589623093605,
				0.025021493434906006,
				0.583707869052887
			],
			[
				-0.48605215549468994,
				-0.12483465671539307,
				-0.2599579095840454,
				-0.2414076328277588,
				-0.49620163440704346,
				0.3313920497894287,
				0.49701225757598877,
				0.36279594898223877
			],
			[
				1.5449061393737793,
				1.709804892539978,
				1.3038406372070312,
				1.8383032083511353,
				-0.662623405456543,
				-0.41671550273895264,
				0.1760411560535431,
				1.6999529600143433
			],
			[
				0.8836055994033813,
				0.423925518989563,
				0.9985528588294983,
				0.40314197540283203,
				0.12535971403121948,
				0.09232249110937119,
				0.16137546300888062,
				1.010144829750061
			],
			[
				0.36094754934310913,
				-0.14862628281116486,
				0.5399467945098877,
				0.4608556926250458,
				0.4496327042579651,
				-0.2285446673631668,
				0.4025616943836212,
				0.33844295144081116
			],
			[
				0.15691912174224854,
				0.10416364669799805,
				0.23738622665405273,
				0.2002120018005371,
				-0.42831671237945557,
				-0.07414543628692627,
				-0.15824174880981445,
				0.08274292945861816
			],
			[
				-2.3438916206359863,
				-0.5258216857910156,
				-0.9629421234130859,
				-1.0238057374954224,
				0.4036242961883545,
				-0.05084354802966118,
				-0.18852005898952484,
				-0.008612190373241901
			],
			[
				1.0628046989440918,
				0.4557911455631256,
				0.9167526364326477,
				1.1473721265792847,
				-0.18702587485313416,
				0.11800990998744965,
				-0.5783501267433167,
				0.3702119290828705
			],
			[
				0.525625467300415,
				0.6230482459068298,
				0.9075793623924255,
				1.1630932092666626,
				-0.03535591438412666,
				-0.04012078046798706,
				-0.20774787664413452,
				0.7176312208175659
			],
			[
				-1.5171247720718384,
				0.4761764705181122,
				-0.2989283800125122,
				-0.45873478055000305,
				0.340821772813797,
				0.07565207779407501,
				-0.4820651710033417,
				-0.10987729579210281
			],
			[
				0.3556213676929474,
				0.6999742984771729,
				-0.008572590537369251,
				0.4317198097705841,
				-0.05301627889275551,
				0.24770525097846985,
				-0.04820645600557327,
				0.5936189889907837
			],
			[
				0.2993766665458679,
				0.4792877733707428,
				0.29011663794517517,
				1.0721369981765747,
				-0.3012736737728119,
				0.26993685960769653,
				0.20518775284290314,
				0.7308650612831116
			],
			[
				0.07592473179101944,
				1.0482441186904907,
				0.8892337679862976,
				1.0482286214828491,
				0.526340126991272,
				-0.37656930088996887,
				0.04452093318104744,
				1.1210230588912964
			],
			[
				0.31219813227653503,
				0.27499642968177795,
				0.598386287689209,
				0.6784837245941162,
				0.17523354291915894,
				-0.07720553129911423,
				0.1545111984014511,
				-0.0358317606151104
			],
			[
				0.5240830779075623,
				0.5216971039772034,
				0.8020035624504089,
				0.8603382110595703,
				0.5599820017814636,
				-0.5253911018371582,
				-0.28485721349716187,
				0.24193474650382996
			],
			[
				-2.571127414703369,
				-0.37659862637519836,
				-1.1499583721160889,
				-0.9127830862998962,
				0.7028902769088745,
				-0.34687259793281555,
				0.4703262150287628,
				-0.3813280761241913
			]
		],
		"weight_2": -1,
		"weight_3": -2.569617509841919,
		"weight_4": 2.569617509841919,
		"weight_5": -0.5658519268035889,
		"weight_6": 14.037181854248047
	},
	"layer_3": {
		"weight_0": [
			0.7504250407218933,
			0.10449469089508057,
			-0.15573252737522125,
			0.0
		],
		"weight_1": [
			[
				1.9860203266143799,
				-0.656110405921936,
				0.3182765245437622,
				-0.4195769131183624
			],
			[
				1.3841478824615479,
				0.7756483554840088,
				-0.5993239283561707,
				-0.15389752388000488
			],
			[
				1.1617271900177002,
				-0.7586429715156555,
				0.2559954524040222,
				-0.44002169370651245
			],
			[
				1.125244379043579,
				-0.7041581273078918,
				-0.025423744693398476,
				-0.3257077932357788
			],
			[
				-0.7897545695304871,
				0.5342211127281189,
				0.4001590311527252,
				-0.5420922636985779
			],
			[
				-0.10537722706794739,
				0.3926905691623688,
				0.3124655485153198,
				-0.41047996282577515
			],
			[
				-0.0384771004319191,
				0.35044941306114197,
				-0.35118743777275085,
				-0.36796778440475464
			],
			[
				0.7864787578582764,
				0.3729681372642517,
				-0.11741580069065094,
				-0.5281962752342224
			]
		],
		"weight_2": -1,
		"weight_3": -1.9860203266143799,
		"weight_4": 1.9860203266143799,
		"weight_5": -0.5658519268035889,
		"weight_6": 59.9330940246582
	},
	"layer_4": {
		"weight_0": [
			0.7560908794403076
		],
		"weight_1": [
			[
				1.924072265625
			],
			[
				1.1246432065963745
			],
			[
				-0.06645045429468155
			],
			[
				0.7935358285903931
			]
		],
		"weight_2": -1,
		"weight_3": -1.9255839586257935,
		"weight_4": 1.9255839586257935,
		"weight_5": -0.5658519268035889,
		"weight_6": 82.59093475341797
	}
}