{
	"layer_0": {
		"weight_0": [
			[
				-0.0004156827926635742,
				1.0551196336746216,
				-0.14968392252922058,
				0.4498244524002075,
				0.24769166111946106,
				1.115624189376831,
				0.5592484474182129,
				-0.4322747588157654,
				0.2743009626865387,
				-0.4922819137573242,
				-0.1615472435951233,
				0.6950076818466187,
				-0.20306089520454407,
				-0.5038580894470215,
				0.9869442582130432,
				0.6538230776786804
			],
			[
				-0.054837703704833984,
				-0.2912241518497467,
				-0.3180422782897949,
				-1.6874456405639648,
				-0.14278379082679749,
				-0.6700029969215393,
				-1.9387542009353638,
				-0.0801289975643158,
				-0.1545349508523941,
				-0.3155673146247864,
				-0.5083745718002319,
				-0.867924690246582,
				0.04128757864236832,
				-0.2041524350643158,
				-0.549961507320404,
				-1.4941277503967285
			]
		],
		"weight_1": [
			0.0,
			0.537574291229248,
			0.0,
			0.36486831307411194,
			0.545417308807373,
			0.5639540553092957,
			0.3527880907058716,
			0.0,
			0.5544208884239197,
			0.0,
			0.0,
			0.5756091475486755,
			-0.042934104800224304,
			0.0,
			0.45399969816207886,
			0.4063332676887512
		]
	},
	"layer_1": {
		"weight_0": [
			[
				0.37558233737945557,
				-0.2521634101867676,
				-0.007857680320739746,
				-0.23862719535827637,
				0.27133119106292725,
				0.25510406494140625,
				0.4179304838180542,
				0.350111722946167
			],
			[
				-0.4748246967792511,
				-0.011577248573303223,
				0.07898858189582825,
				-0.29618173837661743,
				0.41466024518013,
				0.5229326486587524,
				0.5464076995849609,
				0.37974557280540466
			],
			[
				-0.27048301696777344,
				0.18571531772613525,
				-0.2061293125152588,
				0.4730863571166992,
				-0.37965822219848633,
				0.3559544086456299,
				0.3964974880218506,
				-0.045455098152160645
			],
			[
				0.14335283637046814,
				-0.3279169797897339,
				-0.43760260939598083,
				-0.18661914765834808,
				1.9434478282928467,
				1.2183078527450562,
				1.7856181859970093,
				1.2757819890975952
			],
			[
				-0.1147877648472786,
				-0.15557551383972168,
				-0.27576717734336853,
				-0.22354353964328766,
				0.4835949242115021,
				0.08673299849033356,
				0.35630324482917786,
				-0.26154738664627075
			],
			[
				0.1377134919166565,
				0.13829946517944336,
				0.028249260038137436,
				0.4531472325325012,
				1.1660871505737305,
				0.48662394285202026,
				1.0107533931732178,
				1.123919129371643
			],
			[
				0.2003011703491211,
				-0.44351184368133545,
				-0.12868835031986237,
				-0.4236828088760376,
				1.7398916482925415,
				1.868289589881897,
				1.9233379364013672,
				1.4807063341140747
			],
			[
				-0.1811767816543579,
				-0.16311144828796387,
				-0.32765424251556396,
				-0.20852530002593994,
				-0.13781464099884033,
				0.24404668807983398,
				0.29733920097351074,
				0.2682288885116577
			],
			[
				-0.5821415781974792,
				-0.024974465370178223,
				-0.09016122668981552,
				-0.1271984577178955,
				0.07757843285799026,
				0.44113650918006897,
				-0.425909161567688,
				0.5109812617301941
			],
			[
				-0.26931190490722656,
				0.3515397310256958,
				0.239202618598938,
				0.3049048185348511,
				-0.2512863874435425,
				0.32871949672698975,
				-0.463908314704895,
				-0.36334049701690674
			],
			[
				-0.11069071292877197,
				-0.39954674243927,
				-0.4957764148712158,
				-0.4911869764328003,
				0.4271993637084961,
				0.39556729793548584,
				0.021530747413635254,
				-0.04392707347869873
			],
			[
				0.31027260422706604,
				-0.3829948902130127,
				-0.535079300403595,
				-0.08098916709423065,
				0.6739737391471863,
				0.680179238319397,
				1.5095025300979614,
				1.328988790512085
			],
			[
				0.319161057472229,
				0.18479228019714355,
				-0.2965472638607025,
				0.0522913932800293,
				-0.2318497896194458,
				-0.07159742712974548,
				0.4800371825695038,
				-0.12937051057815552
			],
			[
				-0.1785738468170166,
				0.3727506399154663,
				-0.3865799903869629,
				0.36550796031951904,
				-0.30938291549682617,
				0.24432110786437988,
				0.0390779972076416,
				0.2825731039047241
			],
			[
				0.10494858026504517,
				-0.46897435188293457,
				0.3747955858707428,
				0.16083268821239471,
				0.213126078248024,
				1.094266653060913,
				1.0338939428329468,
				0.5644233226776123
			],
			[
				0.15997913479804993,
				-0.16912686824798584,
				0.33979710936546326,
				-0.09401792287826538,
				1.4040265083312988,
				1.3101519346237183,
				1.1705876588821411,
				1.3322323560714722
			]
		],
		"weight_1": [
			-0.11844496428966522,
			0.0,
			-0.09684146195650101,
			-0.03262229263782501,
			0.5273000597953796,
			0.5231485962867737,
			0.5239507555961609,
			0.5254027247428894
		]
	},
	"layer_2": {
		"weight_0": [
			[
				0.10874088108539581,
				0.2349720150232315,
				-0.444962739944458,
				-0.5782157182693481
			],
			[
				0.14333319664001465,
				0.6840144991874695,
				-0.3805963099002838,
				-0.03799182176589966
			],
			[
				-0.5163038372993469,
				0.5703742504119873,
				0.5595776438713074,
				0.3226291537284851
			],
			[
				-0.0285311508923769,
				0.20618203282356262,
				-0.524024486541748,
				-0.5950517058372498
			],
			[
				1.3602463006973267,
				-0.11393766105175018,
				1.1450839042663574,
				1.5385535955429077
			],
			[
				0.8475528359413147,
				0.578021228313446,
				1.4225327968597412,
				1.274183750152588
			],
			[
				1.4773229360580444,
				-0.6458771824836731,
				0.3649408221244812,
				1.1280336380004883
			],
			[
				1.3216078281402588,
				-0.39693722128868103,
				1.0610573291778564,
				1.5161007642745972
			]
		],
		"weight_1": [
			0.5204307436943054,
			-0.010445484891533852,
			0.5480470061302185,
			0.5180411338806152
		]
	},
	"layer_3": {
		"weight_0": [
			[
				1.330917477607727
			],
			[
				-0.2213328629732132
			],
			[
				0.9444128274917603
			],
			[
				1.2334064245224
			]
		],
		"weight_1": [
			0.5087284445762634
		]
	}
}