{
	"layer_0": {
		"weight_0": [
			[
				-0.038157232105731964,
				0.25272923707962036,
				-0.3008618950843811,
				-0.5353184938430786,
				0.1793471723794937,
				0.4488428831100464,
				0.19449779391288757,
				-0.5310543179512024,
				0.1682979017496109,
				-0.3837721049785614,
				-0.030986828729510307,
				-0.2622971534729004,
				-0.15102972090244293,
				0.2524402141571045,
				0.2388993799686432,
				0.23692123591899872
			],
			[
				0.09970427304506302,
				0.5300896763801575,
				0.4461197555065155,
				-0.07086467742919922,
				0.5384628176689148,
				0.16224516928195953,
				0.3183721601963043,
				0.4816877245903015,
				0.4338069558143616,
				0.1722891479730606,
				0.2977631092071533,
				0.277896523475647,
				0.03921859338879585,
				-0.5626816153526306,
				0.26689642667770386,
				0.3145312964916229
			]
		],
		"weight_1": [
			-0.0034020666498690844,
			0.01781255193054676,
			0.011749804951250553,
			0.0,
			-0.013291982933878899,
			0.016792431473731995,
			-0.0173956211656332,
			-0.018846195191144943,
			-0.004113636910915375,
			0.02529113180935383,
			0.015128065831959248,
			0.0001207762979902327,
			-0.010781700722873211,
			-0.01812112145125866,
			-0.014073092490434647,
			-0.016365518793463707
		]
	},
	"layer_1": {
		"weight_0": [
			[
				0.1256023645401001,
				0.017458759248256683,
				-0.2851440906524658,
				0.13152140378952026,
				0.08068180084228516,
				0.3687182068824768,
				0.20346949994564056,
				0.00688099954277277
			],
			[
				0.14838026463985443,
				0.43435966968536377,
				-0.23250436782836914,
				-0.32346898317337036,
				0.16218066215515137,
				-0.053980398923158646,
				0.13105769455432892,
				-0.22415655851364136
			],
			[
				-0.3378158509731293,
				-0.2523033618927002,
				0.0034132003784179688,
				0.5114302635192871,
				0.24077343940734863,
				-0.0848110094666481,
				-0.13623522222042084,
				-0.489662230014801
			],
			[
				0.0670926570892334,
				-0.30681681632995605,
				-0.4383721351623535,
				-0.06869804859161377,
				0.06855237483978271,
				0.006476163864135742,
				-0.050742387771606445,
				-0.08791613578796387
			],
			[
				-0.47201886773109436,
				0.42101699113845825,
				-0.31164371967315674,
				0.2848317623138428,
				-0.24970149993896484,
				0.15518949925899506,
				0.2138698250055313,
				0.3964942693710327
			],
			[
				0.33513376116752625,
				0.1917625218629837,
				0.11978697776794434,
				0.07819763571023941,
				-0.4836388826370239,
				-0.49348872900009155,
				-0.3815479874610901,
				0.34408318996429443
			],
			[
				-0.1377752125263214,
				-0.1417100429534912,
				-0.041100382804870605,
				-0.003234234405681491,
				-0.15036725997924805,
				0.4375270903110504,
				-0.3349863886833191,
				-0.21889175474643707
			],
			[
				-0.05037419870495796,
				0.10933972895145416,
				0.2940877676010132,
				-0.2930324673652649,
				-0.07268738746643066,
				-0.350818008184433,
				0.11782623827457428,
				0.19962003827095032
			],
			[
				0.43824711441993713,
				-0.3332913815975189,
				-0.43099749088287354,
				0.066506527364254,
				0.1718975305557251,
				-0.12496546655893326,
				0.280648797750473,
				0.026574164628982544
			],
			[
				-0.25504013895988464,
				0.10201313346624374,
				-0.1367647647857666,
				0.32072362303733826,
				-0.3768841028213501,
				0.2847888171672821,
				-0.24980269372463226,
				-0.20048153400421143
			],
			[
				0.4720507562160492,
				-0.24961845576763153,
				0.24391627311706543,
				-0.052510231733322144,
				0.18343257904052734,
				0.03096788190305233,
				0.28093215823173523,
				-0.5075470805168152
			],
			[
				0.38881874084472656,
				-0.137419655919075,
				0.020098447799682617,
				-0.09225668013095856,
				-0.013917684555053711,
				0.23427602648735046,
				-0.5177037119865417,
				0.3728536069393158
			],
			[
				-0.2219991534948349,
				0.2567936182022095,
				0.02783656120300293,
				-0.47132256627082825,
				-0.13155686855316162,
				0.33933088183403015,
				0.4224964380264282,
				0.25030019879341125
			],
			[
				-0.03809388726949692,
				-0.27690383791923523,
				-0.30676329135894775,
				-0.0925440788269043,
				0.13279831409454346,
				0.386570006608963,
				0.15981018543243408,
				0.05645116791129112
			],
			[
				-0.3504701256752014,
				0.04484483227133751,
				-0.47625553607940674,
				-0.36444801092147827,
				0.025500893592834473,
				0.44793546199798584,
				0.2887314260005951,
				-0.3170464038848877
			],
			[
				0.23247960209846497,
				-0.4428577125072479,
				-0.4440581798553467,
				0.2744826376438141,
				-0.11708378791809082,
				0.3422929048538208,
				0.31892651319503784,
				0.40604260563850403
			]
		],
		"weight_1": [
			0.016125887632369995,
			0.01741887629032135,
			0.0,
			0.014546168968081474,
			0.0,
			-0.014973990619182587,
			-0.011870517395436764,
			-0.01584796793758869
		]
	},
	"layer_2": {
		"weight_0": [
			[
				-0.6322578191757202,
				-0.3916550576686859,
				0.050931528210639954,
				0.2100907266139984
			],
			[
				0.18647128343582153,
				-0.1723986566066742,
				-0.6888921856880188,
				-0.4853329062461853
			],
			[
				-0.48496371507644653,
				0.6659319996833801,
				0.28764480352401733,
				0.6523708701133728
			],
			[
				0.24705523252487183,
				-0.23053982853889465,
				-0.16083800792694092,
				-0.29147422313690186
			],
			[
				0.6888647675514221,
				0.010750830173492432,
				0.1502600908279419,
				-0.5360421538352966
			],
			[
				0.4429994225502014,
				0.5190763473510742,
				-0.6188877820968628,
				0.08793502300977707
			],
			[
				-0.6519647240638733,
				-0.17945405840873718,
				0.650368869304657,
				-0.013222185894846916
			],
			[
				-0.6481726765632629,
				0.3668825924396515,
				0.36864733695983887,
				-0.5969316363334656
			]
		],
		"weight_1": [
			0.0,
			-0.015772240236401558,
			-0.015534620732069016,
			-0.010339278727769852
		]
	},
	"layer_3": {
		"weight_0": [
			[
				0.6079648733139038
			],
			[
				-0.1540321409702301
			],
			[
				-0.07582014799118042
			],
			[
				-0.8832258582115173
			]
		],
		"weight_1": [
			2.3632612228393555
		]
	}
}