{
	"layer_0": {
		"weight_0": [
			[
				-0.3765215277671814,
				1.5755294561386108,
				1.5181052684783936,
				1.8267619609832764,
				0.04135379195213318,
				1.1741575002670288,
				-0.2461661398410797,
				1.0108121633529663,
				0.0313057005405426,
				1.3591359853744507,
				-0.13269683718681335,
				1.7632728815078735,
				1.2832262516021729,
				-0.10716462135314941,
				1.8816055059432983,
				0.729575514793396
			],
			[
				-0.013162195682525635,
				-0.4516066908836365,
				-0.6105509996414185,
				-1.2514007091522217,
				-0.5272356271743774,
				-0.6461877822875977,
				-0.30043506622314453,
				-0.29434049129486084,
				-0.21110109984874725,
				-0.855509877204895,
				-0.2720276117324829,
				-0.8392621278762817,
				-0.3573690950870514,
				-0.46243560314178467,
				-0.5449446439743042,
				-0.6043176651000977
			]
		],
		"weight_1": [
			0.0,
			0.8458490371704102,
			0.7432343363761902,
			0.854892909526825,
			-0.0031622550450265408,
			0.8749721646308899,
			0.0,
			0.8616668581962585,
			-0.004441550001502037,
			0.6949876546859741,
			0.0,
			0.8557355403900146,
			0.8568834066390991,
			0.0,
			0.846653401851654,
			0.5459767580032349
		]
	},
	"layer_1": {
		"weight_0": [
			[
				-0.4034844636917114,
				0.06934595108032227,
				-0.32547593116760254,
				0.1203685998916626,
				-0.021119356155395508,
				0.4947150945663452,
				-0.12213575839996338,
				0.11796486377716064
			],
			[
				0.21871355175971985,
				1.1213016510009766,
				-0.24332880973815918,
				-0.3032550513744354,
				0.3170982301235199,
				0.588829755783081,
				0.1899961233139038,
				-0.2364572286605835
			],
			[
				0.207345113158226,
				0.9648590683937073,
				-0.1228107213973999,
				-0.45125454664230347,
				1.3076443672180176,
				1.079688310623169,
				0.21834135055541992,
				0.4783194065093994
			],
			[
				-0.031128406524658203,
				1.9954081773757935,
				-0.2987821102142334,
				-0.41112852096557617,
				1.8287479877471924,
				1.1488841772079468,
				-0.25552666187286377,
				-0.3423130512237549
			],
			[
				-0.37756574153900146,
				-0.38833579421043396,
				-0.08223748207092285,
				-0.06157875061035156,
				0.1891247034072876,
				0.151654914021492,
				-0.024149298667907715,
				0.13083434104919434
			],
			[
				-0.42557695508003235,
				1.3895132541656494,
				0.25550639629364014,
				-0.07939422130584717,
				0.7102025747299194,
				0.9651725888252258,
				0.381331205368042,
				-0.260148286819458
			],
			[
				-0.28814542293548584,
				-0.30009615421295166,
				-0.261035680770874,
				-0.2229914665222168,
				-0.3588392734527588,
				-0.4570869207382202,
				0.09304773807525635,
				0.17840516567230225
			],
			[
				0.4131511449813843,
				0.48325085639953613,
				-0.43435657024383545,
				-0.43286824226379395,
				0.5755019783973694,
				0.44583114981651306,
				-0.47330546379089355,
				-0.2781541347503662
			],
			[
				-0.2779761552810669,
				-0.09368012845516205,
				-0.11465668678283691,
				-0.2759964168071747,
				-0.2427610158920288,
				-0.31918931007385254,
				0.12643277645111084,
				0.30816638469696045
			],
			[
				0.2418568879365921,
				1.230497121810913,
				0.11430370807647705,
				-0.2512500584125519,
				1.778145670890808,
				0.710917055606842,
				-0.06081688404083252,
				0.09985733032226562
			],
			[
				0.393843412399292,
				-0.23761701583862305,
				0.36669111251831055,
				-0.1089334487915039,
				-0.025183796882629395,
				0.47511184215545654,
				0.3297818899154663,
				-0.4615004062652588
			],
			[
				-0.01129928044974804,
				1.6291563510894775,
				-0.02540886402130127,
				0.05897609144449234,
				1.2136884927749634,
				1.2644050121307373,
				0.28594446182250977,
				-0.24935221672058105
			],
			[
				-0.3860846161842346,
				0.818824827671051,
				-0.39582395553588867,
				0.2666730284690857,
				0.9327864646911621,
				0.7881913781166077,
				-0.3101668357849121,
				-0.42066216468811035
			],
			[
				-0.4456444978713989,
				-0.08400177955627441,
				-0.30500197410583496,
				-0.4965639114379883,
				-0.06141865253448486,
				-0.2746107578277588,
				-0.05834484100341797,
				-0.1878185272216797
			],
			[
				-0.4799477159976959,
				1.3741343021392822,
				-0.3452937602996826,
				0.38951048254966736,
				0.6879608035087585,
				1.2080520391464233,
				-0.45582330226898193,
				-0.19436776638031006
			],
			[
				0.2174474447965622,
				0.6036789417266846,
				0.011322975158691406,
				0.20568624138832092,
				0.7703638076782227,
				0.34509608149528503,
				0.3477613925933838,
				0.2997877597808838
			]
		],
		"weight_1": [
			-0.025613615289330482,
			0.8401922583580017,
			0.0,
			-0.03694625198841095,
			0.7708340287208557,
			0.6326655745506287,
			0.0,
			0.0
		]
	},
	"layer_2": {
		"weight_0": [
			[
				-0.38738059997558594,
				0.3195720314979553,
				-0.07846944779157639,
				-0.37041381001472473
			],
			[
				-0.10317140817642212,
				-0.04115607962012291,
				1.817452311515808,
				-0.2696634531021118
			],
			[
				0.32224851846694946,
				-0.09434336423873901,
				-0.6525380611419678,
				0.31431347131729126
			],
			[
				-0.3686846196651459,
				-0.7027241587638855,
				-0.5057294964790344,
				-0.6738407611846924
			],
			[
				0.09439480304718018,
				0.5955859422683716,
				1.3415032625198364,
				0.24674129486083984
			],
			[
				-0.18565267324447632,
				-0.7634434700012207,
				0.9186897277832031,
				-0.500307023525238
			],
			[
				0.172119140625,
				-0.6963839530944824,
				0.497982919216156,
				0.3358270525932312
			],
			[
				0.16493850946426392,
				-0.3163023293018341,
				0.27242809534072876,
				0.4162113070487976
			]
		],
		"weight_1": [
			0.0,
			-0.057281870394945145,
			0.8334106802940369,
			0.0
		]
	},
	"layer_3": {
		"weight_0": [
			[
				0.6545181274414062
			],
			[
				-0.9127852916717529
			],
			[
				1.0951489210128784
			],
			[
				1.0091207027435303
			]
		],
		"weight_1": [
			0.8007504343986511
		]
	}
}