{
	"layer_0": {
		"weight_0": 0.0,
		"weight_1": 1.0,
		"weight_2": -1
	},
	"layer_1": {
		"weight_0": [
			-0.030428530648350716,
			0.0,
			-0.031551115214824677,
			-0.021852457895874977,
			-0.010270422324538231,
			0.018947046250104904,
			0.025569036602973938,
			-0.03584766015410423,
			0.03138616308569908,
			0.0,
			0.003962254151701927,
			0.03989093005657196,
			-0.01080325711518526,
			0.005913965404033661,
			0.005228040274232626,
			-0.02890942059457302
		],
		"weight_1": [
			[
				0.28555840253829956,
				-0.050344228744506836,
				0.40069106221199036,
				0.5420746207237244,
				0.13760404288768768,
				0.4599810242652893,
				-0.06098416447639465,
				0.15429461002349854,
				0.25787124037742615,
				-0.19804900884628296,
				0.02851606346666813,
				0.21311911940574646,
				-0.35473933815956116,
				0.02612469159066677,
				-0.3142176568508148,
				0.08515668660402298
			],
			[
				-0.33832886815071106,
				-0.41436564922332764,
				-0.23890584707260132,
				0.19784533977508545,
				0.4501136541366577,
				-0.32803621888160706,
				0.49108266830444336,
				-0.33036935329437256,
				0.5846447944641113,
				-0.1488255262374878,
				-0.45803922414779663,
				0.3296283781528473,
				0.4657060205936432,
				-0.43794241547584534,
				0.018328722566366196,
				-0.34601911902427673
			]
		],
		"weight_2": -1,
		"weight_3": -0.5846447944641113,
		"weight_4": 0.5846447944641113,
		"weight_5": -0.5658519268035889,
		"weight_6": 1.3064500093460083
	},
	"layer_2": {
		"weight_0": [
			0.03576581925153732,
			-0.012612932361662388,
			-0.026196714490652084,
			0.006324387155473232,
			0.03445340320467949,
			0.025389958173036575,
			-0.01157752051949501,
			0.0
		],
		"weight_1": [
			[
				0.5372127294540405,
				-0.10569446533918381,
				0.3568780720233917,
				-0.31262385845184326,
				-0.10177509486675262,
				-0.17970174551010132,
				0.4684634208679199,
				-0.2632629871368408
			],
			[
				-0.1655503511428833,
				-0.11585044860839844,
				0.1016685962677002,
				-0.10610818862915039,
				-0.16324269771575928,
				0.06486237049102783,
				0.38678205013275146,
				-0.3252304792404175
			],
			[
				-0.21104347705841064,
				0.3684278726577759,
				-0.10805083811283112,
				-0.0719214677810669,
				-0.24622495472431183,
				0.2994394302368164,
				0.4825749397277832,
				-0.09842550754547119
			],
			[
				0.39589276909828186,
				0.41235142946243286,
				0.19501633942127228,
				-0.3285139203071594,
				-0.3733018636703491,
				-0.2660217881202698,
				-0.2167566865682602,
				-0.4893759489059448
			],
			[
				-0.1427667886018753,
				-0.37126827239990234,
				0.42901912331581116,
				-0.1534930020570755,
				0.3584050238132477,
				0.08774346113204956,
				-0.39286693930625916,
				-0.29475927352905273
			],
			[
				-0.32378214597702026,
				-0.20009499788284302,
				-0.03649769723415375,
				0.4552549123764038,
				0.2522910237312317,
				0.24081747233867645,
				-0.3571183979511261,
				-0.14450275897979736
			],
			[
				0.2282181978225708,
				-0.36674609780311584,
				-0.0062392582185566425,
				-0.48595961928367615,
				0.21236464381217957,
				0.3305005133152008,
				0.2770111560821533,
				-0.05277609825134277
			],
			[
				-0.3508228659629822,
				0.3106578588485718,
				-0.009929496794939041,
				-0.45175743103027344,
				-0.21107153594493866,
				0.37982019782066345,
				-0.09567761421203613,
				0.27946484088897705
			],
			[
				-0.14887851476669312,
				-0.3502397835254669,
				0.2665517330169678,
				-0.30144447088241577,
				0.4960799813270569,
				0.019396144896745682,
				0.18741054832935333,
				-0.177831768989563
			],
			[
				0.021532297134399414,
				0.23149621486663818,
				-0.49325311183929443,
				-0.46754539012908936,
				0.19701933860778809,
				-0.1759556531906128,
				0.05471813678741455,
				0.3029189109802246
			],
			[
				-0.05054781958460808,
				0.10875678062438965,
				-0.06965155154466629,
				0.22943352162837982,
				-0.01880585588514805,
				0.23786744475364685,
				-0.2555251121520996,
				0.35061705112457275
			],
			[
				0.5236557126045227,
				-0.17038583755493164,
				0.41169899702072144,
				0.4017629325389862,
				0.13323964178562164,
				-0.05445021390914917,
				-0.042403917759656906,
				-0.2528036832809448
			],
			[
				0.1454848051071167,
				-0.2560007572174072,
				0.3357774317264557,
				0.06253576278686523,
				-0.4882735311985016,
				-0.47202548384666443,
				-0.44376009702682495,
				-0.13554561138153076
			],
			[
				0.23166942596435547,
				0.2721431255340576,
				-0.21787291765213013,
				0.36266836524009705,
				-0.39612212777137756,
				-0.12372314184904099,
				-0.19534003734588623,
				-0.0637519359588623
			],
			[
				-0.018212061375379562,
				0.18657171726226807,
				-0.3009238839149475,
				0.2164229452610016,
				0.5023781061172485,
				0.3712894022464752,
				0.15115155279636383,
				-0.3637993335723877
			],
			[
				0.2754441499710083,
				-0.2678096890449524,
				0.30595698952674866,
				-0.36039090156555176,
				-0.2545008361339569,
				-0.40316224098205566,
				-0.4312291741371155,
				0.12006473541259766
			]
		],
		"weight_2": -1,
		"weight_3": -0.5372127294540405,
		"weight_4": 0.5372127294540405,
		"weight_5": -0.5658519268035889,
		"weight_6": 1.2897751331329346
	},
	"layer_3": {
		"weight_0": [
			-0.0075390879064798355,
			-0.02752908132970333,
			-0.028858516365289688,
			-0.022923873737454414
		],
		"weight_1": [
			[
				-0.1451655626296997,
				-0.28784283995628357,
				-0.4066116511821747,
				-0.29824215173721313
			],
			[
				0.6883529424667358,
				0.07573775202035904,
				-0.08436606079339981,
				0.4466446042060852
			],
			[
				-0.05711875855922699,
				0.34928810596466064,
				0.021375199779868126,
				-0.3170006275177002
			],
			[
				-0.09441214799880981,
				0.30816882848739624,
				0.4452664256095886,
				-0.061882078647613525
			],
			[
				-0.38539770245552063,
				-0.6173490285873413,
				-0.1920594573020935,
				0.3571471571922302
			],
			[
				-0.5534976720809937,
				-0.281008780002594,
				0.6443226337432861,
				-0.14158955216407776
			],
			[
				-0.06231379508972168,
				0.6558874249458313,
				-0.2570784091949463,
				0.5191879272460938
			],
			[
				-0.5015338659286499,
				0.4335210919380188,
				0.5119163393974304,
				0.46955937147140503
			]
		],
		"weight_2": -1,
		"weight_3": -0.6883529424667358,
		"weight_4": 0.6883529424667358,
		"weight_5": -0.5658519268035889,
		"weight_6": 0.5658546090126038
	},
	"layer_4": {
		"weight_0": [
			3.9195806980133057
		],
		"weight_1": [
			[
				-0.7146159410476685
			],
			[
				-0.9605018496513367
			],
			[
				-0.2310861200094223
			],
			[
				-0.07047735154628754
			]
		],
		"weight_2": -1,
		"weight_3": -0.9605018496513367,
		"weight_4": 0.9605018496513367,
		"weight_5": -0.5658519268035889,
		"weight_6": 3.9105865955352783
	}
}