{
	"layer_0": {
		"weight_0": [
			[
				0.8394845128059387,
				0.6851503849029541,
				0.9690942764282227,
				-0.3024154305458069,
				0.7811711430549622,
				0.27069103717803955,
				1.0828971862792969,
				-0.1624695062637329,
				0.9145508408546448,
				-0.24561181664466858,
				1.1501573324203491,
				0.6305199265480042,
				0.026825647801160812,
				-0.19425520300865173,
				0.8160831928253174,
				0.6559416651725769
			],
			[
				-0.04019138216972351,
				-4.987327575683594,
				-0.2758885622024536,
				0.7520623207092285,
				-2.443382501602173,
				-0.12427043169736862,
				-0.16903997957706451,
				-0.3237808346748352,
				-0.1177690252661705,
				-0.2667674124240875,
				0.44309040904045105,
				0.13115480542182922,
				0.7582793831825256,
				-0.22521689534187317,
				-0.3519344627857208,
				-0.170804962515831
			]
		],
		"weight_1": [
			0.6412648558616638,
			0.39894792437553406,
			0.6840567588806152,
			0.2649475932121277,
			0.6287029981613159,
			0.6945416927337646,
			0.6496905088424683,
			0.0,
			0.4369014799594879,
			0.0,
			0.6762086153030396,
			0.6468885540962219,
			0.3107669949531555,
			0.0,
			0.6756613850593567,
			0.9485936760902405
		]
	},
	"layer_1": {
		"weight_0": [
			[
				0.17456233501434326,
				0.7308961153030396,
				0.5905631184577942,
				-0.17983615398406982,
				0.21877224743366241,
				-0.3593907058238983,
				0.47896909713745117,
				0.22752206027507782
			],
			[
				-0.09474873542785645,
				4.272536754608154,
				-3.696133852005005,
				-0.014089703559875488,
				4.368933200836182,
				0.13327078521251678,
				-0.3759632110595703,
				4.081836223602295
			],
			[
				0.1997511386871338,
				0.9560367465019226,
				0.2966662645339966,
				0.46017634868621826,
				0.6414259076118469,
				-0.3052883446216583,
				0.3836240768432617,
				1.0334323644638062
			],
			[
				-0.21034502983093262,
				-0.5871825814247131,
				0.3987947702407837,
				-0.2411942481994629,
				-0.7609401345252991,
				0.417305052280426,
				-0.09284913539886475,
				-0.8658376336097717
			],
			[
				0.3756296634674072,
				2.568567991256714,
				-1.0442492961883545,
				-0.24651765823364258,
				2.2451484203338623,
				0.39475613832473755,
				0.27467095851898193,
				1.9909663200378418
			],
			[
				0.03488361835479736,
				0.3859868347644806,
				0.4807315766811371,
				-0.4386831521987915,
				-0.16999705135822296,
				0.013091238215565681,
				-0.46542954444885254,
				0.42882534861564636
			],
			[
				-0.4700896739959717,
				1.1071561574935913,
				-0.5065518617630005,
				-0.3187597990036011,
				0.966905415058136,
				0.09892629832029343,
				-0.4980572462081909,
				0.84709632396698
			],
			[
				0.14113366603851318,
				-0.11927103996276855,
				-0.23568356037139893,
				0.0005166530609130859,
				-0.3089869022369385,
				-0.029265522956848145,
				0.12259531021118164,
				0.18772101402282715
			],
			[
				0.24072480201721191,
				0.18853351473808289,
				0.05937853455543518,
				-0.13330614566802979,
				1.0350425243377686,
				0.1433277726173401,
				-0.031395673751831055,
				0.3533567786216736
			],
			[
				-0.4262664318084717,
				-0.4167478084564209,
				0.49732494354248047,
				0.14469027519226074,
				-0.26486730575561523,
				-0.49254000186920166,
				0.21905696392059326,
				0.16703081130981445
			],
			[
				-0.35570967197418213,
				0.5727729201316833,
				0.23828569054603577,
				-0.3445444107055664,
				0.38311535120010376,
				0.3934777081012726,
				-0.32193756103515625,
				0.44067397713661194
			],
			[
				-0.38576674461364746,
				0.49482783675193787,
				0.4043538272380829,
				-0.23494482040405273,
				0.6405441164970398,
				-0.36384329199790955,
				-0.02146279811859131,
				0.13805709779262543
			],
			[
				0.19873416423797607,
				0.1982942670583725,
				1.097430944442749,
				-0.31062424182891846,
				-0.3499162197113037,
				-0.06729146838188171,
				0.033385634422302246,
				-0.32390522956848145
			],
			[
				0.2627584934234619,
				0.1701594591140747,
				-0.3144876956939697,
				0.3778797388076782,
				0.01049041748046875,
				0.1548391580581665,
				-0.15177834033966064,
				-0.33631062507629395
			],
			[
				-0.3655376434326172,
				0.3428691029548645,
				0.10000060498714447,
				-0.30610740184783936,
				0.7971610426902771,
				-0.253644198179245,
				0.351409912109375,
				1.2194020748138428
			],
			[
				0.10212588310241699,
				0.20316559076309204,
				0.7620488405227661,
				0.47747206687927246,
				-0.05467913672327995,
				-0.4155749976634979,
				-0.1709660291671753,
				0.550253689289093
			]
		],
		"weight_1": [
			0.0,
			0.6856905221939087,
			-0.03835274279117584,
			0.0,
			0.6640855073928833,
			-0.053797751665115356,
			0.0,
			0.6671662926673889
		]
	},
	"layer_2": {
		"weight_0": [
			[
				-0.19132238626480103,
				0.3362998366355896,
				-0.24128380417823792,
				0.5396170020103455
			],
			[
				-0.09811762720346451,
				0.7164340615272522,
				1.166861891746521,
				-0.4495352804660797
			],
			[
				-0.5262817144393921,
				-2.623181104660034,
				-1.9036630392074585,
				0.26674458384513855
			],
			[
				0.3110411763191223,
				0.16472017765045166,
				0.614185631275177,
				-0.2946990132331848
			],
			[
				0.4461408257484436,
				1.5482420921325684,
				1.2464711666107178,
				-0.6363944411277771
			],
			[
				0.4404027760028839,
				-0.45023995637893677,
				-0.17458553612232208,
				0.6144180297851562
			],
			[
				-0.7039346098899841,
				0.06576544046401978,
				0.4696817994117737,
				-0.07428854703903198
			],
			[
				-0.615465521812439,
				1.6074575185775757,
				1.5434582233428955,
				-0.059476371854543686
			]
		],
		"weight_1": [
			0.02759459614753723,
			0.6113907694816589,
			0.6945177316665649,
			-0.10099581629037857
		]
	},
	"layer_3": {
		"weight_0": [
			[
				0.40866100788116455
			],
			[
				1.4543492794036865
			],
			[
				2.236682891845703
			],
			[
				-0.0708116665482521
			]
		],
		"weight_1": [
			0.6962598562240601
		]
	}
}