{
	"layer_0": {
		"weight_0": [
			[
				0.28921881318092346,
				1.1350005865097046,
				-0.4846310019493103,
				0.07354161888360977,
				0.7292855381965637,
				0.8080321550369263,
				-0.1602025330066681,
				-0.322565495967865,
				0.8077421188354492,
				0.2017982304096222,
				0.5706020593643188,
				-0.4917181134223938,
				1.276716709136963,
				0.6168156862258911,
				0.16462132334709167,
				-0.5723781585693359
			],
			[
				-0.5531823039054871,
				-0.7322468757629395,
				-0.0795907974243164,
				-0.01221491675823927,
				-1.7060763835906982,
				-0.38956114649772644,
				-0.018439173698425293,
				-0.20720279216766357,
				-0.7344691157341003,
				-0.44429829716682434,
				-0.6227386593818665,
				-0.04560500383377075,
				-0.4301791787147522,
				-1.7996673583984375,
				-0.15705373883247375,
				-0.2109898328781128
			]
		],
		"weight_1": [
			0.5903522372245789,
			0.5846086740493774,
			0.0,
			-0.07387644052505493,
			0.4331093728542328,
			0.5612460374832153,
			0.0,
			0.0,
			0.5723171830177307,
			0.5060375332832336,
			0.5829641819000244,
			0.0,
			0.5376693606376648,
			0.35551217198371887,
			-0.14622555673122406,
			0.0
		]
	},
	"layer_1": {
		"weight_0": [
			[
				-0.19231915473937988,
				0.2862532436847687,
				0.7587866187095642,
				0.03937793895602226,
				-0.48720264434814453,
				0.04748031497001648,
				0.12789984047412872,
				0.23282784223556519
			],
			[
				0.4395506978034973,
				1.0196549892425537,
				0.8063654899597168,
				0.4821203649044037,
				0.2834433317184448,
				-0.09041383117437363,
				0.6982948780059814,
				0.7751339673995972
			],
			[
				0.2377709150314331,
				0.2543156147003174,
				0.23532259464263916,
				-0.0686655044555664,
				0.31331872940063477,
				-0.01945662498474121,
				-0.23700058460235596,
				0.1974930763244629
			],
			[
				0.2769075632095337,
				-0.4003434479236603,
				0.2941678464412689,
				0.498158723115921,
				-0.45124590396881104,
				-0.3157788813114166,
				-0.18057824671268463,
				-0.40124770998954773
			],
			[
				-0.30171868205070496,
				1.8370842933654785,
				1.851514458656311,
				1.9156010150909424,
				-0.30540037155151367,
				-0.4770956039428711,
				1.252435564994812,
				1.2450474500656128
			],
			[
				-0.24155743420124054,
				0.40355923771858215,
				0.592684805393219,
				0.2854686677455902,
				-0.023854613304138184,
				-0.1748351752758026,
				-0.032280925661325455,
				0.533486545085907
			],
			[
				-0.47712647914886475,
				-0.21294283866882324,
				-0.1643143892288208,
				-0.05353665351867676,
				-0.43087732791900635,
				0.3548095226287842,
				0.41665709018707275,
				0.20191800594329834
			],
			[
				-0.012165665626525879,
				0.4575309753417969,
				-0.4045144319534302,
				-0.05679476261138916,
				0.128362774848938,
				-0.15606868267059326,
				-0.03559255599975586,
				0.4965442419052124
			],
			[
				0.35967719554901123,
				0.42579907178878784,
				1.1807461977005005,
				0.8125752210617065,
				0.08578646183013916,
				-0.08800078928470612,
				1.0195859670639038,
				1.2458878755569458
			],
			[
				-0.2081836462020874,
				0.16075627505779266,
				0.06663800030946732,
				0.43991565704345703,
				0.28701794147491455,
				0.17357772588729858,
				0.5025097727775574,
				-0.18923187255859375
			],
			[
				0.513195812702179,
				0.8157824277877808,
				1.049974799156189,
				0.1927279531955719,
				-0.3898506164550781,
				0.2801825702190399,
				-0.0010759341530501842,
				0.08604462444782257
			],
			[
				0.41711699962615967,
				0.100411057472229,
				-0.067207932472229,
				-0.48201262950897217,
				0.3962087631225586,
				-0.23108410835266113,
				-0.009181499481201172,
				-0.4671337604522705
			],
			[
				-0.3166781961917877,
				0.6328627467155457,
				0.7311126589775085,
				0.2677147388458252,
				-0.16144299507141113,
				-0.07914131134748459,
				0.35396236181259155,
				0.7700725793838501
			],
			[
				-0.19872435927391052,
				1.8338816165924072,
				1.2546162605285645,
				1.7394300699234009,
				-0.19876694679260254,
				0.2698700428009033,
				1.9118481874465942,
				1.9130125045776367
			],
			[
				-0.44375085830688477,
				0.010113799944519997,
				-0.2928090989589691,
				-0.17486907541751862,
				-0.007857203483581543,
				-0.06764348596334457,
				0.37435004115104675,
				-0.07234610617160797
			],
			[
				0.43233823776245117,
				0.0790863037109375,
				-0.08214962482452393,
				0.32493364810943604,
				0.2123032808303833,
				-0.29318904876708984,
				-0.35891640186309814,
				-0.3618108034133911
			]
		],
		"weight_1": [
			0.04706304520368576,
			0.5124928951263428,
			0.6430694460868835,
			0.5488134622573853,
			0.0,
			-0.053654879331588745,
			0.44155243039131165,
			0.5243491530418396
		]
	},
	"layer_2": {
		"weight_0": [
			[
				-0.43689826130867004,
				-0.1806309074163437,
				0.348032146692276,
				0.7016720771789551
			],
			[
				1.553447961807251,
				0.6583446860313416,
				-0.18374289572238922,
				0.4028051197528839
			],
			[
				1.3102526664733887,
				0.715075671672821,
				0.5651413202285767,
				-0.22057543694972992
			],
			[
				1.2734777927398682,
				1.5319550037384033,
				0.2086835503578186,
				0.07687270641326904
			],
			[
				0.16081249713897705,
				0.592637836933136,
				0.6219835877418518,
				0.035470783710479736
			],
			[
				-0.18705374002456665,
				-0.5226581692695618,
				-0.5093750953674316,
				0.048938460648059845
			],
			[
				1.4490762948989868,
				0.08098229765892029,
				-0.7920777201652527,
				-0.7212153673171997
			],
			[
				1.4617804288864136,
				0.8844290971755981,
				-0.08933275938034058,
				0.39359208941459656
			]
		],
		"weight_1": [
			0.5224711894989014,
			0.3392311930656433,
			0.16997972130775452,
			-0.26466667652130127
		]
	},
	"layer_3": {
		"weight_0": [
			[
				1.9893839359283447
			],
			[
				0.9084932208061218
			],
			[
				-1.87313711643219
			],
			[
				-0.7869734764099121
			]
		],
		"weight_1": [
			0.5192285776138306
		]
	}
}