{
	"layer_0": {
		"weight_0": [
			[
				0.41331416368484497,
				0.3584880530834198,
				0.6975367069244385,
				0.35157591104507446,
				0.7905895709991455,
				0.6454224586486816,
				0.7447608709335327,
				0.4580594301223755,
				0.13358870148658752,
				0.2495400309562683,
				0.1005266085267067,
				0.929786741733551,
				0.7390421032905579,
				-0.28797903656959534,
				0.7070010900497437,
				0.3441976010799408
			],
			[
				0.4584900438785553,
				0.889017641544342,
				-0.20336924493312836,
				-0.31628069281578064,
				0.3323797285556793,
				0.5331479907035828,
				0.7929098606109619,
				0.4725613296031952,
				0.0433988980948925,
				-0.516994297504425,
				-0.3618851602077484,
				0.5077365636825562,
				-0.27963942289352417,
				-0.45257896184921265,
				-0.04393405094742775,
				0.772169291973114
			]
		],
		"weight_1": [
			0.37895467877388,
			0.37943750619888306,
			0.3583374619483948,
			-0.20795392990112305,
			0.36396050453186035,
			0.37731948494911194,
			0.36761564016342163,
			0.3817060887813568,
			-0.08532006293535233,
			-0.14826546609401703,
			-0.0551721565425396,
			0.376152366399765,
			0.22846828401088715,
			0.0,
			0.3306697905063629,
			0.36830592155456543
		]
	},
	"layer_1": {},
	"layer_2": {
		"weight_0": [
			[
				0.694350004196167,
				-0.29275840520858765,
				0.31851673126220703,
				-0.16989991068840027,
				0.2605161666870117,
				-0.09865689277648926,
				0.4065254032611847,
				-0.3776136636734009
			],
			[
				0.7501920461654663,
				-0.23458394408226013,
				0.5660037398338318,
				0.03047911636531353,
				-0.4782538414001465,
				0.014513731002807617,
				0.5706542134284973,
				-0.28882238268852234
			],
			[
				0.15792125463485718,
				0.46787798404693604,
				0.4721482992172241,
				-0.3860037922859192,
				-0.00024700164794921875,
				-0.09592413902282715,
				0.4978862404823303,
				0.22218504548072815
			],
			[
				-0.1657610535621643,
				-0.15610702335834503,
				-0.1785595864057541,
				0.16598732769489288,
				-0.37902212142944336,
				-0.25406312942504883,
				-0.12976667284965515,
				0.21929943561553955
			],
			[
				0.17895811796188354,
				0.41043663024902344,
				0.7069593667984009,
				-0.045425646007061005,
				0.452999472618103,
				-0.30957651138305664,
				0.1195724830031395,
				-0.013946905732154846
			],
			[
				0.25115206837654114,
				-0.11338908225297928,
				0.07375118881464005,
				-0.033190906047821045,
				0.2001354694366455,
				-0.03874516487121582,
				0.8527421951293945,
				0.3882667124271393
			],
			[
				0.18885400891304016,
				-0.03870496526360512,
				0.343474805355072,
				-0.12597385048866272,
				-0.4721020460128784,
				-0.4089851379394531,
				0.434186190366745,
				-0.49368682503700256
			],
			[
				0.6557201147079468,
				-0.4757080674171448,
				0.24711427092552185,
				-0.18373127281665802,
				0.10769975185394287,
				0.4022318124771118,
				0.6583245396614075,
				0.07742351293563843
			],
			[
				-0.40797436237335205,
				-0.37209880352020264,
				0.00707716541364789,
				-0.10290210694074631,
				-0.02175140380859375,
				0.22774434089660645,
				-0.21897782385349274,
				0.46377044916152954
			],
			[
				-0.3141403794288635,
				0.27766069769859314,
				-0.3110468089580536,
				-0.3144969642162323,
				-0.45653069019317627,
				-0.42071783542633057,
				-0.1610875129699707,
				-0.29609885811805725
			],
			[
				-0.18417306244373322,
				-0.34259480237960815,
				-0.12315642088651657,
				-0.0671386569738388,
				-0.021192193031311035,
				-0.28324878215789795,
				-0.3258538246154785,
				-0.0905844122171402
			],
			[
				0.28229451179504395,
				0.04457712545990944,
				0.7393012642860413,
				0.31605711579322815,
				-0.09398984909057617,
				-0.28687846660614014,
				0.8640258312225342,
				-0.23279698193073273
			],
			[
				0.6491225361824036,
				0.26194319128990173,
				-0.020183421671390533,
				0.32035669684410095,
				-0.4911280870437622,
				-0.36589109897613525,
				0.0355493389070034,
				0.3002969026565552
			],
			[
				-0.15006804466247559,
				0.08529317378997803,
				0.3628654479980469,
				-0.2246260643005371,
				0.11736583709716797,
				0.1149832010269165,
				0.2829153537750244,
				0.025758028030395508
			],
			[
				0.3369441032409668,
				-0.3845210671424866,
				0.7992842197418213,
				0.2604723274707794,
				0.002234816551208496,
				-0.08764481544494629,
				0.12166383117437363,
				0.21659958362579346
			],
			[
				0.18724025785923004,
				-0.46103745698928833,
				0.6627445220947266,
				-0.37472182512283325,
				-0.14708495140075684,
				0.11638915538787842,
				0.639767050743103,
				0.3934866786003113
			]
		],
		"weight_1": [
			0.38198572397232056,
			-0.007182419300079346,
			0.36119675636291504,
			-0.034511830657720566,
			0.0,
			0.0,
			0.36708149313926697,
			-0.04051802307367325
		]
	},
	"layer_3": {},
	"layer_4": {
		"weight_0": [
			[
				-0.569969892501831,
				0.14668208360671997,
				1.0500344038009644,
				0.3515370488166809
			],
			[
				-0.637697160243988,
				-0.4362987279891968,
				0.1408507227897644,
				-0.11765222996473312
			],
			[
				-0.5533092617988586,
				0.1249307245016098,
				0.8540661334991455,
				-0.6373116970062256
			],
			[
				0.24063919484615326,
				-0.5473037958145142,
				-0.4787004888057709,
				0.266426682472229
			],
			[
				0.36131566762924194,
				0.415211021900177,
				-0.3631724715232849,
				-0.2458268702030182
			],
			[
				0.680380642414093,
				0.47562891244888306,
				0.09654480218887329,
				-0.275959849357605
			],
			[
				0.14071659743785858,
				-0.22728866338729858,
				0.7986605167388916,
				-0.6201861500740051
			],
			[
				-0.3250672519207001,
				0.5428352355957031,
				-0.2668648660182953,
				0.5618441104888916
			]
		],
		"weight_1": [
			-0.0031622773967683315,
			-0.2672477662563324,
			0.3592100739479065,
			0.019865332171320915
		]
	},
	"layer_5": {},
	"layer_6": {
		"weight_0": [
			[
				-0.47204989194869995
			],
			[
				-0.06475400924682617
			],
			[
				3.355177879333496
			],
			[
				0.9946872591972351
			]
		],
		"weight_1": [
			2.3561031818389893
		]
	}
}