{
	"layer_0": {
		"weight_0": [
			[
				0.3397563397884369,
				-0.004499375820159912,
				1.961108922958374,
				0.30058255791664124,
				0.032308273017406464,
				0.6195902824401855,
				-0.1595609486103058,
				1.773097276687622,
				6.42922306060791,
				0.9627470374107361,
				2.98535418510437,
				2.4051520824432373,
				0.017663253471255302,
				1.4559650421142578,
				-0.2413414716720581,
				0.24918678402900696
			],
			[
				-3.1048572063446045,
				-0.013823330402374268,
				-2.376842975616455,
				-2.3989763259887695,
				-0.298827588558197,
				-5.77346658706665,
				-0.5353571772575378,
				-0.10994639992713928,
				-0.12400943785905838,
				-0.7543125748634338,
				0.11608084291219711,
				-0.16611574590206146,
				-1.1747249364852905,
				-11.94784164428711,
				-0.48241978883743286,
				-1.6478476524353027
			]
		],
		"weight_1": [
			0.42007505893707275,
			0.0,
			0.06849244982004166,
			0.6103691458702087,
			-0.0031622678507119417,
			0.3468891978263855,
			0.0,
			0.10784157365560532,
			0.04144275188446045,
			0.28550514578819275,
			0.008658207021653652,
			0.20514562726020813,
			1.0540918111801147,
			0.17739979922771454,
			0.0,
			0.7458836436271667
		]
	},
	"layer_1": {
		"weight_0": [
			[
				0.8650866746902466,
				1.8721075057983398,
				1.562099575996399,
				1.542444109916687,
				1.138390064239502,
				-1.2553322315216064,
				-0.3768919110298157,
				0.6103623509407043
			],
			[
				0.4700908660888672,
				0.22011065483093262,
				-0.4054955244064331,
				0.37269127368927,
				-0.17155373096466064,
				-0.05268263816833496,
				0.28024256229400635,
				0.33491361141204834
			],
			[
				0.5307340621948242,
				-0.985775351524353,
				0.9500129818916321,
				0.9028280377388,
				0.5058217644691467,
				1.0335230827331543,
				-0.09193587303161621,
				0.84110426902771
			],
			[
				-0.6174100637435913,
				1.7075411081314087,
				1.0433423519134521,
				0.3072560727596283,
				0.8924837708473206,
				-0.5166940689086914,
				0.0695686936378479,
				0.39594995975494385
			],
			[
				0.27301478385925293,
				-0.35774362087249756,
				-0.2841795086860657,
				0.018535256385803223,
				-0.34729093313217163,
				0.0758744478225708,
				0.3515065908432007,
				0.2688174247741699
			],
			[
				2.6159753799438477,
				2.4489336013793945,
				2.70320725440979,
				2.7420907020568848,
				2.7963309288024902,
				0.5132767558097839,
				-0.07556044310331345,
				1.8438488245010376
			],
			[
				-0.379866361618042,
				-0.17825734615325928,
				0.38548386096954346,
				0.3255971670150757,
				0.2616630792617798,
				-0.3491729497909546,
				-0.4105335474014282,
				-0.1950777769088745
			],
			[
				-0.32342034578323364,
				-1.5146336555480957,
				0.34587350487709045,
				0.5351300835609436,
				0.5757412910461426,
				0.42437100410461426,
				-0.10376406461000443,
				0.37217041850090027
			],
			[
				0.5209199786186218,
				-5.567821502685547,
				0.4833863377571106,
				0.17391370236873627,
				0.5486847162246704,
				0.7009412050247192,
				-0.26975423097610474,
				0.7930462956428528
			],
			[
				0.3810843527317047,
				0.30630987882614136,
				0.574508011341095,
				0.31306856870651245,
				0.32924893498420715,
				0.18869753181934357,
				-0.437919557094574,
				1.0947500467300415
			],
			[
				0.10697602480649948,
				-6.541751861572266,
				0.6121949553489685,
				0.0271466001868248,
				0.1709991842508316,
				1.017490267753601,
				0.005106765776872635,
				0.3845529854297638
			],
			[
				-0.416596382856369,
				-1.703558087348938,
				1.089393138885498,
				0.5404700040817261,
				1.0862634181976318,
				0.9074139595031738,
				-0.24556897580623627,
				0.9591681957244873
			],
			[
				-0.7272714376449585,
				0.2464199960231781,
				-0.03894611448049545,
				0.28675466775894165,
				-0.3966589570045471,
				-0.7206556797027588,
				0.14296071231365204,
				0.4402599334716797
			],
			[
				2.9312000274658203,
				-0.8662457466125488,
				5.1952362060546875,
				5.6852874755859375,
				5.489515781402588,
				4.87783670425415,
				-0.4558368921279907,
				4.6679205894470215
			],
			[
				-0.15803706645965576,
				-0.4041593074798584,
				0.15166842937469482,
				-0.044609904289245605,
				-0.24232661724090576,
				0.38309669494628906,
				-0.43708908557891846,
				0.16429030895233154
			],
			[
				-0.45037660002708435,
				0.6237224340438843,
				0.5472906827926636,
				-0.40458184480667114,
				-0.35521119832992554,
				-0.9380269646644592,
				0.13033954799175262,
				0.41130611300468445
			]
		],
		"weight_1": [
			-0.9524666666984558,
			1.031328558921814,
			-0.01860172674059868,
			-0.023120587691664696,
			0.019647864624857903,
			-0.574225664138794,
			-0.08103499561548233,
			0.2844657599925995
		]
	},
	"layer_2": {
		"weight_0": [
			[
				-1.0906269550323486,
				1.3093420267105103,
				0.24560636281967163,
				-0.7527759075164795
			],
			[
				-2.2857096195220947,
				-0.6718425750732422,
				-0.1615060567855835,
				-2.209534168243408
			],
			[
				1.7585155963897705,
				0.09949105232954025,
				-0.14260822534561157,
				1.7728238105773926
			],
			[
				0.9631093144416809,
				0.29636090993881226,
				-0.19584780931472778,
				1.3377548456192017
			],
			[
				1.6927155256271362,
				0.07111884653568268,
				-0.4309891164302826,
				0.899369478225708
			],
			[
				-1.5880231857299805,
				1.6652792692184448,
				0.3755263686180115,
				-2.5900423526763916
			],
			[
				0.6251220107078552,
				-0.2219301164150238,
				0.2488865852355957,
				0.53391033411026
			],
			[
				1.3334890604019165,
				-0.4360063970088959,
				0.06521564722061157,
				0.9490406513214111
			]
		],
		"weight_1": [
			0.10703013837337494,
			-2.547483205795288,
			0.0,
			0.11105310171842575
		]
	},
	"layer_3": {
		"weight_0": [
			[
				2.4603703022003174
			],
			[
				-2.780324935913086
			],
			[
				-0.6804614067077637
			],
			[
				3.054168462753296
			]
		],
		"weight_1": [
			0.12207566201686859
		]
	}
}