{
	"layer_0": {
		"weight_0": [
			[
				-0.41106659173965454,
				-0.07018744200468063,
				0.2054520696401596,
				0.11097206920385361,
				0.14985200762748718,
				-0.4148387610912323,
				0.8037380576133728,
				-0.46925002336502075,
				0.852282702922821,
				0.5557377338409424,
				-0.5505160093307495,
				0.2936151921749115,
				-0.18941187858581543,
				0.46050548553466797,
				-0.12778118252754211,
				0.7481021285057068
			],
			[
				0.03131869435310364,
				0.06010124832391739,
				0.5269030332565308,
				0.427325963973999,
				0.5476048588752747,
				-0.4829142093658447,
				0.8285024166107178,
				-0.025977611541748047,
				-0.2456723153591156,
				-0.15197986364364624,
				-0.1723790168762207,
				-0.0989668071269989,
				0.028994029387831688,
				-0.09283377975225449,
				-0.20262932777404785,
				0.25546568632125854
			]
		],
		"weight_1": [
			-0.032620374113321304,
			-0.052948277443647385,
			0.35735660791397095,
			0.27913689613342285,
			0.1617681086063385,
			0.0,
			0.33056166768074036,
			0.0,
			0.348970502614975,
			0.36098217964172363,
			0.0,
			0.32389307022094727,
			-0.03389021381735802,
			0.3556000292301178,
			0.0,
			0.3541010320186615
		]
	},
	"layer_1": {},
	"layer_2": {
		"weight_0": [
			[
				-0.2751615345478058,
				0.22229592502117157,
				0.18359018862247467,
				-0.47418585419654846,
				-0.4228997826576233,
				0.43637657165527344,
				-0.33614200353622437,
				-0.4538673758506775
			],
			[
				0.47475627064704895,
				0.1512688249349594,
				0.44718095660209656,
				-0.3972651958465576,
				0.12917426228523254,
				-0.13999967277050018,
				-0.09267289936542511,
				-0.42917296290397644
			],
			[
				-0.43881747126579285,
				0.2334277182817459,
				0.7096006870269775,
				0.4338623285293579,
				0.4020892381668091,
				-0.4884454011917114,
				0.5709679126739502,
				0.7851449847221375
			],
			[
				0.35018396377563477,
				0.228066086769104,
				0.08765110373497009,
				0.28128376603126526,
				0.28113481402397156,
				-0.31448936462402344,
				0.12714701890945435,
				0.8216215968132019
			],
			[
				-0.16761063039302826,
				-0.5941935777664185,
				0.302455335855484,
				0.37940195202827454,
				0.09016403555870056,
				-0.46718570590019226,
				0.26529860496520996,
				0.026047201827168465
			],
			[
				0.1275092363357544,
				0.17763173580169678,
				-0.30053234100341797,
				-0.12311089038848877,
				-0.0638347864151001,
				-0.31748712062835693,
				0.009567499160766602,
				0.1968851089477539
			],
			[
				0.09407765418291092,
				0.2655978202819824,
				0.2690074145793915,
				0.41021350026130676,
				0.22380369901657104,
				0.36788520216941833,
				0.6108616590499878,
				0.6541913747787476
			],
			[
				-0.0827798843383789,
				-0.3036336898803711,
				-0.49353742599487305,
				0.032959699630737305,
				-0.1967252492904663,
				-0.2970912456512451,
				0.0111311674118042,
				0.4003192186355591
			],
			[
				0.3820267617702484,
				0.3554897606372833,
				0.28061962127685547,
				0.6576545238494873,
				0.8216301202774048,
				-0.4405072331428528,
				0.2911461591720581,
				0.5825104713439941
			],
			[
				-0.23449651896953583,
				-0.17029578983783722,
				0.5507739186286926,
				0.2132609784603119,
				0.5866256356239319,
				-0.37268897891044617,
				0.23676809668540955,
				0.7286044359207153
			],
			[
				-0.4636812210083008,
				-0.015492677688598633,
				-0.34183430671691895,
				0.35167384147644043,
				0.09753584861755371,
				0.08393943309783936,
				0.16855192184448242,
				-0.3310363292694092
			],
			[
				0.009771246463060379,
				-0.08054995536804199,
				0.09818142652511597,
				0.6965957880020142,
				0.5016419887542725,
				-0.0749976634979248,
				0.6820514798164368,
				0.5198676586151123
			],
			[
				-0.38556939363479614,
				0.162300243973732,
				-0.18706074357032776,
				-0.4575986862182617,
				-0.2015676498413086,
				0.08848404884338379,
				-0.3469739556312561,
				-0.3426281809806824
			],
			[
				-0.5311735272407532,
				-0.16948066651821136,
				0.11368642002344131,
				0.7553753852844238,
				0.4257337152957916,
				-0.2318941354751587,
				0.17813090980052948,
				0.14439338445663452
			],
			[
				-0.3202512264251709,
				0.011386990547180176,
				-0.11635470390319824,
				0.33088433742523193,
				0.2510979175567627,
				-0.39439213275909424,
				0.18913638591766357,
				0.0016356706619262695
			],
			[
				0.04692358523607254,
				-0.5672116875648499,
				0.8194088935852051,
				0.3119073212146759,
				0.15269270539283752,
				-0.14458900690078735,
				0.7683491110801697,
				0.5578228235244751
			]
		],
		"weight_1": [
			-0.060840360820293427,
			-0.09097257256507874,
			0.3532949388027191,
			0.34435853362083435,
			0.3520515561103821,
			-0.009393531829118729,
			0.34551534056663513,
			0.3474562168121338
		]
	},
	"layer_3": {},
	"layer_4": {
		"weight_0": [
			[
				-0.5978471040725708,
				-0.40891191363334656,
				0.11384621262550354,
				-0.02727341651916504
			],
			[
				-0.5904698371887207,
				-0.34044384956359863,
				0.5243496298789978,
				-0.6134856343269348
			],
			[
				0.37065547704696655,
				-0.20067596435546875,
				-0.27925342321395874,
				-0.5628500580787659
			],
			[
				1.0090301036834717,
				-0.387177973985672,
				0.108787402510643,
				-0.3797752857208252
			],
			[
				1.0555036067962646,
				-0.08390188217163086,
				-0.5847460627555847,
				-0.641323983669281
			],
			[
				-0.2290886640548706,
				0.4153990149497986,
				-0.2511616349220276,
				-0.6937651038169861
			],
			[
				0.47888022661209106,
				-0.30592256784439087,
				0.04730026796460152,
				-0.3105131983757019
			],
			[
				0.544009804725647,
				-0.22149449586868286,
				-0.28173887729644775,
				-0.5028188228607178
			]
		],
		"weight_1": [
			0.340366393327713,
			0.0,
			-0.007169715594500303,
			0.0
		]
	},
	"layer_5": {},
	"layer_6": {
		"weight_0": [
			[
				2.7788889408111572
			],
			[
				-0.5413757562637329
			],
			[
				-0.8089666962623596
			],
			[
				-0.7173601388931274
			]
		],
		"weight_1": [
			2.358602285385132
		]
	}
}