{
	"layer_0": {
		"weight_0": [
			[
				-0.41782304644584656,
				1.170932650566101,
				1.5825364589691162,
				-0.2862483561038971,
				0.8851925730705261,
				-0.31927233934402466,
				1.233372449874878,
				0.7646344900131226,
				0.04839815944433212,
				-0.22686046361923218,
				-0.19298893213272095,
				-0.4125370979309082,
				0.9655484557151794,
				-0.0695694088935852,
				1.2969887256622314,
				1.2201334238052368
			],
			[
				-0.5264221429824829,
				-1.399451732635498,
				0.608526349067688,
				-0.5414490699768066,
				-1.1950485706329346,
				-0.15866854786872864,
				-1.0255060195922852,
				-0.5248692631721497,
				-0.2350877821445465,
				-0.006655693054199219,
				-0.024457812309265137,
				-0.509529709815979,
				-0.21331225335597992,
				-0.3207593858242035,
				-1.2084219455718994,
				-0.7498610019683838
			]
		],
		"weight_1": [
			0.0,
			0.70514976978302,
			0.7403573393821716,
			0.0,
			0.7761539220809937,
			0.0,
			0.8444849848747253,
			0.7868754863739014,
			-0.017654968425631523,
			0.0,
			0.0,
			0.0,
			0.958545982837677,
			0.0,
			0.7966886162757874,
			0.8517898321151733
		]
	},
	"layer_1": {
		"weight_0": [
			[
				-0.31280720233917236,
				0.10576879978179932,
				0.403678297996521,
				0.2930886745452881,
				-0.18735063076019287,
				0.23721051216125488,
				-0.3982882499694824,
				0.1602398157119751
			],
			[
				-0.3882089853286743,
				0.4241899251937866,
				1.512846827507019,
				-0.057547926902770996,
				1.8988170623779297,
				-0.223913311958313,
				-0.3292509913444519,
				1.0110137462615967
			],
			[
				-0.22355902194976807,
				-0.4540342390537262,
				0.3169320821762085,
				0.09580745548009872,
				-0.15236547589302063,
				-0.1126021146774292,
				0.9235879182815552,
				0.48748305439949036
			],
			[
				-0.05649232864379883,
				-0.2432851791381836,
				0.048990607261657715,
				-0.00042569637298583984,
				0.10873115062713623,
				0.07897722721099854,
				-0.46324288845062256,
				-0.0370563268661499
			],
			[
				0.3107997179031372,
				-0.2898091971874237,
				1.5437501668930054,
				-0.3389263153076172,
				1.466875672340393,
				0.046173930168151855,
				-0.2544713020324707,
				1.3694486618041992
			],
			[
				-0.17362236976623535,
				0.37082231044769287,
				-0.0072345733642578125,
				0.0345536470413208,
				0.26710033416748047,
				-0.06380581855773926,
				0.08654606342315674,
				-0.09159862995147705
			],
			[
				0.14570963382720947,
				-0.15904521942138672,
				1.0042155981063843,
				-0.36628687381744385,
				1.5390446186065674,
				0.1300961971282959,
				-0.508147656917572,
				1.365985631942749
			],
			[
				-0.16786015033721924,
				-0.2413530945777893,
				0.3042879104614258,
				-0.08619654923677444,
				1.0359126329421997,
				-0.3799053430557251,
				0.5210592150688171,
				0.7009193301200867
			],
			[
				-0.29441821575164795,
				-0.115488201379776,
				-0.36781856417655945,
				-0.09469926357269287,
				0.17338542640209198,
				-0.2685360908508301,
				0.2156514674425125,
				0.1834656000137329
			],
			[
				0.010663747787475586,
				0.43877720832824707,
				0.2894853353500366,
				0.3474236726760864,
				-0.44404518604278564,
				-0.3415311574935913,
				0.23060476779937744,
				-0.39589571952819824
			],
			[
				0.1365053653717041,
				0.1703575849533081,
				0.22667038440704346,
				0.1481642723083496,
				-0.35224485397338867,
				0.03538918495178223,
				-0.4751969575881958,
				0.4455101490020752
			],
			[
				-0.39092183113098145,
				-0.225580096244812,
				0.4250016212463379,
				-0.27150166034698486,
				-0.4573631286621094,
				-0.49472367763519287,
				-0.37927067279815674,
				-0.36442744731903076
			],
			[
				-0.08112478256225586,
				0.20042893290519714,
				0.6273657083511353,
				-0.17869223654270172,
				-0.018618786707520485,
				0.06728219985961914,
				0.3729965090751648,
				0.11414602398872375
			],
			[
				-0.19773101806640625,
				0.4028712511062622,
				-0.11386644840240479,
				-0.32394301891326904,
				0.3900492191314697,
				-0.27184295654296875,
				-0.32880330085754395,
				-0.30462872982025146
			],
			[
				-0.13176369667053223,
				0.19009867310523987,
				1.4173681735992432,
				-0.14375996589660645,
				1.5865724086761475,
				-0.011557936668395996,
				-0.44360482692718506,
				1.2203911542892456
			],
			[
				0.07395815849304199,
				-0.18237830698490143,
				1.4211550951004028,
				-0.3552769124507904,
				1.1478444337844849,
				-0.209641695022583,
				-0.2961851954460144,
				0.7393807768821716
			]
		],
		"weight_1": [
			0.0,
			-0.023927737027406693,
			0.8556311130523682,
			-0.009451894089579582,
			0.8587214350700378,
			0.0,
			-0.055240172892808914,
			0.8650194406509399
		]
	},
	"layer_2": {
		"weight_0": [
			[
				0.28734099864959717,
				0.519683301448822,
				0.5258929133415222,
				0.3800659775733948
			],
			[
				0.24195224046707153,
				0.25382429361343384,
				-0.6352946162223816,
				-0.053095120936632156
			],
			[
				0.02578253112733364,
				0.3431831896305084,
				-0.4558909833431244,
				1.5469621419906616
			],
			[
				0.3672254681587219,
				0.5538225769996643,
				-0.2156434953212738,
				0.25676971673965454
			],
			[
				-0.7040731310844421,
				-0.0009274444309994578,
				-0.615033745765686,
				1.542649507522583
			],
			[
				-0.44685015082359314,
				-0.4011150896549225,
				-0.4297022819519043,
				0.6840937733650208
			],
			[
				-0.6441236138343811,
				-0.7160419821739197,
				-0.12853896617889404,
				-1.9232177734375
			],
			[
				0.3601435720920563,
				-0.579285204410553,
				0.6725055575370789,
				1.1686593294143677
			]
		],
		"weight_1": [
			-0.11842291802167892,
			-0.15383590757846832,
			0.0,
			0.8461087346076965
		]
	},
	"layer_3": {
		"weight_0": [
			[
				-0.17521139979362488
			],
			[
				-0.0973256304860115
			],
			[
				0.2893803119659424
			],
			[
				1.8898390531539917
			]
		],
		"weight_1": [
			0.8350585699081421
		]
	}
}