{
	"layer_0": {
		"weight_0": [
			[
				0.11401914060115814,
				0.013500174507498741,
				-0.43433868885040283,
				0.15236757695674896,
				0.013034302741289139,
				0.1650172770023346,
				0.7431615591049194,
				0.5164505243301392,
				0.44795674085617065,
				-0.4981399476528168,
				0.6061689257621765,
				0.33361169695854187,
				0.40745073556900024,
				0.31865638494491577,
				-0.2790992856025696,
				0.2997477650642395
			],
			[
				-0.01943729817867279,
				-0.5387932658195496,
				-0.0007453560829162598,
				0.7389901876449585,
				-0.29446032643318176,
				0.9529237747192383,
				0.7903856039047241,
				0.8353235721588135,
				0.9311049580574036,
				-0.17470380663871765,
				0.45061326026916504,
				0.5620554685592651,
				0.9790651798248291,
				0.9978794455528259,
				-0.4315165579319,
				0.9315047264099121
			]
		],
		"weight_1": [
			-0.11274810880422592,
			-0.003162272507324815,
			0.0,
			0.5535223484039307,
			-0.0031622753012925386,
			0.5317589640617371,
			0.35997459292411804,
			0.44745612144470215,
			0.5379212498664856,
			0.0,
			0.3647969663143158,
			0.1712925136089325,
			0.5186671614646912,
			0.5318282842636108,
			0.0,
			0.5264273881912231
		]
	},
	"layer_1": {},
	"layer_2": {
		"weight_0": [
			[
				0.1689450740814209,
				0.31870532035827637,
				-0.3593621551990509,
				-0.22569561004638672,
				0.23841272294521332,
				0.4148549735546112,
				0.01934872753918171,
				-0.32732340693473816
			],
			[
				0.3272782564163208,
				-0.17974352836608887,
				0.10953018814325333,
				-0.25025856494903564,
				0.4746818542480469,
				-0.44656670093536377,
				-0.44509410858154297,
				-0.22952806949615479
			],
			[
				0.2408764362335205,
				-0.48806774616241455,
				0.1438438892364502,
				0.3050994873046875,
				-0.20334696769714355,
				-0.4633183479309082,
				-0.47308170795440674,
				-0.3728266954421997
			],
			[
				0.0918722152709961,
				-0.19269025325775146,
				0.8959787487983704,
				0.19646480679512024,
				0.2992419898509979,
				0.30424848198890686,
				0.7221617102622986,
				0.9263855218887329
			],
			[
				0.1862642765045166,
				-0.1441478729248047,
				-0.31669002771377563,
				0.3767430782318115,
				0.37610137462615967,
				-0.003518342971801758,
				0.4821636378765106,
				-0.14062610268592834
			],
			[
				-0.4859846830368042,
				0.10793638229370117,
				0.9596725702285767,
				-0.3572327196598053,
				-0.21015264093875885,
				-0.44466114044189453,
				0.0898241177201271,
				0.2033776193857193
			],
			[
				-0.2853284478187561,
				0.07386207580566406,
				0.15933862328529358,
				-0.2491014301776886,
				0.1532304733991623,
				-0.48569679260253906,
				0.9796215295791626,
				0.5455202460289001
			],
			[
				0.49367666244506836,
				-0.20192384719848633,
				0.8859477639198303,
				-0.31956207752227783,
				0.43897244334220886,
				0.27796730399131775,
				0.10249971598386765,
				0.1796208769083023
			],
			[
				-0.3586389124393463,
				-0.20048105716705322,
				0.8488035202026367,
				0.10375609993934631,
				-0.12160088866949081,
				0.2728745937347412,
				0.9440746903419495,
				0.891089916229248
			],
			[
				-0.09954476356506348,
				-0.24831807613372803,
				-0.13170623779296875,
				-0.3430396318435669,
				-0.2917604446411133,
				0.4430570602416992,
				-0.43449318408966064,
				0.3097273111343384
			],
			[
				-0.16095362603664398,
				-0.27735722064971924,
				0.1802557408809662,
				0.07703536748886108,
				-0.3759743273258209,
				0.06361883133649826,
				0.02617558091878891,
				0.7565508484840393
			],
			[
				0.42471709847450256,
				-0.11541628837585449,
				0.46039754152297974,
				-0.3853640556335449,
				0.33177101612091064,
				0.25479137897491455,
				0.8155660033226013,
				0.04735890030860901
			],
			[
				-0.3394335210323334,
				-0.46719634532928467,
				0.5877610445022583,
				0.1301090270280838,
				-0.4880313277244568,
				-0.03920092061161995,
				0.07634380459785461,
				0.7532315850257874
			],
			[
				-0.34572380781173706,
				0.2564500570297241,
				0.8733869194984436,
				0.40165966749191284,
				-0.4844640791416168,
				-0.08997219055891037,
				0.9124360680580139,
				0.576508104801178
			],
			[
				-0.2642446756362915,
				-0.019579291343688965,
				-0.1961437463760376,
				0.4962453842163086,
				0.44092226028442383,
				-0.11624133586883545,
				0.43307650089263916,
				-0.21790087223052979
			],
			[
				-0.26186123490333557,
				-0.39153897762298584,
				0.6853637099266052,
				-0.354125052690506,
				0.021742455661296844,
				0.14037279784679413,
				0.4842233657836914,
				0.8401972055435181
			]
		],
		"weight_1": [
			-0.0018543399637565017,
			0.0,
			0.5297697186470032,
			-0.01945655606687069,
			-0.036048080772161484,
			-0.11434566974639893,
			0.5058502554893494,
			0.5392429232597351
		]
	},
	"layer_3": {},
	"layer_4": {
		"weight_0": [
			[
				-0.5639916062355042,
				-0.35823556780815125,
				-0.37958192825317383,
				0.5479108691215515
			],
			[
				-0.3997502028942108,
				-0.00676274299621582,
				-0.6282076835632324,
				0.357016384601593
			],
			[
				-0.25247594714164734,
				1.0100888013839722,
				-0.6528995037078857,
				0.5014297366142273
			],
			[
				-0.3581089675426483,
				-0.13660240173339844,
				-0.13059741258621216,
				0.33215898275375366
			],
			[
				0.15635760128498077,
				-0.5046948790550232,
				-0.1635245680809021,
				0.3090461492538452
			],
			[
				0.21703536808490753,
				-0.22563683986663818,
				-0.22228282690048218,
				-0.2884608209133148
			],
			[
				-0.5091590881347656,
				0.38481199741363525,
				-0.07450097799301147,
				0.5097452998161316
			],
			[
				0.4125286042690277,
				0.9327813982963562,
				-0.6091470718383789,
				0.705382227897644
			]
		],
		"weight_1": [
			-0.005839414428919554,
			0.38651618361473083,
			0.0,
			0.40748292207717896
		]
	},
	"layer_5": {},
	"layer_6": {
		"weight_0": [
			[
				-0.8101601004600525
			],
			[
				2.7707149982452393
			],
			[
				0.5222316980361938
			],
			[
				2.316781759262085
			]
		],
		"weight_1": [
			2.3499789237976074
		]
	}
}