{
	"layer_0": {
		"weight_0": 0.0,
		"weight_1": 1.0,
		"weight_2": -1
	},
	"layer_1": {
		"weight_0": [
			-0.5135354995727539,
			0.1891731172800064,
			1.01896333694458,
			1.1200398206710815,
			0.41605207324028015,
			0.8478065729141235,
			0.3250649571418762,
			0.40041330456733704,
			-0.03918442875146866,
			-0.2506386339664459,
			0.32864856719970703,
			0.6766060590744019,
			0.6975968480110168,
			0.0,
			0.0,
			0.43516409397125244
		],
		"weight_1": [
			[
				0.916224479675293,
				0.908185601234436,
				-0.34523364901542664,
				-4.817315578460693,
				2.0327200889587402,
				0.5330635905265808,
				2.3197169303894043,
				1.506951093673706,
				0.06368959695100784,
				1.0246083736419678,
				0.5302838683128357,
				-0.8450138568878174,
				0.6746519804000854,
				-0.5427755117416382,
				-0.35901907086372375,
				3.088663339614868
			],
			[
				0.15607669949531555,
				-7.94334602355957,
				-0.8921931982040405,
				-0.4671482443809509,
				-0.953575849533081,
				-1.9084242582321167,
				-0.34451690316200256,
				-0.46926048398017883,
				-0.19736914336681366,
				1.5330250263214111,
				-4.3829665184021,
				1.0007158517837524,
				-2.9081740379333496,
				-0.3527251183986664,
				-0.4098617136478424,
				0.13557124137878418
			]
		],
		"weight_2": -1,
		"weight_3": -7.94334602355957,
		"weight_4": 7.94334602355957,
		"weight_5": -1.0344233678196528e-30,
		"weight_6": 3.5386006832122803
	},
	"layer_2": {
		"weight_0": [
			0.9480201005935669,
			0.5525236129760742,
			0.14720405638217926,
			0.15874513983726501,
			-0.05811507627367973,
			0.0593627467751503,
			-0.09206993877887726,
			0.5324056148529053
		],
		"weight_1": [
			[
				-1.4833158254623413,
				-1.0180063247680664,
				-0.8746355772018433,
				0.32615500688552856,
				0.4423287808895111,
				0.38962066173553467,
				0.9116721749305725,
				-0.7214200496673584
			],
			[
				3.771519660949707,
				3.9958338737487793,
				3.6918959617614746,
				-0.39941883087158203,
				-3.4932491779327393,
				-1.2180049419403076,
				-2.793992280960083,
				3.9999022483825684
			],
			[
				0.3993692398071289,
				0.4782799482345581,
				-0.1748293936252594,
				0.11172058433294296,
				0.4680697023868561,
				0.15725679695606232,
				-0.16506755352020264,
				0.19974596798419952
			],
			[
				-0.9490136504173279,
				-0.4369296729564667,
				-0.3976418077945709,
				1.5125912427902222,
				0.4294208288192749,
				2.1278765201568604,
				0.5483388900756836,
				-0.6774649620056152
			],
			[
				1.3907437324523926,
				0.7439696192741394,
				0.97257399559021,
				-1.3895291090011597,
				0.2815849483013153,
				-1.740079641342163,
				0.3165290951728821,
				0.6413370966911316
			],
			[
				1.6847927570343018,
				0.4161907732486725,
				0.36211860179901123,
				-2.4450502395629883,
				-0.15945574641227722,
				0.27753856778144836,
				0.271950900554657,
				0.6128736734390259
			],
			[
				0.7186512351036072,
				-0.05092507600784302,
				-0.05507172271609306,
				-0.11132162809371948,
				-0.15740808844566345,
				-2.044074058532715,
				0.5320237278938293,
				0.4959862232208252
			],
			[
				0.9775749444961548,
				-0.1846996396780014,
				0.2020024210214615,
				0.5420060157775879,
				-0.11393862217664719,
				-1.439378261566162,
				0.3812217712402344,
				0.13574443757534027
			],
			[
				-0.3133973181247711,
				-0.15319649875164032,
				-0.26420798897743225,
				-0.44120049476623535,
				-0.14213301241397858,
				-0.3343956172466278,
				0.363901287317276,
				-0.1765473335981369
			],
			[
				0.5826084613800049,
				-0.09821023792028427,
				-1.2116438150405884,
				0.19481408596038818,
				0.44745251536369324,
				-0.7026720643043518,
				0.5696631669998169,
				-0.6017490029335022
			],
			[
				1.9174209833145142,
				1.4629188776016235,
				1.8222074508666992,
				-0.5531425476074219,
				-0.7077962160110474,
				1.7760188579559326,
				-0.057060059159994125,
				1.5968114137649536
			],
			[
				0.6365711092948914,
				0.1784592866897583,
				-0.966628909111023,
				-0.41551321744918823,
				0.751713752746582,
				0.3983297348022461,
				0.14111553132534027,
				0.3865772783756256
			],
			[
				1.459720253944397,
				1.0546091794967651,
				1.3675541877746582,
				0.35315707325935364,
				-0.2003622204065323,
				1.241450309753418,
				-0.30979683995246887,
				0.31978628039360046
			],
			[
				-0.34385108947753906,
				0.25854504108428955,
				0.4084819555282593,
				0.016976356506347656,
				-0.2623908519744873,
				-0.27730894088745117,
				0.37525689601898193,
				-0.3338003158569336
			],
			[
				0.26740121841430664,
				-0.42330753803253174,
				0.0039321184158325195,
				0.26973116397857666,
				0.4847928285598755,
				-0.1933290958404541,
				-0.4296959638595581,
				0.05008065700531006
			],
			[
				1.0156713724136353,
				0.7449221014976501,
				-0.44420677423477173,
				0.2933780550956726,
				0.3089953362941742,
				-1.558394432067871,
				-0.2725922763347626,
				-0.12772755324840546
			]
		],
		"weight_2": -1,
		"weight_3": -3.9999022483825684,
		"weight_4": 3.9999022483825684,
		"weight_5": -1.0344233678196528e-30,
		"weight_6": 13.873821258544922
	},
	"layer_3": {
		"weight_0": [
			-0.12084255367517471,
			0.8841122984886169,
			0.5309598445892334,
			0.6146456003189087
		],
		"weight_1": [
			[
				-0.2986207604408264,
				1.0743861198425293,
				0.8759456872940063,
				0.8667863011360168
			],
			[
				-0.10967439413070679,
				0.4107123613357544,
				1.1838196516036987,
				0.9996334910392761
			],
			[
				0.12854313850402832,
				2.2941839694976807,
				2.7050321102142334,
				1.5663831233978271
			],
			[
				-0.17792576551437378,
				1.2974038124084473,
				1.6486767530441284,
				-0.9771762490272522
			],
			[
				0.2471410185098648,
				-0.726013720035553,
				-1.4565378427505493,
				-1.1217923164367676
			],
			[
				-0.34790706634521484,
				-3.133216381072998,
				-2.9250197410583496,
				-2.9457550048828125
			],
			[
				-0.35856229066848755,
				-0.8061920404434204,
				-0.9618513584136963,
				-1.1979538202285767
			],
			[
				0.36992567777633667,
				0.21043343842029572,
				1.220077633857727,
				0.20255552232265472
			]
		],
		"weight_2": -1,
		"weight_3": -3.133192777633667,
		"weight_4": 3.133192777633667,
		"weight_5": -1.0344233678196528e-30,
		"weight_6": 24.0557918548584
	},
	"layer_4": {
		"weight_0": [
			0.5645996928215027
		],
		"weight_1": [
			[
				-0.7892101407051086
			],
			[
				2.1927595138549805
			],
			[
				2.278132438659668
			],
			[
				2.547065496444702
			]
		],
		"weight_2": -1,
		"weight_3": -2.5474400520324707,
		"weight_4": 2.5474400520324707,
		"weight_5": -1.0344233678196528e-30,
		"weight_6": 139.24050903320312
	}
}