{
	"layer_0": {
		"weight_0": [
			[
				-0.4794032871723175,
				-0.06119416654109955,
				0.576641857624054,
				-0.5748783349990845,
				0.8293058276176453,
				-0.05153763294219971,
				-0.12915317714214325,
				1.0027618408203125,
				0.01995900459587574,
				-0.513426661491394,
				-0.44833630323410034,
				-0.058704327791929245,
				-0.43473386764526367,
				0.05089631304144859,
				0.8515050411224365,
				0.0462612584233284
			],
			[
				-0.20682701468467712,
				0.7860497236251831,
				0.8602813482284546,
				-0.20095467567443848,
				0.2703781723976135,
				-0.3882102966308594,
				0.6735953688621521,
				0.6792213320732117,
				-0.060822758823633194,
				-0.3313997983932495,
				-0.027155637741088867,
				0.10230003297328949,
				-0.22659507393836975,
				0.6817554235458374,
				0.3561466932296753,
				-0.411414235830307
			]
		],
		"weight_1": [
			0.0,
			0.44930708408355713,
			0.4663200080394745,
			0.0,
			0.4585709869861603,
			0.0,
			0.45430460572242737,
			0.4710424840450287,
			-0.01204946730285883,
			0.0,
			0.0,
			-0.10579907149076462,
			0.0,
			0.2976926565170288,
			0.46245282888412476,
			-0.003162270411849022
		]
	},
	"layer_1": {},
	"layer_2": {
		"weight_0": [
			[
				0.36409783363342285,
				-0.02104508876800537,
				0.3248187303543091,
				0.3832263946533203,
				0.33199989795684814,
				-0.31917738914489746,
				0.3003600835800171,
				-0.33877599239349365
			],
			[
				-0.20331323146820068,
				0.40043604373931885,
				0.10911895334720612,
				0.7326313257217407,
				0.4299357533454895,
				0.254663348197937,
				0.6788924932479858,
				0.5366538763046265
			],
			[
				0.1091378927230835,
				-0.19516372680664062,
				0.9137592911720276,
				0.5497419834136963,
				0.6973537802696228,
				-0.29853495955467224,
				0.3956533968448639,
				0.18520057201385498
			],
			[
				0.4409984350204468,
				-0.1371908187866211,
				0.3372488021850586,
				0.22854888439178467,
				0.12398672103881836,
				-0.16274702548980713,
				-0.22905278205871582,
				-0.16159403324127197
			],
			[
				-0.1725161075592041,
				-0.2503330707550049,
				0.510817289352417,
				0.8538147211074829,
				0.5651501417160034,
				0.33641961216926575,
				-0.041230350732803345,
				0.47846442461013794
			],
			[
				-0.26740968227386475,
				0.09971857070922852,
				-0.1558694839477539,
				-0.06631052494049072,
				0.4271813631057739,
				-0.19250869750976562,
				0.1643378734588623,
				-0.31583619117736816
			],
			[
				0.08939659595489502,
				-0.17889225482940674,
				0.44370773434638977,
				0.8510187864303589,
				0.6625231504440308,
				0.34619003534317017,
				0.34354084730148315,
				0.33546382188796997
			],
			[
				-0.25218069553375244,
				0.022617578506469727,
				0.24809564650058746,
				0.7236061692237854,
				0.3887638449668884,
				-0.4094780683517456,
				0.7302378416061401,
				0.4197635054588318
			],
			[
				-0.4866403341293335,
				-0.40619421005249023,
				0.17978672683238983,
				-0.4691956639289856,
				-0.5010569095611572,
				-0.10662806034088135,
				0.10500776767730713,
				0.18568667769432068
			],
			[
				0.3748805522918701,
				0.3884981870651245,
				0.11474001407623291,
				0.09484338760375977,
				-0.30002427101135254,
				-0.28520166873931885,
				0.2886204719543457,
				-0.13965308666229248
			],
			[
				0.0104522705078125,
				-0.23029112815856934,
				0.12517058849334717,
				0.4076414108276367,
				0.3506563901901245,
				0.26473355293273926,
				0.030217766761779785,
				0.2535918951034546
			],
			[
				0.09374678134918213,
				0.18267691135406494,
				0.021916314959526062,
				-0.22284170985221863,
				-0.040869180113077164,
				0.42801347374916077,
				-0.2501574754714966,
				0.4375144839286804
			],
			[
				-0.15681064128875732,
				-0.1162712574005127,
				0.1580195426940918,
				0.2761094570159912,
				-0.4373520612716675,
				-0.29626643657684326,
				0.43600916862487793,
				-0.3764045238494873
			],
			[
				-0.33932697772979736,
				-0.46723997592926025,
				0.3037091791629791,
				0.13190729916095734,
				0.6139446496963501,
				0.3406356871128082,
				0.8458064198493958,
				0.5855478644371033
			],
			[
				-0.37037980556488037,
				-0.46874046325683594,
				0.5528168678283691,
				0.7363137006759644,
				0.7105513215065002,
				-0.22067348659038544,
				0.8377567529678345,
				0.03647720441222191
			],
			[
				-0.26518356800079346,
				-0.1817333698272705,
				-0.12433593720197678,
				0.17533209919929504,
				0.05955222249031067,
				-0.34748363494873047,
				-0.3773132264614105,
				-0.44443896412849426
			]
		],
		"weight_1": [
			0.0,
			0.0,
			0.4143170118331909,
			0.44664496183395386,
			0.3408783972263336,
			-0.11329232901334763,
			0.40176868438720703,
			0.19115304946899414
		]
	},
	"layer_3": {},
	"layer_4": {
		"weight_0": [
			[
				-0.03757089376449585,
				-0.42998602986335754,
				-0.39297452569007874,
				0.13052862882614136
			],
			[
				0.26141077280044556,
				0.5461683869361877,
				0.05048096179962158,
				-0.07391577959060669
			],
			[
				1.0540753602981567,
				-0.4690054655075073,
				0.3992963433265686,
				0.15284590423107147
			],
			[
				0.873587429523468,
				0.27088630199432373,
				-0.586016058921814,
				0.7062823176383972
			],
			[
				0.37097349762916565,
				-0.5173135995864868,
				-0.0011250274255871773,
				0.72320556640625
			],
			[
				-0.32532015442848206,
				0.2256055772304535,
				0.2693890929222107,
				-0.25600841641426086
			],
			[
				0.7752711176872253,
				-0.24750037491321564,
				0.48313868045806885,
				0.7202233672142029
			],
			[
				0.19593092799186707,
				0.6895209550857544,
				-0.37393611669540405,
				0.6043916940689087
			]
		],
		"weight_1": [
			0.3644961416721344,
			-0.012081554159522057,
			-0.13407595455646515,
			0.18982556462287903
		]
	},
	"layer_5": {},
	"layer_6": {
		"weight_0": [
			[
				3.1850082874298096
			],
			[
				-0.6153057217597961
			],
			[
				-0.8026039004325867
			],
			[
				2.201503276824951
			]
		],
		"weight_1": [
			2.3467535972595215
		]
	}
}