{
	"layer_0": {
		"weight_0": 0.0,
		"weight_1": 1.0,
		"weight_2": -1
	},
	"layer_1": {
		"weight_0": [
			0.2919365167617798,
			0.17537502944469452,
			0.0,
			0.0,
			0.0,
			0.44403499364852905,
			0.5728700757026672,
			0.0,
			1.0938900709152222,
			0.9161368012428284,
			0.16922804713249207,
			0.0,
			0.3771611154079437,
			1.4657403230667114,
			0.4769403040409088,
			-0.06951753050088882
		],
		"weight_1": [
			[
				2.0378737449645996,
				1.2199645042419434,
				-0.40181809663772583,
				-0.4346641004085541,
				-0.41095495223999023,
				0.4007476568222046,
				0.34904852509498596,
				-0.4136652946472168,
				6.508531093597412,
				0.3985885679721832,
				1.712581992149353,
				-0.26569387316703796,
				0.6893592476844788,
				-0.46927177906036377,
				4.639368057250977,
				-0.009018330834805965
			],
			[
				-0.5106384754180908,
				-7.939673900604248,
				-0.2996595501899719,
				-0.173171728849411,
				-0.06011921167373657,
				-2.5043628215789795,
				-1.916450023651123,
				-0.4271332025527954,
				-0.8481255173683167,
				-1.7832638025283813,
				-1.0176128149032593,
				-0.15216785669326782,
				-4.559307098388672,
				-1.046846628189087,
				-0.030952613800764084,
				0.06801584362983704
			]
		],
		"weight_2": -1,
		"weight_3": -7.939673900604248,
		"weight_4": 7.939673900604248,
		"weight_5": -1.0344233678196528e-30,
		"weight_6": 7.145631313323975
	},
	"layer_2": {
		"weight_0": [
			-0.044090453535318375,
			0.11662767827510834,
			-1.0096100568771362,
			-0.4709092676639557,
			-0.23016750812530518,
			-0.16495247185230255,
			0.0,
			0.15718984603881836
		],
		"weight_1": [
			[
				0.5102472305297852,
				1.5240176916122437,
				0.8867801427841187,
				0.48193231225013733,
				0.9780294299125671,
				0.6416303515434265,
				-0.16689515113830566,
				1.1892741918563843
			],
			[
				5.163836479187012,
				5.939568042755127,
				5.713320732116699,
				6.794223785400391,
				7.000738620758057,
				5.903131008148193,
				0.05302917957305908,
				6.419687271118164
			],
			[
				0.17587494850158691,
				0.07429838180541992,
				-0.2674175500869751,
				-0.1425248384475708,
				-0.1854921579360962,
				0.006722450256347656,
				0.33668267726898193,
				-0.38242900371551514
			],
			[
				-0.42324721813201904,
				-0.18854272365570068,
				-0.07083511352539062,
				-0.3464171886444092,
				0.27482521533966064,
				-0.11158061027526855,
				0.17248201370239258,
				0.30543041229248047
			],
			[
				-0.2661173343658447,
				-0.08357584476470947,
				-0.46478796005249023,
				0.23639607429504395,
				-0.425281286239624,
				0.04570591449737549,
				-0.2880125045776367,
				0.24064898490905762
			],
			[
				0.24388468265533447,
				0.3438637852668762,
				-1.1579841375350952,
				2.997098922729492,
				1.28666353225708,
				0.8856198787689209,
				-0.1794896125793457,
				0.39761680364608765
			],
			[
				0.25742825865745544,
				0.7599763870239258,
				-0.7339687347412109,
				0.5166589617729187,
				0.7384730577468872,
				0.3680401146411896,
				0.015482664108276367,
				0.17494605481624603
			],
			[
				-0.02154862880706787,
				0.26022303104400635,
				0.2740654945373535,
				-0.4313002824783325,
				0.4123973846435547,
				-0.0007145404815673828,
				-0.3064337968826294,
				0.03851902484893799
			],
			[
				0.8502934575080872,
				0.34222984313964844,
				0.8590289354324341,
				0.08237694948911667,
				0.965873122215271,
				0.49771398305892944,
				-0.23224973678588867,
				0.7325900793075562
			],
			[
				-0.07981403172016144,
				-0.1957063227891922,
				-1.3699246644973755,
				-0.711638331413269,
				0.24322780966758728,
				-0.031400177627801895,
				0.2696770429611206,
				-0.3909214735031128
			],
			[
				0.7715136408805847,
				0.8809146285057068,
				0.9102806448936462,
				0.11436162143945694,
				0.3938082158565521,
				0.8345940709114075,
				-0.3424948453903198,
				0.8495010137557983
			],
			[
				-0.4500511884689331,
				-0.38039660453796387,
				0.24006199836730957,
				0.28126204013824463,
				-0.17725586891174316,
				-0.4551849365234375,
				-0.31602203845977783,
				-0.48763179779052734
			],
			[
				1.1071754693984985,
				0.889205276966095,
				0.2831786870956421,
				3.224215507507324,
				3.017268180847168,
				1.043805480003357,
				0.33938825130462646,
				1.5110230445861816
			],
			[
				0.0928492322564125,
				0.2565016448497772,
				-1.4947391748428345,
				-0.8500033617019653,
				-0.9997114539146423,
				-0.5923935770988464,
				-0.28972911834716797,
				-0.8816870450973511
			],
			[
				0.5718905329704285,
				0.6361481547355652,
				1.5392401218414307,
				1.2562094926834106,
				1.1720856428146362,
				0.8859555125236511,
				-0.35457777976989746,
				0.4861223101615906
			],
			[
				-0.38147252798080444,
				0.09728791564702988,
				-0.2045973390340805,
				-0.41458559036254883,
				-0.3096780776977539,
				-0.2242003083229065,
				0.44547295570373535,
				0.15622496604919434
			]
		],
		"weight_2": -1,
		"weight_3": -7.001845836639404,
		"weight_4": 7.001845836639404,
		"weight_5": -1.0344233678196528e-30,
		"weight_6": 16.169998168945312
	},
	"layer_3": {
		"weight_0": [
			-0.46302419900894165,
			-0.0031622773967683315,
			-0.4592585563659668,
			-3.3842337131500244
		],
		"weight_1": [
			[
				0.6782551407814026,
				-0.7003165483474731,
				1.0355420112609863,
				-0.6551796793937683
			],
			[
				1.1987764835357666,
				-0.002638471545651555,
				0.6456331014633179,
				-0.7027967572212219
			],
			[
				-2.4337010383605957,
				-0.15626317262649536,
				-3.737459659576416,
				0.5731902122497559
			],
			[
				0.6416621804237366,
				0.3552636504173279,
				1.4472236633300781,
				1.2527284622192383
			],
			[
				1.6067185401916504,
				-0.31420373916625977,
				1.1034772396087646,
				0.6328657865524292
			],
			[
				0.501976728439331,
				0.06302672624588013,
				1.749491572380066,
				-0.18249697983264923
			],
			[
				-0.6766595244407654,
				-0.6305316686630249,
				0.4991222023963928,
				-0.3054788410663605
			],
			[
				0.9005597233772278,
				-0.4929697513580322,
				1.5262806415557861,
				0.1256011426448822
			]
		],
		"weight_2": -1,
		"weight_3": -3.7380192279815674,
		"weight_4": 3.7380192279815674,
		"weight_5": -1.0344233678196528e-30,
		"weight_6": 38.73849105834961
	},
	"layer_4": {
		"weight_0": [
			-0.3765954077243805
		],
		"weight_1": [
			[
				1.978009581565857
			],
			[
				-1.0281661748886108
			],
			[
				2.4130585193634033
			],
			[
				-2.9487853050231934
			]
		],
		"weight_2": -1,
		"weight_3": -2.9492347240448,
		"weight_4": 2.9492347240448,
		"weight_5": -1.0540645618682204e-30,
		"weight_6": 138.26412963867188
	}
}