{
	"layer_0": {
		"weight_0": [
			[
				0.3500988185405731,
				0.28613385558128357,
				4.3675384521484375,
				0.42449188232421875,
				0.41074439883232117,
				0.614253580570221,
				-0.38050365447998047,
				-0.1100274920463562,
				-0.2143831104040146,
				1.2943249940872192,
				1.4507936239242554,
				-0.5725592970848083,
				0.3418072462081909,
				1.7083979845046997,
				-1.3732043504714966,
				0.3437468409538269
			],
			[
				-2.1613407135009766,
				-2.0932843685150146,
				0.6363235712051392,
				-1.2399805784225464,
				-4.172382831573486,
				-5.8997273445129395,
				-0.20648768544197083,
				-0.28175169229507446,
				-0.9729860424995422,
				-0.384351521730423,
				-0.3087853789329529,
				-0.5430523157119751,
				-0.8567675948143005,
				-0.31131866574287415,
				-0.29666274785995483,
				-3.1859803199768066
			]
		],
		"weight_1": [
			0.4279886484146118,
			0.7208955883979797,
			0.010371655225753784,
			0.42540132999420166,
			0.2377932369709015,
			0.13455736637115479,
			0.0,
			0.0,
			0.8764326572418213,
			0.29848214983940125,
			0.292049765586853,
			0.0,
			0.4778115153312683,
			0.2975684404373169,
			1.6192262172698975,
			0.3843846321105957
		]
	},
	"layer_1": {},
	"layer_2": {
		"weight_0": [
			[
				1.0074052810668945,
				1.7395949363708496,
				1.4809452295303345,
				0.18842969834804535,
				1.5348994731903076,
				1.4786481857299805,
				-0.32825589179992676,
				-0.6081176996231079
			],
			[
				0.2603912651538849,
				0.75042325258255,
				-0.013679196126759052,
				1.0439040660858154,
				0.6098247766494751,
				0.3153684735298157,
				0.3970440626144409,
				0.18711166083812714
			],
			[
				-0.5266238451004028,
				-0.27947574853897095,
				0.7213263511657715,
				-3.10560941696167,
				0.1338811069726944,
				0.1729271411895752,
				-0.15459048748016357,
				-0.668983519077301
			],
			[
				1.0503865480422974,
				0.7071099877357483,
				1.2537702322006226,
				0.1066604033112526,
				0.6787232160568237,
				0.38682982325553894,
				-0.4512718915939331,
				0.19624148309230804
			],
			[
				2.571040153503418,
				2.9856204986572266,
				4.364119529724121,
				-0.8884673118591309,
				3.5612807273864746,
				2.276400327682495,
				0.4560561180114746,
				-0.5210714936256409
			],
			[
				4.256683826446533,
				4.199413299560547,
				4.698147296905518,
				-1.4301925897598267,
				5.1527228355407715,
				4.00789213180542,
				-0.25736117362976074,
				-0.0004951264709234238
			],
			[
				0.14917504787445068,
				-0.40320253372192383,
				0.021387338638305664,
				-0.09791779518127441,
				0.25182950496673584,
				0.162864089012146,
				-0.08857738971710205,
				-0.4222041368484497
			],
			[
				0.26521873474121094,
				-0.4233604669570923,
				0.34452664852142334,
				0.2856827974319458,
				-0.18459486961364746,
				-0.2129683494567871,
				-0.46052849292755127,
				0.2603105306625366
			],
			[
				0.3826696574687958,
				0.3665658235549927,
				-0.599768877029419,
				0.5852876901626587,
				0.044805217534303665,
				0.15441414713859558,
				-0.138147234916687,
				0.2771758437156677
			],
			[
				0.6899324059486389,
				0.5038093328475952,
				0.6810241937637329,
				-0.8841822147369385,
				0.7353132963180542,
				0.4508264362812042,
				0.06635260581970215,
				-0.20939795672893524
			],
			[
				0.337342768907547,
				0.6651784181594849,
				0.7027692794799805,
				-1.0411487817764282,
				0.2781405448913574,
				0.632946789264679,
				-0.4569728374481201,
				-0.5517053008079529
			],
			[
				0.03047466278076172,
				-0.38404083251953125,
				0.2513788938522339,
				-0.26846742630004883,
				-0.25929367542266846,
				0.4826366901397705,
				0.4188781976699829,
				-0.4744586944580078
			],
			[
				0.1988598108291626,
				0.29576024413108826,
				0.38452351093292236,
				0.3214065134525299,
				0.932534396648407,
				0.736818253993988,
				0.28510427474975586,
				0.023809699341654778
			],
			[
				0.9964808821678162,
				0.1268468052148819,
				0.9397298693656921,
				-1.5164707899093628,
				0.8998961448669434,
				0.5770686864852905,
				-0.1561572551727295,
				0.005725169088691473
			],
			[
				0.4320831894874573,
				0.19736351072788239,
				-0.934104859828949,
				1.5991283655166626,
				-0.052298031747341156,
				0.51006019115448,
				-0.45497846603393555,
				0.3594430983066559
			],
			[
				1.862330436706543,
				2.1227846145629883,
				3.1043167114257812,
				-0.33914586901664734,
				1.9828574657440186,
				1.6898192167282104,
				0.41364479064941406,
				-1.9260950088500977
			]
		],
		"weight_1": [
			0.4746232330799103,
			0.3824818730354309,
			0.199909970164299,
			0.8255535364151001,
			0.04458463937044144,
			0.3653256297111511,
			0.0,
			0.10977508127689362
		]
	},
	"layer_3": {},
	"layer_4": {
		"weight_0": [
			[
				0.7693016529083252,
				-0.7933136820793152,
				1.4162464141845703,
				0.13689130544662476
			],
			[
				1.416318416595459,
				-0.5374189615249634,
				1.5395958423614502,
				-0.2449072301387787
			],
			[
				0.8696221113204956,
				1.1577118635177612,
				1.597523808479309,
				-0.23405173420906067
			],
			[
				-2.2739462852478027,
				2.4122462272644043,
				-2.8086092472076416,
				-0.12994545698165894
			],
			[
				1.0561121702194214,
				0.3396497368812561,
				1.3553789854049683,
				-0.659321665763855
			],
			[
				1.3733144998550415,
				-0.4088743031024933,
				1.0219908952713013,
				-0.4547029435634613
			],
			[
				-0.2674423158168793,
				0.021446168422698975,
				0.3620430827140808,
				-0.17034339904785156
			],
			[
				4.153025150299072,
				-2.187081813812256,
				3.2491281032562256,
				-0.043124496936798096
			]
		],
		"weight_1": [
			0.23326058685779572,
			-0.7241555452346802,
			0.21608732640743256,
			0.0
		]
	},
	"layer_5": {},
	"layer_6": {
		"weight_0": [
			[
				1.742163896560669
			],
			[
				-4.599838733673096
			],
			[
				2.524378776550293
			],
			[
				-0.3652490973472595
			]
		],
		"weight_1": [
			0.21584059298038483
		]
	}
}