{
	"layer_0": {
		"weight_0": [
			[
				0.5079199075698853,
				0.6523752808570862,
				0.4384547770023346,
				2.3624513149261475,
				-0.302741676568985,
				0.5809943675994873,
				0.5013006329536438,
				-0.03378492593765259,
				-0.2785091996192932,
				-0.06407809257507324,
				-0.37917572259902954,
				4.050055980682373,
				0.4689621329307556,
				-0.28724196553230286,
				1.307525634765625,
				-0.22090744972229004
			],
			[
				-0.701494038105011,
				-6.556985855102539,
				-2.4545021057128906,
				-0.24697189033031464,
				-0.3056337237358093,
				-0.7623637914657593,
				-1.4189600944519043,
				-0.1596948802471161,
				-0.2625259757041931,
				-0.5153549909591675,
				-0.12149989604949951,
				0.3640452027320862,
				-3.8896212577819824,
				0.03076472505927086,
				-0.6119458079338074,
				-0.03716534376144409
			]
		],
		"weight_1": [
			1.3457036018371582,
			0.28319841623306274,
			0.7170129418373108,
			0.24892430007457733,
			0.0,
			0.8191011548042297,
			0.6279779672622681,
			0.0,
			0.0,
			0.0,
			0.0,
			8.950283518061042e-05,
			0.5155829191207886,
			-0.03292813152074814,
			0.6505504250526428,
			0.0
		]
	},
	"layer_1": {
		"weight_0": [
			[
				0.7398207783699036,
				0.3119811713695526,
				0.5990193486213684,
				0.7702581286430359,
				0.6185970902442932,
				-0.08343923091888428,
				0.4295128881931305,
				0.20656153559684753
			],
			[
				-2.0660645961761475,
				5.431310176849365,
				-0.2868531346321106,
				-0.3696337938308716,
				4.963078022003174,
				-0.0013995170593261719,
				5.289371490478516,
				4.938448905944824
			],
			[
				0.3705517649650574,
				1.9804338216781616,
				0.8776082992553711,
				0.9746484756469727,
				1.3253133296966553,
				-0.4959222078323364,
				1.3812958002090454,
				1.7080812454223633
			],
			[
				-0.37124955654144287,
				0.6043147444725037,
				-1.5498653650283813,
				-1.2626420259475708,
				0.5064553022384644,
				-0.48654794692993164,
				0.18305160105228424,
				0.11254996061325073
			],
			[
				-0.16347837448120117,
				0.38169407844543457,
				0.09979438781738281,
				-0.26509809494018555,
				-0.21046817302703857,
				-0.27014946937561035,
				0.403312087059021,
				-0.26023006439208984
			],
			[
				0.5462242960929871,
				0.6209338307380676,
				0.5551680326461792,
				0.26384785771369934,
				0.35604479908943176,
				-0.32282400131225586,
				1.0260897874832153,
				0.7020664215087891
			],
			[
				-0.20934082567691803,
				0.8500171899795532,
				-0.028303883969783783,
				0.23296113312244415,
				0.8831312656402588,
				-0.001246333122253418,
				0.5466629862785339,
				0.4898332357406616
			],
			[
				-0.2851128578186035,
				-0.40340542793273926,
				-0.3023967742919922,
				0.26738202571868896,
				-0.310094952583313,
				-0.4451892375946045,
				0.09620344638824463,
				0.007987380027770996
			],
			[
				0.0742032527923584,
				-0.38704681396484375,
				0.052994608879089355,
				0.11351442337036133,
				-0.15317344665527344,
				0.3577929735183716,
				0.2027958631515503,
				0.3571208715438843
			],
			[
				-0.2642940282821655,
				-0.17637133598327637,
				-0.23131263256072998,
				-0.13839006423950195,
				0.286645770072937,
				0.42041993141174316,
				-0.05695486068725586,
				-0.4061659574508667
			],
			[
				0.14104163646697998,
				0.4787217378616333,
				0.37419378757476807,
				0.16882014274597168,
				-0.2024320363998413,
				-0.2311798334121704,
				-0.20567095279693604,
				0.1396636962890625
			],
			[
				-1.0510467290878296,
				0.1234351322054863,
				-5.4676971435546875,
				-2.8172099590301514,
				-0.31483885645866394,
				-0.15974462032318115,
				-0.4651750922203064,
				0.00017552368808537722
			],
			[
				-0.5523744821548462,
				3.0428812503814697,
				1.1597522497177124,
				0.6134246587753296,
				2.070448637008667,
				0.3062608242034912,
				2.740790605545044,
				2.945042610168457
			],
			[
				-0.1422969102859497,
				-0.3153834640979767,
				0.07211005687713623,
				0.05437755584716797,
				-0.3930436968803406,
				0.20070266723632812,
				0.4838637113571167,
				-0.4417183995246887
			],
			[
				-0.06355474889278412,
				1.229856252670288,
				-0.09468186646699905,
				0.14304982125759125,
				0.3551360070705414,
				0.25947630405426025,
				1.213600754737854,
				1.023552656173706
			],
			[
				0.38565099239349365,
				0.17374646663665771,
				0.4740527868270874,
				0.3561936616897583,
				-0.07179403305053711,
				0.3890976905822754,
				-0.40643107891082764,
				0.48778975009918213
			]
		],
		"weight_1": [
			1.1183077096939087,
			0.6343907713890076,
			0.24696478247642517,
			0.9262617826461792,
			0.5836789011955261,
			0.0,
			0.583523154258728,
			0.5835918188095093
		]
	},
	"layer_2": {
		"weight_0": [
			[
				1.3979945182800293,
				-0.5322209596633911,
				-0.02808326482772827,
				-2.419372320175171
			],
			[
				0.5983127951622009,
				-0.20576822757720947,
				-0.2236696183681488,
				2.0945634841918945
			],
			[
				3.2005770206451416,
				-0.547084391117096,
				-0.6758252382278442,
				-2.943796396255493
			],
			[
				2.2592811584472656,
				-0.11627736687660217,
				0.5754387974739075,
				-2.254716634750366
			],
			[
				-0.4543236792087555,
				-0.4616519510746002,
				-0.1995275616645813,
				2.2264645099639893
			],
			[
				0.3962990641593933,
				0.52195805311203,
				-0.3625428080558777,
				0.27018773555755615
			],
			[
				-0.2441479116678238,
				0.09271829575300217,
				0.1108052134513855,
				1.9200130701065063
			],
			[
				-0.22484667599201202,
				0.24512970447540283,
				-0.26247438788414,
				1.8554178476333618
			]
		],
		"weight_1": [
			0.14039261639118195,
			-0.0031622766982764006,
			0.0,
			0.5951655507087708
		]
	},
	"layer_3": {
		"weight_0": [
			[
				-2.3178353309631348
			],
			[
				-0.9663364887237549
			],
			[
				-0.9521379470825195
			],
			[
				2.4854557514190674
			]
		],
		"weight_1": [
			0.5919944047927856
		]
	}
}