{
	"layer_0": {
		"weight_0": 0.0,
		"weight_1": 1.0,
		"weight_2": -1
	},
	"layer_1": {
		"weight_0": [
			0.9317589402198792,
			0.0,
			1.0115286111831665,
			0.0,
			0.5497608780860901,
			0.45638373494148254,
			0.2784198224544525,
			0.5758894085884094,
			0.90472811460495,
			0.8065879940986633,
			0.9805834293365479,
			0.8899996876716614,
			0.9688616991043091,
			0.933381199836731,
			0.0,
			0.33164680004119873
		],
		"weight_1": [
			[
				1.3466739654541016,
				-0.5512440800666809,
				1.999617576599121,
				-0.16586190462112427,
				0.5063215494155884,
				0.6631607413291931,
				-1.6625816822052002,
				1.0493124723434448,
				1.3324341773986816,
				1.7420907020568848,
				1.7689670324325562,
				1.5174674987792969,
				1.7856329679489136,
				1.6166483163833618,
				-0.004453539848327637,
				-0.8908758759498596
			],
			[
				-0.672777533531189,
				-0.2693215310573578,
				0.21443258225917816,
				-0.32077616453170776,
				1.798588514328003,
				-1.4561240673065186,
				0.08107639849185944,
				-1.9246149063110352,
				-0.17383193969726562,
				-0.6423007249832153,
				-0.10630775988101959,
				-0.7476711273193359,
				0.285563200712204,
				-0.45544663071632385,
				-0.2835876941680908,
				1.9008433818817139
			]
		],
		"weight_2": -1,
		"weight_3": -1.999617576599121,
		"weight_4": 1.999617576599121,
		"weight_5": -0.5658519268035889,
		"weight_6": 3.326430559158325
	},
	"layer_2": {
		"weight_0": [
			0.9636607766151428,
			0.564284086227417,
			0.10884648561477661,
			-0.0018789044115692377,
			0.0,
			0.5520437359809875,
			0.9778517484664917,
			0.0
		],
		"weight_1": [
			[
				1.1425787210464478,
				0.8627766966819763,
				-0.06605895608663559,
				0.05154537409543991,
				-0.163641095161438,
				0.8064927458763123,
				1.301567792892456,
				0.3821824789047241
			],
			[
				0.20776796340942383,
				0.4822545051574707,
				0.4776461124420166,
				0.41653740406036377,
				-0.19840633869171143,
				-0.4847233295440674,
				-0.27624523639678955,
				-0.3328516483306885
			],
			[
				0.5789577960968018,
				-0.2952793538570404,
				-0.01780674420297146,
				-0.4299476742744446,
				0.3386296033859253,
				0.03598194941878319,
				0.7069687843322754,
				-0.37094366550445557
			],
			[
				-0.26130831241607666,
				0.44754040241241455,
				-0.10796093940734863,
				-0.42097413539886475,
				0.41132962703704834,
				0.010540008544921875,
				-0.37091386318206787,
				-0.05321955680847168
			],
			[
				-0.1137743666768074,
				-0.6347509026527405,
				0.09146963804960251,
				-0.2652500867843628,
				-0.17503976821899414,
				-1.1360975503921509,
				0.16386520862579346,
				-0.4350169897079468
			],
			[
				1.3692286014556885,
				1.2569576501846313,
				-0.1809614896774292,
				0.24988533556461334,
				-0.4501403570175171,
				1.15269136428833,
				0.4062347412109375,
				0.25427937507629395
			],
			[
				-1.3721280097961426,
				-0.568840742111206,
				0.45943498611450195,
				0.4362773895263672,
				0.20090436935424805,
				-0.15173521637916565,
				-1.44195556640625,
				0.4963245391845703
			],
			[
				1.5609221458435059,
				1.2695443630218506,
				-0.45034945011138916,
				0.43667736649513245,
				-0.44929325580596924,
				1.6867903470993042,
				1.482408881187439,
				0.07494401931762695
			],
			[
				0.3696232736110687,
				0.2469908446073532,
				-0.38060468435287476,
				-0.2319168895483017,
				0.2890946865081787,
				0.09275757521390915,
				0.56352698802948,
				-0.13500571250915527
			],
			[
				1.2403733730316162,
				0.6981393098831177,
				-0.25625666975975037,
				0.40215277671813965,
				0.10633742809295654,
				0.6563127040863037,
				0.5610468983650208,
				0.0798947811126709
			],
			[
				0.2790291905403137,
				-0.2230157107114792,
				-0.4024999141693115,
				0.06812520325183868,
				-0.3005034923553467,
				0.33222872018814087,
				0.7197512984275818,
				0.13070976734161377
			],
			[
				0.8082029223442078,
				1.0270837545394897,
				0.056576382368803024,
				-0.4344899356365204,
				0.08748173713684082,
				0.3992719054222107,
				1.2485663890838623,
				0.22845327854156494
			],
			[
				1.064329981803894,
				-0.3832249641418457,
				-0.30739134550094604,
				-0.21845319867134094,
				-0.43394744396209717,
				-0.42497581243515015,
				0.640251874923706,
				-0.4544179439544678
			],
			[
				0.5616704821586609,
				0.1266328990459442,
				0.5760400891304016,
				0.24682140350341797,
				-0.3104088306427002,
				0.10335099697113037,
				1.152689814567566,
				-0.2753610610961914
			],
			[
				0.25277674198150635,
				-0.2679738998413086,
				-0.43579328060150146,
				0.40396034717559814,
				0.246903657913208,
				-0.15836000442504883,
				0.37573206424713135,
				-0.08002877235412598
			],
			[
				-1.5164717435836792,
				-2.5879244804382324,
				0.47389236092567444,
				0.42975497245788574,
				-0.4437516927719116,
				-2.070730686187744,
				-1.429253339767456,
				-0.34196555614471436
			]
		],
		"weight_2": -1,
		"weight_3": -2.5877134799957275,
		"weight_4": 2.5877134799957275,
		"weight_5": -0.5658519268035889,
		"weight_6": 18.873807907104492
	},
	"layer_3": {
		"weight_0": [
			-0.3507363498210907,
			0.0,
			0.9607774615287781,
			0.0
		],
		"weight_1": [
			[
				-0.2449658066034317,
				-0.1050301194190979,
				1.1369951963424683,
				-0.4300236105918884
			],
			[
				0.24357272684574127,
				0.21413075923919678,
				1.464711308479309,
				0.22508054971694946
			],
			[
				-0.380492627620697,
				-0.6203874349594116,
				-0.8032302856445312,
				-0.05145823955535889
			],
			[
				0.21444617211818695,
				0.2930144667625427,
				0.27164262533187866,
				0.4500885605812073
			],
			[
				-0.5060002207756042,
				-0.02561938762664795,
				-0.18638283014297485,
				-0.6338142156600952
			],
			[
				0.5330615639686584,
				-0.1718839406967163,
				2.382373809814453,
				-0.3866339325904846
			],
			[
				-0.11231933534145355,
				-0.13802719116210938,
				1.417634129524231,
				-0.20550686120986938
			],
			[
				-0.25667279958724976,
				-0.4464988112449646,
				-0.4467962086200714,
				0.17334777116775513
			]
		],
		"weight_2": -1,
		"weight_3": -2.3825480937957764,
		"weight_4": 2.3825480937957764,
		"weight_5": -0.5658519268035889,
		"weight_6": 60.4544677734375
	},
	"layer_4": {
		"weight_0": [
			0.9540612697601318
		],
		"weight_1": [
			[
				-0.5090271830558777
			],
			[
				0.781853437423706
			],
			[
				1.824073314666748
			],
			[
				0.5474870204925537
			]
		],
		"weight_2": -1,
		"weight_3": -1.8244683742523193,
		"weight_4": 1.8244683742523193,
		"weight_5": -0.5658519268035889,
		"weight_6": 76.13043212890625
	}
}