{
	"layer_0": {
		"weight_0": [
			[
				5.513699054718018,
				1.0624170303344727,
				-1.6997672319412231,
				0.07958181947469711,
				-0.3168109953403473,
				0.26643383502960205,
				0.1172562912106514,
				-0.2077987790107727,
				-0.3917621374130249,
				0.3784758746623993,
				-0.5628862977027893,
				0.204458549618721,
				0.33421728014945984,
				-0.04468590021133423,
				2.0884697437286377,
				0.5516839623451233
			],
			[
				0.3468022048473358,
				-8.691434860229492,
				-1.1696362495422363,
				0.052474744617938995,
				-0.06949782371520996,
				-0.2255592942237854,
				-0.3722195327281952,
				0.015156898647546768,
				-0.4362531304359436,
				-2.423642635345459,
				-0.17914703488349915,
				-0.6328629851341248,
				-1.5765782594680786,
				-0.3714663088321686,
				-0.873985767364502,
				-4.076621055603027
			]
		],
		"weight_1": [
			0.2954290509223938,
			0.20082370936870575,
			1.5403032302856445,
			-0.14101214706897736,
			0.0,
			-0.23989064991474152,
			-0.07168402522802353,
			-0.015744512900710106,
			0.0,
			0.5318503379821777,
			0.0,
			-0.12013552337884903,
			0.7080456018447876,
			0.0,
			0.848685622215271,
			0.3677181303501129
		]
	},
	"layer_1": {
		"weight_0": [
			[
				-0.008665874600410461,
				-0.4857438802719116,
				-0.07546980679035187,
				0.2879564166069031,
				0.27510419487953186,
				-1.3013631105422974,
				-2.2554268836975098,
				0.820626437664032
			],
			[
				0.37180644273757935,
				0.09463382512331009,
				4.1189141273498535,
				3.3193092346191406,
				4.5797343254089355,
				-1.7871309518814087,
				0.09910440444946289,
				5.73973274230957
			],
			[
				-0.0973275676369667,
				0.2538303732872009,
				-0.45129668712615967,
				0.5804939866065979,
				-0.7043710947036743,
				0.7735447883605957,
				1.2885597944259644,
				-1.2127819061279297
			],
			[
				-0.07169318199157715,
				-0.1507827639579773,
				-0.06279896199703217,
				-0.39235639572143555,
				-0.3061438798904419,
				0.015553116798400879,
				0.40449297428131104,
				0.2028266042470932
			],
			[
				-0.4156848192214966,
				0.012990236282348633,
				-0.1580040454864502,
				0.013168096542358398,
				-0.3316096067428589,
				0.2110593318939209,
				0.1696087121963501,
				-0.054262757301330566
			],
			[
				0.3115229606628418,
				-0.23516079783439636,
				-0.04917571693658829,
				0.48843511939048767,
				-0.26014286279678345,
				-0.4152061939239502,
				-0.3076949715614319,
				-0.40839943289756775
			],
			[
				-0.018220186233520508,
				0.4412679970264435,
				-0.12881484627723694,
				-0.005082237534224987,
				-0.3616173565387726,
				0.337246298789978,
				-0.36097681522369385,
				0.2224888801574707
			],
			[
				0.035008907318115234,
				0.465738445520401,
				-0.2195643186569214,
				-0.39782944321632385,
				0.4153236448764801,
				0.09879553318023682,
				-0.05906146019697189,
				0.0986357256770134
			],
			[
				-0.44578468799591064,
				-0.03939676284790039,
				-0.03275489807128906,
				-0.0747753381729126,
				-0.23338234424591064,
				-0.015045642852783203,
				0.4766502380371094,
				-0.3532670736312866
			],
			[
				-0.12735825777053833,
				0.06402068585157394,
				1.5601823329925537,
				0.08435660600662231,
				1.4170758724212646,
				1.0504131317138672,
				0.15185125172138214,
				-0.45541924238204956
			],
			[
				-0.03164255619049072,
				-0.2950373888015747,
				-0.29319238662719727,
				-0.3048743009567261,
				-0.09445369243621826,
				0.38218212127685547,
				0.4162118434906006,
				-0.21218574047088623
			],
			[
				-0.20269453525543213,
				0.14379708468914032,
				-0.06895128637552261,
				-0.37568899989128113,
				0.07852834463119507,
				0.31008994579315186,
				0.4164857864379883,
				-0.2761329412460327
			],
			[
				0.06207204982638359,
				-0.25454792380332947,
				0.42917773127555847,
				0.5414300560951233,
				0.9927947521209717,
				0.6360070705413818,
				-0.2612866759300232,
				-0.5786662101745605
			],
			[
				-0.46075987815856934,
				0.494030237197876,
				0.3762551546096802,
				-0.2859537601470947,
				0.3188666105270386,
				0.333088755607605,
				-0.008493900299072266,
				-0.10404205322265625
			],
			[
				-0.288681298494339,
				-0.035328540951013565,
				0.8581511974334717,
				1.6721267700195312,
				0.9316560626029968,
				-1.0210703611373901,
				-1.2505857944488525,
				0.2547120451927185
			],
			[
				0.11581135541200638,
				0.2213491052389145,
				3.0750060081481934,
				1.4544562101364136,
				2.2011282444000244,
				0.386362761259079,
				1.1537977457046509,
				1.8423494100570679
			]
		],
		"weight_1": [
			-0.007836738601326942,
			-0.17752298712730408,
			0.38369330763816833,
			0.5246328115463257,
			0.3398360013961792,
			0.7374336123466492,
			0.2993522584438324,
			-0.7829193472862244
		]
	},
	"layer_2": {
		"weight_0": [
			[
				-0.40694013237953186,
				0.3209702968597412,
				-0.2674691081047058,
				-0.6586072444915771
			],
			[
				-0.2371576428413391,
				0.34965017437934875,
				-0.28948232531547546,
				-0.436967134475708
			],
			[
				-0.42360562086105347,
				2.5428566932678223,
				-0.7797513008117676,
				2.1079776287078857
			],
			[
				0.0023886454291641712,
				1.8207082748413086,
				0.9891200661659241,
				1.7654658555984497
			],
			[
				0.2780410647392273,
				2.3986377716064453,
				-0.5251355767250061,
				2.0161056518554688
			],
			[
				-0.14284682273864746,
				-1.6729923486709595,
				1.5490422248840332,
				-2.3305821418762207
			],
			[
				0.3881979286670685,
				-4.7928466796875,
				5.375848293304443,
				-4.8335442543029785
			],
			[
				-0.6928611397743225,
				-2.375497579574585,
				-1.1424589157104492,
				-2.774143695831299
			]
		],
		"weight_1": [
			-0.07126808166503906,
			0.41890016198158264,
			1.3275545835494995,
			0.42240390181541443
		]
	},
	"layer_3": {
		"weight_0": [
			[
				-0.5195516347885132
			],
			[
				2.486327648162842
			],
			[
				-4.552013874053955
			],
			[
				2.7005863189697266
			]
		],
		"weight_1": [
			0.4202558994293213
		]
	}
}