{
	"layer_0": {
		"weight_0": 0.0,
		"weight_1": 1.0,
		"weight_2": -1
	},
	"layer_1": {
		"weight_0": [
			0.0,
			0.15083427727222443,
			0.10007862001657486,
			0.03512745723128319,
			0.22223809361457825,
			0.2417815923690796,
			0.18678957223892212,
			0.3398227095603943,
			0.01992729865014553,
			0.01081113051623106,
			0.07262969762086868,
			0.3028602600097656,
			0.2903880476951599,
			-0.47936055064201355,
			0.0,
			0.0
		],
		"weight_1": [
			[
				-0.19955545663833618,
				0.8505005836486816,
				0.4920353889465332,
				1.4344483613967896,
				-0.4665044844150543,
				0.4676906168460846,
				1.570757269859314,
				1.338639497756958,
				1.0790969133377075,
				0.496096134185791,
				1.1798666715621948,
				0.22120893001556396,
				2.2750134468078613,
				1.8827803134918213,
				-0.1661621332168579,
				-0.18068087100982666
			],
			[
				-0.4039244055747986,
				-3.886608362197876,
				-0.684796929359436,
				-0.025241965427994728,
				0.8367775678634644,
				-2.0661444664001465,
				-0.29175013303756714,
				-0.7939540147781372,
				0.08204612880945206,
				0.1957506239414215,
				-6.969538688659668,
				-0.07654573023319244,
				0.3411029577255249,
				0.12625636160373688,
				-0.3389279246330261,
				-0.306308776140213
			]
		],
		"weight_2": -1,
		"weight_3": -6.969538688659668,
		"weight_4": 6.969538688659668,
		"weight_5": -6.4322829246521,
		"weight_6": 2.72575306892395
	},
	"layer_2": {
		"weight_0": -1,
		"weight_1": -3.3394137455289297e-10,
		"weight_2": 2.6899254322052
	},
	"layer_3": {
		"weight_0": [
			-0.354318231344223,
			0.10275169461965561,
			-0.043530162423849106,
			-0.024717897176742554,
			-0.043410830199718475,
			-0.09111993759870529,
			-0.03866535425186157,
			0.07525552064180374
		],
		"weight_1": [
			[
				0.4131847620010376,
				-0.42844951152801514,
				-0.3368215560913086,
				-0.173781156539917,
				0.0982438325881958,
				0.28353214263916016,
				0.2012718915939331,
				-0.1113593578338623
			],
			[
				0.6844064593315125,
				2.7407915592193604,
				0.21341052651405334,
				0.19121015071868896,
				-0.15568077564239502,
				0.3114185333251953,
				0.46038901805877686,
				2.59694766998291
			],
			[
				-0.12662717700004578,
				0.398456335067749,
				-0.2184668481349945,
				-0.006965041160583496,
				-0.4574562907218933,
				-0.48591315746307373,
				-0.11720561981201172,
				0.5749154686927795
			],
			[
				0.21572080254554749,
				0.33410584926605225,
				-0.5301761031150818,
				0.12191157042980194,
				-0.011890949681401253,
				-0.3980069160461426,
				-0.49890878796577454,
				0.1648252159357071
			],
			[
				-0.250552237033844,
				-0.6100555658340454,
				-0.4808124005794525,
				-0.2728010416030884,
				0.09288425743579865,
				0.022385843098163605,
				0.25454333424568176,
				-1.2116165161132812
			],
			[
				-0.6368418335914612,
				0.9870815277099609,
				-0.06933948397636414,
				0.46101218461990356,
				-0.2039508819580078,
				-0.0854826420545578,
				-0.07629597187042236,
				1.4948841333389282
			],
			[
				0.40252023935317993,
				0.9106286764144897,
				0.02562345564365387,
				-0.11132107675075531,
				0.14848336577415466,
				-0.26934850215911865,
				-0.2872811555862427,
				0.7485589385032654
			],
			[
				-0.1142764538526535,
				0.6718056201934814,
				0.03739732876420021,
				-0.23441201448440552,
				-0.1517154723405838,
				-0.062025099992752075,
				-0.49941468238830566,
				1.0860532522201538
			],
			[
				-0.12270886451005936,
				0.4801025390625,
				0.3412508964538574,
				-0.3677397668361664,
				-0.2789258360862732,
				-0.5312759280204773,
				-0.11237572878599167,
				-0.007289953529834747
			],
			[
				0.028843935579061508,
				0.3751821219921112,
				-0.5193265676498413,
				-0.22674572467803955,
				0.16064435243606567,
				-0.2917453348636627,
				-0.4851934015750885,
				-0.3219185769557953
			],
			[
				-0.48681268095970154,
				4.8124847412109375,
				0.35337164998054504,
				0.1529049277305603,
				0.07715165615081787,
				-0.1524835079908371,
				0.13211333751678467,
				5.7448410987854
			],
			[
				-0.07043980062007904,
				-0.12924380600452423,
				-0.48832976818084717,
				-0.18389709293842316,
				0.056577082723379135,
				0.10303176939487457,
				-0.4255247712135315,
				0.05096277594566345
			],
			[
				0.48745518922805786,
				0.6982585191726685,
				0.0664556622505188,
				-0.18290597200393677,
				-0.5318405032157898,
				0.20766372978687286,
				-0.023462848737835884,
				-0.024054283276200294
			],
			[
				-1.449367880821228,
				-2.056786060333252,
				0.11572542041540146,
				-0.40023112297058105,
				-0.33233582973480225,
				-0.028508543968200684,
				0.08811354637145996,
				-1.713775873184204
			],
			[
				0.47665154933929443,
				-0.45977723598480225,
				0.49530160427093506,
				0.1086130142211914,
				0.39888083934783936,
				-0.3067774772644043,
				-0.03602325916290283,
				0.3891223669052124
			],
			[
				-0.47200822830200195,
				0.059781789779663086,
				0.2968069314956665,
				-0.48538970947265625,
				-0.06444120407104492,
				0.09227097034454346,
				-0.35811078548431396,
				-0.09557139873504639
			]
		],
		"weight_2": -1,
		"weight_3": -5.7448410987854,
		"weight_4": 5.7448410987854,
		"weight_5": -2.4564125537872314,
		"weight_6": 4.407019138336182
	},
	"layer_4": {
		"weight_0": -1,
		"weight_1": -3.3394137455289297e-10,
		"weight_2": 4.072839260101318
	},
	"layer_5": {
		"weight_0": [
			0.0,
			-0.025589829310774803,
			-0.05235372856259346,
			-0.00675916438922286
		],
		"weight_1": [
			[
				-0.6649110317230225,
				0.4565931558609009,
				-1.7107563018798828,
				-1.6830826997756958
			],
			[
				-0.04791301488876343,
				-0.13863325119018555,
				1.9992417097091675,
				0.6070567965507507
			],
			[
				0.6451262831687927,
				-0.09128719568252563,
				0.7036359310150146,
				-0.3972933292388916
			],
			[
				-0.2494012713432312,
				-0.051930807530879974,
				-0.3090238869190216,
				-0.499015748500824
			],
			[
				-0.2924429774284363,
				0.5952305197715759,
				-0.12930996716022491,
				0.5484869480133057
			],
			[
				0.02887094020843506,
				-0.2932801842689514,
				-0.400682270526886,
				0.3755435049533844
			],
			[
				-0.010506212711334229,
				-0.4899882972240448,
				0.07257210463285446,
				0.519281804561615
			],
			[
				-0.44533151388168335,
				-0.04186025634407997,
				0.747650682926178,
				1.2549340724945068
			]
		],
		"weight_2": -1,
		"weight_3": -1.9992417097091675,
		"weight_4": 1.9992417097091675,
		"weight_5": -1.5672316551208496,
		"weight_6": 10.04033374786377
	},
	"layer_6": {
		"weight_0": -1,
		"weight_1": -3.3394137455289297e-10,
		"weight_2": 5.998969078063965
	},
	"layer_7": {
		"weight_0": [
			8.291525840759277
		],
		"weight_1": [
			[
				-0.044875264167785645
			],
			[
				-0.17896483838558197
			],
			[
				10.512741088867188
			],
			[
				11.462085723876953
			]
		],
		"weight_2": -1,
		"weight_3": -11.4597749710083,
		"weight_4": 11.4597749710083,
		"weight_5": -3.3394137455289297e-10,
		"weight_6": 135.2291259765625
	}
}