{
	"layer_0": {
		"weight_0": [
			[
				-0.13571593165397644,
				-0.2460443377494812,
				1.4074338674545288,
				-0.3643840253353119,
				-0.3428727388381958,
				1.2084494829177856,
				-0.17373330891132355,
				1.5457005500793457,
				-0.22109341621398926,
				-0.5168150663375854,
				1.548264980316162,
				0.13605964183807373,
				0.08724390715360641,
				1.6429991722106934,
				1.6792746782302856,
				1.8044347763061523
			],
			[
				-0.36563748121261597,
				-0.3508325517177582,
				-3.7704546451568604,
				-0.15933644771575928,
				3.425189971923828,
				-1.166354775428772,
				3.574648380279541,
				1.1270064115524292,
				-0.05487334728240967,
				-0.14684736728668213,
				0.11130551993846893,
				-0.11547577381134033,
				-0.03665454685688019,
				-0.36433643102645874,
				1.1511116027832031,
				0.22635750472545624
			]
		],
		"weight_1": [
			0.0,
			0.0,
			1.1213082075119019,
			0.0,
			0.07182012498378754,
			1.1477959156036377,
			0.055129751563072205,
			0.7261999249458313,
			0.0,
			0.0,
			0.7943095564842224,
			-0.12390673905611038,
			-0.08736064285039902,
			0.9689450860023499,
			0.6798412203788757,
			0.7837256789207458
		]
	},
	"layer_1": {
		"weight_0": [
			[
				-0.18894648551940918,
				-0.35674524307250977,
				-0.4342014789581299,
				0.3857903480529785,
				-0.14214181900024414,
				-0.08828413486480713,
				-0.4305347204208374,
				-0.30776655673980713
			],
			[
				0.4685298204421997,
				0.048129916191101074,
				-0.2786611318588257,
				0.12298548221588135,
				-0.4823782444000244,
				-0.238625168800354,
				0.39783310890197754,
				0.08559131622314453
			],
			[
				0.49929702281951904,
				0.026968060061335564,
				2.74106764793396,
				0.4392811059951782,
				-1.2800958156585693,
				0.9092175364494324,
				2.5971226692199707,
				0.13209164142608643
			],
			[
				-0.4351593255996704,
				-0.3050832748413086,
				0.45538806915283203,
				-0.21079587936401367,
				0.2949228286743164,
				0.2500847578048706,
				0.2610577344894409,
				0.3251230716705322
			],
			[
				0.4912862777709961,
				-0.17404763400554657,
				-0.30077603459358215,
				-0.39674603939056396,
				0.40494075417518616,
				-4.25734281539917,
				-0.7226029634475708,
				0.2866947650909424
			],
			[
				0.45771169662475586,
				-0.5703109502792358,
				0.7276173233985901,
				-0.47335660457611084,
				-2.853868246078491,
				1.3378305435180664,
				0.48238760232925415,
				-0.16736936569213867
			],
			[
				-0.2544611692428589,
				0.07371722161769867,
				-0.20980627834796906,
				-0.20224571228027344,
				-0.18270105123519897,
				-4.673641204833984,
				-0.5320384502410889,
				-0.24813294410705566
			],
			[
				-0.21305358409881592,
				-0.3125912845134735,
				0.3229714035987854,
				0.212912917137146,
				-0.1238030344247818,
				-0.3894881010055542,
				0.6633139848709106,
				-0.371867299079895
			],
			[
				0.07952249050140381,
				0.10164296627044678,
				-0.3908548355102539,
				-0.4720548391342163,
				-0.025377869606018066,
				0.17583131790161133,
				-0.11990833282470703,
				0.06791031360626221
			],
			[
				-0.25787973403930664,
				0.4422684907913208,
				-0.45822930335998535,
				-0.010196328163146973,
				-0.2681630849838257,
				-0.07394731044769287,
				-0.048362135887145996,
				0.1908658742904663
			],
			[
				-0.47070789337158203,
				-0.4650031328201294,
				0.7295877933502197,
				-0.1950852870941162,
				-0.3930075466632843,
				0.06461881101131439,
				0.7035606503486633,
				0.2040799856185913
			],
			[
				-0.19733262062072754,
				0.3562603294849396,
				-0.08052953332662582,
				-0.45407354831695557,
				0.09535443782806396,
				-0.1638847142457962,
				-0.2884702980518341,
				-0.48587632179260254
			],
			[
				0.20372653007507324,
				0.43072032928466797,
				0.46005767583847046,
				0.45014870166778564,
				-0.12184178829193115,
				-0.20149028301239014,
				-0.36679214239120483,
				0.13481152057647705
			],
			[
				-0.4249686002731323,
				0.03640580549836159,
				0.8766070604324341,
				-0.024918556213378906,
				-0.7256929874420166,
				0.7668301463127136,
				0.9147765040397644,
				-0.2736102342605591
			],
			[
				0.04066944122314453,
				-0.22807623445987701,
				0.1783597469329834,
				-0.39405524730682373,
				0.1827355921268463,
				-0.3442991375923157,
				0.9679651260375977,
				0.2527505159378052
			],
			[
				-0.3165775537490845,
				0.36060696840286255,
				0.0320366695523262,
				-0.40062427520751953,
				0.04141535609960556,
				0.17277753353118896,
				1.0348039865493774,
				-0.21746695041656494
			]
		],
		"weight_1": [
			0.0,
			-0.0654258206486702,
			0.897843599319458,
			0.0,
			0.24943703413009644,
			1.2396316528320312,
			0.703406572341919,
			0.0
		]
	},
	"layer_2": {
		"weight_0": [
			[
				0.14518225193023682,
				0.2511139512062073,
				-0.38175687193870544,
				0.4771236777305603
			],
			[
				-0.5852005481719971,
				-0.4724390208721161,
				-0.4394894540309906,
				-0.4781424105167389
			],
			[
				1.239621639251709,
				-0.47365856170654297,
				0.4750153422355652,
				0.9778881072998047
			],
			[
				-0.6002447605133057,
				0.33108848333358765,
				-0.456570565700531,
				-0.5746788382530212
			],
			[
				-2.005960464477539,
				0.5602944493293762,
				2.6683456897735596,
				-2.5312070846557617
			],
			[
				3.188823699951172,
				0.003220200538635254,
				-0.552437961101532,
				2.9450454711914062
			],
			[
				1.4312769174575806,
				-0.2843310534954071,
				-0.5570023655891418,
				0.980506956577301
			],
			[
				-0.5948469638824463,
				0.3903912901878357,
				-0.21048876643180847,
				-0.46275871992111206
			]
		],
		"weight_1": [
			0.8321892023086548,
			0.0,
			1.539528489112854,
			0.8411855697631836
		]
	},
	"layer_3": {
		"weight_0": [
			[
				1.5921909809112549
			],
			[
				0.9498391151428223
			],
			[
				-3.7666382789611816
			],
			[
				1.79267156124115
			]
		],
		"weight_1": [
			0.823034405708313
		]
	}
}