{
	"layer_0": {
		"weight_0": 0.0,
		"weight_1": 1.0,
		"weight_2": -1
	},
	"layer_1": {
		"weight_0": [
			0.019774343818426132,
			0.0,
			0.6587812900543213,
			0.0,
			0.15965533256530762,
			0.9078727960586548,
			-0.11050942540168762,
			1.1593014001846313,
			1.4645543098449707,
			0.4432203471660614,
			0.07484030723571777,
			0.0,
			0.3735668361186981,
			0.07213132828474045,
			0.1862371265888214,
			1.01531183719635
		],
		"weight_1": [
			[
				2.684708595275879,
				-0.3059748411178589,
				0.8278738260269165,
				-0.1861533224582672,
				3.151313543319702,
				1.337623953819275,
				4.038609504699707,
				1.273918867111206,
				5.948683738708496,
				-0.8954900503158569,
				3.83282208442688,
				-0.4463912844657898,
				3.0388760566711426,
				3.5104901790618896,
				1.0484304428100586,
				0.7126872539520264
			],
			[
				0.23497238755226135,
				-0.07916200160980225,
				-4.756694316864014,
				-0.07170295715332031,
				-1.2763460874557495,
				-0.8647710084915161,
				1.1999984979629517,
				-0.6443319916725159,
				2.5206947326660156,
				3.4432287216186523,
				-0.03215948864817619,
				-0.018839597702026367,
				0.39006099104881287,
				-0.02952945977449417,
				-7.877327919006348,
				-3.0306150913238525
			]
		],
		"weight_2": -1,
		"weight_3": -7.877327919006348,
		"weight_4": 7.877327919006348,
		"weight_5": -7.205679416656494,
		"weight_6": 9.33010482788086
	},
	"layer_2": {
		"weight_0": -1,
		"weight_1": -3.3394137455289297e-10,
		"weight_2": 9.159772872924805
	},
	"layer_3": {
		"weight_0": [
			0.9306694865226746,
			0.8606555461883545,
			0.22402389347553253,
			-1.663851261138916,
			0.0,
			0.0,
			0.559893786907196,
			0.0
		],
		"weight_1": [
			[
				1.1310524940490723,
				0.22202365100383759,
				-0.1275441199541092,
				0.9835804104804993,
				-0.45593464374542236,
				-0.08127856254577637,
				-0.20827342569828033,
				0.46610820293426514
			],
			[
				-0.456307053565979,
				0.4945225715637207,
				-0.47268247604370117,
				0.15880107879638672,
				0.1799159049987793,
				-0.4361286163330078,
				-0.38649284839630127,
				-0.1554356813430786
			],
			[
				4.3871965408325195,
				2.0262300968170166,
				2.535539150238037,
				-0.3565797805786133,
				0.1511291265487671,
				-0.10364973545074463,
				3.650048017501831,
				0.33309829235076904
			],
			[
				-0.049286723136901855,
				-0.2510870695114136,
				0.4240000247955322,
				0.46502840518951416,
				-0.28091609477996826,
				-0.06033790111541748,
				0.09271669387817383,
				0.42202508449554443
			],
			[
				1.9175686836242676,
				0.5840483903884888,
				0.8133047819137573,
				0.6304121613502502,
				-0.4209219217300415,
				-0.09927880764007568,
				0.5504583120346069,
				-0.39073610305786133
			],
			[
				1.0552479028701782,
				0.3790421783924103,
				-0.06588366627693176,
				-0.44717472791671753,
				0.06731617450714111,
				-0.15818333625793457,
				0.61125248670578,
				0.03563213348388672
			],
			[
				1.2565101385116577,
				-0.7062192559242249,
				-0.021621951833367348,
				1.088698148727417,
				-0.017821788787841797,
				0.30424320697784424,
				0.5771148800849915,
				0.46034741401672363
			],
			[
				0.8784404993057251,
				0.2084364891052246,
				0.14435875415802002,
				-0.7427931427955627,
				-0.10417020320892334,
				-0.4874112606048584,
				0.2706455588340759,
				-0.29097533226013184
			],
			[
				0.9975879192352295,
				-0.6126448512077332,
				0.7842259407043457,
				0.12282218039035797,
				-0.4723001718521118,
				-0.12917709350585938,
				0.22748805582523346,
				-0.0757436752319336
			],
			[
				-1.5402305126190186,
				-3.40986704826355,
				-1.8288328647613525,
				-0.7804022431373596,
				0.17329537868499756,
				-0.03902542591094971,
				-0.990892767906189,
				-0.32552528381347656
			],
			[
				1.3087971210479736,
				0.35498639941215515,
				0.5421680808067322,
				0.7708589434623718,
				0.044704556465148926,
				-0.23546147346496582,
				0.6710513830184937,
				-0.2035919427871704
			],
			[
				0.3982597589492798,
				-0.13342881202697754,
				0.4044457674026489,
				-0.4563099145889282,
				0.2438896894454956,
				0.2627553939819336,
				-0.36770761013031006,
				0.0706104040145874
			],
			[
				1.3899857997894287,
				-0.6100056767463684,
				-0.005428129341453314,
				0.24996282160282135,
				0.07841861248016357,
				0.1311187744140625,
				0.5637643337249756,
				-0.09967875480651855
			],
			[
				1.3553661108016968,
				0.5959775447845459,
				0.28492486476898193,
				0.6474519371986389,
				-0.2929805517196655,
				0.31572532653808594,
				0.18194183707237244,
				-0.20740365982055664
			],
			[
				6.8630452156066895,
				7.3830952644348145,
				6.715193748474121,
				2.5391793251037598,
				-0.318587064743042,
				0.1903376579284668,
				6.81024694442749,
				-0.2411494255065918
			],
			[
				2.247138738632202,
				1.1633085012435913,
				0.4447915256023407,
				-1.3200080394744873,
				-0.09968686103820801,
				-0.2486938238143921,
				0.7130343914031982,
				-0.379146933555603
			]
		],
		"weight_2": -1,
		"weight_3": -7.3830952644348145,
		"weight_4": 7.3830952644348145,
		"weight_5": -15.692238807678223,
		"weight_6": 43.774723052978516
	},
	"layer_4": {
		"weight_0": -1,
		"weight_1": -3.3394137455289297e-10,
		"weight_2": 42.829158782958984
	},
	"layer_5": {
		"weight_0": [
			-0.006577199324965477,
			0.0,
			0.4054936468601227,
			0.6178274154663086
		],
		"weight_1": [
			[
				-0.5829852819442749,
				-0.17853808403015137,
				1.408092975616455,
				0.20169340074062347
			],
			[
				0.06799841672182083,
				-0.22475296258926392,
				3.5198159217834473,
				-1.7805583477020264
			],
			[
				0.43695178627967834,
				0.4803466200828552,
				1.4381202459335327,
				0.100028857588768
			],
			[
				0.4570801556110382,
				-0.5236110091209412,
				-2.2922205924987793,
				1.813974380493164
			],
			[
				-0.6037569642066956,
				-0.6829158067703247,
				-0.18958985805511475,
				0.27845239639282227
			],
			[
				0.49320632219314575,
				-0.6326497793197632,
				0.501865565776825,
				0.11123061180114746
			],
			[
				-0.3863849341869354,
				-0.5828838348388672,
				0.9776805639266968,
				-0.4497816562652588
			],
			[
				0.02399688959121704,
				-0.6647195219993591,
				-0.6327164173126221,
				0.23659265041351318
			]
		],
		"weight_2": -1,
		"weight_3": -3.5198159217834473,
		"weight_4": 3.5198159217834473,
		"weight_5": -20.63564682006836,
		"weight_6": 77.60067749023438
	},
	"layer_6": {
		"weight_0": -1,
		"weight_1": -3.3394137455289297e-10,
		"weight_2": 75.5054702758789
	},
	"layer_7": {
		"weight_0": [
			0.7801858186721802
		],
		"weight_1": [
			[
				-0.11979150027036667
			],
			[
				1.0708541870117188
			],
			[
				2.3003954887390137
			],
			[
				-2.2225418090820312
			]
		],
		"weight_2": -1,
		"weight_3": -2.3008601665496826,
		"weight_4": 2.3008601665496826,
		"weight_5": -3.3394137455289297e-10,
		"weight_6": 143.53488159179688
	}
}