{
	"layer_0": {
		"weight_0": [
			[
				1.2246495485305786,
				0.36333227157592773,
				3.1618733406066895,
				0.0805235207080841,
				0.21339572966098785,
				0.13655108213424683,
				8.005223274230957,
				0.37970903515815735,
				-0.5223369002342224,
				0.5136798620223999,
				-0.4771372675895691,
				-0.06316804885864258,
				1.7221390008926392,
				6.0452094078063965,
				0.3989432156085968,
				3.2835521697998047
			],
			[
				-11.64537239074707,
				-3.525451898574829,
				-0.5084558725357056,
				-0.12107105553150177,
				-0.39454227685928345,
				0.03153657168149948,
				0.057991791516542435,
				-2.3610806465148926,
				-0.29872724413871765,
				-3.108074903488159,
				-0.07682031393051147,
				-0.2756255269050598,
				-2.037311553955078,
				-0.6117070913314819,
				-4.994901657104492,
				-0.6932070851325989
			]
		],
		"weight_1": [
			0.2130916565656662,
			0.4598279595375061,
			0.4194367527961731,
			-0.06417718529701233,
			-0.16351409256458282,
			-0.17354486882686615,
			0.30925452709198,
			1.490006923675537,
			0.0,
			0.6663622856140137,
			0.0,
			0.0,
			1.323078989982605,
			0.3825344741344452,
			0.3333829641342163,
			0.413650780916214
		]
	},
	"layer_1": {
		"weight_0": [
			[
				8.249691009521484,
				1.5779086351394653,
				7.2322306632995605,
				-0.28881680965423584,
				-0.34021198749542236,
				-2.667268991470337,
				-0.21687555313110352,
				0.0897066593170166
			],
			[
				1.9312540292739868,
				-1.812948226928711,
				2.9273157119750977,
				-0.028880953788757324,
				-0.2864736318588257,
				0.7314068675041199,
				-0.0839836597442627,
				0.05327904224395752
			],
			[
				1.0506123304367065,
				0.6397296786308289,
				1.0122992992401123,
				-0.2104812115430832,
				-0.2213289737701416,
				0.17725719511508942,
				0.3996967673301697,
				0.08895003795623779
			],
			[
				-0.1134321540594101,
				-0.3631312847137451,
				0.14941681921482086,
				-0.01728689670562744,
				-0.3494616746902466,
				-0.22231565415859222,
				0.3054696321487427,
				-0.03284800052642822
			],
			[
				-0.17012669146060944,
				0.5498142242431641,
				-0.12014223635196686,
				-0.06882226467132568,
				-0.1959218978881836,
				-0.28149858117103577,
				-0.4644850492477417,
				-0.07512092590332031
			],
			[
				-0.281362920999527,
				0.28363797068595886,
				0.10830240696668625,
				0.1545034646987915,
				-0.15439975261688232,
				0.3648456335067749,
				0.3542066812515259,
				-0.22325420379638672
			],
			[
				1.2962956428527832,
				1.3700979948043823,
				0.7491530179977417,
				0.14888471364974976,
				-0.45862841606140137,
				-1.433257818222046,
				-0.08106924593448639,
				-0.39437735080718994
			],
			[
				0.7837314605712891,
				-0.9002525806427002,
				0.025237612426280975,
				-1.622182011604309,
				0.2584247589111328,
				0.6833711862564087,
				-0.3354642987251282,
				-0.48073816299438477
			],
			[
				-0.3833959102630615,
				0.4431086778640747,
				0.29693901538848877,
				0.21045219898223877,
				-0.18507540225982666,
				0.07513308525085449,
				0.3586384057998657,
				-0.254955530166626
			],
			[
				1.5133074522018433,
				-0.5902070999145508,
				1.6507906913757324,
				-1.7914824485778809,
				-0.20893573760986328,
				0.7500206828117371,
				-0.2443103790283203,
				-0.2519552707672119
			],
			[
				0.08777391910552979,
				-0.34899818897247314,
				0.037279605865478516,
				-0.11712968349456787,
				0.3051903247833252,
				-0.3072488307952881,
				0.009203433990478516,
				0.33432650566101074
			],
			[
				-0.28571391105651855,
				-0.25401294231414795,
				0.3657691478729248,
				-0.0014805793762207031,
				0.3390974998474121,
				0.09392833709716797,
				-0.143468976020813,
				0.21803319454193115
			],
			[
				1.2797752618789673,
				0.05271288752555847,
				0.46748289465904236,
				-0.7384597659111023,
				-0.4196885824203491,
				0.7791568636894226,
				0.10921771824359894,
				-0.04255318641662598
			],
			[
				1.1786078214645386,
				0.9513561725616455,
				0.9453429579734802,
				0.31925007700920105,
				0.17979788780212402,
				-0.5486628413200378,
				-0.3455843925476074,
				-0.15507185459136963
			],
			[
				3.043046474456787,
				-2.5394394397735596,
				4.681434631347656,
				0.2893104553222656,
				0.10729002952575684,
				-0.5572559237480164,
				-0.32264649868011475,
				-0.25405454635620117
			],
			[
				1.43085515499115,
				0.7154600620269775,
				1.3363004922866821,
				-0.5097028613090515,
				0.2968885898590088,
				0.04906628280878067,
				-0.07719087600708008,
				0.28483855724334717
			]
		],
		"weight_1": [
			0.5548754930496216,
			-0.2045806348323822,
			-0.4225732982158661,
			1.4249694347381592,
			0.0,
			1.8541386127471924,
			-0.018973369151353836,
			0.0
		]
	},
	"layer_2": {
		"weight_0": [
			[
				-0.10414324700832367,
				-0.6938170194625854,
				2.2707509994506836,
				-0.3692574203014374
			],
			[
				-5.671499252319336,
				0.28197234869003296,
				-3.3779399394989014,
				0.3741874098777771
			],
			[
				-0.2903917729854584,
				-0.3631713092327118,
				1.5472488403320312,
				0.41792792081832886
			],
			[
				1.4296133518218994,
				-0.6469630599021912,
				2.2390167713165283,
				0.24001166224479675
			],
			[
				0.3368298411369324,
				-0.5981789231300354,
				0.37224799394607544,
				0.3736409544944763
			],
			[
				1.7136099338531494,
				0.4061998724937439,
				-1.6339380741119385,
				1.7255185842514038
			],
			[
				-0.5967450737953186,
				-0.13493144512176514,
				0.3498350977897644,
				-0.03969932720065117
			],
			[
				-0.5600041747093201,
				-0.20612168312072754,
				-0.038973212242126465,
				0.6432507634162903
			]
		],
		"weight_1": [
			-0.8792606592178345,
			0.0,
			0.23535166680812836,
			-2.2446706295013428
		]
	},
	"layer_3": {
		"weight_0": [
			[
				-3.688678026199341
			],
			[
				0.43475914001464844
			],
			[
				3.364076852798462
			],
			[
				-5.78521203994751
			]
		],
		"weight_1": [
			0.24208872020244598
		]
	}
}