{
	"layer_0": {
		"weight_0": [
			[
				1.1601389646530151,
				0.5867433547973633,
				-0.07030898332595825,
				0.5957137942314148,
				-0.06932932138442993,
				0.025730954483151436,
				0.45199623703956604,
				2.248009443283081,
				0.058584634214639664,
				6.824177265167236,
				-0.321752667427063,
				0.8492972254753113,
				1.5943562984466553,
				-0.42393064498901367,
				0.6617270708084106,
				3.7554562091827393
			],
			[
				-0.43342265486717224,
				-3.191025972366333,
				-0.022570788860321045,
				-2.310516119003296,
				-0.29357028007507324,
				0.18763141334056854,
				-4.552058219909668,
				-0.39020219445228577,
				-0.23408237099647522,
				0.015662090852856636,
				-0.39761531352996826,
				-0.7132833003997803,
				-11.543462753295898,
				-1.6090670824050903,
				-6.448294639587402,
				-0.12046568840742111
			]
		],
		"weight_1": [
			1.1638686656951904,
			0.936207115650177,
			0.0,
			1.1153794527053833,
			0.0,
			-0.21481627225875854,
			0.8866239786148071,
			0.2940247058868408,
			-0.027428241446614265,
			0.17862746119499207,
			0.0,
			0.32016703486442566,
			0.2735075354576111,
			2.0218045711517334,
			0.5820388197898865,
			0.11838037520647049
		]
	},
	"layer_1": {
		"weight_0": [
			[
				-0.5170484185218811,
				1.7484017610549927,
				-0.23488163948059082,
				-0.45431897044181824,
				0.27975013852119446,
				0.008322595618665218,
				0.10064032673835754,
				0.116144560277462
			],
			[
				1.4532614946365356,
				2.3784897327423096,
				0.5522781014442444,
				0.16464358568191528,
				-0.22001177072525024,
				1.860946774482727,
				0.4323926866054535,
				1.8537486791610718
			],
			[
				-0.42037296295166016,
				0.4484938383102417,
				-0.21591126918792725,
				-0.10808372497558594,
				-0.0877605676651001,
				0.3692772388458252,
				-0.03831338882446289,
				-0.26374661922454834
			],
			[
				1.3081254959106445,
				2.388906955718994,
				0.41261544823646545,
				0.0443517230451107,
				0.04901106655597687,
				1.2721772193908691,
				0.4181748926639557,
				1.1424180269241333
			],
			[
				-0.043587565422058105,
				0.05908989906311035,
				0.021952152252197266,
				-0.243097186088562,
				-0.47173047065734863,
				-0.2264643907546997,
				0.05506718158721924,
				0.16252219676971436
			],
			[
				-0.24510295689105988,
				0.07997770607471466,
				-0.17569054663181305,
				-0.3228406310081482,
				0.20707230269908905,
				0.018998779356479645,
				-0.25937727093696594,
				-0.12024524062871933
			],
			[
				2.7753899097442627,
				0.8083639740943909,
				-0.5880377292633057,
				-0.2635188102722168,
				-0.5199028849601746,
				2.98114275932312,
				0.6279586553573608,
				2.0663769245147705
			],
			[
				0.19662722945213318,
				0.9116910696029663,
				-0.2348024696111679,
				0.5255942940711975,
				0.07036718726158142,
				0.9627639055252075,
				-0.6036816239356995,
				0.8310385942459106
			],
			[
				0.06603648513555527,
				-0.05379548668861389,
				-0.19402927160263062,
				0.3825991153717041,
				0.06925702095031738,
				-0.40427371859550476,
				-0.26393425464630127,
				0.12986129522323608
			],
			[
				-0.6521028280258179,
				0.7681785821914673,
				-1.0149046182632446,
				0.377363920211792,
				-0.48433101177215576,
				0.6410324573516846,
				-3.1007254123687744,
				0.3512830138206482
			],
			[
				0.18393981456756592,
				0.29711592197418213,
				-0.2855393886566162,
				0.35366570949554443,
				-0.16108036041259766,
				0.22532248497009277,
				-0.008517146110534668,
				0.28956151008605957
			],
			[
				0.07272268831729889,
				1.8550978899002075,
				0.48512962460517883,
				0.2135014683008194,
				0.20852482318878174,
				0.4255817234516144,
				-0.297901451587677,
				0.5720778107643127
			],
			[
				5.981022834777832,
				-3.3189191818237305,
				-1.743173599243164,
				4.0300750732421875,
				0.12480854243040085,
				5.012540817260742,
				-1.6086041927337646,
				4.272676944732666
			],
			[
				0.5483173727989197,
				2.4668073654174805,
				0.6571567058563232,
				-1.0691428184509277,
				-0.274949848651886,
				0.17868605256080627,
				0.4724266827106476,
				0.3373742699623108
			],
			[
				4.37454891204834,
				-0.013356992974877357,
				-0.8242548704147339,
				0.9495351910591125,
				0.39295539259910583,
				4.8680291175842285,
				0.07456628978252411,
				3.6355018615722656
			],
			[
				-0.8055764436721802,
				0.7908355593681335,
				-0.5333385467529297,
				0.4001621603965759,
				0.25504687428474426,
				0.47416427731513977,
				-1.863364338874817,
				0.8107125163078308
			]
		],
		"weight_1": [
			0.03041158616542816,
			1.7804769277572632,
			0.7694289088249207,
			-0.867911159992218,
			-0.060957662761211395,
			0.21802841126918793,
			0.43987730145454407,
			0.2492201030254364
		]
	},
	"layer_2": {
		"weight_0": [
			[
				1.8861477375030518,
				-0.1332588791847229,
				-0.14492203295230865,
				0.3941366374492645
			],
			[
				1.2728217840194702,
				0.9572787284851074,
				0.28328683972358704,
				0.7694121599197388
			],
			[
				-3.1075732707977295,
				1.7101287841796875,
				2.0005853176116943,
				3.545912265777588
			],
			[
				-1.455959677696228,
				0.22825856506824493,
				-13.025424003601074,
				1.2224640846252441
			],
			[
				-0.42573463916778564,
				-0.4985056519508362,
				-0.3276251554489136,
				0.6921718120574951
			],
			[
				1.9291590452194214,
				-1.0761964321136475,
				-0.8418042659759521,
				-0.6380516290664673
			],
			[
				-4.098560333251953,
				0.632144033908844,
				1.1202596426010132,
				3.4293336868286133
			],
			[
				2.0126094818115234,
				-0.4175613224506378,
				0.1535453051328659,
				-0.7031489610671997
			]
		],
		"weight_1": [
			0.612964391708374,
			0.5491529703140259,
			-0.14606401324272156,
			0.4777463674545288
		]
	},
	"layer_3": {
		"weight_0": [
			[
				1.6453580856323242
			],
			[
				3.1497371196746826
			],
			[
				5.308772563934326
			],
			[
				-5.974151611328125
			]
		],
		"weight_1": [
			0.6039960384368896
		]
	}
}