{
	"layer_0": {
		"weight_0": 0.0,
		"weight_1": 1.0,
		"weight_2": -1
	},
	"layer_1": {
		"weight_0": [
			-0.003162271110340953,
			0.0,
			0.0,
			0.48599013686180115,
			0.5593721866607666,
			0.0,
			-0.035065509378910065,
			-0.16238567233085632,
			0.3813532888889313,
			0.5763983726501465,
			0.5200617909431458,
			0.5727806091308594,
			0.0,
			-0.2035965770483017,
			0.3786654770374298,
			0.4970462918281555
		],
		"weight_1": [
			[
				0.041499752551317215,
				-0.11813047528266907,
				-0.5522709488868713,
				0.9742920398712158,
				0.7186221480369568,
				-0.25548017024993896,
				-0.3716147840023041,
				0.17156250774860382,
				0.3587076961994171,
				0.8765177726745605,
				0.42534828186035156,
				1.0602591037750244,
				-0.23228102922439575,
				-0.16720956563949585,
				0.1194329485297203,
				0.718683660030365
			],
			[
				-0.500470757484436,
				-0.40125948190689087,
				-0.01309734582901001,
				-0.08838995546102524,
				0.7156084179878235,
				-0.4389689862728119,
				0.03579728305339813,
				-0.07030044496059418,
				0.5592736005783081,
				-0.039191730320453644,
				0.6035508513450623,
				0.4220491051673889,
				-0.3311029076576233,
				0.20436401665210724,
				0.7551222443580627,
				-0.13941505551338196
			]
		],
		"weight_2": -1,
		"weight_3": -1.0602591037750244,
		"weight_4": 1.0602591037750244,
		"weight_5": -0.5658519268035889,
		"weight_6": 2.1702325344085693
	},
	"layer_2": {
		"weight_0": [
			0.0,
			0.5366836786270142,
			-0.13927702605724335,
			0.4727984070777893,
			0.5711474418640137,
			0.4325275123119354,
			-0.03547707200050354,
			-0.012134366668760777
		],
		"weight_1": [
			[
				-0.4732842445373535,
				-0.3838307857513428,
				0.03980123996734619,
				-0.4217801094055176,
				-0.4075356721878052,
				-0.10029876232147217,
				0.23235869407653809,
				0.19178450107574463
			],
			[
				-0.11435866355895996,
				-0.12138378620147705,
				-0.4912606477737427,
				-0.26761460304260254,
				0.33478593826293945,
				-0.4920262098312378,
				-0.13692831993103027,
				-0.46374452114105225
			],
			[
				-0.3166494369506836,
				-0.1998196840286255,
				-0.1201317310333252,
				0.4767845869064331,
				-0.026428580284118652,
				0.0741657018661499,
				0.22513866424560547,
				0.19304978847503662
			],
			[
				-0.13178324699401855,
				0.8480493426322937,
				0.23256535828113556,
				0.2624969184398651,
				0.26197904348373413,
				0.6129254102706909,
				0.10595250129699707,
				-0.3676643371582031
			],
			[
				-0.445324182510376,
				0.802462100982666,
				-0.21814781427383423,
				0.3333863914012909,
				0.6947882175445557,
				0.5795586109161377,
				0.28446468710899353,
				-0.012643863447010517
			],
			[
				-0.0790179967880249,
				0.32854652404785156,
				-0.4147728681564331,
				0.25320565700531006,
				-0.13287580013275146,
				-0.10043632984161377,
				0.02642655372619629,
				0.10913383960723877
			],
			[
				-0.13580262660980225,
				0.1077570840716362,
				0.43020176887512207,
				0.3228028416633606,
				-0.3213910758495331,
				-0.3504156172275543,
				-0.23246382176876068,
				-0.3648059666156769
			],
			[
				-0.41618359088897705,
				-0.08898860216140747,
				-0.2673693895339966,
				-0.011984123848378658,
				-0.33637285232543945,
				-0.2971319258213043,
				-0.15122602880001068,
				-0.1169205978512764
			],
			[
				-0.36295127868652344,
				0.4968051016330719,
				0.16124461591243744,
				0.5088419914245605,
				0.42353957891464233,
				0.17335695028305054,
				-0.31758737564086914,
				0.2563875615596771
			],
			[
				-0.2736603021621704,
				0.9997506737709045,
				-0.5534405708312988,
				0.6467515826225281,
				0.9470447897911072,
				0.11970912665128708,
				-0.4846639633178711,
				0.0942726582288742
			],
			[
				0.09185314178466797,
				0.9970201849937439,
				-0.051267728209495544,
				0.3538653552532196,
				0.3461313247680664,
				0.28927847743034363,
				0.20531326532363892,
				0.040729258209466934
			],
			[
				-0.49111735820770264,
				0.3491837978363037,
				0.24819611012935638,
				0.4235853850841522,
				0.9998164772987366,
				0.5289084315299988,
				-0.47935643792152405,
				-0.4268026649951935
			],
			[
				-0.1304917335510254,
				-0.22125935554504395,
				0.3734135627746582,
				0.2388620376586914,
				-0.32047533988952637,
				-0.40399301052093506,
				-0.4226583242416382,
				-0.3015251159667969
			],
			[
				-0.2614477872848511,
				-0.22335349023342133,
				0.001303787576034665,
				-0.35946211218833923,
				-0.34521764516830444,
				0.18037697672843933,
				0.17049741744995117,
				0.2761564552783966
			],
			[
				-0.19269180297851562,
				0.9285140037536621,
				0.4662477374076843,
				0.44476518034935,
				0.07763946801424026,
				0.7732570767402649,
				-0.21373029053211212,
				0.12228419631719589
			],
			[
				0.3513106107711792,
				0.2881987988948822,
				0.034405071288347244,
				0.2880270481109619,
				0.7306602597236633,
				0.2199125438928604,
				0.4698721170425415,
				0.08288908004760742
			]
		],
		"weight_2": -1,
		"weight_3": -0.9998164772987366,
		"weight_4": 0.9998164772987366,
		"weight_5": -0.5658519268035889,
		"weight_6": 6.855581760406494
	},
	"layer_3": {
		"weight_0": [
			-0.11060884594917297,
			0.5662832260131836,
			-0.06151152402162552,
			-0.2522737979888916
		],
		"weight_1": [
			[
				0.6757574677467346,
				0.5183985829353333,
				-0.1779087781906128,
				0.2504827380180359
			],
			[
				0.4535374641418457,
				1.001308560371399,
				0.3586021661758423,
				0.2797509431838989
			],
			[
				-0.6651498079299927,
				-0.04498204588890076,
				-0.2749548852443695,
				-0.6016673445701599
			],
			[
				-0.5872625112533569,
				0.6304182410240173,
				-0.09145951271057129,
				0.30550602078437805
			],
			[
				-0.6714046597480774,
				0.9999571442604065,
				-0.3349561095237732,
				-0.3818417489528656
			],
			[
				0.3999203145503998,
				0.5074338912963867,
				-0.5553396940231323,
				-0.11967732757329941
			],
			[
				-0.15214841067790985,
				-0.5936511754989624,
				-0.700291097164154,
				0.48839184641838074
			],
			[
				0.36565035581588745,
				-0.21505747735500336,
				-0.37687405943870544,
				-0.2761726379394531
			]
		],
		"weight_2": -1,
		"weight_3": -1.001308560371399,
		"weight_4": 1.001308560371399,
		"weight_5": -0.5658519268035889,
		"weight_6": 14.633705139160156
	},
	"layer_4": {
		"weight_0": [
			2.913977861404419
		],
		"weight_1": [
			[
				-0.2038341611623764
			],
			[
				0.6403600573539734
			],
			[
				-0.8726890087127686
			],
			[
				-0.36867544054985046
			]
		],
		"weight_2": -1,
		"weight_3": -0.8726890087127686,
		"weight_4": 0.8726890087127686,
		"weight_5": -0.5658519268035889,
		"weight_6": 8.955410957336426
	}
}