{
	"layer_0": {
		"weight_0": 0.0,
		"weight_1": 1.0,
		"weight_2": -1
	},
	"layer_1": {
		"weight_0": [
			0.6782617568969727,
			-0.12295487523078918,
			0.9737969040870667,
			0.9818031787872314,
			1.0218428373336792,
			0.0,
			-0.17683076858520508,
			0.9662039279937744,
			0.9762049913406372,
			-0.22734269499778748,
			-0.024688387289643288,
			0.0,
			0.9524997472763062,
			0.9411177039146423,
			0.9420248866081238,
			0.8768040537834167
		],
		"weight_1": [
			[
				0.21652254462242126,
				0.16728568077087402,
				2.0169057846069336,
				1.8917136192321777,
				1.7019964456558228,
				-0.20253723859786987,
				0.17276699841022491,
				2.039567708969116,
				2.040571928024292,
				0.24755501747131348,
				0.006204165518283844,
				-0.28340283036231995,
				2.0447134971618652,
				0.925182580947876,
				1.8223234415054321,
				1.253977656364441
			],
			[
				1.6970100402832031,
				-0.3607420027256012,
				-0.9617872834205627,
				-0.8445135354995728,
				-0.5009121894836426,
				-0.3978542685508728,
				-0.01602081023156643,
				-0.017069678753614426,
				-0.6591352224349976,
				-0.1651853322982788,
				0.009100612252950668,
				-0.1027015745639801,
				-0.6510053873062134,
				0.5802297592163086,
				-0.2485848069190979,
				-0.4823054373264313
			]
		],
		"weight_2": -1,
		"weight_3": -2.046426773071289,
		"weight_4": 2.046426773071289,
		"weight_5": -0.5658519268035889,
		"weight_6": 3.3266282081604004
	},
	"layer_2": {
		"weight_0": [
			-0.04184561222791672,
			-0.05311182513833046,
			0.0,
			-0.1261027455329895,
			-0.03818616271018982,
			0.9933913946151733,
			-0.03167975693941116,
			-0.26666679978370667
		],
		"weight_1": [
			[
				0.1860891431570053,
				-0.14621011912822723,
				-0.24257957935333252,
				0.22923310101032257,
				0.8317091464996338,
				-0.013585362583398819,
				0.08884288370609283,
				1.100989580154419
			],
			[
				-0.17181739211082458,
				0.0016654729843139648,
				0.19880890846252441,
				-0.3368135690689087,
				0.025942564010620117,
				-0.20210957527160645,
				-0.12590454518795013,
				0.19343675673007965
			],
			[
				-0.19699901342391968,
				0.1918565034866333,
				-0.10875105857849121,
				-0.1434059739112854,
				-0.07321945577859879,
				1.3704607486724854,
				0.12999895215034485,
				-0.45215386152267456
			],
			[
				0.06593722850084305,
				0.04696083068847656,
				-0.2815307378768921,
				-0.5141777992248535,
				-0.010796848684549332,
				1.2812474966049194,
				-0.43406161665916443,
				-0.2081255465745926
			],
			[
				0.21975965797901154,
				0.41628241539001465,
				-0.394214391708374,
				0.2558363378047943,
				0.2332586944103241,
				1.032772183418274,
				-0.1989583522081375,
				0.3374592363834381
			],
			[
				-0.46577370166778564,
				0.2154027223587036,
				-0.06850075721740723,
				-0.05805492401123047,
				-0.24981248378753662,
				-0.4266449213027954,
				-0.3462270498275757,
				-0.17162322998046875
			],
			[
				-0.4416046142578125,
				-0.3360929787158966,
				-0.08224451541900635,
				-0.019003329798579216,
				-0.0006635189056396484,
				-0.18363989889621735,
				0.285197913646698,
				-0.12052012979984283
			],
			[
				-0.28961509466171265,
				0.1531035304069519,
				-0.4028087854385376,
				0.08006900548934937,
				-0.036141615360975266,
				0.739520788192749,
				-0.09310310333967209,
				0.012456085532903671
			],
			[
				0.375369131565094,
				-0.3687511086463928,
				-0.24925577640533447,
				-0.05906299501657486,
				0.5058020353317261,
				1.5561949014663696,
				-0.2277938425540924,
				-0.5531615018844604
			],
			[
				-0.1488075703382492,
				0.008653268218040466,
				-0.046967148780822754,
				-0.18170157074928284,
				-0.2867969274520874,
				-0.05085621774196625,
				0.17276915907859802,
				0.44391512870788574
			],
			[
				-0.16624855995178223,
				0.3544519245624542,
				-0.14763092994689941,
				-0.21192666888237,
				-0.17150485515594482,
				-0.26592105627059937,
				-0.13183090090751648,
				0.4083007872104645
			],
			[
				-0.10326266288757324,
				-0.21122980117797852,
				-0.037768006324768066,
				0.16938984394073486,
				-0.3692169189453125,
				-0.11762464046478271,
				-0.265789270401001,
				0.47811198234558105
			],
			[
				0.38154879212379456,
				-0.42480897903442383,
				0.28913235664367676,
				-0.5836953520774841,
				-0.19116656482219696,
				1.0098090171813965,
				0.27637454867362976,
				-0.48862966895103455
			],
			[
				-0.317745566368103,
				0.1507108211517334,
				0.1489884853363037,
				-0.3741658329963684,
				0.05880466476082802,
				0.7043757438659668,
				0.37590494751930237,
				0.5805345177650452
			],
			[
				-0.5386966466903687,
				-0.21266978979110718,
				0.34275174140930176,
				0.1875244528055191,
				-0.33766305446624756,
				0.6339943408966064,
				-0.49120277166366577,
				0.4276743531227112
			],
			[
				0.17486275732517242,
				-0.0036653608549386263,
				0.20224714279174805,
				0.0794559195637703,
				-0.28149887919425964,
				0.6972458362579346,
				-0.35890090465545654,
				0.37541478872299194
			]
		],
		"weight_2": -1,
		"weight_3": -1.5577317476272583,
		"weight_4": 1.5577317476272583,
		"weight_5": -0.5658519268035889,
		"weight_6": 22.787721633911133
	},
	"layer_3": {
		"weight_0": [
			0.0,
			0.919989287853241,
			1.004226803779602,
			-0.0031622773967683315
		],
		"weight_1": [
			[
				-0.49774008989334106,
				-0.5288845300674438,
				0.10635440796613693,
				-0.3618839681148529
			],
			[
				0.5638442635536194,
				-0.631138801574707,
				0.15988223254680634,
				0.1627318263053894
			],
			[
				0.044542670249938965,
				0.18044328689575195,
				0.32580453157424927,
				-0.16848891973495483
			],
			[
				-0.1619853377342224,
				0.3121081590652466,
				-0.18319059908390045,
				-0.35135626792907715
			],
			[
				0.2605662941932678,
				-0.9376562237739563,
				-1.053817868232727,
				-0.3629361093044281
			],
			[
				-0.5736387968063354,
				1.169719934463501,
				1.4590203762054443,
				-0.6407341361045837
			],
			[
				-0.633935809135437,
				-0.31631213426589966,
				-0.21000957489013672,
				-0.03121722862124443
			],
			[
				-0.4848807752132416,
				-2.163008689880371,
				-1.957839846611023,
				0.44142860174179077
			]
		],
		"weight_2": -1,
		"weight_3": -2.162294864654541,
		"weight_4": 2.162294864654541,
		"weight_5": -0.5658519268035889,
		"weight_6": 26.561044692993164
	},
	"layer_4": {
		"weight_0": [
			1.0099982023239136
		],
		"weight_1": [
			[
				-0.05031871795654297
			],
			[
				1.3431565761566162
			],
			[
				2.0618326663970947
			],
			[
				-0.9462119340896606
			]
		],
		"weight_2": -1,
		"weight_3": -2.0633413791656494,
		"weight_4": 2.0633413791656494,
		"weight_5": -0.5658519268035889,
		"weight_6": 64.89724731445312
	}
}