{
	"layer_0": {
		"weight_0": 0.0,
		"weight_1": 1.0,
		"weight_2": -1
	},
	"layer_1": {
		"weight_0": [
			-0.008362079039216042,
			0.0,
			0.0,
			-0.0003082102630287409,
			-0.0030675088055431843,
			0.004488874692469835,
			0.0,
			0.003162190318107605,
			0.0,
			0.011258622631430626,
			-0.004091046284884214,
			-0.00021155050490051508,
			0.0,
			0.0,
			0.0,
			-0.008886831812560558
		],
		"weight_1": [
			[
				-0.27169719338417053,
				-0.2865634262561798,
				0.07114905118942261,
				-0.07500102370977402,
				-0.03650607168674469,
				0.517811119556427,
				0.45385420322418213,
				0.3200789988040924,
				-0.34352919459342957,
				0.2702111601829529,
				-0.02760828286409378,
				0.29266485571861267,
				0.569103479385376,
				-0.1319371461868286,
				-0.5694029927253723,
				-0.34097275137901306
			],
			[
				0.08461795002222061,
				-0.5498302578926086,
				-0.32621628046035767,
				0.12332858145236969,
				0.220378577709198,
				0.3081696033477783,
				-0.4700365662574768,
				-0.09673258662223816,
				-0.12185254693031311,
				0.2514951229095459,
				0.3792358338832855,
				0.5094760656356812,
				-0.20327505469322205,
				-0.1597522795200348,
				-0.02541893720626831,
				0.35081353783607483
			]
		],
		"weight_2": -1,
		"weight_3": -0.5694029927253723,
		"weight_4": 0.5694029927253723,
		"weight_5": -0.5658519268035889,
		"weight_6": 1.265552282333374
	},
	"layer_2": {
		"weight_0": [
			0.0,
			0.0,
			0.018142808228731155,
			0.002492958679795265,
			-0.01853252202272415,
			0.0,
			-0.0019398031290620565,
			0.0
		],
		"weight_1": [
			[
				0.28385818004608154,
				0.21408534049987793,
				-0.2929370701313019,
				0.07567644119262695,
				0.0725499838590622,
				-0.04721629619598389,
				-0.47710877656936646,
				0.20860815048217773
			],
			[
				-0.15329229831695557,
				-0.3523995876312256,
				-0.44625556468963623,
				0.13164162635803223,
				-0.14727783203125,
				-0.24224519729614258,
				-0.1821655035018921,
				-0.07324516773223877
			],
			[
				-0.29454636573791504,
				0.16260027885437012,
				0.053788185119628906,
				-0.055440545082092285,
				0.3928483724594116,
				-0.39705705642700195,
				-0.32810258865356445,
				-0.21159887313842773
			],
			[
				-0.21124577522277832,
				0.4796234369277954,
				-0.12054514139890671,
				0.33173996210098267,
				0.3959643244743347,
				0.4051699638366699,
				-0.49542853236198425,
				0.3614605665206909
			],
			[
				0.29863691329956055,
				-0.30695879459381104,
				-0.18632958829402924,
				-0.09478887170553207,
				-0.3762417435646057,
				0.3697468042373657,
				0.019921310245990753,
				0.15415549278259277
			],
			[
				-0.07267391681671143,
				-0.04829227924346924,
				0.21655869483947754,
				0.46345847845077515,
				-0.17677588760852814,
				-0.12313079833984375,
				-0.16070106625556946,
				-0.41490888595581055
			],
			[
				-0.08573591709136963,
				0.3005797863006592,
				-0.09560227394104004,
				-0.307989239692688,
				-0.17294049263000488,
				0.17555856704711914,
				0.4942445755004883,
				-0.26870763301849365
			],
			[
				0.0336228609085083,
				0.012975096702575684,
				-0.13248401880264282,
				-0.01373516209423542,
				-0.3361619710922241,
				-0.36845433712005615,
				-0.12038911879062653,
				-0.027559757232666016
			],
			[
				-0.16938960552215576,
				0.3711812496185303,
				0.06233477592468262,
				0.03210747241973877,
				0.10927152633666992,
				0.3545759916305542,
				0.26936864852905273,
				0.43978750705718994
			],
			[
				-0.19328272342681885,
				-0.16135060787200928,
				0.2983487546443939,
				0.13021861016750336,
				-0.1304580271244049,
				-0.24720335006713867,
				-0.0225986298173666,
				-0.4824495315551758
			],
			[
				0.020770907402038574,
				-0.4170107841491699,
				-0.12437363713979721,
				0.020401248708367348,
				0.24137842655181885,
				-0.23454129695892334,
				0.44184786081314087,
				-0.15605735778808594
			],
			[
				-0.3776589632034302,
				-0.15374386310577393,
				0.3156789243221283,
				-0.43334445357322693,
				0.1547996997833252,
				-0.37156832218170166,
				0.33753809332847595,
				-0.4514148235321045
			],
			[
				0.290718674659729,
				0.4490150213241577,
				0.29748547077178955,
				-0.43576204776763916,
				-0.218880295753479,
				-0.280226469039917,
				-0.17793500423431396,
				0.3381866216659546
			],
			[
				-0.30729830265045166,
				-0.31715524196624756,
				-0.33942437171936035,
				0.0930565595626831,
				0.38332295417785645,
				0.22591745853424072,
				-0.40321242809295654,
				-0.42826926708221436
			],
			[
				0.4795866012573242,
				0.39170968532562256,
				-0.011047601699829102,
				0.06040537357330322,
				-0.19754362106323242,
				-0.0011082887649536133,
				0.13900482654571533,
				0.43554723262786865
			],
			[
				-0.05095517635345459,
				0.14802944660186768,
				-0.20278868079185486,
				0.48905882239341736,
				0.41146281361579895,
				0.06395018100738525,
				-0.13442428410053253,
				-0.2468022108078003
			]
		],
		"weight_2": -1,
		"weight_3": -0.49542853236198425,
		"weight_4": 0.49542853236198425,
		"weight_5": -0.5658519268035889,
		"weight_6": 1.0785961151123047
	},
	"layer_3": {
		"weight_0": [
			-0.013756930828094482,
			0.0,
			-0.007150338031351566,
			-0.010142087936401367
		],
		"weight_1": [
			[
				0.6299375891685486,
				-0.5589547157287598,
				-0.16709941625595093,
				0.40721529722213745
			],
			[
				-0.003995537757873535,
				0.5331231951713562,
				0.06705582141876221,
				-0.3329939842224121
			],
			[
				-0.39058583974838257,
				-0.5984166264533997,
				-0.5601500868797302,
				-0.05405546352267265
			],
			[
				-0.3296333849430084,
				0.06035780906677246,
				0.19227544963359833,
				0.21498630940914154
			],
			[
				0.1083177998661995,
				-0.01672452688217163,
				0.31297218799591064,
				0.05947541818022728
			],
			[
				-0.27876126766204834,
				0.2721772789955139,
				-0.6028452515602112,
				0.15545493364334106
			],
			[
				0.4371573328971863,
				-0.1998920440673828,
				-0.4269528090953827,
				-0.35102009773254395
			],
			[
				-0.21053782105445862,
				0.23428136110305786,
				-0.523795485496521,
				-0.6051759719848633
			]
		],
		"weight_2": -1,
		"weight_3": -0.6299375891685486,
		"weight_4": 0.6299375891685486,
		"weight_5": -0.5658519268035889,
		"weight_6": 0.5658537149429321
	},
	"layer_4": {
		"weight_0": [
			3.919485092163086
		],
		"weight_1": [
			[
				-0.3005252778530121
			],
			[
				-0.29079246520996094
			],
			[
				-0.6087205410003662
			],
			[
				-0.9637464880943298
			]
		],
		"weight_2": -1,
		"weight_3": -0.9637464880943298,
		"weight_4": 0.9637464880943298,
		"weight_5": -0.5658519268035889,
		"weight_6": 3.910977840423584
	}
}