{
	"layer_0": {
		"weight_0": 0.0,
		"weight_1": 1.0,
		"weight_2": -1
	},
	"layer_1": {
		"weight_0": [
			0.19144344329833984,
			0.3353108763694763,
			0.3138199746608734,
			0.29322782158851624,
			0.24599330127239227,
			-0.10421222448348999,
			0.2855442762374878,
			0.32135507464408875,
			0.29030925035476685,
			0.33130234479904175,
			-0.1188497468829155,
			0.26751193404197693,
			-0.1645773947238922,
			0.31671568751335144,
			0.29635268449783325,
			0.3032493591308594
		],
		"weight_1": [
			[
				-0.1605539172887802,
				0.4102571904659271,
				0.21209843456745148,
				-0.1688823103904724,
				0.11623994261026382,
				0.31383880972862244,
				0.7347398996353149,
				0.7949191927909851,
				-0.16426146030426025,
				0.35494205355644226,
				0.27830347418785095,
				-0.013248221948742867,
				-0.1029336005449295,
				0.352124959230423,
				0.67153400182724,
				0.36540693044662476
			],
			[
				0.44981884956359863,
				0.5748806595802307,
				0.8101425766944885,
				0.4499419927597046,
				0.22336989641189575,
				0.17579273879528046,
				-0.00894661620259285,
				0.5635460019111633,
				0.6314234137535095,
				0.8181472420692444,
				-0.23686407506465912,
				0.6713694930076599,
				0.32521963119506836,
				0.4632231295108795,
				0.8262168765068054,
				-0.13043934106826782
			]
		],
		"weight_2": -1,
		"weight_3": -0.8262168765068054,
		"weight_4": 0.8262168765068054,
		"weight_5": -0.3163696229457855,
		"weight_6": 1.684576153755188
	},
	"layer_2": {
		"weight_0": -1,
		"weight_1": -3.3394137455289297e-10,
		"weight_2": 1.6622633934020996
	},
	"layer_3": {
		"weight_0": [
			-0.03857345134019852,
			-0.059243395924568176,
			0.3315575420856476,
			0.3189789056777954,
			0.0,
			-0.09827262908220291,
			0.3110966384410858,
			0.1969037503004074
		],
		"weight_1": [
			[
				-0.18432164192199707,
				-0.13103556632995605,
				0.10382474958896637,
				0.1627914160490036,
				-0.408719539642334,
				0.04785249009728432,
				0.4262673258781433,
				0.38546884059906006
			],
			[
				0.11904548853635788,
				0.21933649480342865,
				0.6407908797264099,
				0.4130963981151581,
				-0.042012572288513184,
				0.12789605557918549,
				0.7310284972190857,
				-0.1730421781539917
			],
			[
				-0.197906032204628,
				0.5067125558853149,
				0.5717352032661438,
				0.15766313672065735,
				-0.013379931449890137,
				0.11886219680309296,
				0.7129942774772644,
				0.45663049817085266
			],
			[
				-0.42970678210258484,
				0.17700983583927155,
				0.5971331000328064,
				0.6922025084495544,
				-0.38530874252319336,
				0.030086500570178032,
				0.7757701277732849,
				0.3953191637992859
			],
			[
				0.3827967643737793,
				-0.22188037633895874,
				0.181207537651062,
				0.6466331481933594,
				0.47151482105255127,
				-0.0019791743252426386,
				0.2027728408575058,
				0.7477930188179016
			],
			[
				-0.47717297077178955,
				0.24196220934391022,
				-0.23955188691616058,
				0.14815792441368103,
				0.03724026679992676,
				-0.15567070245742798,
				-0.01331784576177597,
				0.5377275347709656
			],
			[
				-0.5076501965522766,
				0.4802965521812439,
				0.44715800881385803,
				0.5045462846755981,
				-0.0585179328918457,
				0.09038080275058746,
				0.1501506268978119,
				0.6578888893127441
			],
			[
				-0.07101545482873917,
				0.23605066537857056,
				0.152689591050148,
				0.35258039832115173,
				-0.3884655237197876,
				0.05574459582567215,
				0.7529454827308655,
				0.2530007064342499
			],
			[
				-0.06644202023744583,
				0.28747332096099854,
				0.712621808052063,
				0.6820534467697144,
				0.21923768520355225,
				0.14733141660690308,
				-0.038399118930101395,
				0.3962392210960388
			],
			[
				0.317931205034256,
				-0.20746669173240662,
				0.5400841236114502,
				0.8021577000617981,
				-0.49304819107055664,
				0.1372230052947998,
				0.776597261428833,
				0.18952830135822296
			],
			[
				0.3616613447666168,
				0.1802496463060379,
				-0.07042592018842697,
				0.48165538907051086,
				-0.04805946350097656,
				0.4263801872730255,
				-0.07212512940168381,
				-0.07326629012823105
			],
			[
				-0.45310404896736145,
				0.389801561832428,
				0.7741430997848511,
				0.4959063231945038,
				-0.2787485122680664,
				-0.10913578420877457,
				-0.11482415348291397,
				0.4608971178531647
			],
			[
				0.01324866246432066,
				0.30126097798347473,
				-0.24907898902893066,
				0.31119048595428467,
				-0.4706312417984009,
				0.012523172423243523,
				-0.24965205788612366,
				0.32151153683662415
			],
			[
				-0.1711452305316925,
				0.12395644932985306,
				0.5175015330314636,
				-0.06916427612304688,
				0.05777013301849365,
				-0.34047970175743103,
				0.20022177696228027,
				-0.21024997532367706
			],
			[
				0.3826344907283783,
				-0.4257941246032715,
				0.4659825265407562,
				-0.11139554530382156,
				0.10397994518280029,
				0.36094775795936584,
				0.3034251034259796,
				0.05151932314038277
			],
			[
				-0.17249125242233276,
				0.13722804188728333,
				0.5311603546142578,
				0.46484073996543884,
				-0.31099605560302734,
				-0.47500523924827576,
				0.4563370943069458,
				0.23994892835617065
			]
		],
		"weight_2": -1,
		"weight_3": -0.8021577000617981,
		"weight_4": 0.8021577000617981,
		"weight_5": -1.6157227754592896,
		"weight_6": 6.509458065032959
	},
	"layer_4": {
		"weight_0": -1,
		"weight_1": -3.3394137455289297e-10,
		"weight_2": 5.999639987945557
	},
	"layer_5": {
		"weight_0": [
			0.3210546374320984,
			-0.14219903945922852,
			-0.02042413130402565,
			-0.23909614980220795
		],
		"weight_1": [
			[
				0.254367858171463,
				-0.6045156121253967,
				0.33865875005722046,
				0.4960961937904358
			],
			[
				-0.23805594444274902,
				0.28351134061813354,
				0.13169610500335693,
				-0.8728144764900208
			],
			[
				1.0076367855072021,
				0.0029611424542963505,
				-0.14074425399303436,
				0.09947866201400757
			],
			[
				0.3104156255722046,
				-0.2625458836555481,
				0.21246202290058136,
				-0.2368895262479782
			],
			[
				0.6221159100532532,
				-0.13080912828445435,
				0.5665366053581238,
				-0.330371618270874
			],
			[
				-0.4022691249847412,
				-0.4441019892692566,
				-0.002915929304435849,
				-0.6208785176277161
			],
			[
				1.037982702255249,
				0.10288907587528229,
				-0.009499888867139816,
				0.0907730907201767
			],
			[
				0.8426533937454224,
				0.10067644715309143,
				-0.4254957437515259,
				0.4778924286365509
			]
		],
		"weight_2": -1,
		"weight_3": -1.037982702255249,
		"weight_4": 1.037982702255249,
		"weight_5": -1.157712459564209,
		"weight_6": 16.540477752685547
	},
	"layer_6": {
		"weight_0": -1,
		"weight_1": -3.3394137455289297e-10,
		"weight_2": 6.0
	},
	"layer_7": {
		"weight_0": [
			7.467211723327637
		],
		"weight_1": [
			[
				8.322468757629395
			],
			[
				-0.9758975505828857
			],
			[
				-0.2568020820617676
			],
			[
				-0.7748172879219055
			]
		],
		"weight_2": -1,
		"weight_3": -8.322468757629395,
		"weight_4": 8.322468757629395,
		"weight_5": -3.3394137455289297e-10,
		"weight_6": 57.400146484375
	}
}