{
	"layer_0": {
		"weight_0": [
			[
				-0.5056768655776978,
				-0.5737173557281494,
				-0.2974410355091095,
				0.17255304753780365,
				0.3825097382068634,
				-0.13270729780197144,
				0.9343467354774475,
				0.7186222076416016,
				-0.08391466736793518,
				-0.020250916481018066,
				-0.3414272665977478,
				0.9135323762893677,
				0.9805062413215637,
				0.9049884080886841,
				0.06143979728221893,
				0.000703133235219866
			],
			[
				-0.4010399580001831,
				-0.0819912850856781,
				-0.23143872618675232,
				0.563991367816925,
				0.8721340298652649,
				-0.03246307373046875,
				0.8914152979850769,
				0.1135726049542427,
				-0.15420782566070557,
				-0.2131716012954712,
				-0.3036331236362457,
				0.9546664953231812,
				0.09841284155845642,
				0.3184778094291687,
				0.5587431192398071,
				0.09507572650909424
			]
		],
		"weight_1": [
			0.0,
			0.0,
			0.0,
			0.4804312586784363,
			0.46790724992752075,
			0.0,
			0.4225420355796814,
			0.4788207411766052,
			0.0,
			0.0,
			0.0,
			0.46760672330856323,
			0.46774157881736755,
			0.46731775999069214,
			0.4902825951576233,
			-0.0963006466627121
		]
	},
	"layer_1": {},
	"layer_2": {
		"weight_0": [
			[
				-0.21231257915496826,
				0.05599844455718994,
				0.3994317054748535,
				-0.3422408103942871,
				-0.09942412376403809,
				-0.391754150390625,
				-0.1603405475616455,
				0.07567477226257324
			],
			[
				0.4199235439300537,
				-0.3021855354309082,
				0.12396442890167236,
				-0.38459110260009766,
				0.26939892768859863,
				-0.17100918292999268,
				-0.06159520149230957,
				-0.16640031337738037
			],
			[
				-0.2511904239654541,
				0.09026122093200684,
				0.35333251953125,
				0.4393707513809204,
				0.011899113655090332,
				-0.20511186122894287,
				-0.2409154176712036,
				0.3151869773864746
			],
			[
				-0.17490220069885254,
				0.21741044521331787,
				0.5945656895637512,
				-0.02199999988079071,
				0.068597711622715,
				0.008311271667480469,
				0.24026429653167725,
				-0.4143791198730469
			],
			[
				-0.3293212652206421,
				0.8888258337974548,
				0.7935931086540222,
				-0.054360125213861465,
				0.14043451845645905,
				-0.4343324899673462,
				0.6454038619995117,
				0.1402299404144287
			],
			[
				-0.050963401794433594,
				-0.2765636444091797,
				0.16392958164215088,
				0.12379240989685059,
				-0.05847978591918945,
				-0.29992151260375977,
				0.3994399309158325,
				0.4468703269958496
			],
			[
				-0.0840674638748169,
				0.6190252304077148,
				0.46425125002861023,
				-0.3877035081386566,
				-0.4464631676673889,
				-0.23561108112335205,
				-0.21684953570365906,
				-0.3105044364929199
			],
			[
				0.20757687091827393,
				-0.008879167959094048,
				0.9050167798995972,
				-0.32879239320755005,
				0.06850287318229675,
				-0.29797351360321045,
				-0.1489298790693283,
				-0.43850278854370117
			],
			[
				0.0724860429763794,
				0.30541765689849854,
				0.32226312160491943,
				-0.03043055534362793,
				0.4549771547317505,
				-0.20845305919647217,
				-0.13513529300689697,
				-0.43087899684906006
			],
			[
				0.15453636646270752,
				-0.14786231517791748,
				-0.4720592498779297,
				-0.08897244930267334,
				-0.18424928188323975,
				-0.25068438053131104,
				0.3341410160064697,
				0.3285461664199829
			],
			[
				0.24670100212097168,
				-0.23341023921966553,
				0.02672111988067627,
				-0.012134671211242676,
				-0.49944519996643066,
				-0.39950084686279297,
				0.04554736614227295,
				-0.4526318311691284
			],
			[
				-0.29976391792297363,
				0.8936561942100525,
				0.9416784644126892,
				0.16878235340118408,
				-0.36011549830436707,
				-0.09270346164703369,
				0.40526944398880005,
				-0.380077600479126
			],
			[
				0.31152403354644775,
				0.5407862067222595,
				0.8050274848937988,
				-0.4123274087905884,
				0.29248377680778503,
				0.130903959274292,
				0.7006604075431824,
				0.08414459228515625
			],
			[
				-0.24471580982208252,
				0.9202153086662292,
				0.8470565676689148,
				0.14447253942489624,
				0.34150347113609314,
				-0.20867419242858887,
				0.7050475478172302,
				-0.16174864768981934
			],
			[
				-0.037851810455322266,
				0.31517425179481506,
				0.7218787670135498,
				0.41802331805229187,
				-0.049531057476997375,
				0.2377551794052124,
				0.4438331723213196,
				0.18402183055877686
			],
			[
				-0.38598620891571045,
				-0.1978139579296112,
				-0.30989158153533936,
				-0.18267275393009186,
				0.33595243096351624,
				0.44411957263946533,
				0.008994773030281067,
				0.12689208984375
			]
		],
		"weight_1": [
			0.0,
			0.4694746434688568,
			0.4597693383693695,
			-0.03602574020624161,
			-0.05691412836313248,
			0.0,
			0.3145386576652527,
			0.0
		]
	},
	"layer_3": {},
	"layer_4": {
		"weight_0": [
			[
				-0.38839247822761536,
				0.05464017391204834,
				-0.03519701957702637,
				-0.5612486600875854
			],
			[
				0.8995059132575989,
				-0.663823127746582,
				0.3260897994041443,
				0.5571942925453186
			],
			[
				1.0074994564056396,
				-0.3107658922672272,
				-0.5979324579238892,
				1.062379002571106
			],
			[
				-0.14761151373386383,
				0.5998138785362244,
				-0.60298752784729,
				-0.07147601991891861
			],
			[
				0.2788332998752594,
				0.21092724800109863,
				-0.47832590341567993,
				-0.3815012574195862
			],
			[
				-0.6957859396934509,
				0.1785295009613037,
				-0.3926430642604828,
				-0.3406606614589691
			],
			[
				-0.02255665510892868,
				-0.601398766040802,
				0.24154680967330933,
				0.7648990154266357
			],
			[
				0.6389431357383728,
				0.0984656810760498,
				0.03266799449920654,
				-0.17849069833755493
			]
		],
		"weight_1": [
			0.47298556566238403,
			0.0,
			0.0,
			0.3722773492336273
		]
	},
	"layer_5": {},
	"layer_6": {
		"weight_0": [
			[
				2.4340782165527344
			],
			[
				0.7944152355194092
			],
			[
				-0.5640485882759094
			],
			[
				2.6210668087005615
			]
		],
		"weight_1": [
			2.349710464477539
		]
	}
}