{
	"layer_0": {
		"weight_0": [
			[
				-0.19396832585334778,
				0.5168720483779907,
				0.5262857675552368,
				0.1898261308670044,
				0.3122348189353943,
				-0.1966894268989563,
				0.43077051639556885,
				0.3751523494720459,
				-0.09283626079559326,
				0.039317429065704346,
				0.11073780059814453,
				0.4192820191383362,
				0.07662755250930786,
				-0.47909000515937805,
				0.31815463304519653,
				0.3034158945083618
			],
			[
				0.1042066216468811,
				-0.48294201493263245,
				0.404171347618103,
				-0.14482182264328003,
				-0.5507424473762512,
				-0.17381981015205383,
				0.47192203998565674,
				0.4580237865447998,
				0.11760711669921875,
				-0.25863581895828247,
				-0.22952911257743835,
				0.11046963930130005,
				0.5236550569534302,
				0.5261315107345581,
				-0.08740618824958801,
				0.4628410339355469
			]
		],
		"weight_1": [
			0.0,
			0.0,
			0.0,
			0.0,
			0.0,
			0.0,
			0.0,
			0.0,
			0.0,
			0.0,
			0.0,
			0.0,
			0.0,
			0.0,
			0.0,
			0.0
		]
	},
	"layer_1": {},
	"layer_2": {
		"weight_0": [
			[
				-0.46296608448028564,
				-0.18331408500671387,
				-0.21510887145996094,
				-0.2524857521057129,
				0.35383331775665283,
				-0.2159026861190796,
				-0.15726149082183838,
				-0.24032139778137207
			],
			[
				0.05123281478881836,
				0.30986106395721436,
				0.01978135108947754,
				0.06799805164337158,
				-0.4614553451538086,
				-0.014803290367126465,
				-0.4108814001083374,
				-0.3112860918045044
			],
			[
				0.2855309247970581,
				0.19969499111175537,
				-0.25485479831695557,
				-0.17492592334747314,
				0.4435518980026245,
				-0.19910895824432373,
				0.38565826416015625,
				-0.1793426275253296
			],
			[
				-0.4063377380371094,
				0.25936782360076904,
				-0.18175899982452393,
				-0.009587407112121582,
				0.4005415439605713,
				0.10070145130157471,
				0.31680047512054443,
				-0.48560309410095215
			],
			[
				-0.09233236312866211,
				-0.07220780849456787,
				0.04344522953033447,
				-0.00496065616607666,
				-0.18275117874145508,
				0.011806845664978027,
				-0.30584120750427246,
				-0.09186875820159912
			],
			[
				0.3706909418106079,
				-0.11973023414611816,
				0.09977591037750244,
				-0.4754248857498169,
				0.24233722686767578,
				-0.21081006526947021,
				-0.4088451862335205,
				-0.38340067863464355
			],
			[
				0.28952622413635254,
				-0.13919603824615479,
				0.11591064929962158,
				0.3524223566055298,
				-0.42022883892059326,
				0.2803388833999634,
				-0.26323723793029785,
				0.036177635192871094
			],
			[
				0.026798725128173828,
				0.25986647605895996,
				-0.2801167964935303,
				-0.04803264141082764,
				-0.4285355806350708,
				0.3332558870315552,
				-0.3525625467300415,
				0.3001983165740967
			],
			[
				-0.37366747856140137,
				0.05187380313873291,
				-0.1654723882675171,
				-0.28124451637268066,
				0.12075293064117432,
				0.06860601902008057,
				-0.35391461849212646,
				0.12516069412231445
			],
			[
				0.4662129878997803,
				-0.1960846185684204,
				0.09567725658416748,
				-0.1437685489654541,
				0.04078543186187744,
				0.09792852401733398,
				0.19768285751342773,
				0.06858944892883301
			],
			[
				0.4977884292602539,
				-0.17959022521972656,
				-0.48348748683929443,
				-0.22842466831207275,
				0.1501619815826416,
				0.4779762029647827,
				-0.26119673252105713,
				0.3739924430847168
			],
			[
				0.032128334045410156,
				-0.4662095308303833,
				-0.113242506980896,
				-0.4130052328109741,
				0.019989728927612305,
				0.3097372055053711,
				0.32532668113708496,
				-0.25101590156555176
			],
			[
				0.363669753074646,
				0.44196391105651855,
				-0.31703412532806396,
				0.08044552803039551,
				-0.4325164556503296,
				0.3053441047668457,
				0.3850090503692627,
				-0.2775275707244873
			],
			[
				0.35684823989868164,
				0.4368640184402466,
				0.024685144424438477,
				0.39175963401794434,
				-0.23721611499786377,
				0.395474910736084,
				-0.4048120975494385,
				0.22555005550384521
			],
			[
				-0.05023062229156494,
				-0.20450079441070557,
				-0.24731898307800293,
				0.07124042510986328,
				-0.21811795234680176,
				0.07453811168670654,
				-0.3490709066390991,
				-0.44369053840637207
			],
			[
				0.24350380897521973,
				0.14802134037017822,
				-0.4679687023162842,
				-0.4714561700820923,
				-0.2561999559402466,
				-0.4554229974746704,
				-0.1936800479888916,
				-0.261698842048645
			]
		],
		"weight_1": [
			0.0,
			0.0,
			0.0,
			0.0,
			0.0,
			0.0,
			0.0,
			0.0
		]
	},
	"layer_3": {},
	"layer_4": {
		"weight_0": [
			[
				-0.6339753866195679,
				-0.4200015962123871,
				-0.363971084356308,
				-0.050749361515045166
			],
			[
				-0.20393627882003784,
				-0.5431088209152222,
				0.09848791360855103,
				-0.24944999814033508
			],
			[
				-0.5178515911102295,
				-0.10186338424682617,
				0.6425402760505676,
				0.45928412675857544
			],
			[
				-0.12234300374984741,
				0.12167894840240479,
				0.12740248441696167,
				-0.220281183719635
			],
			[
				-0.5471572875976562,
				-0.47020572423934937,
				0.5559765696525574,
				-0.5477868318557739
			],
			[
				-0.6636845469474792,
				0.011758804321289062,
				-0.05692201852798462,
				0.1134372353553772
			],
			[
				-0.08632516860961914,
				-0.0838240385055542,
				0.26301825046539307,
				0.48426681756973267
			],
			[
				-0.6917904615402222,
				-0.19887173175811768,
				0.4404368996620178,
				-0.6067411303520203
			]
		],
		"weight_1": [
			0.0,
			0.0,
			0.0,
			0.0
		]
	},
	"layer_5": {},
	"layer_6": {
		"weight_0": [
			[
				-1.0737611055374146
			],
			[
				-0.8053565621376038
			],
			[
				0.5565719604492188
			],
			[
				0.3742750883102417
			]
		],
		"weight_1": [
			2.3643057346343994
		]
	}
}