{
	"layer_0": {
		"weight_0": [
			[
				-9.542863845825195,
				3.965823173522949,
				5.545401096343994,
				-11.55070972442627,
				-12.322906494140625,
				-11.124771118164062,
				9.358932495117188,
				5.152693748474121,
				3.503070831298828,
				3.991947650909424,
				5.806570053100586,
				5.4383416175842285,
				5.677639007568359,
				16.967069625854492,
				5.4411773681640625,
				6.368411540985107
			],
			[
				1.8089303970336914,
				-12.42786979675293,
				-0.22227051854133606,
				-3.072049856185913,
				-3.2455239295959473,
				-0.07913535088300705,
				-1.7870981693267822,
				-4.523154258728027,
				-8.551788330078125,
				5.878388404846191,
				-9.855114936828613,
				-0.6695214509963989,
				-0.3185991048812866,
				-2.103175163269043,
				-0.7352733016014099,
				-2.7819414138793945
			]
		],
		"weight_1": [
			-7.145175457000732,
			0.53212970495224,
			0.33464688062667847,
			-6.69625997543335,
			-6.981242656707764,
			-7.655165195465088,
			1.6488101482391357,
			0.43788060545921326,
			1.369870662689209,
			1.3278489112854004,
			0.0014818878844380379,
			0.8848171234130859,
			0.37167730927467346,
			2.6548500061035156,
			0.670868992805481,
			0.3722711503505707
		]
	},
	"layer_1": {},
	"layer_2": {
		"weight_0": [
			[
				4.868370532989502,
				13.310686111450195,
				0.20919927954673767,
				-0.8403894901275635,
				12.352339744567871,
				0.5605106949806213,
				5.772998332977295,
				0.471996933221817
			],
			[
				-26.507835388183594,
				-19.39320182800293,
				2.2604165077209473,
				-2.149195909500122,
				-15.862250328063965,
				0.4207337200641632,
				-25.30251693725586,
				1.5907630920410156
			],
			[
				-11.125863075256348,
				-14.545476913452148,
				-1.2281675338745117,
				0.848493218421936,
				-13.146432876586914,
				0.870505154132843,
				-11.77617359161377,
				0.10110509395599365
			],
			[
				2.2466659545898438,
				13.816449165344238,
				1.0727952718734741,
				-0.7459030747413635,
				12.607590675354004,
				0.43207329511642456,
				3.774038553237915,
				0.5726629495620728
			],
			[
				3.3258237838745117,
				13.765695571899414,
				1.2619763612747192,
				-0.5614418387413025,
				13.358835220336914,
				0.1675340235233307,
				4.136676788330078,
				0.8342995643615723
			],
			[
				4.283049583435059,
				13.99138355255127,
				0.3564186096191406,
				-0.13897660374641418,
				12.899701118469238,
				0.3502582013607025,
				5.445894718170166,
				0.5020818710327148
			],
			[
				-18.242324829101562,
				-16.720985412597656,
				0.5293923020362854,
				0.48220232129096985,
				-14.39599609375,
				0.424631804227829,
				-15.906147956848145,
				0.26621270179748535
			],
			[
				-21.466230392456055,
				-15.932175636291504,
				1.5403244495391846,
				-1.265907883644104,
				-13.894525527954102,
				0.6152213215827942,
				-19.811237335205078,
				0.35047098994255066
			],
			[
				-24.022180557250977,
				-17.401853561401367,
				1.5147067308425903,
				-0.11522243916988373,
				-14.965100288391113,
				-1.8237653970718384,
				-21.549333572387695,
				0.8693006038665771
			],
			[
				-2.4494497776031494,
				-15.32429027557373,
				-0.8012761473655701,
				0.046863168478012085,
				-14.60347843170166,
				0.22132600843906403,
				-3.5936388969421387,
				-0.10471504926681519
			],
			[
				-23.230012893676758,
				-17.256671905517578,
				1.6186434030532837,
				-2.8282339572906494,
				-14.104657173156738,
				2.0185365676879883,
				-22.187053680419922,
				-0.30616024136543274
			],
			[
				-16.922767639160156,
				-15.202394485473633,
				0.0907542034983635,
				1.186039686203003,
				-14.236438751220703,
				0.5783585906028748,
				-14.464911460876465,
				-0.3905907869338989
			],
			[
				-17.658763885498047,
				-16.12236213684082,
				-0.7929823398590088,
				1.233633041381836,
				-14.912442207336426,
				0.9374302625656128,
				-15.580409049987793,
				-0.20727494359016418
			],
			[
				-16.968305587768555,
				-17.43138885498047,
				-0.5818444490432739,
				0.35498207807540894,
				-15.872252464294434,
				0.7700572609901428,
				-15.002837181091309,
				0.3678783178329468
			],
			[
				-15.836565017700195,
				-14.953052520751953,
				-0.5803500413894653,
				1.5706359148025513,
				-13.490739822387695,
				0.8739107251167297,
				-14.674317359924316,
				0.004096721298992634
			],
			[
				-19.710412979125977,
				-15.477845191955566,
				0.9055569171905518,
				-1.0205159187316895,
				-13.71867561340332,
				1.0999703407287598,
				-17.606218338012695,
				0.6471462249755859
			]
		],
		"weight_1": [
			5.384177207946777,
			-10.261702537536621,
			-0.649779200553894,
			-0.0203297920525074,
			-9.819208145141602,
			-0.6528927683830261,
			3.0181984901428223,
			-0.31054604053497314
		]
	},
	"layer_3": {},
	"layer_4": {
		"weight_0": [
			[
				18.92234230041504,
				18.744853973388672,
				0.015544731169939041,
				19.59461784362793
			],
			[
				18.12533187866211,
				18.413982391357422,
				0.3534306287765503,
				18.028032302856445
			],
			[
				-23.226232528686523,
				-24.152456283569336,
				0.16572700440883636,
				-23.288349151611328
			],
			[
				-15.094615936279297,
				-15.070082664489746,
				-0.5286803245544434,
				-14.31906795501709
			],
			[
				18.366867065429688,
				17.534774780273438,
				0.7495579719543457,
				18.001230239868164
			],
			[
				-14.461613655090332,
				-14.948521614074707,
				0.7081426382064819,
				-15.228578567504883
			],
			[
				18.161815643310547,
				18.92281723022461,
				-0.01937836781144142,
				18.44167709350586
			],
			[
				-19.025148391723633,
				-19.5496768951416,
				0.6486547589302063,
				-19.794879913330078
			]
		],
		"weight_1": [
			-2.9857540130615234,
			-3.189774990081787,
			-0.44583940505981445,
			-3.0962607860565186
		]
	},
	"layer_5": {},
	"layer_6": {
		"weight_0": [
			[
				-17.223196029663086
			],
			[
				-17.405378341674805
			],
			[
				20.044734954833984
			],
			[
				-17.16623878479004
			]
		],
		"weight_1": [
			3.16209077835083
		]
	}
}