{
	"layer_0": {
		"weight_0": [
			[
				0.6236205697059631,
				-0.3059748411178589,
				0.9563212394714355,
				-0.1861533224582672,
				1.5614564418792725,
				0.8363540768623352,
				1.5109703540802002,
				1.0901395082473755,
				1.9057520627975464,
				-0.12430272251367569,
				1.37578284740448,
				-0.4463912844657898,
				1.3902645111083984,
				1.0935922861099243,
				0.6575958728790283,
				0.8937709927558899
			],
			[
				-0.4080250859260559,
				-0.07916200160980225,
				-3.0536997318267822,
				-0.07170295715332031,
				-0.4267597496509552,
				-0.3166569769382477,
				0.4013250768184662,
				-0.08554139733314514,
				0.8650035262107849,
				2.9732775688171387,
				-0.4389657974243164,
				-0.018839597702026367,
				0.7639481425285339,
				-0.47674834728240967,
				-5.5890398025512695,
				-2.218792676925659
			]
		],
		"weight_1": [
			0.7941337823867798,
			0.0,
			0.7832413911819458,
			0.0,
			0.7607091665267944,
			0.7691730260848999,
			0.5998547077178955,
			0.7220024466514587,
			0.6846440434455872,
			0.3153376281261444,
			0.6397890448570251,
			0.0,
			0.8006510138511658,
			0.7727839946746826,
			0.2727538049221039,
			1.0010608434677124
		]
	},
	"layer_1": {},
	"layer_2": {
		"weight_0": [
			[
				0.48695170879364014,
				0.3636682331562042,
				0.14562839269638062,
				0.27726152539253235,
				-0.45593464374542236,
				-0.08127856254577637,
				-0.12019219249486923,
				0.46610820293426514
			],
			[
				-0.456307053565979,
				0.4945225715637207,
				-0.47268247604370117,
				0.15880107879638672,
				0.1799159049987793,
				-0.4361286163330078,
				-0.38649284839630127,
				-0.1554356813430786
			],
			[
				2.9642579555511475,
				1.808284044265747,
				2.3652267456054688,
				-0.5520176887512207,
				0.1511291265487671,
				-0.10364973545074463,
				3.0315563678741455,
				0.33309829235076904
			],
			[
				-0.049286723136901855,
				-0.2510870695114136,
				0.4240000247955322,
				0.46502840518951416,
				-0.28091609477996826,
				-0.06033790111541748,
				0.09271669387817383,
				0.42202508449554443
			],
			[
				1.1838479042053223,
				0.6162685751914978,
				1.1531755924224854,
				0.20423324406147003,
				-0.4209219217300415,
				-0.09927880764007568,
				0.5767220854759216,
				-0.39073610305786133
			],
			[
				0.6142969131469727,
				0.3650650680065155,
				0.446672260761261,
				-0.15778078138828278,
				0.06731617450714111,
				-0.15818333625793457,
				0.8172364830970764,
				0.03563213348388672
			],
			[
				0.7184831500053406,
				-0.234264075756073,
				0.24506855010986328,
				0.336279958486557,
				-0.017821788787841797,
				0.30424320697784424,
				0.6533149480819702,
				0.46034741401672363
			],
			[
				0.5341911315917969,
				0.1922875940799713,
				0.6746408939361572,
				-0.5263817310333252,
				-0.10417020320892334,
				-0.4874112606048584,
				0.49601754546165466,
				-0.29097533226013184
			],
			[
				0.45957767963409424,
				-0.5953324437141418,
				0.9595444202423096,
				0.024241339415311813,
				-0.4723001718521118,
				-0.12917709350585938,
				0.18450051546096802,
				-0.0757436752319336
			],
			[
				-1.0852642059326172,
				-4.1508331298828125,
				-1.255624771118164,
				-0.5040038824081421,
				0.17329537868499756,
				-0.03902542591094971,
				-0.6074650883674622,
				-0.32552528381347656
			],
			[
				0.612587034702301,
				0.4178633689880371,
				0.8301364779472351,
				0.18762962520122528,
				0.044704556465148926,
				-0.23546147346496582,
				0.7335434556007385,
				-0.2035919427871704
			],
			[
				0.3982597589492798,
				-0.13342881202697754,
				0.4044457674026489,
				-0.4563099145889282,
				0.2438896894454956,
				0.2627553939819336,
				-0.36770761013031006,
				0.0706104040145874
			],
			[
				0.9788094758987427,
				-0.523200273513794,
				0.35392335057258606,
				-0.06488391757011414,
				0.07841861248016357,
				0.1311187744140625,
				0.7161227464675903,
				-0.09967875480651855
			],
			[
				0.7662004828453064,
				0.6211755871772766,
				0.6450619697570801,
				0.2793481647968292,
				-0.2929805517196655,
				0.31572532653808594,
				0.33374089002609253,
				-0.20740365982055664
			],
			[
				5.038087844848633,
				5.488898754119873,
				5.382445812225342,
				0.3669283986091614,
				-0.318587064743042,
				0.1903376579284668,
				5.056070327758789,
				-0.2411494255065918
			],
			[
				1.826265811920166,
				0.921080470085144,
				0.9841546416282654,
				-0.3399817943572998,
				-0.09968686103820801,
				-0.2486938238143921,
				1.1462866067886353,
				-0.379146933555603
			]
		],
		"weight_1": [
			0.8356524705886841,
			0.4691641330718994,
			0.7381724119186401,
			-0.09474091231822968,
			0.0,
			0.0,
			0.772834837436676,
			0.0
		]
	},
	"layer_3": {},
	"layer_4": {
		"weight_0": [
			[
				-0.5829852819442749,
				-0.17853808403015137,
				1.6833575963974,
				0.31393954157829285
			],
			[
				0.06799841672182083,
				-0.22475296258926392,
				3.1875901222229004,
				-1.700678825378418
			],
			[
				0.43695178627967834,
				0.4803466200828552,
				1.6478644609451294,
				0.4482472240924835
			],
			[
				0.4570801556110382,
				-0.5236110091209412,
				-0.06883798539638519,
				0.217049241065979
			],
			[
				-0.6037569642066956,
				-0.6829158067703247,
				-0.18958985805511475,
				0.27845239639282227
			],
			[
				0.49320632219314575,
				-0.6326497793197632,
				0.501865565776825,
				0.11123061180114746
			],
			[
				-0.3863849341869354,
				-0.5828838348388672,
				1.2468798160552979,
				-0.1904378980398178
			],
			[
				0.02399688959121704,
				-0.6647195219993591,
				-0.6327164173126221,
				0.23659265041351318
			]
		],
		"weight_1": [
			-0.006577199324965477,
			0.0,
			0.8069841861724854,
			0.5012534856796265
		]
	},
	"layer_5": {},
	"layer_6": {
		"weight_0": [
			[
				-0.11979150027036667
			],
			[
				1.0708541870117188
			],
			[
				1.8267079591751099
			],
			[
				-2.121574640274048
			]
		],
		"weight_1": [
			0.8017937541007996
		]
	}
}