{
	"layer_0": {
		"weight_0": [
			[
				-0.3271465301513672,
				-0.48378100991249084,
				-0.3494461178779602,
				-0.36916863918304443,
				-0.050158917903900146,
				0.9579617381095886,
				0.1621052473783493,
				0.9503039121627808,
				-0.42693018913269043,
				0.40005791187286377,
				0.42545557022094727,
				-0.09603485465049744,
				-0.06962385028600693,
				0.7172220349311829,
				0.17880822718143463,
				0.7739248275756836
			],
			[
				-0.2407413125038147,
				-0.16488239169120789,
				-0.36026522517204285,
				-0.3874087929725647,
				-0.16076001524925232,
				0.9703453779220581,
				0.5400334596633911,
				0.4469985067844391,
				-0.023157835006713867,
				0.7433609962463379,
				0.4959832429885864,
				-0.44426441192626953,
				0.5903595685958862,
				0.667763352394104,
				-0.09365543723106384,
				0.5674057602882385
			]
		],
		"weight_1": [
			0.0,
			0.0,
			0.0,
			0.0,
			0.0,
			0.47085148096084595,
			0.48931267857551575,
			0.4628332853317261,
			0.0,
			0.45180174708366394,
			0.35056304931640625,
			0.0,
			0.4806254506111145,
			0.41782325506210327,
			-0.16899020969867706,
			0.460938036441803
		]
	},
	"layer_1": {},
	"layer_2": {
		"weight_0": [
			[
				-0.12157344818115234,
				-0.244834303855896,
				-0.1172107458114624,
				0.4536489248275757,
				-0.4711810350418091,
				-0.3214142322540283,
				0.15769743919372559,
				0.09497964382171631
			],
			[
				0.2617776393890381,
				-0.47839224338531494,
				-0.046109676361083984,
				-0.12193107604980469,
				-0.21496367454528809,
				0.04450857639312744,
				0.15644264221191406,
				0.3168766498565674
			],
			[
				0.4469200372695923,
				0.47700929641723633,
				0.22740113735198975,
				-0.4408271312713623,
				0.40968024730682373,
				-0.3227425813674927,
				-0.2397925853729248,
				-0.3598160743713379
			],
			[
				0.2091076374053955,
				-0.014027714729309082,
				-0.26348650455474854,
				0.07141971588134766,
				-0.03032553195953369,
				0.4079172611236572,
				0.41008055210113525,
				-0.20612359046936035
			],
			[
				-0.2265394926071167,
				0.20151877403259277,
				-0.2079533338546753,
				0.20577514171600342,
				-0.37112855911254883,
				-0.03257465362548828,
				0.23425674438476562,
				-0.17209315299987793
			],
			[
				0.6435182094573975,
				-0.21480953693389893,
				-0.13416586816310883,
				-0.0039537567645311356,
				0.83552485704422,
				0.2960952818393707,
				0.1270197629928589,
				0.23872604966163635
			],
			[
				0.6395953297615051,
				0.4179203510284424,
				0.06516432762145996,
				-0.1377115398645401,
				0.7392942309379578,
				0.5012807846069336,
				-0.4407886266708374,
				0.13064032793045044
			],
			[
				0.4071618914604187,
				-0.37539422512054443,
				0.4032980501651764,
				0.2473767101764679,
				0.9248803853988647,
				0.5690488219261169,
				-0.16992652416229248,
				-0.49126482009887695
			],
			[
				0.02837693691253662,
				-0.1437985897064209,
				0.44094741344451904,
				0.24620425701141357,
				0.04800295829772949,
				-0.4740802049636841,
				0.3343029022216797,
				0.03186380863189697
			],
			[
				0.8420652747154236,
				0.34248900413513184,
				-0.457382470369339,
				-0.14596349000930786,
				0.23542919754981995,
				0.9119815826416016,
				-0.24963581562042236,
				-0.2716725468635559
			],
			[
				0.8078455328941345,
				0.48431479930877686,
				-0.18664583563804626,
				0.41717278957366943,
				0.36743488907814026,
				0.29979729652404785,
				0.09184873104095459,
				0.3706565201282501
			],
			[
				-0.15100085735321045,
				0.1689234972000122,
				0.0479433536529541,
				0.14459681510925293,
				0.10420918464660645,
				-0.2550240755081177,
				-0.2881348133087158,
				0.32831716537475586
			],
			[
				0.5612072348594666,
				-0.21922457218170166,
				0.36518287658691406,
				-0.3374427556991577,
				0.772316038608551,
				0.48080503940582275,
				-0.3777374029159546,
				-0.22182080149650574
			],
			[
				0.8655669093132019,
				-0.47524845600128174,
				-0.48424986004829407,
				-0.3447231650352478,
				0.8553672432899475,
				0.2616203725337982,
				-0.4211385250091553,
				0.15225167572498322
			],
			[
				0.3079235851764679,
				-0.2663174867630005,
				0.45039620995521545,
				-0.3134862184524536,
				-0.06856635212898254,
				-0.23912860453128815,
				-0.35107386112213135,
				0.06876161694526672
			],
			[
				0.2011745423078537,
				-0.21050751209259033,
				-0.17199528217315674,
				0.06437481194734573,
				0.6602664589881897,
				0.8986544609069824,
				-0.022926926612854004,
				-0.23094592988491058
			]
		],
		"weight_1": [
			0.41927891969680786,
			0.0,
			-0.01234439481049776,
			-0.07758554816246033,
			0.4588751494884491,
			0.44946926832199097,
			0.0,
			-0.0140461390838027
		]
	},
	"layer_3": {},
	"layer_4": {
		"weight_0": [
			[
				-0.3933680057525635,
				0.6145827174186707,
				0.16797715425491333,
				0.4957028925418854
			],
			[
				0.5499092936515808,
				-0.15292680263519287,
				-0.4460485279560089,
				-0.2363860011100769
			],
			[
				0.5929321646690369,
				-0.2229982614517212,
				0.2867308557033539,
				0.3017136752605438
			],
			[
				0.40630239248275757,
				0.33762896060943604,
				-0.6626850962638855,
				-0.4216144382953644
			],
			[
				-0.6857381463050842,
				1.0014278888702393,
				0.29319244623184204,
				1.0290966033935547
			],
			[
				0.05991661548614502,
				0.4324086308479309,
				-0.6657379865646362,
				0.9038581848144531
			],
			[
				0.07493913173675537,
				0.6034610867500305,
				-0.6445399522781372,
				-0.4097071588039398
			],
			[
				-0.4993521571159363,
				-0.2937314510345459,
				0.042146194726228714,
				0.19150672852993011
			]
		],
		"weight_1": [
			0.0,
			0.4573269188404083,
			-0.08878761529922485,
			0.36702218651771545
		]
	},
	"layer_5": {},
	"layer_6": {
		"weight_0": [
			[
				0.10086631774902344
			],
			[
				2.89965558052063
			],
			[
				-0.909206748008728
			],
			[
				2.976468086242676
			]
		],
		"weight_1": [
			2.3445017337799072
		]
	}
}