{
	"layer_0": {
		"weight_0": 0.0,
		"weight_1": 1.0,
		"weight_2": -1
	},
	"layer_1": {
		"weight_0": [
			-0.0031622732058167458,
			0.7483386993408203,
			0.0,
			-0.07443732768297195,
			1.4802539348602295,
			0.8322984576225281,
			-0.21994180977344513,
			0.3226531744003296,
			0.0,
			1.814795732498169,
			0.0,
			0.0,
			0.0,
			0.777571976184845,
			0.0,
			1.1509746313095093
		],
		"weight_1": [
			[
				0.005942663177847862,
				0.803709864616394,
				-0.17306092381477356,
				-0.18652941286563873,
				7.980837345123291,
				2.858180522918701,
				0.8369141817092896,
				1.3809818029403687,
				-0.49265068769454956,
				-3.385801315307617,
				-0.22642835974693298,
				-0.21976205706596375,
				-0.4035548269748688,
				4.044055461883545,
				-0.3235589265823364,
				0.8208372592926025
			],
			[
				-0.0960497260093689,
				-5.012633323669434,
				-0.4630831182003021,
				0.06557848304510117,
				1.0541036128997803,
				-1.2611640691757202,
				0.9096584320068359,
				-9.236883163452148,
				-0.1415509581565857,
				-0.35146674513816833,
				-0.27319392561912537,
				-0.05827385187149048,
				-0.11515334248542786,
				-0.8334561586380005,
				-0.5464034080505371,
				-3.163050651550293
			]
		],
		"weight_2": -1,
		"weight_3": -9.237089157104492,
		"weight_4": 9.237089157104492,
		"weight_5": -1.0344233678196528e-30,
		"weight_6": 10.183067321777344
	},
	"layer_2": {
		"weight_0": [
			-1.8688416481018066,
			-0.7376774549484253,
			0.0,
			0.0,
			1.4057384729385376,
			0.4296696186065674,
			0.23388339579105377,
			0.7329493165016174
		],
		"weight_1": [
			[
				0.2621539831161499,
				0.23702549934387207,
				-0.30344128608703613,
				0.4323418140411377,
				-0.20285770297050476,
				0.09177792072296143,
				0.10372328758239746,
				-0.13006098568439484
			],
			[
				-0.397176593542099,
				1.1142693758010864,
				0.27279043197631836,
				0.2069239616394043,
				4.159451961517334,
				-0.04041813686490059,
				-0.7761850357055664,
				2.2888987064361572
			],
			[
				-0.4389469623565674,
				-0.09766864776611328,
				-0.4678609371185303,
				-0.38558030128479004,
				-0.016200900077819824,
				-0.33096277713775635,
				0.2518845796585083,
				0.10813629627227783
			],
			[
				-0.5076236724853516,
				-0.2920290231704712,
				-0.36585772037506104,
				-0.3988410234451294,
				-0.2423536479473114,
				-0.11848251521587372,
				-0.4439736306667328,
				0.2983455955982208
			],
			[
				0.7729374170303345,
				0.4379969537258148,
				-0.39871811866760254,
				-0.191567063331604,
				1.9687830209732056,
				-0.1260962039232254,
				0.04711321368813515,
				1.0187121629714966
			],
			[
				0.35563477873802185,
				-0.16078001260757446,
				-0.2570232152938843,
				-0.467617392539978,
				2.1960484981536865,
				-0.06781920790672302,
				-0.006101186387240887,
				0.9428562521934509
			],
			[
				1.0308021306991577,
				0.6862106323242188,
				-0.2526578903198242,
				0.4869823455810547,
				-0.7438492774963379,
				-0.13098622858524323,
				0.2701977789402008,
				-0.3657107353210449
			],
			[
				2.4881749153137207,
				3.5150325298309326,
				0.21175086498260498,
				0.0576397180557251,
				6.513119697570801,
				-4.919575214385986,
				-4.791420936584473,
				5.969860553741455
			],
			[
				0.07033705711364746,
				0.09164261817932129,
				-0.25380098819732666,
				0.24519801139831543,
				-0.21097791194915771,
				-0.35043013095855713,
				-0.2360478639602661,
				-0.06694400310516357
			],
			[
				-0.6982038021087646,
				-1.6529873609542847,
				-0.25769245624542236,
				-0.35390257835388184,
				0.5697870254516602,
				1.470695972442627,
				1.7301956415176392,
				-0.48772186040878296
			],
			[
				-0.41487109661102295,
				0.45525217056274414,
				-0.4863933324813843,
				0.39669620990753174,
				-0.1340707540512085,
				0.13043665885925293,
				-0.1335742473602295,
				-0.41031861305236816
			],
			[
				-0.3362613916397095,
				0.36015117168426514,
				0.2969033718109131,
				-0.14056766033172607,
				-0.4226653575897217,
				-0.3620983362197876,
				0.37598419189453125,
				-0.14179503917694092
			],
			[
				0.43521761894226074,
				0.13618910312652588,
				0.11936533451080322,
				-0.3230478763580322,
				0.2567121982574463,
				-0.3966813087463379,
				0.01002204418182373,
				-0.1153939962387085
			],
			[
				0.6491863131523132,
				-0.0026934524066746235,
				0.14493703842163086,
				-0.3125725984573364,
				1.837599754333496,
				0.5684065818786621,
				0.35992538928985596,
				1.2630102634429932
			],
			[
				0.27626335620880127,
				-0.1439300775527954,
				-0.3819352388381958,
				0.06457734107971191,
				-0.014883279800415039,
				-0.18785834312438965,
				-0.46767425537109375,
				-0.11540675163269043
			],
			[
				-0.9496320486068726,
				-0.23060458898544312,
				-0.260215163230896,
				-0.38405096530914307,
				2.1218371391296387,
				-0.006110313348472118,
				0.5323516726493835,
				0.6707881093025208
			]
		],
		"weight_2": -1,
		"weight_3": -6.512693881988525,
		"weight_4": 6.512693881988525,
		"weight_5": -1.0344233678196528e-30,
		"weight_6": 39.39278793334961
	},
	"layer_3": {
		"weight_0": [
			0.8263226747512817,
			-0.0220852792263031,
			0.2148282527923584,
			-0.23316077888011932
		],
		"weight_1": [
			[
				-2.816693067550659,
				0.4480139911174774,
				2.908846378326416,
				-0.17748592793941498
			],
			[
				-1.5857162475585938,
				0.039159804582595825,
				0.17573168873786926,
				0.6373038291931152
			],
			[
				-0.7001080513000488,
				0.45206135511398315,
				0.701116144657135,
				-0.6683894991874695
			],
			[
				0.14960968494415283,
				0.19852107763290405,
				0.34560734033584595,
				0.26280415058135986
			],
			[
				1.7897241115570068,
				-0.08392064273357391,
				0.0579017736017704,
				0.18897780776023865
			],
			[
				-0.9603111743927002,
				0.2870689332485199,
				1.195077896118164,
				-0.8565601110458374
			],
			[
				-2.982008695602417,
				-0.3845117688179016,
				0.9067042469978333,
				-0.5073496699333191
			],
			[
				1.29564368724823,
				-0.12148436903953552,
				-0.43781211972236633,
				-0.26096245646476746
			]
		],
		"weight_2": -1,
		"weight_3": -2.980937957763672,
		"weight_4": 2.980937957763672,
		"weight_5": -1.0344233678196528e-30,
		"weight_6": 61.03548812866211
	},
	"layer_4": {
		"weight_0": [
			1.1566197872161865
		],
		"weight_1": [
			[
				2.6732702255249023
			],
			[
				-0.44077661633491516
			],
			[
				-1.2940709590911865
			],
			[
				-0.24583964049816132
			]
		],
		"weight_2": -1,
		"weight_3": -2.674351692199707,
		"weight_4": 2.674351692199707,
		"weight_5": -1.8662895024654726e-21,
		"weight_6": 138.2059326171875
	}
}