{
	"layer_0": {
		"weight_0": 0.0,
		"weight_1": 1.0,
		"weight_2": -1
	},
	"layer_1": {
		"weight_0": [
			0.0,
			0.0,
			0.0,
			-0.00272860424593091,
			-0.023270094767212868,
			0.0022416766732931137,
			0.0021724451798945665,
			0.0,
			0.004185188096016645,
			0.001633313950151205,
			0.014569312334060669,
			0.011130854487419128,
			-0.01979057677090168,
			0.0,
			-0.0016882135532796383,
			0.01616794802248478
		],
		"weight_1": [
			[
				-0.2531805634498596,
				-0.1607612669467926,
				-0.04671025276184082,
				0.5029086470603943,
				-0.40027546882629395,
				0.4669768214225769,
				0.1596715748310089,
				-0.4435717463493347,
				0.3881809711456299,
				0.010384056717157364,
				0.3063011169433594,
				0.16275832056999207,
				0.518008828163147,
				-0.3416121304035187,
				0.01453457586467266,
				0.18365724384784698
			],
			[
				-0.14421451091766357,
				-0.2625179886817932,
				-0.552056074142456,
				-0.07362724840641022,
				0.4166662395000458,
				0.3323618769645691,
				0.103972427546978,
				-0.36292630434036255,
				0.2732277512550354,
				0.42108091711997986,
				0.28692296147346497,
				-0.5540094971656799,
				0.21633154153823853,
				-0.27955904603004456,
				0.22028712928295135,
				0.3114066421985626
			]
		],
		"weight_2": -1,
		"weight_3": -0.5540094971656799,
		"weight_4": 0.5540094971656799,
		"weight_5": -0.5658519268035889,
		"weight_6": 1.2402063608169556
	},
	"layer_2": {
		"weight_0": [
			-0.004565497860312462,
			-0.006122591905295849,
			0.012648486532270908,
			0.0077179851941764355,
			-0.022380128502845764,
			0.003165217349305749,
			0.0,
			0.0
		],
		"weight_1": [
			[
				0.21276700496673584,
				0.16642677783966064,
				-0.4658536911010742,
				-0.45500385761260986,
				0.44656145572662354,
				0.47563600540161133,
				0.08639085292816162,
				0.3794776201248169
			],
			[
				-0.26316583156585693,
				-0.38447630405426025,
				0.3222137689590454,
				0.43686819076538086,
				0.3272312879562378,
				0.3583177328109741,
				-0.26800835132598877,
				0.39045250415802
			],
			[
				0.1477116346359253,
				-0.28481757640838623,
				-0.11790919303894043,
				0.05313587188720703,
				0.30993497371673584,
				-0.3891056776046753,
				-0.4176955223083496,
				-0.11827516555786133
			],
			[
				0.25209513306617737,
				-0.47571468353271484,
				0.4724351763725281,
				-0.15341022610664368,
				-0.07354161143302917,
				-0.3029571771621704,
				0.2383403778076172,
				0.4318803548812866
			],
			[
				0.38181182742118835,
				-0.03071129322052002,
				-0.23027436435222626,
				0.45205754041671753,
				0.36311691999435425,
				-0.4684898555278778,
				-0.046430230140686035,
				-0.15679609775543213
			],
			[
				0.40382158756256104,
				-0.2922438383102417,
				0.3270043134689331,
				-0.12646612524986267,
				-0.42560216784477234,
				-0.4509890675544739,
				-0.21728241443634033,
				-0.23672807216644287
			],
			[
				-0.08993909507989883,
				0.45177268981933594,
				-0.2630770206451416,
				0.48842695355415344,
				-0.48497477173805237,
				0.3566562533378601,
				-0.08499014377593994,
				0.0889965295791626
			],
			[
				-0.2748091220855713,
				-0.26155900955200195,
				0.16302883625030518,
				-0.3952648639678955,
				0.019172191619873047,
				0.03476715087890625,
				-0.48416006565093994,
				0.2192164659500122
			],
			[
				0.146929532289505,
				0.48055440187454224,
				0.15925700962543488,
				0.03982750326395035,
				-0.3376562297344208,
				0.1197379007935524,
				-0.23704743385314941,
				-0.12359893321990967
			],
			[
				0.19511714577674866,
				0.0270269513130188,
				-0.009645345620810986,
				0.25130945444107056,
				0.47043025493621826,
				0.39501795172691345,
				0.09020590782165527,
				-0.003733515739440918
			],
			[
				0.15715575218200684,
				0.01582994870841503,
				0.43431708216667175,
				0.42001962661743164,
				0.1918245404958725,
				0.2604095935821533,
				0.1662440299987793,
				-0.49032020568847656
			],
			[
				-0.41292309761047363,
				0.3477565050125122,
				0.06582777202129364,
				0.0649804025888443,
				0.31394755840301514,
				0.14810681343078613,
				0.4208846092224121,
				-0.3572145700454712
			],
			[
				-0.2863215506076813,
				-0.09707377851009369,
				-0.4348400831222534,
				-0.2061852365732193,
				-0.07781212031841278,
				-0.3029164969921112,
				-0.4982478618621826,
				-0.404629111289978
			],
			[
				-0.34324610233306885,
				-0.42167699337005615,
				0.20384001731872559,
				-0.3680839538574219,
				-0.31913816928863525,
				0.09848535060882568,
				-0.08745121955871582,
				0.39457952976226807
			],
			[
				0.06629802286624908,
				-0.2705637216567993,
				-0.0073867118917405605,
				-0.07100749760866165,
				0.12039788067340851,
				-0.2814977169036865,
				-0.4370006322860718,
				-0.065574049949646
			],
			[
				0.35807397961616516,
				-0.23484763503074646,
				0.28852784633636475,
				0.46089333295822144,
				-0.2585233449935913,
				0.28486835956573486,
				-0.3268324136734009,
				-0.3415687084197998
			]
		],
		"weight_2": -1,
		"weight_3": -0.4982478618621826,
		"weight_4": 0.4982478618621826,
		"weight_5": -0.5658519268035889,
		"weight_6": 1.136766791343689
	},
	"layer_3": {
		"weight_0": [
			-0.01286769937723875,
			0.0,
			-0.023798247799277306,
			0.0
		],
		"weight_1": [
			[
				0.11892960220575333,
				-0.3904167115688324,
				-0.36107680201530457,
				0.21777969598770142
			],
			[
				0.2648068070411682,
				0.4956997036933899,
				0.6117616891860962,
				-0.7051118612289429
			],
			[
				0.048072393983602524,
				-0.34889766573905945,
				-0.6433480978012085,
				-0.13682466745376587
			],
			[
				-0.47021785378456116,
				-0.7043108940124512,
				0.548416018486023,
				-0.43389809131622314
			],
			[
				-0.042570650577545166,
				0.23374438285827637,
				0.04076772183179855,
				0.3605944514274597
			],
			[
				0.5341596007347107,
				-0.6435774564743042,
				-0.14519783854484558,
				-0.21596550941467285
			],
			[
				-0.10036414861679077,
				0.4124308228492737,
				0.11912131309509277,
				0.3865489363670349
			],
			[
				0.3371710181236267,
				-0.3412131369113922,
				0.3400185704231262,
				0.1950053572654724
			]
		],
		"weight_2": -1,
		"weight_3": -0.7051118612289429,
		"weight_4": 0.7051118612289429,
		"weight_5": -0.5658519268035889,
		"weight_6": 0.565852701663971
	},
	"layer_4": {
		"weight_0": [
			3.9195761680603027
		],
		"weight_1": [
			[
				-0.9903786182403564
			],
			[
				0.7567530870437622
			],
			[
				-0.24397331476211548
			],
			[
				0.44192051887512207
			]
		],
		"weight_2": -1,
		"weight_3": -0.9903786182403564,
		"weight_4": 0.9903786182403564,
		"weight_5": -0.5658519268035889,
		"weight_6": 3.910653829574585
	}
}