{
	"layer_0": {
		"weight_0": 0.0,
		"weight_1": 1.0,
		"weight_2": -1
	},
	"layer_1": {
		"weight_0": [
			1.0707848072052002,
			0.12922270596027374,
			0.8748792409896851,
			0.5083104968070984,
			0.0,
			0.6737015843391418,
			0.3504188656806946,
			0.31912046670913696,
			0.0,
			-0.5190441012382507,
			0.12605978548526764,
			-0.09473676979541779,
			0.34700286388397217,
			-0.05767590552568436,
			-0.1492430418729782,
			0.0
		],
		"weight_1": [
			[
				-0.13794586062431335,
				0.5506442785263062,
				-0.15556283295154572,
				2.438431978225708,
				-0.14978566765785217,
				0.5185863971710205,
				0.5895012021064758,
				1.8861076831817627,
				-0.132831871509552,
				1.7984250783920288,
				1.0873805284500122,
				0.10248641669750214,
				1.979314923286438,
				0.12214094400405884,
				0.0954856425523758,
				-0.002609848976135254
			],
			[
				-0.531455397605896,
				-3.9997153282165527,
				0.262567400932312,
				-0.014992170967161655,
				-0.051072776317596436,
				-2.0513720512390137,
				-3.2434308528900146,
				-0.17060346901416779,
				-0.04496067762374878,
				0.1728445589542389,
				-0.430405855178833,
				-0.10124442726373672,
				-0.380976140499115,
				-0.5066795349121094,
				0.05215241014957428,
				-0.28426602482795715
			]
		],
		"weight_2": -1,
		"weight_3": -3.9997153282165527,
		"weight_4": 3.9997153282165527,
		"weight_5": -3.668745279312134,
		"weight_6": 2.865607738494873
	},
	"layer_2": {
		"weight_0": -1,
		"weight_1": -3.3394137455289297e-10,
		"weight_2": 2.8236277103424072
	},
	"layer_3": {
		"weight_0": [
			0.1709112524986267,
			0.5556776523590088,
			0.11176341772079468,
			0.11994026601314545,
			-0.06850231438875198,
			0.4855423867702484,
			0.3078925907611847,
			0.0
		],
		"weight_1": [
			[
				0.15206308662891388,
				0.18943889439105988,
				-0.3320104479789734,
				0.13541536033153534,
				-0.27747613191604614,
				0.7186278700828552,
				0.38579609990119934,
				0.1437242031097412
			],
			[
				5.516232013702393,
				4.978836536407471,
				5.551638603210449,
				5.117119312286377,
				-0.08191776275634766,
				-5.356664180755615,
				0.3732187747955322,
				-0.27334868907928467
			],
			[
				-0.6376656293869019,
				0.33315154910087585,
				0.14819404482841492,
				-0.4973912537097931,
				0.2087370902299881,
				0.6802019476890564,
				0.4617050588130951,
				-0.45677292346954346
			],
			[
				0.6801791191101074,
				1.4608694314956665,
				0.462124764919281,
				0.9318503141403198,
				-0.46412011981010437,
				-0.07096090167760849,
				-0.3566047251224518,
				-0.4244217872619629
			],
			[
				0.17158305644989014,
				-0.4653583765029907,
				-0.4880669116973877,
				0.4250965118408203,
				-0.11277246475219727,
				-0.26919686794281006,
				0.4591846466064453,
				0.16955363750457764
			],
			[
				0.6064171195030212,
				2.1835598945617676,
				1.0824517011642456,
				1.0500965118408203,
				-0.06749129295349121,
				-0.07987019419670105,
				-1.988024115562439,
				-0.36173343658447266
			],
			[
				2.0249459743499756,
				2.949402093887329,
				1.8181097507476807,
				2.2804670333862305,
				-0.4036247730255127,
				-0.44486525654792786,
				-0.4608147144317627,
				0.44310450553894043
			],
			[
				0.28841307759284973,
				1.3428043127059937,
				0.01687311939895153,
				0.43415600061416626,
				-0.055027563124895096,
				0.14060573279857635,
				-0.7216811776161194,
				0.15391552448272705
			],
			[
				-0.0942082405090332,
				-0.14948439598083496,
				-0.048761963844299316,
				0.27014946937561035,
				0.07859861850738525,
				0.049634337425231934,
				0.43211913108825684,
				0.47531867027282715
			],
			[
				-2.2381057739257812,
				-1.0650521516799927,
				-1.3750344514846802,
				-1.9409245252609253,
				-0.2883409857749939,
				1.9391601085662842,
				-3.7010304927825928,
				0.2579193115234375
			],
			[
				0.8313100934028625,
				0.8003022074699402,
				0.1792987585067749,
				0.477303683757782,
				-0.015376784838736057,
				0.11289312690496445,
				0.6195730566978455,
				-0.13799333572387695
			],
			[
				0.23188070952892303,
				-0.29273921251296997,
				0.37211745977401733,
				-0.2783829867839813,
				-0.398449182510376,
				0.047491654753685,
				-0.2405174970626831,
				-0.3211202621459961
			],
			[
				0.7239491939544678,
				1.8850914239883423,
				1.0010112524032593,
				0.8191239833831787,
				0.3100452423095703,
				0.060761988162994385,
				-0.3827241063117981,
				-0.4793221950531006
			],
			[
				0.2629556655883789,
				-0.3696601092815399,
				0.4246557056903839,
				-0.355105459690094,
				0.2775677442550659,
				0.03467988967895508,
				-0.29116153717041016,
				0.3015015125274658
			],
			[
				0.20601902902126312,
				-0.30011942982673645,
				0.33338987827301025,
				-0.2086133360862732,
				0.04477953910827637,
				-0.14963187277317047,
				0.4444624185562134,
				-0.31722939014434814
			],
			[
				-0.38445234298706055,
				-0.18747806549072266,
				-0.29127705097198486,
				-0.31932902336120605,
				0.0829782485961914,
				-0.24535775184631348,
				0.24319946765899658,
				-0.46314775943756104
			]
		],
		"weight_2": -1,
		"weight_3": -5.551638603210449,
		"weight_4": 5.551638603210449,
		"weight_5": -7.572085857391357,
		"weight_6": 13.519588470458984
	},
	"layer_4": {
		"weight_0": -1,
		"weight_1": -3.3394137455289297e-10,
		"weight_2": 12.86339282989502
	},
	"layer_5": {
		"weight_0": [
			0.023984277620911598,
			0.139004185795784,
			0.09665334969758987,
			0.15125563740730286
		],
		"weight_1": [
			[
				0.8081686496734619,
				1.4264496564865112,
				1.4237444400787354,
				1.6054596900939941
			],
			[
				1.4903045892715454,
				1.6549360752105713,
				0.5227053165435791,
				0.689605712890625
			],
			[
				0.5379480123519897,
				1.1715644598007202,
				1.2184772491455078,
				1.0785255432128906
			],
			[
				0.6968914270401001,
				1.2244187593460083,
				1.552672028541565,
				1.5448771715164185
			],
			[
				-0.22039982676506042,
				0.49388387799263,
				0.49336522817611694,
				-0.09051619470119476
			],
			[
				-1.3523049354553223,
				-1.7839821577072144,
				-2.3609960079193115,
				-2.403059720993042
			],
			[
				0.8346138000488281,
				1.6979897022247314,
				2.8715856075286865,
				2.4753379821777344
			],
			[
				-0.17139405012130737,
				0.512795627117157,
				0.385598361492157,
				-0.38512104749679565
			]
		],
		"weight_2": -1,
		"weight_3": -2.8701629638671875,
		"weight_4": 2.8701629638671875,
		"weight_5": -0.015030683018267155,
		"weight_6": 31.019176483154297
	},
	"layer_6": {
		"weight_0": -1,
		"weight_1": -3.3394137455289297e-10,
		"weight_2": 29.614055633544922
	},
	"layer_7": {
		"weight_0": [
			0.025940408930182457
		],
		"weight_1": [
			[
				1.1217001676559448
			],
			[
				1.9995250701904297
			],
			[
				1.4381526708602905
			],
			[
				1.532433032989502
			]
		],
		"weight_2": -1,
		"weight_3": -1.9995250701904297,
		"weight_4": 1.9995250701904297,
		"weight_5": -3.3394137455289297e-10,
		"weight_6": 140.00189208984375
	}
}