{
	"layer_0": {
		"weight_0": [
			[
				0.622353732585907,
				1.0966895818710327,
				-0.1409953385591507,
				-0.5763139724731445,
				-0.2509382367134094,
				-0.026204913854599,
				0.22085118293762207,
				2.564267158508301,
				1.1446852684020996,
				-0.5607297420501709,
				-0.44546735286712646,
				0.45560309290885925,
				6.925790786743164,
				-0.4445229172706604,
				1.441441535949707,
				0.4757367670536041
			],
			[
				-3.3349623680114746,
				-9.495338439941406,
				-2.1260435581207275,
				-1.4839096069335938,
				-0.39259353280067444,
				0.05883178114891052,
				-0.09705086797475815,
				-0.9147618412971497,
				-2.0855889320373535,
				-0.5093079805374146,
				-0.4494880139827728,
				-4.273434638977051,
				-0.6110408306121826,
				-0.4509059488773346,
				-1.3130505084991455,
				-4.789089679718018
			]
		],
		"weight_1": [
			0.9027438163757324,
			0.21401797235012054,
			1.4847385883331299,
			1.9676246643066406,
			0.0,
			-0.06443588435649872,
			-0.21400919556617737,
			0.9565553665161133,
			0.5875331163406372,
			0.0,
			0.0,
			0.746971070766449,
			0.7721346020698547,
			0.0,
			0.8196413516998291,
			0.4084615409374237
		]
	},
	"layer_1": {
		"weight_0": [
			[
				1.4223545789718628,
				0.6118711233139038,
				0.9391734600067139,
				-0.47148337960243225,
				0.18498963117599487,
				-0.028931623324751854,
				1.3786652088165283,
				0.40200889110565186
			],
			[
				-0.5743600130081177,
				-2.4818332195281982,
				4.066697120666504,
				3.1376237869262695,
				-0.27073320746421814,
				-1.79231858253479,
				3.9453213214874268,
				0.3781123161315918
			],
			[
				2.002354860305786,
				0.31378909945487976,
				1.0312044620513916,
				-0.04325557127594948,
				0.6181831359863281,
				-0.07130350917577744,
				0.9216558337211609,
				-0.3409684896469116
			],
			[
				1.556456208229065,
				0.5926530957221985,
				0.698229193687439,
				-0.5207552313804626,
				0.6581766605377197,
				0.3506554961204529,
				1.0500367879867554,
				-0.1804419755935669
			],
			[
				-0.12961149215698242,
				0.24871623516082764,
				-0.4255908727645874,
				-0.10039198398590088,
				-0.14508795738220215,
				-0.22985363006591797,
				0.048090577125549316,
				0.20387399196624756
			],
			[
				0.2593558728694916,
				-0.1802842617034912,
				-0.37628039717674255,
				-0.3013075292110443,
				0.059340979903936386,
				0.3835408389568329,
				-0.33466440439224243,
				0.42461252212524414
			],
			[
				-0.09744042903184891,
				-0.4949721097946167,
				-0.2669582664966583,
				-0.03726458176970482,
				-0.020639771595597267,
				-0.3584628105163574,
				-0.02740788273513317,
				-0.3152480721473694
			],
			[
				1.382063627243042,
				-0.432140052318573,
				0.7177884578704834,
				-0.15228118002414703,
				-0.18662689626216888,
				0.15732441842556,
				1.050065279006958,
				-0.3784034848213196
			],
			[
				0.6760605573654175,
				-0.37726661562919617,
				1.145788550376892,
				0.5415404438972473,
				-0.08564312756061554,
				0.1760864555835724,
				1.626509428024292,
				0.03076210431754589
			],
			[
				-0.21261096000671387,
				-0.4964287281036377,
				0.25721490383148193,
				0.23921716213226318,
				0.46111083030700684,
				-0.13898932933807373,
				-0.15244901180267334,
				0.327553391456604
			],
			[
				0.4391641616821289,
				-0.20912277698516846,
				0.14251244068145752,
				0.12238383293151855,
				-0.3945976495742798,
				-0.1499704122543335,
				0.3964955806732178,
				-0.07738327980041504
			],
			[
				1.1902918815612793,
				0.4574753940105438,
				2.1107916831970215,
				0.010496566072106361,
				0.5553631782531738,
				-0.23870019614696503,
				1.9572571516036987,
				0.045514583587646484
			],
			[
				1.4749836921691895,
				-0.5456234812736511,
				0.9682477712631226,
				0.4112081825733185,
				-1.908928632736206,
				0.0033818110823631287,
				0.8442400097846985,
				-0.23335444927215576
			],
			[
				-0.34883105754852295,
				0.3626561164855957,
				-0.2878243923187256,
				0.1289229393005371,
				0.39302968978881836,
				0.05322551727294922,
				-0.09794151782989502,
				0.2711026668548584
			],
			[
				1.135995626449585,
				-0.005905453581362963,
				0.7514883279800415,
				-0.17705899477005005,
				-0.36134862899780273,
				0.12185673415660858,
				0.9718761444091797,
				-0.43525955080986023
			],
			[
				-0.14635328948497772,
				-0.3354651927947998,
				3.1756417751312256,
				1.2567998170852661,
				0.6992777585983276,
				-0.8446680903434753,
				3.3175790309906006,
				0.27378809452056885
			]
		],
		"weight_1": [
			1.0973548889160156,
			0.2228974997997284,
			0.8840776085853577,
			-0.633528470993042,
			0.1337720900774002,
			0.10632098466157913,
			0.9717632532119751,
			-0.003162271808832884
		]
	},
	"layer_2": {
		"weight_0": [
			[
				0.6531383395195007,
				1.4102387428283691,
				-0.5972833633422852,
				0.7597156763076782
			],
			[
				2.1636860370635986,
				-1.2336775064468384,
				0.09258365631103516,
				1.7657276391983032
			],
			[
				-0.3291096091270447,
				1.7894129753112793,
				0.128556489944458,
				-0.4636799693107605
			],
			[
				1.3539173603057861,
				-0.8746979236602783,
				0.41037464141845703,
				1.2458113431930542
			],
			[
				3.5496938228607178,
				-3.8437628746032715,
				0.07480839639902115,
				3.777665853500366
			],
			[
				1.428896188735962,
				-1.581470012664795,
				-0.17378073930740356,
				2.2619447708129883
			],
			[
				-0.42958715558052063,
				2.1181609630584717,
				-0.6850076913833618,
				-0.4243161380290985
			],
			[
				-0.3978652358055115,
				-0.5410325527191162,
				0.16666382551193237,
				0.5294771790504456
			]
		],
		"weight_1": [
			0.002728396328166127,
			1.364904761314392,
			0.0054013896733522415,
			0.023924948647618294
		]
	},
	"layer_3": {
		"weight_0": [
			[
				-4.770519256591797
			],
			[
				1.8519223928451538
			],
			[
				0.14032655954360962
			],
			[
				-4.596495628356934
			]
		],
		"weight_1": [
			1.3583623170852661
		]
	}
}