{
	"layer_0": {
		"weight_0": 0.0,
		"weight_1": 1.0,
		"weight_2": -1
	},
	"layer_1": {
		"weight_0": [
			0.4275510311126709,
			0.0,
			0.49437305331230164,
			0.25999894738197327,
			0.3840072751045227,
			0.365782231092453,
			0.29462623596191406,
			0.6125681400299072,
			-0.006324543617665768,
			-0.005530129186809063,
			0.46746814250946045,
			0.5110959410667419,
			0.6175235509872437,
			0.5252416133880615,
			0.47794800996780396,
			0.5454990863800049
		],
		"weight_1": [
			[
				-2.0193254947662354,
				-0.5647526979446411,
				0.5689517259597778,
				0.588740348815918,
				-1.207624077796936,
				0.6116890907287598,
				0.6484725475311279,
				0.802086591720581,
				0.05464094132184982,
				-0.19065383076667786,
				0.4727966785430908,
				0.6342592835426331,
				1.13973867893219,
				0.8590890169143677,
				1.0057493448257446,
				0.2528018653392792
			],
			[
				0.10258548706769943,
				-0.5535915493965149,
				-0.2957332134246826,
				-1.9956402778625488,
				-0.23262366652488708,
				-1.649387240409851,
				-2.0253570079803467,
				-0.5159925818443298,
				-0.4719284474849701,
				0.0012749854940921068,
				-1.121226191520691,
				-0.2810012996196747,
				-0.5274304151535034,
				-0.25525060296058655,
				-0.36634284257888794,
				-0.42313840985298157
			]
		],
		"weight_2": -1,
		"weight_3": -2.02437686920166,
		"weight_4": 2.02437686920166,
		"weight_5": -0.5658519268035889,
		"weight_6": 2.084399461746216
	},
	"layer_2": {
		"weight_0": [
			-0.08659841865301132,
			0.5186828970909119,
			0.319733589887619,
			0.5179146528244019,
			-0.015806769952178,
			0.515845775604248,
			0.5171247124671936,
			0.5198273062705994
		],
		"weight_1": [
			[
				-0.2594676613807678,
				-1.682442545890808,
				-0.8806121349334717,
				-0.9128015041351318,
				-0.0400654673576355,
				-1.3655422925949097,
				-0.8932828307151794,
				-1.6784570217132568
			],
			[
				-0.4577103853225708,
				-0.4710092544555664,
				0.19353604316711426,
				0.017281651496887207,
				-0.004651784896850586,
				0.036180853843688965,
				-0.15444016456604004,
				-0.41199278831481934
			],
			[
				0.25984707474708557,
				0.016236530616879463,
				-0.6104897856712341,
				0.45821040868759155,
				0.14906767010688782,
				0.43583592772483826,
				0.4620283544063568,
				0.21886950731277466
			],
			[
				-0.23639783263206482,
				1.49433434009552,
				1.7263038158416748,
				1.3970086574554443,
				0.18689262866973877,
				1.9402028322219849,
				1.579343557357788,
				1.9904800653457642
			],
			[
				0.40803444385528564,
				-0.049842510372400284,
				-0.6723905205726624,
				-0.7435210943222046,
				-0.42682522535324097,
				-0.5242024660110474,
				-0.29353442788124084,
				-0.3644035756587982
			],
			[
				0.07822204381227493,
				1.680451512336731,
				1.247017502784729,
				0.8902276754379272,
				-0.2657533884048462,
				0.8961571455001831,
				1.3065460920333862,
				1.6878756284713745
			],
			[
				0.3837866485118866,
				1.968743085861206,
				1.7486408948898315,
				1.9927129745483398,
				0.16684651374816895,
				1.5591000318527222,
				1.8297427892684937,
				1.6231311559677124
			],
			[
				0.0842096209526062,
				1.071465015411377,
				0.6362965106964111,
				0.9546996355056763,
				-0.2928348779678345,
				0.5136701464653015,
				0.852122962474823,
				0.44529011845588684
			],
			[
				-0.19588300585746765,
				0.47249841690063477,
				0.45005229115486145,
				0.10872577875852585,
				-0.08811426162719727,
				-0.4177353084087372,
				0.21725520491600037,
				-0.1479853391647339
			],
			[
				0.20772428810596466,
				-0.25513511896133423,
				-0.23333585262298584,
				0.11979539692401886,
				0.08168590068817139,
				-0.18464972078800201,
				-0.43650978803634644,
				-0.01920258440077305
			],
			[
				-0.0609259158372879,
				0.8031805157661438,
				1.0403759479522705,
				1.4150866270065308,
				-0.18144440650939941,
				1.0437500476837158,
				1.1306737661361694,
				1.3562670946121216
			],
			[
				-0.041669491678476334,
				0.47854912281036377,
				0.007563172839581966,
				-0.23142893612384796,
				-0.137841135263443,
				0.08417754620313644,
				-0.3046737015247345,
				0.3820047378540039
			],
			[
				-0.006521951872855425,
				0.5264348387718201,
				0.3115094304084778,
				0.4029734432697296,
				-0.04565536975860596,
				1.1459126472473145,
				1.0820187330245972,
				0.34446144104003906
			],
			[
				-0.5373549461364746,
				0.4017045199871063,
				0.0669323056936264,
				0.5489235520362854,
				0.02364453673362732,
				0.4224902391433716,
				-0.19356180727481842,
				0.305893212556839
			],
			[
				0.02344851940870285,
				0.08232726156711578,
				0.24204467236995697,
				0.34238940477371216,
				-0.3293118476867676,
				0.6814727187156677,
				0.5820706486701965,
				0.25090262293815613
			],
			[
				-0.0986480712890625,
				0.02040935680270195,
				0.005784559063613415,
				-0.17005012929439545,
				-0.07292219251394272,
				0.41935306787490845,
				0.27753064036369324,
				0.559155285358429
			]
		],
		"weight_2": -1,
		"weight_3": -1.9927129745483398,
		"weight_4": 1.9927129745483398,
		"weight_5": -0.5658519268035889,
		"weight_6": 8.716175079345703
	},
	"layer_3": {
		"weight_0": [
			0.5212768912315369,
			0.0,
			-0.012876126915216446,
			0.5082435011863708
		],
		"weight_1": [
			[
				-0.47700202465057373,
				-0.13050538301467896,
				0.15727069973945618,
				-0.2043900340795517
			],
			[
				1.0437918901443481,
				-0.41751712560653687,
				0.2859509289264679,
				1.2732619047164917
			],
			[
				1.6839253902435303,
				-0.41225752234458923,
				0.2958076298236847,
				0.9208316206932068
			],
			[
				1.418286919593811,
				-0.5448243618011475,
				-0.7133121490478516,
				1.241269826889038
			],
			[
				0.036658432334661484,
				0.39780527353286743,
				-0.27813395857810974,
				0.05516505986452103
			],
			[
				1.1048309803009033,
				0.07717776298522949,
				0.21987728774547577,
				1.2967814207077026
			],
			[
				0.3119913339614868,
				0.049127399921417236,
				-0.4705106317996979,
				1.0105048418045044
			],
			[
				1.0140783786773682,
				-0.4175715744495392,
				-0.03906552493572235,
				1.505564570426941
			]
		],
		"weight_2": -1,
		"weight_3": -1.684260368347168,
		"weight_4": 1.684260368347168,
		"weight_5": -0.5658519268035889,
		"weight_6": 46.9063606262207
	},
	"layer_4": {
		"weight_0": [
			0.5050778388977051
		],
		"weight_1": [
			[
				1.0320677757263184
			],
			[
				-0.8541721701622009
			],
			[
				-0.2511868476867676
			],
			[
				1.8604182004928589
			]
		],
		"weight_2": -1,
		"weight_3": -1.8608787059783936,
		"weight_4": 1.8608787059783936,
		"weight_5": -0.5658519268035889,
		"weight_6": 96.18115234375
	}
}