{
	"layer_0": {
		"weight_0": 0.0,
		"weight_1": 1.0,
		"weight_2": -1
	},
	"layer_1": {
		"weight_0": [
			0.6701064705848694,
			0.0,
			0.0,
			0.0,
			0.5039607286453247,
			0.6948816180229187,
			0.40822967886924744,
			0.5494124889373779,
			0.9235267639160156,
			0.24587956070899963,
			0.6358474493026733,
			0.6391825675964355,
			0.6806666851043701,
			0.0,
			0.5680409073829651,
			-0.20193646848201752
		],
		"weight_1": [
			[
				1.032646656036377,
				-0.09849053621292114,
				-0.2425200641155243,
				-0.5521060228347778,
				0.7387394905090332,
				1.5790714025497437,
				0.6786227226257324,
				1.3246314525604248,
				1.1703567504882812,
				-0.45612671971321106,
				0.9490333795547485,
				0.9613125920295715,
				0.648726224899292,
				-0.38282251358032227,
				0.4367753565311432,
				0.30015721917152405
			],
			[
				0.11733157187700272,
				-0.057817697525024414,
				-0.005708277225494385,
				-0.017625808715820312,
				-1.8933738470077515,
				0.22867350280284882,
				-1.9850105047225952,
				-0.31516194343566895,
				1.158977746963501,
				1.4607746601104736,
				-0.5987557172775269,
				-0.38845503330230713,
				-0.2786474823951721,
				-0.5243850350379944,
				-0.4421568512916565,
				-0.7658111453056335
			]
		],
		"weight_2": -1,
		"weight_3": -1.9850105047225952,
		"weight_4": 1.9850105047225952,
		"weight_5": -0.5658519268035889,
		"weight_6": 3.0391435623168945
	},
	"layer_2": {
		"weight_0": [
			0.0,
			0.6754493117332458,
			-0.03857716545462608,
			0.5641514658927917,
			0.6527206301689148,
			-0.04676230624318123,
			0.6939955353736877,
			0.38060256838798523
		],
		"weight_1": [
			[
				-0.3448643684387207,
				0.4708685874938965,
				0.013786626979708672,
				0.19346725940704346,
				0.5121673941612244,
				0.27202752232551575,
				0.22086602449417114,
				-0.2015823870897293
			],
			[
				0.20217525959014893,
				0.11043405532836914,
				0.04630589485168457,
				0.013901829719543457,
				-0.31294775009155273,
				0.06950509548187256,
				-0.1942540407180786,
				0.0842897891998291
			],
			[
				0.30490195751190186,
				0.27089571952819824,
				-0.32077741622924805,
				-0.2832561731338501,
				0.11341118812561035,
				0.06974279880523682,
				0.3663289546966553,
				-0.26034772396087646
			],
			[
				0.2679879665374756,
				-0.25805771350860596,
				-0.02713298797607422,
				-0.19924867153167725,
				0.25826358795166016,
				0.2963228225708008,
				-0.46973860263824463,
				0.004124879837036133
			],
			[
				0.3037828207015991,
				1.3367319107055664,
				-0.29657354950904846,
				1.7327793836593628,
				1.5315855741500854,
				0.11531625688076019,
				1.9191386699676514,
				1.7485355138778687
			],
			[
				-0.44656431674957275,
				0.12848776578903198,
				0.07288939505815506,
				-0.04991231858730316,
				0.6817448735237122,
				-0.323051780462265,
				0.7131898403167725,
				-0.388075053691864
			],
			[
				-0.005912303924560547,
				2.494480848312378,
				0.07237088680267334,
				2.5480456352233887,
				2.38425350189209,
				0.03581957519054413,
				1.973852276802063,
				2.0604634284973145
			],
			[
				0.1644347906112671,
				0.49854138493537903,
				-0.046330180019140244,
				0.5566233396530151,
				0.14994165301322937,
				-0.2660270929336548,
				0.9474348425865173,
				0.37176090478897095
			],
			[
				-0.23309504985809326,
				0.0011912897462025285,
				-0.15859781205654144,
				0.4392043352127075,
				0.3498179018497467,
				-0.36592793464660645,
				-0.32835468649864197,
				-0.5788237452507019
			],
			[
				0.13617360591888428,
				-0.7938634157180786,
				-0.31746137142181396,
				-0.6557126641273499,
				-1.0928152799606323,
				-0.09564626216888428,
				-1.0918464660644531,
				-1.929060935974121
			],
			[
				-0.08079326152801514,
				0.3188938796520233,
				-0.005064529366791248,
				0.9891096949577332,
				0.9402546882629395,
				0.03952588140964508,
				0.8656191825866699,
				0.6757304668426514
			],
			[
				-0.02991199493408203,
				0.13253693282604218,
				0.1646110564470291,
				0.7954159379005432,
				0.9779846668243408,
				0.3725300133228302,
				0.4440857470035553,
				0.26938289403915405
			],
			[
				0.36221814155578613,
				0.8575005531311035,
				-0.3691970109939575,
				0.4815029203891754,
				0.6188483238220215,
				0.31194648146629333,
				0.8218165040016174,
				0.10833766311407089
			],
			[
				-0.35896992683410645,
				-0.4918140172958374,
				0.38561153411865234,
				-0.07722508907318115,
				-0.39288949966430664,
				-0.1575857400894165,
				0.4564330577850342,
				-0.4507443904876709
			],
			[
				-0.40406060218811035,
				0.4063490629196167,
				-0.17188817262649536,
				-0.19051191210746765,
				0.03624458611011505,
				-0.16144850850105286,
				0.24392159283161163,
				0.35520225763320923
			],
			[
				-0.004255533218383789,
				0.37955883145332336,
				0.1674722284078598,
				-0.20215459167957306,
				-0.30907031893730164,
				-0.29711395502090454,
				-0.021436374634504318,
				0.18072450160980225
			]
		],
		"weight_2": -1,
		"weight_3": -2.5458946228027344,
		"weight_4": 2.5458946228027344,
		"weight_5": -0.5658519268035889,
		"weight_6": 10.242685317993164
	},
	"layer_3": {
		"weight_0": [
			0.6431649923324585,
			0.6415797472000122,
			0.18412886559963226,
			-0.015872830525040627
		],
		"weight_1": [
			[
				-0.026881933212280273,
				0.05189543962478638,
				0.45304256677627563,
				0.450019896030426
			],
			[
				1.5249078273773193,
				0.7486574053764343,
				0.5884320139884949,
				-0.5771499276161194
			],
			[
				0.35518044233322144,
				-0.18039937317371368,
				0.2965833246707916,
				0.3105957508087158
			],
			[
				1.6111189126968384,
				0.3562711179256439,
				0.4417065680027008,
				0.279265433549881
			],
			[
				1.4607292413711548,
				1.2385131120681763,
				0.6531639099121094,
				-0.6755304336547852
			],
			[
				-0.5587249398231506,
				0.38926389813423157,
				0.4456728398799896,
				0.2895611524581909
			],
			[
				1.152891755104065,
				1.177113652229309,
				1.0050537586212158,
				0.32598769664764404
			],
			[
				1.2370787858963013,
				1.9624866247177124,
				1.6057016849517822,
				0.24520549178123474
			]
		],
		"weight_2": -1,
		"weight_3": -1.9603952169418335,
		"weight_4": 1.9603952169418335,
		"weight_5": -0.5658519268035889,
		"weight_6": 49.09172821044922
	},
	"layer_4": {
		"weight_0": [
			0.633319616317749
		],
		"weight_1": [
			[
				1.1701438426971436
			],
			[
				1.3191468715667725
			],
			[
				0.7300503849983215
			],
			[
				0.00011911888577742502
			]
		],
		"weight_2": -1,
		"weight_3": -1.3169589042663574,
		"weight_4": 1.3169589042663574,
		"weight_5": -0.5658519268035889,
		"weight_6": 98.72904205322266
	}
}