{
	"layer_0": {
		"weight_0": [
			[
				1.0607519149780273,
				0.4751391112804413,
				0.8749955892562866,
				1.234729528427124,
				1.3212414979934692,
				1.3137421607971191,
				0.9089325666427612,
				0.8841032385826111,
				0.8814750909805298,
				-0.3208576440811157,
				-0.5045104622840881,
				0.8393223881721497,
				-0.4651339650154114,
				-0.000494837760925293,
				-0.3897642493247986,
				-0.45985284447669983
			],
			[
				-0.607882022857666,
				0.9196503162384033,
				-0.46460801362991333,
				-0.3066566586494446,
				-0.08927851915359497,
				-0.25286465883255005,
				-0.6469323039054871,
				-0.3035421669483185,
				-1.7774523496627808,
				1.7211469411849976,
				0.001159661915153265,
				-0.6726012825965881,
				-0.000293731689453125,
				-0.47907525300979614,
				-0.11877769231796265,
				-0.07137906551361084
			]
		],
		"weight_1": [
			0.8464650511741638,
			0.2606944441795349,
			0.8294416666030884,
			0.8659403920173645,
			0.8787761926651001,
			0.8481242060661316,
			0.8516157865524292,
			0.8650802969932556,
			0.497243195772171,
			0.16603830456733704,
			-0.007438589818775654,
			0.8595814108848572,
			0.0,
			0.0,
			0.0,
			0.0
		]
	},
	"layer_1": {
		"weight_0": [
			[
				1.1758756637573242,
				0.5182046890258789,
				1.1970373392105103,
				0.7595443725585938,
				-0.354021817445755,
				-0.5962081551551819,
				-0.27321332693099976,
				0.019084883853793144
			],
			[
				-0.7360900640487671,
				-0.3250707983970642,
				-0.1832769513130188,
				-0.213279128074646,
				-0.13766324520111084,
				0.27673882246017456,
				0.5542588829994202,
				-0.06794962286949158
			],
			[
				0.7091851234436035,
				0.2602015733718872,
				0.541132390499115,
				0.3130808174610138,
				-0.42754819989204407,
				-0.46116241812705994,
				-0.1364961862564087,
				0.23452603816986084
			],
			[
				0.45491206645965576,
				0.667517364025116,
				0.03603032976388931,
				0.9118407368659973,
				-0.11817245930433273,
				-0.3571450412273407,
				0.3311658501625061,
				0.04642132297158241
			],
			[
				0.2068207710981369,
				0.5620595216751099,
				0.3653995990753174,
				0.5405976176261902,
				-0.3114717900753021,
				0.22637780010700226,
				0.32957255840301514,
				-0.08823182433843613
			],
			[
				0.7735241055488586,
				0.8246718645095825,
				0.7592318654060364,
				0.5506821870803833,
				0.26081380248069763,
				0.42000678181648254,
				0.07121238857507706,
				-0.5865678191184998
			],
			[
				1.0319370031356812,
				0.8179121613502502,
				0.39189961552619934,
				1.1164625883102417,
				0.48033520579338074,
				-0.30633410811424255,
				-0.22071519494056702,
				0.2717941999435425
			],
			[
				0.23330028355121613,
				0.8525078296661377,
				0.605835497379303,
				0.718999445438385,
				-0.2994251847267151,
				0.4419289231300354,
				0.06300754845142365,
				-0.23182560503482819
			],
			[
				1.6355472803115845,
				1.7652528285980225,
				1.2495641708374023,
				1.9522137641906738,
				0.21709026396274567,
				-0.2256535142660141,
				-0.7530054450035095,
				-0.023516356945037842
			],
			[
				-1.6308032274246216,
				-1.1972085237503052,
				-1.533526062965393,
				-1.3896377086639404,
				-0.3023533821105957,
				0.9769651889801025,
				0.26684531569480896,
				0.23822273313999176
			],
			[
				0.3695899546146393,
				-0.16796760261058807,
				0.24604634940624237,
				-0.007664361968636513,
				-0.2946890592575073,
				-0.11258220672607422,
				0.30958619713783264,
				0.1556348353624344
			],
			[
				1.2350819110870361,
				0.3032452166080475,
				0.5541783571243286,
				0.9679316282272339,
				0.47683238983154297,
				-0.6171432137489319,
				0.1487426906824112,
				0.4600927233695984
			],
			[
				0.3453805446624756,
				-0.3213146924972534,
				0.15040850639343262,
				0.4562932252883911,
				0.2669323682785034,
				0.08937931060791016,
				-0.20864200592041016,
				0.40320587158203125
			],
			[
				0.43353283405303955,
				-0.23729228973388672,
				-0.32677745819091797,
				0.08484363555908203,
				-0.3427610397338867,
				0.48906052112579346,
				-0.42588984966278076,
				-0.22261381149291992
			],
			[
				0.08230876922607422,
				0.4707527160644531,
				-0.05755972862243652,
				0.027008771896362305,
				0.40144574642181396,
				-0.465854287147522,
				-0.3732527494430542,
				-0.40659165382385254
			],
			[
				-0.43373310565948486,
				-0.46286892890930176,
				0.435896635055542,
				-0.2060023546218872,
				0.3264756202697754,
				0.00570988655090332,
				-0.25106358528137207,
				0.27399539947509766
			]
		],
		"weight_1": [
			0.829131007194519,
			0.854566752910614,
			0.863551139831543,
			0.8506880402565002,
			-0.006197637878358364,
			0.18815970420837402,
			-0.0990663692355156,
			0.0534052699804306
		]
	},
	"layer_2": {
		"weight_0": [
			[
				-0.14979594945907593,
				1.4727834463119507,
				0.673825740814209,
				0.3844307065010071
			],
			[
				-0.21214044094085693,
				1.2388581037521362,
				-0.07040613889694214,
				-0.28317776322364807
			],
			[
				-0.6869415044784546,
				1.0296860933303833,
				-0.01712983474135399,
				0.243838369846344
			],
			[
				-0.6155070066452026,
				1.600968599319458,
				-0.36968910694122314,
				-0.5040616393089294
			],
			[
				0.32428091764450073,
				-0.6422529816627502,
				-0.24280866980552673,
				-0.5884004831314087
			],
			[
				-0.6576477885246277,
				0.6826953887939453,
				0.9074253439903259,
				-0.4828668236732483
			],
			[
				0.17971569299697876,
				-1.1946271657943726,
				0.03216176852583885,
				-0.07263737916946411
			],
			[
				-0.5542846918106079,
				-0.5469139814376831,
				-0.5464186668395996,
				-0.4798535108566284
			]
		],
		"weight_1": [
			0.0,
			0.8461661338806152,
			0.10995029658079147,
			0.0
		]
	},
	"layer_3": {
		"weight_0": [
			[
				0.34566497802734375
			],
			[
				1.8707319498062134
			],
			[
				1.1446367502212524
			],
			[
				0.3421437740325928
			]
		],
		"weight_1": [
			0.8415998816490173
		]
	}
}