{
	"layer_0": {
		"weight_0": 0.0,
		"weight_1": 1.0,
		"weight_2": -1
	},
	"layer_1": {
		"weight_0": [
			1.0580058097839355,
			-0.15026967227458954,
			0.366908997297287,
			0.6195954084396362,
			0.5431930422782898,
			0.5697108507156372,
			0.48461827635765076,
			0.0,
			0.1465240716934204,
			0.0,
			0.3979510962963104,
			0.0,
			0.0,
			0.0,
			1.1819353103637695,
			0.8641979694366455
		],
		"weight_1": [
			[
				4.095430850982666,
				1.607844591140747,
				0.5451777577400208,
				2.284221887588501,
				2.2631583213806152,
				1.633399248123169,
				0.7076373100280762,
				-0.444646954536438,
				0.6915609240531921,
				-0.40258562564849854,
				-0.16372375190258026,
				-0.5147566199302673,
				-0.06391894817352295,
				-0.1751079261302948,
				-1.077928900718689,
				-3.4538450241088867
			],
			[
				1.0241878032684326,
				0.4208691716194153,
				-2.8533947467803955,
				-0.1696544587612152,
				-0.4767107367515564,
				-0.5846561193466187,
				-1.7405359745025635,
				-0.4054439663887024,
				-4.786905288696289,
				-0.5084652900695801,
				0.7503967881202698,
				-0.3075108826160431,
				-0.20066821575164795,
				-0.479002445936203,
				-0.38557592034339905,
				-0.47206395864486694
			]
		],
		"weight_2": -1,
		"weight_3": -4.786905288696289,
		"weight_4": 4.786905288696289,
		"weight_5": -4.246696472167969,
		"weight_6": 5.873719692230225
	},
	"layer_2": {
		"weight_0": -1,
		"weight_1": -3.3394137455289297e-10,
		"weight_2": 5.81814432144165
	},
	"layer_3": {
		"weight_0": [
			0.4523950517177582,
			-0.37785306572914124,
			0.02805252932012081,
			0.0,
			0.059900037944316864,
			0.47306111454963684,
			0.6488768458366394,
			0.38386818766593933
		],
		"weight_1": [
			[
				0.3366711139678955,
				0.8059779405593872,
				-0.2943049371242523,
				-0.3374207019805908,
				-0.2469225376844406,
				0.1109289899468422,
				0.9103630185127258,
				0.61661297082901
			],
			[
				0.2514325976371765,
				1.3022089004516602,
				0.2627432644367218,
				-0.4539381265640259,
				0.11141220480203629,
				-0.42507171630859375,
				0.07182862609624863,
				-0.5938847661018372
			],
			[
				2.0445456504821777,
				-0.8453559279441833,
				-0.5622585415840149,
				-0.41510331630706787,
				-0.3966170847415924,
				2.0208828449249268,
				2.111771583557129,
				2.0017597675323486
			],
			[
				0.2749098241329193,
				0.7130917310714722,
				-0.07385347038507462,
				0.3749990463256836,
				0.3893161118030548,
				0.7348472476005554,
				1.012914776802063,
				0.5315723419189453
			],
			[
				1.103852391242981,
				0.8845415711402893,
				-0.15263690054416656,
				-0.478213906288147,
				0.3087673783302307,
				0.43599578738212585,
				1.1287789344787598,
				0.5984243154525757
			],
			[
				0.5716596841812134,
				0.43047991394996643,
				0.2522154152393341,
				0.27007555961608887,
				0.018957534804940224,
				0.26427656412124634,
				1.2822479009628296,
				0.8467239141464233
			],
			[
				0.9349589347839355,
				-0.30225223302841187,
				-0.3669889271259308,
				-0.489426851272583,
				-0.13814620673656464,
				1.2106231451034546,
				1.391581416130066,
				0.5096655488014221
			],
			[
				0.42381763458251953,
				0.4454638957977295,
				-0.19510388374328613,
				0.09478771686553955,
				0.21318888664245605,
				0.11856353282928467,
				0.2500295639038086,
				0.16183900833129883
			],
			[
				4.505283355712891,
				0.3665883541107178,
				-4.471957683563232,
				0.29455530643463135,
				-3.866076707839966,
				4.918078899383545,
				4.809296131134033,
				4.878637790679932
			],
			[
				0.49088752269744873,
				0.32681167125701904,
				-0.0552363395690918,
				0.11933541297912598,
				0.36552155017852783,
				-0.11581170558929443,
				-0.30858492851257324,
				0.39389753341674805
			],
			[
				-0.42399102449417114,
				0.4454270899295807,
				0.7246158719062805,
				-0.2511495351791382,
				0.5440611839294434,
				0.21816585958003998,
				-0.29663246870040894,
				0.1520240306854248
			],
			[
				-0.3025834560394287,
				0.2553452253341675,
				0.08733868598937988,
				-0.41208934783935547,
				0.09551942348480225,
				-0.16700303554534912,
				0.49442338943481445,
				0.07887232303619385
			],
			[
				0.37722182273864746,
				-0.3250683546066284,
				-0.4717155694961548,
				0.09109818935394287,
				0.08377599716186523,
				-0.4821324348449707,
				-0.1906297206878662,
				0.40376341342926025
			],
			[
				-0.46007585525512695,
				-0.22278070449829102,
				-0.4798567295074463,
				0.13292348384857178,
				0.4144176244735718,
				0.035408735275268555,
				-0.2011878490447998,
				0.37165534496307373
			],
			[
				-0.5241819024085999,
				-1.85944402217865,
				1.1056318283081055,
				-0.19520676136016846,
				0.4172981083393097,
				-0.11099820584058762,
				0.16788992285728455,
				0.1778777539730072
			],
			[
				0.01844736747443676,
				-1.4778506755828857,
				1.3023271560668945,
				-0.2387852668762207,
				1.0425227880477905,
				-0.5093684196472168,
				-0.3046625256538391,
				-0.7475005388259888
			]
		],
		"weight_2": -1,
		"weight_3": -4.918078899383545,
		"weight_4": 4.918078899383545,
		"weight_5": -2.764390468597412,
		"weight_6": 15.266448974609375
	},
	"layer_4": {
		"weight_0": -1,
		"weight_1": -3.3394137455289297e-10,
		"weight_2": 14.840027809143066
	},
	"layer_5": {
		"weight_0": [
			0.32946741580963135,
			0.5480767488479614,
			0.4361681342124939,
			0.44383251667022705
		],
		"weight_1": [
			[
				-0.3743019700050354,
				1.2421773672103882,
				0.4966374337673187,
				1.3022953271865845
			],
			[
				2.024989366531372,
				-1.6942129135131836,
				-1.0951623916625977,
				-1.8711020946502686
			],
			[
				1.3869454860687256,
				-2.5706844329833984,
				-1.6438016891479492,
				-2.011195182800293
			],
			[
				0.45521289110183716,
				-0.007849931716918945,
				-0.6734552383422852,
				-0.032880425453186035
			],
			[
				1.579546570777893,
				-0.6112691164016724,
				-1.5714547634124756,
				-1.6600089073181152
			],
			[
				-0.4093153178691864,
				1.7301126718521118,
				1.0026992559432983,
				1.4691029787063599
			],
			[
				0.1832401156425476,
				1.6317871809005737,
				0.890795886516571,
				1.1694443225860596
			],
			[
				0.5322426557540894,
				1.1048204898834229,
				1.6556358337402344,
				0.933692216873169
			]
		],
		"weight_2": -1,
		"weight_3": -2.5702085494995117,
		"weight_4": 2.5702085494995117,
		"weight_5": -3.3394137455289297e-10,
		"weight_6": 39.432518005371094
	},
	"layer_6": {
		"weight_0": -1,
		"weight_1": -3.3394137455289297e-10,
		"weight_2": 38.203468322753906
	},
	"layer_7": {
		"weight_0": [
			0.4385650157928467
		],
		"weight_1": [
			[
				-1.5018703937530518
			],
			[
				1.9813941717147827
			],
			[
				1.3654866218566895
			],
			[
				1.9822183847427368
			]
		],
		"weight_2": -1,
		"weight_3": -1.9834600687026978,
		"weight_4": 1.9834600687026978,
		"weight_5": -3.98559495806694e-05,
		"weight_6": 139.72067260742188
	}
}