{
	"layer_0": {
		"weight_0": [
			[
				0.5756460428237915,
				-0.10558494925498962,
				0.277328222990036,
				0.3809458911418915,
				-0.07076145708560944,
				0.012286841869354248,
				-0.16054709255695343,
				-0.40459513664245605,
				-0.11885160207748413,
				0.03683014214038849,
				-0.4156350791454315,
				-0.45082172751426697,
				0.19495530426502228,
				0.5370724201202393,
				0.39051732420921326,
				0.3025617301464081
			],
			[
				0.13740532100200653,
				-0.19816765189170837,
				0.49075010418891907,
				0.4386078119277954,
				0.3251032531261444,
				-0.1325579285621643,
				0.22889597713947296,
				0.08783356845378876,
				-0.5176329612731934,
				0.4789682626724243,
				-0.4531634449958801,
				0.31430062651634216,
				0.06496540457010269,
				-0.1414455622434616,
				-0.4092198610305786,
				0.5327774286270142
			]
		],
		"weight_1": [
			0.02596445567905903,
			0.0,
			-0.014233522117137909,
			-0.013309258036315441,
			-0.02377067133784294,
			0.0,
			0.02111094817519188,
			-0.020811017602682114,
			0.0,
			0.017424527555704117,
			0.0,
			-0.028776708990335464,
			0.01823529228568077,
			0.010112515650689602,
			-0.005283380392938852,
			-0.01677418127655983
		]
	},
	"layer_1": {},
	"layer_2": {
		"weight_0": [
			[
				-0.31729817390441895,
				-0.39697015285491943,
				0.09449850767850876,
				0.09795445203781128,
				0.39434289932250977,
				-0.33628952503204346,
				-0.31741079688072205,
				0.46859222650527954
			],
			[
				-0.4994903802871704,
				-0.04174196720123291,
				0.27033424377441406,
				-0.055230140686035156,
				-0.3573176860809326,
				0.1819239854812622,
				0.22320771217346191,
				-0.47913241386413574
			],
			[
				-0.01783764362335205,
				0.3581571578979492,
				-0.03297252207994461,
				-0.3075716495513916,
				0.31763985753059387,
				-0.11640596389770508,
				0.368041068315506,
				-0.1367030143737793
			],
			[
				-0.03734707832336426,
				-0.4312785863876343,
				0.315418004989624,
				-0.00017880386440083385,
				-0.24315066635608673,
				-0.3100968599319458,
				0.038378071039915085,
				0.44270700216293335
			],
			[
				0.0009990930557250977,
				-0.12291824817657471,
				0.14770939946174622,
				0.47093093395233154,
				-0.32665079832077026,
				0.256267786026001,
				0.4246951639652252,
				0.002123109996318817
			],
			[
				-0.01611804962158203,
				0.2727779150009155,
				0.21864449977874756,
				0.3332056999206543,
				0.1907573938369751,
				0.0824509859085083,
				-0.239393949508667,
				0.321280837059021
			],
			[
				-0.26849043369293213,
				0.12358498573303223,
				0.22204269468784332,
				0.34477490186691284,
				0.14729712903499603,
				-0.037277817726135254,
				-0.4260634779930115,
				0.05658181384205818
			],
			[
				0.05707395076751709,
				-0.015003800392150879,
				0.2968173623085022,
				0.3780641257762909,
				0.20598876476287842,
				-0.3251800537109375,
				0.12509305775165558,
				0.16576465964317322
			],
			[
				0.08928561210632324,
				-0.30239105224609375,
				0.1518474817276001,
				0.008613228797912598,
				0.2948925495147705,
				-0.30610930919647217,
				0.46310126781463623,
				0.4287989139556885
			],
			[
				-0.46723806858062744,
				0.17693090438842773,
				-0.30897995829582214,
				0.3001689314842224,
				-0.01866765506565571,
				0.11058521270751953,
				-0.37019070982933044,
				-0.1698627769947052
			],
			[
				0.10232031345367432,
				0.059812188148498535,
				0.24445533752441406,
				0.2567521333694458,
				0.26919984817504883,
				0.13629591464996338,
				-0.029230475425720215,
				0.33670639991760254
			],
			[
				-0.42219996452331543,
				0.3863471746444702,
				0.22591333091259003,
				0.20626451075077057,
				-0.2116488516330719,
				-0.35132479667663574,
				-0.16907265782356262,
				-0.2974795997142792
			],
			[
				0.4228922128677368,
				-0.3259953260421753,
				-0.34879106283187866,
				-0.05993841588497162,
				0.2963772416114807,
				0.23983025550842285,
				-0.35414186120033264,
				-0.3921080231666565
			],
			[
				-0.08470654487609863,
				-0.13956844806671143,
				-0.5057297348976135,
				0.09463927149772644,
				-0.13591662049293518,
				-0.35427021980285645,
				0.10205550491809845,
				-0.4193481206893921
			],
			[
				-0.11545562744140625,
				-0.03955996036529541,
				-0.04749516770243645,
				-0.2823662757873535,
				-0.1515749841928482,
				0.384871244430542,
				-0.11429969221353531,
				0.05189105123281479
			],
			[
				-0.00892019271850586,
				-0.32696449756622314,
				0.28642600774765015,
				0.12868447601795197,
				0.011789943091571331,
				0.18213820457458496,
				0.19400255382061005,
				0.1995352804660797
			]
		],
		"weight_1": [
			0.0,
			0.0,
			-0.020842956379055977,
			0.013251664116978645,
			0.027237193658947945,
			0.0,
			-0.018713971599936485,
			0.027963727712631226
		]
	},
	"layer_3": {},
	"layer_4": {
		"weight_0": [
			[
				0.4924188256263733,
				-0.002537548542022705,
				-0.03206431865692139,
				-0.5263247489929199
			],
			[
				0.6355515122413635,
				0.40672415494918823,
				0.53730708360672,
				0.5992745757102966
			],
			[
				0.4911594092845917,
				0.41660845279693604,
				-0.1898878812789917,
				0.6619277000427246
			],
			[
				-0.40273237228393555,
				0.011569764465093613,
				-0.6972553730010986,
				-0.2065114676952362
			],
			[
				-0.2108662873506546,
				-0.5769643187522888,
				-0.4763180613517761,
				0.03041214682161808
			],
			[
				-0.4852187931537628,
				-0.23974677920341492,
				-0.4842740297317505,
				0.5073423981666565
			],
			[
				0.44372305274009705,
				0.3676697313785553,
				-0.047104835510253906,
				-0.1359696388244629
			],
			[
				-0.05451484024524689,
				-0.5501025915145874,
				-0.4836629033088684,
				-0.5933192372322083
			]
		],
		"weight_1": [
			-0.011647730134427547,
			-0.03370480239391327,
			0.0,
			-0.021312851458787918
		]
	},
	"layer_5": {},
	"layer_6": {
		"weight_0": [
			[
				-0.44076183438301086
			],
			[
				-0.2888966202735901
			],
			[
				-0.540587306022644
			],
			[
				-0.5583499073982239
			]
		],
		"weight_1": [
			2.36344838142395
		]
	}
}