{
	"layer_0": {
		"weight_0": 0.0,
		"weight_1": 1.0,
		"weight_2": -1
	},
	"layer_1": {
		"weight_0": [
			1.0573519468307495,
			0.0,
			-0.001856862218119204,
			1.1048728227615356,
			0.2695586681365967,
			0.9787495136260986,
			0.0,
			0.0,
			0.31386247277259827,
			0.0,
			0.184024840593338,
			0.6290656328201294,
			0.11607969552278519,
			0.4201231896877289,
			0.5232304930686951,
			0.0
		],
		"weight_1": [
			[
				1.186365008354187,
				-0.213485449552536,
				5.021821975708008,
				0.5911281704902649,
				1.540717601776123,
				0.23288153111934662,
				-0.44941699504852295,
				-0.36735397577285767,
				2.912322759628296,
				-0.26117920875549316,
				2.4228854179382324,
				0.5725881457328796,
				3.1806447505950928,
				1.5031871795654297,
				-11.191522598266602,
				-0.09744936227798462
			],
			[
				-0.6885573863983154,
				-0.17248651385307312,
				0.1327415108680725,
				-0.8598816394805908,
				-9.834915161132812,
				-2.562737464904785,
				-0.1733837127685547,
				-0.4657788872718811,
				-0.7108251452445984,
				-0.2842247486114502,
				-3.393671989440918,
				-4.217980861663818,
				-0.0876222625374794,
				-1.2878131866455078,
				-1.3374378681182861,
				-0.3399339020252228
			]
		],
		"weight_2": -1,
		"weight_3": -11.191522598266602,
		"weight_4": 11.191522598266602,
		"weight_5": -1.0344233678196528e-30,
		"weight_6": 5.0456953048706055
	},
	"layer_2": {
		"weight_0": [
			0.5256613492965698,
			-1.0592658519744873,
			0.49824169278144836,
			0.0,
			0.8700436353683472,
			1.8059637546539307,
			0.5711830258369446,
			0.0
		],
		"weight_1": [
			[
				0.31993019580841064,
				-0.3627323508262634,
				0.06465374678373337,
				-0.23765182495117188,
				1.3031809329986572,
				0.6776683926582336,
				0.9977545142173767,
				-0.4559270143508911
			],
			[
				0.4808008670806885,
				0.13964247703552246,
				0.196197509765625,
				-0.17489218711853027,
				-0.3195164203643799,
				0.32070744037628174,
				-0.37284421920776367,
				0.37910592555999756
			],
			[
				0.849338173866272,
				1.8549365997314453,
				0.5314600467681885,
				-0.4090585708618164,
				1.5693668127059937,
				-0.8258966207504272,
				0.5208712816238403,
				0.16349947452545166
			],
			[
				0.6324026584625244,
				-0.6303289532661438,
				0.03787609562277794,
				-0.3429781198501587,
				0.6899617910385132,
				0.6015011072158813,
				0.5712100267410278,
				-0.4536665678024292
			],
			[
				6.958813190460205,
				5.258203983306885,
				6.827770233154297,
				0.32441043853759766,
				6.851524353027344,
				-5.486448287963867,
				6.43350887298584,
				0.31889402866363525
			],
			[
				0.6081503033638,
				-1.4792251586914062,
				0.32745301723480225,
				0.4831002950668335,
				1.451878309249878,
				1.0702933073043823,
				0.9003801345825195,
				-0.12772607803344727
			],
			[
				-0.45840978622436523,
				0.3408541679382324,
				-0.3789569139480591,
				0.20858991146087646,
				-0.35145652294158936,
				-0.25288474559783936,
				0.20066559314727783,
				0.2728109359741211
			],
			[
				0.2930312156677246,
				-0.23626911640167236,
				-0.08438658714294434,
				0.16391611099243164,
				-0.4282752275466919,
				0.3966294527053833,
				0.0045784711837768555,
				-0.2843489646911621
			],
			[
				0.7085062265396118,
				0.9819019436836243,
				0.9434558153152466,
				-0.006210446357727051,
				1.6868773698806763,
				0.0481436662375927,
				0.7535613179206848,
				0.17942845821380615
			],
			[
				0.38950014114379883,
				0.42925381660461426,
				-0.1591395139694214,
				0.2161715030670166,
				-0.023810148239135742,
				-0.480366587638855,
				0.4912208318710327,
				0.3556838035583496
			],
			[
				0.3885958194732666,
				1.238842487335205,
				0.9644436836242676,
				0.4339643716812134,
				1.5902191400527954,
				-0.7962055802345276,
				1.1788101196289062,
				-0.1347498893737793
			],
			[
				1.7776871919631958,
				-1.2345706224441528,
				1.8632326126098633,
				-0.31971871852874756,
				2.785141944885254,
				-0.7925734519958496,
				1.6222769021987915,
				-0.010518908500671387
			],
			[
				0.9005985260009766,
				1.0341134071350098,
				0.472961962223053,
				-0.3716336488723755,
				0.7907549738883972,
				-0.7951462268829346,
				0.4080852270126343,
				-0.21053624153137207
			],
			[
				-0.03351157531142235,
				0.39999786019325256,
				0.6894248723983765,
				-0.05675661563873291,
				1.5879030227661133,
				-0.6188632249832153,
				0.8459434509277344,
				0.24911081790924072
			],
			[
				-2.7493174076080322,
				-0.137705460190773,
				-3.375491142272949,
				-0.4079779386520386,
				-2.811539649963379,
				3.1110646724700928,
				-3.1212234497070312,
				0.11865711212158203
			],
			[
				-0.4778013229370117,
				0.48358845710754395,
				-0.05547749996185303,
				0.17570865154266357,
				0.30083560943603516,
				-0.3746471405029297,
				-0.37551307678222656,
				-0.2116144895553589
			]
		],
		"weight_2": -1,
		"weight_3": -6.958813190460205,
		"weight_4": 6.958813190460205,
		"weight_5": -1.0344233678196528e-30,
		"weight_6": 27.205677032470703
	},
	"layer_3": {
		"weight_0": [
			-0.1045350506901741,
			0.0,
			0.6175929307937622,
			-0.03913102671504021
		],
		"weight_1": [
			[
				-0.8102905750274658,
				-0.20719391107559204,
				1.4801799058914185,
				-0.042114436626434326
			],
			[
				-0.6851446032524109,
				-0.7030560970306396,
				-3.569664239883423,
				-0.13117951154708862
			],
			[
				-0.9509294033050537,
				-0.19329726696014404,
				1.3789101839065552,
				-0.7156393527984619
			],
			[
				0.0870782732963562,
				0.17155450582504272,
				-0.21837714314460754,
				0.20793551206588745
			],
			[
				-0.2660624384880066,
				-0.3492625057697296,
				1.4786163568496704,
				0.052165381610393524
			],
			[
				0.5136107802391052,
				-0.3410849869251251,
				-2.7630720138549805,
				0.39613547921180725
			],
			[
				0.23765531182289124,
				-0.19223952293395996,
				1.696353793144226,
				-0.7090070843696594
			],
			[
				-0.6054081320762634,
				-0.19631648063659668,
				0.07708960771560669,
				-0.0023733973503112793
			]
		],
		"weight_2": -1,
		"weight_3": -3.569186210632324,
		"weight_4": 3.569186210632324,
		"weight_5": -1.0344233678196528e-30,
		"weight_6": 57.177947998046875
	},
	"layer_4": {
		"weight_0": [
			0.6474117040634155
		],
		"weight_1": [
			[
				2.2334253787994385
			],
			[
				-0.4523717164993286
			],
			[
				2.4454774856567383
			],
			[
				1.9460047483444214
			]
		],
		"weight_2": -1,
		"weight_3": -2.4459519386291504,
		"weight_4": 2.4459519386291504,
		"weight_5": -1.0344233678196528e-30,
		"weight_6": 135.6708984375
	}
}