{
	"layer_0": {
		"weight_0": [
			[
				0.6113507747650146,
				-0.19795601069927216,
				0.533338725566864,
				-0.3632130026817322,
				0.8123854398727417,
				0.08276310563087463,
				0.6446942090988159,
				0.1584124118089676,
				0.8590303659439087,
				0.4937233328819275,
				-0.33496496081352234,
				0.022031741216778755,
				0.042275507003068924,
				-0.3357270061969757,
				0.04096275568008423,
				-0.07691597938537598
			],
			[
				0.6567546129226685,
				0.5952586531639099,
				0.6841889023780823,
				-0.09440231323242188,
				0.3716164529323578,
				0.7602183222770691,
				0.49091216921806335,
				0.24822358787059784,
				-0.17409631609916687,
				-0.07794542610645294,
				-0.12776920199394226,
				0.8104457259178162,
				0.055801887065172195,
				-0.5577614307403564,
				0.6395374536514282,
				-0.10528308153152466
			]
		],
		"weight_1": [
			0.29558736085891724,
			0.38999488949775696,
			0.388739675283432,
			0.0,
			0.36434802412986755,
			0.28801631927490234,
			0.3301951289176941,
			-0.11718127876520157,
			0.38558998703956604,
			0.3924275040626526,
			0.0,
			0.3189425766468048,
			-0.10394182801246643,
			0.0,
			0.2388121336698532,
			0.0
		]
	},
	"layer_1": {},
	"layer_2": {
		"weight_0": [
			[
				-0.10682867467403412,
				0.0035305023193359375,
				0.6006355285644531,
				0.07304191589355469,
				0.24364370107650757,
				-0.4689003527164459,
				0.40161314606666565,
				0.1082611009478569
			],
			[
				0.32726311683654785,
				-0.25823140144348145,
				0.7814239859580994,
				-0.1823684126138687,
				0.3569100499153137,
				0.34807804226875305,
				-0.1832236498594284,
				0.9040694832801819
			],
			[
				-0.6504143476486206,
				-0.42237019538879395,
				0.07966511696577072,
				0.13558150827884674,
				0.7955801486968994,
				-0.25353190302848816,
				0.05654026195406914,
				0.6860654354095459
			],
			[
				-0.03535199165344238,
				0.21448147296905518,
				-0.41644346714019775,
				-0.17458760738372803,
				0.45481693744659424,
				-0.14928412437438965,
				-0.44949209690093994,
				-0.194610595703125
			],
			[
				0.2620641887187958,
				-0.44227027893066406,
				0.8593559861183167,
				-0.3068842887878418,
				0.4601763188838959,
				-0.18280372023582458,
				0.42756038904190063,
				0.16794626414775848
			],
			[
				0.1954607516527176,
				0.36896800994873047,
				0.11404156684875488,
				-0.4241025447845459,
				0.41121959686279297,
				-0.06676772236824036,
				0.4173077642917633,
				0.8132017850875854
			],
			[
				-0.07523928582668304,
				-0.32142484188079834,
				0.15689995884895325,
				-0.45271027088165283,
				0.6983115673065186,
				-0.1335088163614273,
				0.5743042826652527,
				0.3714475929737091
			],
			[
				-0.6095308661460876,
				-0.3252040147781372,
				0.1563100516796112,
				0.3450281620025635,
				0.10552997887134552,
				-0.3764096200466156,
				-0.2882721424102783,
				-0.31750035285949707
			],
			[
				0.002737597329542041,
				-0.050374507904052734,
				0.847636878490448,
				-0.02303898334503174,
				-0.1071593165397644,
				0.339238703250885,
				-0.09173991531133652,
				0.6717305779457092
			],
			[
				-0.015717050060629845,
				0.21811306476593018,
				0.8125607967376709,
				-0.062352269887924194,
				0.45560750365257263,
				-0.07220432907342911,
				-0.35973238945007324,
				0.858973503112793
			],
			[
				0.27621984481811523,
				0.18521904945373535,
				0.38851797580718994,
				-0.048995018005371094,
				0.42880094051361084,
				0.4077497720718384,
				0.18782317638397217,
				0.1876288652420044
			],
			[
				0.2977106273174286,
				-0.269783616065979,
				0.441104531288147,
				-0.25971734523773193,
				0.19323892891407013,
				0.2061493992805481,
				0.15674103796482086,
				0.6973482370376587
			],
			[
				-0.5134021639823914,
				-0.048931002616882324,
				-0.03033353015780449,
				-0.39608073234558105,
				-0.395742267370224,
				0.12278394401073456,
				-0.5042827129364014,
				0.2657797038555145
			],
			[
				0.2708556652069092,
				-0.13238298892974854,
				0.2619093656539917,
				0.02221846580505371,
				-0.3725879192352295,
				0.02879941463470459,
				-0.25204479694366455,
				-0.223358154296875
			],
			[
				0.03438492864370346,
				-0.010924935340881348,
				-0.04680895805358887,
				-0.4948161840438843,
				0.3575679659843445,
				0.38109415769577026,
				0.3028809428215027,
				0.8538233637809753
			],
			[
				-0.407184362411499,
				-0.08342111110687256,
				0.10132348537445068,
				-0.21695029735565186,
				0.46456992626190186,
				-0.039307355880737305,
				0.23065614700317383,
				0.1634671688079834
			]
		],
		"weight_1": [
			-0.15218038856983185,
			0.0,
			0.37729406356811523,
			-0.0031622550450265408,
			0.378047913312912,
			-0.030745426192879677,
			0.09043844044208527,
			0.3841259479522705
		]
	},
	"layer_3": {},
	"layer_4": {
		"weight_0": [
			[
				-0.5556000471115112,
				-0.290472149848938,
				0.27446889877319336,
				0.03210495784878731
			],
			[
				-0.6700751781463623,
				0.6145423054695129,
				-0.6226550936698914,
				-0.0409778356552124
			],
			[
				0.7074326872825623,
				-0.38329067826271057,
				-0.3422640860080719,
				-0.6042556166648865
			],
			[
				-0.06983284652233124,
				0.47014808654785156,
				0.6104022860527039,
				0.008285582065582275
			],
			[
				0.9872101545333862,
				-0.08870961517095566,
				-0.4165627658367157,
				-0.7124499678611755
			],
			[
				-0.3912973403930664,
				-0.5018116235733032,
				-0.17474889755249023,
				-0.2843420207500458
			],
			[
				0.34445929527282715,
				0.12023311108350754,
				-0.08582109212875366,
				0.5681312084197998
			],
			[
				0.9442898035049438,
				0.3336452543735504,
				-0.3749553859233856,
				-0.5605543851852417
			]
		],
		"weight_1": [
			0.37141382694244385,
			-0.2857847213745117,
			0.0,
			-0.020082926377654076
		]
	},
	"layer_5": {},
	"layer_6": {
		"weight_0": [
			[
				3.2051777839660645
			],
			[
				-0.4000522494316101
			],
			[
				-0.5644745826721191
			],
			[
				-0.8097496032714844
			]
		],
		"weight_1": [
			2.356642961502075
		]
	}
}