{
	"layer_0": {
		"weight_0": [
			[
				0.3190523087978363,
				0.1331155002117157,
				0.03003847599029541,
				-0.06254452466964722,
				-0.1725645363330841,
				0.3718324303627014,
				-0.20636793971061707,
				-0.1579260528087616,
				0.4522817134857178,
				-0.4508141279220581,
				-0.5482795834541321,
				-0.29531556367874146,
				-0.18490538001060486,
				-0.08700218796730042,
				-0.07774859666824341,
				-0.38966912031173706
			],
			[
				-0.50678551197052,
				-0.4322814643383026,
				-0.28080618381500244,
				-0.381471186876297,
				0.4285043776035309,
				-0.26506292819976807,
				-0.42824652791023254,
				-0.3647076487541199,
				0.28494250774383545,
				0.10523712635040283,
				0.09335851669311523,
				0.3140801191329956,
				-0.37566328048706055,
				-0.020421743392944336,
				-0.3946737051010132,
				-0.15788120031356812
			]
		],
		"weight_1": [
			0.02263408899307251,
			-0.021544694900512695,
			0.0,
			0.0,
			0.014002501033246517,
			-0.017359372228384018,
			0.0,
			0.0,
			-0.018201405182480812,
			0.0,
			0.0,
			-0.006622349843382835,
			0.0,
			0.0,
			0.0,
			0.0
		]
	},
	"layer_1": {},
	"layer_2": {
		"weight_0": [
			[
				0.007356762886047363,
				-0.17252127826213837,
				-0.4590979814529419,
				-0.2853524684906006,
				-0.1497376263141632,
				-0.05269002914428711,
				0.058040499687194824,
				-0.12451171875
			],
			[
				0.30688464641571045,
				0.134468212723732,
				-0.4229205846786499,
				-0.015018820762634277,
				-0.22318804264068604,
				-0.04747581481933594,
				0.47310733795166016,
				-0.3068833351135254
			],
			[
				-0.3471219539642334,
				-0.27840912342071533,
				-0.25637269020080566,
				0.38452088832855225,
				0.3994870185852051,
				-0.1386638879776001,
				-0.4063534736633301,
				0.41065871715545654
			],
			[
				0.016250252723693848,
				-0.3722885847091675,
				0.23629045486450195,
				-0.002812504768371582,
				-0.4134002923965454,
				0.4518927335739136,
				0.3364987373352051,
				-0.3125274181365967
			],
			[
				-0.14703702926635742,
				-0.27945953607559204,
				-0.41703498363494873,
				-0.025389909744262695,
				-0.39985358715057373,
				-0.0343858003616333,
				-0.1920912265777588,
				0.49361154437065125
			],
			[
				-0.4642077684402466,
				0.09315680712461472,
				0.05002009868621826,
				0.05221223831176758,
				-0.07114289700984955,
				-0.2877389192581177,
				0.33874285221099854,
				-0.12497091293334961
			],
			[
				0.4920775890350342,
				0.4068942070007324,
				-0.4731658697128296,
				0.300998330116272,
				0.19880318641662598,
				0.21702134609222412,
				-0.48712778091430664,
				0.10249781608581543
			],
			[
				0.3580213785171509,
				-0.1834784746170044,
				0.3128998279571533,
				0.17245805263519287,
				-0.20441019535064697,
				0.140173077583313,
				0.3178081512451172,
				0.19110512733459473
			],
			[
				-0.05779755115509033,
				0.2315971702337265,
				-0.16550981998443604,
				-0.08229577541351318,
				0.45863616466522217,
				-0.26808369159698486,
				-0.3525564670562744,
				-0.3430391252040863
			],
			[
				0.2858186960220337,
				0.043880343437194824,
				0.07117009162902832,
				0.4392507076263428,
				0.0941920280456543,
				-0.3273881673812866,
				-0.2165757417678833,
				0.47972989082336426
			],
			[
				0.3076741695404053,
				0.4315277338027954,
				-0.4088761806488037,
				-0.15341222286224365,
				-0.3269317150115967,
				-0.393501877784729,
				0.1720116138458252,
				-0.2214069366455078
			],
			[
				-0.03305935859680176,
				0.46888765692710876,
				-0.32558417320251465,
				-0.2396700382232666,
				0.5015238523483276,
				-0.38114655017852783,
				-0.34147214889526367,
				0.45481911301612854
			],
			[
				0.3746904134750366,
				0.12989914417266846,
				0.173225998878479,
				-0.18336272239685059,
				0.07505738735198975,
				0.11829483509063721,
				0.024167180061340332,
				-0.4145547151565552
			],
			[
				0.25113022327423096,
				0.028278708457946777,
				0.4789724349975586,
				-0.4853532314300537,
				0.2577327489852905,
				-0.0019370317459106445,
				-0.042235374450683594,
				0.4868779182434082
			],
			[
				0.2563767433166504,
				-0.4022151231765747,
				-0.20346295833587646,
				-0.2971007823944092,
				-0.4713149070739746,
				-0.24349236488342285,
				-0.39745569229125977,
				0.37908756732940674
			],
			[
				-0.426427960395813,
				0.47211313247680664,
				0.24127113819122314,
				0.3421189785003662,
				-0.1678919792175293,
				0.05750083923339844,
				-0.24837088584899902,
				0.42330074310302734
			]
		],
		"weight_1": [
			0.0,
			-0.017855850979685783,
			0.0,
			0.0,
			0.017020853236317635,
			0.0,
			0.0,
			0.0055057816207408905
		]
	},
	"layer_3": {},
	"layer_4": {
		"weight_0": [
			[
				0.06173098087310791,
				0.6013198494911194,
				-0.5755622386932373,
				0.36536985635757446
			],
			[
				-0.40943166613578796,
				-0.09036082029342651,
				-0.46201491355895996,
				0.5716291069984436
			],
			[
				0.6488950848579407,
				0.6054961085319519,
				0.33384495973587036,
				-0.16294020414352417
			],
			[
				0.11485254764556885,
				-0.24788281321525574,
				-0.29415634274482727,
				0.2735649347305298
			],
			[
				-0.2675579786300659,
				-0.1643836498260498,
				0.17184893786907196,
				-0.2484215348958969
			],
			[
				-0.03483283519744873,
				0.6287861466407776,
				-0.23800459504127502,
				-0.09071600437164307
			],
			[
				-0.13363653421401978,
				-0.4078998863697052,
				0.14361637830734253,
				-0.34157171845436096
			],
			[
				-0.6427505612373352,
				-0.6783435940742493,
				-0.39657720923423767,
				-0.43436405062675476
			]
		],
		"weight_1": [
			0.0,
			0.0,
			-0.012786004692316055,
			-0.017951466143131256
		]
	},
	"layer_5": {},
	"layer_6": {
		"weight_0": [
			[
				-0.8063738346099854
			],
			[
				0.6287804841995239
			],
			[
				-0.29413437843322754
			],
			[
				-0.22911567986011505
			]
		],
		"weight_1": [
			2.3645167350769043
		]
	}
}