{
	"layer_0": {
		"weight_0": [
			[
				0.5728628039360046,
				-0.24728980660438538,
				0.702812135219574,
				0.6894003748893738,
				0.45145249366760254,
				-0.3564770817756653,
				-0.21711155772209167,
				1.214053750038147,
				0.7942022681236267,
				0.2081792652606964,
				1.0465084314346313,
				0.9421281814575195,
				0.7273670434951782,
				0.21023817360401154,
				0.22935858368873596,
				-0.1667877435684204
			],
			[
				0.292789101600647,
				-0.5139580965042114,
				-1.1366007328033447,
				-0.42664411664009094,
				-0.2241419553756714,
				-0.1340177357196808,
				1.3695193529129028,
				-0.7250149250030518,
				-0.5236402750015259,
				1.284774661064148,
				-0.17660567164421082,
				-0.37723270058631897,
				-0.14046256244182587,
				-0.16142229735851288,
				-0.26114070415496826,
				1.2373238801956177
			]
		],
		"weight_1": [
			0.7794779539108276,
			0.0,
			0.5406045913696289,
			0.6564560532569885,
			0.6392316222190857,
			0.0,
			0.1805802285671234,
			0.6515054106712341,
			0.6484997272491455,
			0.2933894991874695,
			0.6579945087432861,
			0.451522558927536,
			0.7536253333091736,
			0.7047447562217712,
			0.7074024081230164,
			0.16537949442863464
		]
	},
	"layer_1": {
		"weight_0": [
			[
				-0.22576889395713806,
				0.6736757755279541,
				0.4834067225456238,
				0.4943717420101166,
				-0.015799105167388916,
				0.011051589623093605,
				0.025021493434906006,
				0.5551158785820007
			],
			[
				-0.48605215549468994,
				-0.12483465671539307,
				-0.2599579095840454,
				-0.2414076328277588,
				-0.49620163440704346,
				0.3313920497894287,
				0.49701225757598877,
				0.36279594898223877
			],
			[
				1.0788905620574951,
				1.4138180017471313,
				0.996347188949585,
				1.5309191942214966,
				-0.35659557580947876,
				-0.41671550273895264,
				0.1760411560535431,
				1.40286386013031
			],
			[
				0.7965041995048523,
				0.525024950504303,
				1.1149300336837769,
				0.5245828628540039,
				0.008290879428386688,
				0.09232249110937119,
				0.16137546300888062,
				1.1145262718200684
			],
			[
				0.26747891306877136,
				-0.09939666092395782,
				0.6099784970283508,
				0.5369987487792969,
				0.3781273663043976,
				-0.2285446673631668,
				0.4025616943836212,
				0.39163637161254883
			],
			[
				0.15691912174224854,
				0.10416364669799805,
				0.23738622665405273,
				0.2002120018005371,
				-0.42831671237945557,
				-0.07414543628692627,
				-0.15824174880981445,
				0.08274292945861816
			],
			[
				-1.9265550374984741,
				-0.7435808777809143,
				-1.0243282318115234,
				-1.0924923419952393,
				0.4491117596626282,
				-0.05084354802966118,
				-0.18852005898952484,
				-0.2148544043302536
			],
			[
				0.9724640250205994,
				0.580086886882782,
				1.0419334173202515,
				1.273007869720459,
				-0.30633264780044556,
				0.11800990998744965,
				-0.5783501267433167,
				0.49605435132980347
			],
			[
				0.4389069080352783,
				0.7541239857673645,
				1.0480331182479858,
				1.3081419467926025,
				-0.17632000148296356,
				-0.04012078046798706,
				-0.20774787664413452,
				0.851376473903656
			],
			[
				-1.1751279830932617,
				0.3103260397911072,
				-0.30537158250808716,
				-0.47071102261543274,
				0.3378487825393677,
				0.07565207779407501,
				-0.4820651710033417,
				-0.2638311982154846
			],
			[
				0.3826499283313751,
				0.7177484631538391,
				0.07103334367275238,
				0.5150084495544434,
				-0.13116268813610077,
				0.24770525097846985,
				-0.04820645600557327,
				0.6182500720024109
			],
			[
				0.31462448835372925,
				0.5270966291427612,
				0.3857651352882385,
				1.1702005863189697,
				-0.3894280195236206,
				0.26993685960769653,
				0.20518775284290314,
				0.7843884825706482
			],
			[
				0.06724810600280762,
				1.0700887441635132,
				0.9652187824249268,
				1.1281660795211792,
				0.4482656419277191,
				-0.37656930088996887,
				0.04452093318104744,
				1.149156928062439
			],
			[
				0.21110862493515015,
				0.3062971234321594,
				0.6543900966644287,
				0.7402297854423523,
				0.11421888321638107,
				-0.07720553129911423,
				0.1545111984014511,
				-0.00027779091033153236
			],
			[
				0.4053652286529541,
				0.5805622935295105,
				0.8758637309074402,
				0.9405791163444519,
				0.4802926480770111,
				-0.5253911018371582,
				-0.28485721349716187,
				0.30426403880119324
			],
			[
				-2.1616809368133545,
				-0.5944278836250305,
				-1.2132524251937866,
				-0.9835114479064941,
				0.7500831484794617,
				-0.34687259793281555,
				0.4703262150287628,
				-0.5877796411514282
			]
		],
		"weight_1": [
			0.35018131136894226,
			0.7602208852767944,
			0.7605136632919312,
			0.7564157843589783,
			-0.13717922568321228,
			-0.09933585673570633,
			-0.07845580577850342,
			0.7728007435798645
		]
	},
	"layer_2": {
		"weight_0": [
			[
				1.700210690498352,
				-0.6552265882492065,
				0.3182765245437622,
				-0.4195769131183624
			],
			[
				1.4362497329711914,
				0.5777891874313354,
				-0.5993239283561707,
				-0.15389752388000488
			],
			[
				1.3490304946899414,
				-0.5396324396133423,
				0.2559954524040222,
				-0.44002169370651245
			],
			[
				1.2753829956054688,
				-0.6004672646522522,
				-0.025423744693398476,
				-0.3257077932357788
			],
			[
				-0.8233978152275085,
				0.027718812227249146,
				0.4001590311527252,
				-0.5420922636985779
			],
			[
				-0.10537722706794739,
				0.3926905691623688,
				0.3124655485153198,
				-0.41047996282577515
			],
			[
				-0.0384771004319191,
				0.35044941306114197,
				-0.35118743777275085,
				-0.36796778440475464
			],
			[
				0.8467200994491577,
				0.1958961933851242,
				-0.11741580069065094,
				-0.5281962752342224
			]
		],
		"weight_1": [
			0.7511712908744812,
			-0.08854267746210098,
			-0.15573252737522125,
			0.0
		]
	},
	"layer_3": {
		"weight_0": [
			[
				1.9616931676864624
			],
			[
				0.1537335366010666
			],
			[
				-0.06645045429468155
			],
			[
				0.7935358285903931
			]
		],
		"weight_1": [
			0.7567963600158691
		]
	}
}