{
	"layer_0": {
		"weight_0": [
			[
				0.04096690192818642,
				0.436105877161026,
				-0.08225244283676147,
				1.669723629951477,
				-0.14978566765785217,
				0.3758185803890228,
				0.3915195167064667,
				1.460424542427063,
				-0.132831871509552,
				1.4849858283996582,
				0.9596368074417114,
				0.10248641669750214,
				1.6463934183120728,
				0.12214094400405884,
				0.0954856425523758,
				-0.002609848976135254
			],
			[
				-0.7121264934539795,
				-4.008668899536133,
				0.12810614705085754,
				-0.09234438836574554,
				-0.051072776317596436,
				-1.5756007432937622,
				-2.4845354557037354,
				0.015575909055769444,
				-0.04496067762374878,
				0.3230544328689575,
				-0.046863168478012085,
				-0.10124442726373672,
				-0.19942283630371094,
				-0.5066795349121094,
				0.05215241014957428,
				-0.28426602482795715
			]
		],
		"weight_1": [
			1.0175795555114746,
			0.16310839354991913,
			0.7820385098457336,
			0.24733853340148926,
			0.0,
			0.5432939529418945,
			0.3209735155105591,
			0.24916355311870575,
			0.0,
			-0.42725276947021484,
			0.13662530481815338,
			-0.09473676979541779,
			0.30080315470695496,
			-0.05767590552568436,
			-0.1492430418729782,
			0.0
		]
	},
	"layer_1": {},
	"layer_2": {
		"weight_0": [
			[
				0.032388150691986084,
				-0.4439629316329956,
				-0.4076436161994934,
				0.05294705182313919,
				-0.27431464195251465,
				0.8004221320152283,
				-0.395174503326416,
				0.1437242031097412
			],
			[
				4.065706729888916,
				3.416848659515381,
				4.090798854827881,
				3.671224355697632,
				-0.08191776275634766,
				-3.919761896133423,
				0.3732187747955322,
				-0.27334868907928467
			],
			[
				-0.5975823402404785,
				0.06459107995033264,
				0.2506279945373535,
				-0.4024757146835327,
				0.211899071931839,
				0.5895212888717651,
				0.23002147674560547,
				-0.45677292346954346
			],
			[
				0.8405745029449463,
				0.9603451490402222,
				0.6344189643859863,
				1.0960208177566528,
				-0.46096086502075195,
				-0.23486730456352234,
				-0.007424831390380859,
				-0.4244217872619629
			],
			[
				0.17158305644989014,
				-0.4653583765029907,
				-0.4880669116973877,
				0.4250965118408203,
				-0.11277246475219727,
				-0.26919686794281006,
				0.4591846466064453,
				0.16955363750457764
			],
			[
				0.7207523584365845,
				0.8947718143463135,
				1.1895867586135864,
				1.1451431512832642,
				-0.06749129295349121,
				-0.1968831568956375,
				0.34072136878967285,
				-0.36173343658447266
			],
			[
				1.996464490890503,
				1.745468258857727,
				1.7784779071807861,
				2.229065418243408,
				-0.4036247730255127,
				-0.42745310068130493,
				-0.4481661319732666,
				0.44310450553894043
			],
			[
				0.4150136709213257,
				0.7928330898284912,
				0.14970242977142334,
				0.5599924921989441,
				-0.05186649039387703,
				0.015824588015675545,
				-0.40908682346343994,
				0.15391552448272705
			],
			[
				-0.0942082405090332,
				-0.14948439598083496,
				-0.048761963844299316,
				0.27014946937561035,
				0.07859861850738525,
				0.049634337425231934,
				0.43211913108825684,
				0.47531867027282715
			],
			[
				-2.1137187480926514,
				-1.6421828269958496,
				-1.2506561279296875,
				-1.8252888917922974,
				-0.2883409857749939,
				1.8244010210037231,
				-0.43438827991485596,
				0.2579193115234375
			],
			[
				0.9476914405822754,
				0.11391259729862213,
				0.29448017477989197,
				0.5861487984657288,
				-0.012218267656862736,
				0.0044194553047418594,
				-0.13974666595458984,
				-0.13799333572387695
			],
			[
				0.23188070952892303,
				-0.29273921251296997,
				0.37211745977401733,
				-0.2783829867839813,
				-0.398449182510376,
				0.047491654753685,
				-0.2405174970626831,
				-0.3211202621459961
			],
			[
				0.865083634853363,
				1.2988357543945312,
				1.1423008441925049,
				0.9537420868873596,
				0.31320375204086304,
				-0.07348426431417465,
				-0.06679153442382812,
				-0.4793221950531006
			],
			[
				0.2629556655883789,
				-0.3696601092815399,
				0.4246557056903839,
				-0.355105459690094,
				0.2775677442550659,
				0.03467988967895508,
				-0.29116153717041016,
				0.3015015125274658
			],
			[
				0.20601902902126312,
				-0.30011942982673645,
				0.33338987827301025,
				-0.2086133360862732,
				0.04477953910827637,
				-0.14963187277317047,
				0.4444624185562134,
				-0.31722939014434814
			],
			[
				-0.38445234298706055,
				-0.18747806549072266,
				-0.29127705097198486,
				-0.31932902336120605,
				0.0829782485961914,
				-0.24535775184631348,
				0.24319946765899658,
				-0.46314775943756104
			]
		],
		"weight_1": [
			0.25750720500946045,
			0.24965958297252655,
			0.2511805295944214,
			0.25197869539260864,
			-0.0653403103351593,
			0.35650572180747986,
			0.0,
			0.0
		]
	},
	"layer_3": {},
	"layer_4": {
		"weight_0": [
			[
				1.0744166374206543,
				1.4331011772155762,
				1.6841161251068115,
				1.8611189126968384
			],
			[
				1.7647382020950317,
				1.7562223672866821,
				0.7737728357315063,
				0.9251801371574402
			],
			[
				0.8180873394012451,
				1.2302932739257812,
				1.477479338645935,
				1.32158362865448
			],
			[
				0.9792031645774841,
				1.2928133010864258,
				1.821653962135315,
				1.8038368225097656
			],
			[
				-0.21724431216716766,
				0.49704161286354065,
				0.49336522817611694,
				-0.09051619470119476
			],
			[
				-1.2363414764404297,
				-1.739846110343933,
				-2.2898828983306885,
				-2.3610734939575195
			],
			[
				-0.5984060168266296,
				0.2622188329696655,
				0.5307906270027161,
				-0.6342166662216187
			],
			[
				-0.17139405012130737,
				0.512795627117157,
				0.385598361492157,
				-0.38512104749679565
			]
		],
		"weight_1": [
			0.24863561987876892,
			0.24022991955280304,
			0.2507037818431854,
			0.25790414214134216
		]
	},
	"layer_5": {},
	"layer_6": {
		"weight_0": [
			[
				1.4669145345687866
			],
			[
				2.069693088531494
			],
			[
				1.833531141281128
			],
			[
				1.9299126863479614
			]
		],
		"weight_1": [
			0.2400967925786972
		]
	}
}