{
	"layer_0": {
		"weight_0": 0.0,
		"weight_1": 1.0,
		"weight_2": -1
	},
	"layer_1": {
		"weight_0": [
			0.008608879521489143,
			0.04155026376247406,
			-0.06853199750185013,
			-0.007220420055091381,
			0.0,
			0.04551905393600464,
			0.06631101667881012,
			0.03160173445940018,
			0.0,
			-0.037120893597602844,
			-0.05807596817612648,
			0.039164770394563675,
			-0.05862803012132645,
			-0.038429051637649536,
			-0.003851981833577156,
			-0.04921579360961914
		],
		"weight_1": [
			[
				0.32670530676841736,
				0.10910186171531677,
				0.49487635493278503,
				0.043091755360364914,
				-0.5639932751655579,
				0.26508182287216187,
				-0.03584548830986023,
				-0.5071655511856079,
				-0.38344427943229675,
				0.5126968622207642,
				-0.04638035595417023,
				0.4273875057697296,
				0.5123589038848877,
				0.3740781545639038,
				0.3312661945819855,
				0.4492935538291931
			],
			[
				-0.22775256633758545,
				0.45677679777145386,
				-0.6243093609809875,
				-0.2842409908771515,
				-0.31699779629707336,
				0.5214523673057556,
				0.4746035635471344,
				0.18862365186214447,
				-0.46888208389282227,
				0.38825276494026184,
				0.28509521484375,
				-0.5158454775810242,
				0.21730709075927734,
				-0.2709314823150635,
				0.012677552178502083,
				0.1972375363111496
			]
		],
		"weight_2": -1,
		"weight_3": -0.6243093609809875,
		"weight_4": 0.6243093609809875,
		"weight_5": -1.0344233678196528e-30,
		"weight_6": 0.800072968006134
	},
	"layer_2": {
		"weight_0": [
			-0.07117413729429245,
			0.0,
			0.022258024662733078,
			-0.03911447525024414,
			-0.003145642811432481,
			-0.046594131737947464,
			0.09242063015699387,
			-0.04111362248659134
		],
		"weight_1": [
			[
				-0.10426940768957138,
				0.23153209686279297,
				0.48945802450180054,
				-0.09793248772621155,
				0.45109403133392334,
				0.3603488802909851,
				-0.36517655849456787,
				0.16193322837352753
			],
			[
				-0.37295225262641907,
				-0.03984701633453369,
				0.21074244379997253,
				-0.2734842300415039,
				0.396088570356369,
				0.2763078212738037,
				-0.3016723692417145,
				-0.0607452318072319
			],
			[
				0.10526205599308014,
				0.34129416942596436,
				-0.4147258698940277,
				0.17279745638370514,
				-0.04690193757414818,
				0.36757969856262207,
				-0.1834290325641632,
				0.04813595488667488
			],
			[
				0.02629927173256874,
				-0.22151529788970947,
				-0.03587064892053604,
				-0.09931202977895737,
				-0.25779151916503906,
				-0.07262852787971497,
				-0.1767117977142334,
				0.4109826982021332
			],
			[
				-0.3956681489944458,
				-0.4274696111679077,
				-0.4089694023132324,
				0.4719308614730835,
				0.019454240798950195,
				0.4798569679260254,
				-0.02757740020751953,
				0.11020553112030029
			],
			[
				-0.10279207676649094,
				-0.47429120540618896,
				0.00876533892005682,
				-0.04543168842792511,
				0.36088594794273376,
				-0.009056484326720238,
				0.5469366908073425,
				-0.23665407299995422
			],
			[
				-0.0855192169547081,
				0.09545421600341797,
				0.3242885172367096,
				-0.32814350724220276,
				0.033532168716192245,
				0.32545363903045654,
				0.11130665242671967,
				-0.05307355523109436
			],
			[
				-0.4765094518661499,
				0.0018857717514038086,
				0.1985304206609726,
				-0.005113378632813692,
				0.09643387794494629,
				-0.37634599208831787,
				-0.23356270790100098,
				-0.12150633335113525
			],
			[
				-0.09881985187530518,
				0.20397603511810303,
				0.3207521438598633,
				0.13978850841522217,
				-0.3013097047805786,
				0.18701183795928955,
				0.4457131624221802,
				-0.008723735809326172
			],
			[
				0.28422677516937256,
				-0.04071831703186035,
				0.06765293329954147,
				0.18025009334087372,
				-0.460898756980896,
				0.3247777819633484,
				0.00884426198899746,
				0.3672530949115753
			],
			[
				0.3081202507019043,
				-0.08342981338500977,
				0.017890889197587967,
				0.17100615799427032,
				0.1848692148923874,
				-0.07948977500200272,
				0.5260089635848999,
				-0.446973979473114
			],
			[
				-0.31000012159347534,
				0.0540165901184082,
				-0.36111006140708923,
				0.06539177894592285,
				0.47751280665397644,
				-0.28667497634887695,
				0.37814486026763916,
				-0.27015015482902527
			],
			[
				0.3139307200908661,
				-0.2595505714416504,
				0.198444664478302,
				0.24815043807029724,
				0.12870244681835175,
				-0.3803558945655823,
				-0.18050749599933624,
				0.36129528284072876
			],
			[
				0.318043977022171,
				0.3177659511566162,
				-0.10115746408700943,
				0.3422398865222931,
				-0.42752692103385925,
				-0.19511844217777252,
				0.39352771639823914,
				0.39622682332992554
			],
			[
				0.40221095085144043,
				-0.48107683658599854,
				0.2638843357563019,
				-0.4900805652141571,
				0.09361547231674194,
				0.11341628432273865,
				-0.2396826148033142,
				-0.21561743319034576
			],
			[
				0.1843673586845398,
				-0.33928096294403076,
				0.14298762381076813,
				0.4574723541736603,
				-0.03588266670703888,
				-0.2463175654411316,
				-0.08182688057422638,
				-0.533936083316803
			]
		],
		"weight_2": -1,
		"weight_3": -0.5469366908073425,
		"weight_4": 0.5469366908073425,
		"weight_5": -1.0344233678196528e-30,
		"weight_6": 0.6843295097351074
	},
	"layer_3": {
		"weight_0": [
			-0.04355977475643158,
			-0.06337349116802216,
			-0.0800335481762886,
			-0.04223165661096573
		],
		"weight_1": [
			[
				0.07943017035722733,
				0.08955090492963791,
				0.48159053921699524,
				0.12747769057750702
			],
			[
				0.6589205861091614,
				0.029583394527435303,
				0.40875309705734253,
				0.33815497159957886
			],
			[
				-0.40524765849113464,
				-0.20965684950351715,
				-0.2117019146680832,
				0.47872260212898254
			],
			[
				0.5642776489257812,
				0.4333692193031311,
				-0.3897905945777893,
				0.49126896262168884
			],
			[
				-0.5098236799240112,
				-0.19157452881336212,
				0.5596511363983154,
				-0.6966965794563293
			],
			[
				-0.2728002369403839,
				0.3735048174858093,
				-0.1785760074853897,
				-0.2569735646247864
			],
			[
				0.5738130211830139,
				-0.017138727009296417,
				-0.32251492142677307,
				-0.621961236000061
			],
			[
				0.022657252848148346,
				0.6344178915023804,
				-0.6042191386222839,
				0.12701016664505005
			]
		],
		"weight_2": -1,
		"weight_3": -0.6966965794563293,
		"weight_4": 0.6966965794563293,
		"weight_5": -1.0344233678196528e-30,
		"weight_6": 1.0352516681590163e-30
	},
	"layer_4": {
		"weight_0": [
			57.2543830871582
		],
		"weight_1": [
			[
				-0.3041185736656189
			],
			[
				-0.9674022793769836
			],
			[
				-0.3089676797389984
			],
			[
				-0.8889017105102539
			]
		],
		"weight_2": -1,
		"weight_3": -0.9674022793769836,
		"weight_4": 0.9674022793769836,
		"weight_5": -1.0344233678196528e-30,
		"weight_6": 57.252479553222656
	}
}