{
	"layer_0": {
		"weight_0": [
			[
				0.019710812717676163,
				0.8622684478759766,
				0.8553644418716431,
				-0.40303340554237366,
				0.584409236907959,
				-0.12808236479759216,
				0.8311994075775146,
				-0.4753446578979492,
				0.067662812769413,
				-0.33143365383148193,
				0.8864688277244568,
				-0.6645424962043762,
				0.4946039319038391,
				-0.032955996692180634,
				-0.07473771274089813,
				0.5378574132919312
			],
			[
				1.0070018768310547,
				-0.1323767900466919,
				-0.0824635773897171,
				-0.426797479391098,
				0.4720228612422943,
				-0.4384259581565857,
				0.9081995487213135,
				-0.546282947063446,
				0.7682262063026428,
				-0.20775091648101807,
				0.6407462954521179,
				0.12432286888360977,
				0.7130231261253357,
				0.11826319992542267,
				0.7788034677505493,
				0.08198666572570801
			]
		],
		"weight_1": [
			0.47932085394859314,
			0.31344103813171387,
			0.3755011558532715,
			0.0,
			0.4673912525177002,
			0.0,
			0.4780915379524231,
			0.0,
			0.48781728744506836,
			0.0,
			0.46059906482696533,
			0.009099151939153671,
			0.4691036343574524,
			-0.12004784494638443,
			0.47616949677467346,
			0.4802669882774353
		]
	},
	"layer_1": {},
	"layer_2": {
		"weight_0": [
			[
				-0.4908297061920166,
				0.7200100421905518,
				-0.324497252702713,
				0.2594470977783203,
				0.6832534074783325,
				0.2657355070114136,
				-0.1293061524629593,
				0.3626745045185089
			],
			[
				0.35146617889404297,
				0.6846286654472351,
				0.17003309726715088,
				-0.029879692941904068,
				0.4214019477367401,
				-0.4864903688430786,
				0.058141451328992844,
				0.05346143618226051
			],
			[
				-0.41790223121643066,
				0.7979404926300049,
				-0.08164483308792114,
				0.039874326437711716,
				0.005102102644741535,
				0.26437973976135254,
				0.46186327934265137,
				0.44482243061065674
			],
			[
				-0.14513623714447021,
				0.06919538974761963,
				0.01962876319885254,
				-0.1295027732849121,
				0.16184210777282715,
				0.019826531410217285,
				0.16565263271331787,
				0.20065701007843018
			],
			[
				0.46646392345428467,
				0.6035568118095398,
				-0.2813328504562378,
				-0.03192300349473953,
				0.9300752878189087,
				-0.22427475452423096,
				0.5667747259140015,
				0.5717139840126038
			],
			[
				0.45286285877227783,
				0.26847267150878906,
				-0.39497947692871094,
				0.47803032398223877,
				0.15176117420196533,
				-0.3773151636123657,
				-0.47135674953460693,
				0.47868382930755615
			],
			[
				-0.30552446842193604,
				0.8450708389282227,
				0.057677365839481354,
				0.14783550798892975,
				0.6111230850219727,
				-0.3281139135360718,
				-0.14244289696216583,
				0.7499825358390808
			],
			[
				-0.0622788667678833,
				0.4504505395889282,
				-0.3295243978500366,
				0.036634206771850586,
				-0.49521076679229736,
				0.27518606185913086,
				-0.22285699844360352,
				-0.21779310703277588
			],
			[
				-0.16367292404174805,
				0.504696786403656,
				-0.1847594678401947,
				0.44215282797813416,
				0.3738320767879486,
				-0.022945165634155273,
				0.1530078500509262,
				0.8154772520065308
			],
			[
				-0.33743977546691895,
				-0.46095335483551025,
				-0.1461048126220703,
				0.16276347637176514,
				-0.1914736032485962,
				0.41099119186401367,
				-0.03924059867858887,
				0.31511127948760986
			],
			[
				-0.06635439395904541,
				0.23246261477470398,
				0.4814116656780243,
				0.21267610788345337,
				0.7570279240608215,
				-0.15690577030181885,
				0.49333569407463074,
				0.7194218039512634
			],
			[
				0.15000295639038086,
				-0.4808046221733093,
				-0.3845709562301636,
				-0.3520507216453552,
				-0.21230418980121613,
				-0.1842130422592163,
				0.2664051651954651,
				0.07120423018932343
			],
			[
				-0.3367968797683716,
				0.978034496307373,
				-0.014562814496457577,
				-0.10529827326536179,
				0.8920455574989319,
				-0.44554996490478516,
				0.35170719027519226,
				0.45247742533683777
			],
			[
				-0.2803797721862793,
				-0.40637630224227905,
				0.227580264210701,
				-0.3911861777305603,
				-0.34329289197921753,
				-0.3575533628463745,
				-0.22368350625038147,
				0.5355297327041626
			],
			[
				0.06964111328125,
				0.4898124933242798,
				0.42540913820266724,
				-0.28441837430000305,
				0.7539386749267578,
				-0.4692875146865845,
				0.07713975757360458,
				0.5540416240692139
			],
			[
				-0.19851219654083252,
				0.5141016840934753,
				0.18256869912147522,
				0.23690222203731537,
				0.4806714355945587,
				0.45089948177337646,
				0.38105010986328125,
				0.290394127368927
			]
		],
		"weight_1": [
			0.0,
			0.4703569710254669,
			0.18273231387138367,
			0.1328783631324768,
			0.45719388127326965,
			0.0,
			0.19235126674175262,
			0.46930497884750366
		]
	},
	"layer_3": {},
	"layer_4": {
		"weight_0": [
			[
				-0.1976720690727234,
				-0.2995401620864868,
				-0.49274301528930664,
				0.23391902446746826
			],
			[
				-0.4057748317718506,
				0.4816613793373108,
				0.4981050193309784,
				0.7091430425643921
			],
			[
				0.46451646089553833,
				0.5063017010688782,
				0.396960586309433,
				-0.10589222609996796
			],
			[
				0.6988057494163513,
				0.21570535004138947,
				0.6785145998001099,
				-0.16179540753364563
			],
			[
				-0.22579652070999146,
				0.49409356713294983,
				0.6895797848701477,
				0.5448055267333984
			],
			[
				0.6788038611412048,
				-0.13810545206069946,
				0.46170753240585327,
				0.07380586862564087
			],
			[
				0.20522528886795044,
				0.1400993913412094,
				0.6628533005714417,
				-0.041980668902397156
			],
			[
				-0.6788579225540161,
				1.0217900276184082,
				0.364093542098999,
				0.6669486165046692
			]
		],
		"weight_1": [
			0.0,
			0.356175035238266,
			0.3333492577075958,
			0.2869260907173157
		]
	},
	"layer_5": {},
	"layer_6": {
		"weight_0": [
			[
				-1.0614444017410278
			],
			[
				2.519127368927002
			],
			[
				3.1928200721740723
			],
			[
				2.2262070178985596
			]
		],
		"weight_1": [
			2.3097071647644043
		]
	}
}