{
	"layer_0": {
		"weight_0": [
			[
				0.6432223320007324,
				-0.709711492061615,
				-0.23186635971069336,
				1.1458313465118408,
				1.7018784284591675,
				0.2059178203344345,
				3.9871487617492676,
				0.14780952036380768,
				0.5425228476524353,
				-0.11853557825088501,
				0.9322463274002075,
				0.2584335207939148,
				0.03702114149928093,
				0.4032089412212372,
				1.3238343000411987,
				-0.030909836292266846
			],
			[
				-4.308498382568359,
				-1.1645573377609253,
				3.5063257217407227,
				-0.8015071749687195,
				2.0740702152252197,
				-0.28121238946914673,
				-0.288828045129776,
				-0.19660978019237518,
				-1.8235032558441162,
				-0.3674115240573883,
				-3.435861587524414,
				-0.6060076951980591,
				-0.0634942576289177,
				4.165587902069092,
				-1.88356614112854,
				-0.24062734842300415
			]
		],
		"weight_1": [
			0.750299334526062,
			1.5888854265213013,
			0.4653536379337311,
			0.7847198843955994,
			1.0655702352523804,
			-0.16999608278274536,
			0.37200525403022766,
			-0.12137244641780853,
			0.6608716249465942,
			0.0,
			0.7594207525253296,
			-0.18133175373077393,
			-0.029175441712141037,
			0.8882960677146912,
			0.6762307286262512,
			0.0
		]
	},
	"layer_1": {},
	"layer_2": {
		"weight_0": [
			[
				-0.35632508993148804,
				0.3477455675601959,
				-0.8218370676040649,
				0.14104366302490234,
				1.932355523109436,
				-0.7210239768028259,
				1.0118389129638672,
				2.6502764225006104
			],
			[
				-0.3740397095680237,
				0.9428989887237549,
				0.4705885946750641,
				1.087893009185791,
				0.9566887617111206,
				-0.19719044864177704,
				0.7181110382080078,
				1.486541509628296
			],
			[
				-0.28166699409484863,
				0.1897820681333542,
				-0.29478535056114197,
				0.49018630385398865,
				-2.5982348918914795,
				0.9463874101638794,
				-2.7997026443481445,
				-1.0582754611968994
			],
			[
				0.11320799589157104,
				-0.9098153114318848,
				0.06731318682432175,
				-0.2731614112854004,
				1.3782072067260742,
				-0.5683426856994629,
				0.8275991082191467,
				1.6513315439224243
			],
			[
				-0.3031960427761078,
				-0.155466690659523,
				-0.20286498963832855,
				-0.6113159656524658,
				-0.9589396119117737,
				0.47562116384506226,
				-0.8220971822738647,
				0.4817928969860077
			],
			[
				0.13136117160320282,
				0.3969770669937134,
				-0.285487562417984,
				-0.421657919883728,
				0.12411656975746155,
				-0.4433281421661377,
				-0.06500068306922913,
				-0.35680708289146423
			],
			[
				0.13729220628738403,
				-2.24859619140625,
				0.06650114804506302,
				-0.8860015273094177,
				0.20234176516532898,
				-0.16305828094482422,
				0.18060801923274994,
				0.12542395293712616
			],
			[
				-0.3167067766189575,
				0.2516326904296875,
				-0.47200408577919006,
				0.3141005039215088,
				-0.14094847440719604,
				-0.16450250148773193,
				0.19791142642498016,
				-0.2242232710123062
			],
			[
				0.3033905029296875,
				0.3792675733566284,
				-0.42639487981796265,
				0.1766034960746765,
				0.668206512928009,
				0.06601934134960175,
				0.30138927698135376,
				1.2634966373443604
			],
			[
				-0.36801302433013916,
				0.41147589683532715,
				0.03879725933074951,
				-0.1864694356918335,
				0.13211989402770996,
				-0.35261785984039307,
				0.1772470474243164,
				0.18067920207977295
			],
			[
				-0.46756649017333984,
				0.2507747709751129,
				-0.560217559337616,
				-0.06709250062704086,
				1.0951322317123413,
				-0.6741319894790649,
				0.7696701288223267,
				2.157388210296631
			],
			[
				0.04963100329041481,
				-0.2182621955871582,
				0.09549784660339355,
				-0.13325345516204834,
				0.0351579450070858,
				-0.30357587337493896,
				-0.2888372838497162,
				0.18194463849067688
			],
			[
				-0.06549667567014694,
				-0.40876686573028564,
				-0.3888981342315674,
				-0.3886117935180664,
				-0.42068782448768616,
				0.25338995456695557,
				0.2823597192764282,
				-0.14036783576011658
			],
			[
				-0.48250865936279297,
				-0.25774040818214417,
				0.26534339785575867,
				0.341884583234787,
				-1.3898193836212158,
				0.6339695453643799,
				-1.5931627750396729,
				0.17327705025672913
			],
			[
				-0.014108999632298946,
				-0.18928293883800507,
				-0.2221120446920395,
				0.15252265334129333,
				0.8771358132362366,
				-0.06104274094104767,
				1.4097647666931152,
				1.6793426275253296
			],
			[
				-0.04769241809844971,
				0.24200832843780518,
				-0.25337183475494385,
				0.26893889904022217,
				0.3210320472717285,
				0.1628110408782959,
				-0.06601130962371826,
				-0.2820422649383545
			]
		],
		"weight_1": [
			-0.027273530140519142,
			0.9182174801826477,
			-0.0026032866444438696,
			1.2186616659164429,
			0.7819727063179016,
			0.14260049164295197,
			0.2631845772266388,
			1.160066843032837
		]
	},
	"layer_3": {},
	"layer_4": {
		"weight_0": [
			[
				-0.0077239335514605045,
				0.3654234707355499,
				-0.4948846101760864,
				0.5679044127464294
			],
			[
				-3.442101240158081,
				-3.8163881301879883,
				1.9218368530273438,
				3.364535331726074
			],
			[
				0.6789278388023376,
				0.2893272936344147,
				0.634137749671936,
				-0.675830066204071
			],
			[
				-0.6076806783676147,
				-1.7849340438842773,
				0.5364089012145996,
				2.795783042907715
			],
			[
				2.330570936203003,
				1.8550605773925781,
				-0.43166112899780273,
				-0.1738254576921463
			],
			[
				0.5402940511703491,
				0.8124905824661255,
				-2.3925492763519287,
				-0.8696339130401611
			],
			[
				2.9808766841888428,
				2.633373975753784,
				-1.8105902671813965,
				-1.5143282413482666
			],
			[
				1.8892863988876343,
				1.4803673028945923,
				0.26373231410980225,
				-0.18739545345306396
			]
		],
		"weight_1": [
			0.9820218086242676,
			0.9825750589370728,
			-0.5489572882652283,
			-0.1759268343448639
		]
	},
	"layer_5": {},
	"layer_6": {
		"weight_0": [
			[
				2.420609712600708
			],
			[
				2.4842307567596436
			],
			[
				-5.063310623168945
			],
			[
				-4.330008029937744
			]
		],
		"weight_1": [
			0.9798089265823364
		]
	}
}