{
	"layer_0": {
		"weight_0": [
			[
				-0.7289556264877319,
				-0.6929635405540466,
				-0.20830821990966797,
				11.56971263885498,
				-0.47348830103874207,
				0.3883240520954132,
				-0.42013078927993774,
				0.6640203595161438,
				4.441257476806641,
				2.360633373260498,
				-0.24927636981010437,
				0.9213104844093323,
				-0.3671647012233734,
				-0.4918280839920044
			],
			[
				0.2768235206604004,
				-1.846821904182434,
				0.10891275107860565,
				-0.5764182209968567,
				-0.5714530348777771,
				-2.2858502864837646,
				-0.2720925211906433,
				-4.965202331542969,
				-18.18267250061035,
				-0.15150731801986694,
				-0.19191491603851318,
				-7.571325778961182,
				-0.01095038652420044,
				-0.25943803787231445
			]
		],
		"weight_1": [
			-0.2825227677822113,
			2.4746153354644775,
			-0.11115284264087677,
			1.0748695135116577,
			0.0,
			1.0514849424362183,
			0.0,
			1.10093355178833,
			0.8781778216362,
			0.4624370336532593,
			0.0,
			0.6796320676803589,
			0.0,
			0.0
		]
	},
	"layer_1": {},
	"layer_2": {},
	"layer_3": {},
	"layer_4": {
		"weight_0": [
			[
				-1.5453784465789795,
				-0.41664373874664307,
				-0.08565985411405563,
				2.0450263023376465,
				-0.6259117722511292,
				-0.23300375044345856,
				-0.03653581812977791,
				-0.3153953552246094,
				-1.8855574131011963,
				-1.2566865682601929,
				1.2010724544525146,
				-0.36589622497558594,
				-0.18036983907222748,
				-0.5431942343711853
			],
			[
				1.7945305109024048,
				-0.12554630637168884,
				0.4354102909564972,
				-4.905330181121826,
				1.377393126487732,
				1.3195528984069824,
				0.6505229473114014,
				1.2444833517074585,
				0.8788803219795227,
				2.138425827026367,
				0.34245553612709045,
				-0.3414868712425232,
				1.265893578529358,
				1.2931684255599976
			],
			[
				-1.4157556295394897,
				-0.4526945948600769,
				0.91423100233078,
				0.6845083236694336,
				1.0221120119094849,
				0.09025508165359497,
				0.4706680178642273,
				0.38337504863739014,
				-1.5309951305389404,
				0.2503390908241272,
				0.002065211534500122,
				0.3963916301727295,
				0.3978225886821747,
				0.6112459897994995
			],
			[
				-1.6810030937194824,
				0.4809812605381012,
				0.8863570094108582,
				0.966439962387085,
				0.5370469093322754,
				0.9830268621444702,
				0.6858130097389221,
				0.41026005148887634,
				-0.3268475830554962,
				-0.718048095703125,
				-0.4017927348613739,
				0.409393310546875,
				0.3443230390548706,
				0.15174640715122223
			],
			[
				1.842486023902893,
				0.1419685035943985,
				4.153581142425537,
				-2.4628379344940186,
				3.584528684616089,
				3.8961575031280518,
				3.8492026329040527,
				4.034743785858154,
				1.284317135810852,
				0.795085608959198,
				-3.1897664070129395,
				-0.1412096619606018,
				3.669981002807617,
				3.628633975982666
			],
			[
				0.8482683300971985,
				0.30115607380867004,
				2.673354148864746,
				3.3012843132019043,
				2.6104018688201904,
				1.8904000520706177,
				2.7458200454711914,
				2.2560505867004395,
				2.2443439960479736,
				-0.9173070192337036,
				-1.4485701322555542,
				-0.08299702405929565,
				1.912782073020935,
				2.6310646533966064
			],
			[
				0.5328791737556458,
				-0.40471529960632324,
				-0.12933319807052612,
				-0.1964564025402069,
				-0.42338821291923523,
				0.15360313653945923,
				0.4913380742073059,
				-0.01859492063522339,
				0.48037582635879517,
				0.40902799367904663,
				0.3538009524345398,
				-0.19971200823783875,
				-0.3258957862854004,
				-0.13232436776161194
			]
		],
		"weight_1": [
			-1.0776983499526978,
			-0.1059742420911789,
			-0.6373008489608765,
			2.103100061416626,
			-0.6386020183563232,
			-0.6360570192337036,
			-0.6335527300834656,
			-0.6251177191734314,
			-1.237941026687622,
			0.10189932584762573,
			1.6297547817230225,
			-0.006324549205601215,
			-0.6396471261978149,
			-0.630066454410553
		]
	},
	"layer_5": {
		"weight_0": [
			[
				-5.282716274261475
			],
			[
				-0.34349507093429565
			],
			[
				2.330580711364746
			],
			[
				-9.03518295288086
			],
			[
				2.3223609924316406
			],
			[
				1.9644215106964111
			],
			[
				2.646090030670166
			],
			[
				2.160975933074951
			],
			[
				-3.488341808319092
			],
			[
				-4.449894428253174
			],
			[
				-5.218633651733398
			],
			[
				0.5275940299034119
			],
			[
				2.2961044311523438
			],
			[
				2.352588415145874
			]
		],
		"weight_1": [
			-0.6135001182556152
		]
	}
}