{
	"layer_0": {
		"weight_0": [
			[
				1.6339651346206665,
				0.19350573420524597,
				7.577579498291016,
				-0.35922253131866455,
				1.0175193548202515,
				0.9178634285926819,
				8.375249862670898,
				7.679505348205566,
				0.5384809970855713,
				0.6794151067733765,
				2.14396071434021,
				0.7598614692687988,
				-0.0879669189453125,
				2.6884844303131104
			],
			[
				-15.52196979522705,
				-0.5391291975975037,
				0.5151920914649963,
				-0.5683331489562988,
				-0.7249622344970703,
				-10.574012756347656,
				-0.13149866461753845,
				-0.13336053490638733,
				-3.0148046016693115,
				-6.111905574798584,
				-0.9176537394523621,
				-2.6312596797943115,
				-0.4934934973716736,
				-0.09932569414377213
			]
		],
		"weight_1": [
			0.3374353051185608,
			-0.12116370350122452,
			0.0024377016816288233,
			0.0,
			0.15412668883800507,
			0.7931233644485474,
			0.12908926606178284,
			0.13092181086540222,
			0.7348586320877075,
			0.8844116926193237,
			0.5406963229179382,
			1.060044288635254,
			0.0,
			-1.2683075666427612
		]
	},
	"layer_1": {},
	"layer_2": {},
	"layer_3": {},
	"layer_4": {
		"weight_0": [
			[
				-0.4213820695877075,
				8.356109619140625,
				8.079505920410156,
				-7.567166328430176,
				8.00830364227295,
				11.566415786743164,
				8.132356643676758,
				8.533571243286133,
				8.596616744995117,
				8.256085395812988,
				0.06729435175657272,
				7.988140106201172,
				5.448078632354736,
				0.33659154176712036
			],
			[
				-1.0738945007324219,
				0.46690964698791504,
				1.226147174835205,
				1.041284203529358,
				0.8527207970619202,
				1.6715039014816284,
				0.8971211910247803,
				0.9455316066741943,
				1.3203822374343872,
				1.483726143836975,
				-9.185171127319336,
				1.1474025249481201,
				2.0766441822052,
				1.3202898502349854
			],
			[
				0.00450919521972537,
				2.773470640182495,
				2.7929821014404297,
				-1.0458424091339111,
				3.098094940185547,
				0.06639451533555984,
				2.6571264266967773,
				3.1417078971862793,
				2.543367385864258,
				2.184051990509033,
				3.199723958969116,
				3.1699271202087402,
				0.2991868853569031,
				-4.973897457122803
			],
			[
				0.2911761403083801,
				1.4198464155197144,
				1.2077077627182007,
				0.9171631336212158,
				0.9181914925575256,
				1.5272455215454102,
				0.5102818608283997,
				0.7731172442436218,
				1.07302987575531,
				1.06122624874115,
				-9.331503868103027,
				1.319888710975647,
				1.676885724067688,
				-0.6776944398880005
			],
			[
				-1.4728062152862549,
				2.367058753967285,
				2.232102870941162,
				0.004731790162622929,
				1.8305526971817017,
				-0.25867876410484314,
				2.460171937942505,
				2.036816358566284,
				2.182377815246582,
				1.673473596572876,
				3.446636438369751,
				2.3117527961730957,
				-2.0031139850616455,
				0.25292283296585083
			],
			[
				-0.6596954464912415,
				1.1786669492721558,
				1.0821318626403809,
				0.8972827792167664,
				1.253872275352478,
				-1.7844244241714478,
				0.6922196745872498,
				0.775894284248352,
				0.34946003556251526,
				1.093814730644226,
				2.067340612411499,
				0.7794027924537659,
				-1.3727564811706543,
				-2.6005265712738037
			],
			[
				-18.216581344604492,
				-0.49204498529434204,
				-1.0233980417251587,
				1.7201429605484009,
				-0.4584333896636963,
				1.8368220329284668,
				-1.2969117164611816,
				-1.077942132949829,
				-0.9016464352607727,
				-0.4076462388038635,
				-1.4540297985076904,
				-1.2001782655715942,
				1.718134880065918,
				-0.06687743216753006
			]
		],
		"weight_1": [
			1.4095852375030518,
			-0.04013187438249588,
			-0.09646648168563843,
			0.705133855342865,
			-0.02314145117998123,
			-2.9496374130249023,
			-0.22361955046653748,
			-0.045809999108314514,
			-0.028168167918920517,
			-0.027355093508958817,
			2.622342348098755,
			-0.02977008931338787,
			-1.3541016578674316,
			0.6991068720817566
		]
	},
	"layer_5": {
		"weight_0": [
			[
				8.818552017211914
			],
			[
				2.5858402252197266
			],
			[
				2.1070353984832764
			],
			[
				-3.91213059425354
			],
			[
				2.3855600357055664
			],
			[
				-4.957699298858643
			],
			[
				2.4668314456939697
			],
			[
				2.7263784408569336
			],
			[
				2.635854721069336
			],
			[
				2.0061352252960205
			],
			[
				-6.073192119598389
			],
			[
				2.8719685077667236
			],
			[
				-3.526987075805664
			],
			[
				-5.119179725646973
			]
		],
		"weight_1": [
			-0.031415797770023346
		]
	}
}