{
	"layer_0": {
		"weight_0": [
			[
				-0.48232194781303406,
				5.309881210327148,
				0.04447005316615105,
				0.07118319720029831,
				0.3300381004810333,
				-0.6374534368515015,
				1.9810099601745605,
				4.712453365325928,
				1.8243170976638794,
				-0.26563358306884766,
				-0.525738537311554,
				0.15559904277324677,
				-2.674903392791748,
				0.6630649566650391
			],
			[
				-0.1537131667137146,
				-1.7670432329177856,
				-0.2578945457935333,
				-0.2760906517505646,
				-0.7353403568267822,
				2.8892107009887695,
				2.806248426437378,
				-20.106155395507812,
				-3.514793634414673,
				-0.31962093710899353,
				-0.03353071212768555,
				0.10382016003131866,
				1.3611640930175781,
				-3.788276433944702
			]
		],
		"weight_1": [
			0.0,
			0.23794066905975342,
			-0.015562716871500015,
			-0.03932160884141922,
			-0.2364996373653412,
			1.1165715456008911,
			1.9239858388900757,
			2.6817526817321777,
			1.4551335573196411,
			0.0,
			0.0,
			-0.2664351761341095,
			0.16469112038612366,
			1.0110644102096558
		]
	},
	"layer_1": {},
	"layer_2": {},
	"layer_3": {},
	"layer_4": {
		"weight_0": [
			[
				-0.509720504283905,
				0.4162864089012146,
				1.4820562601089478,
				1.4912680387496948,
				2.052245616912842,
				-0.6451166272163391
			],
			[
				-0.07750791311264038,
				0.6224132776260376,
				-0.07604283094406128,
				-0.540618360042572,
				-0.24465368688106537,
				-0.6782887578010559
			],
			[
				1.777623176574707,
				1.4219285249710083,
				-0.0952167883515358,
				-3.4398741722106934,
				-3.435837984085083,
				-0.36319178342819214
			],
			[
				-1.163064956665039,
				1.1289869546890259,
				0.7112916707992554,
				2.389861822128296,
				2.6234638690948486,
				-0.43310797214508057
			],
			[
				0.6430225968360901,
				-2.3363442420959473,
				-0.3495638370513916,
				1.6912903785705566,
				0.9446678161621094,
				-0.47668859362602234
			],
			[
				-0.340501070022583,
				-0.07812029123306274,
				-0.03860980272293091,
				0.13860443234443665,
				-0.25110477209091187,
				0.4280639886856079
			],
			[
				0.567022979259491,
				-2.0031633377075195,
				-1.0945916175842285,
				0.38190802931785583,
				0.6730546355247498,
				0.18543100357055664
			]
		],
		"weight_1": [
			1.0583491325378418,
			-1.474440336227417,
			-1.5175968408584595,
			-0.1539134532213211,
			0.2391858547925949,
			0.0
		]
	},
	"layer_5": {
		"weight_0": [
			[
				0.17710278928279877,
				-2.1590921878814697,
				1.618939995765686,
				-0.054073214530944824
			],
			[
				-0.2464592009782791,
				2.03691029548645,
				-0.8655098080635071,
				-0.004410505294799805
			],
			[
				-0.709915816783905,
				-3.6238906383514404,
				4.872917175292969,
				-0.5369648933410645
			],
			[
				-2.6800479888916016,
				2.237241268157959,
				-0.3594588041305542,
				-0.31677839159965515
			],
			[
				-0.729712724685669,
				3.2133564949035645,
				0.03272947669029236,
				-0.7002851366996765
			],
			[
				-0.26487404108047485,
				-0.36434653401374817,
				0.1845199465751648,
				0.5254448652267456
			]
		],
		"weight_1": [
			2.9676663875579834,
			0.2551097571849823,
			1.4634506702423096,
			0.0
		]
	},
	"layer_6": {
		"weight_0": [
			[
				-4.126781463623047
			],
			[
				3.0215930938720703
			],
			[
				-4.540834426879883
			],
			[
				-0.17031550407409668
			]
		],
		"weight_1": [
			0.2707156538963318
		]
	}
}