{
	"layer_0": {
		"weight_0": [
			[
				3.0439891815185547,
				0.19350573420524597,
				11.969222068786621,
				-0.35922253131866455,
				0.795764148235321,
				1.2285335063934326,
				11.493751525878906,
				10.798011779785156,
				0.5309697985649109,
				0.7340090274810791,
				2.173807144165039,
				0.9327566027641296,
				-0.0879669189453125,
				2.600883960723877
			],
			[
				-27.23365020751953,
				-0.5391291975975037,
				0.4558330178260803,
				-0.5683331489562988,
				-0.69574373960495,
				-14.902055740356445,
				-0.16330432891845703,
				-0.1642627716064453,
				-3.3556203842163086,
				-7.126629829406738,
				-1.19461190700531,
				-3.5207011699676514,
				-0.4934934973716736,
				0.21598531305789948
			]
		],
		"weight_1": [
			0.4688296914100647,
			-0.12116370350122452,
			0.054996855556964874,
			0.0,
			0.22825367748737335,
			1.0295531749725342,
			0.15457525849342346,
			0.155474454164505,
			0.8321563005447388,
			1.000017762184143,
			0.7963036298751831,
			1.4445383548736572,
			0.0,
			-1.499100923538208
		]
	},
	"layer_1": {},
	"layer_2": {},
	"layer_3": {},
	"layer_4": {
		"weight_0": [
			[
				-0.4213820695877075,
				7.25954532623291,
				6.982746601104736,
				-0.7610569000244141,
				6.911611557006836,
				9.714694023132324,
				7.03538703918457,
				7.436941623687744,
				7.500185966491699,
				7.159371376037598,
				0.6559344530105591,
				6.8918375968933105,
				10.975774765014648,
				0.33659154176712036
			],
			[
				-1.1422460079193115,
				0.5225698947906494,
				1.2730985879898071,
				1.0198729038238525,
				0.9050736427307129,
				1.1177586317062378,
				0.9631752371788025,
				1.0034043788909912,
				1.3774608373641968,
				1.5290250778198242,
				-13.663839340209961,
				1.2070914506912231,
				2.7753844261169434,
				1.396956443786621
			],
			[
				0.21558360755443573,
				2.467668056488037,
				2.480210065841675,
				-1.349998116493225,
				2.7894744873046875,
				0.9751845002174377,
				2.349397897720337,
				2.837564706802368,
				2.2388834953308105,
				1.8700863122940063,
				6.472672939300537,
				2.8675527572631836,
				0.2786746621131897,
				-4.755893230438232
			],
			[
				0.5463594198226929,
				1.4492683410644531,
				1.2284526824951172,
				0.8995023369789124,
				0.9443144798278809,
				0.9897791743278503,
				0.5352140069007874,
				0.8047521114349365,
				1.1038851737976074,
				1.080278754234314,
				-11.556469917297363,
				1.3533650636672974,
				2.272629499435425,
				-0.8403460383415222
			],
			[
				-0.7710834741592407,
				1.880261778831482,
				1.74176824092865,
				-0.3454599380493164,
				1.3420367240905762,
				0.0362749807536602,
				1.971270203590393,
				1.5505859851837158,
				1.6965745687484741,
				1.1827634572982788,
				4.490288257598877,
				1.8269942998886108,
				-3.4861879348754883,
				0.25292283296585083
			],
			[
				-0.30715373158454895,
				0.4872182011604309,
				0.3826054334640503,
				0.6242997050285339,
				0.5591851472854614,
				-2.4709503650665283,
				-0.001229786779731512,
				0.08635645359754562,
				-0.3404906690120697,
				0.3928808271884918,
				1.1775996685028076,
				0.09186594933271408,
				-2.4051735401153564,
				-1.7343637943267822
			],
			[
				-33.96431350708008,
				-0.12728269398212433,
				-0.6670549511909485,
				1.2954882383346558,
				-0.09682399034500122,
				1.4144182205200195,
				-0.9339140057563782,
				-0.7109893560409546,
				-0.5355594754219055,
				-0.052967775613069534,
				-1.4540297985076904,
				-0.8315531015396118,
				1.2944953441619873,
				-0.06687743216753006
			]
		],
		"weight_1": [
			0.767477810382843,
			-0.10929035395383835,
			-0.17386658489704132,
			-0.2962852120399475,
			-0.09556998312473297,
			-2.8966262340545654,
			-0.2533029317855835,
			-0.11299813538789749,
			-0.09585897624492645,
			-0.1062314435839653,
			3.466730833053589,
			-0.09498324990272522,
			-2.0038750171661377,
			0.5947548151016235
		]
	},
	"layer_5": {
		"weight_0": [
			[
				8.673470497131348
			],
			[
				2.45501446723938
			],
			[
				1.998108983039856
			],
			[
				-3.992398500442505
			],
			[
				2.2456061840057373
			],
			[
				-3.9484989643096924
			],
			[
				2.2935986518859863
			],
			[
				2.6082897186279297
			],
			[
				2.5911285877227783
			],
			[
				1.9547715187072754
			],
			[
				-4.097109317779541
			],
			[
				2.766812562942505
			],
			[
				-4.452939510345459
			],
			[
				-4.521265983581543
			]
		],
		"weight_1": [
			-0.06412001699209213
		]
	}
}