{
	"layer_0": {
		"weight_0": [
			[
				1.5748927593231201,
				0.7968611121177673,
				1.3767908811569214,
				1.2374886274337769,
				-0.5367723703384399,
				-0.5729999542236328,
				1.0708445310592651,
				1.3901653289794922,
				-0.27938711643218994,
				-0.39035022258758545,
				-0.002004086971282959,
				-0.5568998456001282,
				1.1922614574432373,
				0.7394799590110779,
				1.7005062103271484,
				1.3378819227218628
			],
			[
				-0.5080776810646057,
				-2.4693853855133057,
				-6.510145664215088,
				-0.446198970079422,
				-0.36518046259880066,
				-0.4240163564682007,
				-0.32607096433639526,
				-4.676793098449707,
				-0.3669034540653229,
				-0.024273395538330078,
				-0.2978363633155823,
				-0.3806256055831909,
				-10.238814353942871,
				-5.422036647796631,
				-0.28126639127731323,
				-3.5233500003814697
			]
		],
		"weight_1": [
			0.6610110998153687,
			1.5037140846252441,
			0.9214380979537964,
			0.6263904571533203,
			0.0,
			0.0,
			0.5583762526512146,
			1.0620535612106323,
			0.0,
			0.0,
			0.0,
			0.0,
			0.2795029580593109,
			0.3703455626964569,
			0.5705706477165222,
			1.3189375400543213
		]
	},
	"layer_1": {},
	"layer_2": {},
	"layer_3": {},
	"layer_4": {
		"weight_0": [
			[
				-0.31496548652648926,
				-0.10610318183898926,
				0.849750816822052,
				0.3834313154220581,
				0.4069378972053528,
				1.638215184211731,
				0.22643470764160156,
				1.6079716682434082,
				1.2622768878936768,
				1.065912127494812,
				1.1873066425323486,
				-0.31128227710723877,
				1.5833015441894531,
				1.1655023097991943,
				-0.39506757259368896,
				0.9299080967903137
			],
			[
				-0.3075448274612427,
				-0.44430243968963623,
				-0.1443968117237091,
				-0.3274618983268738,
				-0.3672316074371338,
				2.0751287937164307,
				0.01255190372467041,
				1.8233654499053955,
				1.5407910346984863,
				1.9949735403060913,
				1.916714072227478,
				0.22905683517456055,
				2.169025182723999,
				2.460066556930542,
				-0.09587442874908447,
				-0.5001257658004761
			],
			[
				0.19671916961669922,
				0.2579866647720337,
				0.4051395654678345,
				0.1789015531539917,
				-0.00865936279296875,
				0.3720409870147705,
				-0.059913039207458496,
				-0.40241312980651855,
				-0.44914746284484863,
				0.027524471282958984,
				-0.4937474727630615,
				0.40325307846069336,
				-0.4307427406311035,
				-0.25172507762908936,
				-0.22268450260162354,
				0.2532520294189453
			],
			[
				0.17193496227264404,
				0.045043110847473145,
				-0.1434430330991745,
				-0.007741304114460945,
				-0.4603399634361267,
				1.7583659887313843,
				-0.4970123767852783,
				1.8564492464065552,
				1.8025025129318237,
				1.4462933540344238,
				1.6073191165924072,
				-0.07000613212585449,
				1.940895676612854,
				1.453658938407898,
				-0.11549031734466553,
				0.6475961804389954
			],
			[
				-0.18934428691864014,
				-0.19206440448760986,
				0.3796497583389282,
				-0.10147511959075928,
				-0.39082443714141846,
				-0.2519148588180542,
				-0.3789193630218506,
				-0.1682262420654297,
				-0.2813851833343506,
				-0.1868884563446045,
				0.1869724988937378,
				0.25967180728912354,
				-0.07780539989471436,
				0.19941401481628418,
				-0.47758591175079346,
				0.1878737211227417
			],
			[
				0.37543177604675293,
				0.2771385908126831,
				0.15173184871673584,
				0.4822688102722168,
				0.27366745471954346,
				-0.1754668951034546,
				0.22866010665893555,
				0.05114114284515381,
				0.47323131561279297,
				0.04915177822113037,
				-0.03122246265411377,
				0.38047361373901367,
				-0.008981108665466309,
				0.31101715564727783,
				-0.054941654205322266,
				-0.015660405158996582
			],
			[
				-0.12824738025665283,
				-0.12051355838775635,
				-5.606143474578857,
				-0.09704434871673584,
				0.23025882244110107,
				6.613353729248047,
				-0.08216273784637451,
				6.929141044616699,
				6.520813465118408,
				7.276666641235352,
				6.75510835647583,
				-0.11545050144195557,
				6.422900676727295,
				7.28540563583374,
				-0.09797537326812744,
				-5.487340450286865
			],
			[
				-0.4456326961517334,
				-0.2640925645828247,
				0.7541399598121643,
				-0.4966805577278137,
				-0.12322460860013962,
				1.3507987260818481,
				-0.4616955518722534,
				1.553816318511963,
				1.2612383365631104,
				1.1842561960220337,
				1.5041308403015137,
				-0.49691343307495117,
				0.7286841869354248,
				1.5002131462097168,
				-0.06143367290496826,
				0.2910151779651642
			]
		],
		"weight_1": [
			0.0,
			0.0,
			0.6385293006896973,
			-0.018973616883158684,
			-0.04825253412127495,
			0.5775467753410339,
			0.0,
			0.5815194249153137,
			0.5902650356292725,
			0.5892121195793152,
			0.5790645480155945,
			0.0,
			0.5865286588668823,
			0.5982051491737366,
			0.0,
			0.5832862854003906
		]
	},
	"layer_5": {
		"weight_0": [
			[
				-0.054419636726379395
			],
			[
				-0.33260074257850647
			],
			[
				-3.24572491645813
			],
			[
				0.13469156622886658
			],
			[
				-0.27541863918304443
			],
			[
				2.1164777278900146
			],
			[
				0.3638002872467041
			],
			[
				1.7940325736999512
			],
			[
				1.7782471179962158
			],
			[
				1.8039698600769043
			],
			[
				1.9528346061706543
			],
			[
				-0.0589868426322937
			],
			[
				2.052231550216675
			],
			[
				1.7272850275039673
			],
			[
				-0.3976491689682007
			],
			[
				-2.7005646228790283
			]
		],
		"weight_1": [
			0.5842058062553406
		]
	}
}