{
	"layer_0": {
		"weight_0": [
			[
				0.3257695138454437,
				0.025584585964679718,
				1.50786554813385,
				-0.48743537068367004,
				-0.2940257489681244,
				-0.1564359962940216,
				0.08084258437156677,
				0.034529801458120346,
				0.23928911983966827,
				0.29762232303619385,
				2.1889827251434326,
				6.174872875213623,
				0.31024113297462463,
				0.5120818614959717,
				1.2820595502853394,
				-0.2217782437801361
			],
			[
				-1.875653862953186,
				-0.09624692797660828,
				-0.31445616483688354,
				-1.1443884372711182,
				-0.43505018949508667,
				-0.38038334250450134,
				0.13749203085899353,
				-0.4914900064468384,
				-1.9383642673492432,
				-3.14066481590271,
				-0.3606610894203186,
				0.013883426785469055,
				-1.5210046768188477,
				-4.842595100402832,
				-10.268243789672852,
				-0.16917559504508972
			]
		],
		"weight_1": [
			0.6281164884567261,
			-0.019147945567965508,
			0.11534659564495087,
			1.606390357017517,
			0.0,
			0.0,
			-0.2251424640417099,
			-0.0031622746028006077,
			0.40764573216438293,
			0.3925418257713318,
			0.34425783157348633,
			0.2619622051715851,
			0.8413708806037903,
			0.2604580521583557,
			0.12178333848714828,
			0.0
		]
	},
	"layer_1": {
		"weight_0": [
			[
				0.7448065876960754,
				-0.013744592666625977,
				-0.0002772849693428725,
				0.3200874924659729,
				0.9321340918540955,
				0.07572843134403229,
				-0.15449345111846924,
				0.6503285765647888,
				0.629616916179657,
				0.26539871096611023
			],
			[
				-0.39685505628585815,
				-0.11791965365409851,
				0.39940762519836426,
				-0.07745036482810974,
				0.30394911766052246,
				-0.45359018445014954,
				0.10574126243591309,
				-0.08762992918491364,
				0.3334253132343292,
				0.35176199674606323
			],
			[
				0.23743917047977448,
				0.26168298721313477,
				0.5712975263595581,
				0.34040623903274536,
				0.72368323802948,
				0.26099348068237305,
				-0.3123878538608551,
				0.369751513004303,
				-0.2004852592945099,
				-1.102364182472229
			],
			[
				0.5367840528488159,
				-0.2356802225112915,
				-1.0910465717315674,
				0.3728596270084381,
				0.1379416584968567,
				0.11457222700119019,
				-0.3017633557319641,
				0.1172264814376831,
				0.6373966336250305,
				0.5079448223114014
			],
			[
				0.1374797821044922,
				0.40311163663864136,
				-0.1739298701286316,
				0.3508414626121521,
				0.3675481081008911,
				-0.21283236145973206,
				0.22399330139160156,
				-0.15083745121955872,
				0.11810898780822754,
				-0.33213406801223755
			],
			[
				-0.4695163667201996,
				-0.40833523869514465,
				0.3566276431083679,
				0.2582535743713379,
				-0.11681830883026123,
				0.02234184741973877,
				0.07921302318572998,
				0.09032052755355835,
				-0.4722284972667694,
				-0.03728252649307251
			],
			[
				0.3290790021419525,
				0.08401572704315186,
				-0.0835474357008934,
				-0.4152584969997406,
				-0.24116502702236176,
				-0.27491676807403564,
				0.2250741720199585,
				-0.20834091305732727,
				0.24904651939868927,
				-0.26023441553115845
			],
			[
				-0.016216948628425598,
				0.0877884030342102,
				-0.13166505098342896,
				-0.4354037344455719,
				-0.2642265558242798,
				-0.17494475841522217,
				0.18290680646896362,
				-0.2553980350494385,
				0.09599870443344116,
				-0.40760326385498047
			],
			[
				1.4382328987121582,
				-0.1377541720867157,
				-0.08494088053703308,
				0.4203338623046875,
				0.8331055045127869,
				-0.28810805082321167,
				-0.18349871039390564,
				1.5233975648880005,
				1.0858759880065918,
				-0.020998133346438408
			],
			[
				1.281911015510559,
				0.25586026906967163,
				0.836418092250824,
				-0.1970129907131195,
				1.5147068500518799,
				-0.5695687532424927,
				-0.17933213710784912,
				1.7041014432907104,
				1.0531463623046875,
				0.9413349032402039
			],
			[
				0.8587015867233276,
				-0.008750736713409424,
				0.12231986969709396,
				-0.3263316750526428,
				0.6747043132781982,
				0.22024989128112793,
				-0.3699924647808075,
				0.5907019376754761,
				-1.2060261964797974,
				-1.7099170684814453
			],
			[
				0.26673853397369385,
				-0.34382280707359314,
				0.19983729720115662,
				-0.49052631855010986,
				0.14725923538208008,
				0.6545333862304688,
				0.07232940196990967,
				0.5036734938621521,
				-1.2613848447799683,
				-2.820232629776001
			],
			[
				0.6936787366867065,
				-0.4531281292438507,
				-0.06236821785569191,
				0.30612853169441223,
				0.02247249335050583,
				0.05725026875734329,
				-0.37802213430404663,
				0.8967291712760925,
				0.3608334958553314,
				0.3072865903377533
			],
			[
				1.9150875806808472,
				0.2929930090904236,
				2.641477108001709,
				-1.3580279350280762,
				1.7087419033050537,
				-1.2669134140014648,
				-0.291480153799057,
				1.3217848539352417,
				-1.1171185970306396,
				1.360486388206482
			],
			[
				1.7803922891616821,
				0.010019302368164062,
				3.409327507019043,
				-2.670008420944214,
				1.8630046844482422,
				-1.7712491750717163,
				-0.020652294158935547,
				1.7057167291641235,
				-3.9626433849334717,
				-0.5275336503982544
			],
			[
				-0.05409088730812073,
				-0.07443472743034363,
				0.21330833435058594,
				-0.1170244812965393,
				0.36592429876327515,
				0.02610987424850464,
				0.020607709884643555,
				-0.300620436668396,
				-0.06651502847671509,
				0.3861510753631592
			]
		],
		"weight_1": [
			0.3569774627685547,
			0.0,
			-0.40705475211143494,
			0.35839107632637024,
			0.3220430016517639,
			0.3314133584499359,
			0.0,
			0.3556608259677887,
			0.22954535484313965,
			0.573800802230835
		]
	},
	"layer_2": {
		"weight_0": [
			[
				1.3740549087524414,
				1.1081352233886719,
				1.1236015558242798,
				-0.4522457718849182,
				0.9557158946990967,
				0.29415664076805115
			],
			[
				-0.5067873001098633,
				-0.5319818258285522,
				0.45014673471450806,
				-0.596071183681488,
				0.5822609066963196,
				-0.01041877269744873
			],
			[
				-0.4464143216609955,
				-1.2824974060058594,
				-0.8111507892608643,
				0.2820056676864624,
				-1.2446129322052002,
				-0.09696052223443985
			],
			[
				-1.6953918933868408,
				-1.9087443351745605,
				-1.9097115993499756,
				0.05568885803222656,
				-2.451094627380371,
				-0.3811308741569519
			],
			[
				1.4692121744155884,
				1.132655382156372,
				1.406541109085083,
				-0.41699105501174927,
				1.2291759252548218,
				-0.5375576019287109
			],
			[
				-1.6573008298873901,
				-1.6230175495147705,
				-1.0831102132797241,
				-0.32556775212287903,
				-1.620423436164856,
				-0.1630791574716568
			],
			[
				-0.5284873247146606,
				-0.32516226172447205,
				-0.14994969964027405,
				-0.3503909409046173,
				0.22361129522323608,
				0.43039435148239136
			],
			[
				0.9695702791213989,
				1.2791329622268677,
				0.9329889416694641,
				-0.4692396819591522,
				1.3132853507995605,
				0.10948266088962555
			],
			[
				-2.2071173191070557,
				-2.0995543003082275,
				-1.7494629621505737,
				0.5246095657348633,
				-1.5069562196731567,
				-0.1910255402326584
			],
			[
				-5.060718059539795,
				-5.385879993438721,
				-4.484882354736328,
				0.2081698179244995,
				-5.328217506408691,
				0.1556459665298462
			]
		],
		"weight_1": [
			0.43300873041152954,
			0.32279345393180847,
			0.4430014491081238,
			-0.010690199211239815,
			0.367175430059433,
			-0.23910042643547058
		]
	},
	"layer_3": {
		"weight_0": [
			[
				2.5181610584259033
			],
			[
				2.1938982009887695
			],
			[
				1.8286144733428955
			],
			[
				-0.7867251634597778
			],
			[
				2.8665058612823486
			],
			[
				-0.009062225930392742
			]
		],
		"weight_1": [
			0.44590499997138977
		]
	}
}