{
	"layer_0": {
		"weight_0": [
			[
				1.062109351158142,
				-0.3577274978160858,
				1.601380705833435,
				0.18092834949493408,
				-0.12785379588603973,
				1.4458506107330322,
				-0.1425984799861908,
				0.24876663088798523,
				0.3411695659160614,
				-0.2352575957775116,
				-0.20818999409675598,
				0.3899586498737335,
				-5.572793960571289,
				0.900847852230072,
				0.9483152031898499,
				-0.04640752077102661
			],
			[
				-1.0905249118804932,
				-0.4950169026851654,
				-0.2456260323524475,
				-0.3225032687187195,
				0.1883331686258316,
				-0.4801040589809418,
				-0.37956690788269043,
				-1.6188369989395142,
				-2.2677958011627197,
				-0.23212286829948425,
				0.029478512704372406,
				-3.912416934967041,
				-0.3566274344921112,
				0.007308188360184431,
				-8.645392417907715,
				-0.5245262384414673
			]
		],
		"weight_1": [
			0.4990236759185791,
			0.0,
			0.22978556156158447,
			0.0,
			-0.1924886852502823,
			0.4747759699821472,
			0.0,
			0.44948893785476685,
			0.28609204292297363,
			0.0,
			-0.032482266426086426,
			0.268591046333313,
			0.4864133894443512,
			-0.31606924533843994,
			0.13189813494682312,
			0.0
		]
	},
	"layer_1": {},
	"layer_2": {},
	"layer_3": {},
	"layer_4": {
		"weight_0": [
			[
				0.7373272776603699,
				0.05080944299697876,
				1.4475922584533691,
				0.14238682389259338,
				0.3487417697906494,
				-0.30619052052497864,
				-0.42475971579551697,
				0.14629027247428894,
				0.01522529125213623,
				0.8503162264823914
			],
			[
				0.6056184768676758,
				0.26023733615875244,
				0.8875975608825684,
				0.8725152611732483,
				0.5991984605789185,
				-0.2030354142189026,
				-0.6379119753837585,
				0.5670714378356934,
				-0.525862991809845,
				1.2918585538864136
			],
			[
				0.7679644823074341,
				-0.4024844169616699,
				0.1373799443244934,
				0.7749258875846863,
				0.9239765405654907,
				-0.11498555541038513,
				0.3450953960418701,
				0.9913815855979919,
				-0.043800532817840576,
				0.6600887775421143
			],
			[
				0.3529388904571533,
				0.16831307113170624,
				0.8821733593940735,
				1.3944780826568604,
				1.3103249073028564,
				-0.3557398319244385,
				0.2622685134410858,
				0.32920384407043457,
				-0.3111981451511383,
				0.5940020680427551
			],
			[
				0.556399941444397,
				-0.26039713621139526,
				2.9935216903686523,
				0.5548191666603088,
				0.2270336002111435,
				-0.5532979369163513,
				-0.23253658413887024,
				0.21530018746852875,
				-0.5477616190910339,
				0.4200133979320526
			],
			[
				0.49744707345962524,
				-0.051098406314849854,
				3.9707529544830322,
				0.3831901550292969,
				0.6510738730430603,
				0.07541763782501221,
				0.43710073828697205,
				1.0381786823272705,
				-0.06306260824203491,
				0.24682480096817017
			],
			[
				-1.2920511960983276,
				-0.4153731167316437,
				-2.8878042697906494,
				-1.8242188692092896,
				-1.635053038597107,
				-0.07731127738952637,
				-0.20075318217277527,
				-1.9034186601638794,
				-0.4992249011993408,
				-2.161079168319702
			],
			[
				4.054202079772949,
				0.5354186296463013,
				3.826167345046997,
				3.2876930236816406,
				3.664240837097168,
				0.12199407815933228,
				-0.18574674427509308,
				3.5830368995666504,
				0.4456632137298584,
				3.7439067363739014
			]
		],
		"weight_1": [
			0.27502530813217163,
			-0.09710442274808884,
			-1.1647071838378906,
			0.2811717092990875,
			0.21943210065364838,
			0.0,
			-0.06871791183948517,
			0.287819504737854,
			0.0,
			0.3444749116897583
		]
	},
	"layer_5": {
		"weight_0": [
			[
				0.018390823155641556,
				-0.5480471253395081,
				1.615366816520691,
				-0.042974743992090225,
				1.4424322843551636,
				-0.43973976373672485
			],
			[
				-0.0822892114520073,
				0.23992818593978882,
				-0.30486661195755005,
				0.35061681270599365,
				0.023350823670625687,
				-0.31698843836784363
			],
			[
				0.08991079032421112,
				0.37702128291130066,
				4.905142784118652,
				0.3980555236339569,
				4.698832988739014,
				-0.4009573459625244
			],
			[
				-0.3535725176334381,
				-0.5981971025466919,
				1.8308849334716797,
				-0.32747316360473633,
				1.3121185302734375,
				-0.5613850355148315
			],
			[
				0.49068713188171387,
				-0.18836885690689087,
				1.8092541694641113,
				-0.4979621469974518,
				1.571977972984314,
				-0.07924898713827133
			],
			[
				-0.0022843480110168457,
				-0.3520892262458801,
				0.569087564945221,
				-0.3961349427700043,
				0.6096231341362,
				0.3649289608001709
			],
			[
				-0.016306357458233833,
				-0.08373576402664185,
				-0.4817868173122406,
				-0.5021501183509827,
				-0.36266854405403137,
				0.036175306886434555
			],
			[
				-0.17418795824050903,
				-0.4339708983898163,
				1.749954342842102,
				0.21767470240592957,
				1.7140977382659912,
				0.48275136947631836
			],
			[
				0.4591982960700989,
				-0.2884611189365387,
				0.12073129415512085,
				-0.03000098466873169,
				0.44381028413772583,
				0.38058072328567505
			],
			[
				-0.26143619418144226,
				-0.09028887003660202,
				1.6580986976623535,
				0.04114989563822746,
				1.421937108039856,
				-0.44578883051872253
			]
		],
		"weight_1": [
			-0.09705844521522522,
			0.003162239445373416,
			0.3095265328884125,
			-0.01401666272431612,
			0.18162116408348083,
			-0.01259669940918684
		]
	},
	"layer_6": {
		"weight_0": [
			[
				-0.4231531322002411
			],
			[
				0.031210219487547874
			],
			[
				1.8964593410491943
			],
			[
				-0.23391924798488617
			],
			[
				1.8063658475875854
			],
			[
				-0.8600138425827026
			]
		],
		"weight_1": [
			0.3122902810573578
		]
	}
}