{
	"layer_0": {
		"weight_0": [
			[
				0.8595035076141357,
				-0.4878675639629364,
				2.667731523513794,
				1.8498963117599487,
				-0.3922384977340698,
				0.4494308829307556,
				0.39772120118141174,
				0.018716193735599518,
				2.9150636196136475,
				1.3633016347885132,
				0.014236995950341225,
				0.08955271542072296,
				-0.36764341592788696,
				2.4559223651885986,
				1.9652047157287598,
				1.3184202909469604,
				0.24722637236118317,
				-0.9900408387184143,
				0.3115573525428772,
				1.810434341430664
			],
			[
				-1.3973113298416138,
				-0.1799333095550537,
				-6.074210166931152,
				1.4147005081176758,
				-1.003354549407959,
				-0.03927277401089668,
				-1.7517095804214478,
				-0.39753228425979614,
				-13.092367172241211,
				1.4205000400543213,
				0.07115830481052399,
				-0.304867148399353,
				0.10765105485916138,
				0.9938861131668091,
				-2.9580531120300293,
				1.2382758855819702,
				-0.5354939103126526,
				1.5675816535949707,
				-0.10105246305465698,
				0.2482272982597351
			]
		],
		"weight_1": [
			0.661213755607605,
			0.0,
			1.8216774463653564,
			1.2682957649230957,
			0.9281584024429321,
			-0.037812378257513046,
			0.40776023268699646,
			-0.0031602613162249327,
			1.381805181503296,
			1.0948834419250488,
			-0.08699630200862885,
			-0.05429251492023468,
			-0.11080105602741241,
			-0.3005492687225342,
			1.0710119009017944,
			0.4901009202003479,
			-0.18113499879837036,
			1.2241520881652832,
			0.0,
			0.0011253890115767717
		]
	},
	"layer_1": {},
	"layer_2": {},
	"layer_3": {},
	"layer_4": {
		"weight_0": [
			[
				-0.47525298595428467,
				-0.2710322141647339,
				-0.3024018704891205,
				0.6852512955665588,
				-0.3623894155025482,
				-0.06970857083797455,
				1.1579270362854004,
				-0.3096430003643036,
				0.6036703586578369,
				-0.4047320485115051,
				0.33042722940444946,
				-0.48433950543403625,
				0.8269223570823669,
				-0.35819220542907715,
				0.20315057039260864,
				0.37845659255981445
			],
			[
				-0.11630548536777496,
				-0.4545503556728363,
				0.33109092712402344,
				-0.3730877637863159,
				0.940514326095581,
				-0.03620116412639618,
				0.8738510608673096,
				-0.1875685751438141,
				-0.03747465834021568,
				-0.27960658073425293,
				-0.1569696068763733,
				-0.2575402855873108,
				1.4387469291687012,
				-0.11223116517066956,
				0.1776319444179535,
				1.4193134307861328
			],
			[
				-0.27611422538757324,
				-0.20202428102493286,
				-1.254037618637085,
				0.08127590268850327,
				0.13561677932739258,
				0.22889553010463715,
				0.454434335231781,
				0.3621799349784851,
				0.7319047451019287,
				-0.35939282178878784,
				0.38123300671577454,
				-0.31826895475387573,
				0.38812658190727234,
				0.28170520067214966,
				0.33818644285202026,
				-0.11417010426521301
			],
			[
				0.09929221868515015,
				0.4395955502986908,
				1.2484211921691895,
				0.6750974059104919,
				1.0433696508407593,
				-0.24925833940505981,
				1.6215685606002808,
				-0.15675316751003265,
				-0.4002569317817688,
				0.15641969442367554,
				-0.24929270148277283,
				-0.09487733244895935,
				0.6506173610687256,
				0.05650866776704788,
				0.03357281908392906,
				1.086474061012268
			],
			[
				0.37898656725883484,
				0.028797490522265434,
				-0.01202898658812046,
				-0.535390317440033,
				2.323276996612549,
				0.4610104262828827,
				2.082857608795166,
				0.02957289293408394,
				-1.4843120574951172,
				-0.09936994314193726,
				-0.22686313092708588,
				-0.2240399718284607,
				2.288487434387207,
				0.29392269253730774,
				-0.05660257861018181,
				2.0118446350097656
			],
			[
				0.058406710624694824,
				-0.26365500688552856,
				0.02743786945939064,
				-0.17548257112503052,
				-0.45537206530570984,
				0.28237611055374146,
				-0.3704954981803894,
				0.33711665868759155,
				-0.4530712068080902,
				0.1453406810760498,
				-0.3777163028717041,
				-0.4070385992527008,
				-0.3823026418685913,
				0.35801661014556885,
				0.1700351983308792,
				-0.17181789875030518
			],
			[
				-0.8655692934989929,
				-0.10830419510602951,
				0.5891340970993042,
				-0.05040307715535164,
				-3.2185003757476807,
				0.45723432302474976,
				-1.9858514070510864,
				-0.1687697023153305,
				2.945528745651245,
				-0.18154707551002502,
				-0.4744880199432373,
				0.040432751178741455,
				-2.078690528869629,
				0.40632882714271545,
				-0.15496696531772614,
				-2.144737958908081
			],
			[
				0.2217964082956314,
				0.3054906725883484,
				0.08936260640621185,
				0.014275346882641315,
				0.620147705078125,
				-0.30074119567871094,
				0.8614941835403442,
				0.47822219133377075,
				0.15353673696517944,
				-0.42888879776000977,
				0.14415837824344635,
				0.3716725707054138,
				1.1428149938583374,
				0.3721254765987396,
				-0.2854154407978058,
				1.2219499349594116
			],
			[
				-0.2677452266216278,
				-0.15749067068099976,
				-0.8029540777206421,
				0.8282111287117004,
				-2.364034414291382,
				0.38998177647590637,
				-2.643340826034546,
				-0.1521085649728775,
				1.455965518951416,
				-0.3672215938568115,
				-0.30324897170066833,
				-0.2824401557445526,
				-2.442216634750366,
				0.3755005896091461,
				0.31003671884536743,
				-2.610166549682617
			],
			[
				-0.7306933999061584,
				0.1730758398771286,
				0.33208757638931274,
				-3.908295154571533,
				0.7005417943000793,
				-0.10345610976219177,
				0.029994113370776176,
				0.08343980461359024,
				-0.18140225112438202,
				-0.3797362148761749,
				-0.4872523844242096,
				0.2292138934135437,
				0.5290141701698303,
				-0.4020877480506897,
				-0.3558788597583771,
				0.2958272099494934
			]
		],
		"weight_1": [
			-0.03165425360202789,
			-0.00731874443590641,
			-0.6817063093185425,
			1.7948780059814453,
			-0.44319599866867065,
			-0.20033670961856842,
			-0.25600266456604004,
			0.07946436107158661,
			1.1343554258346558,
			0.0,
			-0.028122542425990105,
			-0.0670098066329956,
			-0.3128412663936615,
			-0.04106326028704643,
			-0.016711927950382233,
			-0.35779431462287903
		]
	},
	"layer_5": {},
	"layer_6": {},
	"layer_7": {},
	"layer_8": {
		"weight_0": [
			[
				0.2431124597787857,
				0.06805431097745895,
				0.21936307847499847,
				0.07407820224761963,
				0.41402891278266907,
				-0.21171408891677856
			],
			[
				-1.7536602020263672,
				-0.17199894785881042,
				-2.3292462825775146,
				-0.17858175933361053,
				-0.3567782938480377,
				1.6453044414520264
			],
			[
				2.7780661582946777,
				-0.14862628281116486,
				3.248727560043335,
				0.5337685346603394,
				0.31382057070732117,
				1.8797154426574707
			],
			[
				1.15958571434021,
				-0.7655516266822815,
				1.0953881740570068,
				-0.30165350437164307,
				-0.16167104244232178,
				-1.9217559099197388
			],
			[
				-3.0915536880493164,
				-0.5995566844940186,
				-2.80971097946167,
				-0.30670222640037537,
				-0.6165400743484497,
				-1.390787124633789
			],
			[
				-0.3857851028442383,
				0.24400025606155396,
				-0.5212850570678711,
				0.1443302035331726,
				-0.6458066701889038,
				-0.42380034923553467
			],
			[
				1.5004186630249023,
				0.1801735907793045,
				1.3936176300048828,
				-0.37450066208839417,
				-0.2223905771970749,
				-0.08536440134048462
			],
			[
				2.022264003753662,
				0.38815072178840637,
				1.8613022565841675,
				0.1912185549736023,
				0.19958797097206116,
				0.35688328742980957
			]
		],
		"weight_1": [
			-0.27624204754829407,
			-0.12416332215070724,
			-0.48056739568710327,
			-0.0031622773967683315,
			-0.2762795090675354,
			0.32662254571914673
		]
	},
	"layer_9": {
		"weight_0": [
			[
				2.555880308151245
			],
			[
				-0.5197603106498718
			],
			[
				2.1549766063690186
			],
			[
				-0.3153994083404541
			],
			[
				-0.5563742518424988
			],
			[
				-13.797118186950684
			]
		],
		"weight_1": [
			-0.24878038465976715
		]
	}
}